svm_type c_svc
kernel_type rbf
gamma 0.000244141
nr_class 2
total_sv 214
rho 0.888928
label 1 0
probA -4.48519
probB -1.04271
nr_sv 87 127
SV
0.09086468408938576 9:6.1514845 16:0.17618889 19:2.2395308 27:0.071702391 33:1.4014599 39:3.9821439 40:6.2542763 49:0.35355577 54:1.0827519 55:0.28863186 73:1.655766 77:2.0469124 87:1.4465926 90:1.788928 91:2.0778012 105:4.1643047 106:0.56462049 107:3.0128467 112:0.093865216 122:1.4745364 123:3.5108628 125:7.4229407 126:0.75844222 147:4.3615618 150:1.9152586 159:7.9228168 164:2.1809704 167:0.90863347 172:5.8445272 179:0.58050388 181:2.11502 182:3.0100367 190:2.7985985 196:1.3761866 200:3.5889165 210:6.6741967 214:0.43628567 217:0.67610097 220:0.069119573 221:1.3797655 222:0.015229732 235:0.74727392 236:0.74310035 238:1.2464726 240:2.1722865 241:2.6957073 242:3.4250982 247:5.3426557 252:5.0120702 262:1.3594036 269:2.8775291 276:2.9761534 283:0.83666837 288:0.66799295 295:6.5690327 297:1.4578 300:6.3312378 324:5.1864057 326:4.0051532 329:2.6706443 333:0.69617206 335:0.19402835 341:3.7536273 348:0.53449017 349:1.3923196 350:2.7245355 354:0.044373274 360:0.32828066 365:1.7521007 373:0.75967652 374:0.1507819 378:2.2712586 379:2.15576 384:0.75354844 385:1.3001127 387:1.0667272 391:0.16716895 399:4.0564756 401:0.27570689 413:0.035504699 416:0.78915107 425:1.7585942 431:3.2632732 434:1.1559982 442:1.4194793 448:2.762778 451:2.2016854 466:2.4742215 468:4.3280988 469:0.72522557 473:0.80075204 481:1.6523682 484:0.45061246 500:4.0312963 504:1.471544 505:1.744983 508:0.35757652 509:0.40922338 517:0.26974067 524:3.9241514 529:1.2687759 532:2.2450593 538:1.3005009 545:9.2944279 555:1.264505 559:3.1638615 567:4.9538355 583:2.108043 592:1.3125064 606:2.5053544 608:1.5559442 612:2.4568691 614:3.3560534 615:0.33339861 618:1.4684923 620:2.1156793 621:0.069603205 625:0.03626892 631:0.80049872 635:2.3392844 638:2.6350546 651:1.907418 653:0.88130236 657:4.7030807 670:1.5510913 675:1.0993953 676:3.0138569 687:7.2213802 692:0.4530929 698:3.1179359 701:1.0667193 705:6.6517487 706:4.429605 721:3.9488623 723:3.4450569 725:0.14749897 728:0.951693 729:5.9299145 747:1.1479861 748:2.5328438 751:2.3880734 752:0.15139219 764:1.8741567 773:0.72335136 777:3.138787 778:1.7410606 780:0.3579725 782:4.7934761 792:0.28722179 794:5.2837391 795:0.62965804 798:5.07096 804:0.18664463 808:3.2632191 812:2.3086805 814:3.8878019 816:0.50228202 817:1.1797656 837:1.2156572 838:0.022650898 840:2.1270463 853:3.3042297 854:1.6154335 855:1.0952196 857:2.0488474 858:0.46322066 866:0.87696916 883:1.0826991 887:0.32465735 893:0.47529507 894:3.4993749 896:1.3012501 902:2.2051866 904:2.3928721 905:1.8737305 908:1.694013 910:2.8673544 918:1.6903806 920:0.50643551 922:0.31642881 927:0.95234448 928:1.4878874 932:1.041687 942:0.84894645 943:0.63552582 945:3.0704763 953:1.7255751 956:1.6838068 957:5.8829522 960:1.1264079 965:2.9349499 974:5.0022817 976:4.4185152 979:2.1309338 980:3.0012162 983:4.1869783 988:1.8295786 994:1.9261686 996:1.4367563 1014:2.9813423 1016:0.65270472 1021:0.96894407 1024:3.2940977 1026:0.44141904 1043:3.7979841 1047:3.5372493 1058:2.3376787 1060:1.4640532 1065:0.19902173 1070:0.99799776 1071:0.098201461 1075:1.3625885 1077:3.6438262 1084:0.052036285 1091:0.10065866 1095:2.0744388 1111:2.4382875 1113:4.4568124 1121:0.13378212 1125:3.0411696 1130:5.250556 1135:1.1178288 1138:0.6389116 1157:2.1023281 1159:0.62804133 1165:1.0831453 1166:0.76315838 1168:1.8156178 1169:0.98760688 1174:0.94312704 1175:2.8800189 1180:1.0683117 1185:0.13118565 1187:0.0094873756 1193:3.0549753 1195:1.2126926 1199:2.2090354 1206:3.4590936 1208:3.3294938 1217:1.0538123 1219:4.4221845 1220:5.4968243 1223:1.4242997 1226:2.7632973 1227:6.2731428 1237:0.12150693 1242:4.5200086 1251:2.3281393 1252:1.7169645 1261:0.025066815 1278:2.2213743 1279:1.4734278 1281:2.173058 1284:0.34905356 1286:1.2159789 1293:0.3919906 1308:0.37854522 1310:1.6685194 1314:0.18122298 1317:2.1798882 1319:2.9055061 1332:0.23311508 1335:0.58437777 1336:4.7538571 1341:6.1960435 1355:1.6772499 1369:6.0761271 1372:0.27868605 1377:4.3346229 1378:0.098351225 1381:5.3942351 1383:0.74207079 1389:0.085101068 1392:1.9657927 1397:1.3727489 1402:2.7530766 1406:5.2243023 1408:4.6604829 1409:3.9357147 1411:0.50315702 1412:1.9105141 1424:2.1762161 1426:1.1303757 1430:0.46472365 1437:0.1279088 1454:1.4285448 1456:4.9173441 1464:2.5620422 1465:1.7538244 1469:0.29824606 1475:3.55687 1476:4.7364039 1482:0.65938842 1483:1.8440187 1484:5.6171947 1487:0.38059875 1489:1.1488094 1502:5.5076575 1505:0.082831591 1510:2.063257 1520:3.2666888 1522:0.15760857 1523:6.311213 1526:1.6364393 1540:2.3551302 1541:3.5035739 1544:4.3993378 1546:6.3320227 1548:2.0602732 1550:0.09591765 1567:5.5564194 1570:0.39817736 1572:2.4532073 1574:1.1838608 1580:0.042582452 1586:2.1690581 1587:5.1802516 1588:3.3284972 1597:4.0541244 1602:1.6332512 1604:1.329926 1605:2.7034745 1610:2.3427873 1613:0.31475717 1617:9.2330151 1618:0.52002889 1624:1.4079323 1645:0.96662807 1647:2.7237539 1648:0.21042576 1661:3.8049049 1667:0.078939378 1670:1.8860688 1678:0.79516375 1683:0.60852617 1691:2.3426507 1694:0.28011876 1697:2.4228511 1704:1.8966831 1712:1.2189066 1720:5.105011 1726:3.6856701 1730:2.7040393 1731:0.75975108 1732:0.011559963 1738:1.1446935 1742:2.1511352 1747:0.020601869 1750:3.0937989 1754:0.3104738 1758:0.77993649 1759:2.3385899 1761:1.5742114 1762:3.7342877 1768:0.37726316 1775:0.57030988 1778:2.8717022 1782:3.3523929 1790:0.27055466 1792:1.2140077 1795:0.55440986 1802:1.6962976 1804:3.0965743 1806:8.0617409 1813:5.7861323 1817:0.31701973 1822:1.8229185 1831:3.435477 1842:2.669425 1845:2.207629 1846:6.7871675 1848:0.58665347 1849:5.1831546 1854:5.7916169 1858:5.0079451 1860:0.13416782 1861:3.1153312 1868:2.7864246 1877:0.74438834 1880:6.1340008 1889:7.0488234 1893:2.2680161 1898:3.1199577 1900:4.291472 1901:2.3424454 1905:1.6510571 1906:0.71600628 1907:0.4199217 1908:2.3671 1923:1.3721375 1925:0.60104179 1928:4.731842 1940:1.9486725 1960:3.9239602 1972:0.17687836 1974:0.58991736 2004:2.9573662 2009:6.0982876 2026:2.9024487 2032:1.547017 2038:0.17475823 2048:5.9461875 2055:0.52069914 2057:4.5900068 2066:2.9529376 2070:3.7242966 2083:1.0535815 2095:2.5012481 2099:1.2225066 2102:3.6766531 2110:0.15131694 2127:1.8681307 2136:0.45196572 2137:1.8489158 2144:3.1659052 2146:3.6272845 2153:3.2845089 2164:5.487608 2177:6.2307372 2186:2.4540498 2188:2.8233957 2189:5.0751419 2190:1.0392098 2196:1.48317 2199:1.8080022 2200:0.56493866 2206:0.42787454 2215:0.48561463 2226:0.64094484 2229:1.1440072 2232:2.5669377 2235:2.9516296 2236:5.5335307 2239:0.27652487 2241:1.381253 2245:1.2115963 2248:0.58691067 2254:2.5763378 2259:0.41963241 2262:0.20163058 2271:3.6165352 2273:1.0735331 2283:3.3432593 2284:0.46882743 2294:0.63716006 2300:0.31692633 2311:3.5625515 2312:4.0294681 2313:1.0121949 2314:1.0345482 2315:1.4613028 2317:0.33635145 2324:1.54267 2329:0.5902403 2340:0.92643726 2343:4.6818461 2357:0.69716156 2369:0.10389838 2372:1.9129019 2376:0.63623285 2383:1.4704756 2390:2.0102692 2395:1.0143797 2399:0.9285748 2404:0.57136661 2416:4.7478323 2419:0.655173 2423:2.5559075 2424:3.08639 2428:4.6741223 2432:1.9910688 2435:3.335809 2439:1.8963869 2444:1.6196022 2453:1.3535805 2459:0.7966131 2460:3.0186484 2481:0.55772972 2482:0.46486241 2485:3.8624582 2486:1.5393236 2509:3.4167585 2518:2.2394128 2526:2.4779334 2528:1.2292715 2530:0.84184712 2531:1.5648348 2537:2.4248452 2545:1.3962992 2551:2.6499672 2561:8.5561056 2563:1.0517799 2572:0.51163751 2576:4.5316825 2577:2.3098531 2586:2.414957 2588:0.29966867 2589:3.666235 2594:0.72084528 2599:2.1459575 2601:6.3444695 2603:0.13684943 2604:2.713145 2610:9.1026649 2611:0.018282115 2619:0.33155659 2623:2.8964901 2628:4.506321 2629:1.7166913 2634:0.99235463 2645:0.52516502 2667:1.5440923 2670:2.7070746 2682:3.650445 2687:2.907403 2688:3.1608877 2689:2.4660273 2708:4.696588 2715:3.1209011 2720:2.6156321 2721:5.0536122 2723:0.79562223 2726:3.0409617 2732:2.0653987 2743:2.3628006 2744:0.51716006 2745:0.29513288 2759:0.87119865 2760:1.2940679 2761:0.27993032 2763:0.12553731 2765:1.5577757 2766:1.5500474 2771:4.1518168 2777:1.5424404 2784:2.5862608 2786:0.71862823 2792:0.32114524 2793:2.7210102 2812:0.64131844 2814:5.3618836 2817:0.91649365 2819:1.5917344 2825:0.86298954 2834:4.8954592 2835:2.5804644 2838:0.11313593 2841:2.9044886 2848:1.4520081 2857:0.23644884 2867:2.3524055 2872:2.7222061 2873:2.1621056 2874:0.66362983 2879:3.8177686 2888:1.111658 2892:0.036774859 2894:4.2842646 2895:1.8199065 2896:0.97211456 2903:0.3517814 2909:0.24962932 2910:0.0075655878 2913:1.384914 2916:1.8710401 2920:0.092744149 2926:0.27742267 2945:4.5550485 2949:2.1547055 2950:3.7526681 2957:1.1141878 2961:1.8030845 2962:1.7039315 2966:5.2389507 2977:0.079173684 2991:0.93205947 2993:5.9844375 2997:0.33021522 3010:3.1120465 3021:1.8291676 3024:0.075156063 3036:7.4066501 3043:3.7300766 3050:2.1127248 3051:0.75639069 3052:4.5212455 3061:0.30347905 3066:1.4959521 3068:0.97603714 3072:6.5062208 3075:2.2489505 3079:7.3962541 3080:3.78215 3088:0.56430495 3094:0.7714107 3095:1.4135107 3105:8.2308578 3116:2.0959399 3119:2.5816493 3124:2.0115063 3129:1.5091221 3134:0.87968355 3139:0.5199526 3141:0.22088802 3144:0.52093977 3145:0.50642312 3146:4.8092637 3148:2.9502339 3151:2.0981669 3155:0.48295105 3160:4.4496546 3163:4.5407887 3177:1.0316378 3183:2.7341528 3184:5.1700039 3191:1.7071958 3192:0.55580807 3195:0.91421503 3197:2.3643317 3199:3.5976501 3215:3.405302 3233:0.21861729 3237:0.9003396 3241:0.73558867 3242:2.3222122 3251:0.41692671 3255:0.15323287 3257:2.9787812 3269:0.7655375 3282:4.0101085 3285:1.1033586 3286:2.6265588 3291:0.058364987 3293:0.97950971 3294:0.58677769 3296:1.5380484 3311:0.36893302 3315:1.5018535 3321:3.8628533 3324:5.6182394 3335:4.4693255 3338:2.3849881 3341:1.1167989 3347:2.2487361 3349:5.6346135 3365:3.7495139 3366:1.2239014 3377:1.5462576 3378:9.0380278 3379:1.1297984 3387:1.4613718 3390:0.92875493 3396:0.67797387 3397:2.6621823 3402:0.22367752 3413:0.55876893 3416:0.96508098 3418:1.1309794 3425:0.97979552 3426:4.9219618 3431:0.95501363 3442:2.9498022 3443:0.88672221 3445:4.470439 3452:4.6413851 3456:3.7100534 3467:1.6079754 3474:0.10721137 3478:3.9160254 3485:0.95528495 3488:0.92445016 3490:1.5140841 3496:1.6409607 3503:0.66336167 3504:4.0774016 3508:0.74761593 3509:3.0875597 3513:0.044891626 3516:0.56293243 3520:0.93223059 3527:1.9868574 3539:0.49281719 3540:0.16631278 3543:1.5360105 3544:0.8182953 3547:0.61113495 3548:0.73740232 3549:1.991071 3551:1.0137085 3553:0.42934069 3555:4.6432571 3562:1.5274174 3568:2.604645 3578:2.6255925 3580:0.90626442 3585:3.2724144 3598:1.1331403 3602:0.2945413 3604:1.3035989 3615:0.45033243 3617:1.6415012 3621:1.2536522 3625:0.48504862 3626:1.1285434 3627:0.97246349 3638:3.1754596 3644:3.2246399 3661:0.17137489 3663:1.4349221 3664:0.73838341 3665:0.12990078 3667:2.7259073 3679:2.1883993 3683:3.4658031 3687:1.1290109 3690:2.1565313 3699:4.0839415 3703:1.3157694 3719:3.2861097 3720:1.7879167 3731:0.83296454 3732:1.964987 3734:1.753623 3751:3.1615782 3756:2.5054879 3758:0.81488931 3771:0.78059709 3777:0.50998616 3778:0.59607011 3785:2.86696 3789:0.078693718 3795:0.059415877 3805:0.38596642 3811:1.9257424 3819:1.160593 3824:0.47597119 3826:3.3053634 3837:1.7305133 3845:2.7577958 3846:3.2902803 3847:0.074090257 3848:2.4898291 3860:1.571872 3866:0.028273582 3867:1.2439418 3872:4.802474 3877:5.1557522 3878:1.355796 3886:2.4015293 3889:2.4538121 3891:3.9140303 3901:3.079479 3903:3.1119287 3907:0.053299069 3910:0.61535782 3911:4.1817269 3913:2.1240084 3915:0.62742323 3923:3.7428484 3925:1.2927971 3929:0.48813251 3941:4.2966657 3957:3.6500895 3964:0.00090706348 3974:0.18733338 3977:1.0980974 3984:2.3921087 3986:0.065974385 3988:5.1276937 3990:2.7670336 4002:2.5310335 4003:0.24450642 4007:0.011519834 4010:1.8488055 4016:1.3280004 4021:0.045088291 4029:0.72027361 4033:5.0429211 4036:5.8551731 4041:1.9273182 4042:2.0206521 4043:1.2521019 4055:0.16639543 4058:0.17831773 4063:0.37331855 4067:0.02764152 4071:1.6792113 4072:1.0810418 4073:0.06222406 4074:1.5826733 4084:1.6104602 4085:0.044937313 4089:4.4321351 4093:2.3255107 
0.7670925762022198 9:4.4744883 19:2.2667003 27:1.5230626 33:0.98994899 40:3.9008629 54:1.9082718 68:0.37761647 73:1.5087905 77:3.8516605 84:2.0746288 87:1.4410504 91:2.1249213 105:3.6644263 107:1.7456794 121:0.13664472 123:2.3007257 125:5.11063 126:0.78137863 128:0.025579631 145:1.7266427 147:5.4475226 156:0.013842501 159:5.9845138 160:1.3458253 164:3.2627108 167:3.1537466 172:7.5548496 179:0.020239905 181:0.430372 182:1.687714 190:4.898664 196:1.2374864 200:5.5683398 210:7.8323755 214:0.42156494 217:0.80790639 221:2.8465519 224:0.75485963 238:1.4843985 241:2.4333158 242:4.0942473 247:7.3706584 252:4.2855096 262:0.36843571 269:0.85919821 271:0.57562917 274:0.16349256 278:2.8791039 283:0.30214494 288:2.1168404 295:4.0802455 297:3.8089497 300:5.2667861 312:1.7210102 324:4.9506583 326:4.904284 329:2.6521468 335:1.151603 341:2.6829982 348:0.91572577 349:3.192807 350:2.886759 360:1.7373428 365:3.1728494 367:0.33732718 379:1.6631458 382:0.19389784 384:2.9182913 385:2.11918 391:3.3346369 396:0.36032873 399:1.9148402 410:0.20508146 412:0.53395748 416:0.62574375 420:0.0031909347 425:1.3967515 431:3.900564 432:0.19153684 434:2.2399504 442:0.60652137 448:2.8573644 451:2.061352 460:1.9007965 463:0.097243011 466:3.4331284 468:2.5514326 469:1.4941888 473:0.10010862 481:0.21091098 484:1.9041388 488:0.047680795 500:4.693285 503:1.6687906 504:0.012514144 505:3.0327852 508:1.250051 509:1.7162414 517:0.55441707 524:2.6985154 529:0.14266491 532:4.4329042 538:0.801117 545:7.9393415 555:1.0921209 559:2.2867019 562:0.89132142 567:4.1185131 573:0.47220457 575:2.3698766 576:0.33688885 577:2.0402489 578:0.06469357 583:2.5413504 592:0.47994998 601:1.4594578 606:3.014255 608:0.19815677 612:2.477334 615:0.56638861 618:2.9907579 620:0.97531563 625:0.90848291 631:1.4181807 635:2.8884473 638:1.7950516 642:1.2237307 651:1.480526 653:2.9398272 657:5.6422944 670:1.0067482 672:1.4440567 675:0.96690398 679:0.012809128 680:0.31899971 682:0.41301209 687:5.0902972 691:0.93159634 698:3.194268 705:6.5481339 706:4.5034075 711:0.35720459 721:3.374975 723:4.8523426 725:0.90145594 729:4.6808071 735:0.54111946 748:1.9361542 749:0.40147144 751:0.63311446 777:4.9749293 780:0.83999056 782:3.6247668 792:2.8098576 793:2.2441998 794:4.3697686 795:1.5286965 798:2.5744007 808:0.18189096 812:4.2717118 814:3.0364683 817:0.88529164 823:0.18606624 826:1.4271426 839:0.70405918 840:0.41300803 841:2.4437268 842:0.34154823 853:1.4627291 854:2.0784094 855:0.60406339 857:1.502782 858:0.34506273 866:1.323876 868:0.26657918 874:0.037790701 883:1.7794399 889:1.48114 894:2.1019244 902:1.6414049 905:3.611424 912:1.5188802 916:2.4938834 918:2.7830651 920:0.62495542 922:2.8746374 927:1.4289197 928:3.4428148 932:0.076983601 942:1.2110999 943:0.2196936 945:5.0171051 952:0.1812093 953:1.099677 956:1.0762302 957:4.6452289 958:0.36313292 960:0.57103378 965:3.6167028 974:5.9467311 976:5.0965405 979:4.0014381 980:0.23444287 983:1.2717382 988:0.15037957 989:1.3354081 993:0.72830594 994:0.57848465 996:0.11763519 1014:5.7951188 1021:2.5959735 1024:3.4030411 1026:0.32340744 1043:3.0659513 1046:0.41034067 1047:3.8591933 1058:1.0923505 1060:0.10533524 1071:0.01886297 1075:0.62008107 1077:2.8758714 1078:0.99665749 1080:1.0341582 1092:1.0809987 1095:1.4694147 1096:0.40046227 1111:2.1688499 1113:3.5852518 1117:0.28831097 1125:1.5714204 1130:6.2464023 1135:0.99881798 1138:0.67970872 1157:1.0601377 1159:1.8314972 1163:0.73539859 1165:0.69358873 1168:1.9140599 1169:2.7293038 1174:0.15711713 1175:3.6579387 1185:0.96509498 1192:1.1800115 1193:2.6052063 1199:0.87076795 1206:3.7773378 1208:2.9981453 1217:0.467913 1219:2.454294 1220:5.7099199 1223:0.063215613 1226:0.005135715 1227:8.5249214 1234:0.18509652 1236:0.94948792 1242:5.6221423 1251:1.0549327 1252:4.2448416 1261:2.0326128 1271:0.2679674 1278:5.15762 1279:2.298883 1281:2.1668847 1286:3.8359149 1293:1.1426442 1299:0.7834419 1310:0.74246085 1317:2.8606052 1319:3.8066912 1335:2.4836154 1336:4.6669698 1341:5.5431447 1352:0.39826593 1355:1.5253084 1361:0.81398112 1365:0.22621375 1369:5.1518211 1372:1.5107355 1377:1.4562254 1378:1.8100553 1381:2.7154346 1389:0.69806272 1392:2.1029537 1396:0.73495561 1397:2.708662 1402:0.97210371 1406:5.8048048 1408:1.7810771 1409:5.4691157 1411:0.54807961 1412:1.3324034 1419:1.4286487 1426:0.14261979 1430:1.2490697 1432:0.52131706 1437:1.1678026 1448:1.6991194 1456:3.2940011 1464:1.4815807 1465:2.3563223 1467:1.9171355 1474:2.4145133 1475:1.2255226 1476:5.6162815 1483:2.8989534 1484:5.3208451 1487:0.36977932 1489:1.3936954 1495:0.89461863 1502:3.469651 1510:2.3686347 1513:0.34658951 1520:4.6800289 1523:4.8835144 1526:1.7705021 1540:1.176579 1541:3.7372406 1544:4.0270505 1546:6.2695251 1548:1.6843213 1567:4.1194134 1569:0.91064012 1572:1.8393302 1574:1.6044387 1580:1.029827 1586:2.8410432 1587:3.4834166 1588:3.4432652 1597:4.5908961 1598:0.68577921 1600:0.07277149 1602:0.90126061 1604:3.2161407 1605:5.4896207 1610:2.2173026 1613:4.1575394 1617:6.0661659 1618:0.89454085 1624:1.3218334 1625:0.67259556 1636:1.1347139 1647:2.0275662 1648:0.61088049 1661:5.7121506 1667:2.1345913 1670:2.0372918 1678:1.5342457 1683:2.4042542 1691:1.1515977 1694:0.44951546 1696:0.87339777 1704:3.5848885 1712:1.7380836 1720:3.6863801 1726:2.7264197 1730:0.76153666 1732:1.2547058 1737:0.54916018 1738:0.33262673 1742:0.58470106 1750:1.1507223 1753:0.15969393 1754:1.9542007 1758:3.1773202 1761:0.32286149 1762:4.5447097 1778:3.9290075 1782:3.1282558 1790:0.20766073 1792:0.70303953 1795:1.5814306 1803:0.27175415 1804:3.5412123 1806:7.6474814 1813:4.1959224 1822:1.840095 1825:0.44079518 1831:1.7142725 1832:0.49187359 1842:1.3944452 1845:2.9445643 1846:7.325532 1849:3.4960876 1854:1.892822 1858:2.9937367 1861:2.3378074 1862:0.50010371 1868:0.96803492 1880:5.4166603 1889:3.4820302 1893:1.7993109 1898:1.6425266 1900:3.6398978 1901:1.1005261 1908:2.9396973 1911:1.05193 1925:1.4094017 1928:4.5137978 1930:0.16982494 1943:0.20794851 1960:1.5467319 1972:1.6031369 1974:0.19418871 2004:2.2076998 2009:5.4881749 2026:0.055463597 2028:0.8766948 2032:0.51506019 2036:0.036746562 2042:0.33335578 2048:5.4216328 2057:2.7352295 2058:0.04724063 2066:1.3931992 2070:5.0698338 2083:0.51076752 2095:1.6440734 2099:1.5093369 2102:6.3215933 2110:0.91951835 2117:1.2331561 2128:1.0206333 2144:3.8512599 2146:3.5715256 2153:0.81566405 2164:3.6415167 2177:4.5560584 2186:3.2561176 2188:3.87271 2189:4.7401042 2190:2.6293685 2196:3.1250391 2199:1.6449463 2200:0.62967098 2206:1.5658594 2214:1.9024243 2221:0.55361694 2223:1.2853643 2226:1.0375887 2229:3.2638733 2232:2.6386139 2235:1.2599087 2236:2.2014937 2241:1.8381224 2244:1.2290189 2245:3.4800484 2249:0.079252869 2254:1.5719693 2259:2.5106616 2271:1.5807545 2273:1.9455642 2280:1.144168 2283:0.96021926 2294:0.65040433 2298:0.93570173 2311:2.4723997 2312:1.5982853 2313:0.054423839 2314:0.674339 2317:1.8644395 2318:0.63529593 2324:3.4877567 2329:0.30635625 2331:3.6541536 2340:4.1296368 2342:1.440734 2343:5.1648579 2362:1.5309718 2369:0.11684602 2372:2.1124847 2376:1.8752208 2383:3.3686562 2390:3.0573125 2399:0.25137457 2416:6.649744 2423:6.2660937 2424:2.7876105 2428:4.0886579 2432:4.1047015 2435:5.3736629 2440:1.3196841 2444:1.0634055 2453:0.55365676 2457:1.186038 2459:0.29969144 2470:0.83843803 2485:2.0020282 2486:1.5221407 2488:1.2608342 2507:0.27042356 2508:0.58100867 2509:2.1003711 2518:1.7558463 2526:3.8470869 2530:0.70931351 2531:2.2900949 2537:0.077850372 2545:2.0917764 2549:0.66442537 2551:1.5480695 2561:7.2144084 2563:2.6059923 2576:3.6177592 2586:1.6084918 2588:0.55108213 2589:3.3165605 2594:1.0505207 2598:0.81808913 2599:3.2859521 2601:1.8495924 2604:4.3313479 2610:6.039669 2611:0.99201721 2612:0.27307132 2621:0.46782619 2623:0.75165915 2628:2.6247292 2629:0.36286527 2634:0.55408025 2638:0.1217553 2642:2.2631261 2645:1.4050454 2647:1.0623262 2662:1.4937814 2667:2.1654706 2670:0.79687548 2682:2.5995908 2687:1.5744126 2688:3.0826261 2689:3.9512067 2708:5.7779241 2715:3.9015448 2718:0.76263839 2721:3.5490406 2723:2.5303614 2725:1.8866484 2726:1.9729768 2732:0.99174374 2738:2.53772 2743:1.4841434 2745:0.67029691 2759:0.63684678 2760:1.8776708 2763:1.7532167 2765:2.7943151 2766:1.5634501 2771:5.2639914 2775:0.0059133768 2777:2.6247566 2784:2.5486872 2787:0.085919976 2792:2.334249 2793:1.5669307 2814:5.13832 2825:1.0725137 2826:1.2620854 2834:5.3862677 2835:1.7997262 2841:2.5524774 2842:1.0750279 2857:0.27995017 2867:1.9704374 2872:1.3173453 2873:1.4337918 2879:4.2338862 2882:2.5226235 2888:1.7986813 2894:0.95153612 2896:1.6601099 2903:0.052067041 2904:0.0096165836 2909:0.53814381 2910:0.61606646 2916:2.2566628 2920:1.5458541 2928:1.3496176 2932:1.6741667 2941:0.32297787 2945:3.9063509 2949:4.2808218 2950:4.2779713 2957:2.9300883 2961:2.0815518 2962:0.81143451 2966:6.6195416 2971:0.30981642 2982:0.93156552 2991:0.18344992 2993:5.025867 2997:1.6941612 3010:2.1567819 3012:0.07976678 3020:1.3770508 3021:3.5635376 3028:0.89482123 3036:10.007673 3043:2.8929145 3050:1.9326179 3051:1.3044767 3052:3.8697934 3066:1.1238487 3068:1.9988097 3072:4.5486765 3073:1.0323782 3075:3.058898 3079:5.5694809 3080:1.7331052 3094:1.6334261 3095:0.45027277 3105:5.5476151 3116:1.4460676 3119:4.0800409 3124:2.2383969 3129:1.1673715 3141:2.8088973 3144:1.0960845 3145:2.9774773 3146:3.1692433 3148:2.2738013 3151:1.2563382 3155:0.22364482 3160:2.9170694 3163:6.3048172 3172:0.16883221 3174:0.015581228 3177:0.21827441 3183:1.8595172 3184:3.1870835 3191:0.9372068 3195:0.39846665 3197:3.1662071 3198:0.36397654 3199:4.005847 3215:4.3337822 3233:1.6994383 3237:2.9466445 3241:0.69301593 3247:0.4818418 3251:0.073905051 3253:0.090979844 3255:0.81465727 3257:1.9025698 3258:0.40087932 3276:0.12762871 3282:3.9938965 3285:0.52765369 3286:1.9346721 3287:0.028747678 3291:1.8979218 3293:2.6933417 3294:1.0406549 3296:2.2555366 3315:0.12019965 3321:4.6652737 3324:4.8957653 3332:0.66284001 3334:1.6404707 3335:3.382952 3338:0.90225989 3341:0.67904848 3344:0.20651698 3347:1.4307165 3349:5.1044288 3365:1.5813906 3366:3.9485438 3367:1.1200417 3377:0.5150609 3378:3.4233606 3384:1.060353 3387:1.605216 3390:3.8234768 3397:1.955588 3404:0.80885029 3418:1.5355998 3426:4.3746376 3431:2.0944521 3442:5.1954236 3443:0.33614618 3445:1.657439 3449:0.83233184 3452:2.8002625 3456:2.149857 3467:3.211596 3474:0.41124505 3476:1.7855136 3478:3.4982505 3485:0.37428614 3491:0.87664902 3493:0.60102046 3496:3.7697403 3503:0.59708887 3504:5.2926745 3508:3.3406692 3509:4.1620326 3516:0.14973728 3520:1.4426669 3527:1.1682497 3539:4.0249987 3544:1.9427984 3547:0.49129725 3548:1.2417357 3549:2.0983763 3553:1.5783403 3555:4.8150601 3561:0.45311719 3564:0.89131582 3568:1.8175445 3578:2.2110691 3585:5.328383 3591:0.3700878 3593:0.37512761 3598:2.1271484 3599:0.26903224 3602:1.169243 3604:1.1280663 3606:0.073565021 3608:0.26681268 3614:2.2726934 3615:1.2285012 3617:3.1668441 3618:0.46474046 3625:0.17241558 3626:1.6378257 3627:1.998596 3631:1.0844791 3637:0.45100749 3638:1.7631921 3644:5.7315288 3650:1.2450768 3665:0.23397574 3667:2.7518167 3670:0.55603933 3679:0.12720819 3683:4.6432924 3687:3.8138235 3690:3.384609 3699:3.4506319 3703:1.8816001 3719:3.3937385 3720:1.5454249 3732:0.36576432 3738:0.38671419 3751:1.2139782 3758:1.1890899 3763:0.74822938 3765:0.31481054 3771:1.1449984 3778:2.1358147 3779:0.18630046 3785:0.25523117 3789:3.3730428 3793:1.9182266 3795:0.49587697 3818:0.028658375 3819:1.5449622 3824:1.5318989 3826:3.1755922 3835:0.34969699 3836:1.2030462 3837:2.2368114 3845:1.4506214 3846:3.0159931 3848:2.6211369 3860:3.7015054 3867:3.5967908 3872:2.6372089 3877:3.5965357 3886:2.5359344 3889:1.9339902 3891:3.0114226 3892:1.6935722 3893:0.21590918 3901:2.5989487 3903:4.5759745 3907:0.088561654 3910:1.1041085 3911:3.4379742 3913:1.5215559 3915:1.1143624 3918:0.098908752 3923:0.014807291 3925:0.09889777 3941:0.67483199 3942:0.43227118 3957:5.6751542 3974:0.35553697 3977:1.7862071 3980:0.26387611 3984:1.8539779 3986:0.56854618 3988:5.8903332 3990:0.21470946 3995:0.11649673 4000:0.50797558 4002:2.8394177 4003:0.23236722 4007:2.307004 4016:0.59297037 4021:0.26570868 4031:3.2116385 4032:0.58648145 4033:2.4379406 4036:2.6066329 4041:3.3151388 4042:1.0214711 4055:0.64251906 4058:0.083994508 4071:1.95117 4072:0.27198082 4073:0.20208088 4074:1.0468585 4079:0.2437529 4084:0.64661694 4085:0.32545865 4088:2.5971022 4089:2.4743102 4091:0.29968157 4093:3.1472638 
0.4668840216106241 9:6.720602 19:0.16145761 23:0.42439622 39:1.4694211 40:4.7382655 73:0.076075375 77:5.0045767 87:0.10176256 90:0.90734297 91:0.92672378 106:0.72736883 107:3.7964609 108:0.21679237 121:0.2829493 123:2.6854904 125:6.5724792 126:1.570271 145:1.9093672 147:4.9514451 159:8.6277351 164:3.7455864 167:0.91568494 172:2.6707032 179:0.24811204 182:2.270654 190:3.1949749 196:3.128639 200:4.9830661 209:0.14533867 210:7.8364587 217:0.14185986 221:1.1304084 235:1.7758434 236:0.47475636 240:1.9782628 241:3.0743647 242:3.2354615 247:4.4048018 252:5.9519863 269:1.7971952 272:0.036426976 277:2.6781683 278:2.93556 288:1.634001 292:1.1143024 295:2.9788911 300:5.3999991 312:0.85778928 324:10.124558 326:6.0448751 329:1.742062 335:0.64542061 341:5.7912178 349:3.783699 350:0.25037792 364:0.44035369 365:1.5030465 375:1.583823 379:0.024629414 384:2.6869047 385:0.69813466 387:1.0078518 391:0.37379193 396:2.1078873 431:4.2851138 432:0.28929007 433:0.29956537 434:0.56733012 442:4.2542782 448:0.72197807 466:3.1429727 468:4.883431 469:2.4155352 473:0.077799022 481:1.858777 484:1.0798943 500:4.7488728 503:2.9433947 505:0.68793678 509:0.52119887 515:0.87100822 520:0.15067025 524:5.5577073 529:2.431896 532:2.7158673 538:0.62797809 545:12.715321 546:2.1915014 553:2.2805915 559:0.72600907 567:3.0210001 568:0.92791188 572:1.5264369 575:0.81410027 577:1.532023 583:3.2496796 592:1.2791127 606:5.5948768 608:1.7114737 609:0.10522488 610:0.32692248 612:4.1245484 614:4.2748671 615:0.33726761 618:0.11088127 619:0.39756 635:1.3898283 638:0.2197445 642:0.072299033 653:2.7045176 657:6.4612536 664:1.2646235 680:0.93790692 686:0.23459452 687:8.828928 698:2.5943432 705:2.656673 706:0.99168605 711:0.08985398 721:5.8387885 723:4.0473742 729:5.1183424 735:1.5064919 748:5.0530472 751:0.17829308 752:1.7644968 757:0.27421281 764:4.9290299 777:7.5934234 778:0.00043869019 782:5.4574637 792:2.8498325 793:0.98850286 794:4.6267738 798:4.3542414 812:2.8186512 814:4.9527717 817:0.98951602 826:1.0190178 841:2.2914095 853:1.105003 854:1.2258909 855:0.26267344 858:0.25703797 874:2.047735 883:2.810997 894:6.5972281 896:0.79877621 902:4.2739887 904:0.12186256 910:0.8999725 912:2.258142 918:2.8932574 920:2.3684692 922:2.0091681 928:0.27022576 932:1.0100603 942:1.2427876 945:4.1795483 952:0.2649653 953:0.37453482 956:0.23863265 957:4.4607663 960:2.1793015 965:3.305577 966:2.4048288 967:0.66492021 968:0.74409825 974:4.768373 976:1.7230542 979:3.6507442 980:0.26757756 994:2.1001534 996:0.40755606 999:0.31608629 1014:3.970794 1021:5.1486621 1024:4.4257417 1034:1.0769351 1043:1.1527717 1047:7.2739754 1058:3.2252901 1065:0.30179989 1070:2.1447847 1075:4.0411906 1077:3.7800653 1080:0.32356039 1092:0.14349532 1095:1.8273013 1096:1.7804968 1111:5.1367822 1113:2.3517213 1125:3.2807307 1130:5.8207407 1138:0.98333514 1139:0.22297505 1157:0.34491318 1169:1.303901 1170:0.29860327 1174:2.0231187 1184:0.37089986 1191:0.31004041 1192:1.0273892 1193:5.4234719 1195:2.1613495 1206:3.3464317 1208:6.3290081 1217:3.1307862 1219:3.3471093 1220:2.1191773 1223:2.9829283 1226:1.2189925 1227:8.5642319 1237:2.4528573 1242:5.4952092 1252:3.6279581 1253:0.58354968 1264:0.73855311 1269:1.3440679 1278:3.8132842 1279:0.29938161 1281:0.82725608 1284:0.82658213 1285:0.038886786 1286:2.7472136 1304:3.3113582 1310:1.6923412 1314:0.59945118 1317:1.4124188 1318:0.1712212 1319:5.4867306 1325:0.38538939 1335:1.0847864 1336:6.3647194 1341:6.0830226 1352:3.4026339 1355:0.44915316 1361:2.4049294 1366:1.7803878 1369:8.2523584 1372:2.363013 1381:4.4164882 1392:0.77869993 1397:2.0506082 1402:1.8847573 1406:5.737329 1408:2.2892418 1409:5.8747621 1426:3.0298357 1448:0.916969 1454:0.011306226 1456:1.41113 1464:3.3633313 1465:1.8777581 1467:0.36815804 1471:0.74132937 1475:2.5038633 1476:3.6058946 1482:1.7782705 1483:1.0870798 1484:9.4987526 1487:1.223104 1489:2.5973601 1502:2.4836915 1510:0.31591839 1520:4.6344337 1521:0.14597437 1522:1.5489067 1523:5.8441148 1526:0.72820306 1541:1.9443808 1544:2.0659244 1546:5.7310214 1548:1.6032772 1550:2.1671078 1567:6.3946381 1569:0.6228438 1570:1.5114855 1572:3.509351 1574:0.32910028 1586:0.7751866 1587:3.4854195 1588:3.8434949 1597:0.54329622 1598:0.87187624 1602:0.96228141 1605:6.5433159 1610:3.6589098 1613:2.4217269 1617:8.1983089 1618:1.8466818 1624:1.3841442 1625:1.3360866 1636:0.3040278 1647:0.66713667 1661:6.3151913 1670:2.0858698 1678:3.9548106 1683:2.2100291 1691:2.7544217 1694:2.0440519 1697:0.2061422 1704:1.692672 1708:0.046297848 1712:1.335341 1720:6.9687042 1726:1.5198777 1732:2.0467494 1734:1.2830329 1738:2.2747314 1742:0.079069987 1750:0.73271525 1758:1.1865053 1761:1.4246302 1762:7.2115231 1778:2.9849482 1782:5.5352983 1795:1.033172 1803:0.30021787 1804:2.6021857 1806:10.967737 1813:6.7383661 1817:1.8158132 1831:4.058146 1842:4.051425 1843:0.59101665 1845:3.1880059 1846:6.3188529 1849:4.447629 1854:4.0024986 1858:6.7187934 1860:3.7792287 1861:6.5620379 1864:0.04621315 1868:0.39171863 1880:7.6868181 1889:4.1389527 1893:1.2286149 1898:4.2637429 1900:4.2004309 1901:0.85134953 1905:4.4750204 1908:2.1222935 1918:0.097916782 1925:1.6184363 1928:7.8342276 1930:2.5316603 1960:2.4497766 1966:1.7270652 1972:4.1876445 2004:2.9455545 2009:9.6518335 2026:2.3678503 2028:1.3642361 2032:2.6950386 2035:2.1253016 2038:2.0276744 2042:0.2280944 2048:4.4029107 2055:0.69165838 2057:1.1737328 2066:3.1108689 2068:0.13775243 2070:7.2987814 2082:0.71034753 2085:0.45086253 2094:0.20097542 2095:1.9074482 2099:1.6236812 2101:1.8908203 2102:7.1443553 2110:0.78472346 2117:1.6406482 2127:2.0658724 2128:3.8079045 2135:0.18666261 2137:2.2928963 2144:2.6375117 2146:3.0745451 2153:0.57808459 2164:3.4398983 2177:4.2108631 2186:4.8380885 2188:3.658762 2189:4.2494802 2190:2.0113924 2196:0.32848391 2199:1.7791693 2206:0.9841516 2223:0.25299263 2226:0.26173291 2229:2.0554576 2232:2.2055771 2235:3.1557572 2236:4.765811 2241:1.8198991 2244:0.35708618 2245:0.59696323 2249:1.1851206 2251:0.54606009 2253:0.42828986 2259:3.0253541 2262:0.86446416 2271:6.0726571 2273:1.7734597 2280:0.8965776 2311:3.9869907 2312:2.6837132 2315:1.4672912 2317:0.10659193 2318:1.2492838 2324:0.11574587 2329:1.6584107 2331:2.756696 2338:0.18010631 2340:1.0579751 2342:0.17333594 2343:5.6985006 2372:0.35886776 2376:0.056217134 2383:4.7410579 2390:1.6803051 2393:0.79943359 2399:0.27404508 2404:0.71885872 2416:6.1673036 2423:5.2654371 2424:7.4893761 2428:2.27808 2432:5.6870627 2435:1.918906 2439:0.23362172 2440:2.3235478 2444:1.4754331 2457:0.19953132 2460:1.6688391 2464:0.70063233 2470:1.1062912 2481:1.7029071 2482:0.44444087 2485:3.4184651 2486:1.967811 2507:2.633548 2509:3.3899219 2518:1.0196216 2519:1.1487075 2521:0.4176755 2523:0.34815058 2526:2.5015244 2530:3.0859127 2531:3.2448285 2537:0.74038506 2551:5.85637 2561:9.7999926 2563:3.4811847 2576:4.7475085 2577:3.996532 2586:0.24975175 2589:3.8293643 2594:1.9566374 2599:0.88841796 2601:2.1261892 2604:3.2210729 2610:6.7555523 2611:1.0884559 2612:0.39015141 2621:2.9937997 2623:4.3166356 2628:2.4961081 2629:0.1377753 2637:0.25765088 2642:0.85528374 2645:0.58525765 2662:1.6886212 2667:4.0790038 2670:3.3306351 2682:2.5471709 2688:2.4507587 2689:1.9665148 2691:0.034894422 2708:3.4139762 2715:0.12704848 2718:1.4174829 2721:3.0713007 2725:3.6269999 2726:4.8038268 2738:2.3306768 2744:1.2630385 2745:0.66008747 2758:0.26054525 2759:1.4754473 2760:1.1997643 2763:2.9150643 2765:2.0493395 2766:1.2956808 2771:6.7785039 2777:5.3507671 2784:3.6604745 2787:2.0863442 2788:0.71477652 2792:0.51419359 2793:1.8564692 2812:2.1537168 2814:5.1424894 2817:0.97684693 2826:0.25226653 2834:7.3547349 2841:3.7556434 2853:3.3629687 2857:0.97753388 2865:0.50053042 2867:0.71545804 2874:1.2861972 2879:3.9607668 2888:2.1083031 2892:2.6526587 2894:1.5147564 2896:3.4993453 2903:3.2604764 2916:2.3281465 2920:0.26482636 2928:0.20852584 2932:3.3604548 2941:0.33403084 2945:6.0034089 2949:5.030045 2950:1.6480755 2957:2.9800136 2961:0.88861918 2966:10.264987 2967:2.3082955 2982:0.027258426 2991:2.3929355 2993:6.6812181 2997:3.3632622 3010:3.3372109 3021:0.37361479 3028:0.16916318 3036:6.0445681 3043:0.20702153 3050:2.140965 3051:4.4070396 3052:1.3688326 3061:0.21366772 3066:3.559433 3068:1.924081 3072:8.0060625 3073:0.25588304 3075:2.5739813 3079:7.8685226 3088:0.34102711 3094:2.7879298 3095:0.16717568 3105:9.3862801 3110:0.8879751 3116:3.7709515 3119:1.9663562 3124:0.9730463 3134:1.5180361 3141:4.121315 3144:1.6139176 3145:3.5703328 3146:3.2010126 3148:0.91270649 3151:2.3279138 3160:3.2696981 3163:5.4463921 3177:2.6119606 3183:6.2430644 3184:3.139142 3190:0.57294154 3192:0.83291584 3195:0.03058064 3197:2.4710255 3198:1.9289026 3199:0.92145514 3215:4.2798696 3233:0.59459239 3235:1.5977421 3237:2.6641948 3241:3.7291477 3242:2.449307 3246:0.77407956 3251:0.11821339 3257:2.3799193 3268:1.9133437 3269:2.1018605 3275:0.40852451 3282:3.6014299 3284:0.18713492 3286:4.0505528 3287:0.14333528 3291:3.0757949 3293:4.3044896 3294:0.96942377 3296:3.0250483 3315:2.1325192 3321:5.59307 3324:4.5955691 3332:1.0218391 3335:4.8828521 3338:0.48718578 3341:4.5877075 3347:3.0019617 3349:9.580183 3366:3.4802444 3367:1.1874577 3377:0.2113215 3378:3.9902008 3379:0.16663539 3382:2.640336 3387:1.3912444 3390:0.1991277 3395:0.76008511 3397:3.7008567 3426:5.5039406 3431:2.005408 3436:0.67111552 3441:0.44475836 3442:3.7298212 3443:3.1078284 3445:6.637207 3452:4.2234936 3456:0.39618817 3467:3.1108494 3468:3.0490971 3478:5.3709331 3485:1.439065 3491:2.3976345 3496:2.5281184 3504:5.1140351 3508:4.5580945 3509:4.7212968 3516:1.1032871 3527:3.7074573 3529:0.44430518 3539:3.7390821 3544:2.9710679 3548:1.3139791 3549:2.8231747 3551:0.79172844 3555:5.507009 3561:0.71749169 3562:0.55190206 3563:0.56659615 3564:0.12145981 3568:0.47075486 3578:1.7488986 3580:0.39711523 3582:0.92371356 3585:4.8557215 3592:0.64712089 3598:1.6130006 3599:1.7131113 3601:0.39847702 3604:0.83613342 3606:3.1515999 3614:2.6626043 3617:3.2985566 3618:0.86800689 3621:0.34772331 3626:0.24223687 3631:3.683162 3638:1.7475171 3652:3.114953 3667:2.4346361 3679:4.1372185 3682:2.3991225 3683:5.2303104 3687:4.7589865 3690:3.50665 3698:0.44726539 3699:3.7346113 3703:3.4299545 3719:3.931452 3720:2.7229738 3732:2.4843192 3751:1.1580218 3756:1.479692 3758:0.73649466 3765:1.7173065 3771:3.8045282 3776:1.1173606 3778:5.3989806 3779:0.4705171 3785:1.0691352 3787:0.78335023 3789:0.18605861 3794:0.10735634 3795:1.1231282 3811:1.5842543 3818:2.2819104 3819:1.074038 3824:0.50782156 3826:1.4298047 3835:3.6358333 3837:3.9874938 3844:0.23900801 3846:1.4610903 3848:4.3862872 3860:1.4540987 3863:0.3626101 3867:3.2755568 3872:6.4328051 3877:2.0505772 3878:0.43500528 3886:0.50849843 3889:1.8326839 3891:3.6191757 3901:1.2793059 3903:3.6263433 3907:0.27078605 3910:0.16423041 3911:3.3489306 3913:1.2063296 3915:1.21496 3923:7.8607268 3925:0.58886743 3941:0.059701934 3957:6.5603852 3974:1.4654505 3977:1.7771863 3988:2.5563669 4000:1.5489162 4002:4.6771035 4016:1.7244135 4029:0.78345406 4033:4.4366217 4036:5.4985671 4041:3.3938241 4042:2.1058371 4043:3.5702276 4055:0.71446997 4061:0.10778615 4063:0.33201307 4067:1.5252752 4071:0.10049292 4074:3.6942914 4079:0.24140745 4084:0.11743629 4085:0.47067115 4089:1.8458288 4091:0.24822062 4093:1.0881293 
0.07946839338838761 9:4.1086473 18:1.018204 19:0.5819428 27:2.2534235 40:3.6484869 49:0.37797156 54:2.0086889 73:0.56727064 77:1.6905322 91:1.528481 107:3.3975704 121:1.3773528 123:3.1375463 125:5.4694214 126:0.31168199 145:1.5677723 147:4.0463724 159:6.1805081 164:2.6370013 167:4.8823166 172:4.3264456 179:0.61914074 182:1.3817457 190:2.5577848 196:1.4817138 200:4.4827967 209:0.71302462 210:7.886919 217:0.24438372 221:0.79083639 224:0.38631445 232:1.0126023 236:0.037945226 240:1.8011318 241:5.0014429 242:2.4866977 247:4.3205223 248:0.38815489 252:4.2702889 256:0.85788321 262:0.66848904 269:0.099414438 274:0.22588336 277:2.1153376 278:1.0758033 288:2.0799308 295:3.0249143 297:3.1890295 300:5.2808599 303:0.0052997768 312:1.8950891 324:8.0147219 326:4.7150006 329:2.5566635 335:3.1721082 341:4.5863414 348:2.5785573 349:2.4822206 360:0.041002452 365:0.99328804 371:0.22800532 375:0.42330539 378:1.04934 384:2.6868618 385:1.1321615 391:1.7208908 396:2.8525031 399:0.79486954 416:0.11348566 431:1.9019561 432:1.7930099 434:0.59136927 442:2.3299632 448:1.8105586 459:0.78177083 460:1.0780622 468:4.7886457 473:1.5576282 481:1.5495178 484:2.3660407 485:0.20262796 488:0.078247428 496:0.33141235 499:0.35802269 500:4.2697458 503:0.032983541 505:0.17759064 508:1.7705542 524:5.6212068 532:3.8572879 538:1.0880842 545:8.4061499 553:1.7510192 559:0.74684906 567:2.8190181 572:0.24451748 575:1.7529904 583:2.5069072 586:0.40590763 592:0.70364702 597:0.47437948 601:1.7035655 606:3.3256059 612:3.1220174 614:1.3247949 615:0.44536579 618:0.062015384 620:1.7857711 635:2.9775965 638:0.48897719 639:0.26797447 642:0.3218272 646:0.16212106 653:1.3836578 657:5.6999159 661:0.73758245 662:0.71850669 670:1.1223899 672:0.0037859082 675:2.1132524 679:0.27244124 687:4.0145187 691:1.7212229 698:1.9664557 705:3.0713575 706:2.163599 711:1.9765627 721:2.7682984 723:3.2451415 725:0.35051656 727:0.67949504 728:0.98996174 729:3.3786044 748:2.4360101 751:1.2418829 755:0.16680993 764:2.8067389 777:5.1965823 782:2.8070433 785:0.91029221 788:1.9962113 792:0.59954596 793:0.72861338 794:3.3673074 795:1.4024901 798:1.7315439 809:1.1447997 812:1.636048 814:2.0648844 817:0.53928816 823:0.42865938 826:0.26497054 841:3.5938277 848:0.48799494 854:0.5697608 866:1.5591185 868:1.5092509 874:0.59030616 883:2.6478887 894:2.5690355 896:0.81180793 902:2.8861964 903:0.14349911 905:2.5007064 912:2.418786 918:1.3490977 920:0.98677868 922:2.339498 927:1.1298399 928:0.97491813 942:1.1724863 945:4.8250432 957:4.1691341 958:0.054225057 960:3.5269761 965:2.924196 966:0.76658964 974:5.1927853 976:3.3219037 979:5.0751314 996:0.51877058 1014:4.5173421 1021:3.9570646 1024:2.7159755 1034:1.3622167 1043:0.91728961 1044:0.8831867 1047:6.1706171 1058:2.2684345 1065:1.4921554 1075:0.23297259 1077:1.1715937 1080:1.3854334 1092:2.4566464 1095:0.66861957 1096:2.7430198 1105:0.48688298 1111:0.96143836 1113:4.5160213 1117:0.75054634 1125:0.94458544 1130:4.1424632 1135:0.35958856 1138:2.2024667 1165:1.1192309 1169:0.83311033 1170:1.1846734 1174:0.26911205 1175:1.6910288 1193:2.1264431 1195:0.2112285 1206:2.8255138 1208:4.5512662 1219:3.8851097 1220:4.7420883 1223:1.6743647 1227:7.4074373 1237:1.6945549 1242:5.1258316 1251:0.0070554009 1252:4.8942556 1268:0.32363921 1269:0.52522254 1271:0.12927902 1278:4.5994997 1279:2.5908077 1281:2.0271881 1286:4.1408615 1304:0.77219701 1310:0.78909558 1314:1.6734982 1317:2.8164587 1319:4.2581367 1335:0.40152645 1336:4.8605289 1341:4.755713 1352:0.63644093 1355:1.3161929 1361:1.7724595 1363:0.076607347 1365:0.12911046 1369:4.865088 1372:3.4634042 1381:3.5002909 1385:0.14117205 1387:0.75724238 1392:0.55785543 1397:1.495857 1402:1.4797211 1406:4.7085142 1409:5.4379869 1410:1.1529073 1426:1.6627527 1430:0.80954844 1437:0.16744545 1456:0.99519747 1465:3.945889 1467:1.4394633 1471:0.37620932 1475:3.2424922 1476:4.653018 1483:2.7396474 1484:5.6776943 1487:0.9514693 1488:0.50898409 1489:2.0734859 1498:0.028809667 1502:3.1638105 1513:0.32956982 1520:4.3278875 1522:1.049688 1523:3.5130618 1526:1.1095963 1541:1.6854517 1544:3.1870229 1546:5.0076885 1548:0.90377629 1567:2.7406504 1569:2.6132727 1570:0.34437492 1572:1.4353154 1574:2.4831827 1580:0.67328852 1586:2.4177778 1587:3.0427394 1588:5.1265683 1597:3.3431537 1604:0.91361451 1605:3.5668077 1610:2.5627058 1613:3.976089 1617:5.746798 1618:0.52128053 1624:1.6142161 1625:1.8524263 1628:0.77711701 1636:0.38937163 1647:0.99547136 1648:1.7015159 1661:7.1203346 1670:1.4867502 1678:5.3731065 1683:1.7721593 1690:0.37403107 1691:1.5665724 1696:0.80807537 1697:0.29512268 1704:1.2911695 1712:1.7002409 1720:5.0814719 1726:3.603415 1732:1.1672838 1738:1.1798475 1742:0.0038880259 1750:1.0294719 1758:1.5985079 1761:0.44510591 1762:5.873487 1778:3.0734653 1782:2.0705891 1790:0.48480988 1795:1.1415176 1802:0.33327004 1803:0.71768868 1804:2.4753385 1806:7.80445 1813:4.4205103 1817:0.63537997 1824:0.35913411 1825:1.041472 1831:1.3749169 1832:2.8162525 1842:1.568018 1843:1.9606903 1845:2.7166855 1846:7.4405589 1849:5.1024127 1854:2.6494033 1858:2.8694968 1860:1.0241457 1861:3.751085 1868:0.14603698 1880:5.0216093 1889:1.2770064 1898:3.6673717 1900:3.1442094 1901:1.4944642 1905:3.4080889 1925:0.7097441 1928:5.8627787 1930:1.1125963 1938:0.21705252 1960:1.5787172 1972:3.829005 1974:0.70982891 1990:0.32157943 2001:0.18211752 2004:2.7110393 2009:6.9657927 2019:0.40729553 2026:2.1667151 2032:0.64649117 2038:1.6316811 2042:0.39961278 2048:6.169529 2057:2.0604858 2058:0.34600592 2066:0.8509559 2070:5.071167 2082:0.96885371 2083:0.16349238 2095:0.0047498047 2099:2.3970921 2101:3.1380141 2102:5.7607522 2110:2.0324657 2117:2.7515073 2128:1.823365 2136:1.058682 2137:0.39806485 2144:3.434423 2146:1.9838804 2164:1.60703 2177:3.0371265 2186:4.3701692 2188:2.8438127 2189:3.4161327 2190:2.3313677 2196:2.6178536 2199:1.0779353 2200:0.53558981 2202:0.75781965 2214:0.22638029 2226:0.98671556 2229:1.4610761 2232:1.4979309 2235:0.39993939 2236:2.3795176 2239:0.5591988 2241:2.3191798 2244:1.24983 2245:1.565716 2253:0.75516391 2259:2.5368316 2262:1.7814035 2271:3.0327477 2280:0.39387774 2292:1.1151769 2294:0.76033992 2298:1.7320716 2311:3.2886317 2312:1.9173135 2314:1.0339813 2317:2.2455399 2318:0.63837707 2324:1.5810279 2329:1.0605875 2331:0.54685462 2340:3.4801958 2343:4.4014211 2362:0.14062592 2372:2.8014925 2376:1.10324 2383:4.8555708 2390:3.2105675 2392:0.87965417 2393:1.1985531 2416:6.0897417 2423:5.0326543 2424:4.0637197 2428:3.9123085 2432:5.8118086 2435:2.8381655 2439:1.1028948 2440:3.4680576 2444:1.8594153 2453:0.85160834 2457:1.3554499 2481:0.25223914 2485:1.9863048 2486:2.0936141 2488:2.1423178 2505:0.96146107 2507:2.2207966 2508:1.030265 2509:2.0286636 2518:0.48334545 2526:5.4451723 2530:1.7458717 2531:2.2878942 2537:0.63563561 2545:0.093783647 2549:0.55877709 2551:4.696312 2560:0.038114257 2561:6.1695733 2563:2.2739921 2576:3.1127617 2577:1.982092 2586:0.53712338 2588:1.3879265 2589:2.3845224 2594:1.1052107 2599:1.3938327 2600:0.31076741 2601:1.1509745 2604:3.9075603 2610:5.5080452 2611:0.9677006 2621:2.9118845 2623:0.9490549 2637:1.4583257 2642:2.7398081 2645:0.11297745 2647:0.071378499 2662:1.4241017 2667:1.6197883 2670:1.234708 2682:0.17081243 2688:2.3148971 2689:1.3768735 2708:5.0135636 2715:1.343101 2718:2.3062854 2721:2.9784534 2723:3.1437712 2725:2.1511204 2726:2.1676605 2740:0.97719562 2742:0.15845063 2743:0.89330494 2744:0.42752415 2745:1.1311148 2759:1.4451519 2760:1.547205 2763:2.2805333 2765:2.0103748 2766:2.7110639 2771:4.3497005 2777:4.3510208 2784:4.5381618 2786:0.11282653 2787:1.1467594 2792:0.60302603 2793:1.322759 2811:0.58575088 2812:0.21426672 2814:5.0778351 2817:0.051203817 2824:0.58711612 2826:0.31091321 2834:6.0889745 2841:4.6774716 2848:0.21152017 2853:0.095760614 2857:1.8637531 2865:0.28328764 2867:1.7018942 2872:0.13529813 2873:0.32981563 2879:2.4721546 2882:0.59060657 2888:0.5179975 2894:0.20617515 2895:0.80554825 2896:3.5345957 2903:1.0742123 2907:0.50637376 2910:0.41418388 2920:0.68537998 2928:0.53628743 2932:3.5859652 2938:0.27649775 2941:0.52732277 2945:6.0006089 2946:0.2288896 2949:4.5694976 2950:3.7723985 2957:0.10208973 2958:0.14098942 2961:0.2540144 2966:7.1702547 2967:2.8661242 2974:0.0023825765 2982:0.69632244 2991:0.079886556 2993:4.1924791 2995:0.56449974 2997:0.5883643 3010:1.4429868 3020:1.1985883 3021:0.7227571 3022:0.43689004 3028:0.027080342 3036:7.515408 3050:0.38956237 3051:2.1114841 3052:0.8575204 3066:0.80281413 3068:0.66433334 3072:5.1527085 3073:1.6115932 3075:4.8351512 3079:5.855741 3080:0.80974984 3094:3.0139058 3095:1.6406676 3105:6.6569948 3116:2.7479541 3119:3.9389796 3124:1.4646171 3139:0.13907759 3141:1.519989 3144:0.74292713 3145:5.1342611 3146:3.7665567 3148:0.84149796 3160:2.4008112 3163:5.0068064 3172:0.24348322 3177:0.92175013 3181:0.92278385 3183:3.9748065 3184:1.2910986 3195:0.054848611 3197:0.43393037 3198:1.7091346 3199:1.7424779 3215:2.6179559 3217:0.1615838 3233:0.69661808 3235:0.20922393 3237:2.7389007 3241:1.2697033 3242:1.2072147 3246:0.83494043 3251:0.20335367 3253:1.0266776 3255:0.82458484 3256:0.60342139 3257:2.3067505 3268:1.2768015 3282:2.3569722 3286:3.4599781 3287:1.0626554 3291:2.8374953 3293:1.7351576 3294:1.5048776 3296:1.8019757 3298:0.83578521 3315:0.47637999 3321:2.4040134 3324:2.5886955 3332:0.70018214 3334:0.86130071 3335:3.4717433 3338:1.0744858 3341:4.3079643 3344:0.63032568 3347:0.67932528 3349:6.2614236 3359:1.1636683 3366:4.8727994 3367:0.94670212 3378:1.9235544 3379:0.62536883 3387:0.12421952 3390:1.1017327 3396:0.16240963 3397:3.6213365 3404:0.29163378 3424:0.43692866 3426:4.0440545 3431:2.3242924 3441:0.70675647 3442:5.8834276 3443:1.6701131 3445:1.6059345 3449:0.21184808 3452:2.8042228 3467:2.5389934 3468:0.53614676 3474:1.3949353 3478:4.0190768 3485:0.5504989 3491:3.0813491 3493:0.18504447 3496:5.4160252 3503:1.2228117 3504:4.2078204 3508:2.2008266 3509:3.5602863 3516:1.3904465 3527:0.19687369 3537:0.46443796 3539:3.8363633 3540:0.63655865 3544:2.8955214 3548:1.8707709 3549:1.5751266 3555:2.5799367 3561:1.8116755 3563:0.93423605 3568:0.70088893 3578:0.49958375 3580:0.17094493 3582:0.86630052 3584:0.4229525 3585:6.0378942 3593:0.41180551 3598:1.1765401 3599:1.8979757 3602:0.18876216 3604:0.10154609 3606:2.3147075 3614:4.0842509 3615:0.12271538 3617:2.6713676 3618:0.47270817 3627:1.3082176 3631:0.94165313 3637:0.21942739 3638:2.2677608 3644:3.1547275 3650:0.21479982 3652:0.97840631 3665:0.98561907 3667:1.4880788 3679:1.6007506 3683:4.8854532 3687:4.4099703 3689:0.053631902 3690:5.1123548 3699:1.7275016 3703:1.3584076 3719:2.5041385 3729:0.99785471 3732:0.5573507 3756:0.29434389 3758:0.85939419 3765:2.856005 3771:3.4127703 3776:1.7461424 3778:1.9647108 3779:0.28492433 3785:2.2797933 3786:1.9729388 3789:1.2309965 3794:0.20022461 3795:1.1310947 3818:1.8464981 3819:0.53512192 3824:2.0277097 3826:1.6242279 3835:0.70032024 3837:2.9997053 3846:0.24659574 3848:4.0029016 3860:1.1327016 3867:4.7251644 3872:4.731607 3877:1.8931729 3886:1.3200161 3889:2.0604053 3891:3.476264 3892:1.4611253 3893:2.7793815 3901:1.0512565 3903:4.7042208 3907:1.4331694 3910:0.3025215 3911:2.4573038 3913:0.74867201 3915:1.4941434 3918:0.33826712 3923:0.78941274 3929:0.11873481 3941:0.10504009 3957:6.2127724 3974:1.5255075 3988:1.6829187 4001:0.075575411 4002:4.0242691 4004:0.1207782 4007:1.067646 4016:1.2478267 4021:0.84655738 4033:3.6090693 4036:3.7040071 4038:1.0922685 4041:3.653054 4042:0.4013156 4043:1.0123723 4061:1.0863947 4067:0.88630486 4071:0.73588431 4072:0.04055059 4074:1.8498791 4079:2.1688454 4084:0.19874573 4085:0.73089457 4089:2.2866139 4091:0.58105993 4093:0.042732418 
0.6294440877182094 6:0.11641866 9:6.3219347 19:0.016933829 39:1.7613854 40:4.7731013 54:1.4534932 73:1.1699952 77:4.5816102 84:0.18431443 87:0.65059698 90:0.66066974 91:1.7852565 106:1.5486488 107:3.6444032 108:0.27408519 121:0.34492818 122:0.33867621 123:2.3623557 125:5.2606506 126:1.046231 145:2.0456264 147:5.0515695 159:8.6903143 164:3.2165475 167:2.1558595 172:3.2731173 179:0.40193599 182:2.8582296 190:3.2027175 196:2.5227332 200:5.1045222 210:8.0389671 221:1.6106613 235:1.950713 236:0.82002157 240:1.4965068 241:3.0163798 242:3.2361667 247:4.8138175 252:5.4295878 262:0.13094842 269:1.7344635 272:0.90734804 277:2.0176485 278:2.1708171 288:0.72955775 292:0.47654289 295:4.071691 297:0.30537003 300:5.5665669 312:1.1907036 324:8.6118317 326:5.8102779 329:1.6028724 335:0.44425857 341:4.7146158 349:3.883723 350:0.63200271 364:0.80923551 365:1.534698 375:1.4491427 384:2.2202413 385:1.327924 391:0.098504722 396:2.0055466 399:1.3054874 431:3.7246451 434:1.0816677 442:3.712069 448:0.48222095 460:0.062797099 466:2.5944979 468:4.5937028 469:2.7646658 481:1.5109023 484:1.8984891 500:4.0298929 503:2.233073 505:1.2970756 508:0.11028892 515:0.70514321 517:0.13246867 520:0.56501943 524:4.6854978 529:1.8172364 532:2.5300927 538:0.82960486 545:10.896473 546:1.6215502 553:2.2104146 559:0.7766192 567:3.110424 568:1.3094578 572:0.66798556 575:1.0265156 577:0.58445114 583:3.7300982 592:2.2613773 606:5.2146797 608:1.2502893 610:0.97368872 612:4.4535656 614:2.7789619 615:0.28045225 618:0.28224772 619:1.0045155 635:1.5463266 638:0.21884769 642:0.16458526 645:0.3841539 651:0.3984859 653:2.3254566 657:7.3746772 662:0.18900153 664:0.51625049 675:0.077958047 679:0.81822455 680:0.98398191 686:0.84439921 687:9.0407896 691:0.081380069 698:1.7776004 705:3.6770651 706:1.7767494 721:5.3234715 723:4.0814476 725:0.41223133 729:5.3453507 735:0.27645719 748:3.7973833 749:0.43634188 752:1.6146166 757:1.0844326 764:4.1576295 777:6.7451911 778:0.39146554 782:6.1266251 788:0.14037886 792:2.4018593 793:2.0868812 794:3.909672 798:3.2191474 812:3.0137763 814:3.6618538 817:0.80598927 826:1.7777305 841:2.1536074 853:2.0185065 854:1.6352346 855:0.53499043 866:0.31122127 874:2.061445 883:1.7931721 894:5.8559194 902:4.2322359 904:0.84719336 910:0.70579785 912:1.4475844 916:0.91422951 918:2.5415902 920:2.7664843 922:1.8368399 928:1.0219301 932:1.2913162 942:1.7129271 945:4.4081144 952:0.80522853 953:0.089550465 956:0.85953605 957:4.1164885 960:1.2809446 965:3.7893717 966:2.0744567 974:4.6668906 976:2.2827177 979:2.4493124 980:0.47293314 983:0.079081431 988:0.15417042 994:2.1932502 996:0.61635709 999:0.59489566 1014:3.7794514 1021:4.4750619 1024:4.4332776 1034:0.58441192 1043:1.0411644 1047:6.9132795 1058:2.8761606 1065:1.3197534 1070:1.0720227 1075:2.7206836 1077:2.9055259 1092:0.68680191 1095:1.9597204 1096:1.9301376 1111:4.7549801 1113:3.1593227 1117:0.24861857 1125:2.9674435 1130:6.6821914 1135:0.033214986 1138:0.70471114 1139:0.39419946 1165:0.14317226 1166:0.23101638 1168:0.40073299 1169:0.71071541 1170:0.11648885 1174:2.2682357 1175:0.6899364 1192:1.6335832 1193:5.339561 1195:2.2654676 1199:0.72908551 1206:3.408134 1208:6.0640988 1217:1.6750886 1219:3.7792473 1220:3.1134892 1223:2.1205254 1226:1.0941495 1227:7.6236382 1237:1.7230648 1242:5.8553419 1251:0.54786938 1252:3.4079885 1253:0.95607394 1264:0.93837219 1269:1.3924141 1278:2.8864675 1279:0.047492862 1281:0.69400322 1286:2.8616562 1304:3.182338 1305:0.028263181 1310:2.0078411 1314:0.30499402 1317:1.4112566 1319:4.8930111 1325:0.0048607737 1335:0.95944911 1336:7.3123488 1340:0.26596624 1341:5.8711686 1352:2.6157315 1355:0.20364717 1361:2.3300226 1366:1.1696481 1369:7.0695753 1372:1.5005717 1377:0.57118672 1381:3.9191475 1392:1.6219432 1397:1.1212929 1402:1.6597084 1406:4.5579352 1408:2.1166875 1409:4.94491 1424:0.51554799 1426:1.5261457 1448:0.8257761 1454:0.99477905 1456:1.2788837 1464:3.7983894 1465:2.1166048 1467:1.2995261 1471:0.60078925 1475:2.6451612 1476:3.4837034 1482:0.84085095 1483:1.5937316 1484:9.8322859 1487:1.683463 1489:3.1100855 1502:3.3064735 1510:0.76765662 1515:0.16008347 1520:4.7385631 1522:0.35910797 1523:4.5092916 1526:0.99862814 1540:0.49124426 1541:2.4210215 1544:2.5099101 1546:5.9815531 1548:1.4322423 1550:1.8987268 1567:4.9136438 1569:0.80102968 1570:1.4528517 1572:2.9059732 1574:0.44077274 1586:1.0880977 1587:4.1262994 1588:2.592972 1597:0.83868217 1598:0.29844654 1602:0.97649688 1604:0.21875563 1605:6.5676475 1610:3.1209188 1613:2.8979199 1617:7.4456801 1618:1.3130257 1624:2.0531895 1625:0.80593377 1633:0.16567993 1636:1.6120613 1647:0.62376022 1661:6.2325754 1670:1.1509907 1678:3.4598737 1683:1.9961877 1691:2.9588206 1694:2.3779643 1697:0.53112495 1704:1.6422399 1708:0.10219204 1712:2.0321066 1720:6.6166263 1726:1.5930638 1732:2.939363 1734:1.2808285 1738:2.2067387 1742:1.084977 1747:0.062135667 1750:1.7393227 1758:0.46216446 1761:1.0150101 1762:5.9910474 1778:2.7750154 1782:4.8998928 1795:1.223 1802:0.97087741 1803:0.018605709 1804:2.3066142 1806:10.525928 1813:6.1947246 1817:0.90392107 1831:3.5009332 1842:2.8932571 1845:4.2045774 1846:6.4606833 1849:4.7200003 1854:4.6103306 1858:6.4055238 1860:3.475661 1861:5.7741103 1880:6.8520899 1889:4.7722001 1893:1.545866 1898:3.461761 1900:3.8544097 1901:1.4710557 1905:3.8701813 1906:0.58440518 1908:1.7542875 1925:1.7059926 1928:7.5777025 1930:2.1463153 1960:2.7385151 1966:1.3053561 1972:3.7654078 2004:3.276334 2009:8.7300663 2026:2.6448817 2028:0.7100212 2032:1.7423977 2035:1.9279109 2038:2.1328721 2042:0.31331405 2048:3.9343057 2055:0.19699901 2057:1.1116996 2066:2.8571968 2068:0.26157445 2070:6.6978765 2082:0.36688355 2083:0.36773896 2085:0.067980103 2094:0.57026017 2095:2.0301056 2099:1.3053916 2101:1.9411645 2102:5.8870192 2110:0.57652748 2117:1.3128496 2127:1.6860293 2128:2.6888442 2136:0.11554766 2137:2.064539 2144:2.7226059 2146:3.5518117 2153:0.35896194 2164:3.4140303 2177:3.9069321 2186:4.9407983 2188:3.2894006 2189:4.8756738 2190:1.9916805 2196:0.56162614 2199:2.0208981 2206:0.55805635 2226:1.0506058 2229:1.2914522 2232:2.5490294 2235:3.2726846 2236:4.9214258 2239:0.36360663 2241:1.8512771 2244:0.046958357 2245:1.3889307 2249:1.1207243 2251:0.12209293 2259:3.6818254 2271:5.3442588 2273:1.4312414 2280:0.99894822 2283:0.05371584 2311:4.0551243 2312:1.8711168 2313:0.75704288 2314:0.20891383 2315:1.541996 2317:0.36510143 2318:1.678107 2324:1.3430314 2329:1.7307572 2331:2.0325701 2340:1.5670891 2342:1.036816 2343:5.1984825 2372:0.39038336 2376:0.6554566 2383:4.3657093 2390:2.4553835 2393:0.61732101 2399:0.45038423 2404:0.35100541 2416:6.9454131 2423:4.8484106 2424:6.161943 2428:2.7691813 2432:5.2857428 2435:1.9507146 2439:0.44471276 2440:1.8954506 2444:1.5273305 2457:0.1279546 2460:1.977291 2464:0.84038746 2470:1.1500961 2481:1.2192438 2482:1.4151573 2485:4.220715 2486:2.2831459 2507:2.182852 2509:2.7721555 2518:1.175586 2519:0.39350522 2521:0.47738844 2523:0.67362773 2526:3.0686378 2528:0.54641861 2530:2.9479213 2531:2.2513888 2537:0.5719856 2551:5.4124537 2561:10.29349 2563:2.4537814 2576:3.4081576 2577:2.2949932 2586:0.49591005 2589:3.7320175 2594:1.4889055 2599:1.155113 2601:2.3814404 2604:2.4951324 2610:7.0096045 2611:0.7687639 2621:2.0447564 2623:3.8619943 2628:2.6134315 2629:0.75186002 2637:0.36207661 2642:0.60421157 2645:1.1282556 2662:1.4157027 2667:3.0203671 2670:3.3867338 2682:2.849916 2688:2.2623606 2689:1.9485346 2691:0.24786542 2708:2.2429984 2715:1.4709239 2718:0.52192831 2721:3.0050089 2723:0.37778956 2725:2.5305185 2726:4.047555 2738:1.8055949 2743:0.27982903 2744:1.0693763 2745:1.0169432 2758:0.39012688 2759:1.2895944 2760:1.8607361 2763:2.7069945 2765:1.6529133 2766:1.6128409 2771:6.2011385 2777:4.7916827 2784:3.4270792 2787:1.9326466 2788:0.43103918 2792:1.1668361 2793:1.772455 2812:2.4807212 2814:5.2978177 2817:0.84281588 2826:1.005425 2834:7.7537389 2841:3.3582482 2853:2.5791221 2857:0.83818984 2865:0.34073526 2867:0.42216676 2874:1.7266691 2879:4.5525799 2888:1.652887 2892:2.6427271 2894:2.0387614 2896:2.6903489 2903:2.199616 2909:0.10935485 2910:0.34590796 2916:2.3939652 2920:0.68578494 2928:0.44659895 2932:3.5345838 2941:0.90409398 2945:6.0063472 2949:4.6167502 2950:2.121182 2957:3.0512993 2961:0.82612503 2966:9.7082348 2967:1.6684389 2982:0.61069441 2991:2.3388193 2993:6.5883613 2997:2.8433239 3010:3.0493913 3020:0.1680138 3021:1.2083969 3022:0.34133372 3028:0.53521836 3036:6.9308391 3043:0.51313925 3050:2.7267609 3051:3.522845 3052:2.4471602 3062:0.0073383451 3066:2.4588087 3068:1.8952188 3072:8.2339182 3073:0.89982396 3075:2.7720993 3079:8.1227179 3080:0.27983916 3094:2.1057413 3095:0.24675381 3105:8.9040565 3110:1.7212069 3116:3.4724772 3119:1.345603 3124:1.73713 3134:1.2868403 3141:3.5062647 3144:1.690037 3145:3.084753 3146:3.0906963 3148:1.8344538 3151:3.3014598 3160:4.0544028 3163:5.3453617 3177:1.7535222 3183:6.4713731 3184:2.7641342 3190:0.35851339 3192:1.3706129 3195:0.47022825 3197:3.3604078 3198:1.1208341 3199:2.1441 3215:4.0487309 3217:0.1989731 3233:1.1272159 3235:1.6688643 3237:2.4213417 3241:2.3005056 3242:1.6005752 3251:0.32573721 3257:2.7890766 3268:1.0341411 3269:1.5083932 3275:1.0145001 3282:4.2673316 3284:0.58012205 3286:3.8576553 3291:2.4430382 3293:3.7717311 3294:1.1597141 3296:3.3000796 3315:1.5584083 3321:5.9752135 3323:0.6951158 3324:4.7975602 3332:0.4070273 3335:4.8735871 3338:1.1162113 3341:3.4215236 3347:1.9060731 3349:9.3358612 3366:3.3213935 3367:1.1408094 3373:0.067284167 3377:0.70516282 3378:5.1755333 3379:0.81702518 3382:1.9109383 3387:0.80352402 3397:3.3700542 3426:5.2472925 3431:2.0510046 3436:0.33797872 3441:0.09906812 3442:3.8160222 3443:2.0749125 3445:6.9615064 3452:3.6793039 3456:0.69322997 3467:2.7109327 3468:0.97656965 3478:4.2665243 3485:1.162992 3491:2.0619891 3496:2.381355 3504:4.3837867 3508:3.9425261 3509:4.0695796 3513:0.78196442 3516:1.740768 3520:0.24436969 3527:3.6831648 3529:0.0096443444 3539:3.9013584 3544:3.12023 3548:1.2240469 3549:3.0000172 3551:1.6094669 3555:5.753665 3561:1.0229204 3562:1.5809345 3563:0.032092899 3564:0.14349023 3568:0.29789567 3578:1.9764264 3580:0.57662678 3585:5.0963907 3592:0.30893567 3598:1.7214304 3599:1.2495366 3601:0.41675049 3604:0.87948388 3606:2.6570873 3614:2.5991256 3617:4.0473089 3618:0.30053729 3621:0.59990191 3631:2.5819514 3632:0.37327781 3638:2.2243843 3644:1.1464263 3652:3.6025438 3665:1.1380829 3667:2.3674297 3679:3.3179817 3682:1.6269643 3683:4.5293326 3687:5.0758438 3690:3.4012947 3699:4.407495 3703:3.7114496 3719:3.992907 3720:1.8604289 3732:2.6456528 3751:0.90427136 3756:1.8409591 3758:0.396501 3763:0.046872675 3765:1.9654202 3771:2.9494505 3776:1.8920447 3778:4.7029338 3785:2.0953112 3787:0.72794724 3795:0.65655357 3811:1.1447104 3818:2.2265048 3819:0.69504732 3824:2.0272064 3826:2.1816442 3835:2.727797 3837:3.8249378 3845:0.51665765 3846:1.4434283 3847:0.30535761 3848:3.7265837 3860:1.411576 3863:0.099517018 3867:4.2091136 3872:5.5742602 3877:3.3794484 3878:0.63525313 3886:0.1906499 3889:2.3253107 3891:3.8871243 3892:0.24847862 3901:2.2833939 3903:4.0297093 3907:1.1707141 3911:3.2221322 3913:1.3012946 3915:1.5833685 3923:7.785171 3925:1.2992737 3929:0.64703238 3941:0.21750583 3957:7.3714337 3974:1.3882706 3977:1.0462346 3986:0.11843249 3988:3.238728 3990:0.47063839 4000:0.86009419 4002:4.1210885 4007:0.52062428 4016:2.172111 4021:0.26354951 4029:1.4554132 4033:3.6507361 4036:5.0977139 4041:3.5023284 4042:2.5755355 4043:3.3708854 4055:0.34350663 4061:1.1220784 4063:0.14375877 4067:1.0658554 4074:2.664464 4079:0.99980628 4084:0.78113401 4085:0.90481281 4088:0.5871911 4089:2.4174321 4093:1.1076795 
0.5885127694464151 9:5.3361163 27:0.11105309 40:4.2402415 54:1.3069823 69:0.27497274 73:0.21226224 77:4.1237059 84:0.3763684 91:0.91519809 107:3.2791727 108:1.5181171 121:0.38622722 123:3.4535651 125:5.7206364 126:1.1264282 145:1.5131236 147:3.5768621 159:6.8844628 164:4.0411677 167:2.4967332 172:2.2741976 179:0.50483382 182:3.4338858 190:2.7229826 196:2.3609595 200:5.1222281 210:6.7662029 221:0.32052946 232:1.1766434 235:1.9246609 236:1.7740729 240:2.9419775 241:3.6556635 242:3.4727566 247:4.3138137 252:5.8597956 262:1.2651432 269:0.64080727 272:0.28784895 277:2.4716325 278:1.087195 288:0.50380421 292:0.017997473 295:2.8896968 297:0.1542964 300:4.8081927 312:0.020192385 324:9.6908817 326:6.0718904 329:2.5285664 335:1.5949891 341:5.7030544 349:3.0351691 364:1.2871495 365:2.3581581 375:2.2361727 379:0.010878742 384:1.6682236 385:1.1656477 391:0.46726653 396:1.4744613 431:2.9293947 432:1.4325662 433:0.39677691 434:0.9260965 442:3.6423423 448:0.056692183 460:0.46258965 466:2.805419 468:5.7626672 469:2.5857837 473:0.95413262 481:2.1556034 484:2.185358 499:0.25136271 500:4.7464576 503:3.2225959 508:0.9361788 515:0.27883384 520:0.49179858 524:5.6571717 532:2.6293027 538:0.65577471 545:10.567005 546:1.118715 553:1.903996 567:3.2331202 568:1.8500087 572:1.6127852 573:0.15372777 575:0.89438224 577:0.17311911 583:3.5824521 592:1.9872547 606:5.1819878 608:2.1513166 610:0.45539832 612:4.0713234 614:3.5414677 615:0.29463157 626:0.5260582 635:1.5641911 642:0.1123949 645:0.41494513 653:2.4187944 657:6.763432 662:1.2210759 664:1.3821607 670:0.19256163 675:0.53954822 679:0.24128005 680:0.70316201 686:0.8212837 687:7.2171698 691:1.1456566 698:2.7916613 705:2.0523934 706:1.2817631 711:0.22676703 721:5.0232882 723:3.6343369 727:0.54255235 729:4.8393726 748:4.3732762 752:1.4011389 764:4.9652972 777:6.527905 782:5.4283562 792:1.8037072 793:1.6849306 794:3.4260585 795:0.77648932 798:4.0981784 809:0.071307957 812:1.9530869 814:3.1553349 817:0.91450733 826:0.66273862 841:2.6086726 854:0.53689677 855:0.40676814 866:0.031039387 874:2.9720135 880:0.020691425 883:3.8374398 889:0.20493475 894:6.0298748 902:4.661046 904:0.13503313 905:0.99957347 910:0.32011324 912:2.1761401 918:1.4443481 920:3.1149678 922:3.1488168 927:0.046994269 928:0.26258427 932:0.5742017 942:1.734144 945:4.9794984 952:1.0781069 956:0.51406288 957:4.8133502 960:2.7265401 965:3.6436079 966:1.884932 968:1.0424054 974:5.106091 976:2.4775596 979:4.3372717 980:0.24446163 994:1.1743118 996:0.4229669 999:0.043513536 1014:3.2645197 1021:5.4867778 1024:3.8602433 1034:1.1543007 1043:1.4240991 1047:7.1065693 1058:2.6254556 1065:0.2706421 1070:0.70604044 1075:3.7440858 1077:2.4031699 1080:0.45700365 1092:0.23636919 1095:1.8445818 1096:1.3007283 1111:4.5183668 1113:3.3844242 1125:2.1521225 1130:5.2908025 1138:1.5078838 1139:1.1794028 1165:0.65464926 1169:0.65921831 1170:0.56044465 1174:1.510547 1175:0.10480131 1184:0.081582606 1192:0.6255005 1193:4.2937322 1195:2.457087 1206:2.7591064 1208:6.6386275 1217:1.0098958 1219:3.4899595 1220:3.5839002 1223:2.4556201 1227:8.5149307 1237:1.6813545 1242:4.0666065 1251:0.43822199 1252:5.598033 1253:1.531158 1264:0.6296038 1269:0.62712377 1271:0.32494807 1278:3.8360801 1279:0.16182613 1281:0.24305108 1285:0.82166731 1286:3.465426 1304:3.7381086 1314:1.0274618 1317:1.9999948 1318:0.57392412 1319:5.9014621 1335:1.9014208 1336:5.7786694 1340:1.006987 1341:5.3118834 1352:2.3620412 1355:0.94333577 1361:1.9507682 1366:1.749107 1369:7.402184 1372:3.2847583 1381:5.4245219 1392:0.85757846 1397:1.4254563 1402:1.3062283 1406:5.3385353 1408:0.9867748 1409:3.852303 1426:2.5239315 1448:0.11688881 1454:0.19070774 1456:0.96235532 1464:3.120405 1465:2.7634611 1475:2.8289533 1476:3.6539872 1482:0.6966638 1483:1.8229673 1484:8.2836304 1487:1.3588825 1488:0.10328227 1489:2.6133103 1502:1.1668836 1510:1.3893311 1520:4.0060687 1522:1.9225246 1523:4.1131673 1526:0.88869441 1541:1.3233178 1544:2.4642103 1546:5.3790493 1548:1.7155666 1550:1.1563587 1567:5.8601961 1569:2.7552636 1570:1.3748661 1572:2.7686646 1574:0.41694638 1587:3.6601114 1588:4.0251145 1597:0.85290438 1598:0.43397999 1605:5.8182735 1610:3.1272855 1613:3.2537658 1617:7.2690248 1618:2.0454073 1624:0.78862697 1625:2.2666061 1636:0.73330742 1648:0.14232013 1661:6.135159 1670:1.6331085 1678:4.7237711 1683:1.8702199 1691:3.7026162 1694:1.4619856 1697:1.0489293 1704:1.0305648 1712:1.3669727 1720:6.6523919 1726:1.1369689 1732:1.5630209 1734:0.6122545 1737:0.12963739 1738:1.6128796 1742:1.2024248 1750:0.19307148 1758:0.71708155 1761:0.9644739 1762:7.3074684 1777:0.0018755794 1778:1.621423 1782:5.2129192 1795:1.539006 1802:0.8932333 1803:0.12592041 1804:3.0439181 1806:10.08515 1812:0.25625849 1813:5.8836293 1817:1.3929356 1820:0.23513548 1824:0.65066791 1831:2.7144444 1842:4.0883217 1843:1.1142774 1845:3.4494119 1846:5.9261723 1849:4.4926949 1854:3.4269104 1858:5.7567172 1860:3.1412792 1861:6.021153 1880:7.1950994 1889:3.1268728 1898:4.4981499 1900:3.1899955 1901:0.91807371 1905:5.4560308 1908:1.1675655 1925:0.21243122 1928:8.7755556 1930:2.9005072 1960:2.2102933 1966:0.134891 1972:3.7935417 2004:2.84426 2009:8.3011904 2026:2.5219293 2032:2.1772032 2035:1.4600253 2038:3.1392956 2042:0.24403682 2048:5.4796481 2057:1.6782409 2066:3.4149513 2068:1.2772474 2070:8.1119814 2082:1.389436 2085:0.13173503 2094:0.39769214 2095:2.0445173 2099:2.5106533 2101:2.5511534 2102:5.4418688 2110:1.1392738 2117:2.7016821 2127:1.5788835 2128:4.0564952 2137:2.0368776 2144:3.6894057 2146:3.6049247 2164:1.9893434 2177:3.4854834 2186:5.3118281 2188:4.113328 2189:4.374229 2190:1.1602085 2196:0.83164805 2199:2.3364248 2214:0.54346448 2223:1.4316546 2226:0.77051294 2229:1.3038425 2232:2.6580479 2235:3.6312897 2236:3.8881621 2239:0.71805745 2241:2.4252634 2245:0.55502456 2249:0.71443844 2253:1.8617206 2259:3.0944622 2262:1.1264012 2271:5.8682089 2273:0.66247261 2280:0.54844111 2283:0.10168613 2292:0.38594779 2298:0.16608959 2311:3.3408349 2312:1.732137 2315:1.1821089 2317:1.6234179 2318:0.94982153 2329:1.1778274 2331:2.4152114 2340:1.6390712 2342:0.056980073 2343:3.9751234 2370:0.38374439 2372:0.97939163 2376:0.83496779 2383:5.6851034 2390:1.4435571 2416:7.3739491 2423:4.4522805 2424:7.0433946 2428:3.9903836 2432:5.8163357 2435:1.4744961 2439:0.35360575 2440:3.0858173 2444:1.1625171 2457:1.108278 2460:0.86952221 2464:0.38299999 2470:0.9809618 2481:1.9610825 2482:1.2823417 2485:3.4342916 2486:2.0388193 2488:0.34977832 2507:3.1062 2509:2.0078638 2518:1.1824582 2519:0.31680262 2526:3.1603584 2530:1.6995794 2531:1.4827943 2537:0.16188988 2551:6.3987751 2561:9.0042582 2563:3.5423162 2576:3.2499452 2577:3.4939883 2586:0.1378904 2589:2.6900928 2594:1.8940713 2599:1.7546163 2601:1.0544077 2604:3.2393286 2610:6.1015558 2611:0.73861432 2612:0.093399853 2621:2.0157909 2623:4.6493235 2628:1.017404 2637:0.91675842 2642:0.65910339 2645:0.26488364 2662:2.3560412 2667:3.3859625 2670:1.9934152 2682:2.1550035 2688:1.8858945 2689:2.0512168 2708:3.4611106 2715:0.69630128 2718:2.9983683 2721:1.5282967 2723:1.6625484 2725:4.4133244 2726:4.388061 2738:2.6487093 2743:0.9343878 2744:0.94602227 2745:0.87508363 2759:2.1083558 2763:2.6601706 2765:1.163481 2766:2.0125637 2771:5.8120227 2777:6.4657578 2784:4.3505325 2787:2.0462356 2788:0.45852253 2792:1.1990355 2793:2.1743779 2812:1.5205132 2814:4.6371584 2817:1.8406341 2826:1.0408003 2834:8.1711016 2841:4.0212879 2853:2.2972722 2857:1.0268731 2865:1.0060189 2867:0.41831711 2874:1.0023482 2879:2.9560447 2882:0.0065727234 2888:1.6038998 2892:2.5114949 2896:3.4627099 2903:2.2930584 2907:0.02641198 2910:0.92305362 2916:1.8490846 2920:0.77693874 2926:0.20845383 2932:2.8496721 2938:0.40201995 2941:0.89587015 2945:5.7432098 2949:5.4655175 2950:1.6138096 2957:1.3069326 2961:1.9024677 2966:9.7969809 2967:2.4832997 2974:0.022475779 2982:0.12538508 2991:3.0394938 2993:5.1217418 2997:2.7981617 3010:2.932837 3020:0.19631009 3022:0.27781573 3028:0.67042077 3036:7.3380909 3050:2.2224362 3051:4.0725765 3052:1.6241436 3056:0.0031187907 3066:1.8615327 3068:0.85129309 3072:7.0858407 3073:0.17500812 3075:3.5294104 3079:7.5525746 3094:4.2542324 3095:0.76787764 3105:9.7252464 3110:0.25740814 3116:4.8234 3119:2.4783425 3124:0.83316553 3134:0.43551999 3139:0.45400655 3141:3.9024136 3144:1.9212863 3145:3.9615467 3146:4.2997808 3148:1.2233893 3151:1.4098892 3160:4.1240253 3163:4.6600075 3177:2.338238 3183:6.0883183 3184:1.4489105 3190:0.24692625 3192:0.13746274 3197:2.7935548 3198:2.5126143 3199:0.13033983 3215:3.500423 3217:0.97774899 3233:0.86964679 3235:0.7155838 3237:3.4556944 3241:3.3172061 3242:0.70045114 3246:0.44540313 3257:2.0999205 3268:2.4480181 3269:0.63355494 3275:0.85945857 3282:3.0895338 3284:0.6323595 3286:4.4352016 3291:3.1871586 3293:4.8155432 3294:0.35031375 3296:2.6347315 3315:1.3699433 3321:3.4223554 3324:4.3848195 3328:0.066319168 3332:1.3822824 3335:3.9971514 3338:0.59084117 3341:5.1989727 3347:1.77279 3349:9.5574274 3366:4.2060719 3367:1.1456277 3378:4.2063932 3382:0.79410356 3387:0.15556608 3397:3.744803 3424:0.35592324 3426:5.7896585 3431:2.3051734 3436:0.28579247 3441:1.3854071 3442:3.0646849 3443:3.0492702 3445:5.0421133 3452:3.6925218 3456:0.51532489 3467:3.3043323 3468:2.4649785 3474:0.57644796 3478:4.9406939 3485:1.4668378 3491:2.0045669 3493:0.35473049 3496:3.7232783 3503:0.75779748 3504:5.4107652 3508:4.2568479 3509:3.8281162 3516:1.6503628 3527:2.7344873 3529:1.3065754 3539:3.7232122 3544:3.2669582 3548:1.4736369 3549:1.1529555 3551:0.6979152 3555:4.8182039 3557:0.033165902 3561:2.6432347 3562:0.65513706 3578:0.87387073 3580:0.73448491 3582:0.25845313 3585:5.7715435 3598:1.787428 3599:2.6479392 3601:1.4006008 3604:0.77735627 3606:3.1463935 3614:3.1614811 3617:4.1644063 3618:1.2599573 3625:0.37228784 3626:0.12852924 3627:0.11418477 3631:2.5819287 3638:1.7751455 3644:1.1710531 3652:3.2639146 3665:0.60026455 3667:1.4231447 3679:4.4210062 3682:1.1209292 3683:5.4354887 3687:4.3791161 3690:3.1608148 3698:0.35738611 3699:3.7071106 3703:2.6521049 3709:0.29312831 3719:4.1584673 3720:1.7692554 3729:0.085598707 3732:1.5888044 3751:0.33786526 3756:1.4050708 3758:1.1688772 3765:2.7238576 3771:4.6439648 3776:3.1553359 3778:4.8826594 3779:0.48045748 3785:1.7317619 3786:0.41417545 3787:0.90424556 3789:0.16574225 3795:1.0247626 3811:0.46362934 3818:2.4292521 3819:0.98801106 3824:1.5394063 3826:0.88867342 3835:2.7028971 3837:3.5285015 3846:0.98007441 3847:0.9862482 3848:4.444963 3860:1.9679523 3867:3.2073145 3872:5.7917237 3877:1.9800817 3889:2.0523219 3891:3.5907073 3893:0.37823433 3901:0.23328561 3903:3.9386892 3907:0.016403735 3911:2.9289458 3913:0.20414054 3915:2.175818 3923:6.5875115 3957:7.5034242 3974:1.9475977 3977:1.1447549 3984:0.15231568 3986:0.38929793 3988:1.1839381 4000:0.59579515 4002:4.6638999 4007:0.48223251 4016:2.7786226 4021:0.1385673 4033:4.95754 4036:6.0163198 4038:0.38193715 4041:4.5026965 4042:1.982435 4043:2.3565686 4055:0.47371906 4061:1.7438824 4067:1.0054116 4071:0.30675068 4074:3.8874168 4079:1.7213286 4084:1.0123235 4085:0.92478013 4089:1.9253726 4093:0.0013952851 
0.1614966303708962 9:7.5452366 19:1.5211836 27:1.017684 39:0.56268638 40:4.0173864 72:0.72536027 73:3.0561383 77:4.5043859 79:0.36975035 87:1.7369983 90:1.8019996 91:2.0198989 103:2.8213642 105:0.24381527 106:3.2947397 107:4.2146831 112:0.34814477 123:2.1381104 125:8.6030283 126:0.61949539 147:6.0066462 150:0.49744231 159:8.3548584 160:0.12290537 164:2.1836457 167:2.9338484 172:5.077868 179:0.20301701 182:3.3889771 190:3.2754614 196:2.8474801 200:3.7576296 210:5.9621501 224:0.31635386 232:0.46576661 235:1.083883 236:0.29456508 240:1.576039 241:0.20341477 242:3.3736789 247:3.9269423 252:5.4128752 269:1.8339126 272:0.20358308 276:2.5428216 277:2.6813359 278:2.2589927 288:0.64084625 292:1.7737947 295:3.8172033 297:0.62214011 300:4.4276385 324:6.6747727 326:4.0312638 329:3.5819888 341:4.3906298 349:4.5597358 350:2.2838056 364:1.3911448 365:0.45512295 375:1.6780958 379:1.1138992 384:0.29939514 385:1.978912 391:0.37767592 396:0.96344888 399:0.001565814 410:0.62309635 425:1.1733546 431:1.4118575 432:0.043399662 433:0.39689529 434:0.7588892 442:4.2123575 448:2.6732457 451:1.4402114 466:2.1433611 468:6.6902432 469:3.0530305 473:1.0819623 481:1.6232265 484:0.042052656 500:3.4758158 503:1.2822868 504:1.9283636 505:0.35683918 515:2.1697493 524:4.6151023 529:1.6772292 532:2.1132586 538:2.269213 545:13.130137 546:1.4769686 553:1.0725125 559:2.6917264 567:1.9184705 568:1.094007 575:0.19116202 583:1.3432593 592:0.53064573 606:3.6801968 609:1.3485515 610:0.26851618 612:3.0035522 614:2.2770698 615:0.27441341 618:0.96533406 619:1.7752937 620:0.35874707 621:2.4166174 625:2.2138183 635:2.5673406 638:3.0363531 640:0.34691641 642:0.9570967 651:1.2961217 653:0.61520195 657:5.7615619 680:0.98184276 687:10.003474 692:0.31911576 698:3.8269908 701:1.0349319 705:2.5592699 706:2.1900501 721:4.2763753 723:4.1986704 729:3.3406649 735:1.6028813 747:0.7182045 748:4.6344604 751:0.29006949 752:1.9613392 757:2.7082543 764:4.6493611 777:4.9772239 778:1.6971252 782:6.0885725 792:2.621084 794:5.5764971 798:2.7366107 804:0.29360181 808:0.71546185 812:1.6542937 814:3.2738495 816:1.2119658 817:0.38528642 823:0.0064051747 826:0.61006176 837:1.1600201 853:1.3781978 854:0.86733544 855:3.2672365 874:2.5556805 883:1.3260882 893:0.34107962 894:5.0884295 896:0.91893071 902:1.4519808 903:0.32138535 904:2.120517 905:0.21055707 908:1.6923847 910:4.4938269 912:1.528073 918:3.2588358 920:3.7220273 922:2.4640892 927:1.1764221 928:1.902715 932:0.8909446 942:3.7836468 945:4.6792822 952:0.20558938 953:1.1329397 956:2.0706987 957:5.2135339 960:1.7766535 964:0.22072785 965:3.3595583 966:0.68623507 970:0.40924901 974:4.5792718 976:5.1686006 979:5.2304754 980:1.964663 983:2.0842569 994:5.0016923 996:1.62628 999:0.94319308 1014:5.005887 1021:2.95364 1024:3.7285147 1043:3.5958626 1047:5.3453026 1058:5.0528646 1060:0.818546 1075:1.5830848 1077:3.7839949 1092:1.1874744 1095:2.6275136 1111:3.1538122 1113:2.7905707 1121:1.6369343 1125:3.8844607 1127:0.12111557 1130:7.6540251 1162:1.2424304 1166:1.6293674 1168:0.027612627 1174:2.0731144 1184:0.46335894 1191:0.70000589 1192:0.84950006 1193:6.356216 1195:1.5587631 1199:0.78706139 1206:1.7527509 1208:3.8576698 1217:4.3960333 1219:2.5305719 1220:2.3835926 1223:1.7303895 1226:2.3627465 1227:8.0087414 1237:2.4108937 1242:5.7753854 1251:0.5307371 1252:3.3540809 1269:0.38960028 1271:0.72250539 1278:0.73462456 1279:2.9153538 1281:2.3381913 1284:2.2612276 1285:0.052613497 1287:0.45948356 1304:0.36789665 1310:2.863611 1314:0.24843985 1317:1.4113309 1319:5.5693226 1336:6.8854074 1339:1.0140659 1340:0.55462581 1341:6.154397 1352:2.9119656 1355:0.56542957 1361:1.3805566 1363:2.4524813 1369:5.6412134 1372:1.0168655 1381:2.974123 1385:0.46115035 1392:1.9207582 1397:3.0747938 1402:2.3867016 1406:4.7136469 1408:2.8481352 1409:5.988152 1411:0.59304368 1424:3.4535327 1426:3.1708918 1430:0.31367093 1448:0.35772699 1454:1.3116999 1456:1.8185844 1464:1.8309017 1465:3.2999644 1471:0.73905206 1474:0.4768225 1475:2.4018326 1476:1.4080591 1482:1.8497399 1483:3.8809421 1484:8.160593 1487:1.5502368 1489:1.9188198 1495:0.12848777 1502:4.1831112 1504:0.082994759 1507:0.272338 1510:2.3599906 1520:2.1237547 1523:5.7417798 1526:1.1904976 1541:3.3240323 1544:2.1866341 1546:5.5066209 1548:2.2559922 1550:2.2378492 1567:7.4462833 1570:0.88638139 1572:1.7843782 1574:1.9828842 1580:1.2405844 1587:3.7919469 1588:2.9818602 1597:3.3631899 1602:2.6638625 1605:4.0925345 1610:4.486536 1613:0.41073835 1617:10.627071 1618:1.9775507 1624:0.74738038 1633:0.80424201 1647:1.4779156 1661:2.5715797 1667:1.1484418 1670:2.0066466 1678:3.1962435 1683:0.33768111 1691:1.7722987 1694:1.254837 1697:1.3306745 1704:2.3787124 1712:1.1754409 1720:4.2188621 1726:1.6111305 1727:0.54169679 1730:2.9791155 1731:1.1320349 1732:1.2264102 1734:1.9698724 1738:3.3098912 1742:1.4022776 1747:2.4454865 1750:3.1993387 1754:0.13178468 1758:0.88623971 1759:1.2922602 1761:0.75282431 1762:2.6277215 1778:4.6957269 1782:5.8999009 1795:3.0589705 1802:2.4526694 1804:1.1532234 1805:0.14552598 1806:11.171864 1813:5.9640322 1831:3.4477146 1842:3.0452051 1845:5.586998 1846:4.4681377 1849:2.2366495 1854:6.325428 1858:6.1668234 1860:1.3644646 1861:4.9464736 1868:3.1527612 1880:4.1077938 1889:4.0432549 1893:3.3208897 1898:6.1110597 1900:4.4149194 1901:3.4387474 1905:3.5959678 1906:1.2690045 1908:4.3522334 1911:0.034213543 1925:3.071147 1928:8.1722355 1930:0.82216555 1940:1.1504424 1960:4.5661035 1966:1.9659793 1972:2.9721267 2004:1.9205959 2009:8.2972527 2024:0.79816246 2026:4.0969605 2028:0.086386524 2032:3.2038441 2035:1.4984576 2036:0.37452185 2038:1.650354 2048:4.7692752 2057:0.62453127 2066:1.0498108 2070:5.9506354 2082:1.0245426 2095:3.1359255 2096:0.53355688 2099:1.3695983 2101:0.021081984 2102:4.2174926 2126:1.0358106 2127:2.5313704 2128:1.7833859 2135:1.6196226 2137:1.9686086 2144:1.5113933 2146:0.46124414 2162:0.39959311 2164:3.7234056 2177:6.1372437 2186:3.745641 2188:4.2681575 2189:4.6721625 2190:2.880877 2196:0.18807507 2199:1.1239836 2200:1.3461714 2206:1.4013878 2215:0.26764852 2226:1.6582969 2229:0.42239812 2232:3.2653067 2235:3.8349502 2236:6.60111 2241:2.2517004 2242:1.4495721 2251:0.78961432 2254:0.35006705 2259:0.76790404 2262:0.21963443 2271:6.9195085 2280:0.73202908 2283:4.1533008 2298:0.61153913 2305:0.27424189 2311:3.977844 2312:2.0995686 2315:0.059916705 2318:1.1125891 2331:0.79080993 2338:2.5307624 2340:2.6896946 2342:2.3130574 2343:5.724853 2372:4.2959871 2376:2.7026336 2383:2.6180072 2390:1.0709895 2416:5.5018253 2417:1.0896649 2419:0.75908381 2423:4.9289756 2424:4.3064389 2428:3.3377202 2432:2.2412548 2433:2.0898664 2435:0.019584775 2439:1.7086548 2440:1.3398678 2444:1.3147335 2453:0.32821906 2457:1.734871 2460:1.2846378 2464:1.8371408 2470:0.17652264 2481:0.21779305 2485:1.8996532 2486:2.486686 2507:2.3860672 2509:1.5659621 2518:4.0708089 2521:0.35320979 2523:0.53069985 2526:2.1355553 2528:0.54953098 2530:3.774682 2531:0.97674847 2537:0.48729512 2545:0.96630955 2551:3.6673007 2561:8.4494429 2563:4.08674 2576:2.6784563 2577:2.1254849 2586:1.6560391 2588:1.5364938 2589:3.5087414 2594:3.0661194 2598:1.1480062 2599:2.9508748 2601:3.9582679 2604:2.6874363 2610:4.8995523 2611:2.8537397 2621:2.1025836 2623:6.1524115 2628:4.212163 2629:2.1683621 2645:1.2678177 2657:0.19336587 2659:0.55358994 2662:0.21811654 2667:4.2759371 2670:3.4649429 2682:2.7089691 2688:1.8739011 2689:3.4291005 2691:0.12984708 2708:4.8245821 2715:0.50616699 2717:0.19564112 2719:1.5164285 2721:2.853229 2726:3.5237205 2738:1.4681499 2759:0.45626667 2760:0.52144074 2761:1.0648079 2763:1.671859 2765:1.0122213 2771:5.7043014 2773:0.23595002 2775:0.17157948 2777:4.4966626 2784:3.1024086 2787:0.21529719 2792:0.69211084 2793:2.9754417 2812:2.652859 2814:2.1462803 2819:1.197268 2824:0.99593818 2825:0.77514255 2834:3.5180955 2841:3.0064914 2844:0.97336614 2853:0.60020864 2867:0.063601106 2872:1.4718087 2874:5.0351629 2879:5.2751923 2887:0.24495614 2888:1.0019542 2894:2.0056798 2903:2.5424745 2907:0.20395511 2909:1.3259252 2913:0.63548577 2916:0.74367571 2926:0.71070051 2932:3.3949146 2938:1.2591643 2941:0.50733078 2945:6.4420052 2949:5.0408254 2950:2.337466 2957:2.5629678 2961:0.73243713 2962:0.89692605 2966:8.7574606 2967:0.68656433 2991:3.1475475 2993:6.8207588 2996:0.33229882 2997:0.7636894 3010:1.9384898 3021:1.0546215 3024:0.21425802 3028:2.3771462 3036:6.446527 3043:2.9473131 3050:1.7230802 3051:0.76591504 3052:2.0013509 3061:0.50602734 3066:1.9806569 3068:3.2577147 3072:8.570693 3073:2.3186393 3079:7.6231308 3080:2.1266994 3088:4.0506678 3094:0.90795624 3105:6.9803677 3110:1.0663496 3116:1.2320843 3119:4.9110651 3124:3.2807579 3129:0.661807 3139:0.46862817 3141:4.1735497 3145:2.035989 3146:2.4426332 3148:2.2881103 3151:0.73413324 3160:2.6124454 3163:2.7502754 3177:2.6199408 3180:0.55453211 3183:5.8288736 3184:3.3470223 3192:3.5236747 3195:1.8762385 3197:2.2196531 3198:1.4195061 3199:4.1725731 3202:0.11095116 3215:4.3215027 3241:3.9068463 3242:1.496327 3251:0.30234209 3257:4.4030604 3268:0.67764765 3269:3.4249499 3275:0.14190179 3276:0.01202774 3282:4.3012013 3284:1.1243351 3286:3.5513935 3291:0.30139947 3293:2.4468553 3296:4.1434855 3315:1.8371514 3321:3.7549438 3324:2.405458 3332:0.37521178 3335:5.3608441 3338:2.2381182 3341:4.4821591 3347:3.6972284 3349:8.5609245 3365:0.20380154 3366:4.7639403 3367:1.20265 3373:1.3379481 3377:1.4005789 3378:7.2231965 3379:1.8715394 3382:1.3201967 3387:2.2863734 3395:1.0122553 3397:2.2400856 3416:2.104825 3425:2.6911361 3426:6.8101625 3431:0.35189807 3436:2.8662724 3441:0.41234261 3442:2.2825401 3443:2.6718357 3445:6.7871103 3452:2.9745922 3456:2.6571171 3467:1.8231026 3468:2.012351 3478:3.9264143 3485:1.905345 3488:0.61847305 3496:0.68822038 3504:3.2906146 3508:0.80048871 3509:2.9003332 3516:0.59315211 3527:2.6016572 3539:2.1485569 3540:0.21420237 3543:0.23330685 3544:1.253379 3548:0.97995669 3549:4.05478 3551:4.7758451 3555:4.4211617 3561:0.94327754 3563:1.5111563 3578:2.7185385 3580:0.78012705 3585:5.5941734 3592:0.07244575 3598:2.0306213 3606:3.0594003 3631:1.606518 3638:0.54490012 3644:0.81493157 3652:2.7471495 3663:0.71635216 3666:0.00049102306 3667:3.3830128 3679:1.7578115 3682:1.925825 3683:4.5150347 3687:4.5595894 3690:2.1390953 3699:5.4706368 3703:1.9326856 3719:2.3815513 3720:2.490258 3732:1.0905501 3736:0.47679585 3751:3.0514417 3756:3.2201734 3758:2.2377188 3763:1.578501 3765:0.71973324 3771:2.5053349 3776:0.32001007 3778:5.1725516 3779:0.63636905 3785:0.43896255 3786:0.37891272 3787:0.9385066 3794:0.32848141 3795:2.6060376 3811:1.6128893 3818:1.1200248 3819:1.4741032 3824:0.49447277 3826:1.5801249 3835:3.6697826 3837:2.5010242 3845:0.89106506 3846:3.458612 3848:2.9818609 3860:0.4617632 3866:0.75798833 3867:4.6369815 3872:3.748379 3877:3.4674568 3886:1.1679039 3889:1.6642872 3891:1.9176089 3901:4.1897397 3903:2.8440127 3907:0.10136098 3910:0.66670644 3911:3.9232728 3913:2.5617743 3915:2.4631045 3923:5.494102 3924:0.59661913 3925:0.30056474 3941:2.5229812 3957:7.7733188 3974:1.3680192 3977:2.8193789 3979:0.29221195 3986:0.14733171 3988:3.3691115 4000:0.40231472 4002:3.9586813 4029:0.31549144 4033:4.7418876 4036:6.3589358 4041:1.5693982 4042:2.6904967 4043:3.5131259 4055:2.2161119 4067:1.0934625 4072:0.65717131 4074:5.1715708 4079:0.69853204 4084:1.3367709 4085:1.341054 4088:1.7278488 4089:5.1207423 4093:2.2389162 4095:1.46539 
0.9385776561744944 7:0.52836001 9:6.4484758 10:0.60684085 16:0.82692045 19:2.1880755 27:2.5134552 39:3.4599354 40:2.7767119 55:1.2289503 60:1.0873227 73:2.4425228 79:1.3307762 90:3.0845449 91:1.3573817 103:1.6685815 105:5.9684801 106:1.6199571 107:1.4253792 122:0.18837404 123:5.312901 125:8.833209 128:0.29153669 129:0.83861756 147:5.7554564 150:2.5067809 159:5.4384375 167:2.8776116 172:4.7474127 181:1.62119 182:4.0341511 190:2.399117 196:2.6318648 210:2.5580988 211:1.1188946 214:0.62549192 218:0.052988291 220:0.13965368 221:0.41537637 222:1.1108159 232:1.9146435 233:2.6018333 235:0.27640623 238:1.488323 240:1.3826412 241:0.15854922 242:3.4578316 247:3.9129114 248:0.42758405 252:2.5111375 255:0.51662326 258:1.1069788 262:1.444597 269:2.0706184 276:5.9635372 282:0.99994361 283:1.7906709 288:3.1427741 295:6.0008559 300:5.4925046 319:1.1182826 324:0.38874847 326:1.8528001 329:1.9239676 333:1.7138922 341:3.0162754 342:2.0554554 344:1.1309053 348:2.1843731 349:2.7792375 350:0.022921816 364:1.6456869 365:0.50014424 373:0.016955376 374:0.56421006 377:0.96693653 378:1.8993378 379:1.5043564 382:0.51018322 385:0.065798551 387:0.14408523 399:2.2328398 400:0.33709538 405:1.8931904 410:0.88777274 425:3.06564 431:1.1562213 432:0.59239441 434:0.10485451 442:1.518582 448:0.61955643 451:3.0718193 455:0.60272402 466:2.2012069 468:4.9034538 473:4.6970282 481:2.539701 486:0.84065008 493:0.4997673 499:1.6116236 500:1.6065638 504:4.256022 505:1.0781178 509:0.55337036 517:0.31290463 524:4.6647382 529:1.7170422 532:0.83133733 538:1.0052042 545:8.1255121 556:0.6325748 559:1.8299533 567:2.6117105 583:0.45970368 606:1.3144916 608:2.6272554 612:3.6865907 614:7.1165342 615:0.39213008 618:1.1078031 619:1.1853218 620:3.240402 621:2.4135787 625:2.1756346 635:1.6387622 638:3.5074403 642:1.2460725 657:3.4178777 675:2.2237775 676:2.4433331 684:0.016066641 687:6.9089932 692:2.0801716 694:0.10438016 698:2.3462214 705:4.3702831 706:1.2411231 711:0.45884344 721:3.1429589 723:2.9394419 728:4.2607622 729:2.493726 747:0.86823988 748:5.1879787 751:4.7002563 752:1.475973 757:1.3780961 758:0.080875963 764:3.4409089 778:2.4140215 782:2.3833108 794:5.750247 795:1.6129797 798:3.9687276 804:3.5778353 808:2.9206378 814:3.6024504 816:2.8778238 817:0.33811653 837:1.4145026 839:0.44927937 840:1.6416069 847:1.2319876 853:0.2275583 854:0.2984668 855:3.8273232 857:1.2037338 858:1.2395155 871:0.048101842 874:0.32045823 880:0.0025497973 883:2.3968813 887:0.68805695 888:0.11539194 894:1.0674005 895:0.47197038 896:0.88119423 902:1.4564815 904:1.4570526 908:5.6192822 910:5.0062714 912:0.82477707 918:1.7866971 927:0.80359733 928:1.1270866 932:2.2983499 945:2.6232681 951:1.6773057 953:0.45568714 956:3.6582153 957:5.7142959 960:0.58270735 966:0.13463497 968:0.68319809 970:1.4209468 974:4.148478 975:0.34719396 976:4.0990834 979:1.7768669 980:1.8653666 983:5.1568131 987:2.0616057 988:0.62737691 994:4.2905889 995:0.28227845 996:3.254127 999:0.8640582 1014:4.5507016 1016:2.1924348 1024:2.7706342 1026:0.019906878 1037:0.21556562 1043:3.8111768 1047:3.1099396 1051:0.7118125 1058:2.0562327 1060:0.93854243 1070:2.0370288 1075:2.7848725 1077:3.2040932 1078:0.74472862 1094:0.20372775 1095:2.0583401 1100:1.7040995 1111:1.0006806 1113:3.6565275 1121:0.65483254 1125:1.9169877 1130:5.3275313 1135:0.54327095 1138:1.7465076 1157:1.9543195 1159:0.31394082 1162:0.68805856 1166:3.9229345 1169:1.3165804 1174:0.5191102 1180:3.6751063 1184:1.2499583 1187:1.2091491 1193:2.4110096 1195:1.5806532 1206:1.9379272 1208:1.6712887 1217:5.3724103 1219:5.3987122 1220:0.72772521 1223:0.0086466968 1226:3.8681474 1227:5.6992073 1237:3.3435984 1242:1.4440936 1251:1.7113056 1252:2.8031299 1271:0.36014029 1272:0.69184351 1278:0.091365322 1279:1.6386244 1281:4.8456535 1284:3.7407777 1287:0.098582923 1310:1.0092059 1317:1.4645548 1319:4.5926332 1332:3.6128905 1335:2.5966787 1336:0.60219884 1341:6.1356854 1355:3.0496259 1363:0.38643968 1369:2.2180328 1377:0.67828232 1381:1.7969275 1385:2.4433827 1389:2.063494 1392:0.97545666 1397:2.0884387 1402:1.3576225 1406:3.7819312 1408:5.7646894 1409:3.9377999 1411:1.7065295 1412:1.7961285 1421:0.20461854 1424:3.8257742 1426:4.2286096 1437:0.96480155 1454:2.3496203 1456:5.1675215 1457:1.8502488 1465:1.996751 1466:0.03468731 1475:1.7864517 1476:0.0075030252 1482:0.33299029 1483:2.9899833 1484:1.6665461 1487:1.4887453 1502:6.405931 1504:0.26412958 1507:0.94726533 1510:0.24427778 1520:1.61849 1522:1.4887005 1523:6.4379563 1526:1.085073 1540:0.77075469 1544:2.6853344 1546:4.0814619 1548:2.6853375 1550:2.2998648 1567:4.5294085 1570:1.7577857 1572:0.61249006 1574:3.7165945 1576:0.1374598 1586:0.27616733 1587:5.10323 1588:2.0024695 1597:4.4522552 1600:1.2744966 1602:3.7893703 1605:0.272295 1610:1.0374792 1613:0.56963921 1617:10.064995 1622:0.045633674 1624:1.1998237 1625:0.047142148 1633:0.58815682 1645:1.6192708 1647:0.99118209 1661:1.3557522 1670:0.029515415 1676:0.67154801 1691:0.60151452 1697:2.390429 1701:1.7170721 1704:1.5527942 1708:0.3776513 1718:0.90111887 1720:1.982075 1726:2.55007 1727:2.8817208 1730:3.9042819 1731:2.4596431 1734:2.4905431 1738:1.9264178 1740:0.19425598 1742:1.9187592 1747:0.12565801 1750:5.6694856 1759:3.9752092 1761:1.5359199 1762:2.3519809 1767:1.0324171 1768:3.6272001 1778:1.9513575 1782:3.733139 1786:1.0967305 1792:0.3780354 1795:1.6330761 1802:1.0907522 1804:1.1179351 1805:0.85107499 1806:8.43009 1813:5.2349625 1817:2.1948822 1822:0.07326287 1831:2.408674 1842:1.2190522 1845:3.6240208 1846:1.8429784 1849:2.6646109 1853:0.086593628 1854:6.3793387 1858:5.0734348 1860:0.45588663 1861:0.81097329 1864:0.84817916 1868:3.0806229 1880:3.1576345 1889:5.5456638 1891:0.10003844 1893:2.8350976 1895:0.43744522 1898:3.9391737 1900:2.8378658 1905:1.3543071 1906:2.3704953 1907:2.6024642 1908:2.4415863 1913:0.14463791 1923:1.3215048 1928:1.8177773 1940:2.4721899 1956:1.7281455 1960:4.451611 1966:0.78874278 1992:0.16989076 2001:0.70464277 2004:1.5969625 2009:4.8138351 2021:0.35035345 2026:4.9249802 2028:1.9987979 2032:7.4063678 2036:0.61911315 2038:1.0723339 2048:4.6990271 2055:1.7437494 2057:3.3314404 2066:1.0055852 2070:0.30285567 2082:0.93450224 2083:1.7151697 2095:3.6619666 2097:1.3251729 2099:1.3968174 2102:0.90541327 2126:1.254232 2127:4.6987157 2130:0.095573097 2136:0.25100687 2137:2.5526757 2144:1.9425457 2146:0.84685135 2153:4.2978954 2164:4.7588263 2177:7.6642637 2188:3.1805077 2189:3.5436769 2190:1.3618776 2196:0.95335901 2199:2.2154582 2206:0.27449417 2215:1.15668 2226:2.722326 2232:0.50609434 2235:1.3135208 2236:6.8796949 2239:0.1673266 2241:2.7729704 2242:1.9082972 2248:1.7373893 2251:1.6487482 2254:2.0168052 2271:3.54792 2283:6.128396 2284:0.90365326 2286:0.22742927 2305:0.14259505 2311:5.9614601 2312:6.003437 2313:1.5266005 2314:0.56394148 2315:0.93325865 2329:0.81371325 2338:0.95796216 2343:6.012012 2369:1.1369027 2372:1.607286 2382:0.27130425 2383:0.6626662 2390:1.4990035 2395:0.8377704 2399:1.7354594 2404:0.80621022 2416:2.2322459 2419:1.2718091 2423:1.587154 2424:3.7868986 2427:0.31386924 2428:3.7775338 2432:2.5144823 2435:3.1158178 2438:2.1512411 2439:2.3777032 2444:2.9625564 2453:1.8132199 2459:0.39219019 2460:0.67417407 2467:1.8403161 2479:0.44782162 2485:1.4985112 2486:2.2375114 2509:4.7865968 2516:1.1592932 2518:1.6310318 2526:2.0460777 2531:3.5018985 2534:0.19365805 2537:0.73585069 2545:1.1701245 2551:3.4033017 2561:7.0297608 2563:3.5457509 2576:5.1346588 2577:4.1986437 2586:4.1985207 2588:0.67447078 2589:2.660816 2594:0.91148251 2598:0.95793098 2600:0.22268429 2601:8.1674194 2604:2.871604 2610:6.0309334 2619:1.2602732 2623:2.3106198 2626:1.1547114 2628:4.9042292 2629:3.0934298 2634:2.1442151 2645:0.47977394 2657:0.12750423 2667:2.6529794 2670:1.065863 2674:0.40662363 2682:3.7756729 2687:4.3165698 2688:1.4145374 2689:1.9203821 2703:1.3034865 2708:7.1207442 2715:1.6365731 2719:1.2698548 2720:4.7642422 2721:5.1063671 2726:1.5895272 2732:0.53341466 2742:0.37527663 2743:0.24365175 2744:1.7912117 2759:2.1166267 2760:1.1199561 2761:1.3851643 2763:0.59239137 2765:2.4479616 2771:1.4930161 2773:1.6065887 2775:0.56448346 2784:2.8599613 2786:0.024129689 2792:1.1722919 2793:5.971673 2803:1.6545154 2812:1.7197359 2814:2.0520899 2817:0.33733746 2819:1.6752231 2825:2.2054548 2833:1.438508 2834:0.71047544 2838:1.8918711 2840:2.9452908 2841:0.50239038 2843:0.3391231 2848:1.3507832 2866:1.5059017 2867:4.5758033 2872:1.7641428 2874:4.1512499 2879:2.8650658 2888:2.1395619 2894:6.0761113 2895:2.056699 2903:2.1969621 2906:1.4843692 2907:1.305505 2913:1.8363504 2916:0.11522239 2926:0.34935975 2945:6.275948 2949:0.39553577 2950:4.4248676 2962:2.7007537 2966:6.9215651 2993:5.0075197 2996:2.1975172 3010:4.2155857 3021:1.3964982 3024:0.0041123629 3036:3.4119015 3043:3.8630235 3048:0.036919035 3050:2.1305439 3051:2.3175123 3052:6.776444 3057:0.30288479 3059:0.14408344 3061:0.080852121 3068:2.4238894 3072:4.9584699 3075:1.8311388 3079:5.6260591 3080:3.8045537 3086:1.0193764 3088:3.0094855 3095:0.40561736 3105:6.0749149 3119:3.2546978 3124:1.1514128 3129:1.6902238 3134:0.89986837 3139:0.47298205 3141:0.25384599 3145:0.57558846 3146:3.550354 3148:2.429446 3152:0.78668159 3160:2.7191579 3163:2.1251678 3177:1.4053106 3180:1.6643884 3183:4.896503 3184:4.414844 3190:2.580698 3191:0.23819548 3195:1.3327563 3199:2.1052649 3200:0.78223848 3215:1.15702 3217:0.47243059 3241:1.499248 3242:3.1457124 3257:3.9434359 3258:0.22920287 3269:0.92636466 3282:3.4900465 3284:1.5401012 3285:0.22469196 3286:0.31814203 3290:1.6405284 3291:0.74632907 3296:1.2522764 3311:1.0960642 3315:1.5758812 3321:1.3915538 3322:1.7358353 3324:4.4625163 3335:2.3099093 3338:1.8554063 3341:2.8913798 3347:6.0689635 3349:5.0030227 3364:1.1282226 3365:3.1205115 3366:1.5579584 3367:1.2745874 3377:1.9763944 3378:6.8102241 3379:2.0164537 3387:4.2469411 3395:0.42224276 3396:0.27448162 3397:3.6684451 3402:0.46501324 3404:2.4308169 3416:1.8979464 3417:1.571528 3418:0.29503351 3425:4.2299914 3426:3.8958755 3436:0.70256668 3441:1.4491146 3442:0.015222937 3445:5.3802767 3452:4.2919111 3456:4.0440578 3465:0.090939224 3472:4.3596754 3478:1.8634516 3488:1.3909881 3490:1.6239642 3496:0.73022401 3503:1.357545 3504:3.1368852 3509:0.74076766 3527:1.2338412 3540:2.1667507 3543:2.7510483 3544:2.1537523 3547:0.25752592 3548:1.1323202 3549:4.0382142 3551:2.8929627 3555:2.2988229 3557:0.26007792 3562:2.0891542 3563:0.12120637 3568:3.0378392 3574:0.84407192 3578:1.4018914 3580:0.65720737 3582:0.11603212 3585:2.6457427 3598:1.0489475 3619:1.1941181 3621:0.90616584 3625:0.01095754 3626:1.6962117 3636:0.4146257 3638:2.3295975 3644:0.023251014 3652:0.86283135 3663:1.8716824 3664:0.99093664 3667:1.496117 3679:0.54673225 3683:1.8537761 3688:0.76519489 3690:1.4541564 3693:0.32755649 3699:3.3617857 3710:0.22157535 3719:1.3920954 3720:3.3484285 3731:1.8158019 3732:0.92082018 3734:2.0766766 3736:2.6449504 3737:1.0511698 3744:0.91372919 3751:3.1658943 3756:1.7344306 3758:0.4299351 3763:1.4093506 3765:0.39106855 3771:0.7411803 3777:4.303319 3778:1.0345169 3779:0.75959009 3785:1.7350655 3794:2.229459 3795:2.5008821 3796:0.66937292 3805:1.1828946 3810:1.694042 3811:4.359581 3819:0.35635394 3824:0.62648374 3826:1.3535569 3835:2.7056046 3837:0.69862521 3845:2.1200972 3846:3.3729537 3847:0.018104929 3848:1.4486294 3856:1.9964017 3857:0.25865856 3860:1.80639 3872:4.9767962 3877:4.2794123 3878:1.8325735 3886:2.7668033 3889:1.5014064 3891:1.4572369 3892:0.60269701 3901:3.3636286 3903:1.1188964 3910:0.13070446 3911:4.0803657 3913:2.8398559 3915:1.0952564 3916:0.36864257 3918:0.22662261 3923:2.4296312 3925:0.49624166 3929:1.3725618 3941:4.2202435 3950:1.4665762 3957:2.8447752 3974:0.052788913 3977:2.317404 3979:0.59848344 3986:0.85561907 3988:5.5979533 3990:0.41757241 3992:0.51278532 3995:1.3399194 4000:0.61496091 4010:2.122153 4012:1.4935213 4016:0.097595334 4021:1.1688422 4025:0.67306089 4029:1.3752288 4033:6.9771476 4034:1.4345757 4036:8.9286394 4042:4.4233427 4043:4.2102823 4055:2.5846846 4063:1.2931776 4067:3.1128385 4072:0.52050376 4074:4.3824072 4077:0.50701058 4084:2.1716542 4085:0.37724584 4089:4.7435331 4093:2.9139798 4095:1.887931 
