svm_type c_svc
kernel_type rbf
gamma 0.000244141
nr_class 2
total_sv 133
rho 0.457949
label 1 0
probA -4.49551
probB 0.0796979
nr_sv 61 72
SV
0.3629301008759798 9:12.444697 19:0.34259155 39:1.4800644 40:10.322788 49:1.3341012 77:7.0329018 84:0.32921806 88:1.337163 90:2.5601873 107:1.5687277 125:0.4202362 145:2.173209 147:2.3422232 159:5.8770223 164:3.0822775 167:2.2479424 172:2.5495298 178:0.073538065 181:2.3264694 187:0.15149739 190:0.87371373 191:3.5617852 196:0.92547572 200:4.3992414 210:7.2903943 217:5.861845 221:1.4188521 241:3.90573 242:2.6179819 247:7.1020813 252:4.4501791 267:0.14289019 277:0.3555837 282:0.37092903 300:6.4883375 312:3.5559487 315:1.3564152 324:4.5544548 326:4.5478363 349:3.1519413 363:1.0219903 365:1.5489566 375:3.2227061 379:2.1021543 384:2.6619608 396:1.6544337 399:0.74139214 404:0.86693007 416:0.69032598 421:1.3815035 431:6.8953838 442:1.9816238 466:0.77076209 468:2.5517488 484:0.798576 488:1.8118159 515:0.34854335 524:1.4812853 529:1.3697042 532:0.10272995 538:2.6087818 545:9.5371132 546:2.8091347 559:1.1412706 566:0.19180444 567:7.1678629 572:1.1917995 576:0.38942593 577:0.33553085 578:0.83023101 592:3.3656118 606:2.709336 609:1.9134787 612:6.245934 614:1.0769839 618:1.8335315 626:0.94242603 635:3.0636146 642:2.0500329 653:2.4989192 654:0.847956 657:7.2245684 661:0.0039864704 664:5.6198163 675:1.0983472 676:2.2372246 687:10.918992 701:0.30718789 705:2.5144408 711:2.3359303 721:7.5242233 722:1.9901659 723:5.0525241 729:3.5572436 735:0.44577312 748:3.5000544 749:1.7529377 764:1.6723909 773:1.9456187 777:9.8836145 782:0.46387991 788:2.8489192 789:1.9225938 792:2.4867575 798:3.4136121 799:0.85197365 808:0.0084519982 811:2.0235322 812:4.5973387 814:1.5770013 817:0.56330711 826:2.7487724 830:3.3532624 841:3.7262583 842:1.4938226 853:0.53254235 854:0.32936668 874:2.0546505 883:0.92702264 894:2.9785943 902:5.2022724 904:2.4679251 905:0.42563978 912:3.645102 916:1.6788058 918:2.7159474 922:0.19501358 928:1.6140687 932:0.17244175 943:2.9281259 945:0.59560084 953:1.8739004 965:1.7447873 974:3.1005971 976:1.4839497 989:0.40303382 993:0.55027068 999:0.4838714 1004:1.9551363 1014:2.8559713 1021:3.4956765 1022:2.3528545 1024:1.3417439 1034:0.39295843 1047:7.5321832 1058:1.2671213 1070:1.5235119 1075:0.26703846 1077:0.48834181 1081:0.91452408 1095:0.94663161 1096:5.8094444 1111:1.6426433 1125:1.431836 1130:2.5777152 1157:0.33208001 1168:1.8093989 1169:1.071843 1170:4.9150724 1174:5.2449269 1184:0.43343127 1192:0.78751826 1193:5.2324367 1195:0.0531822 1199:0.4404251 1206:6.7382317 1208:2.9128952 1217:3.5780463 1219:6.4774179 1220:5.2144089 1223:4.6649661 1227:1.2770069 1235:0.34521282 1237:2.8905888 1242:7.7797022 1269:2.3259051 1278:5.0779281 1286:1.7554321 1291:0.036043409 1304:7.6019759 1305:0.96473265 1310:1.2786157 1313:2.1131277 1314:2.1098208 1325:1.4597354 1335:1.4421926 1336:9.0194178 1341:4.8713436 1342:0.67449963 1344:0.19309391 1361:1.3819711 1366:3.2374713 1369:7.0494623 1372:2.0889099 1381:1.8508394 1392:1.8028184 1397:2.3542337 1406:2.5449338 1410:0.77847719 1411:1.0619973 1424:1.7608149 1426:0.37271857 1441:4.7501454 1456:0.36620075 1465:1.8087794 1466:1.2953824 1469:1.1074351 1472:0.63704371 1476:4.7610307 1477:0.53625071 1484:8.5178833 1487:0.26976594 1489:4.0155396 1502:5.9410605 1510:0.69759786 1515:0.26053324 1520:0.4579764 1523:1.1314418 1526:1.9105625 1546:5.6292772 1550:0.24863058 1560:2.2804339 1567:2.6193635 1577:3.1428933 1580:1.085963 1586:1.3678432 1587:2.3008094 1588:1.2522886 1597:1.2902027 1613:1.7723277 1617:2.3219595 1624:3.0982566 1629:0.79693943 1636:1.8797717 1647:1.2892312 1659:0.80048102 1661:5.580821 1669:0.68531084 1670:0.071088701 1678:1.8092771 1679:0.18413132 1691:2.3453941 1694:1.8524485 1696:0.36169261 1712:1.2693706 1720:4.8928595 1726:1.017287 1732:0.97563189 1734:1.4592057 1746:0.79160994 1758:3.4882843 1761:0.20516473 1762:6.2757201 1778:0.53306627 1782:1.8556428 1806:12.449348 1811:1.03588 1813:10.201898 1820:1.7815095 1831:2.4577045 1832:0.94649768 1842:4.5973134 1846:7.8077617 1849:2.2150018 1854:3.9466205 1858:0.91670787 1860:3.2622874 1861:1.4010953 1877:0.098735034 1878:1.0770918 1880:3.9973629 1889:2.4617512 1893:3.12672 1897:1.2011719 1898:3.5026906 1901:3.1833923 1905:4.1227689 1908:4.1621246 1918:1.7549995 1923:0.53359258 1925:1.1524255 1928:2.1193442 1938:2.2988436 1943:0.63998532 1953:0.62683392 1960:3.2330742 1966:2.2898779 1972:3.2103677 1977:0.15255257 1984:6.4311533 2009:5.6326246 2026:1.6985925 2028:0.81701618 2035:1.2345241 2038:0.98621476 2042:0.6121884 2053:1.6804221 2057:2.6522026 2058:3.19649 2066:2.4752102 2070:0.25917488 2085:2.1205611 2091:0.18558314 2094:3.0287585 2101:1.7429404 2102:5.5580339 2117:1.5028177 2137:0.47610807 2144:1.9582865 2153:3.6952472 2164:3.7981622 2177:4.3332973 2186:5.8254428 2188:3.6586404 2189:0.83021653 2196:0.36895269 2199:0.9130668 2200:3.3936954 2223:0.45694637 2226:1.1148326 2232:1.4487264 2236:3.0070429 2241:1.4990702 2257:0.60067427 2259:2.2882001 2267:0.6253792 2271:7.1145525 2273:3.1900113 2280:1.6669141 2286:0.2795279 2294:0.084566951 2298:0.49607003 2307:0.26498425 2311:1.5804863 2312:0.5599705 2315:0.32921085 2318:2.6195886 2324:2.2405601 2329:5.4247828 2333:1.0471718 2338:1.1735387 2343:4.1352372 2344:1.799123 2360:0.1376709 2390:1.3516251 2393:0.92680848 2404:0.77456391 2416:0.9399606 2423:4.3235312 2424:6.5646005 2428:0.32716346 2432:0.20556067 2435:1.8595226 2440:0.63630176 2453:0.56880933 2460:0.21495718 2470:2.4706991 2485:3.822989 2486:1.7648532 2507:5.9580569 2508:1.3184572 2509:4.4758105 2519:1.1707438 2520:1.0738646 2528:0.91289091 2530:1.3879341 2535:1.4884293 2551:6.0726023 2561:11.860492 2563:2.4989984 2568:1.6303641 2570:1.4702443 2574:1.7724047 2576:2.9763496 2577:1.5479777 2589:5.0710154 2594:0.70102215 2599:0.1925402 2601:1.0678737 2604:1.9459302 2610:4.4641638 2614:1.0090423 2621:3.2105737 2623:2.1045434 2628:0.85958546 2637:1.2096286 2642:1.6275407 2655:2.1588979 2659:1.0172333 2667:2.7807527 2670:1.4276305 2678:0.96253914 2688:2.7726569 2693:1.0288607 2714:1.1444454 2721:3.7185771 2726:2.4755781 2738:0.53058952 2745:1.1115251 2763:0.89637077 2765:4.5989819 2766:1.051178 2771:0.19276503 2777:5.3901372 2786:0.69811743 2787:2.5953283 2793:2.077595 2802:0.91485435 2812:3.0149946 2814:6.7752199 2834:7.5456896 2841:0.17031947 2842:0.85826737 2857:2.7711267 2867:0.025939554 2870:5.9167023 2874:1.8553028 2879:1.7996987 2882:3.5374112 2888:3.1154754 2892:3.4396877 2894:1.2504148 2896:5.9469271 2910:3.170382 2916:4.4950533 2919:2.2911558 2920:1.4071579 2932:3.1403904 2934:0.27472883 2937:1.0406588 2945:2.1788185 2949:4.6476808 2953:0.054498196 2957:5.2779708 2966:7.2415829 2971:1.8021883 2991:2.7077219 2993:5.3345728 2994:0.8374815 2997:1.4666371 3010:0.078217894 3021:1.3210983 3035:4.2669177 3036:7.5815921 3062:0.24925464 3066:3.5035942 3068:0.89519298 3072:4.1598339 3073:2.8160601 3075:1.6538466 3079:6.5208592 3094:2.461848 3095:0.11634094 3105:6.2081161 3110:2.7639635 3116:3.2485802 3134:0.13714987 3141:1.9980915 3144:3.7958486 3146:0.9108749 3148:0.031456634 3151:1.5527334 3160:2.74438 3163:2.047941 3172:0.49319294 3183:5.8247232 3184:8.0865498 3197:1.034542 3198:1.6964502 3199:3.5400491 3215:4.0857725 3228:0.57798427 3233:1.5653857 3235:5.3083878 3241:2.3860695 3242:2.5634546 3246:0.8103168 3260:0.99967206 3268:3.1875904 3269:1.1380949 3275:1.569921 3276:0.86731696 3282:4.989162 3284:0.95991588 3286:1.9308053 3293:3.3508284 3298:0.82860094 3321:7.4382243 3324:3.4379888 3331:0.20015872 3335:2.0017233 3347:2.4743259 3349:8.6405506 3373:1.6332269 3377:2.39522 3382:4.3482842 3387:0.4195866 3390:1.5287222 3397:0.87915981 3415:0.25217411 3426:3.8130333 3431:3.4716289 3442:1.4479328 3443:2.1891873 3445:8.109684 3451:0.2629292 3452:3.6011059 3456:0.23702648 3457:1.4663901 3467:1.3736558 3468:4.7069044 3478:4.2281418 3491:1.8221812 3496:2.3223441 3508:3.193532 3509:4.6326151 3513:1.4075228 3522:0.25488359 3528:0.58613706 3529:1.6727662 3539:1.5242703 3540:2.0571542 3548:0.23514628 3549:3.2570636 3551:1.7824115 3555:4.2222805 3564:3.6091366 3572:1.1250126 3576:3.2661738 3578:5.4076357 3580:1.4994998 3582:4.3737502 3585:4.9633999 3591:2.0260184 3592:0.72110099 3601:2.9255219 3604:5.7492609 3606:3.1858585 3608:2.2466609 3614:1.0507013 3617:0.23317868 3621:2.1090884 3626:1.5009936 3627:1.0420763 3631:5.6625957 3632:1.8570911 3633:0.012971729 3636:0.018789884 3644:0.39651009 3652:0.89741409 3667:1.6460357 3670:1.1656334 3675:0.068541512 3679:2.2698689 3683:1.4222618 3687:0.7396301 3690:1.1675794 3698:0.38777477 3699:3.9017961 3703:0.97602928 3715:0.89801145 3719:4.4579563 3720:3.0786901 3732:5.5044379 3734:1.3947304 3747:0.20616484 3751:1.3712752 3756:2.0051789 3766:2.5551462 3771:2.1109381 3776:2.0476255 3777:1.7204468 3778:6.5248427 3785:2.6833897 3793:0.68633771 3811:2.9660451 3818:2.049787 3824:2.6813698 3826:2.542125 3835:1.7125832 3837:0.8169831 3848:0.33739597 3867:3.0545707 3872:7.969347 3877:1.8448328 3880:1.0273643 3889:1.9394114 3891:5.3014669 3895:1.1733419 3901:0.1618613 3903:4.8536482 3907:5.381927 3910:2.7091851 3913:0.076557994 3915:1.4051147 3923:8.2801456 3929:2.6857085 3957:5.5900536 3984:3.5533714 3988:4.1190057 3990:2.8997307 3992:0.73437941 4002:5.1938601 4016:1.693395 4018:2.7129483 4021:5.388967 4033:4.895288 4036:4.6151576 4041:3.176127 4043:0.87340575 4063:0.26806474 4067:2.2177532 4071:1.5270897 4074:2.266566 4079:0.41962069 4080:2.6452327 4084:1.8459531 4089:0.96395773 4091:0.53326535 
0.2766482396403985 9:10.628825 19:1.6672707 39:1.3659997 40:7.5878634 54:1.0504713 68:0.3740097 77:6.1956968 78:0.13764068 90:1.262423 113:0.29669636 145:0.090801947 147:3.4433155 159:4.2845569 160:1.4660078 164:1.8068091 167:3.472584 172:2.96644 178:0.44923186 181:2.6817484 187:0.6175406 190:1.2147766 191:3.4902327 200:3.197823 210:7.4883857 217:4.6570659 220:0.44204587 221:1.9096165 241:2.2924209 242:2.5171039 247:5.7667618 248:0.7012409 252:1.7232808 262:1.1250132 267:2.5324244 282:1.2470189 300:6.0860209 312:1.5430956 315:1.0580883 323:2.3886023 324:1.2583349 326:3.6771038 349:3.2374156 353:0.037821084 363:2.3568034 365:2.909693 367:1.7589927 375:1.8361251 379:3.0487559 384:1.9182787 385:0.075298071 399:2.0335488 404:0.60072374 410:0.38024437 421:0.47168687 431:6.2645869 442:1.1220298 451:0.32054177 466:0.36221617 468:2.5890474 469:0.35156843 472:0.1148681 484:1.40084 488:0.93654692 505:0.10029733 524:0.9163239 529:1.3169987 538:1.6246377 545:6.9714909 559:1.1459827 562:0.27254587 567:6.1344738 577:1.3840336 578:1.4644998 592:2.3922048 606:0.9884128 609:0.82186961 612:5.035892 618:0.62919867 635:2.8553762 639:0.25810358 642:1.4692882 653:1.6081252 654:4.3552079 657:7.7081571 661:1.0153961 664:5.2287354 672:0.33494836 675:0.56719244 676:0.45904899 679:1.0389553 687:9.7364645 701:0.18667588 705:1.3675081 711:1.2825065 721:6.0790834 722:1.0785799 723:4.4023862 725:1.258065 729:3.064203 748:2.7334149 749:2.4074242 751:0.04722324 755:0.34229356 764:0.95483744 773:2.3715324 777:7.4160089 782:1.3432127 788:3.0177128 789:1.0067748 792:2.7363772 798:3.7129533 799:1.6303657 804:0.77098966 808:2.7335579 811:1.1623228 812:7.2483664 814:0.27319652 816:1.9925123 826:2.9090185 830:5.3736839 841:1.9369407 842:3.6866622 853:1.092859 854:1.8129264 857:0.96895337 871:0.26456124 874:1.5748408 889:1.2438438 894:0.32447436 899:1.262448 902:3.2916753 904:3.294179 912:2.5744758 916:3.3324504 918:2.1069534 922:1.9110239 928:3.1412036 932:2.1627979 943:3.7084394 953:2.1260419 958:0.19064078 974:2.5057073 976:1.845167 987:0.087697059 989:2.4621124 994:0.22036654 1004:1.2141623 1014:1.4154446 1021:1.2554634 1022:1.3529992 1024:0.44455409 1038:2.2899845 1047:4.6492391 1058:0.774149 1065:0.098489165 1070:0.71796072 1071:2.1754787 1074:0.77870232 1081:3.3532915 1095:2.4041643 1096:5.2084246 1111:0.54449141 1125:2.5009058 1130:6.3546333 1163:0.061501622 1165:0.13749048 1168:4.1199284 1169:0.16942772 1170:3.9179132 1174:3.9155436 1175:0.49039727 1180:0.46965644 1187:1.3907109 1192:0.37812176 1193:4.8959475 1199:1.2412721 1206:5.8579721 1208:1.8813732 1217:1.5082958 1219:6.2725372 1220:4.4650221 1221:0.45302522 1223:0.89805794 1234:0.39206028 1235:2.2058389 1237:2.5752702 1242:6.7185831 1251:3.8229203 1269:0.86338609 1278:2.3204083 1286:2.5724084 1299:0.28851333 1304:5.1308122 1305:0.92666876 1310:0.61910331 1313:0.87781912 1314:1.921349 1335:3.1335974 1336:8.9630995 1341:2.625905 1342:1.0898323 1344:0.96455675 1349:0.69574791 1361:1.3504212 1366:1.630451 1369:4.421535 1381:0.73803115 1387:0.1294263 1392:1.5225787 1393:0.29691726 1395:2.7607782 1397:0.81342053 1411:2.4795871 1419:1.2626535 1424:1.5559955 1430:0.2772426 1441:2.6531882 1456:0.49640143 1465:1.5506994 1466:3.4355016 1472:0.74448943 1476:4.8550901 1484:8.8768158 1487:0.23186068 1488:0.53190625 1489:4.3126731 1502:6.0966821 1510:1.481472 1520:2.151139 1523:1.2129143 1526:2.2666931 1541:2.6547713 1544:0.35950512 1546:4.6395221 1550:2.5907016 1560:2.0068181 1567:2.3992805 1568:0.2605958 1577:2.0231977 1580:0.8961525 1586:2.6649218 1587:1.605806 1588:0.18995109 1597:1.1143732 1605:0.42993152 1610:0.85303187 1613:1.0328774 1617:1.8314593 1624:3.7210083 1629:0.022589602 1636:4.2623491 1647:1.39948 1659:0.59954637 1661:5.4145679 1667:0.40229636 1669:1.3942715 1674:0.86305451 1691:3.6911352 1694:0.35994327 1695:1.3600004 1696:0.15736784 1704:0.68157828 1712:0.65972322 1720:3.469527 1726:1.1517962 1732:0.16856053 1734:1.1369497 1742:0.0082655102 1746:0.78760946 1747:0.10322168 1750:0.2690047 1758:2.1557951 1762:7.3898797 1767:1.0563663 1778:0.84999287 1782:2.6873546 1790:0.2859619 1806:9.0217552 1813:7.9791293 1820:1.9511116 1830:1.0082347 1831:1.3091969 1832:1.7973273 1842:3.5738046 1846:6.2650676 1849:2.8895018 1853:0.60744298 1854:5.1845999 1860:2.9499304 1861:0.43512848 1877:0.2507197 1878:0.69379574 1880:2.1890404 1889:3.1834633 1893:2.3625011 1898:2.1248832 1901:3.0350504 1904:0.85010278 1905:0.27127957 1908:3.4120665 1911:1.4906008 1918:0.79496139 1923:1.9877307 1925:0.5860846 1938:1.5526816 1943:1.9644812 1960:3.3121939 1966:2.3064413 1972:3.0146911 1977:0.74474132 1984:8.0442362 1999:1.8050451 2009:1.8148931 2026:1.3630792 2028:0.59524506 2035:1.0010761 2038:1.7784704 2042:0.59567934 2048:0.22097588 2053:3.3060663 2057:2.2275605 2058:3.0114524 2070:2.4093914 2085:0.8754521 2094:2.5850539 2101:0.19834459 2102:3.6239934 2107:0.11689147 2144:1.3427639 2146:0.026201636 2153:3.625788 2164:3.6742942 2177:4.0510969 2186:4.7547026 2187:0.039907679 2188:1.9654932 2189:1.3985146 2196:0.53096426 2199:0.35110974 2200:2.7848182 2215:1.2432948 2226:2.0297704 2235:0.77012706 2236:2.5256433 2241:1.4972675 2255:0.34757015 2271:5.6906114 2273:1.5834178 2274:1.1330785 2280:0.42037553 2286:1.6653013 2294:1.4459651 2307:1.6372037 2311:0.27716479 2312:0.50484002 2314:0.18012312 2318:4.0122604 2324:2.2029321 2329:3.4577165 2331:0.75646734 2333:1.7047976 2337:0.14439601 2338:1.1273667 2340:1.4825526 2343:3.5378163 2344:0.83588266 2357:0.30962998 2360:0.52553618 2370:0.55924964 2390:1.515175 2393:0.97351336 2404:0.79681098 2416:1.1740205 2423:1.8058033 2424:4.1471062 2435:4.4170556 2453:0.73542106 2459:0.75356007 2466:0.51539874 2470:5.3139496 2485:3.6494372 2486:2.4815502 2507:4.5273018 2509:3.5749474 2519:2.0974541 2520:1.2238827 2528:1.1992801 2530:0.86935449 2535:2.3900111 2551:4.4439158 2561:11.6391 2563:2.687058 2568:1.5505213 2570:1.8419174 2574:2.0054758 2576:2.9834626 2589:2.7386005 2594:1.5630732 2599:0.27030843 2601:0.2159588 2604:2.0283525 2610:3.6428316 2614:1.3434175 2623:3.1918669 2628:1.6266876 2634:0.37261537 2637:0.28925499 2642:2.5134158 2655:2.2000875 2659:0.0094389543 2667:0.42988551 2669:0.40876591 2670:1.7293016 2688:2.0643086 2693:0.29791835 2714:1.8896358 2721:4.2036438 2723:1.2136046 2726:1.2166331 2738:0.80960155 2745:1.7944911 2752:0.26324457 2760:0.13467211 2765:3.3989322 2766:0.56809008 2777:3.5190763 2787:3.6785793 2792:0.33243284 2793:1.60831 2802:3.3086083 2812:3.8582661 2814:4.5733471 2834:6.0442157 2842:1.103989 2843:0.29007611 2857:1.8832453 2866:0.17457604 2867:0.18889058 2870:2.954004 2874:2.6659441 2879:2.198545 2882:2.0638781 2888:1.2317721 2892:3.7248697 2894:1.5800977 2896:4.8087263 2903:0.021484852 2910:3.6325703 2916:3.568301 2919:3.0160434 2920:0.32206291 2928:0.15028864 2932:0.72733569 2937:1.9836479 2938:0.0013634562 2941:0.088611223 2945:1.9664629 2949:4.0555835 2957:4.1643968 2966:5.9618387 2971:4.3026032 2982:2.3214905 2991:3.4909852 2993:6.7472644 2994:0.52997124 2997:0.44095999 3003:1.6713268 3010:2.3466601 3021:1.849781 3035:1.5102938 3036:6.0954332 3051:0.86540306 3052:2.1151907 3066:1.5956371 3072:2.4660015 3073:1.552165 3079:5.8362069 3094:3.5756185 3095:0.09565267 3105:2.6014013 3110:1.5978109 3116:3.0971627 3129:0.14895374 3134:0.20338285 3141:0.0092721581 3144:4.2118168 3146:0.17611468 3148:2.8153801 3151:0.88167936 3160:3.0056171 3163:1.364429 3172:1.1337115 3183:5.1343331 3184:7.0113697 3198:2.0508957 3199:4.4272485 3215:5.261322 3228:0.52085143 3233:1.1479177 3235:4.3242235 3241:0.0099558532 3242:0.71033841 3249:0.22642779 3252:0.023782343 3260:0.068793327 3268:1.4753802 3269:2.3637373 3275:0.69444972 3276:0.90479535 3282:3.4896889 3284:1.9139334 3286:1.0073307 3291:1.0320668 3293:2.960475 3298:0.20447539 3321:8.2277946 3324:3.4373541 3331:0.82940215 3335:1.9862998 3347:1.8491647 3349:7.383225 3377:1.1621904 3378:0.96012264 3382:2.8446503 3387:2.2262845 3390:2.3919725 3392:1.2738185 3397:0.71192878 3407:0.43306968 3415:0.46185997 3426:2.8431032 3431:3.3816059 3438:0.18341628 3442:0.3444868 3443:1.2453949 3445:9.6985569 3447:0.25338143 3450:1.8224045 3451:0.7310288 3452:3.5651684 3456:0.45700124 3457:0.88670903 3467:1.2857215 3468:0.89716262 3478:3.2241433 3490:0.6122843 3491:0.66477638 3493:0.48973548 3494:2.2424307 3496:1.825179 3508:0.11308211 3509:2.9376714 3513:2.0019472 3521:0.012257904 3528:1.5455923 3529:1.1435919 3537:0.39669627 3539:1.2946054 3540:2.9720054 3543:0.69583786 3548:0.44091326 3549:2.0666189 3551:2.5282791 3555:3.7354999 3564:3.071135 3565:0.33288118 3572:0.47543612 3576:2.6179066 3578:4.5623956 3580:0.4516356 3582:2.3115041 3585:3.5058262 3591:1.9633663 3594:1.1597271 3601:1.5074776 3604:4.4221597 3606:1.6874561 3608:3.9474993 3614:0.13830058 3617:2.0722103 3621:1.7832812 3626:2.0738857 3627:2.7482958 3631:4.5451083 3632:2.0935135 3633:1.740037 3644:0.87619764 3650:1.0301882 3652:1.3751084 3667:0.0036409199 3672:0.53795213 3679:1.1251483 3687:2.036552 3690:0.60325724 3699:3.7825062 3703:1.457149 3715:1.3812959 3719:2.1372972 3720:1.1798549 3732:5.3685184 3734:1.650956 3747:1.1254236 3756:1.3437214 3765:0.28900197 3766:1.3789771 3776:0.9100197 3777:2.3163533 3778:6.5655379 3785:2.5113392 3789:0.39032087 3793:1.6681751 3811:3.4958854 3818:0.90391451 3824:2.6574888 3826:3.0797899 3837:1.5780109 3860:0.47868532 3867:1.2602825 3872:5.1578789 3877:3.4082563 3880:0.98442394 3889:1.1781797 3891:4.2580676 3892:1.2432843 3903:3.7572014 3907:5.2069473 3910:2.0348616 3915:2.1049025 3923:7.5601621 3929:2.2319417 3957:4.7703857 3984:3.0687149 3988:4.4260421 3990:4.0706058 3992:0.24363887 4002:3.0543935 4005:0.048441052 4007:0.11133145 4016:1.7739636 4018:0.50063056 4021:7.0703559 4033:3.6624801 4036:3.5971389 4041:0.46610874 4043:1.2336864 4063:0.33945513 4067:0.54818296 4071:1.3666615 4074:0.49124965 4076:0.34995493 4080:0.90128136 4084:1.2324629 4089:2.5592644 
0.6206246488029236 9:10.204163 19:2.4237392 30:0.2121633 39:1.1186961 40:8.127018 49:2.4147344 54:3.0361748 68:0.40444118 75:0.054310918 77:5.4619193 88:0.018420219 115:0.70210183 125:0.14111564 145:0.47858554 147:2.4878125 150:0.68405497 152:0.94691253 159:2.4346619 160:2.7164421 164:2.933527 167:3.0653419 172:4.8962202 173:0.32698581 178:1.3242989 181:1.5692595 187:0.47624549 190:2.8795512 191:2.4140911 200:4.013978 210:7.2421088 217:3.0313628 218:1.0466874 221:1.6282924 241:1.0052667 242:6.0532279 247:5.936307 248:1.2584614 252:0.97867441 255:0.94377899 256:1.7402488 262:2.1531687 267:1.7400072 274:1.1640768 282:2.4510665 288:0.25950977 300:6.1117501 310:0.17493981 312:2.1905417 315:0.68692338 323:0.40186507 324:0.55176318 326:1.7002646 340:0.74482048 349:4.9074173 350:0.58547413 353:1.6672376 363:1.838484 365:3.4836605 367:1.532747 379:1.9574459 384:1.771457 385:0.49235323 390:0.74431407 399:1.9325312 404:0.041579664 410:0.083593845 412:0.25002006 431:5.6239734 434:1.1292307 445:0.043219566 451:2.7303543 460:0.87322211 466:0.027639866 468:2.7370265 469:0.14652601 473:0.90151638 484:1.7413466 487:0.65186644 488:1.3747183 504:0.078960359 505:0.19930726 524:0.64712632 526:1.2282273 529:2.6498106 538:3.1505051 545:6.9890056 555:0.36120632 559:2.8925216 562:0.37522745 567:5.547286 572:0.72405827 575:0.044832379 576:0.040374033 577:1.6267124 592:2.6235223 606:1.2285455 609:2.2538764 612:4.2753959 618:1.1513574 631:0.11417493 635:2.2819612 639:2.3434625 642:2.6252403 653:0.75857806 654:5.1916938 657:8.2601442 660:0.98814946 661:0.59192407 662:0.45566508 664:4.023531 672:0.74472862 675:1.666182 676:0.8591404 679:0.2818571 682:1.4397025 687:9.1888647 692:2.5505641 701:0.50993288 705:4.2776551 711:2.4861872 721:5.320334 722:1.6255983 723:4.7283144 725:2.1218886 726:0.85937434 729:2.1464338 748:3.7461281 749:2.9849567 750:0.26108772 751:0.94895709 755:0.19599171 764:1.1877067 773:2.3713734 777:7.4179721 782:1.9405936 788:1.7902368 789:1.7190626 792:0.60799038 794:0.46080205 795:0.8443715 798:3.4043205 799:2.4046588 804:1.6303344 808:3.4146688 811:0.51370186 812:7.2550411 814:0.71302521 816:1.9008495 817:1.2291137 826:0.6115368 830:3.3045037 837:0.093981653 841:0.17837203 842:4.4267836 853:0.21803498 854:1.8524983 857:3.0117714 871:0.27167124 874:2.3396211 888:0.93518651 889:1.5101022 899:2.7396855 902:3.5978301 904:4.5708513 905:1.8399303 912:3.052999 916:4.7623854 918:2.4909728 922:2.1541197 928:3.2686648 932:0.63892078 943:4.7490721 945:1.3195317 953:3.6727841 956:0.63168907 958:0.27753106 965:1.8275861 974:3.1220081 976:2.6297321 989:3.0659227 993:0.0075571537 1001:0.082243532 1002:0.86493689 1004:2.6949458 1014:3.082675 1022:0.58420807 1026:1.2661072 1027:0.39591411 1038:2.1711273 1047:2.8130164 1049:0.75760412 1058:0.41970503 1059:1.1409621 1064:0.28760025 1070:0.61722338 1071:2.1536782 1074:1.6491971 1075:0.021476235 1081:3.0965886 1095:1.1466472 1096:4.8145661 1111:0.44449714 1125:2.1891847 1130:4.2411785 1138:0.16431323 1168:4.109817 1169:1.2250546 1170:4.0292039 1174:3.2109385 1175:1.4339606 1180:0.074075185 1187:3.0994129 1192:0.48503843 1193:2.9954257 1199:3.1691742 1206:5.9263783 1208:0.85650486 1217:1.1801112 1219:5.6032023 1220:5.4838171 1221:2.9655886 1223:0.12060773 1227:0.40655977 1234:0.82162189 1235:0.73512864 1236:0.57065731 1237:1.7294797 1242:5.5131307 1251:2.9364681 1278:3.6913424 1281:1.6189963 1286:4.2435298 1291:0.36056352 1299:0.91859221 1304:4.9895864 1313:1.6106954 1314:2.6771421 1317:0.61047244 1325:0.15413381 1335:5.6964407 1336:8.5430679 1341:2.0783408 1342:1.5054269 1344:1.4100568 1361:0.75619262 1363:0.75295824 1366:0.6546281 1369:3.4464636 1381:1.9261211 1387:0.10140938 1392:1.3109292 1393:0.84193581 1395:0.58998084 1400:0.42611879 1406:1.8759322 1408:0.19333214 1411:4.1812506 1419:2.0504677 1424:1.1412498 1426:0.12906837 1428:1.3657551 1430:0.0051534772 1433:0.19660711 1441:1.6096994 1456:0.90656972 1466:1.1031855 1467:0.46362948 1475:0.66342127 1476:4.8396573 1483:0.79169923 1484:5.0344229 1487:0.16037461 1489:2.6254189 1502:4.7281795 1506:0.60054088 1510:4.4896927 1513:0.081616238 1515:0.81598157 1520:2.2243881 1523:2.3817172 1526:2.4944041 1528:0.96426582 1541:2.3162467 1544:1.3839779 1546:4.3821778 1548:0.49932635 1550:3.4549148 1560:2.0306613 1567:0.74286389 1568:0.2811141 1577:2.4432127 1580:1.7575629 1586:2.8051558 1587:3.5319414 1588:0.21652219 1597:3.3507988 1600:0.10503468 1604:0.56936699 1605:2.1008801 1613:1.8478253 1624:2.882195 1629:1.0499994 1636:2.5575631 1647:1.5762132 1659:0.38028604 1661:2.8851786 1665:1.0141393 1669:1.0358993 1679:1.5454686 1691:3.5316334 1695:1.3712386 1696:1.0007912 1697:0.97679722 1704:0.122713 1712:0.020772934 1720:2.9377267 1726:0.36872959 1728:0.49220622 1730:0.60168153 1732:0.3827025 1746:0.15821397 1750:0.70857573 1752:0.20029841 1758:4.2961521 1762:3.8046868 1767:1.5091513 1782:1.310361 1790:1.5057789 1803:0.42802489 1806:9.3352604 1813:7.1359086 1820:0.38332212 1830:1.9437457 1831:0.73903656 1832:3.4189179 1842:1.8872473 1846:6.8295064 1849:1.3151388 1852:1.538229 1853:0.48313797 1854:3.8375978 1860:0.70968795 1861:0.59571409 1878:0.090742558 1880:3.5043983 1889:3.3756862 1893:1.7907709 1898:1.2606509 1900:0.96648586 1901:4.1107421 1904:1.2274997 1908:4.1245508 1911:2.6219463 1918:0.0525105 1923:2.4557893 1925:1.0820216 1938:1.6685199 1943:2.4930959 1960:3.1222897 1966:1.9425535 1969:0.4771204 1972:1.8368205 1977:0.26768646 1984:6.7167706 1999:1.7893286 2005:0.81102574 2020:0.017385036 2026:2.3291125 2028:0.97943771 2038:0.92158139 2042:1.0155822 2048:1.478945 2053:2.0013895 2057:3.2723365 2058:3.3224862 2066:0.85258454 2068:0.0750155 2070:0.90986031 2081:0.0080704838 2085:0.92375654 2094:2.6288075 2102:3.5833931 2107:1.1490569 2117:0.85325348 2127:0.58781314 2144:1.8943207 2146:0.78742683 2153:3.9661074 2160:0.86735523 2162:0.014138281 2164:3.5003047 2166:1.8365042 2177:4.203495 2186:4.7243428 2187:1.8940952 2188:2.0143263 2189:0.71284354 2190:1.2605394 2196:0.64212513 2200:2.8123927 2215:1.3152584 2223:0.69206297 2226:3.3894715 2229:1.3312809 2233:0.8930881 2236:0.83380711 2239:0.88942641 2240:0.11814982 2241:2.6856523 2255:1.6376674 2257:0.46199498 2262:0.025813803 2267:0.79604757 2271:3.5220211 2273:2.5757744 2280:1.6518232 2286:2.3379002 2294:1.2497458 2298:0.070516229 2307:3.2742178 2312:0.81170517 2317:0.19462651 2318:3.6984041 2320:0.26257029 2324:2.02479 2329:2.0160027 2331:1.2736428 2333:0.0073333085 2337:1.4237587 2338:0.028352827 2340:0.77618194 2343:4.2580028 2344:1.1490494 2357:1.4045925 2360:0.82154262 2372:0.96702367 2376:2.8705995 2390:2.2004085 2393:0.57822084 2399:0.80662334 2416:1.7438352 2421:0.25134999 2423:1.7955192 2424:2.6555252 2428:2.1821733 2432:0.74133295 2435:5.8559284 2438:1.8312366 2446:0.26191497 2453:0.85471082 2457:0.34795457 2459:1.5326459 2466:0.71711046 2470:4.7928591 2485:1.8991004 2486:1.8081948 2507:4.0008502 2508:1.2671604 2509:3.4219544 2512:0.057930976 2519:0.37082434 2520:1.4918003 2526:0.79968226 2528:0.22232379 2535:1.7377264 2536:0.73345792 2551:2.6841927 2561:9.2797861 2563:1.5775995 2566:0.89126569 2568:0.88374329 2570:1.0277567 2574:1.7186632 2576:2.60481 2589:3.3172092 2594:2.5714624 2595:0.61849701 2599:1.8246197 2604:3.344569 2610:2.7105904 2623:2.2457266 2628:2.2777314 2634:1.0214397 2642:3.4233704 2655:1.9197557 2667:0.55630195 2670:1.6777098 2687:1.2135921 2688:3.4110754 2689:0.76500744 2690:1.6612039 2693:1.4390883 2698:0.3165457 2704:0.14313164 2708:1.4904469 2714:0.80977422 2715:0.70292515 2721:3.080451 2723:2.345252 2726:0.3982603 2738:2.7540665 2745:1.2147593 2752:0.80943239 2758:0.17859825 2760:0.16507083 2761:1.6615728 2765:4.1211262 2766:0.12666893 2771:0.015506953 2777:4.2376184 2784:0.16826312 2786:0.50988942 2787:1.9230843 2790:0.21457797 2792:0.97690827 2793:3.0178728 2802:2.5599561 2812:4.0666761 2814:4.2377415 2821:1.1767209 2825:0.1533632 2834:5.7482305 2835:0.69171047 2842:0.3711167 2857:1.9231849 2866:1.8103279 2867:3.0449083 2870:2.0928104 2874:1.3809254 2879:1.6308917 2882:2.7856059 2887:0.27135202 2888:4.1707845 2892:1.2693784 2894:0.98250318 2896:3.2958684 2910:4.2586608 2913:1.3156743 2916:4.6980205 2919:3.3517761 2928:1.3260195 2934:0.23722887 2937:2.3032184 2938:0.61704969 2945:1.7243545 2949:5.1964326 2953:0.17005908 2957:2.8024688 2966:5.1377487 2971:4.0341315 2976:0.1517114 2982:1.235618 2991:3.4647973 2993:6.4540496 2997:0.27155888 3003:1.2872797 3005:0.55844545 3010:0.87841284 3021:3.7991047 3035:2.6148937 3036:7.6298852 3050:0.2376166 3051:1.1628449 3052:1.6208236 3056:0.092084356 3065:0.057588626 3066:2.4849775 3072:1.4584452 3073:2.0047708 3075:1.2751896 3079:5.4179645 3094:3.3799584 3095:0.64404929 3105:2.1958244 3110:1.2959846 3116:2.9155765 3119:0.32056469 3129:1.3303568 3141:1.4011354 3144:2.7432034 3146:0.23294175 3148:1.7590464 3150:0.17793569 3151:1.1873322 3152:0.62441707 3160:3.8563972 3163:2.874953 3172:1.7014052 3183:3.7045863 3184:7.2531133 3185:0.022765931 3195:0.049470484 3198:0.03290534 3199:3.1007838 3215:6.0902677 3228:0.4542625 3233:2.0139766 3235:2.4916584 3241:1.0086647 3252:0.20904821 3260:0.35995415 3268:1.2103314 3269:0.071297824 3276:0.84581399 3282:4.3429632 3284:1.1505075 3286:0.72467339 3287:0.084158838 3291:1.9802324 3293:2.8815498 3297:0.18071251 3302:1.3460706 3310:0.35666099 3321:7.8722944 3324:3.3983159 3334:0.72123384 3335:1.4395775 3347:2.7981346 3349:6.5708766 3354:0.7181443 3375:0.52159065 3377:1.2416106 3378:1.6051114 3382:2.4813032 3387:2.6710696 3390:2.4609976 3392:0.14895056 3407:0.027564436 3415:0.048861414 3416:0.2676 3426:1.9165401 3431:2.4213693 3436:0.40349329 3438:1.1303496 3442:1.049354 3443:0.99285167 3445:6.3212962 3446:0.7916432 3450:1.4400698 3452:3.3959603 3456:0.58359367 3457:1.9130094 3467:2.9412956 3468:1.1469742 3474:0.15461217 3478:4.1673026 3490:2.5140913 3493:1.060956 3494:3.2081137 3496:2.9885154 3504:0.71389002 3508:0.31881827 3509:4.9831638 3513:3.2383785 3529:1.4171122 3534:0.72252804 3539:0.98708344 3540:3.2853932 3543:0.25226644 3544:0.54452819 3547:0.050402373 3548:0.52426064 3549:1.5318856 3551:1.8709577 3555:2.6955044 3564:2.4651139 3565:1.1724327 3572:1.3259954 3576:1.468796 3578:5.1725163 3580:1.8210291 3582:2.3889608 3585:4.1792812 3591:1.51683 3598:0.51503313 3601:0.78522259 3602:0.24210542 3604:4.0728464 3606:1.0428739 3608:3.3804178 3617:1.753617 3618:0.40940768 3621:0.87628281 3626:3.0813603 3627:1.5511862 3631:3.7896545 3633:2.4476519 3644:3.2030506 3650:3.5059495 3667:1.6325711 3670:0.22955656 3675:0.06448099 3687:1.3534304 3699:5.7154779 3703:0.25588554 3715:0.41559225 3719:3.111748 3720:2.2723947 3729:0.46209425 3732:6.0994291 3734:1.9316806 3747:2.0197129 3751:2.0166843 3753:0.014680862 3756:1.0898721 3765:1.1700323 3766:2.0180688 3777:2.9998667 3778:5.9327335 3785:3.1937132 3789:1.1932304 3793:3.4471681 3796:0.73803496 3806:0.20275387 3811:3.1331213 3824:1.9078881 3826:2.6135604 3845:0.52539998 3860:3.2873182 3867:0.91627294 3872:6.0506306 3877:2.873877 3880:0.20150048 3889:1.5593951 3891:4.5669479 3892:2.6259823 3901:0.13838387 3903:3.5210705 3907:4.8986216 3910:0.74059153 3915:1.1832505 3919:0.25645992 3923:4.25281 3929:2.1126616 3957:3.8658984 3966:0.15203798 3972:0.43476683 3974:0.31972 3984:4.5960279 3988:5.6339808 3990:2.8898244 4002:4.4133821 4007:0.10138981 4016:2.7864199 4018:1.068455 4021:5.393558 4030:0.43831143 4032:1.3388339 4033:3.8672299 4036:2.2411048 4037:1.2721101 4041:1.735592 4042:1.6184895 4058:0.033900559 4071:1.4636747 4074:2.0857222 4076:1.5705427 4079:0.039186537 4080:1.0774803 4084:1.6179789 4085:0.25767982 4089:2.8267548 4091:0.95710158 
0.01041850320823247 9:11.905406 19:0.49429619 39:1.1677227 40:10.453608 49:1.4042082 54:0.18963981 77:6.6369157 84:0.20992056 88:0.95010585 90:2.477731 107:2.3225129 145:2.6884978 147:2.3463919 159:5.8183503 164:2.189297 167:2.8221207 172:3.2817893 173:0.20618758 178:0.077003002 181:2.513427 182:0.43079519 187:0.50893676 190:0.052713931 191:3.38993 196:0.11690366 200:3.2452018 210:6.6534214 217:5.468946 221:1.5287085 241:3.7606394 242:1.93541 247:6.7363863 252:3.7368011 277:1.1299667 282:0.21365133 293:0.16998768 300:6.0864744 312:4.0545149 315:0.54924738 323:0.013842244 324:4.3731313 326:3.6695261 349:2.7263417 363:1.3921781 365:2.1647534 375:2.9816928 379:3.0568616 384:2.0999382 396:1.3963876 399:1.8621898 404:0.84577417 410:0.48961157 416:0.94655371 421:1.1139157 431:6.312201 442:2.151587 466:0.27400488 468:2.7087498 469:0.45494971 484:1.3080595 488:1.8176358 524:1.5645151 529:0.77302164 532:0.28903216 538:3.1510983 545:8.8691578 546:2.8472328 553:0.16647595 559:0.41976267 566:0.79866087 567:6.5626764 572:0.82970774 577:0.60696882 578:1.0445518 592:2.4635866 606:2.428226 609:1.5876645 612:6.5740695 614:0.13154815 618:1.9779695 626:1.0364182 635:2.8954208 642:1.7415797 653:1.2551254 657:6.7156935 661:0.18817675 664:5.5497932 675:1.7592332 676:1.8625678 687:11.025928 705:1.6072007 706:0.15524092 711:2.1501153 721:7.5013924 722:2.094435 723:5.3363285 725:1.0773153 729:3.4783614 735:0.02300036 748:2.8255146 749:2.0750792 755:0.51113546 764:1.5799923 773:1.2985877 777:9.2427416 782:1.01674 788:3.5179152 789:2.1589262 792:1.5909653 798:1.7291281 799:0.43660444 804:0.1955734 811:2.290484 812:4.7256336 814:1.6615279 816:0.29759315 826:3.5131845 830:2.7353132 841:3.0064774 842:1.1723679 854:0.34780252 874:2.4785304 876:0.19472572 880:0.40150955 883:1.2946851 889:0.1176585 894:2.6158769 902:5.0460768 904:2.1859334 905:0.076126121 912:3.0339365 916:2.6305177 918:1.7056782 928:1.3822547 932:0.33592716 943:3.0734925 945:1.3179557 953:1.0251181 965:1.6965692 974:3.0279949 976:2.0925765 989:0.33672073 993:0.31461704 999:0.49876946 1004:2.9562566 1014:3.1676819 1021:4.6221757 1022:1.8622376 1024:1.4135041 1034:0.69195187 1047:7.3703794 1058:0.90188152 1070:0.47471401 1071:0.31461722 1081:0.94212353 1092:0.0043474436 1095:0.32470155 1096:6.2502279 1111:1.3369541 1125:0.78183985 1130:2.8450348 1139:0.04029274 1157:0.22223544 1165:0.11555794 1168:1.2833092 1169:1.4458371 1170:4.9761028 1174:5.3739457 1175:0.32546625 1184:0.23204225 1192:1.3220993 1193:5.4074488 1199:0.52875859 1206:6.7815266 1208:2.9730508 1217:3.0928254 1219:6.8991394 1220:4.8723521 1223:3.7497473 1227:0.98591554 1235:1.1325042 1237:3.1770086 1242:8.1441164 1251:0.17831862 1269:2.4397867 1278:4.5475559 1286:1.0001504 1304:7.0480037 1305:1.5521491 1310:1.7983625 1313:1.9456553 1314:1.2938154 1325:1.4154043 1331:0.299146 1335:1.7911613 1336:9.5581303 1341:4.803616 1342:0.77867573 1344:0.16330291 1361:1.2573698 1366:2.4305508 1369:6.8906746 1372:0.95863467 1381:1.9692098 1392:2.4611373 1397:2.1390641 1406:1.8887334 1410:0.95414984 1411:1.2636333 1419:1.2046002 1424:2.04881 1426:0.047469974 1430:0.46293128 1441:4.4527564 1456:1.4080369 1465:2.3445559 1466:1.6528218 1469:1.2111057 1472:1.0729928 1475:0.10093951 1476:5.0137997 1477:0.50793529 1483:0.87281531 1484:7.5220828 1487:0.49756125 1489:4.060245 1502:5.8454337 1510:0.64576465 1515:0.50893956 1520:1.1305132 1523:0.084964007 1526:1.9278867 1544:0.71604061 1546:5.4971786 1560:3.0279784 1567:1.8544006 1577:3.1786675 1580:0.82693839 1586:1.0100639 1587:2.6430333 1588:0.62459707 1597:1.1881936 1613:2.4216633 1617:2.0417368 1624:3.1505232 1629:1.1493686 1636:2.1028852 1647:1.420175 1659:0.63104713 1661:5.6179538 1669:0.61602193 1678:2.5370734 1679:0.13994569 1691:2.1388273 1694:2.2803943 1695:0.0086474717 1696:1.4059027 1712:1.9204475 1720:4.6318874 1726:1.5970402 1732:0.51689076 1734:1.0163578 1738:0.17866018 1746:0.5489651 1747:0.066475362 1758:3.1601613 1761:0.35922521 1762:6.0755 1767:0.27671343 1778:0.73250937 1782:1.2038049 1802:0.23212312 1806:11.966265 1811:1.8483485 1813:10.512344 1820:1.7093242 1831:1.858917 1832:0.97266901 1842:4.0207872 1845:0.24667698 1846:7.7251568 1849:3.192076 1854:3.8378034 1858:1.3702238 1860:3.5589314 1861:1.2172176 1878:1.0070565 1880:3.1696284 1889:1.8840079 1893:3.1265385 1897:1.5889874 1898:3.1232791 1901:3.494658 1905:4.2317581 1908:3.4678373 1918:0.85629821 1925:1.4348612 1928:2.189033 1938:2.3935654 1943:0.61804962 1953:0.13576791 1960:2.8714314 1966:1.2842869 1972:4.1474686 1977:0.72971034 1984:5.854022 2009:5.8654156 2026:2.1790452 2028:0.30018479 2035:0.70846391 2038:1.1772259 2042:0.49161413 2048:0.81437349 2053:1.8279823 2057:2.2562284 2058:2.7322907 2066:2.0232153 2085:1.4507967 2091:1.1309869 2094:3.7382073 2101:2.5937791 2102:5.4716778 2117:1.4735712 2137:0.87662667 2144:1.7287073 2153:3.1951752 2164:3.0698774 2177:3.7352402 2186:5.0930629 2188:3.1937313 2189:0.41239855 2196:0.15325484 2199:2.0642233 2200:2.9776201 2215:0.177279 2223:0.48328489 2226:1.2900887 2232:2.2953675 2236:2.4065032 2241:1.9735343 2245:0.36555403 2253:0.62010777 2257:0.68776786 2259:2.3663332 2267:1.1290108 2271:7.2581973 2273:2.4391079 2280:1.0976723 2286:0.2364161 2294:0.68462777 2298:0.34934333 2307:0.080279589 2311:1.5144124 2314:0.23530164 2318:2.2079906 2324:2.4549153 2329:5.268786 2333:0.81154996 2338:0.57602966 2343:3.4741867 2344:1.5113131 2376:0.22068131 2390:1.7884275 2393:1.0759603 2404:0.87420088 2416:0.9187429 2423:4.5287519 2424:6.7134056 2428:0.34709495 2432:0.92761648 2435:1.68661 2440:0.47971791 2453:0.54746521 2460:0.49270058 2470:2.0636692 2485:2.9190774 2486:1.8437616 2507:6.161859 2508:0.53014529 2509:3.5847311 2519:1.4255216 2520:1.7125386 2526:1.0070843 2528:0.90719968 2530:2.0655267 2535:1.628495 2551:6.1193581 2561:11.634758 2563:2.119735 2568:0.60003579 2570:1.1534914 2574:1.8930593 2576:2.4855638 2577:1.4287186 2589:4.929152 2594:0.32234359 2601:1.7017958 2604:2.3436966 2610:3.9966438 2611:0.32920653 2614:0.39649242 2621:3.4918513 2623:1.5555276 2628:0.0016941279 2637:0.58381629 2642:1.7512167 2655:1.9648664 2659:0.69043279 2667:2.6430826 2670:1.5642604 2678:1.2706745 2688:3.2560015 2690:0.25712252 2693:0.72886217 2712:0.059472561 2714:0.79948288 2715:0.57641631 2721:3.2875967 2725:0.57546604 2726:1.3439115 2745:2.2102494 2763:1.1648433 2765:4.301023 2766:1.5268309 2777:4.9755306 2786:0.31892282 2787:2.6487536 2793:2.2493668 2802:1.5968781 2812:3.026953 2814:6.3934011 2834:8.5888958 2841:0.24759087 2842:1.7925009 2843:0.079534978 2857:2.5375175 2870:5.4862614 2874:2.3603613 2879:3.3664222 2882:2.7695589 2887:0.53925276 2888:3.9487288 2892:3.6690557 2894:0.066905349 2896:5.5623484 2910:3.2466421 2916:4.5400348 2919:1.4556845 2920:0.94977909 2932:3.5879917 2937:0.23128471 2945:3.1119528 2949:4.4751363 2953:0.84478676 2957:3.7910893 2966:6.928637 2967:0.28741705 2971:1.9675117 2991:3.1028161 2993:4.076673 2994:0.18815202 2997:0.82706779 3003:0.095327482 3021:1.3865151 3035:4.6876836 3036:8.5187988 3062:1.2417139 3066:3.0367231 3068:1.277808 3072:4.6079912 3073:2.5846362 3075:1.718308 3079:6.536778 3094:1.9817319 3105:5.5400367 3110:3.2114758 3116:3.2536187 3124:0.088612109 3141:1.6513662 3144:3.309078 3146:1.4618214 3148:0.69112015 3151:1.9458873 3160:2.4218946 3163:2.020649 3172:1.2783724 3183:6.0445557 3184:7.1709957 3197:1.780533 3198:2.1503577 3199:4.0221057 3215:3.9472198 3228:1.3461101 3233:2.6386137 3235:5.7830038 3241:1.8808919 3242:2.3636904 3246:1.1085433 3260:1.0615093 3268:3.7504222 3269:1.0365279 3275:1.493609 3276:0.9305104 3282:5.2723341 3284:1.1724315 3286:1.3645573 3293:2.0429468 3298:0.0049553923 3321:6.8522577 3324:3.5219293 3335:2.1151416 3347:2.0413995 3349:8.6495008 3373:1.7615602 3377:2.6364937 3382:3.4448292 3390:1.0084081 3395:0.56925964 3397:1.1164649 3415:0.71330595 3426:3.7612941 3431:3.0345395 3442:1.2641749 3443:1.6885664 3445:7.1529799 3450:0.37576672 3451:0.36644137 3452:3.1533959 3456:0.34744611 3457:1.0487561 3467:0.72177696 3468:4.6057 3474:0.23179565 3478:3.9760525 3491:1.905587 3496:2.5174873 3508:2.995847 3509:4.4870028 3513:1.5423695 3522:0.61177802 3528:0.39250907 3529:1.3168509 3539:0.74403048 3540:1.624087 3544:0.30298674 3548:0.0015116334 3549:3.8572781 3551:2.0165353 3555:4.2284403 3564:3.5433753 3572:0.62753677 3576:3.6541796 3578:5.1223483 3580:1.2432154 3582:4.320837 3585:6.1453338 3591:1.4783931 3592:0.75829333 3594:0.17762043 3601:2.1547012 3602:0.46212566 3604:5.8919196 3606:2.9443758 3608:1.6296045 3614:2.0252883 3617:0.83098727 3621:2.6031837 3626:0.83310777 3627:1.3915715 3631:4.1866136 3632:1.52979 3644:0.65513355 3652:1.6651899 3667:0.39951679 3670:1.7700133 3679:2.2706547 3683:1.8645428 3687:0.97682226 3690:0.96168762 3698:0.40013677 3699:4.0899439 3703:0.22641814 3715:1.6360769 3719:4.3463511 3720:2.0753174 3732:5.1328716 3734:1.8652698 3747:0.22951913 3751:1.5142573 3752:0.66505134 3756:2.5314925 3766:3.4454203 3771:2.1860485 3776:3.0625739 3777:2.3967447 3778:6.2691789 3785:3.0116265 3787:0.25475973 3793:0.52752006 3795:0.13185894 3811:2.5796437 3814:0.12041227 3818:2.2194383 3824:2.6477568 3826:2.5839341 3835:1.6129612 3837:0.51444364 3867:3.5440893 3872:7.2508793 3877:2.2614934 3880:1.0612252 3889:1.8117546 3891:5.2826529 3892:1.4242002 3895:2.0578542 3901:0.56017387 3903:5.4090147 3907:5.1644845 3910:2.9481859 3915:1.9623843 3923:7.8909354 3929:3.3543124 3957:5.0629683 3984:3.615597 3988:4.7196407 3990:3.2337546 3992:1.6357298 4002:5.7870831 4016:2.2295713 4018:2.2659774 4021:6.1454167 4033:4.5278878 4036:4.4982967 4038:0.26705134 4041:3.3056111 4043:1.2700032 4067:1.7251029 4071:1.5197281 4074:2.562295 4079:0.83647132 4080:2.3375053 4084:1.8356855 4085:0.54118502 4089:1.739831 4091:0.80840516 
0.2760482818367218 9:12.591063 15:0.058840007 19:2.8186967 40:9.3029671 49:3.6550603 54:2.9253709 64:2.1152771 66:0.66648334 77:5.9144697 88:0.97232872 90:3.4319069 91:0.00068281032 103:0.096475333 107:2.1845729 111:0.15194008 125:0.71390295 145:2.3294876 147:1.9587494 159:5.2344241 164:4.0669866 167:2.2230897 172:4.8784118 181:3.7630277 190:1.1901159 191:3.3090599 196:1.1002158 197:0.93284386 200:3.8806813 210:8.90166 217:5.801856 218:2.0128613 221:0.28802139 232:0.70227414 241:4.5237474 242:3.6536982 247:4.8567905 248:1.1623033 252:3.7506623 256:1.9244117 271:1.0761396 275:1.7496669 277:0.70342863 282:0.53208041 300:5.7179317 312:2.7706747 318:0.18953854 324:4.6527953 326:2.1613936 329:1.2685304 335:4.1387811 349:5.8789577 357:0.12338012 363:0.64034218 365:0.54977572 378:1.8777099 379:2.1864083 384:3.6195891 391:2.6585603 396:1.4741167 399:1.2531999 404:0.040859222 410:0.6824559 412:2.5242918 416:1.3873173 421:0.60240781 425:2.2416325 431:3.9654045 434:0.51293689 448:0.98850453 466:0.46081582 468:3.2954936 473:0.34320205 484:1.3707966 488:1.09642 500:0.26486012 505:0.51935852 511:0.046222001 514:1.5007576 515:0.41573149 524:2.0382044 527:0.54868269 529:2.5685151 532:0.20093241 538:3.9919872 545:7.3783035 546:1.7091144 559:1.2359326 567:6.5399866 572:1.5695719 576:4.0788922 577:0.9278127 578:2.2948353 592:1.8913596 601:0.4291245 606:2.3550401 609:1.7971069 612:7.1241183 618:2.7202091 620:0.17536142 625:0.85401785 631:0.69190907 635:5.3541188 639:1.0699537 642:1.6913601 651:2.4464786 654:0.25205052 657:6.584332 664:4.1693783 670:0.36963475 672:0.24948925 675:4.4507289 676:2.1603138 682:0.29079425 687:8.5987129 691:1.1911343 692:4.4617882 701:1.9287401 705:4.6065683 706:0.57790679 711:2.274889 721:4.8394709 722:2.6629064 723:4.6008759 725:2.5717888 728:0.41247389 729:2.3254814 747:0.11334606 748:1.0948657 749:2.6383889 751:1.049927 755:2.1598296 764:2.2695897 773:3.2288992 777:6.7479949 782:3.5127037 785:0.42084676 788:3.0479627 789:3.1569016 799:0.61171699 804:1.7443501 811:3.044893 812:4.6039133 814:1.1431148 816:0.34243411 826:2.5854225 830:1.4779468 840:0.13424656 841:2.5197558 842:3.0836091 853:1.7843908 854:1.8756423 857:1.384445 861:0.970792 866:1.8009162 868:2.0858681 876:1.4766073 883:0.27215135 899:0.49853635 902:2.6857474 903:0.090509742 904:2.9685245 905:1.0081153 912:2.2059765 916:2.1700132 918:4.5423427 919:0.64573997 928:2.1878228 943:4.4590998 945:2.301801 953:2.2309897 956:1.0975226 960:0.63636124 965:4.2793226 974:2.2618454 976:4.0415001 983:1.3899742 996:0.63156831 1004:4.0383353 1014:2.653069 1016:0.12542631 1021:3.1563272 1024:0.06665951 1034:1.8393357 1047:5.7243447 1049:1.1855828 1051:1.2892859 1058:5.5375667 1060:0.58153766 1071:0.99043161 1078:1.1389437 1081:1.3418835 1092:2.7565184 1096:7.2950473 1111:0.26762852 1117:1.405054 1125:1.048018 1126:1.6614478 1130:2.4752228 1138:2.3758857 1150:1.7791268 1159:0.17550653 1165:0.66915786 1169:1.4729569 1170:4.9640856 1174:3.8484917 1175:1.4632534 1185:0.0087180734 1188:1.9204057 1191:0.90420479 1192:1.1623405 1193:3.2257218 1195:0.18983817 1199:1.848971 1204:0.044336855 1206:5.9541793 1208:2.0926924 1216:0.052179635 1217:2.7062247 1219:8.6068678 1220:5.6439281 1221:0.59744978 1223:4.0989966 1227:3.8677392 1235:0.29554331 1237:1.9814502 1242:7.7440925 1252:2.0955482 1269:1.6189637 1278:6.651011 1286:0.69325572 1304:2.9062855 1310:1.7775692 1313:1.9887553 1314:0.93161142 1325:0.71838242 1331:2.0909295 1335:0.82910699 1336:9.7446442 1341:3.5755501 1342:0.71827304 1349:1.4055327 1361:2.8424129 1366:2.3271735 1369:5.5097976 1372:2.1888509 1381:1.3701576 1386:0.0028519034 1387:2.8241141 1392:3.7703755 1397:0.74025607 1406:1.8149855 1410:3.2467422 1411:0.68862772 1412:0.22931832 1419:2.1787694 1421:0.27563158 1424:3.6057348 1428:0.64388365 1433:0.083324939 1441:2.4351935 1456:1.3091562 1465:2.0589194 1467:0.72579414 1476:6.0886154 1483:2.6878741 1484:3.898365 1487:0.32654884 1489:1.7730911 1498:0.40631771 1502:8.1303005 1503:0.23909394 1510:1.085238 1515:1.8688207 1520:2.087585 1523:1.2491746 1526:1.9731793 1541:2.7771876 1544:3.6878932 1546:2.9526505 1560:3.3874609 1567:0.51470697 1577:1.2800546 1580:1.3386247 1586:5.3911867 1587:4.0467663 1588:2.7350855 1597:2.3398371 1604:0.59692371 1613:2.2502172 1617:0.43928379 1624:4.0223107 1629:0.013075814 1647:2.6760981 1659:1.0117759 1661:5.362236 1669:1.8150069 1670:1.0159471 1678:4.0432649 1679:0.41933292 1683:0.13667557 1690:0.45054817 1691:1.8726306 1695:2.7532899 1696:3.1576285 1708:0.20204967 1712:3.6232014 1720:6.4272647 1726:2.7200716 1730:1.8520374 1742:1.0250834 1750:0.58333474 1758:3.9081361 1762:4.7745843 1767:1.8293793 1778:4.2334409 1782:0.068768725 1786:0.56223834 1790:0.45147642 1806:11.84475 1811:0.42276278 1813:9.2501459 1830:0.18432935 1831:3.2926307 1832:3.3406041 1837:0.74035728 1842:1.7689543 1845:0.54661876 1846:9.673111 1849:4.2854033 1854:2.320328 1856:0.57362252 1858:1.3844746 1860:0.28431156 1861:0.33348572 1874:0.30528712 1877:0.74443811 1880:2.9261291 1883:1.4385774 1889:1.11945 1890:0.013216458 1893:0.93863654 1895:1.1723958 1897:0.62075931 1898:4.7967043 1900:4.7154155 1901:6.6192451 1905:3.3306241 1908:0.9818095 1911:1.0751089 1918:0.084138036 1923:0.32484043 1925:4.4075356 1928:3.0837722 1938:4.301188 1942:0.16609538 1943:4.1415977 1960:2.3729453 1966:2.1386855 1972:4.9059772 1977:2.8754814 1984:4.2552509 2004:0.022226572 2009:4.5710526 2026:3.7903872 2028:0.44420585 2038:0.37049046 2042:0.081135035 2048:4.5353451 2053:0.7212497 2057:0.31523708 2058:3.9677582 2066:0.85119843 2085:1.4649968 2094:1.3127979 2101:1.2419701 2102:3.8163636 2110:0.45797184 2117:0.3800723 2130:0.18532297 2153:1.0263426 2164:1.0632746 2177:5.2800488 2186:4.0703712 2188:2.5190639 2189:0.8556304 2190:1.8334655 2196:1.671939 2199:1.1347935 2200:3.701405 2206:0.42567593 2215:0.43476272 2226:3.2203007 2232:2.457901 2233:1.4643829 2236:1.8447398 2239:1.8600364 2241:4.1391697 2242:0.32368135 2259:1.7153205 2262:2.0767369 2271:4.4830742 2273:0.20734116 2280:1.4774033 2292:0.21214944 2294:2.1115839 2298:2.0190122 2311:1.0934585 2312:0.93265569 2314:1.606271 2318:1.740021 2324:4.4146953 2327:0.080656946 2329:2.7072682 2331:0.10765365 2340:0.22115096 2343:4.119802 2360:1.3176826 2372:1.9894409 2376:4.1633153 2390:3.7434638 2393:1.2124898 2416:0.36713114 2417:0.50080818 2423:7.7897367 2424:3.8330574 2428:2.8859274 2432:2.9170578 2435:2.5627718 2440:1.2621244 2453:1.929976 2457:0.94420171 2459:1.2658195 2467:1.3605223 2485:0.952016 2486:0.73690712 2507:4.8519831 2508:2.2166002 2509:2.0662997 2518:0.11524171 2520:0.94277799 2526:2.1428146 2528:2.0714524 2530:2.418201 2535:2.0540767 2537:0.58914959 2551:5.9950438 2560:0.22972089 2561:10.716637 2568:0.25540981 2570:4.1321883 2574:0.97744805 2575:0.20248613 2576:1.6045775 2589:4.8942637 2594:0.39788392 2595:1.3145229 2599:0.088922352 2600:0.59300601 2601:2.6319978 2604:3.7627485 2610:4.5352821 2611:1.3749273 2621:4.8510947 2625:0.93428493 2628:1.248824 2629:0.52914989 2634:0.20023945 2637:1.3201869 2642:1.8288403 2655:1.9236485 2659:0.44891801 2667:2.8994603 2670:1.8391992 2678:0.59584761 2687:0.37941587 2688:4.5710292 2689:0.91745007 2690:1.1350008 2693:2.9543884 2695:1.0762197 2715:3.3789241 2721:3.0080924 2723:2.5379076 2725:0.50878119 2738:1.4819787 2745:2.8500748 2752:1.2896253 2763:0.87282634 2765:5.3427124 2766:3.1337154 2771:0.99789488 2777:4.1498647 2786:1.082566 2787:2.2433529 2793:2.2830224 2800:0.86959422 2802:0.726641 2808:1.9304134 2812:2.2250521 2814:5.7133002 2821:0.77012336 2825:0.50805879 2834:5.2418809 2835:1.7528969 2841:2.6340301 2842:2.5957463 2843:0.90041769 2857:1.5551903 2866:0.97862101 2867:0.64556247 2870:3.9385304 2873:0.90424132 2874:0.64369577 2879:5.6825628 2882:2.9877386 2887:0.53868461 2888:2.5223835 2892:0.34153783 2896:3.0194612 2909:0.442765 2910:4.3272438 2916:4.1402049 2919:0.91390705 2928:0.79695225 2932:5.4786725 2945:5.0129647 2949:3.2548223 2950:3.003031 2953:3.0329642 2957:1.8675869 2958:0.14486927 2966:5.5028443 2967:0.88524532 2971:3.1344154 2976:0.49154654 2982:0.28884283 2991:4.7554235 2993:5.7404437 2995:0.42803645 3021:4.7241607 3023:2.7290018 3035:4.6457095 3036:10.734365 3056:0.32391563 3066:1.9468298 3068:1.1640369 3072:4.3073874 3073:4.4299812 3075:3.4350462 3079:6.0390797 3080:0.3908768 3085:0.47333536 3094:0.72598505 3105:4.1162772 3110:3.6424453 3116:1.7540935 3124:2.2856266 3130:0.7733838 3141:4.1246424 3144:2.3288047 3146:2.9191141 3148:0.30556405 3150:1.6464988 3151:1.5132632 3160:0.39593703 3163:1.9457855 3172:0.26575127 3179:0.022749841 3183:3.6145148 3184:6.2495861 3195:0.52225 3197:0.9288553 3198:0.7189244 3199:6.7410426 3215:5.04357 3235:4.5555835 3242:2.2165713 3260:1.7888442 3268:3.0378721 3276:0.87827706 3282:3.737206 3286:2.4433432 3287:0.32638568 3294:1.3521045 3321:6.6795316 3323:0.57328081 3324:3.9229622 3334:0.23377773 3335:1.985083 3347:1.2682136 3349:6.2218032 3366:1.9653916 3373:0.39348084 3377:4.1034937 3378:2.5025845 3382:0.56929958 3395:1.9213407 3396:1.3090485 3397:0.086520195 3407:0.38187286 3415:1.2215203 3426:3.7062101 3431:2.3030822 3438:0.63769913 3442:3.7349324 3443:0.92303187 3445:2.453337 3446:2.9706082 3450:0.49585763 3452:0.86922681 3456:0.91591209 3457:1.7855363 3468:1.8763907 3470:0.170551 3474:3.146132 3478:5.6826682 3490:0.28750727 3491:3.0122986 3496:2.972733 3504:0.76016903 3508:2.7279828 3509:4.8320832 3513:0.43733582 3522:0.71286505 3539:0.96490622 3540:3.601989 3544:3.4353204 3547:0.15038624 3548:0.25236705 3549:5.4029355 3551:2.3432443 3555:3.1316283 3563:0.032585025 3564:1.627043 3572:0.47159907 3576:2.6008141 3578:4.4186554 3580:1.0072011 3582:3.8506293 3585:7.2644634 3589:0.19237748 3593:0.78085011 3598:1.0228864 3602:2.146672 3604:3.7278633 3606:2.2607377 3614:4.5955186 3617:1.1865082 3620:0.45369372 3621:2.3622785 3626:0.69986659 3627:2.9095445 3631:1.1415901 3632:1.9875906 3638:0.66304922 3644:4.0472498 3650:2.0946338 3667:3.3462508 3670:1.8705504 3675:0.50547618 3679:1.0573351 3683:3.9282951 3687:1.9934237 3688:0.67323184 3690:1.7587473 3692:2.280369 3699:4.4331889 3715:3.4567182 3719:3.8708897 3720:1.0835254 3724:0.13283694 3729:0.036191791 3732:5.4491525 3734:3.8496635 3747:2.2175472 3751:3.673701 3752:2.1533327 3756:1.3339548 3766:4.5756483 3771:1.8051903 3776:1.7740576 3777:2.6573224 3778:5.1409163 3785:3.6614983 3793:0.42211446 3795:1.4199064 3808:1.0734404 3811:1.9553082 3815:1.0427079 3818:1.4494412 3824:1.5532012 3826:4.3989925 3835:0.42848682 3845:0.72646016 3867:4.706212 3871:0.45245981 3872:5.5083141 3877:2.8294947 3880:0.57691967 3882:0.13673411 3889:1.1654992 3891:6.897058 3892:4.6767092 3893:0.032655835 3901:0.81023622 3903:6.898787 3907:6.0682144 3910:3.279911 3915:2.06545 3923:3.5364106 3929:1.4267522 3957:5.4418774 3972:1.7961566 3974:1.7521701 3984:3.8767858 3988:6.4161549 3990:4.9403048 3992:0.57299793 4002:5.5351715 4004:1.4057026 4005:0.50514877 4011:1.0422624 4016:2.2717247 4018:1.0388961 4020:0.33024207 4021:5.5708489 4033:5.2145486 4036:5.1872778 4038:1.0317796 4041:0.89053774 4058:1.0581436 4067:1.7302114 4071:0.40227398 4072:1.7437973 4074:0.66034091 4077:0.067070514 4079:1.2122307 4080:4.3241792 4084:0.28624642 4085:1.9353406 4089:2.3719084 4091:1.7102662 
1 9:2.7303474 15:1.1510916 19:3.0934527 27:3.1284168 38:2.3007343 39:0.80230188 40:4.0688186 43:0.22922489 49:2.6576664 54:3.0192988 62:1.3953683 66:2.5270164 68:1.4037509 77:2.5739286 82:1.558165 84:1.4004282 94:1.0786282 103:0.099327981 107:0.32172057 114:0.30171415 147:2.9082098 154:1.8446835 159:1.6738755 163:1.4628624 167:3.6091444 169:0.24661291 172:4.6144562 173:0.84751761 181:2.5210347 188:1.0438371 190:0.99615312 196:0.8687591 200:4.4337678 202:0.84870607 210:10.383348 216:0.43094093 217:6.8253121 234:0.5713107 241:3.0252533 247:4.6414647 262:0.17474747 267:1.4692879 271:3.285984 277:1.4709241 288:0.92171431 297:2.3618979 302:2.7877457 304:0.48316273 308:0.79633272 312:5.4662929 318:1.6662116 323:1.7372414 324:1.5255549 348:2.5298321 349:1.3693328 353:5.7484837 357:0.53074116 359:0.7970531 363:1.033762 367:0.092974439 378:1.4633713 379:2.2005692 382:0.49100772 384:1.453881 390:2.2403102 391:3.7362444 397:0.09253785 412:4.2033854 416:0.16399103 431:1.8257847 432:1.1829447 434:0.18356082 442:0.34411216 453:0.021171361 456:3.024518 463:1.6311791 468:0.74723291 473:2.1011059 482:0.16398932 484:5.3385425 487:1.2968664 496:0.35956797 498:0.47307494 499:2.5887146 511:0.11327246 514:1.4402542 515:2.4695156 526:0.12697521 527:3.1159763 545:1.2263637 547:0.22871384 553:0.56202811 559:2.3453593 562:0.82332087 567:1.191185 572:1.1111304 576:0.17078452 578:3.5461638 583:1.1419681 586:1.0682583 601:2.1265252 605:0.41936669 609:0.02490443 612:5.6949086 633:1.6776471 635:2.3605452 639:1.7342931 641:0.21914196 642:2.8558767 654:0.86405772 657:3.8322086 662:3.4329495 664:1.9015924 667:0.6893329 671:0.34588575 672:3.9775896 675:1.6727943 677:1.6835339 679:0.005774349 682:4.2801857 687:3.5765333 701:0.45104256 705:4.6688824 706:1.4302 711:2.4255984 720:2.5983479 721:3.0190954 722:0.13813171 723:3.2199078 724:0.24177358 725:1.2455933 728:2.2275801 749:2.8978243 755:2.9255774 758:0.074349642 777:2.144336 780:0.32556605 782:0.025442265 785:0.77586877 788:2.7991145 789:0.69211233 804:1.282801 809:1.7030666 811:1.3242365 812:3.1930346 814:2.6237383 820:2.2340579 823:0.31146097 826:2.8438542 835:0.42824662 839:2.2424212 841:2.8974774 842:0.15274945 857:0.36669537 863:0.6445691 866:2.2430377 868:3.526588 876:1.6410173 889:2.5639005 899:1.4117416 902:0.54445833 905:1.6557556 912:0.80600667 916:1.1377847 922:2.4348607 928:3.0227759 930:0.32751191 943:2.6286578 947:1.7378502 958:2.8561373 965:3.1923625 971:1.5205919 974:1.9575067 976:4.4056315 979:0.8992722 987:0.75100577 989:0.45916319 992:2.4946938 993:0.092311889 1001:0.48552269 1002:1.0730923 1004:2.2851408 1014:1.4661258 1021:1.3250707 1022:0.39952958 1029:0.22237009 1030:0.10758045 1041:0.04904592 1047:1.7966185 1071:0.76167047 1074:0.46210256 1080:0.45034555 1081:1.493524 1087:0.72102892 1090:0.92417121 1092:1.0931642 1096:9.2532215 1102:2.8507462 1103:2.149749 1110:1.336158 1126:0.19066957 1130:2.0936093 1134:1.7244552 1138:0.053913295 1150:0.34419122 1159:0.97970438 1165:3.8337543 1169:0.58381772 1170:4.9578686 1171:0.97409183 1175:3.3346014 1188:0.32339972 1189:1.0730586 1192:3.0482361 1206:2.1406019 1216:1.0930619 1219:7.1858344 1220:4.5103698 1223:1.82656 1234:0.51145649 1236:2.0670185 1237:0.71432394 1242:3.6089656 1251:1.0058362 1252:2.1969779 1254:0.093110189 1260:0.15999871 1268:1.0774291 1274:0.61647409 1278:1.7358911 1279:0.57138771 1286:0.6555481 1305:0.00071054697 1306:0.30220819 1314:2.2372382 1336:4.2278829 1341:1.4410559 1342:0.5379222 1349:3.2726264 1359:1.0400465 1361:1.4050887 1365:1.8416233 1368:1.8463962 1369:1.5691696 1387:4.9838533 1392:1.3819729 1393:0.10116863 1395:1.5800736 1397:0.58989167 1406:0.48129719 1410:1.4492681 1411:2.7294807 1419:2.9488041 1422:0.4992896 1424:3.880291 1428:0.24414885 1430:3.2343814 1433:2.1991131 1441:1.1740714 1456:0.029173732 1463:0.45089215 1465:4.6608176 1470:4.9046111 1471:0.34257388 1475:1.5651681 1476:2.3287034 1483:2.8636069 1484:2.4778218 1489:1.1545818 1495:0.36127222 1502:4.7278442 1506:0.29047874 1513:2.8457835 1515:0.10968092 1520:2.6545084 1526:1.5670592 1546:1.3261223 1556:1.5676528 1560:5.7610645 1569:0.49373409 1577:1.1465802 1580:0.12988156 1582:4.6775918 1587:2.2674172 1590:1.2093066 1597:1.5760275 1604:1.9409161 1612:0.50368702 1613:0.2135691 1617:0.21732673 1622:3.0508265 1624:4.8038945 1628:1.319165 1636:1.4017167 1647:2.101738 1648:0.27548537 1657:1.1787615 1659:2.954905 1661:5.4379644 1663:0.079099089 1677:1.9457247 1678:3.2372589 1680:0.63973606 1690:0.45332617 1695:2.1949146 1696:2.3701921 1697:1.5597776 1705:4.558125 1712:1.5366098 1720:4.1389093 1726:5.5703955 1730:2.5922754 1737:0.96507198 1747:0.26467487 1750:1.7855916 1758:4.4753342 1762:4.2328377 1767:1.8059963 1772:0.2944093 1790:2.1158042 1794:0.90977144 1795:0.11539614 1799:2.3732145 1804:1.503177 1806:2.7235146 1808:0.088655204 1811:1.1060519 1813:4.8956761 1822:1.1306602 1824:0.49236199 1825:0.42793012 1830:0.14129278 1832:3.8971875 1833:0.71757853 1837:0.7545135 1846:7.0168462 1849:1.3310592 1854:3.0262327 1855:0.020974636 1856:1.2809954 1857:0.57431352 1874:0.96918666 1877:0.65764105 1878:0.1740582 1880:0.29183325 1881:0.92741227 1890:0.53816473 1895:0.16972435 1901:2.718461 1904:1.3088748 1911:2.1952085 1925:1.1144084 1928:0.19929036 1938:6.0619931 1943:2.441632 1972:4.7360725 1974:0.86906153 1984:0.18511692 1990:1.9961908 1995:0.45888653 1998:0.27675277 2004:1.1080301 2005:1.5395417 2022:2.0144427 2031:0.4628588 2042:0.2757321 2048:3.3179061 2049:0.40174657 2053:0.75819647 2058:4.2107959 2071:0.99893796 2075:0.67560738 2085:0.54602218 2094:1.2441618 2100:1.5038126 2102:1.58982 2110:0.24030706 2116:0.10064957 2117:1.9528717 2138:1.7855605 2144:0.48215276 2148:0.66227627 2153:1.0732303 2159:2.2979469 2160:0.64137411 2166:0.81230199 2177:1.5923828 2179:0.8673445 2186:3.4546533 2187:1.7822651 2188:0.028189287 2189:0.83047903 2190:1.1900399 2194:1.1396435 2195:0.10788188 2196:1.2263309 2199:2.8059034 2200:2.2661018 2202:3.431366 2214:2.7674377 2223:0.78601301 2226:2.0171812 2239:0.12130427 2241:1.5288894 2245:1.9526122 2253:1.2226976 2261:0.51231003 2263:0.90076286 2271:2.8488595 2273:0.057203002 2286:2.6036901 2292:0.58397198 2300:0.46878821 2302:0.66622794 2305:0.26162907 2307:3.0171297 2311:1.7739631 2314:3.9327512 2317:0.306586 2318:0.31295905 2324:4.4873323 2329:1.1229676 2331:1.5005373 2337:1.8971035 2343:1.9964613 2348:2.6219006 2355:0.14707097 2376:0.3683227 2383:2.1878095 2392:0.51834822 2393:2.9319687 2410:2.6661706 2416:1.6075629 2422:0.24290434 2423:2.6043596 2428:0.57373065 2432:1.5939386 2435:2.2880535 2446:1.9227099 2452:0.75207168 2453:1.2189054 2459:1.1764622 2465:0.31472462 2471:1.2662274 2486:1.2282815 2488:0.92683899 2505:0.43392867 2506:0.43747127 2507:2.1664116 2520:1.4259436 2526:3.3614807 2528:1.7060626 2535:1.1064717 2537:2.2482283 2561:4.8205161 2562:0.61130762 2563:2.0924602 2566:0.32258904 2568:0.26438764 2570:2.1630497 2574:3.0992513 2589:0.64936727 2595:0.76425076 2610:0.3005791 2621:0.45261228 2625:2.130142 2626:1.763448 2634:0.97632766 2636:0.78994799 2637:3.4157791 2642:0.78175056 2656:1.6765778 2659:0.93484902 2664:1.8009919 2667:1.5703412 2669:1.4318552 2672:1.9759468 2674:2.4231195 2688:4.3830981 2690:3.7605031 2692:1.0510049 2707:0.16869934 2715:0.12851058 2720:0.13771117 2721:0.29980582 2723:3.8398094 2732:0.1544469 2736:1.7622845 2745:2.734215 2746:1.2405494 2752:0.43100482 2763:0.13898781 2765:3.6635435 2766:4.0279894 2778:0.03418624 2784:0.65214127 2787:0.89577162 2790:0.47559941 2792:4.4220905 2800:2.4419878 2802:3.5097733 2808:1.3521458 2814:3.4663179 2821:1.6521811 2826:2.3837736 2834:0.89431643 2842:2.1494985 2867:0.47784832 2873:0.46913046 2879:2.6051621 2882:1.4590504 2885:0.54113543 2910:1.1653539 2917:0.31401294 2928:0.98404372 2932:4.2314768 2940:2.0722022 2945:1.6467824 2949:0.48680633 2953:0.89414364 2957:0.12775728 2966:3.671633 2967:0.76924109 2971:3.5504546 2974:0.16214091 2976:1.2276013 2982:4.1186352 2993:4.3330417 2995:0.22672403 2998:0.079394564 3010:1.3209683 3020:3.2401304 3021:0.77391315 3032:1.9177405 3035:1.8464401 3036:3.993238 3037:0.86278594 3059:0.16588341 3062:0.16853982 3066:3.3824294 3073:2.1729047 3075:2.2587202 3079:2.8099594 3110:0.75963557 3111:0.8977232 3124:0.27160034 3129:1.6612241 3130:1.8217213 3144:3.9821939 3145:0.80674815 3146:0.92652643 3152:3.3408427 3154:0.75120157 3162:0.44732505 3163:3.6812634 3164:0.45787591 3166:0.56272238 3172:3.0739496 3174:0.38728592 3179:0.34573522 3182:6.1470895 3183:0.89557433 3184:1.5603107 3185:0.069472425 3195:1.4261044 3198:1.7740285 3199:1.7370082 3206:0.089043081 3209:0.19572985 3210:2.5952666 3215:2.7644694 3222:1.538656 3235:1.0461688 3237:1.5767467 3247:0.80694544 3253:3.5458903 3256:0.31916109 3258:0.10300076 3282:0.47185731 3286:1.3011991 3287:0.56640196 3290:0.6764167 3291:0.082828879 3293:1.4409974 3294:0.53596473 3300:0.83831608 3310:0.27951992 3314:0.31513643 3321:1.6406485 3324:0.75389123 3334:0.72799778 3344:0.3216888 3348:1.855639 3349:2.3011494 3351:0.95309228 3354:0.069176942 3355:0.33374733 3359:0.88848472 3364:0.78454983 3377:0.86342061 3388:1.9837637 3390:1.7348338 3395:0.63084942 3396:0.93839645 3413:0.40157303 3418:1.022115 3422:1.2182406 3436:0.9337157 3438:0.64143646 3442:4.7464552 3446:1.171973 3449:0.060076416 3452:1.0344639 3457:1.5942798 3467:0.55953091 3468:0.55686444 3471:0.78767228 3474:2.4448559 3475:2.7925413 3481:0.20255393 3491:2.6015401 3494:7.3473735 3496:7.5376167 3504:0.9747842 3508:0.096539438 3509:1.4492559 3513:1.8970113 3530:1.126137 3537:1.8604722 3539:1.218743 3544:2.3518887 3548:1.2453086 3549:2.5857866 3556:0.29367608 3564:0.91084957 3569:1.138983 3576:2.9681323 3582:2.5760014 3584:0.058015794 3585:2.3857856 3594:0.73861939 3599:0.20249492 3602:1.5672846 3604:2.4440615 3608:5.0153008 3614:2.6568358 3617:2.4880145 3621:0.16585302 3624:1.2960215 3626:1.6059026 3627:5.5826001 3631:0.55928797 3632:0.56428111 3635:0.77005744 3643:0.37109083 3644:7.2606335 3650:0.32320869 3653:1.2896695 3665:0.91963661 3670:0.40470123 3687:0.3196997 3690:2.7185674 3697:2.5028491 3702:1.9616346 3719:1.3361861 3729:0.69592535 3732:3.0294921 3734:0.33654299 3738:0.15275058 3746:1.0173928 3752:1.3181361 3766:2.3416486 3768:1.2722713 3771:0.73547131 3777:1.2449582 3783:1.2969162 3785:2.2338538 3786:0.18352437 3789:0.94592112 3793:3.9562695 3795:2.8151155 3802:2.052732 3806:0.053206533 3808:3.0081043 3811:1.1524369 3815:2.4593339 3822:0.28969604 3824:1.4220339 3837:0.18492544 3851:0.25162464 3864:0.23913737 3870:0.19507734 3871:3.2369475 3872:1.931424 3877:1.3410828 3881:0.7700851 3886:0.49121687 3888:0.55369949 3889:0.63996315 3891:0.99747443 3892:3.7219675 3893:2.614475 3903:5.88731 3907:5.6865396 3910:3.3181291 3915:1.3946296 3918:0.71995401 3927:0.13229625 3929:2.422425 3935:0.92797881 3957:2.4352105 3972:0.17036745 3981:0.53457922 3982:0.77745128 3988:2.2100067 3990:2.5399146 3992:3.0244465 4002:0.62204832 4003:1.071862 4005:1.7106338 4011:2.008219 4013:1.6579441 4021:7.5185418 4034:0.2634151 4036:1.4019775 4041:0.76326329 4057:0.64207232 4058:1.5724421 4059:0.10926719 4070:2.455004 4072:0.48531789 4073:0.26667786 4074:1.3390659 4079:0.88510978 4085:0.17617819 4089:2.584625 4091:1.1088754 
1 4:0.18378358 9:5.6810212 15:1.4249811 19:1.3621254 27:2.345983 39:1.3804479 40:7.4512362 43:1.6143235 45:0.58180857 49:3.1114206 54:1.9797835 62:0.53896129 64:1.7849367 66:3.0222428 68:1.2211394 77:2.2336905 82:1.1533018 90:0.23754698 91:0.5504142 100:0.16609922 103:1.1218362 107:3.8463871 114:0.90843725 125:0.16173616 131:0.65833783 147:3.1428347 152:0.048482567 159:3.6322651 163:1.2819893 164:0.60207111 167:4.263763 172:2.9702694 178:0.11035234 181:5.6270828 190:0.47762603 191:2.3091447 196:2.0420971 200:3.6984253 202:0.33739275 210:8.5132923 217:7.0357399 218:0.75648606 221:0.51811415 223:0.22164887 232:1.7922947 241:4.5926991 242:1.6595004 247:4.6994467 252:2.0386982 267:0.39221349 271:1.9428693 275:0.29045036 277:0.83370632 282:0.2713733 288:0.82293439 300:4.572145 304:0.48695397 307:0.13173836 310:0.99662179 312:4.6800961 318:1.1196271 320:1.4396948 323:0.72938192 324:2.3028891 326:0.037083119 335:4.1452079 336:0.041076243 349:2.1146257 353:3.0493059 354:1.1519533 357:1.2384316 359:1.8804203 363:4.5551114 378:3.4402816 379:3.6540017 382:2.0692079 384:4.6669574 390:1.205134 391:3.0085697 396:0.25319415 399:3.139468 408:0.60545838 412:3.1212814 416:2.3005989 421:1.2137189 425:1.5523434 428:0.0072627366 431:2.8052535 432:0.99382865 442:0.019430205 456:0.071409501 466:0.40091944 468:2.4924581 473:2.0136929 484:1.0743419 496:0.77621365 498:0.78233713 499:2.1454136 514:5.939939 515:2.4860792 517:0.44789812 518:0.88852108 524:0.64325637 527:0.75549304 529:0.91764897 538:4.9203706 545:3.9175155 546:0.058105081 553:1.4984961 559:0.51800776 562:0.69001985 567:1.7115594 572:1.1781193 576:3.2031999 578:2.464258 583:0.30257055 589:0.63898015 592:1.6865696 594:2.2960546 601:0.57146323 603:0.33544987 609:1.1944897 612:6.8215928 616:0.05073604 618:1.404364 619:0.39299691 620:0.64188898 621:1.3973466 626:0.24155045 635:2.8559015 639:2.095099 642:2.2354591 651:1.213281 656:0.46368843 657:5.7358747 660:0.057082951 661:2.4651828 662:0.57585335 664:2.4126272 665:0.4007661 672:1.0060422 675:7.2437563 676:1.0761719 677:2.7782755 678:0.31770778 679:0.059650749 682:2.8141932 687:6.8182845 690:0.71480238 692:0.71157879 701:0.87877679 705:1.650555 706:2.0305698 711:3.9276068 721:6.0151739 722:3.3466322 723:3.8604558 724:0.34395808 725:2.4962435 728:3.8361638 730:0.24520151 749:0.95067036 751:2.1192391 754:3.0402436 755:3.4990132 758:0.98716164 764:0.47906113 773:0.45572099 777:2.0075157 780:0.12896526 782:1.5066205 785:2.269244 788:2.6655405 789:3.6495285 795:0.49281627 801:0.47604805 804:2.0431085 811:2.3445435 812:2.3415422 816:0.45690736 826:2.1589077 830:0.36829865 834:2.3528621 838:0.18486318 839:2.1286705 840:0.33337694 841:3.3237677 842:1.3775594 848:0.79915905 857:0.028761655 861:0.042196751 866:1.0415878 868:3.9209983 876:1.6497325 881:1.1714642 883:0.65021753 888:1.5723156 899:0.67652053 902:2.1600974 904:1.7020459 905:0.75586176 908:0.049907118 912:5.5968971 916:1.8673513 918:2.1920304 919:3.5336015 928:3.2950037 930:4.461781 943:1.1371033 945:0.37529513 960:0.3582992 961:0.87038893 965:5.24648 966:0.7580961 967:0.64507169 968:0.78705907 974:2.7273986 976:4.4531279 985:0.52186823 993:0.52018535 994:0.74351108 1001:1.1142262 1002:1.1164051 1004:3.611943 1007:0.45528299 1014:4.0183234 1021:2.6968484 1024:0.87672895 1034:2.6099489 1047:6.379189 1049:0.13420536 1051:1.7038627 1058:3.5703204 1065:1.1400439 1078:2.8612282 1080:1.0387554 1081:1.1192493 1087:1.5744078 1092:3.9167814 1096:9.3814392 1102:1.3004042 1110:1.3180447 1114:0.46523717 1117:1.8549166 1126:3.197202 1130:1.101792 1138:0.55682331 1150:1.8898975 1154:0.78753591 1159:1.2089059 1165:1.9940909 1169:2.1543815 1170:4.6347361 1171:1.716759 1174:0.66625017 1175:2.0504479 1188:1.9170609 1189:0.48142707 1191:0.23371083 1192:1.4812151 1193:1.2150133 1194:0.90094966 1206:4.0575762 1208:0.34498623 1217:1.2518498 1219:9.7857924 1220:5.6506443 1223:2.8431792 1227:0.068898022 1235:0.91485178 1237:3.4341655 1242:6.8740425 1251:0.5552485 1252:1.8249745 1268:2.1036956 1278:4.0697474 1279:0.16350514 1281:1.1266077 1290:0.75369865 1305:1.9143355 1313:0.27485281 1314:0.9171263 1319:0.57616222 1331:0.77720839 1336:5.2807541 1341:3.7316978 1342:0.21827234 1344:1.0635248 1349:4.1453266 1357:0.47926849 1359:0.93709064 1361:0.57514369 1365:0.10683522 1366:0.46549997 1369:4.5039492 1372:1.3220844 1387:4.5650201 1389:2.183074 1392:0.47840324 1395:1.7269357 1406:1.2507801 1410:5.0142584 1411:0.57173622 1412:1.1001297 1417:0.93849605 1419:3.1711955 1421:1.2500846 1424:6.3692641 1428:2.2969902 1430:0.27442265 1433:1.6982304 1435:0.2801491 1441:1.7319231 1454:0.84065545 1456:0.099450827 1463:1.7764509 1465:5.4811153 1467:1.6806009 1470:1.0656428 1474:0.15888584 1476:3.6178236 1477:0.59103703 1483:2.2088985 1484:2.6209095 1487:1.6295463 1488:1.9184188 1489:3.9215956 1497:0.68833113 1498:0.36280966 1502:8.9364796 1503:2.3836939 1515:0.59680045 1520:1.7698171 1526:1.4655007 1544:1.5723834 1546:1.265667 1554:0.0024005026 1560:5.7801843 1568:1.4867692 1569:0.16553357 1574:0.072222352 1577:2.6944814 1580:0.46583575 1582:2.0447662 1586:3.2774835 1587:3.1474576 1588:0.37829271 1597:1.7438391 1604:1.7596667 1606:0.43767267 1613:1.8927698 1617:1.8359823 1622:1.5705175 1624:4.2680531 1635:0.6264016 1636:2.0001922 1637:0.42289862 1641:1.1166763 1647:3.3451166 1648:1.302294 1652:0.57417417 1659:1.0717772 1661:4.5519781 1663:0.37919435 1669:0.027854845 1677:2.2149489 1678:3.1642146 1690:1.1142365 1691:0.63251603 1695:2.7278783 1696:3.1612539 1701:0.57190883 1712:4.3583179 1720:4.1255536 1726:3.8202221 1728:0.21856177 1730:1.5633528 1732:0.65593123 1736:2.3129177 1738:0.20675015 1740:0.073379874 1750:1.9644332 1751:0.32666165 1758:2.2030218 1762:2.0919404 1766:0.8128466 1767:2.1945903 1772:0.051391363 1778:0.45394892 1783:1.5424466 1790:0.43935838 1795:0.72664106 1806:8.0123177 1807:0.019634843 1811:1.0887439 1812:0.75913262 1813:6.5859976 1830:0.20453086 1832:4.313015 1837:1.4975904 1845:3.0441191 1846:6.7200427 1849:3.0264251 1852:0.18789905 1854:2.3551266 1856:2.1836905 1857:0.16361788 1860:0.91789401 1863:0.75518507 1874:3.1085744 1877:0.23937455 1880:1.4534411 1881:0.068043858 1898:0.38316742 1900:2.6278517 1901:4.5119538 1905:2.4811239 1911:1.9594191 1912:1.1241915 1925:2.2280636 1928:1.3738992 1932:0.13144037 1938:5.1053934 1943:2.0328531 1955:0.12265023 1960:0.32266843 1962:0.075480178 1966:2.1055074 1972:7.8341904 1974:0.13273889 1977:2.7923968 1980:0.042736847 1984:2.1497669 1998:0.78489172 2005:0.0077507198 2009:3.5655997 2022:1.3840127 2026:1.8221728 2038:1.5685247 2042:0.43523937 2048:2.691788 2058:3.7566366 2071:0.42333809 2081:0.062157169 2082:0.057239801 2083:1.0848973 2085:2.9312677 2091:1.2131319 2094:3.7061791 2097:0.17973724 2101:2.3253937 2102:2.0834067 2103:0.064348429 2117:0.23866338 2130:1.4672253 2138:0.38235983 2140:1.690995 2144:1.2694125 2153:2.1452622 2157:0.070646882 2159:1.6428753 2166:1.4692667 2177:3.2628443 2186:1.9788219 2187:0.49396044 2188:0.4387818 2190:2.0387449 2194:0.19588125 2196:1.1119304 2199:5.8155231 2200:3.789113 2206:0.052258939 2212:0.5469147 2218:0.37106961 2226:3.8920157 2232:0.3267101 2233:2.8881235 2239:2.3321822 2241:2.2224855 2245:2.4357898 2253:0.24281788 2259:1.18424 2261:1.3126098 2262:2.0143318 2267:0.28591481 2271:4.7710824 2286:0.1152072 2292:0.45361993 2294:0.74333882 2298:1.803807 2307:0.8988961 2311:3.4041262 2314:3.4743066 2317:1.0726889 2318:1.2841065 2324:3.0338268 2327:2.0596581 2329:4.5871482 2343:1.578524 2356:0.22594364 2360:2.1263874 2372:2.0020192 2376:2.7774718 2381:0.16330677 2390:1.2888752 2393:1.5009016 2399:0.55318797 2400:0.90367562 2410:2.7782178 2417:1.4918032 2420:1.1951383 2423:5.1470199 2424:3.6721668 2428:3.251895 2432:2.0375171 2435:2.426321 2436:2.5389991 2438:0.44419301 2440:0.073949456 2449:1.2322992 2453:1.2897458 2457:3.5652571 2474:0.11312675 2477:0.20451954 2486:1.0396166 2493:2.6441803 2505:0.82391649 2506:0.68384385 2507:2.2165127 2508:0.3212122 2509:0.53430563 2520:2.1237311 2523:1.6046624 2526:3.4866381 2528:0.91408694 2530:4.2986155 2535:1.4252357 2537:0.81683838 2551:5.6123362 2558:0.96454251 2561:9.2715416 2568:2.4156845 2570:3.5156894 2574:0.14107692 2575:2.5268583 2589:1.5427163 2595:0.092283249 2601:4.1019874 2604:0.87150359 2610:1.4390731 2611:2.2023633 2621:5.5425663 2625:0.82132423 2636:1.0053183 2637:1.9077789 2642:2.5340595 2654:0.70825052 2655:1.5708972 2659:1.065657 2667:2.4926705 2672:0.074203521 2674:0.48995084 2688:2.8994086 2690:2.7907221 2693:0.53374875 2695:1.1070944 2710:1.2204038 2715:3.3810833 2718:0.45827425 2721:2.7791696 2723:3.5511508 2732:0.64445436 2736:1.8001707 2745:6.4072614 2752:1.0222689 2763:0.079994887 2765:6.5338774 2766:4.8395634 2775:1.815747 2777:2.8664508 2786:0.15788656 2787:3.2685173 2792:1.0454806 2793:1.7499579 2800:1.6590694 2802:0.17689258 2808:4.713109 2814:7.3091755 2821:3.5841372 2824:0.713238 2825:0.12820366 2826:2.151494 2834:2.3250661 2835:0.49592561 2840:0.13144636 2841:1.4152216 2842:2.4812157 2856:0.19887415 2857:0.24900626 2860:0.25977561 2866:0.14703023 2867:0.2358046 2870:1.8564723 2873:1.7829161 2874:1.5784764 2879:3.421689 2882:2.8104715 2885:0.025609493 2887:1.85116 2888:2.9351919 2896:2.5492108 2903:0.11320785 2907:0.12073509 2910:3.6688805 2919:1.3851132 2928:0.9513638 2932:4.2117682 2945:4.7363234 2949:0.640432 2950:1.4030437 2953:1.9922259 2958:1.0451649 2966:5.2890239 2967:1.7305309 2971:1.801466 2976:0.57373053 2978:2.2227225 2982:2.3682966 2991:0.74975228 2993:3.5248573 2995:1.078173 3000:1.6014432 3021:4.0770564 3022:0.75352621 3023:3.145546 3034:0.46344894 3035:4.4381843 3036:6.0049977 3056:0.0348785 3062:1.9453802 3065:1.0223572 3066:1.0856203 3072:2.4157503 3073:2.6872711 3075:3.836308 3079:3.2094438 3080:0.4941549 3099:1.2735504 3105:1.0767558 3110:1.6883172 3111:0.91837788 3114:1.0726877 3116:1.0273759 3117:1.3773518 3120:0.32811421 3124:2.3163188 3129:0.88465238 3130:0.4466387 3144:3.4531722 3146:2.4627991 3150:2.2250371 3151:0.18570989 3152:4.414969 3154:0.70520514 3162:0.31953099 3163:1.5058417 3172:1.4135231 3179:1.8236828 3182:0.10934408 3183:6.0234375 3184:2.6672668 3195:0.51662993 3196:0.24080428 3198:1.7282636 3199:4.8820777 3215:1.4381242 3216:0.8018592 3221:1.6969314 3224:0.12951997 3235:2.2724657 3242:1.0863193 3246:3.030369 3260:1.6987699 3268:1.0731752 3276:0.38180667 3282:2.1091571 3286:0.72758102 3287:0.098274469 3291:0.47521591 3294:0.16460307 3305:0.1616846 3318:1.1076717 3321:1.8179176 3324:1.7724249 3334:1.1436378 3337:0.43989503 3348:2.0915177 3349:4.1699653 3355:0.98178762 3359:0.28623056 3366:2.6456451 3373:1.7143307 3377:4.7399483 3378:0.49582493 3395:2.125562 3396:1.9604706 3407:1.5391201 3413:2.4710035 3418:0.2755484 3422:0.52683061 3426:0.16288671 3431:0.54250097 3438:0.79455364 3442:5.0600114 3443:0.27899519 3445:0.56538224 3446:3.2193794 3447:0.6497345 3450:0.90573418 3468:1.7641881 3474:2.8599596 3489:0.44179535 3491:4.2602439 3496:7.6270785 3507:0.28356394 3508:1.0845709 3509:2.716728 3513:2.8959615 3522:1.4733374 3537:1.9685181 3539:1.3584069 3540:2.8133924 3544:5.0771976 3548:0.049228132 3549:4.5224648 3551:2.0030086 3555:0.16724691 3556:0.91244572 3564:2.0497148 3569:0.3905265 3572:2.1630857 3576:3.6143892 3577:1.6033443 3578:2.6792564 3580:1.6505442 3582:4.8336687 3584:0.44136664 3585:7.8189201 3586:1.1015265 3593:0.096618161 3598:1.014307 3599:1.1667383 3602:1.8531717 3604:3.4885406 3606:1.7667353 3608:1.106353 3614:4.0246267 3620:0.85501885 3621:4.1269011 3624:1.2934031 3627:2.3120799 3631:1.0222085 3635:0.40255445 3637:0.32418492 3638:3.0867712 3644:5.8350811 3650:1.2354138 3652:0.8961333 3653:0.83823812 3665:0.49340311 3667:1.2161338 3670:0.34701824 3675:0.34377134 3679:0.74036658 3681:1.4522552 3683:4.1756496 3687:0.49161178 3688:1.1202177 3690:1.8892872 3692:1.9560935 3695:0.039680004 3697:1.7286133 3699:0.43921834 3712:0.91795909 3715:1.1584661 3719:2.5389853 3720:0.37105411 3724:1.0250463 3729:0.47465128 3732:4.1657543 3734:3.5149271 3746:0.1727422 3747:3.5034938 3748:0.49487826 3751:2.6036763 3752:2.8240261 3765:0.25583395 3766:6.7900367 3768:0.17972109 3769:1.0444329 3771:1.5207697 3776:3.0738304 3777:2.9236102 3778:2.4641471 3783:0.0023535192 3785:4.3715281 3795:3.3258977 3802:0.61616796 3808:1.8978798 3811:0.53965235 3813:0.73769164 3815:2.450279 3818:1.1263249 3822:2.9669433 3824:2.6502054 3826:1.0609818 3835:1.2716677 3844:0.01678367 3867:3.41119 3871:1.3108431 3872:3.4598334 3877:3.2301462 3880:0.55217957 3882:1.9555088 3885:1.6882845 3888:2.981858 3889:0.79881936 3891:4.305963 3892:5.0510912 3893:2.2901978 3901:1.4524722 3903:4.8735776 3907:6.3316927 3910:2.061522 3915:2.5988023 3919:0.12031722 3923:0.89452976 3929:3.9126711 3933:0.66937852 3935:0.24410319 3941:0.38222373 3957:4.6535478 3972:1.1053189 3974:0.68717557 3982:0.79756498 3984:1.547506 3988:4.8415213 3990:4.3202701 3992:2.0794568 3996:0.60286248 4002:3.4061968 4004:2.6836534 4006:0.08284241 4011:2.3674192 4018:0.57427371 4020:1.7680686 4021:5.250237 4031:0.73199725 4033:2.2279654 4036:6.06183 4038:2.4846439 4041:0.36984184 4057:0.027658686 4058:2.841373 4059:1.3447355 4067:1.3447556 4070:0.43761572 4071:0.33288762 4074:1.8773297 4076:1.7910894 4079:1.3952553 4080:1.9449683 4082:1.0918568 4084:2.6898501 4085:1.5274594 4091:1.3780791 
1 4:0.40377012 9:4.4074655 15:0.46778309 19:4.5316029 27:1.4966503 39:1.8485172 40:6.3738027 43:1.2027001 45:0.089983881 49:2.8308008 54:3.3380513 62:1.2011104 64:1.2123755 66:2.8156226 68:0.80079406 77:0.95627934 82:1.99931 84:0.12824419 88:0.70241165 91:0.18915133 94:0.41398183 103:1.2182904 107:1.8856426 114:0.66706038 125:1.4609988 131:1.3858464 135:0.060904056 147:2.8682349 159:3.0974724 163:0.28121668 167:3.6580412 172:3.7118299 173:0.23095146 178:0.54009807 181:5.8936577 191:0.63856971 196:1.3907428 197:0.80050725 200:3.7321565 202:0.1201672 210:8.4279299 216:1.5652153 217:5.5686059 218:0.3191992 221:0.40378946 234:0.49489227 236:0.69945681 241:3.883703 242:1.0549076 247:3.8271303 271:3.3012972 275:0.58292067 277:1.2830529 282:0.78205562 288:2.1352727 300:4.2428026 304:0.35651326 307:0.070533991 310:1.3870294 312:3.4753008 318:0.41212708 320:1.0062326 323:2.012171 324:2.2392859 335:3.9275229 336:0.93066573 349:2.5641482 353:2.6140339 354:0.48939633 357:1.0107551 359:1.9032216 363:5.0328336 378:3.6570094 379:3.4532411 382:2.4930553 384:3.252836 390:2.4511931 391:3.79089 399:3.2097459 408:0.36807492 410:0.1144672 412:4.1625838 416:2.2946765 425:1.8023446 431:2.2651007 432:0.29526591 434:0.25799012 442:1.3893296 456:1.935246 468:2.5269952 469:0.2654776 473:1.6797051 484:2.8372843 496:0.57075071 498:1.0071517 499:1.5314597 504:0.83617818 505:0.38842839 514:4.5675373 515:1.6326503 517:0.40151155 518:1.3591568 527:0.8220551 529:0.3258633 538:4.5042295 545:2.7296255 553:1.6947374 559:0.8633697 562:0.55789512 567:2.0382078 576:2.1506195 578:3.4570334 583:1.7014152 586:0.34064767 592:1.981522 594:3.3487146 601:0.89792359 609:0.30922005 612:5.6545606 615:0.17739239 616:0.17816395 618:0.52954274 619:0.15654075 620:1.0411458 625:0.43538412 635:3.4203305 638:0.25189555 639:3.0702643 642:1.9801949 651:0.88599956 657:6.1790948 660:1.007828 661:2.8572233 662:1.6919142 664:0.98223639 665:1.2742331 669:0.067915037 672:1.8553157 675:4.735467 677:2.3758788 679:1.3251511 682:3.7768235 687:7.2826548 692:1.683708 701:0.4974381 705:3.3487451 706:1.127548 711:2.2870727 721:3.8636603 722:1.9233831 723:2.5423009 724:0.319662 725:1.5618918 728:4.7673678 749:1.0150838 750:0.42142507 751:1.0498476 754:2.6998625 755:2.6577415 769:0.92154479 773:1.0015073 777:1.3808019 780:0.58477306 782:3.2849674 785:1.924665 788:4.5887532 789:2.7334373 794:0.30736211 795:0.9959296 804:3.1657522 811:2.0290201 812:2.5078213 814:0.29795313 816:0.10086128 820:0.27077806 826:2.0816813 830:0.03368916 834:2.3268306 838:0.39872032 839:1.0847642 840:0.7853266 841:1.5121534 842:1.287834 848:1.6907501 857:1.1036774 861:0.42299581 866:1.1107004 868:2.4675796 876:1.1467025 879:0.1491797 888:0.87914681 899:0.64591622 902:1.5319095 904:0.48139369 912:3.0726805 916:1.0694702 918:1.8113258 919:3.5889776 928:3.1609323 930:3.0240273 931:0.1004183 943:2.1483808 947:0.17437565 958:0.13085154 961:0.61473697 965:2.8571298 966:0.73320949 967:0.0081926584 971:0.64711249 974:1.4803579 976:4.5386791 983:0.047802642 987:0.027902186 989:0.25806811 1001:0.94619095 1002:1.4438531 1004:3.0895288 1014:3.6200097 1021:2.1418643 1024:0.49502486 1034:1.9058225 1047:5.1575994 1049:0.43343294 1051:1.7959521 1058:4.1359344 1065:1.7101439 1071:0.50899917 1074:0.10722411 1078:2.1950593 1081:1.7631176 1087:0.84029388 1092:3.6990695 1096:8.530879 1102:1.5193967 1110:2.2908385 1113:0.61754066 1114:0.67560816 1117:1.7324623 1126:3.0273271 1128:0.27260035 1130:1.7251884 1135:0.031769693 1138:1.3451101 1150:2.2121725 1154:0.27375433 1159:1.4717567 1165:1.8830194 1169:1.7121985 1170:5.5285974 1171:1.681918 1175:2.9947038 1185:0.31084907 1188:3.3234708 1191:0.66049039 1192:1.650658 1193:1.2896063 1194:0.43035626 1199:0.4294433 1206:3.3160033 1208:0.97687131 1217:0.78305149 1219:9.1527815 1220:5.4101582 1223:1.9427044 1234:0.15560387 1235:0.8086189 1237:2.5818563 1242:6.3993607 1251:1.8567874 1252:1.1021721 1268:1.5672159 1269:0.5401271 1278:1.9422969 1279:0.15606248 1281:1.5078032 1305:2.6664817 1310:0.12916335 1314:1.0872386 1331:0.67626363 1336:5.7049694 1341:2.072583 1342:0.33595657 1344:1.5227396 1349:3.0368617 1357:0.081253558 1359:1.4831218 1361:1.2503514 1365:0.94299072 1366:0.12664673 1369:2.3379786 1386:0.35550022 1387:5.526257 1389:1.0702426 1392:1.3832537 1395:2.7844164 1406:0.25846034 1410:4.3852735 1411:3.5323534 1412:1.1467452 1417:1.5317773 1419:2.2556958 1421:1.3201065 1424:7.5001707 1428:2.9331458 1430:1.1832304 1433:1.6869357 1454:0.58876085 1456:0.6475395 1463:1.4691694 1465:5.6868091 1467:2.2637181 1470:1.6144534 1476:2.9583416 1483:1.9291403 1484:3.1541755 1487:1.1308659 1488:0.24538237 1489:3.4483573 1495:0.66030729 1497:0.69700944 1502:8.6088419 1503:1.4248153 1513:0.84586996 1515:0.73861581 1520:2.9535332 1526:2.0745525 1538:0.71427023 1540:0.37970823 1541:0.66728902 1544:1.2659042 1545:0.54938978 1546:0.44866526 1560:5.3043275 1568:2.0284643 1569:0.11753979 1573:0.030584246 1577:3.2598667 1580:0.24443814 1582:1.3900378 1586:1.7130271 1587:3.2095301 1588:0.16752431 1591:0.64920819 1597:1.4321035 1604:2.4034858 1606:0.10531616 1610:0.03887707 1613:0.68678355 1617:1.3001771 1622:1.6775249 1624:4.6742725 1635:0.21124628 1636:3.1217127 1637:1.0239313 1641:1.2033907 1647:2.5113006 1648:1.9755363 1652:0.36713868 1657:0.12543899 1661:5.2472382 1663:0.58883435 1677:0.71354538 1678:2.8892424 1679:0.39464813 1691:0.51906025 1695:2.9080288 1696:3.5657647 1701:0.65468204 1712:4.4778724 1720:4.031333 1723:0.288766 1726:4.5102572 1728:0.58509463 1730:3.4583061 1732:0.90235281 1736:1.6040642 1738:1.0119251 1740:1.1547728 1742:2.0895984 1750:3.0474381 1751:0.9924112 1753:0.39253286 1755:0.030367926 1758:2.5644808 1762:2.327985 1766:1.011374 1767:3.1329539 1772:0.48042586 1775:0.023508668 1778:2.0281484 1783:2.180222 1790:2.1683037 1795:0.45876476 1806:6.8105521 1811:0.63110864 1813:6.3067689 1832:3.498028 1833:1.3547643 1837:2.1226211 1845:1.8968554 1846:8.9206972 1849:2.3511398 1852:1.1833562 1854:2.8193693 1856:2.8702836 1857:1.3155961 1860:0.72354305 1863:0.85556501 1874:3.4766719 1877:0.090259939 1880:1.2392225 1890:0.95871282 1895:0.42855054 1900:2.9064102 1901:5.4034085 1904:0.6527198 1905:0.19696528 1911:0.74277472 1912:0.088344038 1925:3.4728627 1928:2.3117585 1932:1.229979 1938:5.0579791 1942:0.29897124 1943:1.6343513 1951:0.37399578 1955:0.96868372 1960:0.6692332 1962:0.24525489 1966:1.4443611 1972:5.7445259 1974:1.3873962 1977:2.9717255 1984:2.6011226 1990:0.3979975 1995:0.53632271 1998:0.67303741 2004:0.47768658 2005:1.0803312 2009:2.185636 2022:0.8255012 2026:2.8298817 2038:1.3640796 2042:0.53645122 2048:3.3427038 2053:0.46486345 2057:0.076969206 2058:3.4513271 2071:1.4953907 2083:2.0213909 2085:1.54893 2094:2.8244219 2101:1.3408955 2102:1.1720878 2117:0.65870774 2130:1.3351514 2140:1.2523665 2144:1.3743379 2153:2.6893439 2159:0.84590185 2174:0.33158547 2177:2.9976976 2186:0.99347675 2187:1.0984703 2190:3.5513766 2194:0.11654317 2196:0.58824134 2198:0.14335808 2199:5.0406551 2200:4.052249 2206:0.91736388 2218:1.155756 2226:4.5437169 2233:1.8831789 2239:2.1360226 2241:2.6633649 2245:1.5552266 2261:0.62552965 2262:2.7457945 2271:4.4155731 2292:0.96772957 2294:0.80433929 2298:0.94929051 2307:0.96505666 2311:3.017132 2314:4.0558228 2317:0.74023288 2318:0.77002066 2324:4.3410144 2327:1.709846 2329:3.8436942 2340:0.040164739 2343:2.06073 2360:1.5521888 2362:0.0042993724 2372:1.8607917 2376:2.5195935 2381:1.5943739 2390:1.0734162 2393:1.9355783 2399:1.2333764 2400:0.43355301 2410:1.8690569 2417:2.3975744 2420:2.4575515 2423:3.6874456 2424:1.5869331 2428:2.1354132 2432:2.3125501 2434:1.8039222 2435:2.6856663 2436:1.5562905 2449:0.52084351 2452:0.23954457 2453:2.1685457 2457:1.5669367 2459:1.2986538 2477:1.9138998 2486:1.854178 2488:0.42406267 2493:1.1858971 2505:1.9370883 2506:1.7695451 2507:2.4408643 2520:1.7838894 2523:1.5979474 2526:3.6720858 2528:1.3436084 2529:0.16695686 2530:3.2395988 2535:1.0050232 2537:1.3716127 2551:3.1064553 2558:0.3486442 2560:0.97876161 2561:8.0789442 2568:0.49621281 2570:2.1017709 2574:0.57783413 2575:2.1519551 2589:0.94786274 2595:0.081748128 2598:1.1298342 2601:4.4237046 2604:1.3433185 2610:1.8610971 2611:2.7667394 2613:0.055991143 2621:5.1554217 2625:1.6597972 2629:0.86783111 2636:1.3025975 2637:1.4514278 2642:1.3540683 2655:1.2307454 2659:0.43788096 2664:0.12960143 2667:1.8492161 2670:1.2710291 2672:0.60583735 2674:1.8548459 2687:0.11047053 2688:2.9472706 2690:2.9959271 2693:1.4605665 2695:0.18508354 2710:0.6116724 2715:3.27894 2717:0.061488613 2721:2.5331643 2723:4.7205386 2727:1.0448548 2729:1.1604731 2736:2.9554846 2745:3.9015579 2752:0.46590537 2760:1.0293671 2761:0.75985336 2763:0.65423518 2765:5.7960391 2766:4.5396013 2775:0.62367368 2777:1.2305419 2786:0.67888439 2787:3.5833154 2792:2.3430517 2793:0.7810567 2800:1.6011769 2802:0.385454 2808:3.0262434 2814:6.2922015 2821:2.6892047 2824:0.91571891 2826:1.5957644 2834:0.86270773 2835:2.6449823 2841:2.2241204 2842:4.0881529 2856:0.42749742 2860:1.0214871 2866:0.045883119 2867:1.2341932 2870:0.14305975 2873:1.9288657 2874:0.81855941 2879:3.0818353 2882:0.8278237 2885:1.4752378 2887:0.91647947 2888:1.8693596 2896:0.49794015 2907:0.26201162 2910:2.977303 2917:0.48068291 2919:2.024379 2928:2.2300978 2932:5.0697036 2945:4.0428801 2949:0.36821187 2950:2.4380765 2953:0.81464565 2966:3.0667875 2967:1.5512378 2971:2.6973314 2976:0.91181189 2978:1.9919021 2982:1.8694081 2991:0.31654239 2993:4.099915 2995:0.8528831 3000:0.5071128 3018:0.3525326 3020:0.53553635 3021:4.7552824 3023:2.8715491 3035:2.9846218 3036:5.5615458 3037:0.32809293 3050:0.059543371 3052:0.013379276 3062:1.9389545 3065:0.36021167 3066:2.0769293 3072:1.6055611 3073:2.6516414 3075:2.8638377 3079:2.6628771 3080:0.57490838 3092:0.04412733 3099:1.8304565 3105:0.8616544 3110:0.43573502 3111:2.3047285 3114:1.1463736 3116:0.18153252 3117:2.9228332 3120:0.037889421 3124:1.8869908 3129:0.80132598 3130:1.009233 3144:3.8004541 3146:2.2132549 3150:1.1450839 3152:4.0746489 3154:0.67229956 3162:0.33563191 3163:1.6282547 3172:2.2794292 3179:0.39202529 3181:0.53565419 3182:1.941879 3183:3.7880042 3184:1.9452058 3195:1.4180514 3196:1.3231251 3198:0.73831761 3199:5.7194905 3215:2.1116936 3216:0.122743 3221:0.73325878 3235:2.3205812 3242:0.4037661 3253:0.61619329 3256:0.014004171 3260:1.1829214 3275:0.66193438 3276:0.75287229 3282:1.4833539 3286:0.5986535 3287:0.71095645 3290:0.13879567 3294:1.5840962 3305:0.81282818 3309:0.077128924 3318:0.040834919 3321:1.4033116 3323:0.28484818 3324:0.93030024 3334:1.210243 3348:1.5803635 3349:2.0213583 3354:0.11062044 3355:0.22503054 3364:0.47421384 3366:1.592803 3373:0.51094788 3377:3.194118 3378:1.9148858 3379:1.05615 3395:1.9132898 3396:1.5801511 3407:1.3212309 3413:2.9577272 3417:0.066404283 3418:0.36324078 3426:0.56795609 3436:0.58918995 3438:0.56336921 3442:4.4116478 3443:0.23916799 3446:3.2615023 3447:2.0525653 3450:0.99868006 3452:0.52670681 3465:0.10935 3474:3.5971153 3490:0.49026814 3491:4.6337786 3494:1.6135963 3496:7.6888614 3504:0.20823538 3508:0.23773462 3509:2.549859 3513:3.4146285 3521:0.070239842 3530:0.91718996 3536:0.64063048 3537:3.2482433 3540:2.6440239 3543:0.32513541 3544:4.4212389 3549:4.8678441 3551:1.4158884 3556:1.8755021 3562:0.7321586 3564:1.0050631 3569:1.1791785 3576:3.1871073 3577:1.7047256 3578:2.3327503 3580:0.191571 3582:2.9522233 3584:0.53173256 3585:6.6624856 3586:2.2550201 3589:0.020107716 3598:0.59772563 3599:0.29935956 3602:1.9498721 3604:2.7015703 3608:0.75146806 3614:3.1215358 3620:0.88112551 3621:4.8647609 3623:0.064029694 3624:1.6113737 3627:2.087712 3631:0.021390855 3632:0.18765476 3637:0.67482775 3638:4.5987864 3644:4.6707931 3650:1.0061799 3653:1.3025653 3660:0.0034193397 3665:1.4360124 3667:1.2636077 3681:1.5336961 3683:4.0245724 3687:3.4560258 3688:0.33692601 3690:1.682574 3692:0.92277896 3695:0.62736714 3697:2.7913556 3699:1.2539717 3712:0.49064413 3715:1.2190418 3719:1.3381341 3729:1.3431438 3732:2.7061257 3734:3.5375032 3746:0.0057816058 3747:2.5069613 3748:2.0573158 3751:0.90432096 3752:2.2017832 3756:0.70890528 3758:0.40316522 3765:0.19248632 3766:5.4068618 3768:0.72828484 3769:0.62132531 3771:0.58278286 3776:2.1565375 3777:3.3624339 3778:1.0043501 3785:4.3219228 3786:0.89993906 3795:3.1718712 3802:1.8061112 3808:2.5509994 3811:1.563969 3815:2.0049951 3818:0.9776957 3822:2.3101697 3824:0.61639023 3826:1.3470689 3867:3.0391915 3871:2.9970598 3872:2.9031143 3877:4.8389425 3880:1.7817123 3882:1.75832 3888:2.1305163 3889:1.9943531 3891:2.7007 3892:6.2480278 3893:3.0482428 3901:1.0975415 3903:4.5662742 3907:6.6818485 3910:1.2874078 3915:1.704013 3919:0.46662223 3923:0.41528022 3925:1.1003056 3929:3.8319902 3933:0.80101216 3941:1.3675574 3942:0.38221073 3957:5.2185264 3972:0.031457216 3974:1.2652609 3982:0.66412538 3984:1.0498108 3988:4.4452076 3990:4.9593854 3992:1.4355012 3996:0.74482292 4002:3.6987028 4004:0.94624996 4005:0.7170285 4011:2.4582608 4016:0.48568279 4020:1.7933563 4021:4.3202105 4031:0.51300126 4033:1.3852923 4036:4.0858083 4038:2.316237 4057:0.068972856 4058:2.7513683 4059:1.6601683 4067:0.22326396 4070:1.5527303 4071:0.21737143 4072:1.6470237 4073:1.0173661 4074:1.5592775 4076:2.3837225 4079:0.85905921 4080:1.2739877 4082:1.6495357 4084:1.6539824 4085:1.3770664 4091:1.5397278 
