svm_type c_svc
kernel_type rbf
gamma 0.000244141
nr_class 2
total_sv 152
rho 1.27784
label 1 0
probA -4.32024
probB -0.423468
nr_sv 69 83
SV
1 9:0.4203667 15:3.0728946 19:2.5498385 27:0.47693035 39:0.90971166 40:3.7155082 45:3.0589659 54:3.6454515 69:1.8955312 77:4.1643038 83:0.054651901 84:1.0055225 88:2.1651011 107:0.89291406 112:1.1552433 125:5.7217617 126:0.87983823 145:0.032392763 147:2.1809449 159:4.8569283 164:2.1985588 167:1.8545403 171:1.3518888 173:0.83902657 178:1.6831322 181:2.8955636 190:0.39943495 196:1.9658928 199:0.46528748 200:6.1607308 210:9.072361 211:0.79266119 217:4.3693304 218:0.92608684 221:5.9326043 232:0.74597204 241:1.8560952 244:0.26182199 247:4.173584 252:2.0698705 267:4.8712697 274:0.48332974 292:0.067677557 295:0.16735414 299:1.3965538 300:1.8865203 312:5.3278475 315:3.9134719 317:1.6059005 319:0.39198315 323:1.640576 324:5.1439686 335:2.8926167 342:0.0071092322 347:1.2547516 353:4.6162658 356:0.39976323 365:4.0112319 367:4.249588 378:0.97799617 379:6.2460589 384:3.2860787 385:0.41804433 386:3.3615489 391:2.6467042 404:0.20199764 416:1.12819 442:0.59046263 454:0.20727211 460:4.2692122 463:3.1752682 472:4.4209704 488:0.092303395 495:1.1594086 498:0.26251203 517:2.7283812 520:0.84245235 524:0.41496617 526:0.15545672 527:2.267555 528:0.54265171 529:0.31710586 535:0.54100287 545:2.2622387 546:0.01730302 549:1.7474376 553:0.43989176 562:0.77464056 567:0.054734871 570:0.47158101 576:2.4808478 577:1.431811 578:2.7289379 586:0.67932469 592:1.0040888 595:0.8316195 609:0.63604844 612:3.9857159 635:0.43797064 640:0.24045387 642:3.3978331 651:3.9400196 656:1.9914621 664:1.8674394 672:6.5085812 675:1.3468964 682:2.2689698 691:1.8561271 692:0.33585644 702:4.0948071 705:2.1587763 706:0.58987218 711:1.3781297 721:5.0189643 722:7.9146175 723:3.7849472 724:1.755746 725:0.064464211 728:0.12078762 735:1.5965977 749:1.299996 751:1.2374287 755:1.6663042 758:0.39589405 764:0.30592364 766:3.9592273 777:5.1844683 782:3.2338786 785:1.2934022 792:0.3233285 794:3.2349861 798:2.3104215 799:1.2453709 812:7.1515412 830:1.2274034 838:0.15460116 839:0.09239465 841:4.6333594 842:0.47501186 848:2.290031 857:0.13252392 866:3.078018 868:4.3821197 876:3.5473709 878:1.5519794 894:1.2359703 902:2.0488176 908:1.5743145 912:5.2063503 918:2.7466478 919:0.97717333 928:1.0272734 930:1.0712979 942:0.61317146 945:0.30269822 951:0.58866906 965:6.3708057 966:1.6861075 968:0.42388877 974:3.9033906 985:0.15328977 1001:3.5445905 1006:0.52749527 1015:0.1006335 1018:6.5341096 1019:0.97491455 1023:2.9733071 1024:6.6354094 1029:0.51792836 1047:0.80720907 1058:0.67191344 1059:0.29191479 1064:3.1163483 1070:1.2615039 1071:0.27414125 1077:1.1406395 1078:2.2662258 1080:0.97699982 1092:3.2790742 1095:1.8130894 1096:5.5380902 1111:1.0148255 1125:3.6704156 1126:1.1091019 1139:2.6968942 1154:0.28710005 1155:0.84285682 1165:2.7429769 1168:0.56562114 1170:3.2223186 1175:3.4741659 1176:0.070875362 1180:3.83601 1181:3.431937 1184:1.1299024 1189:0.79388613 1192:0.85876542 1193:0.88405621 1195:1.7298409 1199:0.061360434 1206:7.6650972 1216:0.41115019 1219:1.4755414 1227:0.23813266 1228:1.0725853 1236:0.8790729 1237:0.14706689 1242:4.2550473 1250:3.2935226 1264:0.37719756 1269:0.7142458 1278:1.90142 1279:0.804106 1281:3.2371993 1286:6.9445715 1288:0.050395876 1290:0.047662139 1292:3.1244454 1305:1.1676476 1309:3.0880308 1310:1.6115198 1313:1.5943782 1317:3.3246391 1331:1.2987521 1336:1.357234 1340:1.0133165 1341:0.72667414 1344:1.834748 1347:0.34583038 1352:0.69204193 1357:0.94541836 1366:1.1529472 1369:5.0825796 1377:0.9328503 1381:1.1414015 1385:0.1649462 1389:2.6686502 1391:0.37027961 1393:1.8205304 1395:1.7562907 1406:1.8772392 1408:4.9931774 1410:5.606781 1419:1.5460937 1421:0.10249397 1426:1.1373292 1432:0.46468103 1433:1.7013777 1441:0.3230423 1444:4.9447956 1446:0.92209083 1456:1.1187471 1465:1.4822497 1467:1.7934784 1470:1.0064201 1476:8.9657087 1484:9.0731869 1485:0.34889716 1487:4.0341253 1488:2.4492955 1489:0.47156706 1495:0.092750132 1502:0.69859952 1513:2.2033513 1515:5.2629743 1519:0.17065379 1520:0.89108324 1522:2.7409949 1523:0.1440798 1526:0.78975749 1528:0.59746635 1556:3.410943 1560:0.24126069 1562:2.306576 1566:2.2906578 1567:0.68867129 1574:0.35119942 1577:5.223052 1582:0.49356514 1583:1.2557185 1586:6.051023 1587:3.2023728 1588:2.0889997 1590:1.2761796 1600:5.6483073 1604:2.4367228 1605:0.83862972 1613:2.0271823 1618:0.34549224 1622:0.32470772 1624:1.1409204 1636:1.6646191 1637:3.5612788 1647:2.9928632 1648:2.3192372 1654:1.8466311 1659:3.4332752 1661:9.5469093 1663:3.2495511 1664:0.17702313 1675:0.23147084 1676:0.4800429 1677:3.5029154 1678:4.6329722 1680:0.96491992 1690:1.2682964 1691:0.7573514 1694:2.8191812 1695:2.1467366 1700:1.1037784 1705:3.0326874 1707:2.1800926 1712:0.49072117 1720:1.6160491 1726:2.6175864 1727:0.098071769 1730:1.0571921 1732:1.81826 1733:1.0053431 1736:2.2388935 1737:2.5590286 1742:0.82470798 1746:4.3618512 1756:2.1632438 1758:3.9448502 1761:1.312515 1762:7.3208108 1767:0.11150922 1774:2.8493519 1790:4.8800678 1795:1.8404208 1804:1.5135744 1806:3.3588901 1807:1.0889256 1811:0.010609359 1812:4.2095022 1813:1.6855791 1822:0.61933827 1824:0.075258583 1832:4.3475342 1833:0.2260865 1842:6.7492151 1844:1.6475492 1846:4.7448459 1849:5.3763127 1850:0.9488396 1852:1.5222456 1856:3.7978141 1860:0.1963723 1880:0.15119913 1881:1.614368 1882:0.41515076 1890:3.185638 1897:0.97714049 1900:1.9846498 1901:2.5437694 1905:1.136628 1908:0.34717149 1911:3.2397163 1918:0.031179011 1926:0.65128219 1928:1.2344658 1935:3.0476284 1938:5.1934452 1951:0.36424232 1968:1.4124222 1972:7.7362032 2004:1.1127374 2005:2.1801894 2006:0.84276485 2009:4.7015233 2011:0.51917833 2028:0.23537633 2030:0.37529218 2038:0.65681577 2042:2.170188 2048:1.253746 2053:0.90691328 2058:0.068982139 2066:4.6946673 2070:1.6894574 2082:0.19131395 2085:1.4326805 2097:0.86255968 2100:0.41221464 2101:0.57564068 2102:0.26428702 2105:0.61281437 2116:0.25387645 2117:4.7858796 2140:2.4782231 2144:0.75598413 2153:0.24294758 2159:0.47399387 2172:1.0394499 2177:0.54496735 2187:4.9150386 2188:3.5243406 2189:1.4307729 2199:2.4159329 2202:1.2238719 2206:0.11959097 2223:5.194345 2226:0.671978 2239:1.7261175 2240:0.60824704 2241:0.41551965 2244:0.53622961 2245:0.80793738 2250:3.0429704 2251:0.63611645 2267:4.8367915 2271:1.3267713 2275:0.62376952 2286:2.5551307 2294:0.69463623 2307:1.4630811 2314:1.656322 2317:0.48060995 2318:1.7900684 2320:2.0469184 2333:4.3399959 2336:0.53860521 2337:1.4489059 2341:0.010851294 2343:1.4113361 2360:1.9240116 2390:0.25880113 2393:5.4988604 2399:1.3800594 2400:0.12659054 2423:1.3177272 2424:1.4638503 2434:0.14208648 2435:4.9193602 2438:1.2857617 2441:1.6760055 2446:2.4913685 2452:0.571899 2453:0.30165136 2457:3.0508299 2458:0.048408031 2463:0.77937406 2470:2.5603802 2477:2.0253098 2488:1.1480905 2496:0.52081126 2507:0.90296805 2509:2.3878124 2514:0.048399776 2520:2.9517772 2521:3.449868 2526:3.2951531 2530:1.9826027 2533:0.30454749 2551:1.9339012 2561:5.3173914 2568:0.71629673 2570:0.31504011 2574:0.40933874 2577:4.7680087 2578:1.7662312 2589:3.5470464 2591:4.6702805 2601:0.74400926 2604:0.050288349 2610:0.96177989 2612:3.7537777 2621:6.3975191 2634:2.3234007 2636:0.03593412 2637:4.0089188 2642:2.1676641 2649:0.42083183 2656:0.15799388 2659:2.4616742 2664:0.33944839 2667:2.3525739 2669:0.57171369 2672:2.2823808 2688:4.0681891 2690:0.11052704 2691:0.64161944 2695:2.4543428 2704:0.25914034 2714:0.52131039 2715:1.6184378 2718:2.093504 2719:1.14956 2721:1.8829243 2725:1.4078195 2732:0.36919039 2735:0.85808599 2745:6.4056344 2752:3.3191705 2756:0.26866221 2765:6.28759 2766:6.7656403 2768:0.54349506 2771:2.8627017 2777:2.3423338 2778:0.29949412 2786:0.54048407 2787:0.47369817 2790:2.7181921 2793:3.2519193 2805:5.0626888 2811:0.22654098 2814:6.2466559 2821:1.7241831 2834:3.777154 2842:0.91598338 2857:3.0123756 2864:1.4215366 2870:4.7331924 2873:1.517401 2874:0.00091293454 2878:2.0303972 2882:6.1893363 2887:0.42934111 2888:3.6242168 2896:4.0682349 2903:3.0348694 2909:0.0052736402 2910:2.8288217 2916:0.56771642 2917:1.2936671 2919:4.2921758 2920:0.12449656 2927:0.31187499 2937:4.1108432 2950:2.714627 2951:0.17571837 2953:1.4095562 2957:2.313786 2966:1.4032505 2971:2.253551 2977:0.51596957 2978:3.2010961 2993:1.5721772 3000:1.0548642 3010:1.8533677 3033:2.0278838 3035:3.5875163 3036:2.6991754 3052:0.22561246 3057:0.47286662 3065:3.0604618 3070:0.11592054 3089:0.9107967 3092:1.4466451 3094:2.6557591 3105:4.6350927 3116:2.0521452 3129:2.5336094 3133:1.1249231 3144:4.1976309 3146:0.33767366 3148:0.046390966 3150:1.1058149 3151:3.5071902 3152:2.8804116 3161:2.4042115 3162:1.1545782 3163:2.4992359 3179:3.6321101 3183:1.9349591 3184:2.2973473 3185:0.062320661 3198:2.9217649 3199:1.0348152 3215:0.76105654 3216:1.18521 3221:0.81034392 3235:2.3326445 3242:0.60235876 3246:2.9203408 3247:2.7303309 3249:1.7597318 3256:1.4628828 3258:0.072159827 3260:2.3139691 3268:4.6251965 3275:2.4423294 3278:0.48572049 3282:0.28814685 3285:3.2244325 3286:1.7688341 3291:1.366309 3294:0.66452932 3310:0.87512088 3321:3.1635923 3324:1.4765823 3331:2.6559131 3334:6.2868118 3335:2.4982507 3348:2.5468297 3349:9.5186739 3351:1.2146528 3354:1.5027919 3355:2.8934064 3356:1.0443611 3377:4.6264062 3401:5.7032905 3402:0.0068305396 3413:3.5165484 3415:1.366473 3418:0.70943511 3431:1.2930096 3432:1.4383434 3438:2.569088 3442:2.809989 3443:0.2285116 3447:0.64639544 3449:4.1392121 3452:1.689064 3467:3.7438984 3468:0.90205067 3475:3.1309679 3478:1.924631 3482:0.79741275 3491:7.2119045 3493:1.4079499 3494:2.7596531 3496:2.207037 3497:0.063669682 3508:1.1029093 3509:0.10198957 3513:0.64514983 3521:1.7759153 3529:0.44201404 3536:1.1709148 3537:1.866551 3539:9.8100662 3540:1.9860234 3544:2.7063801 3548:0.7436707 3560:5.6762972 3564:3.0387092 3568:2.1799858 3569:2.774848 3576:1.9530314 3582:5.7749448 3585:0.1438413 3586:3.9267747 3588:1.4073684 3589:0.21813762 3592:1.3724535 3604:3.2294414 3606:1.2471688 3608:5.6042519 3614:2.4829047 3621:0.47231176 3624:2.6928437 3627:2.0356348 3629:0.32316446 3631:0.75305694 3632:1.5989571 3635:0.38416874 3636:1.2936286 3644:2.2655849 3650:0.19699839 3653:2.8792307 3667:2.4390135 3679:5.25243 3682:0.8203547 3683:0.61207843 3690:2.8416584 3692:1.3593149 3719:2.3754206 3729:2.3844109 3732:3.0648088 3734:3.026499 3748:0.69934201 3749:1.601536 3752:2.1356444 3755:0.039737493 3756:3.8112173 3766:0.61810482 3777:0.96086454 3793:2.9253895 3794:0.11488724 3797:2.7110791 3806:1.2612605 3808:6.2019453 3813:1.1320484 3818:0.90241915 3822:1.0347723 3824:3.8428552 3826:0.21435478 3835:0.81980395 3848:1.2558045 3864:1.5687943 3871:1.0590786 3872:1.6484874 3877:1.8294218 3880:0.079276681 3885:0.50555122 3891:6.6183214 3892:1.9749328 3893:1.0748472 3901:1.0648229 3907:5.9635878 3910:0.089292347 3913:2.8076496 3915:1.6951777 3918:0.84326637 3919:0.061735272 3923:3.5114455 3927:0.37992707 3929:3.6640236 3933:1.9004972 3938:0.068985596 3941:1.03019 3945:0.24596554 3948:0.9508701 3957:3.9268839 3963:0.4290089 3966:2.4807022 3972:2.6755631 3984:3.5713937 3988:2.0004413 4000:3.0070083 4002:0.39203042 4003:0.063986093 4005:1.3413267 4010:0.19948468 4021:3.7369466 4033:0.9155671 4050:0.15869035 4055:0.49471372 4058:2.3153777 4063:0.79040718 4067:2.0394716 4068:0.26715785 4071:2.7537239 4074:2.5019035 4076:1.3532045 4080:0.21491167 4084:1.921164 4086:0.83791232 4088:0.82808006 4090:0.13736886 4091:0.84585941 
0.3179144813907029 9:0.13349599 10:0.5549742 15:1.7626768 16:0.72589266 19:1.9972867 20:0.027778208 30:0.063354284 38:0.23095369 40:4.2179656 45:0.16890004 54:3.1691515 77:0.46611577 84:3.1213865 88:1.6546249 91:0.090717234 111:0.087927669 112:0.96762455 125:3.4792364 143:2.4244552 145:2.0497723 147:1.5461411 157:2.5551598 159:4.3707919 164:2.4142714 167:2.2560177 171:4.3836861 172:0.78473163 173:0.74181318 179:1.6876978 181:2.8536897 191:1.2082677 196:2.3627133 199:0.41912585 200:5.8017731 210:7.7174101 216:0.35490096 217:5.2674551 218:0.77717757 221:3.5597086 222:1.1436315 223:0.12111902 236:2.8102708 241:1.6581305 242:2.5644464 247:5.3745317 252:3.7894483 256:3.75982 258:0.021540344 267:4.4171152 271:0.59062505 274:2.4318233 297:2.0380428 312:2.4913158 315:1.934961 323:0.71105218 324:4.3921752 335:1.7041125 340:0.32319131 344:0.26115939 349:1.0992011 353:2.442385 354:0.29138792 359:1.717021 365:1.740212 367:0.50511909 378:1.9432893 379:5.1548939 384:0.55432796 385:3.2200806 386:1.3406209 388:0.77926958 391:1.2739015 400:0.43031162 401:1.2575845 416:1.5933305 420:3.8695111 425:0.13475275 434:0.046312544 454:0.38460296 460:1.1862053 463:3.1643949 466:2.3926258 472:3.1317701 481:1.1312221 495:2.3899789 517:0.86682856 518:0.089433499 524:0.24943821 526:3.5879076 545:1.1274554 549:2.7036002 559:1.588421 562:1.3314598 567:3.5337932 576:1.7233558 577:0.94461054 578:3.4186962 586:0.61197901 593:0.40569943 595:0.92064381 601:0.7525965 602:0.30326152 608:0.20113996 609:0.45880729 612:4.2266965 615:0.28437707 620:0.041501343 628:0.12280175 635:0.68045235 639:0.19614711 642:1.3724238 651:1.9325627 656:0.46322116 664:1.0287329 670:0.90663397 672:2.9041166 675:1.4422858 676:0.82325876 681:2.6905785 682:0.96150756 691:4.7368364 692:2.1441913 696:0.68965101 701:1.8971016 702:1.8291233 705:2.2555094 706:1.2436144 711:1.2621102 712:0.59056848 721:1.3135222 722:6.2432318 723:1.3909307 724:2.981133 725:0.302241 728:0.82872516 748:0.3837018 749:0.42613262 751:0.57972193 766:1.9217436 773:0.67565942 776:1.0043439 777:4.362371 782:2.429605 794:4.5188732 798:3.2593296 799:2.0340405 812:4.9971466 820:0.84217823 823:0.42997119 838:0.43466961 841:1.8000216 842:2.2843354 848:3.6119561 851:0.84505188 853:0.69572204 857:2.8276222 860:1.518914 866:1.7438946 868:2.8148377 874:0.19622995 876:4.0962124 878:0.22076482 882:0.25444043 895:1.6115812 902:2.6576996 904:0.43790662 908:0.26125994 912:3.0481143 916:0.10986965 918:1.5459719 919:1.3778884 922:0.86935985 927:0.6819216 928:1.7223769 942:0.82529378 943:0.011040926 957:2.1739762 958:0.82929695 960:0.048978269 965:4.9368882 971:0.056699067 974:1.4739392 976:3.2908759 983:0.088998541 985:0.7168529 1001:2.156709 1006:0.40344575 1016:0.8679924 1018:1.5035322 1019:2.3701451 1023:0.4329274 1024:4.7485614 1026:0.884969 1034:0.085475385 1051:0.58302116 1058:0.19667505 1059:1.3358604 1062:0.33866292 1064:3.4236264 1070:1.6451664 1071:2.108618 1078:2.7391889 1081:0.41512334 1091:0.76909089 1092:3.9270239 1095:2.9175622 1096:5.5525432 1111:0.78535324 1125:5.0948672 1126:2.6984582 1137:0.75003028 1138:1.2034371 1139:0.050665885 1144:1.7270632 1155:0.79884684 1165:5.4048944 1168:0.83799219 1170:2.5724542 1174:0.32730404 1175:0.7293694 1180:2.0217023 1189:0.31242591 1192:0.61017776 1195:1.2880121 1199:2.11075 1206:3.1715198 1208:0.18795605 1219:0.66822535 1220:0.76073813 1223:1.3455472 1226:1.0596107 1227:1.1217749 1228:2.4214354 1234:1.3324417 1236:0.31914794 1242:1.894166 1250:4.0010161 1251:1.0530109 1252:0.29431385 1270:1.4494202 1271:0.44818401 1274:0.19010712 1278:2.7573738 1279:1.3053255 1281:0.5572865 1282:0.29854694 1284:0.61413765 1286:6.0192471 1288:0.36551905 1291:0.17278892 1292:2.7132382 1293:0.6756528 1309:0.93005794 1310:0.54317915 1313:0.986013 1317:2.3185275 1329:0.95518136 1333:2.0247176 1336:2.1483054 1340:0.5986222 1341:1.042625 1344:0.0055616647 1347:0.068714246 1366:3.7490554 1369:3.6008153 1377:1.042769 1381:3.0851293 1385:0.66644996 1389:0.69770747 1393:0.51990259 1406:3.1768439 1408:2.1895149 1410:2.5067379 1412:1.9081092 1419:1.932158 1426:0.08274579 1431:0.1330016 1432:0.26083618 1444:3.8649929 1456:1.1583914 1465:4.9008579 1467:1.2890133 1468:0.28725526 1469:1.544948 1476:6.2520218 1484:5.1876698 1485:0.74278986 1487:2.2635689 1488:2.1285439 1489:0.5639708 1495:0.52143556 1498:0.81233484 1502:0.6455614 1510:0.084015787 1511:0.89060581 1513:2.4790154 1515:1.4842024 1520:0.42418975 1522:0.48419687 1523:2.0479362 1526:1.0181563 1528:1.6979474 1540:0.131271 1541:1.7560625 1546:0.10233003 1556:2.1819048 1560:2.8527465 1562:2.8077979 1566:2.5048547 1569:1.5604615 1573:1.495875 1574:0.61452579 1576:1.0007932 1577:3.6100938 1586:5.522079 1587:3.1425273 1588:3.2422276 1597:0.66454792 1600:3.9449613 1604:3.3633404 1610:0.19841596 1613:2.6037343 1617:0.71699852 1625:0.27614442 1637:2.5264056 1641:0.43153876 1645:0.098139197 1647:2.0284233 1648:2.8135123 1661:6.9442277 1663:1.0767179 1665:0.18847905 1675:0.58781534 1677:0.10873431 1678:1.0453784 1680:2.085453 1690:2.913486 1691:1.080676 1695:2.148999 1696:0.069594637 1697:0.17683904 1700:0.16662595 1705:1.3061414 1707:0.095111921 1711:0.075257778 1718:1.0198214 1720:3.3965065 1724:1.2461426 1726:2.7318208 1730:1.9346581 1732:3.9375682 1733:0.029875562 1736:1.2450714 1737:1.9238915 1742:1.612635 1744:0.55110067 1746:1.8983144 1750:0.30533323 1752:0.88035393 1754:1.0796797 1758:2.206799 1761:1.096774 1762:4.9881978 1767:1.8303787 1775:1.0116522 1778:0.59843373 1790:4.1826925 1795:0.87000811 1803:0.91182625 1804:0.72424591 1805:0.9596048 1806:4.1309085 1807:0.098933399 1812:1.2666008 1813:5.3451743 1819:0.5062269 1822:1.750766 1832:5.9752088 1840:0.12610731 1842:4.7497253 1844:1.3084073 1846:5.378715 1848:0.6835736 1849:3.3964686 1850:1.1587912 1852:1.3310118 1869:0.9751156 1880:0.38001147 1889:1.3071578 1890:1.3401812 1898:1.2346816 1900:3.8380933 1901:3.6792431 1911:2.9454803 1918:2.1286716 1928:3.03282 1935:2.3941848 1938:4.3802228 1963:0.70988685 1964:0.44529909 1972:3.8588693 1974:1.6638409 2004:1.4603159 2005:0.18888643 2009:1.049432 2011:0.83957481 2028:0.37191585 2038:1.1748224 2042:1.8246143 2048:2.2913983 2053:2.1748459 2057:0.76863909 2058:1.4431821 2066:3.1035776 2070:3.9147644 2082:0.80849916 2085:2.029664 2100:0.084748417 2102:0.31808472 2107:0.085950166 2116:1.7137146 2117:2.1870852 2136:0.50585926 2140:0.5804534 2144:1.2209938 2153:0.236395 2177:2.2663264 2187:2.5924835 2188:2.103559 2189:0.3119081 2196:3.0277987 2199:1.8338115 2200:0.8148694 2223:5.5292172 2224:0.29425529 2226:2.3813832 2231:0.78288215 2239:0.93744522 2241:0.74139345 2245:0.062041447 2262:0.65477884 2267:2.5080361 2271:0.57484722 2286:2.5711241 2294:0.80556875 2307:0.33412194 2312:0.2065181 2314:1.561488 2317:0.75166649 2318:1.9329998 2320:0.38867295 2333:1.290431 2337:1.7751343 2341:0.31290737 2343:1.4039556 2349:0.3199904 2353:0.41381958 2357:0.23429923 2360:2.935143 2372:2.4074275 2390:2.6381352 2393:3.8624582 2399:2.4049685 2400:0.76279962 2415:0.41233373 2417:2.9815817 2418:2.2033381 2423:0.73575705 2428:0.71339494 2434:0.45875499 2435:4.4689479 2446:0.33891064 2452:1.0127997 2457:1.9932847 2458:1.2081672 2459:0.59114403 2460:0.1181879 2463:1.0885973 2470:0.12626351 2477:1.354221 2486:0.76255482 2488:0.8452599 2496:1.144439 2505:0.25165257 2509:1.2104222 2513:0.77998435 2516:0.10712025 2520:2.0141683 2521:2.5013342 2526:5.3652782 2532:0.21713494 2533:0.91112554 2536:0.28139001 2545:0.16114655 2558:0.38454092 2561:3.3378942 2563:2.9574242 2568:1.5215327 2574:0.42458394 2577:4.4522071 2589:1.93539 2591:1.960579 2594:0.30733702 2600:0.61192721 2601:0.032365844 2603:0.28191692 2604:1.9998399 2610:2.8792088 2612:2.5438893 2614:0.0042222589 2621:2.4921017 2625:0.81476146 2634:1.0658016 2636:1.0821006 2637:2.4414868 2642:1.4688637 2649:0.087801665 2655:0.35925251 2656:0.10751101 2659:1.7703439 2667:1.1103585 2672:0.50709879 2687:2.5189738 2688:2.7480621 2693:2.6376827 2695:2.7971995 2699:1.8665454 2701:0.63982105 2704:3.4729846 2708:1.2268176 2715:1.5630412 2719:1.5734086 2721:2.2749004 2723:0.9275254 2724:0.80880213 2725:0.5947668 2726:0.79584509 2732:0.56802475 2743:0.57873499 2745:1.9467478 2752:0.4226383 2760:1.2158661 2763:0.87580025 2765:5.313334 2766:2.8320956 2771:1.6344634 2777:1.2682517 2786:1.9165771 2790:0.53335261 2793:3.3143661 2805:1.5830251 2812:0.6242674 2814:4.6192846 2817:3.108259 2821:1.9623333 2825:1.5333918 2834:2.6094646 2835:2.1800919 2841:0.55170095 2845:0.17507435 2848:1.3409442 2856:0.063430816 2857:2.7005379 2864:2.8421934 2867:1.6187317 2870:3.4259052 2873:3.2208729 2878:2.5576303 2882:5.3822703 2895:1.3861194 2896:1.5850974 2898:0.34090817 2909:0.23793343 2910:4.1811652 2913:1.3381656 2916:1.9110565 2919:3.6825714 2927:0.13816136 2929:0.32838994 2937:3.5288653 2944:0.56307685 2945:0.77092832 2949:0.32087454 2950:1.170121 2953:1.0665673 2957:0.94944572 2971:2.5055242 2978:1.7374966 2985:0.82716286 2993:1.6615286 3010:0.16177496 3033:0.24128295 3034:0.69612247 3035:1.3830678 3036:5.6684909 3057:1.0239854 3065:1.4238305 3066:0.35335842 3072:0.26649836 3079:2.4574356 3085:2.8868489 3094:1.8640616 3105:5.6753387 3116:3.927892 3144:3.7417703 3146:1.5819453 3150:1.5334958 3151:2.8520722 3152:2.83198 3155:0.16272229 3160:0.45340466 3163:1.8606598 3179:0.73398411 3184:1.406976 3195:2.4134026 3198:1.4103472 3199:3.1514535 3215:1.9835676 3216:0.97420782 3235:1.0918143 3236:0.76890814 3242:0.23773792 3246:0.39970675 3247:2.1702514 3249:0.049677826 3256:0.50788486 3258:0.82978034 3260:1.6401981 3267:0.25137019 3268:3.8185298 3275:2.160085 3278:1.1386535 3284:0.61277103 3285:3.3021512 3286:2.7934556 3291:0.24745929 3294:3.1914134 3321:2.0955329 3324:1.7729412 3331:1.5914924 3334:4.3049245 3335:4.6890559 3349:4.7333388 3351:0.024948776 3354:2.4638996 3355:0.87372392 3356:0.52888179 3364:0.36979705 3377:1.6934762 3378:1.2711763 3394:0.87662387 3396:0.92760336 3400:0.031330764 3401:2.1687429 3405:2.6397874 3413:2.2361705 3415:1.4891319 3431:3.0260859 3438:3.5848713 3442:0.86364341 3449:2.5445404 3452:0.0013811737 3467:4.2191253 3475:1.0357633 3476:0.074426875 3478:2.5747437 3482:1.4444482 3490:0.45635509 3491:2.199039 3493:2.4314423 3494:2.4804759 3496:3.0926764 3497:1.5912271 3504:0.80684924 3509:0.43825194 3521:3.0308201 3525:2.0499125 3536:2.4283075 3537:1.8777874 3539:5.8757739 3540:2.1117115 3544:0.27272525 3548:0.57616884 3551:0.30210695 3556:1.6239672 3560:3.9525833 3564:1.1453288 3568:2.0937419 3576:1.2576727 3580:0.14468008 3582:1.4444522 3585:2.2425182 3586:2.3016562 3588:1.6738859 3589:0.62882513 3592:1.6502037 3604:3.3042254 3606:0.35436809 3608:1.4470223 3614:0.078482956 3624:0.8842752 3627:1.2731413 3631:0.69226885 3632:0.6373167 3635:1.2818305 3643:0.64071369 3644:5.1554132 3650:0.82876801 3653:2.862776 3667:4.3451581 3679:3.7721391 3681:0.2617718 3689:1.4861959 3690:1.5262792 3692:2.0189869 3695:0.18983793 3698:0.35163707 3699:0.25261819 3711:0.38222212 3719:0.61072886 3729:1.8466321 3732:2.9066045 3734:3.1715543 3748:1.8083457 3749:0.71325994 3753:0.95300651 3755:1.9530008 3756:2.9456716 3776:0.72410846 3777:1.856431 3793:3.6816876 3806:0.60010684 3808:4.4540334 3810:0.30408299 3819:0.3826178 3824:3.7846463 3826:1.0883981 3837:1.123053 3847:0.09656392 3848:0.16497922 3852:1.3159251 3872:2.6397772 3877:1.5979197 3891:3.1821778 3892:2.6616063 3893:0.78434521 3898:0.28792453 3907:3.1216507 3910:0.28306663 3911:0.13972923 3913:1.7704442 3915:1.1589707 3918:1.7854952 3923:0.8558501 3929:1.7655836 3933:1.6639986 3935:0.18235481 3941:1.7252201 3945:0.041511938 3957:5.2882328 3966:0.69703621 3972:3.3274624 3978:1.0034879 3981:1.224872 3982:0.8008523 3984:4.1544585 3988:1.1025574 3990:0.39498109 3997:0.85538888 4002:0.75452882 4003:3.3562598 4004:1.3394485 4005:2.5039837 4007:0.81862772 4010:5.5490646 4021:1.109496 4022:0.77377522 4033:2.4345963 4034:0.20927192 4036:3.6370711 4038:2.8096318 4045:0.030938536 4052:1.1162217 4057:0.30621114 4058:0.76827002 4059:0.090324953 4068:0.42462718 4071:1.8505327 4072:0.91177988 4073:1.1114115 4074:1.8363355 4076:1.7215141 4077:0.83490014 4079:0.36356652 4084:2.33394 4091:2.5031946 4096:0.99380124 
1 9:0.22284609 15:3.5598974 19:0.63464499 20:0.73989362 23:0.82523018 39:0.42126676 40:4.8166709 45:2.6904182 54:3.0858436 69:1.6854298 77:6.0632224 83:0.3717038 88:1.741946 107:2.3170745 108:0.061082758 112:1.6286111 113:0.78869349 125:6.1176805 126:1.8419859 147:2.3216858 156:1.1309569 159:7.3407121 164:3.0947464 167:0.88919544 171:0.12965178 173:0.52476442 178:1.2812909 181:3.2886543 191:0.42063701 196:2.7604766 199:0.80495286 200:7.3633766 209:0.39530843 210:9.6756659 211:0.84911621 217:5.6373529 221:5.8756528 232:1.7816954 236:0.76538098 241:2.1854475 244:0.49999219 247:5.199863 248:1.2042608 252:5.3741951 256:0.41353893 267:4.6267142 284:0.38508511 292:1.4807882 295:0.088726133 299:0.17151579 300:2.6505682 312:6.9163809 315:5.7590971 317:0.75203317 319:0.099289715 323:0.45833731 324:5.2844195 335:2.2339585 347:0.52101099 353:3.5471907 354:0.51476926 365:2.9950025 367:4.5402341 373:0.004481256 375:1.3249924 378:1.3135228 379:5.7587252 384:4.3387456 386:3.3781798 391:2.3102081 396:1.5186135 404:0.92144388 416:0.39653382 442:0.63474792 460:4.4235692 463:3.0405383 472:5.2312493 488:0.99858755 495:0.36786613 498:0.088589668 515:1.4688925 517:2.4631243 520:1.0287908 527:1.2077012 528:0.4446508 529:1.0429039 535:2.4404502 538:0.45893568 545:3.5061784 546:1.6996826 549:3.0683148 553:0.94930559 557:0.91948354 567:0.17188822 570:0.097530216 576:3.7887249 577:2.4661152 578:3.4358799 592:2.3411796 595:0.72548401 602:0.30649793 609:0.40921214 612:3.8599131 614:0.41503024 621:0.39010173 635:0.794442 640:0.13287732 642:4.5700779 651:3.8747487 656:2.6303663 664:3.7928522 672:6.288527 675:2.1425183 682:1.8721941 687:1.2259468 691:2.2935915 701:0.71898633 702:4.6900582 705:0.91762865 706:0.54139739 711:1.663274 721:6.9954019 722:7.9766564 723:4.4826231 724:1.031752 735:1.8187917 749:1.0550976 751:0.73928714 755:1.859068 758:0.1602695 764:1.4564021 766:5.224134 777:4.1851864 782:3.1992767 785:1.4469875 794:1.3028797 798:3.7720168 799:1.2920343 812:8.0635042 826:0.24070197 830:0.76039606 841:5.5538316 848:1.7528232 866:3.4709806 868:4.0438614 876:3.5240457 878:2.7792072 894:3.1505227 896:0.080897808 902:2.9081848 908:1.1795121 909:0.10607485 912:5.5538764 918:2.9058664 919:1.8042327 930:1.3714368 942:0.92805338 945:0.052865058 951:1.3509654 965:7.6487241 966:1.394073 967:0.77724099 968:0.99304259 974:3.7584989 993:0.81014061 1001:3.0588953 1004:0.08681199 1018:7.9274364 1019:0.058875814 1022:0.029360898 1023:3.5563354 1024:6.9524112 1034:0.6400404 1047:1.4915576 1058:0.52299225 1064:4.3233871 1065:0.52208579 1070:3.4184585 1071:0.9829542 1077:1.9376774 1078:0.46095207 1080:0.61425805 1092:3.2126236 1095:2.0236413 1096:6.7698131 1099:0.046075165 1111:0.31098661 1125:4.2421699 1139:2.4929028 1154:0.47481468 1155:0.34706646 1165:2.4994676 1168:0.3386541 1170:2.763341 1175:4.0829139 1176:1.0807496 1180:3.2029219 1181:3.8899813 1184:1.8034353 1189:1.3985763 1192:1.2576066 1193:0.95525908 1195:2.2430606 1206:8.3429222 1219:1.1994803 1223:0.69710004 1226:1.6665821 1228:0.68546277 1237:0.48710048 1239:0.16509046 1242:5.9267707 1250:3.3177559 1264:0.14257437 1269:0.36198312 1278:3.1768229 1279:1.3001027 1281:2.5809233 1284:0.19900814 1286:8.3063478 1292:4.60706 1305:1.3352983 1309:2.8760133 1310:1.3336473 1313:2.6864095 1314:0.77897882 1317:3.3574224 1331:2.0501163 1336:1.3892115 1340:1.1951355 1341:0.9644444 1344:3.0032382 1347:0.70192909 1349:0.30035177 1366:1.572935 1369:7.897541 1377:0.4748444 1381:1.2172213 1385:0.36267436 1389:2.005908 1391:0.76589721 1393:2.4544137 1395:0.75353038 1406:2.589602 1408:4.6733699 1410:5.7723727 1419:0.35884506 1426:2.3497095 1432:0.31900024 1433:0.1162158 1435:0.39650983 1441:2.8428354 1444:4.3016481 1446:1.6071687 1456:0.32197225 1465:1.2698311 1467:1.2481956 1470:2.3738818 1476:10.531713 1477:0.521092 1484:9.8533373 1487:3.4209609 1488:5.4206696 1489:1.9401563 1496:1.2162524 1502:1.3644588 1513:1.1561918 1515:5.1283684 1522:3.5285363 1526:0.81195378 1534:0.64335167 1546:0.13539332 1552:0.31578755 1556:3.1105132 1558:0.68897128 1560:0.4629156 1562:2.55004 1566:1.928849 1567:2.4840934 1577:6.8454809 1583:0.58463025 1586:5.6689382 1587:3.6180758 1588:1.9622771 1590:1.3532238 1600:5.9382415 1604:2.8196549 1605:0.5867902 1613:0.51962107 1624:0.55528456 1636:1.7797751 1637:2.5866516 1647:3.9718857 1648:2.4452703 1654:3.8447297 1659:3.7708678 1661:11.082596 1663:2.2008533 1664:0.7968328 1676:0.72124565 1677:4.068635 1678:4.2057576 1680:0.98159146 1690:1.2652538 1691:1.835048 1694:4.4866743 1695:0.14672914 1700:2.240329 1705:1.3939927 1707:3.7052438 1711:0.36730397 1712:0.7009694 1720:0.98538983 1726:1.2688342 1730:1.3024025 1731:0.3866092 1732:1.0044379 1733:1.4072675 1736:2.0879784 1737:2.3769786 1744:0.19399993 1746:4.6555009 1756:3.2181129 1758:4.7050714 1761:2.3573029 1762:7.473721 1767:0.77310205 1774:4.2524629 1790:4.5748243 1795:2.3305719 1804:0.89898539 1806:5.6682715 1807:1.0018582 1812:5.3489537 1813:2.7101405 1818:0.66353559 1824:0.260335 1832:3.689214 1842:8.2472792 1843:1.1401134 1844:2.0586085 1846:4.6198053 1849:6.3543887 1850:1.2450593 1852:0.16226822 1856:3.3967812 1874:0.73487842 1880:0.53948069 1881:3.1094844 1890:1.6655489 1897:2.4694283 1898:0.71447504 1900:1.4054378 1901:1.4384043 1905:2.7824876 1908:0.83919561 1911:4.5835605 1920:0.30337378 1928:3.1074693 1935:1.7289761 1938:5.8913441 1966:1.6193733 1968:0.53513002 1972:8.990159 2004:1.3628519 2005:1.127021 2006:0.59827542 2009:6.6337323 2017:0.1259262 2030:0.8228876 2032:0.00078329444 2035:0.30882224 2038:0.65317988 2042:2.37603 2048:1.3420403 2053:1.7461448 2066:5.4237146 2070:2.3494244 2082:0.75785458 2085:3.694582 2094:0.1400305 2097:1.2245128 2100:1.1611941 2101:1.5657514 2105:0.34936821 2116:0.4418098 2117:6.2593369 2135:0.15415853 2140:3.5158336 2144:1.0418656 2153:0.87823129 2159:0.77717829 2166:0.016131192 2172:1.6837988 2187:6.3839107 2188:3.2267878 2189:0.74472189 2193:0.19466221 2199:2.5388503 2223:4.817441 2226:0.36370841 2239:1.2248681 2240:0.86249179 2241:0.70164818 2244:0.86321628 2245:0.45115513 2249:0.26060101 2250:3.4547265 2251:0.54371864 2267:6.9484134 2271:2.4503076 2275:0.93618512 2286:3.4155645 2290:0.20833309 2294:1.082341 2307:2.0794907 2314:1.6562979 2317:0.63583708 2318:2.6455522 2320:1.2346243 2333:5.7186456 2336:1.156584 2337:0.4986603 2341:0.69782066 2343:1.2064021 2360:1.7530707 2390:0.38076112 2393:4.7235279 2399:0.9705441 2400:0.46316212 2423:1.2975613 2424:2.5498607 2434:0.16350409 2435:2.9608023 2438:0.6779266 2441:0.88880444 2446:3.1413548 2453:0.17725796 2457:3.7539411 2463:1.1880245 2470:2.5855098 2477:1.6448419 2487:0.28460735 2488:0.85250258 2507:1.1752063 2509:3.297312 2519:0.34147012 2520:2.5408754 2521:3.2209907 2523:0.91107357 2526:1.668565 2530:3.3768892 2533:0.46829778 2551:2.4128232 2561:6.4341965 2568:1.4173006 2574:0.78091431 2575:0.3946735 2577:6.7198858 2578:2.1570301 2589:3.3663449 2591:5.8372107 2594:0.77954859 2610:1.6725302 2612:3.0562911 2621:6.5627666 2634:1.1374274 2637:4.3653479 2642:2.6873817 2649:1.0494826 2656:0.29821134 2659:2.7377529 2664:0.46886986 2667:3.4890099 2669:0.6774931 2672:1.0452647 2688:3.3195295 2691:0.63641638 2695:3.3406782 2714:0.85729367 2715:2.0044041 2718:3.8632712 2719:0.68798614 2721:2.6641257 2725:1.2712506 2732:0.40515292 2735:1.8640691 2745:7.6267595 2752:1.7772943 2756:0.72658205 2758:0.00096326321 2765:5.9339809 2766:5.5175734 2771:4.1312518 2775:0.21484697 2777:4.1001029 2786:1.1175752 2787:1.6889423 2790:3.4693146 2793:4.3323145 2805:6.6143055 2808:0.047293115 2814:7.2072115 2817:0.75789857 2821:1.8772851 2834:5.4782586 2857:2.8106349 2864:0.78410536 2870:7.4540277 2873:0.93908298 2878:1.2571435 2882:6.527205 2887:0.66514218 2888:5.1754937 2892:0.059034452 2894:1.239187 2896:4.8130102 2903:3.8310592 2909:0.38107926 2910:4.3386345 2916:1.1823881 2917:0.50998259 2919:5.0906472 2920:0.67853314 2927:0.81061125 2937:3.7467268 2945:0.62859768 2949:1.1924822 2950:0.73891115 2953:2.1815186 2957:2.8463137 2964:0.43766063 2966:4.0244527 2971:2.3735299 2977:0.89551878 2978:3.1257088 2993:1.0101521 3000:1.4233315 3010:2.6436806 3033:1.8346421 3035:4.3050079 3036:2.7356086 3052:0.77774608 3057:1.9619346 3065:3.7019925 3070:0.67207932 3079:0.29666817 3092:0.16305347 3094:1.9962636 3105:6.4110193 3116:4.3526082 3129:2.185324 3144:4.1462612 3145:0.49284205 3146:0.61873412 3151:4.2778425 3152:2.4462864 3161:2.3351684 3162:1.5477972 3163:2.5864148 3179:4.2598691 3183:3.4027231 3184:3.8675165 3185:0.53437185 3198:3.3652182 3215:1.1443436 3216:2.006151 3221:0.0656984 3235:3.4910944 3241:0.45958051 3242:2.6799951 3246:4.5839715 3247:1.6826035 3249:2.4205966 3251:0.75840044 3252:0.15250778 3256:2.2369649 3260:2.2809014 3267:0.12640071 3268:5.1555824 3275:3.2218776 3282:0.18072093 3285:1.3340969 3286:2.2688131 3291:0.64677787 3294:0.73547387 3310:0.0034774244 3321:3.3843923 3324:3.8078818 3331:2.7427304 3334:6.6143703 3335:2.034225 3348:2.9939294 3349:10.426367 3351:1.8961693 3355:2.4316669 3356:1.3791766 3377:5.5440183 3382:0.39083707 3401:6.4578862 3413:4.0058084 3415:2.4825611 3422:0.0089401752 3431:1.1223804 3432:1.4736121 3438:1.2005663 3442:3.1942794 3443:0.49965823 3449:4.5940037 3452:2.7305739 3467:3.6989188 3468:1.0885379 3475:2.3506267 3478:2.2082553 3482:1.7183574 3491:7.3028502 3493:1.0651705 3494:2.4453673 3496:1.8966956 3497:0.80442089 3508:1.9383364 3509:0.1027112 3513:1.615782 3521:2.7211854 3529:1.2073476 3536:1.4886115 3537:2.0230012 3539:10.94838 3540:2.471108 3544:2.5027812 3548:0.35804996 3560:4.9465895 3564:4.6561027 3565:0.94328612 3568:2.4907229 3569:0.95406902 3572:0.44425958 3576:2.7850714 3582:5.8156543 3585:0.25783572 3586:3.4920142 3588:1.4440861 3589:0.51625359 3592:3.0494192 3604:3.6231956 3606:2.5390022 3608:5.3236642 3614:1.3545872 3621:1.6556624 3624:1.9841747 3627:2.133605 3629:0.12066725 3631:0.68896395 3632:2.015806 3635:0.33488792 3636:3.3299427 3644:0.6315158 3653:2.6789134 3667:3.3761036 3672:0.27596715 3679:7.5929794 3682:1.9080033 3683:0.28106019 3686:0.44941986 3690:3.3959398 3692:1.0005828 3698:0.01219672 3703:0.49958169 3719:3.7542939 3720:0.66676521 3729:2.7024207 3732:3.8756146 3734:2.8060942 3748:1.3508304 3749:2.3449266 3752:0.89053047 3756:4.0872622 3766:0.54044378 3771:0.016503751 3774:0.5842309 3776:0.38640517 3777:0.042119265 3793:2.5810156 3797:2.2512455 3806:1.6354491 3808:7.1099296 3813:1.2519391 3818:1.3556181 3822:1.763194 3824:3.1137264 3826:0.026483923 3835:2.4294248 3848:1.1774659 3857:1.0069864 3864:3.3154705 3872:2.8178391 3877:1.1476744 3880:0.26602501 3891:9.2908096 3901:1.3799355 3907:5.4273896 3910:0.045247436 3913:1.8899193 3915:3.16556 3923:7.4485259 3929:4.092164 3933:0.7879653 3938:1.5086734 3941:1.9234256 3945:0.12096332 3948:1.014411 3957:1.799018 3963:0.12862486 3966:3.1326158 3972:2.3667047 3982:0.50223047 3984:3.4153812 3988:0.83250427 4000:3.3151665 4002:1.4031208 4003:0.63823783 4005:1.0783889 4018:0.75342321 4021:2.497684 4033:1.1610067 4041:0.59149063 4055:0.54728067 4058:2.9321215 4063:1.2262051 4067:1.3871144 4068:0.12559779 4071:3.3046403 4074:3.1402102 4084:2.2595482 4086:0.52590406 4088:1.2511237 4090:0.15480292 4091:0.64082634 
0.08201649923119031 9:0.39006025 15:4.2047801 16:0.2518152 19:4.4037724 39:0.9711656 40:4.344172 45:2.2035267 54:0.42341566 77:1.7663615 84:4.471261 88:1.5036318 94:0.1002076 103:0.60415804 111:2.7254109 114:1.6192983 125:3.1274931 138:0.50196159 145:1.4167782 147:1.806375 150:0.69165909 157:2.2089734 159:7.5915918 163:0.0081765056 164:2.1401956 171:3.5383101 172:1.3723174 173:0.61854434 178:1.6876644 179:0.53022128 181:2.312922 187:1.6032443 189:0.4522613 196:2.3383932 199:0.63774568 200:5.9143424 210:7.7344642 216:1.7644839 217:5.2734365 221:5.1297507 222:2.3639362 228:0.43776447 232:1.0121319 236:1.1596802 240:0.86615074 241:4.0515361 242:4.3188319 247:6.7602267 252:3.6274776 256:3.4681492 258:1.1302559 267:0.97340059 271:1.1946963 274:1.2952069 277:0.78240752 295:1.7149396 300:0.2739124 304:0.44860035 312:1.4866114 315:1.7296168 318:0.046787582 324:8.8249636 335:1.7770119 342:2.4605787 348:0.62113714 349:1.385307 353:4.9827662 354:2.4567127 359:1.8543899 365:3.0121176 367:3.2920859 378:4.4207406 379:4.1969452 384:1.0606569 385:0.85485995 387:2.6349845 391:1.7107904 400:0.40008456 410:0.67448533 416:0.39303946 425:1.1446445 463:2.9816866 472:1.4015803 488:1.2883561 495:2.8213062 498:1.6022654 499:0.12749764 500:0.78335571 515:1.7397282 517:0.30828711 520:1.9815993 526:3.7026656 529:1.3111646 535:1.3803234 545:0.75789285 546:0.77203286 549:3.3686359 562:0.67907119 567:7.2918143 570:0.82605064 576:1.6761631 577:1.9446157 578:0.96410888 583:1.9304537 586:0.54786783 601:0.75448239 612:5.9588113 628:0.43797228 637:2.2151904 639:1.0720096 642:4.0796843 651:1.7921233 659:0.10628279 664:0.2789568 672:5.056932 674:1.2897975 675:1.3113699 681:0.14262611 682:1.3844087 686:1.6988974 688:0.38840035 689:2.9207954 691:3.5233104 692:4.2278881 702:1.1441491 705:2.853271 706:0.70943868 712:3.4455667 717:1.6615475 718:1.4504402 721:3.2536778 722:3.3638442 723:0.39078549 724:2.9153211 751:2.5737579 758:1.3561739 766:0.066810101 771:1.9200401 777:2.3154218 782:1.7629802 794:3.8484151 798:3.3322914 799:1.7614223 803:1.3175247 804:1.9931362 812:4.8517251 820:1.0465512 823:0.015590876 830:1.1552794 839:1.2300622 840:0.50632381 841:1.4460211 842:3.8347986 848:1.9167584 851:1.6364629 853:1.3598154 857:0.87365448 865:0.98113197 866:6.9965529 868:3.5246754 874:0.13854115 876:1.8973311 880:0.65996182 887:0.17266509 895:3.2504718 902:0.68460822 908:3.040936 909:2.9956691 912:2.39189 916:3.9599845 918:1.5345809 919:1.838665 927:0.62767482 928:2.3732164 930:1.4749514 943:1.3351667 945:0.28092113 953:0.055967003 961:0.0065872073 965:4.9030838 966:1.8913813 975:1.0001487 976:2.9569945 985:1.5833845 1001:0.37131605 1004:0.76726413 1016:0.48075742 1018:0.80491084 1021:0.2656866 1023:1.6105704 1024:4.6226611 1034:1.5297954 1041:0.95554399 1043:1.2096044 1049:2.5508215 1051:0.83220249 1064:5.1877208 1070:1.8110242 1071:4.9945717 1077:0.28003258 1078:0.8941561 1084:0.0067130327 1091:0.47130543 1092:3.6811271 1095:2.100369 1096:7.0560169 1099:0.20523977 1117:0.81035531 1125:5.9991274 1126:2.565717 1137:0.78268182 1138:1.6655877 1139:0.39380825 1154:0.74073577 1165:3.5412447 1170:5.4119625 1174:0.12218839 1175:7.4159412 1180:2.5661376 1184:1.6736572 1193:0.086859167 1195:0.6897108 1199:1.2032459 1204:0.92784637 1206:3.2932286 1214:1.0673347 1216:0.73436689 1217:1.0867922 1219:1.8693514 1220:0.69782859 1223:0.98990142 1226:3.2259231 1227:3.5407143 1228:0.75252342 1236:1.6350551 1237:1.1477989 1242:1.4434799 1250:3.0388267 1270:0.46743894 1274:0.49243259 1278:0.054086015 1279:4.6920853 1284:1.9669662 1286:4.6385198 1291:0.51320285 1292:2.4986982 1299:4.5273647 1306:0.18851724 1309:0.14417821 1310:2.4088407 1313:0.83932924 1317:1.3308952 1331:2.6694019 1333:1.0890214 1336:2.4028511 1340:0.29882115 1341:1.5531266 1344:1.1603882 1347:1.7123978 1361:0.53921235 1366:1.68056 1369:8.540019 1381:3.9638848 1385:0.45308429 1389:2.1557291 1397:0.78723383 1406:1.8837452 1408:3.0020962 1410:6.5167842 1411:0.77500498 1412:2.2464776 1419:4.4647794 1424:1.3564985 1426:0.061114043 1431:1.1000181 1432:0.33804375 1444:6.5959287 1456:1.7306213 1465:3.6633124 1467:1.4597554 1468:2.5675864 1469:0.15486841 1470:0.53054017 1476:10.792126 1484:4.7383466 1485:0.6289351 1487:1.0119178 1488:1.5869378 1498:0.4885183 1513:4.1846995 1515:2.7879353 1522:3.1324062 1523:2.4681869 1526:1.5403767 1534:1.2011739 1540:3.118299 1546:0.29445571 1553:0.42129993 1556:2.5639939 1560:3.4109075 1562:3.5712485 1566:1.4125707 1577:3.9202044 1586:5.2701869 1587:3.5823193 1590:1.5119827 1592:0.297456 1597:1.3326498 1600:4.065865 1604:3.3510616 1606:1.5972188 1610:0.69447029 1618:1.3452953 1637:0.84488058 1647:5.0035844 1648:2.8518455 1654:2.5070724 1659:0.17836307 1661:7.6765184 1665:1.2189614 1676:1.9651364 1677:0.4836866 1678:4.6720347 1680:1.2353404 1690:2.6866789 1695:1.3980389 1696:1.2731606 1700:1.1425339 1712:1.0919055 1713:1.221328 1720:1.9310185 1724:1.4738843 1726:1.8674757 1730:3.8965862 1736:2.6635003 1737:2.1441107 1740:0.85422546 1742:1.38817 1750:1.8130205 1758:4.1436396 1759:1.2511238 1761:0.77330977 1762:3.3704736 1767:3.0325747 1774:5.7743931 1775:0.8423447 1780:0.20804566 1790:6.2580028 1792:0.53953183 1795:3.0681217 1803:1.2195185 1804:2.3325074 1805:0.24659117 1806:3.9210205 1807:2.2384934 1811:1.691437 1812:2.5626447 1813:5.2817369 1817:1.211503 1824:0.49889782 1832:3.3226237 1833:0.786726 1842:3.6653214 1843:1.2716838 1844:0.65287238 1846:8.2011805 1848:2.1570332 1849:3.8548608 1852:2.4992726 1855:1.3661925 1856:1.2781452 1863:0.50020397 1868:0.54666513 1874:0.62893844 1879:1.3004092 1880:2.4985311 1890:2.1999257 1900:5.336287 1901:5.2507315 1911:5.1811242 1918:3.9947104 1928:3.6904321 1935:0.62033284 1938:2.5263004 1943:0.737468 1963:0.25416049 1966:0.0001102984 1968:0.61578965 1972:6.7717757 1974:4.174922 2004:3.0144861 2009:5.1638274 2011:0.31791493 2012:2.0077477 2014:0.21192828 2028:0.1272777 2030:0.83250141 2038:0.70616484 2042:1.2230345 2048:3.6908274 2049:0.31066853 2053:3.188587 2058:1.5021565 2066:1.9174061 2070:0.43886036 2085:1.2073765 2091:0.26551452 2097:1.8815318 2116:0.11231551 2117:3.0249767 2144:0.76418209 2153:0.26877224 2163:0.20286003 2177:3.1340077 2187:6.7113204 2188:1.16037 2189:1.4977216 2196:1.0043114 2199:3.6092858 2206:3.5356948 2223:6.2591052 2224:0.5762881 2226:3.6057045 2236:0.17825219 2239:3.9861403 2241:2.0362284 2242:1.500433 2245:0.56506127 2253:1.555307 2259:0.14790067 2267:1.6767589 2282:0.1168709 2286:2.0379438 2294:1.3348904 2307:2.926728 2312:1.1334355 2314:3.4762244 2317:2.5474579 2324:0.63974082 2329:2.2589164 2333:2.0256495 2340:0.27497509 2341:2.6782041 2343:1.0467186 2357:0.84949905 2369:1.0145226 2372:0.2280007 2374:1.0423334 2390:1.1191547 2393:3.4268095 2399:2.7419219 2400:2.7784944 2415:1.6195204 2417:3.1414094 2418:1.2602642 2423:2.2807066 2424:0.39429301 2432:0.18812178 2434:0.023082912 2435:3.9746082 2436:2.1730926 2438:2.2377033 2443:0.4112975 2446:1.9314973 2457:1.7181516 2458:2.3739316 2459:1.8884392 2477:0.74689209 2487:0.0106664 2504:0.067388028 2513:0.16761267 2514:0.084953338 2518:0.073692292 2520:1.42766 2521:1.3827244 2526:5.7404099 2528:2.2077174 2530:0.48399031 2561:6.3342786 2563:3.684036 2577:4.6467495 2578:0.97956038 2589:0.67782664 2594:1.4713535 2598:0.51460761 2600:2.6013632 2601:1.7727537 2610:5.7506504 2611:0.070415616 2612:0.47851104 2621:1.8036671 2625:3.3042684 2632:0.07266134 2634:1.816686 2636:2.1076694 2637:1.2374715 2642:0.21244425 2648:0.026446462 2649:0.9165802 2656:1.9923428 2659:2.321152 2662:0.23265566 2664:0.68389416 2667:4.7301497 2674:1.2320174 2688:3.7200589 2690:0.21153444 2693:1.2387769 2695:1.1805817 2699:0.17192972 2704:0.70014012 2707:0.71594816 2715:6.561439 2719:1.7145647 2720:1.1285746 2721:5.223495 2725:2.2765412 2732:1.3360512 2740:0.1146035 2743:0.60468221 2745:2.9017775 2763:0.99076581 2765:5.3313708 2766:6.9989805 2771:3.161783 2775:0.18468583 2786:2.0613081 2787:0.18177691 2788:0.34626952 2789:0.34696117 2790:0.51666647 2791:0.29988408 2793:2.5458498 2805:5.3350682 2814:3.765559 2817:1.5315338 2821:3.3582418 2825:0.56584907 2834:2.347445 2835:1.3869838 2836:0.76619792 2842:1.8450884 2845:0.89832556 2848:1.5041118 2857:0.90942663 2864:0.52436733 2867:0.10454401 2870:2.3696642 2873:2.5251968 2874:0.50360459 2878:3.7352514 2882:5.5262656 2887:0.22081628 2894:0.45935905 2895:1.0271518 2896:0.26691708 2903:1.1323712 2910:5.4708014 2916:1.4134531 2917:1.2022567 2919:1.1542029 2923:0.55817986 2929:0.5514906 2932:0.33217806 2937:0.83506811 2945:3.4520862 2950:2.8310804 2953:4.0187111 2957:1.4454277 2962:1.1548527 2977:0.68614137 2978:2.2680633 2982:0.026466936 2985:0.65429223 2993:1.6373601 3000:2.2628379 3010:2.9701798 3033:0.31852043 3035:0.54517585 3036:7.1662741 3048:2.0850585 3057:4.5406075 3065:4.0118189 3066:0.4451164 3070:2.4819443 3072:0.17771092 3075:1.033993 3085:1.5434049 3089:0.51115793 3092:1.3730688 3094:0.10862786 3105:4.0910597 3116:5.619081 3122:0.81493801 3130:1.9029754 3144:6.9755192 3146:4.5536637 3150:0.91712654 3151:2.6555033 3152:2.9499564 3155:0.61153758 3162:0.78744882 3163:2.654377 3179:2.7216313 3182:1.0058688 3184:3.0840514 3194:1.3481754 3195:1.8396598 3196:0.96841872 3215:2.3547423 3216:0.032259028 3235:0.94951516 3237:0.69055265 3242:1.0102937 3246:1.5649394 3247:4.0864735 3256:2.4214649 3258:1.2538735 3260:2.8605201 3268:1.6316347 3275:2.4771779 3282:0.2241413 3283:0.38376486 3285:1.7759345 3294:3.3658891 3311:0.015828669 3321:2.8678274 3324:3.0144482 3331:0.61328155 3334:3.2079263 3335:4.8897653 3344:0.11592212 3348:0.59770244 3349:4.3993802 3354:2.5982816 3356:0.83621669 3364:2.7575746 3365:1.0691978 3367:0.18133749 3377:4.0090179 3378:0.49023288 3381:1.1984113 3396:1.6966184 3401:3.3219185 3405:2.4551275 3413:2.5066991 3415:1.9830281 3422:0.25226551 3432:0.31652898 3437:0.16759631 3441:1.563604 3442:4.2495484 3447:0.23159465 3449:3.4612095 3451:1.1714908 3467:2.3733954 3468:0.71717101 3475:0.52289301 3478:3.0787117 3482:3.315799 3491:6.9047341 3494:1.330844 3496:1.9699023 3497:3.0855591 3504:0.42457795 3507:0.75375336 3509:0.77386516 3521:1.8199313 3525:1.2196184 3527:2.0118606 3536:2.5906596 3537:2.1379302 3539:5.834887 3544:0.56383544 3548:0.89141148 3549:0.48424545 3560:3.4430823 3568:4.1128764 3569:0.55035281 3576:0.21391714 3580:2.911413 3582:5.2562623 3585:3.2908175 3586:2.819869 3589:0.81366265 3592:2.5419061 3593:0.62030751 3599:0.35084724 3602:1.0504845 3604:3.180131 3608:2.4035711 3617:0.69556761 3621:2.270524 3624:0.55072141 3635:0.87699908 3636:3.5467043 3644:1.8583947 3653:3.8907363 3667:5.1784215 3678:0.21939532 3679:3.6306844 3681:0.56290615 3682:1.5519165 3690:3.7430038 3692:0.81114924 3695:1.5321289 3698:3.5241566 3711:0.69614673 3715:2.5633616 3719:1.4668316 3729:1.0355731 3732:2.1005068 3734:4.3176475 3735:1.3591108 3746:0.58715785 3749:2.0648108 3751:0.19597983 3752:1.9065412 3753:0.13529563 3755:2.8624322 3756:5.2838326 3760:0.40926516 3777:1.5264014 3783:2.7676842 3793:2.8645732 3794:0.35883918 3797:1.4876275 3803:3.4434404 3808:5.98599 3810:1.0466247 3819:0.84991896 3822:2.0147858 3824:1.2075258 3837:3.0409484 3852:1.5339031 3857:1.5336097 3871:1.7123588 3872:1.8508867 3877:3.0865483 3888:0.49514717 3891:3.6688318 3892:2.2667468 3893:0.11358491 3903:1.2328066 3907:5.7552848 3910:1.0525841 3911:1.2113525 3913:1.7282126 3914:1.1062438 3915:0.34626779 3918:1.76354 3927:0.10304211 3929:0.64960372 3941:3.9557779 3957:0.29936898 3966:1.9250849 3972:0.74302924 3981:1.1100258 3982:2.5192823 3988:3.1986609 3990:2.6506901 3992:0.88108259 3997:1.9863135 4003:2.6962199 4004:0.38051629 4005:2.2015803 4010:5.6075711 4011:0.2294361 4018:0.24491155 4020:0.92055213 4021:1.350503 4033:2.5032151 4034:0.30082065 4036:3.6438384 4038:4.2893987 4051:0.63975322 4057:1.4260074 4058:0.8596862 4067:3.8142521 4070:1.4518263 4071:3.7993689 4072:2.7476971 4073:0.8325417 4074:3.2970529 4076:0.93807745 4077:0.59188211 4080:2.3444386 4084:1.804286 4090:2.9070957 4091:3.7112443 4093:0.93612331 4096:1.510025 
0.5864382277312334 15:4.2938061 16:1.2609875 19:3.4678991 20:0.18669921 39:2.5708661 40:4.0100379 45:0.65072989 54:0.63135266 68:0.039969504 84:5.4206014 88:0.78154433 94:0.4239758 103:0.25743017 105:0.7158618 111:1.6952132 125:4.2348948 138:1.1450212 143:1.0749409 145:1.818761 147:1.5815356 150:1.5146227 157:1.8878676 159:6.2874675 163:0.20274442 164:0.46315137 169:0.79649842 171:3.3226657 172:1.3258048 173:1.6695238 178:1.9158056 179:0.99967837 180:0.47572273 181:1.066148 182:0.21669646 187:0.13325313 188:0.015091062 189:0.34060898 191:0.10134985 196:1.8600414 199:0.10336831 200:5.7564473 210:6.5934935 211:1.2569693 216:1.3669546 217:3.9338849 221:5.5081916 222:3.3089681 223:0.0018743873 236:0.21037553 241:4.12148 242:2.5196018 247:5.1153936 252:4.0804658 256:3.0922356 258:1.4128604 267:2.7550681 274:1.0997705 277:1.2469871 295:1.425199 297:0.12999308 304:0.82041323 312:2.1316051 315:1.9510766 318:0.2717301 321:0.082256258 324:8.5227327 333:0.90150779 335:1.1736184 342:1.9975098 353:3.0554085 354:0.51289082 359:0.72548854 360:2.6535945 365:2.8043623 367:1.6933335 378:4.4977541 379:3.3833966 382:0.38967791 385:1.2404883 387:3.0918467 388:0.3292293 391:1.0655673 400:0.51850849 410:0.12301371 412:0.48612911 416:0.99015963 425:0.6458149 432:0.3962929 460:0.79089963 463:3.8511925 472:0.476677 473:0.082018554 487:0.73279345 488:0.43106985 495:1.557627 498:1.7889252 499:1.3795062 500:1.6701965 515:0.1421295 517:0.87972707 520:1.5879335 526:3.8933096 529:1.3398545 535:0.62509155 545:0.15819676 549:2.6374471 562:0.085374296 567:5.6977324 570:0.95270431 576:0.45014304 577:1.4376649 578:1.2469485 583:3.595896 586:0.25352192 589:0.36133492 595:0.099748462 612:4.5526214 628:0.93792105 637:2.1109772 639:0.64342618 642:4.5101867 651:1.4773867 656:0.10289541 670:0.52144945 672:5.2590375 674:1.8961918 679:1.4482919 682:0.61410916 686:1.9178575 689:3.0910816 691:2.8172767 692:2.1178412 702:0.8533299 705:4.7638197 706:0.25279182 712:2.4884284 717:1.5805141 718:1.3636971 720:1.090975 721:2.0692048 722:2.7712815 723:0.73449039 724:2.8602753 737:0.57800573 749:0.33497661 751:1.7864721 758:0.33259422 765:0.24165833 771:1.6187997 776:0.20512325 777:1.3537333 782:1.1206591 794:4.3329649 798:4.9342265 799:2.0157471 804:1.6405969 812:4.4252448 820:0.83692074 823:0.49118689 839:1.7327614 841:0.73558289 842:1.7007937 848:2.5951576 851:0.75874221 853:1.9116381 857:0.21514517 860:0.17495525 865:1.2817788 866:6.3114748 868:3.8374431 874:0.70861208 876:2.5156496 882:0.93435222 887:0.36877808 895:4.3418236 902:1.0035601 908:2.736552 909:2.4235241 912:1.4734756 916:1.7507099 918:0.063798875 927:1.7193774 928:1.9268093 930:0.48689485 943:1.4659554 945:1.2174073 957:0.9091841 958:0.77202845 965:4.0492315 966:1.581647 975:1.6958487 976:1.1863838 985:1.301573 1001:0.48785329 1018:1.1134865 1024:3.641273 1034:0.47737142 1041:0.061171651 1043:1.9915721 1049:1.1806961 1064:3.8377149 1070:1.7377052 1071:3.6609938 1077:1.3140163 1092:1.9291767 1095:3.5225503 1096:6.9859662 1110:0.24184236 1117:1.1043169 1125:5.1504445 1126:0.6283778 1137:1.8421077 1138:1.9525983 1139:0.33444983 1154:0.35291266 1165:5.4630585 1170:5.2334065 1175:4.8482618 1180:2.1678026 1184:0.87966174 1199:1.0804663 1206:2.4270363 1214:0.85982072 1216:1.0264888 1217:0.82612067 1219:1.6008008 1220:0.62119573 1223:2.2883363 1226:3.6581507 1227:2.454483 1228:1.2254429 1234:0.14655666 1236:2.7469738 1242:0.64365906 1250:3.3116684 1259:0.21857196 1270:0.027310669 1274:2.1503932 1279:3.2810009 1286:5.090415 1292:2.5234179 1299:2.8149831 1306:0.52133358 1309:0.16181749 1310:0.81995964 1313:0.021720469 1317:2.090142 1329:0.38024408 1331:1.8270125 1333:0.11938137 1336:1.4288529 1340:0.57197875 1341:0.72289383 1366:2.6933148 1369:6.2914333 1377:0.034546316 1381:4.267714 1385:0.0302715 1391:0.10130037 1392:0.0036469861 1397:0.084033132 1406:3.3599012 1408:2.5861275 1410:5.1869254 1411:0.84434021 1412:2.514688 1419:2.2391384 1424:0.89356005 1431:0.15083882 1432:0.51455367 1444:5.8918147 1446:0.12769508 1456:1.0923088 1465:5.2206106 1468:3.4819489 1469:1.9899827 1470:2.2626119 1471:1.5815461 1476:7.9831967 1484:5.0039301 1485:0.54704642 1487:0.27480462 1488:0.9872067 1495:0.76914316 1513:4.1406779 1515:0.66028994 1520:0.53336865 1522:4.3400106 1523:3.1092985 1526:1.3615668 1534:0.00064957142 1540:4.0735908 1546:0.99981803 1556:2.6844583 1560:2.5526805 1562:4.6567664 1566:1.4924828 1576:0.70393598 1577:3.6568942 1586:3.1037006 1587:2.5198617 1590:1.3307288 1594:0.02710931 1597:0.44279724 1600:3.2504079 1604:2.7678864 1606:1.1487746 1610:1.1859016 1617:1.1145465 1618:3.0706069 1637:0.87566686 1647:4.5665841 1648:2.2444415 1654:1.4418968 1657:0.75611317 1661:8.5547009 1665:1.660694 1676:2.6089242 1677:2.647294 1678:2.9829075 1680:2.1684132 1690:2.1878831 1695:1.718803 1700:1.0993289 1710:0.85193098 1712:0.13658321 1713:0.14868999 1720:1.7224989 1724:1.1828358 1726:2.5507119 1730:3.461309 1732:0.93933946 1736:0.64761621 1737:1.559586 1740:0.12083834 1742:1.3230067 1750:0.93693107 1754:1.4677057 1756:0.091892265 1758:5.0359507 1762:4.2653117 1767:2.6654375 1774:5.8999276 1775:1.3989034 1777:1.0812805 1780:0.99483931 1790:6.3224854 1792:0.63674277 1795:1.440081 1803:1.3292929 1804:3.649195 1806:1.4922825 1807:0.49044567 1811:1.7616783 1812:1.3926365 1813:2.758579 1817:2.5485961 1824:0.41373137 1830:0.60903978 1832:2.9140155 1833:0.45508081 1842:3.5612803 1843:1.3658915 1844:1.8375838 1846:7.2114768 1848:2.9675357 1849:3.2815742 1850:0.24135756 1852:1.9746259 1855:1.7463254 1863:0.59849763 1868:1.9992355 1880:2.216327 1889:0.12116104 1890:0.39576861 1900:3.6986306 1901:4.509542 1911:4.0119853 1918:4.7286973 1927:0.037568063 1928:3.9208214 1938:2.9322994 1972:3.4402692 1974:5.0114765 2004:2.8129792 2009:4.9638805 2011:1.3355495 2012:2.7554369 2014:0.80261123 2030:0.60570246 2031:0.50983918 2038:0.30357447 2042:1.3439996 2047:0.12301242 2048:3.7426744 2049:1.9907924 2053:3.5226068 2058:1.6594779 2066:1.5073204 2070:2.169095 2075:0.75880414 2082:0.65522575 2085:1.0996088 2088:0.13746104 2097:1.9710453 2116:0.43037698 2117:3.5258427 2144:0.8693772 2153:1.2451538 2159:0.97848475 2163:0.097977787 2177:2.1504748 2187:5.4040322 2188:3.7288382 2189:0.95873606 2196:1.010502 2198:0.93845272 2199:3.3337295 2206:3.0051949 2214:0.75108629 2223:6.6670427 2226:2.4088247 2239:2.2522438 2241:0.82867962 2253:0.77220261 2267:1.3431705 2284:0.077840805 2286:2.0969436 2294:1.1929375 2300:0.83227235 2307:2.4496684 2312:0.3389377 2314:1.5926803 2317:2.5109675 2324:1.1230991 2329:0.88093019 2333:0.81947374 2337:0.82420993 2341:0.3674452 2343:1.9531033 2348:0.45455679 2369:1.3547006 2390:0.75093412 2393:3.779182 2399:1.7945054 2400:0.5174557 2404:0.4892886 2415:2.2743385 2417:2.376771 2418:1.2490723 2423:1.7801532 2431:0.040988535 2432:0.25614893 2434:0.1901907 2435:3.4171886 2436:0.11569929 2438:2.1028221 2443:0.41422671 2446:3.0905008 2457:0.35932955 2458:3.3133857 2459:2.1018457 2477:0.66708624 2486:0.1312474 2487:0.076099068 2504:0.037181586 2513:1.4856311 2514:0.32801095 2520:0.7619617 2521:0.65887398 2526:5.460258 2528:2.1410468 2537:0.15359262 2561:5.4875793 2563:3.8187363 2576:0.054969206 2577:4.341692 2589:0.33577591 2594:2.3795502 2595:0.43816534 2598:0.54721355 2600:1.4489412 2601:1.8445227 2610:5.8859615 2612:0.24698856 2621:0.26565751 2625:2.9261663 2634:2.8055706 2636:3.5101447 2637:0.54682624 2651:0.40432054 2656:2.1830556 2659:1.5618855 2664:0.31671077 2667:3.1875281 2674:0.86570328 2688:4.7002921 2689:0.19191247 2693:1.3944964 2699:0.068024039 2701:0.344017 2702:0.49353611 2704:3.2237523 2707:0.70350057 2715:4.6912546 2719:1.5231627 2720:1.2829227 2721:3.7029238 2723:0.36397028 2725:1.3898054 2732:1.3620555 2740:0.46739465 2743:1.8080254 2745:1.8198423 2765:3.6354961 2766:8.3946199 2771:2.4610345 2784:0.095703617 2786:2.239121 2788:0.92371464 2789:1.1983421 2790:0.8990593 2793:1.7730716 2805:5.2013259 2811:0.12952298 2814:3.6787798 2817:3.1086862 2821:3.5701807 2825:0.38403711 2834:1.375074 2835:2.5556889 2836:0.13173117 2842:1.3895491 2844:1.0473995 2845:0.02441743 2848:1.1825732 2857:1.1478833 2864:0.81708556 2865:1.4597445 2867:2.5579545 2870:1.9275397 2873:2.8393459 2878:2.7577133 2882:5.1510158 2894:1.6219966 2895:1.9533942 2910:4.6136642 2917:0.70115042 2919:0.57797331 2929:1.0792577 2930:0.51844496 2945:1.8723645 2950:3.6443067 2953:4.0025072 2957:1.0990705 2962:1.3365009 2977:1.2195703 2978:1.8472512 2985:0.18577215 2993:1.5949593 3010:4.3230019 3034:0.90473998 3035:0.46582904 3036:6.3873124 3048:1.8290476 3057:3.9983053 3065:3.4553649 3070:2.1026821 3075:0.54307634 3085:1.0118005 3089:1.2824717 3094:1.2138408 3105:3.7815711 3111:0.27172932 3116:6.1207409 3130:1.4660159 3144:6.8719678 3146:4.3531423 3151:0.90801615 3152:3.3165333 3155:0.66308981 3160:0.39794952 3162:1.2359059 3163:3.0158296 3179:1.842854 3182:2.0702477 3184:2.5841684 3194:1.6124409 3195:3.6429501 3196:0.26935422 3215:2.2494328 3233:0.39283732 3237:1.7930393 3242:0.39929777 3246:1.3243135 3247:3.55971 3253:0.97522795 3256:2.7890258 3258:0.77485812 3260:1.045894 3267:1.2133983 3275:2.099282 3278:1.865695 3284:0.13416743 3285:1.0695721 3286:0.31079653 3289:0.7019496 3294:3.6280413 3311:0.68779516 3321:0.85320348 3324:2.0638676 3331:1.3671269 3334:4.7893338 3335:4.133687 3344:1.2569215 3347:0.02615267 3348:1.0219629 3349:6.3452764 3351:0.14402258 3354:2.3143046 3356:1.9052932 3364:1.6865675 3365:2.283098 3367:0.55966401 3377:2.7221174 3378:1.137398 3381:0.69467998 3386:0.44527441 3396:1.8172805 3400:0.29926467 3401:2.5679426 3405:2.5098889 3413:2.3533239 3415:0.69069958 3436:0.043527722 3437:0.7230733 3441:1.3289241 3442:4.0507307 3443:1.0227699 3449:4.0034499 3451:0.040193081 3459:0.32735443 3467:3.0442472 3468:1.2083468 3475:1.1233541 3478:2.9140077 3482:2.2224345 3491:6.6658101 3494:1.8412896 3496:4.0046697 3497:2.09584 3504:0.38621056 3521:3.3720689 3525:2.4591074 3536:2.1257792 3537:3.0731976 3539:4.0868134 3548:1.0528666 3560:4.0885296 3568:5.2397132 3569:0.038604736 3580:1.853323 3582:2.3781571 3585:0.82591212 3586:2.3611112 3588:0.11946661 3589:0.59277028 3592:2.4151278 3593:0.27375007 3602:0.21923813 3604:4.6021132 3608:4.0047874 3621:3.2201586 3635:0.47321919 3636:5.0007772 3643:1.0082854 3644:2.4914558 3653:3.4182656 3667:3.4897206 3679:2.0467386 3690:3.1371005 3695:1.1814805 3697:0.024213642 3698:0.89947397 3709:0.27317142 3711:1.0761663 3715:2.0567863 3719:1.7748454 3732:2.0980515 3734:3.3498023 3735:0.52238286 3738:0.012856722 3746:0.65087277 3748:0.38865626 3749:2.0427825 3752:0.43573397 3755:1.5002474 3756:4.6268473 3777:0.14087605 3783:1.7978314 3793:2.7765183 3797:2.032032 3803:2.7123678 3807:0.55247909 3808:5.9138932 3810:0.82524109 3819:1.6028148 3822:1.123058 3824:2.5203726 3837:3.0545611 3852:1.2351131 3857:1.0737231 3871:0.40315419 3872:2.0204756 3877:3.08564 3891:0.95019543 3892:1.4194875 3893:1.4171557 3898:0.12412897 3903:0.51371777 3907:5.854064 3910:1.2773863 3911:0.28380173 3913:2.6001701 3914:1.2582023 3918:0.46487355 3929:0.15293702 3941:3.6966588 3945:0.48318309 3957:0.52548498 3966:2.1099527 3972:0.94227791 3981:2.5232334 3982:2.7587054 3986:0.099311799 3988:2.6609519 3990:2.8522024 3992:0.91556442 3997:2.089385 4002:0.38971943 4003:2.3879004 4004:0.57367647 4005:1.8771882 4010:6.5315242 4020:0.73004329 4021:0.43119702 4022:0.28960362 4033:1.2099248 4034:0.23251657 4036:3.0234342 4038:1.8563164 4051:0.62760973 4052:0.24582742 4057:0.51020312 4058:0.70153242 4063:0.52316189 4067:1.8296268 4070:1.5607607 4071:2.4560368 4072:1.5388105 4073:1.9536713 4074:3.0772619 4076:0.29019287 4077:0.19983292 4080:1.3013853 4084:1.9688821 4090:3.0799663 4091:2.057811 4096:1.5007181 
0.9263958694531231 9:0.80289906 15:3.870194 19:2.1132231 20:0.44124639 30:1.1979427 40:5.7478023 45:1.7422838 54:0.95197415 77:3.472676 84:1.6440196 88:2.4277351 107:4.9949274 112:0.39263782 125:6.0275121 138:0.29331622 145:1.983699 147:4.2683697 156:2.5580037 157:0.54844964 159:6.5656452 164:4.5223484 178:1.2460128 179:3.2019818 181:4.0438752 182:2.1301646 187:1.3439955 189:0.53985 191:1.0830512 196:3.7992096 199:1.7174221 200:8.1488543 209:1.140996 210:8.0412388 211:1.1145297 217:5.360868 221:5.091002 232:0.032862186 236:1.4851145 241:2.3909311 242:1.394572 247:7.5861392 248:0.16720334 252:6.782495 256:3.6732035 267:2.8265548 274:0.570521 284:1.4323386 292:0.49405354 295:1.8997409 297:1.2348483 300:2.8805628 312:3.2201424 315:4.8083715 319:1.2766936 321:0.19271362 324:8.6737366 342:0.16773024 353:1.4790269 354:1.3972609 359:0.84006894 365:1.3254449 367:3.6294601 375:0.19118255 378:1.8523326 379:3.9856367 384:2.0829883 385:3.3522315 386:1.4936736 388:0.59904134 391:1.0567324 396:0.28448969 399:0.76796943 400:1.9995956 401:2.5867145 410:0.12313285 425:0.24277157 431:0.039400496 454:0.49706531 460:2.8398237 463:2.3133087 469:0.67426479 472:6.3472505 473:0.34090522 481:1.4993682 488:2.5253348 495:0.89154005 498:0.59023368 500:0.21466225 517:1.5907804 520:3.4482675 524:0.36648268 526:2.2515843 528:0.13825448 535:4.0807219 538:0.36278528 545:3.84235 546:1.0741892 549:3.4290636 557:0.16413921 567:3.6646919 576:2.6583762 577:2.2932346 578:0.76122749 589:0.29963917 592:1.2678181 595:1.5271344 602:0.51715207 609:0.64107716 612:5.2114663 614:2.7461023 642:2.2096918 651:1.504127 656:0.88743079 664:3.150269 672:4.5633655 674:0.30985087 675:0.70102787 681:1.1849699 682:1.2746708 687:1.1803786 691:5.4773617 692:2.3355715 696:0.84768879 701:0.10594908 702:1.433037 705:1.3247576 706:0.14964062 712:0.68861407 717:0.71213675 721:5.0943904 722:6.2822733 723:1.3307667 724:0.46764225 748:0.14619181 751:0.50189233 758:0.190007 766:3.7547872 777:6.2198739 782:2.2238898 785:0.82392079 794:3.3501945 798:6.9709854 799:3.9746242 812:6.769845 830:2.425998 841:1.975065 848:0.76750588 851:0.88995343 865:1.0689442 866:4.9085798 868:3.0062602 874:0.71903974 876:1.23602 878:1.9525006 894:3.1345258 895:1.4685283 896:0.47966397 902:2.9567938 908:0.23131117 912:1.5476239 916:1.5833045 918:1.4331126 919:0.42582855 928:0.17819077 930:1.5658883 951:0.37364838 957:1.9036963 965:5.6041317 966:2.4545279 967:1.1853487 974:2.8458667 975:0.91003954 985:0.20840088 994:0.73637003 999:0.13100129 1001:0.24268267 1008:0.04815042 1018:3.0880837 1023:0.3444097 1024:7.5872808 1034:0.85646099 1039:0.20583571 1049:0.24491704 1051:0.040615141 1064:5.6197987 1070:5.0063219 1071:4.0845761 1077:0.48422465 1092:2.4595432 1095:2.2300699 1096:8.8493176 1125:6.1964264 1139:1.1849465 1154:0.013488047 1155:0.53299606 1165:3.3001602 1170:1.583119 1174:0.87581748 1175:4.3415971 1180:1.7028017 1184:2.9491618 1193:0.96241355 1195:2.5640941 1199:0.19907029 1206:4.0266871 1208:0.74799669 1214:0.44799218 1220:0.13375573 1223:3.383909 1226:4.5641527 1227:3.4689207 1228:0.092925966 1236:0.021615297 1237:1.0833076 1242:2.6358061 1250:6.4800158 1251:0.23060215 1270:0.2317574 1278:3.4748423 1279:2.6068499 1281:0.074886486 1284:2.7143714 1286:9.0739546 1291:0.44110382 1292:2.2248895 1299:0.34729025 1310:2.9420905 1317:5.2875872 1318:0.23962611 1331:1.4485886 1333:0.45393217 1336:2.6982746 1340:1.9020597 1341:2.3165104 1344:1.9634722 1347:1.6141207 1366:2.9850733 1369:9.8464804 1377:0.33801365 1381:6.0015416 1385:0.74190223 1389:0.69756067 1402:0.35173348 1406:2.7618251 1408:4.4168644 1410:6.1922741 1414:0.32205886 1426:1.9632444 1439:0.51425922 1441:0.73978531 1444:5.4806209 1446:1.7431753 1465:4.4846826 1467:0.55995995 1469:0.32981554 1476:10.555825 1477:0.028012067 1484:10.104643 1485:0.84768665 1487:0.42301539 1488:5.5190172 1489:1.4760867 1496:0.70988226 1498:1.8318918 1502:0.53075963 1515:0.6238988 1516:0.14832354 1522:4.8733616 1523:3.2716148 1526:1.0976763 1528:0.47453064 1534:0.24372888 1541:1.256566 1546:1.1630614 1556:1.6267997 1560:2.2376416 1562:4.9703379 1566:2.1479764 1567:3.1369474 1569:0.1924625 1577:6.9081359 1586:6.7212505 1587:2.6721139 1588:1.1114472 1597:0.87928414 1600:7.4562726 1604:2.1097281 1610:0.69724065 1618:1.65799 1620:0.40530938 1624:0.67161238 1647:4.8974762 1648:2.2279618 1654:3.9169579 1659:0.041910335 1661:11.270107 1663:0.81193876 1676:1.770496 1677:1.4689608 1678:2.3922615 1680:0.90085161 1683:2.0453124 1690:1.9974867 1691:1.6517401 1694:2.615077 1700:3.0831215 1701:0.098472238 1707:0.95476145 1711:0.33421209 1713:0.68253011 1720:1.4090757 1726:0.73213565 1730:3.2703073 1731:0.50957656 1732:0.85177505 1736:1.8344499 1737:4.3035526 1746:2.7895365 1754:0.60548079 1756:2.3102472 1758:2.318244 1761:2.2425172 1762:5.9841003 1767:1.4461981 1774:6.5242367 1775:2.704282 1790:3.0799432 1795:3.3785601 1803:1.0700362 1804:0.24402577 1806:6.6668811 1807:1.8666854 1812:2.6749332 1813:6.2492185 1817:1.3167747 1820:0.416641 1831:0.31109911 1832:3.3660314 1840:0.27024338 1842:7.6103406 1843:3.1274245 1844:3.531383 1846:6.4087625 1848:1.0382684 1849:6.2225275 1852:0.29017532 1868:0.15626079 1877:0.73772025 1880:1.7163112 1889:0.54078722 1890:0.67826355 1895:0.22835219 1897:0.99661821 1898:2.3997355 1900:4.0323353 1901:3.5860388 1905:1.2182891 1908:1.2287784 1911:5.9635653 1918:3.128078 1928:6.4728518 1938:4.6089659 1960:0.7015813 1963:2.2029564 1964:0.065654889 1966:1.1733977 1972:6.5750484 2004:2.5744131 2009:7.5788741 2011:1.3580912 2012:1.1876255 2028:0.58582813 2035:1.0042377 2038:1.1261109 2042:1.6669854 2048:1.8019831 2049:0.9504512 2053:4.3819194 2057:0.76384461 2066:5.9707131 2070:4.0639987 2082:1.0795803 2085:1.0807714 2097:1.7594513 2101:0.94897592 2112:0.16735238 2116:0.779338 2117:6.4814105 2119:0.62293005 2128:0.64163059 2144:1.3321121 2153:1.2127969 2187:7.4643345 2188:3.7525051 2189:0.65271091 2199:3.8570957 2200:0.15274364 2223:3.2194965 2226:1.7884547 2239:1.7499834 2243:0.8438189 2250:1.6275995 2253:2.5011163 2257:0.38247034 2267:4.2634125 2271:1.1032131 2273:0.35081649 2286:1.9951671 2294:0.62948525 2307:2.2015963 2312:2.1888909 2314:1.3814813 2317:2.5405152 2318:1.7787085 2333:4.0135779 2337:0.71944964 2338:0.41922033 2341:3.3075202 2343:1.7854621 2344:0.41710299 2360:0.29774341 2369:0.06542775 2390:1.5689746 2392:0.12061874 2393:4.314177 2399:0.87304866 2400:1.1922753 2404:0.78224885 2417:1.7546438 2423:1.8911772 2424:2.6834817 2435:3.5590022 2446:2.7988024 2457:2.6782756 2458:0.81208229 2459:0.77890527 2460:0.014192097 2463:0.36732233 2470:0.51270974 2477:0.54103553 2485:0.88165784 2486:0.58096397 2487:0.0025322735 2509:4.2402105 2518:0.93431592 2519:2.2109971 2520:1.1929029 2521:2.4655597 2526:2.6339622 2530:1.8145583 2551:0.51937181 2552:0.1492672 2553:2.5056019 2561:6.9306493 2563:1.6332722 2574:1.403511 2576:0.13654886 2577:7.8721356 2589:1.2318978 2591:3.2562013 2594:1.3091829 2603:0.018357098 2604:0.88227212 2610:6.0922194 2612:2.6611955 2621:2.4062512 2634:2.393759 2636:0.47809258 2637:2.6878192 2642:1.1327041 2649:1.7061522 2656:0.4931058 2659:3.7153904 2664:0.88480014 2667:4.7083869 2670:0.17668745 2688:1.9562125 2691:0.58983058 2695:1.7366123 2699:0.79118979 2701:0.31464773 2704:1.1332148 2715:2.399322 2718:1.4889929 2719:4.4760785 2721:3.7585213 2725:2.6083357 2726:1.8171737 2745:1.9083495 2758:0.3681798 2763:1.2466925 2765:4.2914333 2766:4.1645355 2771:5.2395625 2777:2.7467616 2784:1.4864089 2786:1.1510184 2787:1.8164984 2788:0.63903069 2790:1.7241095 2791:0.77537084 2793:6.061687 2805:5.4203625 2812:0.87283432 2814:4.977345 2817:3.282877 2821:3.0886033 2834:5.621367 2845:0.81007588 2857:3.2110775 2864:1.3154649 2867:0.087230831 2870:6.9448433 2873:2.0188301 2874:0.34742749 2878:1.3144017 2882:6.2353039 2887:0.28847149 2888:1.1795419 2894:3.5404463 2896:3.0923543 2903:2.9266372 2909:0.24830481 2910:5.1554632 2916:4.8209291 2919:2.2704871 2923:0.29251671 2926:0.70277411 2927:0.1133962 2937:2.9573922 2944:0.20175496 2945:1.9739704 2949:2.9412169 2950:1.9491158 2953:2.5602975 2957:2.9418814 2966:1.1015068 2971:1.1145904 2977:2.1128559 2978:0.90307844 2993:2.2083633 2994:0.62157798 3000:0.78623509 3010:4.0272241 3035:1.9158301 3036:5.299593 3048:3.1460738 3057:3.3513684 3065:2.9654071 3072:1.4129206 3085:1.6033469 3094:0.77877903 3105:9.6909504 3116:9.3895435 3119:0.43586361 3144:4.3559017 3146:2.7279305 3150:0.66338122 3151:5.3784051 3152:1.9371836 3155:0.063425422 3160:0.62844092 3163:0.67019117 3179:1.5266399 3183:0.34520429 3184:6.6621275 3195:1.0959194 3196:0.40502137 3215:1.1843077 3216:0.97485077 3228:1.0168543 3235:2.8558464 3241:2.7703502 3242:2.359067 3246:3.6434925 3247:1.6469439 3249:1.0441977 3251:1.1748657 3255:0.31914312 3256:2.2969546 3257:0.012504398 3260:2.7127609 3268:4.1202774 3269:1.0411344 3275:2.6917155 3278:0.40088251 3284:2.2656775 3286:3.0554552 3294:3.1542988 3321:2.5677617 3324:4.5416284 3331:1.5972412 3334:2.7801745 3335:6.4427419 3348:0.46479368 3349:8.8128853 3351:0.80499774 3356:1.6903698 3377:2.3771131 3387:0.16709302 3401:4.4093585 3405:1.5271914 3413:1.3610758 3415:5.1569071 3431:0.80808234 3436:0.26051539 3441:1.5989736 3442:0.35789913 3443:2.2490342 3449:4.877223 3451:1.1541519 3452:1.9588557 3467:3.775702 3468:1.7795982 3478:4.7725997 3482:2.9159896 3491:5.9933467 3493:1.9537222 3494:0.45939827 3496:2.7529452 3497:2.7600038 3509:1.8519502 3521:2.4243462 3527:1.7029672 3529:0.89356071 3536:3.0436521 3537:1.4517957 3539:7.1980247 3540:1.4783 3548:0.50373763 3551:0.21601342 3560:5.7814035 3568:3.9862561 3572:0.20005248 3576:1.6876484 3580:0.24612585 3582:2.4786036 3585:3.6772339 3586:1.8944833 3589:1.1782267 3592:4.8566594 3593:0.26859701 3599:0.4309721 3604:3.4479139 3606:0.75270867 3608:1.7443737 3621:0.75880855 3626:0.29954827 3627:0.44080809 3631:0.8338303 3632:0.25750342 3635:0.76295817 3636:4.4551392 3644:0.16253881 3653:2.2661221 3667:3.9174769 3679:7.6603241 3682:1.6960431 3686:0.073012799 3690:3.1130166 3695:0.12451354 3698:3.4079471 3699:1.0412921 3709:0.79244071 3711:2.5389838 3719:4.0798645 3720:0.67209315 3732:3.6586671 3734:1.9660379 3749:1.3928871 3755:0.50511694 3756:4.9698782 3776:1.1666583 3779:0.0092945099 3793:1.6130664 3797:1.3788086 3808:5.9168787 3818:1.3383607 3822:1.2377717 3824:1.3598611 3826:0.14009139 3837:3.1534743 3844:0.11103128 3847:0.093731984 3849:0.1517441 3852:2.4867914 3857:0.54164237 3864:0.93952 3872:1.2146087 3877:2.2569013 3891:8.4744892 3907:4.0236721 3911:2.7358632 3913:2.8708832 3914:0.43564561 3915:1.6209656 3923:6.668026 3929:3.6820073 3938:3.3780575 3941:2.5127809 3957:0.98263758 3966:3.062922 3972:0.47802231 3982:0.59160525 3984:1.5417706 3986:1.3197972 3988:0.18870679 3990:1.7886401 3997:0.35674384 4000:1.2507702 4002:0.53786486 4003:1.5853597 4005:3.0440314 4010:2.9430611 4022:1.7703453 4033:2.9317474 4036:1.5390291 4038:3.4646664 4041:0.99739558 4058:2.1359572 4067:1.7665112 4068:0.96629125 4071:5.7830572 4072:0.53946185 4074:2.9361184 4080:0.02869162 4084:1.3075398 4090:0.77421939 4091:2.2093401 4096:1.6732531 
1 9:0.98261464 11:0.37898138 15:1.8122362 16:0.89421362 19:0.63578236 20:1.4156395 30:1.8858433 40:2.1183698 47:0.13326079 54:1.6761434 69:1.3808398 77:1.9230528 84:1.4594009 88:0.44697082 103:0.11751705 107:0.12940481 112:0.74690765 125:4.4376574 131:0.10308713 138:0.33784693 143:1.6204221 145:5.5214486 147:2.8238358 150:1.2803618 156:1.9560306 157:1.3448623 159:5.6303988 164:1.7496618 167:0.16026324 170:0.13652033 171:3.2231202 176:0.82664967 178:0.69198436 180:0.3652207 181:0.67688221 182:1.6720707 184:0.98257971 189:0.38198808 190:0.97028983 196:1.6599714 199:0.050109923 200:4.4303093 210:6.3929324 211:2.1809566 214:1.5609066 217:5.5769033 218:2.0360956 221:1.3697287 222:1.1454535 236:1.1182113 241:3.7745357 247:3.7839646 252:4.793952 255:0.43000379 256:2.1675091 258:1.881232 261:0.29286391 265:0.089655966 267:4.6854596 274:1.459069 283:0.21403974 295:0.94400084 297:1.6518806 299:2.0748322 312:3.5312443 315:3.0233209 318:2.4359982 323:0.34987849 324:5.1080837 333:0.57430083 335:1.2108481 340:1.1588644 342:1.0075542 344:0.074186057 350:0.27695882 353:3.1380613 354:0.7265352 360:2.4207613 365:2.540766 367:0.54662597 378:1.3836272 379:2.1180966 384:0.0813604 385:1.7270534 387:0.14597809 388:1.2596326 391:2.2706757 401:1.4407489 420:1.6089563 434:0.68286765 445:0.01815775 454:0.3701306 460:3.3572557 462:0.63294518 463:4.3124814 466:1.6268988 469:0.86478233 473:0.12050164 481:2.2284708 484:1.1233264 500:1.8153272 505:0.19365174 515:0.25200993 517:0.40936485 518:2.2090204 520:0.03931433 524:0.30186939 526:2.7144489 529:2.0315616 532:0.34155861 545:2.8314893 549:1.8268945 555:0.81214982 557:0.65968329 559:1.4994867 567:3.6014555 570:1.9585676 578:3.426626 580:0.37910584 583:2.1254601 593:0.94439942 601:1.2509245 609:3.4266579 612:3.2937331 624:0.13196871 635:0.18012691 637:0.33014634 642:3.1059101 651:2.509294 653:1.9473838 660:1.6532657 664:2.2926278 670:1.1629207 672:2.4400108 675:0.7137984 679:2.9956601 681:0.39024803 682:1.5734909 684:0.38624218 686:1.4195684 689:0.20798677 691:2.3101664 692:1.1374714 701:1.2443436 703:0.11702937 705:5.9243584 706:1.9058063 712:2.0461738 720:0.10526171 721:2.1210942 722:3.0552576 723:0.89518064 730:2.7916834 749:0.35021242 765:0.47665828 766:2.1994972 775:1.4327121 776:1.6810884 777:5.5364528 782:2.8373046 794:4.2585888 798:2.350385 799:0.78511286 812:4.8467031 817:0.036924127 823:1.6077334 838:0.2721329 839:1.6383123 841:1.1804223 842:1.5547168 848:1.0472153 851:1.2428663 853:2.2660491 857:1.3272136 860:0.15004131 866:2.9826396 868:2.4490232 874:0.33131671 876:1.6657195 878:0.96385121 889:1.8341154 895:1.5302944 902:1.1385934 909:1.1496575 910:0.11493802 912:0.22919619 916:1.1323811 922:1.9244723 927:2.2682672 928:0.64792323 931:0.57036102 942:0.29908532 945:1.7700627 947:0.051942945 952:0.90034711 957:3.3576956 958:2.5409369 965:4.0446825 966:1.0749893 974:1.9339378 975:1.4861385 976:2.406539 985:0.50329196 999:0.29965693 1001:1.46813 1014:2.0053539 1019:0.62685782 1023:0.39808422 1024:1.8395 1026:0.25272149 1039:0.25764477 1051:0.273076 1064:0.31487557 1071:4.1972327 1073:2.3095829 1074:0.26549304 1077:1.2468181 1078:1.9075168 1080:1.6143994 1092:1.5671948 1095:3.3826776 1096:4.1722836 1111:2.2129152 1124:0.28877267 1125:3.2533219 1126:0.52732861 1137:1.0844684 1138:0.92565584 1144:0.26105571 1155:1.4625565 1163:0.22887865 1165:5.9399028 1168:2.8581047 1170:1.6520892 1174:1.0278273 1175:1.8550307 1180:2.1409953 1183:0.2691142 1189:2.3888023 1192:1.3404447 1194:0.3787314 1199:2.3864222 1206:0.91387641 1208:0.89512414 1214:0.44980255 1217:0.9362011 1223:1.7798102 1224:0.25747317 1226:4.866539 1227:1.6805698 1234:0.10398696 1236:1.7050385 1240:0.064358346 1250:4.6155128 1251:1.5874226 1253:0.5154925 1261:1.3526766 1264:1.8630068 1269:1.2474403 1270:0.56151807 1278:2.6312366 1279:1.0183704 1286:5.8991351 1292:0.30246428 1293:0.10417107 1299:0.88720345 1306:0.58209032 1309:0.78331739 1313:2.8770647 1325:0.81877214 1329:0.28059846 1331:0.48146349 1336:2.7562501 1340:2.4884248 1361:2.111227 1368:0.088045001 1369:2.9219446 1377:1.494483 1378:0.16785024 1381:2.5411954 1383:0.88712025 1385:0.069099486 1393:1.6981078 1394:0.60234708 1395:1.337842 1406:3.7497275 1408:1.8411529 1410:0.42309198 1412:4.8873529 1414:0.37313873 1419:0.30990309 1421:0.93336022 1432:0.35611126 1444:2.1397097 1446:1.4949934 1456:1.4180894 1460:0.2719354 1464:0.76151836 1465:2.1951032 1468:0.11131176 1469:1.9859599 1470:1.0440869 1471:3.4886148 1475:0.6217792 1476:6.622838 1483:0.013072252 1484:4.2236929 1487:1.3387614 1504:0.057986423 1506:1.004426 1510:1.7106802 1511:1.5511093 1513:1.5597868 1515:2.8691065 1520:0.29817379 1522:1.6023782 1523:1.7073636 1526:1.4940965 1528:3.3582625 1540:1.6209329 1541:2.6902533 1544:0.059722841 1546:0.057014167 1556:3.1645432 1560:2.0933056 1562:3.2720823 1566:0.45987576 1567:0.98592955 1569:0.12202266 1573:0.21966496 1576:0.57640612 1577:1.3733906 1586:4.4626245 1587:2.6858988 1588:4.1212773 1597:1.3514056 1600:3.5109158 1604:4.6418891 1610:1.8097749 1613:1.3064494 1617:2.1389165 1618:1.6095743 1624:2.3510208 1625:1.4634112 1637:1.872368 1647:1.4517354 1648:1.4102885 1661:4.8359094 1663:1.9607843 1665:0.95424461 1676:1.3335322 1678:0.98385704 1680:0.25412494 1690:3.8105764 1691:1.5398401 1695:2.6955752 1696:0.36734098 1697:1.2948971 1700:0.24073079 1704:0.055621713 1705:3.8016171 1707:0.1494085 1710:0.065390371 1718:1.4224359 1720:2.0896242 1726:1.8982975 1730:2.0645702 1732:1.7801948 1737:3.1904402 1742:1.0082097 1744:1.2097088 1746:1.2050653 1752:0.3538481 1754:3.8633945 1756:1.0335104 1758:2.2484577 1761:1.302042 1762:7.1302328 1774:1.6233969 1775:0.84658194 1777:0.07612893 1778:1.1485789 1780:0.6289736 1790:5.3475747 1794:2.2143569 1795:0.18811938 1803:2.5684309 1804:0.40927657 1806:3.257092 1811:1.8345003 1812:2.3282342 1813:3.9291396 1817:1.4968573 1822:2.4948671 1824:0.78757334 1825:0.18604571 1830:0.99352264 1832:2.5218546 1842:4.6869922 1846:4.7761502 1848:2.0395479 1849:4.5028758 1851:0.042140961 1855:0.058039188 1856:0.79381758 1868:0.91690958 1880:0.90244401 1889:4.1971149 1890:0.49193001 1898:1.3145281 1900:2.4542987 1901:4.4148097 1908:0.05730398 1911:3.3043811 1918:2.1732261 1923:1.0591524 1927:0.33120814 1928:1.8887994 1938:2.6264086 1940:0.35591364 1966:0.3525686 1972:5.3635736 1974:1.2001801 1986:0.4865703 1993:0.78964239 2004:1.9054214 2011:1.3295324 2012:1.3747417 2031:0.62652135 2042:1.715471 2047:0.088855684 2048:4.1856613 2049:1.2573928 2053:3.7634282 2058:0.93290484 2066:1.9683319 2070:4.2801461 2075:1.7314633 2082:1.0787307 2088:1.261086 2100:1.9807949 2102:2.1146107 2107:2.011292 2116:1.8185046 2117:2.0089426 2135:0.03084439 2144:2.5102217 2155:0.055553436 2160:2.2261469 2177:1.4139924 2186:1.8155578 2187:2.2946491 2188:2.0998147 2189:1.6023479 2196:2.4163489 2199:1.9126542 2202:0.16938725 2206:0.5472635 2214:1.3131449 2223:5.4057727 2224:0.21960667 2226:1.7646788 2231:0.14499682 2239:3.0650055 2241:0.69871253 2254:0.42671034 2267:4.3065681 2273:1.26135 2274:1.4218971 2280:1.350238 2286:3.5540953 2294:0.24617681 2307:2.0135293 2312:0.98041689 2314:0.47874942 2317:2.6369472 2318:0.00023800135 2320:0.87551284 2331:1.2448475 2337:3.1011522 2340:0.82147014 2348:0.040367156 2355:0.420692 2357:0.64690679 2360:3.1581292 2362:0.674631 2369:0.46928117 2381:0.85970855 2386:0.57113707 2390:0.72791731 2392:1.0116649 2393:2.7454271 2399:1.6746527 2405:3.2483337 2408:0.54528165 2415:1.8251526 2417:4.2561131 2418:1.4675775 2424:0.98632026 2428:1.1044658 2431:0.099942058 2432:3.4528022 2434:0.48191324 2435:2.4868522 2446:3.2030003 2452:2.1120071 2458:2.1873193 2459:1.1506298 2460:0.7787528 2463:0.8645494 2485:0.36632094 2486:0.78391731 2488:1.7405714 2496:0.78108579 2513:3.7598069 2518:0.84835076 2520:1.7794484 2526:3.83849 2528:1.2355655 2532:1.2406979 2533:0.30060267 2539:0.39482075 2545:1.1364108 2561:1.0011202 2563:1.8869665 2568:1.1791081 2574:0.95970893 2576:1.7646807 2577:1.4939547 2586:1.8652003 2589:1.6967785 2591:4.0561404 2594:1.9003887 2599:1.4796395 2603:0.41406971 2610:3.6587651 2612:0.17237481 2614:2.150326 2621:2.1448171 2625:1.2289884 2626:0.61686653 2634:2.1580703 2636:0.72916329 2637:2.6585803 2645:0.94352841 2656:0.7797848 2659:2.6019001 2667:3.5528336 2669:0.13525237 2672:2.1971977 2674:0.43055347 2687:3.7681146 2688:2.7858498 2689:0.84269667 2691:0.95433027 2693:2.4261086 2695:0.41021159 2699:0.6631403 2701:0.58781517 2704:1.0979998 2707:0.58737314 2708:0.7007556 2715:2.6071203 2719:3.1005571 2725:2.6379328 2732:1.0463456 2740:0.94189447 2743:0.8974731 2745:0.60310084 2750:0.57900226 2752:1.0105613 2758:0.69922078 2761:0.5903163 2765:3.8296766 2766:5.9047003 2771:1.6721237 2777:2.0258319 2784:0.090009198 2786:0.13323927 2787:0.062875062 2790:2.7751503 2792:0.015043549 2793:2.7795873 2802:0.80735475 2805:2.9457567 2809:0.59454525 2812:1.3589226 2814:3.1021221 2817:3.638144 2821:1.7128601 2828:0.15723215 2834:3.9960003 2835:2.9634948 2837:0.11952949 2842:1.1820264 2845:0.047669888 2848:1.6097659 2856:0.040307909 2857:0.88145667 2864:0.38539949 2865:1.8128865 2867:2.9403572 2870:2.0498631 2873:3.174289 2882:2.5925245 2894:0.91446853 2896:1.4553117 2898:0.098672867 2910:2.3404057 2913:1.3361386 2916:0.85678989 2919:2.1511333 2927:0.85881531 2929:1.0807235 2930:0.92455131 2937:1.4679494 2938:1.367275 2944:0.86063832 2945:1.1660806 2949:1.5142263 2950:1.2272373 2953:0.27171922 2957:5.1028857 2962:1.2579501 2971:0.43388784 2978:1.6340945 2991:0.32114244 2993:1.6862328 2997:0.37632981 3001:1.754004 3010:2.3932352 3028:0.048375204 3034:2.5690351 3035:1.5995052 3036:5.9460754 3048:1.1705256 3052:0.087347955 3057:1.124769 3065:2.4434416 3066:0.049259149 3085:0.71814501 3089:1.155643 3094:4.5737438 3105:5.5216947 3116:4.6562223 3129:0.81271595 3144:4.191937 3146:2.1588426 3151:2.1176748 3152:2.7262437 3155:1.7089134 3159:0.55975211 3160:3.5697048 3162:0.42483467 3163:2.295068 3182:0.82295257 3184:0.79443949 3194:0.84534377 3195:3.5958095 3198:1.9324715 3199:1.3959984 3215:0.92928994 3233:1.115577 3245:0.20536345 3246:0.19718036 3247:0.63255721 3249:1.1083856 3253:1.7379072 3256:1.6009957 3267:1.3074183 3275:2.3140016 3278:1.0750381 3282:2.0521827 3285:2.1420991 3286:1.2597461 3293:0.36007974 3294:2.8753026 3321:3.9228971 3324:2.0831819 3331:0.64830959 3334:4.8739605 3335:3.2371485 3344:1.9216741 3347:0.14835405 3349:8.1960125 3354:1.3550839 3356:0.48755381 3367:0.16571669 3377:2.27177 3378:1.7153347 3381:0.6863659 3386:0.029584587 3387:1.1781071 3388:0.15397052 3390:0.25526348 3396:0.66179401 3400:0.19184661 3401:3.7700107 3405:0.78027219 3413:0.099501647 3415:2.8929296 3428:0.68155807 3431:2.0665514 3437:1.7649562 3438:1.2883908 3442:1.7793522 3443:0.39184436 3445:0.70081913 3447:2.4048321 3449:4.0734048 3452:1.3445184 3460:1.0860699 3467:2.8483887 3476:1.9797485 3478:3.8872154 3491:2.7917559 3493:1.1320446 3494:0.4076032 3496:3.6146843 3497:0.091096401 3504:1.3022096 3509:0.91623902 3521:0.93726933 3525:1.454037 3527:0.29172254 3536:0.62642467 3537:2.6673412 3539:3.9656336 3548:0.73106885 3560:3.3102446 3564:0.017828077 3568:3.3028805 3576:0.35331142 3580:0.36127001 3586:3.3104386 3588:1.3147893 3591:0.75696558 3592:1.5152652 3602:0.73168868 3604:4.6544709 3607:0.43394357 3608:2.3793373 3615:0.22484139 3617:0.71533459 3621:1.1677786 3627:1.6782974 3629:0.21776247 3636:1.683091 3643:2.2607961 3644:4.1274323 3653:0.82269758 3665:1.1458142 3667:3.4292686 3670:0.35679448 3679:3.2444715 3690:1.862808 3692:1.0552421 3699:1.1780001 3703:1.6192932 3704:0.23844159 3705:0.18010002 3711:1.4385303 3715:0.74615026 3719:2.5753729 3727:1.2692983 3732:1.3946522 3734:3.6417701 3738:0.11919123 3753:0.98614913 3756:4.2729177 3777:0.01282233 3789:0.26909134 3793:5.3175044 3808:4.5816665 3810:0.75110364 3812:0.13677913 3819:1.8895665 3824:4.388063 3826:1.0673771 3836:0.49930871 3837:1.351814 3848:2.333519 3852:0.25167137 3872:1.9535474 3877:1.77714 3882:0.71182197 3889:0.72810465 3891:0.70381439 3892:1.4073712 3893:2.9187367 3901:1.2077452 3907:3.8021913 3910:0.37318385 3911:2.1850991 3913:3.0693121 3915:2.3523529 3929:0.61156273 3933:0.47204283 3941:1.824576 3945:0.10200523 3955:0.61055338 3957:2.621803 3964:0.67680365 3966:0.70661426 3972:0.46601757 3978:1.2892945 3980:0.55183023 3981:1.160877 3982:1.4481868 3984:1.7402308 3986:0.78227526 3988:2.0418122 3990:0.34471887 3992:0.34392738 3997:0.90836859 4000:1.0389693 4002:2.3084676 4003:2.5373085 4005:1.487667 4007:0.56137967 4010:4.7047434 4021:1.6175967 4022:1.1176571 4033:0.98407608 4034:2.0698488 4036:1.5020456 4041:1.1804051 4050:1.3722398 4057:0.26486507 4059:0.84628159 4063:2.2437696 4067:0.5453639 4068:0.74825436 4070:0.92602873 4072:0.25293392 4073:1.1454659 4074:2.3519039 4079:0.40322781 4084:0.27533019 4085:0.022993624 4090:0.54134578 4091:1.3649188 4096:0.4159129 
1 5:0.14812481 9:2.7842495 19:0.91522205 21:0.91736168 27:5.1641045 29:0.7513653 34:2.4462581 38:1.090416 39:0.38090456 45:0.15611979 54:0.22966921 60:1.3841193 68:4.493382 69:2.4692607 77:1.7659016 78:1.1173766 84:1.2220718 90:0.78754622 115:1.3017017 140:0.44765434 141:0.14219703 147:4.1347384 154:0.47964805 161:0.30251011 163:3.9375997 172:3.0267274 173:0.7829777 174:1.881845 180:1.8683375 184:0.44973907 190:3.3279614 210:3.8277278 217:1.4092705 218:3.6265683 232:2.5926516 238:1.0122651 239:0.12272534 258:0.025102317 259:1.0140276 263:0.50083637 265:2.4505999 267:0.44952691 276:1.1564996 283:0.24278958 288:1.6790023 297:0.59901696 299:2.0547049 302:0.74287748 308:0.89912653 312:4.5459232 318:1.9790931 320:1.3454072 349:2.6292772 353:2.0443089 365:0.16520154 378:1.3869565 382:1.0651459 390:2.27005 391:0.27808335 394:1.6609371 396:0.062001646 397:0.053288639 412:2.933943 420:1.7862492 432:4.0671802 436:4.5410752 442:2.1121664 450:2.0911639 454:1.5201905 460:2.2680023 463:0.26476422 473:2.1893353 481:1.4920229 482:1.0451336 483:1.1495254 484:2.4200137 485:1.2832973 487:0.1286259 489:0.47921461 511:1.5634716 514:0.68453079 515:2.2677765 517:0.56925386 521:1.9761147 527:3.6943984 529:0.1431303 547:1.4111395 552:0.82979661 555:0.72824013 570:0.83740628 572:4.0577464 575:1.32938 578:1.5609672 592:1.9034481 601:1.2277069 605:0.8883543 609:0.26091853 611:0.74498343 612:2.028517 618:0.56834656 635:2.5319862 641:0.9640972 642:3.4807069 647:1.454366 653:2.3064685 654:0.096978858 657:3.0644469 662:0.89864254 664:5.1459198 671:1.8355006 672:1.1339109 675:2.6589961 682:5.5020113 684:0.34413627 689:1.9142537 702:0.33749908 703:0.60347569 705:6.6337767 706:3.6074843 711:2.3750117 718:0.75203598 720:3.5016036 723:3.5365143 724:3.0969281 726:0.72720861 735:1.2656522 738:1.8421749 748:0.80681723 749:4.0490069 750:0.13416129 751:2.8083751 755:4.9503393 764:2.7762241 766:5.375041 771:1.6658551 773:1.5306778 777:2.5781763 782:0.71517986 788:1.0275725 795:0.54252517 796:2.4543548 809:0.062130421 812:0.95716006 820:2.9008126 823:0.75642467 826:0.28768498 839:3.3240552 841:2.9288263 842:1.3768828 849:0.94023907 855:0.045718402 857:0.45492503 863:1.954159 865:1.6544605 866:1.329751 868:2.7435462 869:0.32846093 876:0.2015322 877:0.11829448 878:0.11275274 889:1.5359468 899:1.9432069 902:1.6510999 905:0.27456519 909:1.1672839 916:0.69790643 918:3.7695916 921:1.2510517 928:1.1283569 937:1.0840588 943:1.5182976 944:3.0484505 945:2.0047617 947:1.4310392 958:1.4038675 961:1.4384515 963:0.95415527 965:0.96386671 966:0.44129908 971:0.8232913 972:0.46105087 992:0.17293708 998:0.68670225 1002:0.66594154 1013:1.1920841 1014:1.630468 1018:2.8696015 1019:0.14406866 1022:0.35880122 1023:0.094575197 1041:0.31682745 1047:0.64535785 1068:1.4572678 1077:4.4332404 1080:0.5902158 1087:0.8856867 1090:1.8421807 1094:1.6678141 1096:3.3608828 1099:0.67963171 1102:2.0112445 1103:1.6490736 1107:1.9041725 1111:0.83047789 1116:0.3151775 1134:0.00070178509 1139:3.7791529 1140:1.4752684 1159:3.1782942 1168:0.70789438 1170:5.5963545 1181:3.158464 1182:0.040019333 1188:3.0128956 1192:1.6502399 1206:1.5614847 1208:0.028171718 1216:2.8003509 1217:0.98931557 1219:1.2045922 1221:3.2815025 1233:0.11417067 1234:0.21898197 1236:0.89295793 1237:0.24593878 1242:2.9877515 1250:1.1082411 1253:0.57232183 1260:0.42740369 1264:0.5333401 1274:1.8572515 1279:1.2729075 1281:4.4300752 1286:0.56887537 1288:2.1425521 1305:0.77689171 1306:1.3536136 1309:1.2526711 1313:2.589103 1319:4.2761168 1320:0.47478271 1325:3.5539815 1328:0.44573784 1332:1.7268484 1339:1.6175708 1341:2.6425483 1343:0.37562802 1359:2.4098749 1361:3.5519621 1365:1.3688967 1368:2.786449 1371:0.81470364 1372:2.8709428 1375:1.7445979 1376:0.44201273 1378:1.8590072 1379:0.061882913 1386:0.21724725 1387:2.2587709 1393:3.1871676 1397:0.84019876 1400:0.22907734 1406:2.5869286 1408:0.51217967 1409:3.7587457 1411:0.32099831 1419:2.0473261 1428:0.33939487 1430:1.5759177 1432:0.70184648 1433:3.619628 1435:1.9157878 1439:1.1603231 1441:1.0732704 1444:1.1302361 1452:1.9512603 1456:2.1782711 1467:1.4798838 1470:3.5911274 1471:0.38200876 1475:1.0508839 1483:0.26696599 1484:2.1827083 1487:1.0647258 1489:2.0815794 1502:1.6021659 1504:0.30706972 1513:1.085196 1514:0.0047097057 1515:5.2661104 1520:2.1987567 1522:2.354939 1523:1.4776206 1525:1.0785782 1526:0.37249443 1560:1.825907 1562:1.5042553 1568:0.80637181 1582:5.9752636 1583:0.95599741 1587:3.5259569 1588:0.98952425 1590:0.53801876 1597:1.631276 1604:1.5319078 1605:3.3109279 1613:3.1128697 1618:1.6754972 1622:3.82687 1624:6.5041404 1625:0.66564918 1629:0.51315892 1636:3.6141758 1637:3.4769757 1650:0.14844291 1653:1.0924313 1658:2.567245 1659:1.4555479 1661:3.3829837 1663:1.7364501 1667:0.9155401 1670:1.0890932 1672:3.1121669 1677:1.9022481 1678:1.6187129 1695:0.87811959 1696:2.2298372 1703:0.39916605 1705:4.1233239 1711:0.1365802 1712:0.46425009 1720:2.9646554 1721:0.23035598 1722:0.4064095 1727:2.0746596 1730:2.5727513 1746:1.001883 1752:2.6060598 1756:1.298502 1758:2.4336121 1762:4.334012 1773:0.0030506849 1780:1.1760323 1788:1.7134171 1794:3.86271 1795:0.82336664 1796:1.3279471 1799:3.6231744 1803:0.083687901 1804:0.17218727 1806:2.1435239 1808:0.49545375 1817:1.6944469 1822:3.5137517 1830:1.3303626 1832:4.7148371 1833:3.7106307 1837:0.20172662 1842:0.41442904 1846:4.6044126 1848:1.2542875 1851:1.7052585 1854:0.89040589 1870:0.59109509 1872:0.73446822 1881:1.6408322 1890:0.67348027 1895:1.1580482 1901:2.2192993 1904:1.9460201 1912:0.87892789 1925:2.7945898 1926:0.93469965 1938:5.5866714 1942:0.1981357 1943:3.3853223 1950:0.14259079 1955:0.59646946 1959:0.031883895 1966:1.0738013 1968:1.7102627 1988:0.60235846 1990:1.6766551 1998:0.90781319 2005:5.0464287 2006:3.317493 2011:0.84910619 2016:0.005798012 2020:2.9637344 2022:3.2864223 2030:1.7090733 2032:1.2685724 2042:1.3245128 2043:0.30395544 2048:2.675482 2049:2.8173995 2055:0.067313313 2058:2.1216218 2068:1.6823587 2075:3.7431638 2094:2.9396629 2100:0.79257768 2105:1.071425 2107:0.30712157 2110:2.6359963 2116:0.37602037 2117:1.5275804 2120:2.5352962 2125:0.4600485 2135:2.56372 2139:0.29791194 2155:0.82649088 2159:1.6863229 2160:3.1430881 2162:0.86627436 2166:0.73551697 2175:0.073593438 2179:1.6455868 2186:3.636102 2187:2.7643776 2188:2.0905778 2189:2.4948037 2202:3.9706824 2206:0.59037828 2214:1.9092438 2229:1.6195238 2233:0.026380748 2239:2.5043101 2240:0.40099609 2254:0.17728594 2255:0.028825603 2257:1.5538559 2267:1.4596279 2270:0.91310424 2271:0.20647621 2273:2.0325189 2274:0.85732669 2278:2.5105834 2280:2.1671619 2297:1.7344497 2298:2.3373711 2305:3.7321997 2307:3.1766527 2311:0.87459576 2318:1.4760435 2320:0.96773654 2322:1.3679551 2324:0.026992857 2331:0.86486077 2333:0.51300138 2337:1.7626132 2343:4.8706861 2348:5.1950879 2360:2.7380915 2361:0.25471327 2383:1.4642332 2386:0.98138332 2392:1.7727423 2393:3.792891 2405:0.12661704 2413:1.3151472 2416:2.5327523 2420:0.16348335 2423:0.070143878 2432:3.6351159 2435:2.3825524 2446:4.1632137 2459:0.23743543 2467:2.0154068 2470:1.6271087 2471:2.673842 2486:1.0721262 2490:0.17082065 2501:0.3677085 2507:6.4701443 2512:0.13915864 2517:0.020596564 2520:0.76246667 2522:2.2493124 2526:3.7000499 2528:0.56157607 2530:0.52583766 2545:1.4834437 2561:1.0598143 2570:1.9553328 2574:1.2025559 2576:0.02199401 2589:5.1710544 2591:0.46461132 2594:0.62596798 2595:0.093726337 2621:3.5689733 2625:1.9494784 2626:0.086135805 2634:0.81883407 2636:1.8673344 2637:3.4356146 2639:1.4057164 2643:0.90574396 2646:2.2713637 2651:0.21315029 2652:0.4685623 2656:0.83885992 2659:0.3657417 2664:1.302578 2667:1.375075 2669:0.8023755 2676:2.4542551 2687:1.4632952 2688:1.6363231 2690:0.85890269 2692:0.80301034 2693:0.12885615 2708:5.3891749 2714:1.0788119 2715:5.1461458 2718:0.91069728 2723:0.36002535 2727:2.0671127 2733:3.0086417 2745:1.2296283 2746:0.19350037 2752:2.6271489 2754:1.1122055 2756:1.7669688 2765:3.4490812 2766:2.7243419 2777:1.4971304 2778:0.12185067 2792:2.7401702 2795:0.86063325 2807:1.7805853 2811:1.2189064 2816:3.4944377 2826:4.0601931 2831:3.9527316 2834:2.4894643 2835:0.62281203 2838:3.6290684 2840:0.74180329 2841:1.3743795 2842:3.6837282 2851:0.42998528 2856:0.70509911 2857:0.67886162 2859:0.84871811 2864:0.96216446 2867:1.8141203 2870:1.5705031 2875:0.84010696 2882:4.7623534 2887:0.019767404 2888:1.6872052 2894:1.2623122 2896:1.2273291 2917:1.1895363 2919:1.7451001 2927:0.082123727 2932:2.9484763 2934:2.5777636 2937:0.10616681 2940:0.70592427 2949:0.59505796 2955:1.154986 2957:1.6204233 2964:2.5142469 2967:3.4584935 2971:2.7712801 2978:4.0362005 2982:1.032068 2993:3.2789485 2997:0.058211207 3010:0.9443332 3012:0.68703574 3020:0.43774083 3032:0.5675177 3034:0.035479844 3039:0.12787646 3047:0.53691846 3051:1.9255251 3052:0.15146786 3056:1.9615344 3059:1.9125147 3060:0.25810313 3062:0.24622303 3085:2.287884 3094:3.1114068 3110:0.12951905 3118:0.64954591 3120:1.904083 3123:0.15856791 3129:4.0430961 3132:0.57904834 3133:3.6663265 3152:5.3021188 3154:1.0370626 3162:1.3441885 3163:0.5409376 3164:4.144784 3166:0.59833127 3170:1.5939366 3174:0.37304822 3177:1.3117325 3182:2.0205529 3184:0.020213142 3185:1.8635743 3195:0.074029833 3198:0.56082255 3199:0.14208522 3200:1.620923 3228:1.6492701 3233:1.2946182 3238:2.3313777 3249:1.046459 3251:0.29500833 3253:1.2369115 3256:2.572767 3258:0.63310397 3260:0.021728992 3267:0.67049956 3276:1.6717784 3285:2.6356199 3286:0.8861562 3287:1.0786523 3290:1.9139135 3291:5.4912853 3293:2.8189754 3294:0.22694188 3298:6.2977347 3299:1.0209106 3302:0.68860692 3310:4.4422646 3321:2.814187 3323:2.2840152 3324:1.4956762 3327:1.2487321 3334:6.9609065 3343:0.1736179 3344:1.2592351 3348:1.3680569 3349:5.0388236 3355:2.1931453 3361:3.1128869 3377:2.7702358 3382:0.92246819 3388:2.2059097 3390:2.7317309 3394:2.4075391 3395:2.2324426 3397:4.2562451 3404:1.8066336 3422:2.6893344 3424:0.91966152 3425:0.80250293 3427:0.4044784 3437:1.4237642 3438:3.0051916 3442:2.0513933 3445:2.2158053 3446:4.6379905 3448:1.1741046 3450:2.3885851 3452:1.2453159 3458:2.0290856 3460:0.53699958 3465:2.5181971 3475:0.12945753 3476:2.9301374 3478:1.1246768 3481:0.72018397 3491:3.174978 3493:0.29903609 3494:3.0176067 3496:0.056240886 3500:2.4020293 3504:1.2945369 3508:0.4144789 3513:1.0493436 3526:1.794372 3529:0.53762996 3537:1.5484885 3539:0.25504151 3540:2.2145746 3548:1.4558781 3554:0.98749804 3564:2.7865746 3569:3.8702536 3576:0.30723095 3582:3.9542236 3586:2.7128472 3598:0.54218644 3601:0.20848352 3602:0.21851552 3603:0.72301871 3608:4.2883282 3614:3.9450183 3615:0.38692215 3624:0.65099597 3626:0.62495923 3627:6.0205169 3629:2.7062516 3644:0.91034162 3650:3.3939273 3665:2.5622985 3689:0.38129419 3690:2.8918452 3710:1.2159758 3712:1.3982576 3715:0.21574581 3719:1.6783285 3724:2.5559394 3729:0.28518087 3732:5.5198898 3752:3.1129146 3756:2.7503114 3757:0.48858586 3760:0.21594031 3761:0.050868452 3766:1.0264333 3771:1.2060312 3774:0.23162362 3778:2.4504759 3789:1.384729 3793:4.1929178 3795:0.83055401 3802:3.0367632 3806:2.5030313 3811:1.6975813 3824:4.416832 3826:0.33190054 3835:2.8802261 3836:1.6802509 3848:3.5264542 3849:0.8792643 3860:4.8657322 3862:0.035822973 3864:3.9076204 3867:5.5933971 3871:0.94609088 3872:2.3278084 3875:0.62499928 3877:0.12844166 3878:0.45121521 3881:1.2849061 3889:0.21489713 3892:0.45124391 3893:5.6402349 3895:0.9894473 3901:0.39503151 3903:2.2531011 3905:0.22509933 3907:7.3917313 3941:0.79892147 3950:1.7308401 3955:2.2523453 3957:1.7359802 3962:1.0950128 3963:3.0123429 3978:0.085738152 3980:2.5051138 3988:5.8314447 3994:0.12703724 4000:4.5692644 4003:1.7927333 4005:0.14734828 4018:2.7909856 4021:6.2093921 4025:0.91916311 4032:4.3534312 4034:0.5068447 4046:0.78220659 4050:0.5989334 4055:2.5039959 4063:4.3803997 4070:1.0204866 4076:2.3457208 4079:0.27953047 4085:1.6935613 4088:3.474468 4089:3.2082708 4091:0.72103369 
