svm_type c_svc
kernel_type rbf
gamma 0.000244141
nr_class 2
total_sv 94
rho 0.460814
label 1 0
probA -4.83148
probB -0.426833
nr_sv 43 51
SV
0.1921242790626023 4:0.7173267 10:2.970305 16:0.1814115 19:2.5908215 20:0.153035 21:0.025845617 25:2.0771894 26:0.90695143 37:1.1307321 40:2.1577795 45:1.1024861 47:0.16101077 49:1.513554 54:6.3864641 58:0.25468996 69:3.344285 77:1.1082919 84:1.0262588 86:5.7043047 90:0.54702306 94:2.1965966 102:0.13481036 107:0.55224138 108:0.29313412 112:2.2466478 123:0.76196718 125:0.95262051 127:0.72898304 131:1.0942861 143:2.2204587 144:0.15526652 146:0.28835303 153:1.4990772 159:4.7115164 164:1.7079912 167:0.40668201 171:3.8496108 174:0.92182165 176:1.1972804 179:0.44691747 180:4.6797442 188:3.0258379 191:0.77377099 196:0.50242925 209:1.3571504 210:1.787097 211:0.18679866 217:1.0014938 223:2.6695189 233:1.1705346 235:1.4603271 238:0.4996199 239:3.3865931 240:1.7640738 244:0.92871785 246:0.41718274 247:1.1022736 252:0.4325369 261:1.2703025 262:7.4774227 265:1.2823774 267:0.079527289 274:2.3657844 279:2.3401334 282:1.4785312 284:0.42351151 295:1.7746243 299:0.89278531 300:0.55736339 301:4.6835232 304:1.1267226 311:1.3447895 312:1.6579697 314:0.75642025 315:6.6308494 317:1.4011014 318:1.2949824 322:0.26529294 323:0.26694793 333:2.5317922 338:1.31268 340:0.6687429 342:0.98081654 347:1.3535489 359:1.0255502 360:1.0126605 363:2.0342107 371:0.15257852 373:1.3910947 374:3.8760395 375:0.49492535 378:0.083175778 379:2.6416161 382:0.8469789 384:2.5403254 385:1.6279024 388:0.76925129 389:5.4377575 391:0.36731046 397:1.73194 399:0.85771978 410:0.31819338 414:0.26808551 420:1.204811 434:1.053242 451:1.3007662 460:1.8149936 463:3.4421401 472:1.7965083 482:3.435406 484:1.2374879 493:1.5384016 507:2.4504008 514:0.48991081 517:5.873394 518:1.4111178 526:0.73234069 547:1.8556929 549:0.72768331 555:0.9229427 559:1.2409581 562:0.98988843 586:1.1323314 602:0.13851735 603:1.7369207 608:2.945431 612:1.2351485 627:0.98309249 642:1.7072752 643:2.509346 646:0.0053421855 655:0.7899847 656:1.3818418 661:1.9689963 662:3.5761023 667:5.4850082 670:0.38189471 671:2.6455648 672:1.3769541 674:2.3030262 675:0.68092847 679:5.8353157 680:0.029039025 681:1.4220052 682:1.1483524 700:1.0203764 702:5.1654124 705:2.9837272 706:2.2367196 711:3.3387206 712:1.4492809 722:3.4749582 723:0.070027173 725:0.31575519 726:1.7313843 730:0.68193012 736:1.5596992 741:0.019113302 748:0.47924963 750:4.3277721 753:1.8282198 754:1.8657995 758:1.1192265 759:1.5731678 764:0.61569035 766:4.3757567 771:0.98158979 775:1.039803 776:1.6491015 782:1.3374695 796:0.042312771 798:2.042721 799:0.55809993 807:1.3678799 812:0.92682171 816:0.48739251 823:1.9515495 838:2.1571984 839:5.9185243 846:0.53870571 848:1.2377836 850:0.90370303 857:0.37322316 860:2.7208593 862:1.6013947 863:2.1694725 867:0.97934395 869:1.6267047 871:4.0165682 874:7.052289 876:0.25966609 877:2.5533886 878:0.83942062 883:0.92131317 885:0.81505734 886:0.67542529 888:0.1687375 891:3.1089251 894:3.9796126 895:2.5243058 904:1.9821197 908:1.5235903 912:3.9090037 932:3.4634666 941:0.27805054 942:2.4333258 945:3.851335 948:4.3826675 949:1.9174993 954:0.38338503 958:3.2368364 962:2.7369792 965:3.9250259 966:0.66305161 967:0.17957312 968:1.4501839 974:5.7015986 999:2.541846 1001:2.4978297 1002:6.433815 1005:0.048414689 1014:0.54521203 1017:0.39239305 1018:0.22636169 1022:3.4452531 1027:0.37474462 1062:2.4254649 1070:0.024863124 1074:0.81183994 1077:4.3865519 1092:1.5519077 1094:1.9299556 1095:4.0910859 1096:3.874521 1099:1.9542518 1109:0.14546278 1111:1.5906453 1112:0.40975562 1123:1.547401 1125:1.121964 1152:0.025765121 1153:0.40490854 1160:3.2533889 1161:0.27803186 1165:2.9925799 1170:0.022780754 1178:0.047169566 1180:5.3107328 1181:2.6310425 1184:0.9919551 1189:4.1265635 1192:5.0339174 1193:0.99890196 1195:0.58650404 1199:0.86617446 1206:1.4124641 1208:1.1000602 1215:0.34270352 1216:1.3265367 1220:0.58082527 1228:1.3075646 1234:0.82692063 1235:0.0010028481 1251:1.7674632 1252:0.20435952 1253:3.4741249 1258:0.56520337 1260:0.3251766 1262:1.1908448 1265:1.2652608 1266:3.8566484 1271:0.62690389 1281:0.29200837 1282:0.13260725 1286:6.0419731 1289:1.7101748 1292:3.7380481 1293:2.7514696 1294:0.49902254 1302:5.9345031 1304:0.71419078 1305:1.5825449 1306:0.34752184 1307:1.1903969 1309:4.0757079 1313:1.1781137 1318:0.41363767 1321:0.22791207 1323:1.3079674 1332:3.6477239 1340:1.2189311 1341:0.52104264 1344:0.88091391 1347:0.21945623 1349:2.2079136 1366:1.7207161 1368:1.993619 1372:2.0904312 1373:4.0980268 1377:3.7066965 1378:2.1720037 1379:0.56069541 1382:3.2791948 1383:0.96413505 1390:2.3582847 1391:0.029614996 1393:2.2760935 1395:0.22613695 1401:2.1325054 1406:3.0649843 1408:0.041304648 1426:2.3182912 1432:0.26470485 1435:0.50134212 1442:1.1564801 1445:1.3295697 1446:3.557241 1447:1.2792758 1456:1.288835 1458:0.18567353 1462:0.25479108 1465:3.5828404 1469:0.062667131 1470:1.4366004 1477:2.1684735 1478:1.1263772 1485:2.3200741 1487:3.2561421 1489:2.8010573 1495:0.93129545 1502:3.706008 1506:5.2480559 1510:2.3911884 1511:0.66789007 1515:4.893949 1516:0.14120805 1518:1.4092731 1526:0.65690792 1530:1.9294405 1540:0.96428454 1543:0.54592901 1551:0.62296742 1555:0.79333282 1566:3.4993584 1569:0.78836966 1577:5.8242588 1580:0.13976756 1582:3.5409124 1583:3.0965409 1587:1.4137403 1590:4.1340857 1596:1.8349593 1600:3.2686589 1601:2.2614877 1604:2.4472814 1612:0.94005543 1613:0.42179415 1615:1.8974657 1624:1.910949 1625:5.3097935 1629:1.1718446 1630:0.36862808 1636:0.14097778 1637:0.65726817 1645:0.48479024 1661:0.83286238 1663:1.9070488 1674:0.66140425 1675:0.68213141 1676:0.19752678 1677:4.4627166 1690:2.2239766 1691:0.53293866 1694:0.49913335 1695:1.5872773 1697:0.19619052 1698:1.0669773 1705:5.508522 1707:6.8386192 1710:1.3152499 1718:0.91791487 1722:0.65504652 1724:4.2543888 1730:0.077882752 1732:2.5058379 1733:1.7019025 1737:1.8357363 1744:0.1153516 1756:8.9468708 1767:0.031134173 1784:3.6877799 1790:0.77722049 1796:1.9302888 1799:2.2910016 1804:1.3454908 1807:0.18161511 1812:1.880487 1819:2.6411774 1820:1.4582746 1824:7.2083516 1828:0.73100007 1830:2.3441811 1832:4.7031903 1833:2.6873968 1834:0.22356911 1840:3.2153146 1842:4.099658 1843:0.77946639 1848:0.58861089 1849:2.2564657 1850:0.73740923 1856:0.2468278 1857:0.70099533 1860:3.8961873 1865:0.028260291 1869:0.53730524 1881:0.10614726 1882:0.35132986 1889:0.94198954 1890:0.97736216 1894:0.26126796 1898:2.4520848 1904:1.5006213 1909:3.0676851 1912:0.88082671 1916:0.56575972 1917:1.5357144 1928:1.3173778 1935:2.3883998 1938:0.44722095 1951:1.5541263 1958:0.81026119 1975:1.3784213 1993:0.26658675 1997:0.80277902 2000:2.6792517 2006:1.052545 2009:1.9959815 2012:1.9224148 2013:1.6218786 2029:2.2181602 2030:0.050567508 2032:0.38088694 2035:0.73609328 2038:4.4074321 2042:2.0625162 2047:0.68524277 2050:0.5182451 2051:1.0428919 2053:2.2375052 2061:1.456619 2066:0.83617389 2068:1.263252 2075:7.0935674 2076:0.1081959 2082:0.55750823 2083:2.0440893 2085:1.1095961 2092:0.56714183 2097:1.8534061 2100:4.6832581 2105:2.9303923 2116:1.0576259 2120:5.1296978 2136:0.80779141 2140:4.3001304 2141:0.68539798 2144:3.492229 2149:0.15295833 2151:1.0260646 2153:1.5414637 2157:1.2426367 2159:0.93338943 2166:2.9228086 2170:0.19132057 2172:1.7884098 2186:3.1704867 2188:5.4824643 2199:2.6546259 2201:0.41774902 2202:4.7882347 2214:3.1474032 2217:0.51993114 2218:5.0979958 2223:2.5810597 2224:0.63710892 2226:0.37103596 2231:1.0612572 2240:1.4855067 2241:1.5690525 2245:3.5413308 2246:4.1033778 2249:3.7880912 2250:5.8864861 2259:0.82328033 2264:0.041458726 2276:0.53059387 2280:4.3192101 2286:4.2257814 2290:3.3127947 2302:0.34056872 2307:3.2202799 2311:1.0871958 2314:0.17606035 2322:0.70856106 2327:5.2202353 2332:4.887609 2335:0.11177462 2337:4.5643339 2344:2.6129768 2348:3.9887362 2355:0.47832593 2356:1.9834701 2369:0.43955675 2389:1.0565811 2399:1.2988495 2408:1.5289844 2409:2.2081585 2414:0.23620272 2416:2.596087 2417:1.1883199 2418:0.64866614 2424:1.2465382 2428:4.2098603 2434:3.4806063 2435:3.3746219 2441:0.65321434 2455:1.5412287 2456:0.84368587 2463:0.54154181 2471:1.9084045 2473:4.8933768 2477:0.55817926 2479:3.8429694 2482:1.8980029 2487:1.4937848 2488:2.6626105 2490:0.47245872 2494:0.66284508 2499:3.8627448 2501:0.50661325 2503:0.39963278 2504:1.6381686 2513:0.15428558 2520:0.78250492 2521:2.9937251 2526:1.0143785 2527:0.044206217 2532:0.036454991 2536:1.4471812 2539:0.41555625 2552:0.41573578 2561:0.35388309 2566:2.0495114 2573:0.01466772 2575:0.060779184 2578:0.44118574 2583:1.3145553 2591:4.9006042 2592:0.15836692 2594:0.12606552 2595:2.3765678 2596:2.3191655 2599:1.3654976 2603:1.231761 2619:0.74999946 2624:2.0275955 2629:0.74584782 2635:0.27860662 2639:3.7531502 2642:1.0819224 2651:1.9407859 2656:1.341805 2667:0.52707589 2668:1.3496522 2669:0.66222078 2686:1.0470556 2687:0.91969466 2688:0.0075964928 2690:0.23149657 2691:1.5543182 2693:1.4048196 2694:4.5035009 2698:2.6019969 2701:0.89592862 2704:1.3226992 2706:3.8032198 2714:2.6638408 2718:2.4332781 2719:3.0511706 2724:0.92839622 2726:1.9633559 2735:1.7772491 2740:0.43860394 2745:4.8768783 2756:1.0485269 2766:2.7638347 2768:1.2419116 2777:2.4264216 2784:4.5800781 2790:1.2428794 2792:2.0913072 2793:5.5293555 2795:2.092274 2797:0.13956018 2799:1.2679985 2807:3.1625962 2811:1.8761079 2814:3.9457486 2817:3.3368099 2821:4.1721172 2825:1.737417 2826:0.39414173 2834:4.2917619 2837:0.051954947 2838:0.15282023 2844:2.3414187 2846:0.18922925 2848:0.024917305 2849:4.2559171 2851:1.3600274 2856:0.30114985 2865:1.3398688 2872:1.196106 2875:0.21820039 2878:1.5207584 2882:0.16135746 2892:1.7380395 2896:1.0759454 2898:1.225055 2903:1.9572741 2910:1.1786238 2919:6.4601264 2927:1.9877839 2931:2.7485387 2938:3.7768707 2940:6.0918608 2965:0.47276735 2969:0.59766173 2978:0.62796855 2986:1.0015076 3015:1.5195466 3019:0.3715415 3033:0.25297177 3035:0.36826947 3037:1.9542112 3046:2.9462924 3060:1.6520723 3063:0.72834939 3072:0.41358593 3079:1.2867773 3087:4.5980649 3094:0.1490871 3103:1.4963067 3105:2.3637352 3114:0.58796775 3116:0.82609123 3124:3.8248827 3129:0.54918939 3133:0.17442718 3144:3.0842588 3151:3.422929 3155:0.58536077 3157:0.40258735 3160:4.2223873 3163:2.7313843 3165:0.58412343 3166:2.7431936 3167:0.88409913 3190:0.58815026 3195:0.36710638 3206:0.23879361 3207:0.77996719 3213:0.66696072 3216:3.346137 3229:6.567657 3231:0.16955653 3234:0.53126991 3245:0.32549718 3246:2.6040165 3247:0.30753928 3253:1.5804757 3256:0.27227706 3271:1.3067708 3274:1.2458928 3275:6.4417963 3278:0.11239479 3284:3.10797 3285:0.47445369 3290:1.6832082 3291:4.5888672 3295:4.1044626 3296:1.342005 3298:0.78113085 3302:0.83943194 3310:1.9006859 3313:0.027801514 3317:1.2625219 3325:4.6387219 3328:0.68409717 3334:3.4680727 3337:0.24803251 3344:4.2663879 3348:3.569937 3349:4.794312 3355:3.327415 3356:1.0957602 3377:0.18855456 3378:0.8592456 3382:0.68820119 3383:0.23323521 3386:0.0099615008 3401:2.0677946 3402:1.6121017 3405:0.50323683 3407:5.4934449 3411:4.2929878 3413:4.707346 3422:2.7756736 3423:4.9946628 3437:0.095528543 3442:3.1257801 3448:1.7300872 3449:0.89899808 3450:0.41950262 3455:0.14126548 3458:2.1889348 3467:4.5348535 3468:1.1467893 3471:0.81585014 3484:0.14889976 3486:7.1603913 3490:1.4735726 3493:1.9346805 3494:2.1993103 3496:2.4738395 3501:2.8653409 3503:3.3471124 3508:2.1903625 3516:3.1463437 3529:3.8152244 3537:5.0346022 3539:3.1903625 3544:2.9348903 3545:0.1565198 3548:1.1004825 3556:1.7780778 3564:0.86359513 3565:1.0010047 3566:2.7181151 3568:1.1300216 3577:2.0839159 3584:0.45391268 3586:3.4439769 3588:1.4479411 3592:0.0047343969 3596:1.1790057 3598:0.22155511 3599:2.0744152 3604:0.56364191 3608:1.1970369 3616:2.3939528 3621:2.4012723 3623:0.21927294 3624:1.3530935 3627:3.7628615 3635:0.22379303 3636:1.9285766 3643:1.3052013 3644:5.6048775 3647:3.154227 3650:2.201381 3652:1.8825078 3653:5.429647 3662:1.7938967 3663:0.77522552 3664:0.62903512 3665:1.6138587 3671:0.15356937 3679:4.5473022 3690:1.1738031 3692:1.2273263 3705:0.25843692 3711:1.1597885 3719:2.9874959 3731:1.5951517 3732:0.1272109 3748:3.281466 3753:0.84337455 3756:0.31848881 3767:0.9502126 3769:3.1640308 3771:0.47504994 3774:1.1589847 3776:2.6793733 3777:3.622067 3782:2.8991895 3793:0.062765881 3794:0.11533123 3796:1.5330989 3803:0.59097683 3806:3.4858866 3808:0.39257446 3810:0.4722299 3822:0.24771583 3824:5.175077 3830:3.082551 3833:2.7946651 3840:2.1004286 3848:0.85140598 3849:0.93183941 3852:0.28756225 3861:1.9467555 3864:3.5502572 3872:3.82287 3874:0.46685678 3877:5.4058809 3888:2.2194264 3892:2.9129765 3893:0.34622145 3906:0.7740165 3907:0.96912128 3913:5.7291064 3915:2.9790261 3929:4.8931899 3935:2.1885874 3941:2.7214215 3943:2.005064 3948:2.2010102 3952:2.1002512 3957:3.6160586 3962:2.3113668 3963:0.66193259 3968:0.76044673 3978:0.99500179 3984:0.9511947 3994:0.75129163 4000:3.8118715 4003:2.2665489 4004:2.7196627 4010:3.7639103 4016:1.9323641 4021:3.0032425 4029:3.5185323 4036:4.9852576 4041:0.97500062 4042:1.0518762 4050:2.6420929 4052:4.0732565 4063:2.6975327 4067:3.0154774 4068:2.8566189 4069:1.7762258 4074:0.60352695 4079:3.7323949 4084:4.6265574 4094:0.01537478 4096:1.546904 
0.7444512102595269 4:2.6509659 10:2.2213809 16:2.4598441 19:1.7099419 20:0.29521775 25:0.022681236 37:2.2532823 40:4.6455731 45:0.59467065 49:1.075615 54:5.2339802 58:0.43415901 69:2.2312622 71:0.53697503 77:0.022296786 84:2.9690056 86:4.510354 90:0.30548507 94:0.74161637 110:0.84027106 112:3.8735621 114:0.65891373 120:0.11527146 123:0.76515377 125:1.5309434 127:0.4443225 130:0.71282887 131:1.1735893 134:0.29224783 143:1.1144927 144:0.50841051 150:0.73002672 159:1.7466203 161:0.016949981 164:1.7692513 167:2.4980025 171:4.1655359 174:0.32814306 176:2.111974 177:1.2334037 179:0.60606784 180:3.9154866 184:1.6202728 186:0.95569444 188:5.586411 191:4.2046103 210:0.89222938 218:0.71980184 223:2.6464791 233:0.63599455 238:0.75074804 239:3.6102064 240:2.4764524 246:0.71739322 247:1.9302714 252:0.63032705 254:0.38297108 256:0.98964095 261:0.57449472 262:4.1420841 265:0.33317035 267:0.51380754 272:0.3736791 274:4.043026 282:3.6371624 284:2.6779537 295:3.6004121 299:0.76826394 300:0.77102375 301:3.2942426 311:2.2813053 312:0.86206716 315:5.8320246 322:0.77526522 328:1.7487884 333:2.6739659 336:0.14111972 338:2.7284179 342:1.6475862 359:1.7188965 360:2.8080041 363:1.3173985 373:1.4146019 374:3.1743352 378:0.53588921 379:0.61866331 382:0.56570518 384:2.4738955 385:4.316494 388:0.13523585 389:4.5248075 400:0.070121586 408:0.79802597 414:0.38392642 420:3.2015402 421:0.88109553 430:0.6710127 434:3.1746776 451:2.8609695 460:0.67020071 462:0.19962972 463:2.7551069 466:1.4864595 468:0.26690796 472:1.3863525 482:0.7375468 484:0.34003201 493:2.5956371 507:0.97223961 517:3.2843382 526:1.5613263 547:0.21896181 549:0.28838947 555:2.5799637 559:2.3668528 562:2.9977298 586:0.84631956 589:0.97398913 601:0.10737553 603:1.3237211 608:2.736536 609:1.0041225 620:1.5966527 627:1.1823409 642:4.1832199 643:0.86140752 655:0.82179141 662:2.0491934 667:5.3381367 670:2.1022189 671:1.2469437 672:0.81405777 674:5.2375293 676:0.47428471 679:4.4866877 680:1.079103 681:1.5683854 683:0.68021727 701:0.048826613 702:3.1853716 705:3.8801196 706:2.0029359 711:1.4398984 722:3.2268422 724:0.17838112 730:0.97069752 734:0.58428931 736:3.9307323 750:3.7960975 754:1.2880186 758:0.85290217 759:1.1210978 764:0.44752863 766:4.533823 776:1.4794464 777:1.9098239 786:1.776113 798:1.4320645 799:0.018184364 807:2.9405267 812:1.5921549 816:1.7092787 817:1.9298159 823:0.5092485 838:1.4903469 839:2.6142976 848:2.0181508 850:2.0669086 856:0.5970546 860:4.1424928 862:0.83508259 863:4.5919962 867:2.4582133 869:1.6560104 871:1.8818387 874:4.1009612 877:2.0168602 878:2.2131319 888:0.31299135 894:1.5894281 895:2.6150923 902:2.3055954 904:2.4398458 912:4.7502365 932:1.2000339 941:1.7139955 942:1.0314012 945:1.8273745 948:2.8268948 954:1.391618 958:2.3547683 962:3.8904538 965:3.1443758 967:0.78696579 968:0.84354174 970:0.39275008 974:3.7518919 990:1.5062733 999:0.54019964 1001:2.8697915 1002:4.7056928 1014:2.2676308 1017:2.4556804 1022:2.9473128 1027:3.1087558 1038:0.46005481 1042:0.54455954 1058:0.84923804 1062:3.4252071 1070:1.0956166 1077:3.8616493 1090:0.30206874 1092:0.88183022 1094:1.3832198 1095:3.2793238 1096:2.4633439 1099:0.20975107 1112:0.26234367 1124:0.36405924 1125:1.1823714 1139:0.86754948 1144:2.1226139 1152:3.0167658 1153:0.082914054 1160:2.8883698 1165:2.503834 1170:0.52096689 1176:0.14276393 1178:0.37208647 1180:3.0931497 1181:0.18523286 1184:0.089526355 1189:4.319139 1192:4.4955931 1195:1.5530672 1199:0.87734389 1205:0.16206887 1206:1.2928128 1216:0.87238437 1219:0.27399948 1220:4.2391157 1223:0.20810354 1225:0.34736633 1228:0.55039704 1234:3.1306198 1249:0.051137388 1251:0.65534621 1252:0.27690595 1253:2.6243937 1258:2.3862953 1260:1.712783 1262:0.45888963 1266:3.4193618 1271:0.97456193 1274:1.0727984 1282:0.61739326 1286:6.0091238 1289:1.9903687 1292:2.7339897 1293:2.9787545 1302:4.0182362 1304:2.0106626 1305:0.38112983 1306:0.4223437 1307:0.97272778 1309:3.0622253 1313:1.4309902 1318:0.13928896 1320:0.72853297 1323:0.38258898 1329:0.53303146 1335:2.7408874 1342:0.44741026 1344:0.67913413 1349:0.72145396 1366:1.5643275 1368:0.60398155 1372:0.8408671 1373:2.2205174 1377:4.0828695 1378:1.3547994 1382:0.045123018 1390:3.3036981 1393:1.5300584 1401:2.2079439 1406:4.1450677 1411:0.79189503 1426:1.7735802 1442:2.7463901 1446:2.8595872 1447:1.5395046 1456:0.10642874 1458:0.80558759 1462:0.87407243 1465:3.5306048 1469:0.7428993 1477:4.1477985 1478:1.4485573 1485:1.1191891 1487:0.86038208 1489:2.3271766 1495:3.2344272 1502:3.5499775 1506:4.6424212 1510:4.7051187 1515:2.1767063 1516:0.86892402 1518:1.0716434 1526:1.3367496 1530:3.2617676 1535:0.73143572 1543:0.15582395 1544:0.9346959 1551:1.2809167 1566:3.8230057 1569:0.89734203 1577:4.097712 1582:3.3569 1583:0.37127101 1587:2.6101677 1590:0.24120727 1596:0.26150215 1600:2.8883476 1601:2.7473838 1612:1.2134339 1615:2.2479587 1618:0.61429852 1624:2.0662878 1625:3.717695 1628:0.041828811 1629:0.57719874 1630:0.62730062 1632:0.072555549 1652:0.9765566 1675:0.54891521 1677:1.088513 1680:0.76261425 1690:0.28774661 1691:1.9066753 1694:1.9885664 1695:1.4371904 1698:0.72198141 1705:1.6410037 1707:4.3145866 1710:1.8643575 1718:2.1557956 1722:0.21411574 1724:5.5778971 1730:1.0085926 1732:1.2466768 1733:0.18185382 1737:0.6971187 1756:7.0723476 1767:1.1758002 1769:1.6654053 1784:2.5642693 1790:1.0924745 1793:0.0081608891 1794:1.4036062 1796:1.4242915 1799:2.0235565 1804:1.0705318 1807:1.3141885 1811:1.3628174 1812:2.4026148 1819:3.2677956 1820:3.9444723 1824:7.5901008 1830:2.3061831 1832:5.5655298 1833:3.1180372 1840:3.0656734 1842:2.5165961 1843:0.77955461 1846:2.5785699 1848:3.084631 1849:0.69008344 1850:2.7658305 1856:0.80726171 1857:1.1592896 1869:1.4427874 1889:0.75140166 1898:2.2678683 1904:0.0029694289 1909:0.025113523 1912:1.2809035 1917:2.3606911 1922:0.13927576 1928:2.2865601 1947:0.059029922 1965:0.14793895 1969:0.75337106 1993:0.79804379 1997:0.3674196 2000:0.13180935 2005:0.17530033 2006:0.87822104 2011:1.6917919 2012:0.010511369 2013:0.51044011 2029:2.7491479 2038:2.4892263 2042:2.4493241 2045:1.1055996 2048:1.6073091 2050:1.470422 2051:1.488356 2056:0.82598656 2066:4.3696642 2068:0.67862028 2075:5.7589812 2082:1.7282424 2083:1.1356926 2085:1.4422753 2097:2.9604731 2100:6.7509313 2105:0.70487875 2120:3.8649898 2140:1.0729834 2141:0.85915577 2144:4.0805087 2149:0.51326632 2151:2.6471536 2160:0.5402053 2166:2.6053085 2172:0.69060445 2173:0.58371139 2185:0.067762613 2186:2.3172555 2188:5.6939521 2199:1.833941 2201:0.15576054 2204:0.48841006 2214:3.3611777 2218:5.1619868 2223:2.7327721 2224:0.73679864 2226:1.0789975 2231:0.42431474 2240:0.88433266 2241:0.71445757 2243:0.67689538 2245:2.4842377 2246:4.0657921 2250:5.6616707 2253:1.8771136 2267:1.9751766 2271:0.7801103 2273:1.9194025 2276:1.5555106 2279:0.0037512481 2280:3.8999357 2281:2.2398956 2286:4.8349533 2290:2.2063777 2302:2.5863595 2307:4.4153175 2311:0.47155014 2315:1.2398617 2317:0.27673912 2327:3.9570093 2332:7.0341539 2337:2.7080548 2344:1.2351789 2348:2.347934 2369:0.43799806 2399:0.404493 2401:0.64200044 2408:1.5117693 2409:2.2500238 2412:0.28235739 2416:0.69798243 2417:2.2505255 2418:2.2924538 2421:0.61652792 2424:2.3176739 2428:6.0651836 2434:3.5797663 2435:2.2120764 2455:1.5703342 2457:1.1319556 2458:0.55353761 2461:0.38240793 2463:0.36519516 2471:1.506173 2473:2.2717645 2479:3.0562582 2482:2.0545552 2487:1.3875809 2488:0.19765523 2494:0.43370965 2499:3.3136358 2501:0.27837497 2513:1.5584712 2522:0.3119528 2533:0.95293212 2536:3.8862872 2543:0.23905304 2553:0.4071531 2566:4.0112844 2568:0.14002495 2583:0.7305342 2590:1.2400961 2591:4.9590011 2595:1.3478792 2596:1.4284236 2599:2.8799937 2604:0.52122152 2610:0.55132377 2617:0.69734448 2624:2.2071283 2629:0.59311897 2639:0.99587899 2642:1.1306425 2656:0.23937556 2668:0.38708338 2686:3.5913754 2687:1.658496 2688:0.0048240423 2691:0.90816116 2692:0.2219767 2693:2.758836 2694:3.1293046 2695:1.391338 2698:2.6230888 2704:2.9418421 2708:0.042832352 2714:2.306545 2720:1.1170139 2723:1.9936692 2726:1.0440056 2735:1.532443 2745:1.9867293 2756:2.1113758 2761:0.5009535 2766:2.3398626 2784:1.5118041 2786:0.02152133 2789:0.79160857 2790:2.3716156 2793:4.9722662 2795:1.744173 2807:2.2728243 2811:0.39480907 2814:2.5110903 2817:3.5397844 2821:3.8122489 2823:1.0065035 2825:0.56249547 2834:3.7349548 2844:2.6103737 2848:0.90432912 2849:1.8880455 2857:2.317353 2865:1.6236405 2872:0.33827308 2878:0.69565105 2882:0.60019022 2892:2.8968132 2896:0.25927404 2901:0.93751681 2908:0.028408766 2910:1.9710151 2919:5.1847315 2927:2.8417454 2929:1.7006847 2931:1.7288682 2937:0.017716318 2938:4.7551098 2940:2.439436 2945:0.39665741 2965:0.37306988 2970:0.1293219 2978:1.0239559 2986:2.8835452 3013:1.2845236 3015:0.75117671 3033:0.26673925 3037:2.2371998 3046:1.4182529 3050:0.65360671 3056:1.147531 3063:0.20632041 3079:1.2345986 3085:2.4006033 3087:3.2610638 3103:0.55990815 3105:2.3319721 3114:0.41684467 3116:1.9663976 3124:3.0523851 3129:0.50640112 3144:3.009562 3147:2.9713044 3151:3.3813539 3155:0.55222613 3157:0.56301486 3160:4.3300695 3163:2.121968 3165:3.127193 3166:2.7228897 3172:0.40096113 3212:2.0233436 3213:2.9668503 3216:2.6259582 3229:4.8876405 3234:2.7084053 3246:2.2854021 3270:0.35091639 3274:1.6126044 3275:2.7068758 3278:0.67007852 3284:5.0870728 3285:1.9917924 3291:4.6823139 3295:4.485126 3298:0.6250903 3302:0.89149737 3309:0.31523725 3310:2.5988371 3313:1.8646146 3317:1.1344227 3325:2.5746622 3334:3.3457191 3344:3.6319408 3345:0.54143906 3346:1.6360447 3347:0.91434443 3348:0.86697602 3349:3.8550274 3355:3.3917861 3356:2.1269453 3375:0.10708237 3377:0.83174765 3378:3.3143067 3401:1.7588557 3402:1.3410124 3405:3.4091117 3407:4.8529305 3411:4.74722 3413:3.8447952 3421:1.1479646 3423:6.3698497 3425:0.20889235 3431:0.55802953 3442:0.84968543 3444:0.58901471 3458:2.895077 3467:4.2307458 3468:3.2347822 3471:2.5820267 3484:0.1021544 3486:3.9571424 3490:4.3616772 3493:4.0014296 3496:3.0889895 3501:1.6721954 3502:0.59681112 3503:4.4193082 3508:3.850054 3509:1.7922812 3516:1.5527192 3529:3.7990742 3537:0.077092588 3544:1.0901321 3548:0.6284492 3556:2.331363 3564:0.57643324 3565:2.6660709 3566:1.4974674 3577:0.22014275 3586:1.1203969 3588:2.5937912 3591:1.1781836 3598:0.061968625 3604:0.71150291 3616:0.28727919 3621:2.971303 3624:1.640744 3626:0.9935019 3627:3.9163067 3635:1.2589047 3636:2.4347844 3643:3.5921488 3644:8.484376 3647:0.83002579 3650:3.8876536 3653:5.5856919 3661:0.30372354 3664:2.080982 3665:0.3785578 3666:1.0953238 3667:1.0564144 3679:1.8433044 3692:0.53025842 3711:0.10896984 3719:2.5394347 3727:0.21078193 3731:3.7409182 3734:0.052879661 3748:2.7464187 3749:0.65389431 3756:0.50384688 3765:0.50918567 3769:3.3721187 3776:3.6316235 3777:3.2355528 3782:4.139833 3793:0.22181739 3794:1.2620289 3796:2.7642388 3803:0.53772324 3806:0.43363735 3807:0.070404649 3808:1.0745194 3824:4.8254638 3830:2.9292965 3833:2.92134 3840:0.29316181 3852:2.1625593 3861:0.37480816 3862:1.4602556 3864:4.457654 3872:3.405477 3877:3.6638625 3886:0.035437614 3888:0.51713347 3889:1.4313999 3892:2.854605 3893:0.87738812 3913:3.8350453 3915:1.8946754 3917:0.31580052 3929:3.6519718 3938:2.6488476 3943:3.1476626 3948:3.830235 3952:2.2738612 3957:0.27735889 3962:0.43255082 3963:0.024830878 3978:2.6682427 3984:3.1034739 3988:0.13681278 3995:0.2175986 4000:2.3559277 4003:1.8519047 4004:1.8925254 4010:3.0000834 4016:1.0918267 4029:0.15297067 4036:4.6531291 4041:0.78867292 4042:1.1182569 4050:0.44993114 4052:4.412066 4063:1.6747556 4068:0.88646513 4069:0.34763029 4079:1.8031521 4084:4.273489 4094:0.2845822 4096:1.1936827 
0.716442159631753 4:3.6569526 10:1.170615 16:3.850944 19:2.5853162 21:1.3187064 25:1.0975502 27:1.345567 37:1.9934434 40:2.7728441 45:0.26886836 47:0.80546367 49:1.1202867 54:5.2222424 68:0.83805686 77:0.50440913 84:0.38178554 86:4.0119085 90:3.4011066 102:0.23672354 110:3.0987415 112:0.34336257 114:1.9221485 123:0.29673383 125:0.37833959 127:0.67089516 131:0.89794016 138:0.39024356 143:1.0867918 150:0.80763823 153:2.4123011 159:0.25974256 164:1.2578434 167:0.50148392 171:3.8885269 176:0.84181499 177:1.1060765 179:0.5247938 180:8.1116066 184:1.4634008 186:0.60640913 188:1.6321808 191:1.8354609 196:0.78964865 199:0.34260106 209:0.93561637 210:0.46103197 214:0.97790295 217:1.9092331 218:0.63043821 220:1.7104764 221:0.91707188 222:1.1449732 223:0.78598201 225:0.018714961 232:2.2772622 233:0.63603652 238:5.0652375 239:4.9486885 240:4.7049479 241:0.28362074 246:1.0792897 247:0.38723969 252:0.24215007 256:1.4983536 261:1.2436373 262:7.5570722 267:1.295228 274:3.2316239 279:1.1392163 282:3.8692906 284:1.826422 286:1.2724341 295:3.4247367 299:0.021937758 301:3.4913833 302:1.1603523 304:0.5997417 311:3.4733741 312:1.8955213 314:1.0708079 315:5.0195189 322:1.1169519 333:3.480619 336:0.59185046 338:2.5859275 342:2.4780536 347:0.57321876 359:1.5199769 360:2.1776955 363:4.2486014 365:1.5619001 371:0.43582183 373:0.58640397 374:6.5368176 378:1.1535978 379:1.8593075 382:2.2501152 384:2.9097822 385:1.5904306 389:3.1839454 397:0.2943033 413:0.46052471 414:1.7021317 420:1.86392 434:2.2277844 445:0.27153343 451:2.2088466 454:1.1079838 460:2.6464996 462:0.3200278 463:2.5441442 466:0.22983497 468:1.063813 472:2.7302022 474:0.97714418 482:0.020853445 484:2.5647981 493:3.2976708 495:2.2262406 507:0.77366763 514:3.0144694 517:1.6236145 526:3.0346761 548:0.36752379 549:1.6350572 555:5.0261912 556:1.5552434 559:1.2220029 586:2.2632997 601:0.3806785 609:1.0175676 624:0.072988212 627:2.2881649 637:0.002536267 641:2.8878906 642:4.9149113 643:2.9689465 655:1.0891899 661:0.16826305 662:1.3628165 667:5.4055352 670:2.451329 671:1.6486905 672:1.1206775 674:3.2250702 676:1.4820184 679:7.7683449 681:2.4010344 682:0.23187345 683:0.69439852 689:1.8673437 700:0.93781936 701:0.062010624 702:2.0975454 705:4.3095016 706:1.9191869 711:0.21179411 712:2.3104737 724:1.8436612 726:0.11951762 730:1.5245281 734:0.24565448 736:0.2459186 748:1.6675806 750:3.5300789 754:2.0924654 758:2.4128473 764:0.2086083 766:2.9835954 771:1.5917664 775:0.12081546 776:1.6610872 778:0.32098216 787:0.92366856 788:0.87743735 793:0.97875863 795:0.12962538 799:0.60848022 807:3.4095023 808:0.49323922 812:3.3866363 816:1.1475458 817:0.66575533 820:1.5183831 821:0.3620151 823:1.5712638 831:1.7539294 838:3.4563332 839:4.0235691 842:0.44737247 846:1.5382921 848:2.1893868 850:2.4280396 860:2.0216091 862:3.1609251 863:4.2782331 866:1.1631049 867:2.9966662 869:0.089444146 871:1.4445148 874:3.8955441 877:2.1398535 878:0.40967345 882:0.53443372 885:0.31655717 891:2.54124 894:1.3281614 895:3.4199004 902:2.8332541 904:0.60752285 910:0.68667674 912:3.3962841 922:0.77398336 927:0.015969634 928:0.29356584 932:2.3924842 941:4.7384748 942:1.9038582 945:2.4763741 948:4.6201115 954:3.5418453 956:0.20487416 958:0.8817606 962:0.71456635 965:1.4968988 967:1.7800446 968:0.58819604 970:0.63376045 974:2.8503242 978:0.41038695 990:0.61921656 992:0.70578098 999:0.96420181 1001:1.6140053 1002:5.1980758 1014:0.6526463 1015:0.50553972 1017:4.0434127 1022:4.0060759 1024:0.1835424 1027:1.1678294 1028:0.68431813 1034:0.55763209 1036:1.6349593 1038:0.62487805 1042:2.8335981 1052:0.0062958598 1061:0.53378034 1062:2.0789299 1075:0.40199283 1077:3.682215 1090:0.61537087 1092:1.8349489 1094:3.9501588 1095:0.73770541 1096:2.7740531 1099:2.2132356 1103:0.83633113 1112:1.1246768 1113:0.083601326 1114:1.0936106 1123:0.2220552 1125:2.8158817 1139:1.3604829 1140:1.0655111 1144:0.96351171 1152:3.3230913 1159:0.11935103 1160:3.8681619 1165:3.6678622 1170:0.54931468 1171:1.7953997 1179:2.5582833 1180:2.2490075 1181:0.54104131 1189:4.0097804 1192:1.1453249 1193:1.8102624 1195:1.5889379 1199:1.9251416 1208:1.1408248 1216:2.8271434 1219:1.6532357 1220:4.2611847 1223:2.3740926 1234:1.8260863 1251:1.7189267 1252:0.31948531 1253:1.3925241 1260:1.1259758 1262:1.4755476 1266:4.4334989 1270:1.8141758 1271:2.25541 1274:0.56374252 1282:0.96193707 1286:4.1766405 1289:0.38853323 1292:1.2695845 1293:2.0124197 1294:1.5678782 1302:4.972383 1304:0.97085726 1306:0.93269575 1309:2.4702473 1312:0.06431216 1313:0.1060394 1315:0.70523846 1318:2.5010841 1320:0.34288913 1321:0.36152774 1323:1.1335317 1335:2.4544699 1336:0.23334031 1342:0.4045102 1344:0.74699241 1345:1.4087797 1347:1.3115981 1349:4.2767854 1366:1.9446064 1368:0.70350516 1372:3.1065083 1373:0.30357337 1375:0.065269887 1377:1.5157027 1378:0.93559957 1382:0.33478618 1389:0.019278288 1390:2.339612 1393:3.6547966 1401:1.1528426 1406:5.160356 1411:0.4193131 1412:0.16580671 1423:1.7254443 1438:0.64197171 1447:2.1623311 1456:1.4074144 1458:0.67075545 1462:0.95671004 1464:0.10459694 1465:3.5442019 1466:0.1519492 1469:1.2860944 1470:0.23271126 1477:2.4806681 1478:0.36947092 1485:3.5610757 1487:0.58022296 1489:2.7086678 1493:1.0432161 1495:2.0090692 1502:5.026597 1504:0.21500245 1506:5.061914 1509:1.1503656 1510:0.55571949 1515:3.6567895 1518:1.5640053 1520:1.5662868 1525:0.77775782 1526:1.3029982 1530:0.54936677 1535:0.59405893 1540:0.75907218 1544:3.1381078 1551:0.24383533 1555:2.1731787 1565:0.20818335 1566:1.944433 1567:0.39575577 1569:0.77485478 1573:0.39518517 1577:3.8335185 1582:4.4192901 1587:4.3449702 1596:1.2143829 1600:2.9911582 1601:2.6890252 1604:0.22573864 1606:1.3876301 1612:1.0338128 1615:5.2152786 1617:1.8371108 1618:1.2023387 1624:5.6723609 1625:3.2127969 1628:2.0390794 1630:1.9489421 1652:0.88903296 1663:0.066793561 1665:0.34626231 1675:0.10810001 1676:1.7662089 1677:2.0810673 1680:0.02916044 1690:1.5442764 1695:2.7976463 1698:1.6222082 1703:1.2159806 1707:2.3209219 1710:0.33304888 1718:1.0779946 1722:0.39438814 1724:4.2103252 1730:0.19614163 1732:3.2158346 1737:1.4276085 1756:6.4148498 1760:1.4041352 1762:0.64035439 1767:1.0767059 1771:0.75827837 1775:0.41722131 1780:0.93827921 1784:1.9908024 1790:2.6388166 1791:0.69346637 1794:2.4840508 1796:2.4355707 1799:0.02518189 1804:2.7214637 1807:1.5708792 1811:1.4204166 1812:0.57310534 1819:0.21760926 1822:0.19554019 1824:7.1683092 1830:2.8902328 1832:6.7964396 1833:0.68620348 1837:0.79314768 1840:1.0735462 1842:1.2389469 1843:2.4060686 1846:2.9189813 1848:0.42528987 1849:2.3734655 1850:3.1318469 1855:1.3119051 1856:2.2076488 1857:1.4507428 1860:0.14747575 1865:1.0723362 1873:1.0332365 1889:0.68141484 1890:2.2410367 1894:0.1998172 1898:0.91570091 1904:0.9475534 1909:2.6554322 1912:3.612452 1917:0.93869269 1922:1.421001 1935:1.0996783 1938:2.0707586 1939:0.97621977 1940:2.6462357 1944:0.23164263 1956:2.0048082 1965:1.5627151 1967:0.14341156 1969:1.6513541 1975:1.0520927 2005:2.2026377 2006:0.50714242 2011:1.9793296 2012:2.3212497 2013:2.6818795 2016:0.055224746 2020:0.66455233 2029:0.9435128 2033:1.1393747 2038:3.1961067 2041:0.51010013 2042:2.2575774 2048:4.5164032 2051:0.8280924 2056:3.4645827 2066:1.1530908 2068:1.5310426 2075:7.3662572 2080:0.47060823 2082:2.435539 2083:4.1070366 2085:0.56190592 2088:2.0330017 2092:1.2410939 2097:3.065134 2100:3.7695718 2105:0.74443239 2116:2.0853219 2120:3.3334153 2127:0.91740978 2134:1.7144315 2140:0.63825798 2141:1.7409791 2144:2.2010524 2149:2.5927403 2151:0.71764493 2157:1.6037846 2160:4.3448811 2164:0.58772659 2166:5.3295574 2172:1.6215256 2173:2.8510585 2186:2.9210179 2188:4.4509921 2199:0.6182754 2202:1.5229234 2210:1.0640647 2214:3.6662195 2218:6.873548 2223:2.0831807 2224:2.1685698 2226:0.0018269122 2231:0.4015193 2234:1.5206869 2240:3.1723809 2241:3.1492605 2246:4.9491057 2248:2.6754394 2250:3.5120366 2253:1.0438566 2264:1.8947675 2267:1.4978033 2270:2.1637261 2271:0.33510494 2276:1.0603975 2280:4.3124561 2281:1.019879 2286:2.4315357 2290:3.5002687 2300:0.43925688 2302:3.3897579 2307:1.2254171 2311:3.0577569 2314:2.0205431 2315:0.31502077 2317:1.4850416 2327:6.9383492 2332:4.8089261 2333:0.07452482 2337:2.5003223 2344:1.9272313 2348:3.0727215 2355:3.9456191 2356:0.43018132 2357:0.3196851 2358:0.68495107 2359:0.084633827 2365:0.27986291 2369:0.24698451 2389:0.49636161 2399:2.7198257 2408:0.22898507 2409:3.2066092 2416:0.95694399 2418:0.30857766 2424:4.4799595 2428:6.2381167 2431:0.72623044 2434:3.2371051 2435:3.2458012 2439:1.3331311 2446:0.92942214 2458:3.0211296 2461:0.52033901 2463:0.65826845 2473:4.6671243 2477:1.1659269 2479:2.6670675 2482:1.3342705 2486:0.5952425 2487:1.3256166 2489:1.6838219 2490:0.98178589 2493:2.2558267 2499:3.0866952 2501:1.994156 2504:0.090166897 2513:0.7496599 2522:2.4064858 2526:0.65618968 2528:0.19592531 2532:0.87722999 2536:4.2020321 2540:0.68621963 2561:1.4858266 2566:4.9632268 2583:0.024116516 2589:0.47671217 2590:0.56095493 2591:3.9403684 2594:0.295183 2595:3.9825916 2599:2.466027 2600:0.22216922 2610:1.7145219 2617:3.2072022 2624:3.4932432 2629:2.8165786 2636:3.0694056 2639:5.0593748 2642:0.072564721 2650:0.60388124 2651:3.035305 2655:1.1133621 2656:0.31267264 2668:1.2996385 2672:0.47020388 2678:0.6724456 2686:1.7041355 2687:6.201869 2690:1.4878683 2691:0.05377619 2692:2.9870327 2693:4.5665107 2694:3.3204606 2695:1.3864876 2698:5.6947951 2701:0.27810177 2706:1.2564191 2708:2.7312834 2714:0.12610203 2715:0.54819888 2719:2.0695734 2723:1.788208 2732:2.341181 2743:1.8301507 2745:0.35706758 2756:4.9169259 2766:0.24462003 2784:1.1495383 2788:0.31006637 2789:0.88789457 2791:0.53747118 2792:0.045058094 2793:4.1820054 2795:2.2521479 2796:1.0126234 2797:0.093829855 2802:0.35077256 2805:1.4915941 2807:4.6845345 2811:1.9585056 2814:0.95903492 2817:1.6285467 2821:4.1858048 2825:3.3234327 2831:1.162653 2834:3.9304414 2837:0.85456574 2838:0.7401123 2844:0.9821015 2856:1.3449464 2857:2.6840456 2860:2.6649954 2864:0.75456876 2867:0.25493097 2873:0.20889273 2878:0.96861255 2880:3.450218 2883:1.7070818 2892:2.2994628 2894:3.2151773 2901:2.8987155 2910:0.40557513 2913:1.6177011 2917:0.37880656 2919:4.777235 2927:4.0581937 2929:0.79275 2931:0.78139138 2938:3.5101058 2940:6.4757104 2945:1.8428462 2948:1.6958365 2959:0.10331258 2962:0.26550576 2978:4.9153147 2982:0.6457063 2986:1.8650291 2992:1.3805757 2998:1.9347655 3013:1.2991891 3015:0.16927281 3034:0.35875195 3037:4.0130234 3046:1.6557499 3050:0.73826396 3052:0.28244078 3056:0.97636336 3071:0.045602068 3079:1.2285979 3085:1.646937 3087:5.1862378 3094:0.36834511 3103:3.4299574 3105:1.0676574 3114:1.3477592 3124:1.7708071 3129:0.32522768 3135:2.0258846 3144:2.0640848 3147:0.25556889 3151:2.8093266 3153:2.7899113 3155:0.97763872 3159:0.60763812 3160:2.6313267 3163:3.0766392 3165:0.66164076 3166:5.5005236 3179:0.95156664 3187:1.0543658 3195:0.41729933 3213:1.8326073 3216:1.6612166 3217:1.1559851 3224:0.21753523 3229:4.9168048 3234:1.9947655 3246:1.9486685 3247:0.0037078857 3253:1.161177 3270:1.3067186 3271:0.53814888 3274:0.85410708 3275:1.2395859 3278:1.430279 3284:2.9285858 3291:2.9677231 3294:0.57875025 3295:2.6843669 3298:2.7506914 3307:3.9273968 3309:0.16434893 3310:1.4230573 3313:2.7626042 3325:3.3918376 3328:0.23260933 3334:2.8019078 3337:1.3816631 3341:0.085253417 3344:5.5735259 3345:0.79128367 3346:1.7465465 3347:0.22491801 3348:2.5814693 3349:0.46299267 3355:1.8601502 3356:1.3848203 3375:1.7260704 3377:1.5254151 3378:3.3898695 3383:1.678706 3386:1.0215133 3401:0.76314783 3402:0.18368635 3407:3.5912595 3411:4.4952545 3413:2.304121 3423:4.8088355 3424:0.83003849 3431:3.173903 3442:3.9863546 3444:3.8524668 3445:0.12981525 3455:0.19562778 3458:3.2653379 3460:1.3444532 3465:0.092977822 3467:2.4044058 3468:1.4911063 3471:2.2868035 3476:1.3448273 3486:5.1968436 3488:0.14325947 3490:4.4609308 3493:2.6792445 3496:0.72135699 3498:0.80852032 3501:1.5921999 3503:4.1126451 3508:1.4403241 3513:0.11356106 3516:3.1017168 3521:2.1626427 3523:1.8998283 3525:0.45726246 3529:3.3099833 3532:1.2907181 3534:0.45887044 3535:2.0390077 3536:0.58014184 3537:3.2516785 3539:0.79502374 3541:0.48432726 3548:1.4618204 3556:2.0916047 3564:0.92248845 3565:0.14403781 3566:2.7683098 3568:2.1223841 3580:0.35434663 3584:0.51421678 3586:0.81376088 3588:3.3978641 3598:2.7186019 3599:1.6464868 3608:1.8573412 3616:1.8627611 3619:2.2962358 3621:2.2898774 3623:1.4492832 3624:1.1262494 3626:0.90575272 3627:0.95295882 3636:2.3608294 3643:1.0335256 3644:7.1446609 3647:1.7727107 3650:3.3523643 3653:4.1318111 3661:0.95385969 3662:0.43830177 3664:1.4265432 3665:2.6622462 3677:1.2985599 3679:1.369916 3690:0.3429358 3691:1.8443041 3692:1.1290668 3705:1.9208262 3707:0.026203349 3711:1.504077 3715:1.9554323 3729:0.14782682 3731:4.2156768 3732:2.2301412 3739:1.4365259 3742:3.3397484 3748:2.2258668 3751:0.19230285 3756:2.6173992 3767:0.38461795 3769:3.0764332 3771:2.1837254 3773:2.4237719 3776:2.2685287 3777:3.1798575 3792:0.51368856 3794:0.72912276 3796:0.74926722 3803:2.2096581 3806:1.611577 3808:2.8519578 3810:1.4836516 3822:0.63201678 3824:7.2679906 3826:0.79911959 3830:4.8632498 3833:2.1132445 3860:0.33496994 3861:1.359228 3862:2.7660022 3864:2.7380598 3868:0.78014696 3872:5.2282701 3877:4.8270407 3888:2.028795 3889:1.9169395 3892:3.6700234 3893:5.2189674 3906:0.080069542 3907:0.16604072 3913:4.2090764 3915:0.25494462 3929:2.6893325 3935:1.8298452 3943:4.6033063 3948:4.6126876 3951:0.71875966 3952:0.010022357 3962:1.4582171 3968:3.4745481 3976:1.7521443 3978:1.3731153 3980:1.1179262 3984:0.54051775 3985:0.045505345 3997:1.03809 4000:3.8653607 4003:4.1151819 4004:1.8366879 4010:3.0595894 4021:2.1193159 4023:0.27059823 4029:0.49386555 4032:0.46994373 4036:5.4432993 4041:2.2089891 4042:1.4730495 4050:1.5463769 4052:4.1980419 4057:3.0896266 4062:1.449389 4063:5.2284589 4067:0.089449987 4068:1.0715294 4069:0.16808495 4077:0.35255057 4079:3.46363 4084:5.4543819 4094:0.80377781 4096:0.67310596 
0.5244769014039703 4:1.6407847 10:1.2251002 16:4.0267663 19:1.3686612 21:1.5805987 25:1.7362353 27:2.3498628 37:1.8809409 40:1.8160973 45:0.52065051 49:1.2404042 54:6.1490221 68:0.11152059 77:1.6823277 84:0.38449934 86:4.4756021 87:0.45586234 89:0.56452048 90:3.1534774 99:0.092372149 102:0.13916895 108:1.1763766 110:2.3123584 112:0.069658101 114:0.37345865 123:1.797516 127:0.31688714 131:1.3505075 138:1.6362894 143:0.79835594 152:0.57494509 153:3.2392831 154:0.27266049 159:0.79020387 164:0.45214099 167:0.04598254 171:2.4934621 173:0.49984476 176:0.53144002 177:1.6717744 179:0.514911 180:8.699254 188:0.29998666 191:1.6400025 196:0.96758151 199:0.50986362 209:0.88822615 214:1.0511508 215:0.36662903 217:1.3248798 220:3.3247612 221:0.45761973 222:0.069149047 223:0.40429997 225:0.14180708 232:1.9885604 233:1.6441641 235:0.61342484 238:5.132062 239:5.9970083 240:4.9970012 241:1.4786955 244:0.61484599 246:1.1766869 247:0.58511108 254:0.68614298 261:1.9624326 262:6.3578439 265:0.53174579 267:2.9777503 272:0.38452303 274:3.7699177 279:1.5381724 282:3.7403238 284:1.3608694 286:0.86446786 295:3.5964382 301:2.2585526 302:1.8114743 304:1.1414268 311:2.966428 312:2.0953517 314:0.90956229 315:4.4976902 322:0.78362501 328:0.36875859 333:4.1651707 338:2.5054817 342:1.542426 347:1.6776888 359:1.0796986 360:2.4335203 363:4.1432719 365:1.818069 371:0.31715205 374:5.0081902 375:1.250598 378:1.2354693 379:2.7187693 382:2.3240271 384:2.6928959 385:2.0672932 388:0.89671236 389:3.4018402 398:0.063649401 413:1.6049484 414:0.06645748 420:0.31804463 434:0.67365366 447:0.45029303 451:0.63590181 460:1.7932007 462:0.47932142 463:2.4491477 466:0.72696197 472:2.2864621 474:0.023126781 477:1.7038774 482:1.354269 484:2.3834424 485:0.2353335 493:3.4407251 495:2.1872842 507:1.7847922 514:2.9900682 517:0.50057179 526:2.1108994 536:0.81451529 547:0.74916935 549:1.941609 555:3.7338648 556:2.8920228 559:0.14902934 586:2.2188962 608:1.4594592 624:0.40756014 627:1.1552851 637:0.84823227 641:3.5313959 642:4.7859454 643:4.5531111 646:2.335125 655:0.87578082 657:0.08130607 661:1.700313 662:2.7766695 667:4.3725863 670:1.3294346 671:1.4900331 672:1.0272007 674:2.5143929 675:0.67400914 676:1.7160254 679:9.5513506 681:1.3893647 682:0.30207902 689:0.32768232 700:1.83927 702:1.9616351 705:3.6920381 706:2.0695329 711:0.35923678 712:2.313972 730:1.8536379 744:0.10633251 748:1.9960008 750:2.6748321 754:2.1798806 758:3.1113613 764:0.24202889 766:1.6117989 771:2.0557077 775:1.0852752 776:0.23142433 778:1.239491 782:0.37551636 788:0.13022134 793:1.0058985 798:0.22880289 799:0.63758236 807:1.6758081 811:0.0014362484 812:1.0871421 816:1.0240389 817:1.1994517 820:1.875204 821:1.110709 823:2.0720139 831:1.4282814 838:2.6197927 839:5.2130527 846:2.4063842 848:0.85665798 850:1.9573525 860:0.53194702 862:2.6380277 863:3.8957365 866:0.60843611 867:4.6980529 869:0.012826528 871:1.2162015 874:4.8808413 877:1.5001731 882:0.61958551 885:1.269769 886:0.62120634 889:1.0365043 891:3.8345029 894:2.014708 895:3.4973409 902:0.95067501 904:1.5910498 910:0.88070655 912:3.6353846 922:0.97906739 928:0.59476477 932:2.8059106 941:5.1842852 942:2.7612054 944:0.063378721 945:1.6348076 948:5.1959109 949:1.3794806 954:4.4553809 956:0.13290498 958:0.43747315 962:1.8767115 965:0.54447114 967:0.3197667 970:2.4488983 974:2.6208205 978:0.84361249 994:0.18807343 999:3.7960534 1001:1.6920528 1002:4.2585578 1014:0.27195409 1015:0.4420225 1017:3.1823249 1022:5.5566187 1024:0.30306849 1027:1.4324331 1028:0.17092526 1034:1.1670825 1036:2.3595459 1038:0.68902254 1039:0.17769314 1042:1.7906773 1062:2.3977559 1075:0.55315018 1077:4.9626598 1092:0.30384564 1094:3.7440672 1095:2.2330914 1096:1.1104674 1099:2.4869971 1108:0.21637723 1109:0.29165462 1112:2.1294448 1113:1.5750299 1114:1.8046924 1123:2.0284052 1125:4.5941315 1137:1.2171551 1139:1.378942 1152:3.9169655 1160:3.4049506 1165:3.1617446 1171:3.0318687 1179:1.5632379 1180:1.1601923 1181:0.21130963 1184:0.25984126 1189:3.5992663 1192:1.2631255 1193:1.9705997 1195:0.49187016 1199:2.1483116 1208:3.0343368 1216:1.9642639 1219:2.3366683 1220:3.4088435 1223:3.123296 1234:0.36240792 1251:1.4774125 1252:0.20079486 1253:3.009922 1260:0.27924061 1262:1.1523865 1265:0.55998254 1266:5.2100635 1270:0.70216203 1271:2.0629601 1273:0.34942728 1277:0.42430958 1281:0.26879725 1286:2.8932495 1289:1.0122616 1292:0.92594171 1293:1.2332857 1294:1.3355459 1302:4.7135892 1304:1.7227318 1305:0.98277497 1309:4.1327968 1312:1.0689933 1315:1.5462358 1318:3.4252293 1321:2.7022865 1332:1.309104 1335:3.0070665 1341:0.23270766 1342:0.14382029 1344:1.1110696 1345:0.81342667 1347:0.63409376 1349:5.2363362 1366:1.3014426 1368:0.75423026 1372:3.0258183 1373:2.3894365 1375:1.6732328 1377:2.8796573 1380:1.6065264 1382:1.346846 1383:0.67440337 1390:3.0913043 1393:3.4076352 1399:0.24549836 1401:1.6654997 1406:4.7995229 1407:1.7197311 1411:0.71404314 1415:0.015771449 1423:1.7573823 1426:0.4593257 1438:0.96839207 1445:0.12694895 1447:1.1914532 1456:1.7512212 1458:0.070245624 1460:0.20046306 1462:1.1787561 1464:0.89715767 1465:4.1673689 1469:2.6565433 1477:1.0569204 1478:0.17466775 1485:1.8492137 1487:1.2624459 1489:2.9161267 1493:0.30830479 1495:1.412688 1502:5.1381702 1504:0.51315331 1506:5.5030041 1507:0.0094551146 1509:0.88431501 1515:2.6979613 1518:1.1362175 1520:0.47324532 1526:0.89193153 1535:0.53848308 1540:2.8247404 1543:0.18965095 1544:1.9669342 1555:3.6551425 1557:0.11084369 1565:1.1837881 1567:0.54871243 1577:3.2825308 1582:4.5074968 1587:2.5672336 1590:0.79373515 1600:3.7665927 1601:3.6313527 1603:1.4261665 1606:1.5542793 1612:1.4922942 1613:0.1558319 1615:5.4978714 1617:2.7186308 1618:0.62072241 1624:5.8584824 1625:3.1957855 1628:2.4618309 1630:2.4481316 1632:0.96755964 1638:0.71659064 1652:0.61802578 1661:0.36693135 1663:0.57473081 1667:0.13766688 1675:0.97116762 1676:2.2543507 1677:3.3072557 1690:2.2026989 1691:0.083642066 1695:1.4905734 1698:3.046735 1703:1.5798373 1707:3.0542953 1710:0.17053828 1716:0.86434501 1724:4.140954 1732:3.4515538 1737:1.0305483 1744:0.76629943 1756:6.9338927 1760:0.70480812 1762:0.96353567 1776:0.058856845 1780:0.68543595 1784:1.2131097 1790:0.043685079 1791:0.8909052 1794:1.9908121 1796:2.1054742 1799:0.267643 1804:3.5454681 1807:1.4095056 1811:0.86390758 1819:0.50930238 1820:0.23861746 1824:7.2106543 1828:0.45210204 1830:2.5391908 1832:5.3732052 1838:1.2970964 1840:0.36810264 1842:1.0590606 1843:1.4043052 1846:0.95368874 1847:0.86585152 1848:0.15468961 1849:1.8389351 1850:1.3638339 1855:1.6136055 1856:1.5503308 1857:0.3415617 1860:2.4496994 1865:1.453815 1873:0.099033356 1882:1.641431 1889:0.13935938 1890:1.7483877 1898:0.80300522 1904:0.35543215 1906:0.045453995 1909:3.3585722 1912:3.7119906 1916:0.1266837 1922:2.420974 1935:1.1161526 1938:0.47201738 1939:0.43751875 1940:4.4554691 1947:1.8436707 1956:2.5401006 1965:2.6821806 1969:1.2063084 1975:1.7529707 2005:1.9684751 2006:1.1377963 2009:0.17403468 2012:2.467736 2013:4.0556636 2020:1.040453 2029:0.50736362 2030:0.34353077 2038:5.3310413 2041:1.3095962 2042:1.9439695 2047:0.25444496 2048:2.1828449 2051:1.2590066 2056:4.3782635 2066:1.9585487 2068:2.6206505 2075:5.8346334 2082:3.1016912 2083:2.5061762 2085:0.64070541 2088:2.9926109 2092:1.5862119 2097:2.0038118 2100:2.6451981 2105:1.2739475 2116:2.5255678 2120:4.4772558 2134:1.886561 2140:1.2742324 2141:1.3153321 2144:2.9524896 2149:1.1875057 2151:1.2553897 2157:1.8372121 2159:0.59739304 2160:3.227334 2164:0.98376453 2166:3.6305397 2172:0.9592607 2173:2.3982229 2186:2.5621207 2188:5.1711183 2193:0.63158482 2199:1.515744 2202:1.868119 2210:0.66084385 2214:2.7080681 2218:6.6521273 2223:2.1904938 2224:2.8602798 2234:1.1170892 2240:3.671025 2241:2.3997424 2246:4.9529786 2248:3.0586092 2250:4.0587454 2253:1.4612546 2259:0.55042303 2264:0.1632877 2267:1.0293642 2270:1.7180009 2271:0.90038526 2276:0.40560004 2280:5.7471414 2286:2.1580238 2290:2.4506431 2300:0.46536893 2302:1.8049567 2307:2.4354386 2311:2.7768705 2314:1.286891 2315:0.033177346 2317:1.1401896 2327:6.3594623 2332:5.2553816 2333:0.60582221 2335:0.45489848 2337:1.0499293 2344:2.9481344 2348:3.1652131 2355:2.4579387 2356:2.1799197 2358:2.3388963 2359:0.064320564 2360:0.11867158 2389:1.0292864 2399:2.0387349 2408:0.68274122 2409:3.8709936 2410:0.64865482 2416:1.8707671 2424:3.1897054 2428:4.9359488 2431:1.2353712 2434:2.9041965 2435:2.8489971 2439:0.9340477 2443:0.12391917 2446:1.5347984 2455:0.15303758 2458:2.3403146 2461:0.19650416 2473:3.7421248 2479:2.9599495 2482:2.1616123 2487:1.2481661 2489:3.2701926 2490:1.3808372 2493:0.60748947 2494:0.82131565 2499:2.5359201 2501:0.34099507 2504:2.5284956 2511:1.1384066 2513:0.18171638 2514:0.60378373 2520:0.1403909 2521:0.89331847 2522:3.0807567 2526:0.71796739 2528:0.58776653 2532:1.5406435 2536:4.4138865 2551:0.70514655 2561:3.3276105 2566:4.1747503 2573:0.15723866 2582:0.47820467 2583:0.61305022 2584:1.4588499 2591:4.2859674 2595:5.8704863 2599:0.95515943 2600:0.9058032 2603:0.10850585 2606:0.19207712 2610:1.6618531 2616:0.53433239 2617:2.1666629 2624:3.7433128 2629:2.6193006 2636:2.3537197 2639:5.8260098 2650:1.7326663 2651:2.8708286 2655:0.53073037 2660:1.3339401 2668:2.7170334 2669:1.0103924 2678:0.75332999 2686:1.4702965 2687:4.7583022 2690:2.1950634 2691:0.43701226 2692:2.8409069 2693:3.8717935 2694:3.7988174 2695:1.1338569 2698:6.0233502 2706:1.1633039 2708:0.63309252 2714:0.48693687 2715:0.18610291 2719:2.9723129 2732:1.9120824 2743:0.99630225 2745:1.3374962 2756:3.8519211 2766:1.3253986 2784:2.1810949 2785:0.41360632 2788:1.0629802 2789:0.0091533065 2791:1.3722345 2792:1.2882613 2793:4.4985623 2795:0.05877623 2805:0.35433424 2807:4.1111703 2811:3.0264573 2814:1.3562785 2817:2.8269603 2821:3.2254803 2825:3.4072223 2826:0.46878326 2831:0.85329908 2834:3.447659 2837:0.29363474 2838:0.61447406 2844:1.8631341 2846:0.93417525 2849:0.0035284162 2851:0.43292975 2856:0.74833798 2857:0.4919357 2860:1.7826231 2865:1.1847615 2872:0.46389121 2878:1.2981402 2880:3.9767756 2883:0.95538318 2892:2.5027246 2894:4.1009893 2896:0.69592369 2898:0.06381011 2901:3.7555332 2903:0.83820784 2913:0.90694726 2917:0.60158187 2918:0.32082319 2919:3.9454315 2927:3.4388766 2931:0.96756756 2938:3.7217591 2940:7.8253217 2944:1.4755877 2945:2.8110456 2948:1.8174882 2952:0.3653357 2959:0.77291334 2974:0.93329448 2978:4.8241529 2982:1.4407369 2986:3.3792593 2992:2.2054906 2993:0.38466763 2998:1.1875097 3010:0.29318365 3015:0.13523108 3037:4.0096912 3046:1.0845708 3050:0.88266796 3052:0.898031 3056:1.0600743 3063:1.0903656 3079:0.23914725 3087:6.0329595 3103:3.9170156 3105:0.70748663 3114:1.5504211 3124:1.7874838 3129:0.14511165 3132:1.1044569 3135:1.3507798 3144:2.5069795 3151:1.7772145 3153:3.0012727 3155:0.30620083 3159:0.22853932 3160:2.5855055 3163:2.6783476 3166:3.8041975 3179:0.72774369 3190:1.0107443 3195:2.4777794 3199:0.75871295 3207:1.0206455 3213:0.00082802773 3216:2.3071644 3217:1.8269387 3224:0.14712742 3229:5.314219 3234:1.3003058 3246:2.5381835 3247:1.7558619 3253:1.3584015 3270:0.36327606 3271:1.0276167 3274:0.52201438 3275:2.8284864 3278:0.98199856 3284:4.1673298 3290:0.42884165 3291:3.765599 3295:2.0271683 3296:0.033632725 3298:3.4280157 3302:0.29249108 3303:0.35968304 3307:2.9794312 3309:1.7018592 3310:1.5380262 3313:1.4397142 3317:0.090990826 3325:4.28017 3328:0.276429 3334:2.2021012 3337:1.539956 3341:1.6641691 3344:5.3050833 3346:0.76145113 3347:0.011365592 3348:2.7038012 3349:0.24168643 3355:0.6154936 3367:0.14487262 3375:1.2687681 3378:2.7405183 3382:0.25451303 3383:1.461966 3386:2.1006987 3401:0.46809313 3405:1.0594971 3407:4.0500469 3411:3.0806296 3413:4.3217397 3422:1.1210833 3423:2.4153254 3424:1.7904134 3427:0.20954612 3431:2.3961174 3442:4.8949399 3444:3.0114794 3445:0.83901119 3458:3.2955899 3467:2.5199819 3468:0.50841141 3471:0.71500158 3476:1.5448575 3486:6.3279929 3488:0.019101471 3490:2.17538 3493:3.3203487 3496:0.050149649 3501:0.95791322 3503:5.079802 3508:1.3452091 3513:0.31605986 3516:3.9547756 3521:1.092044 3523:1.507718 3525:0.78899884 3529:3.8558304 3532:1.4130623 3534:0.012372792 3535:2.0538955 3536:0.33704418 3537:4.5899591 3539:0.8160103 3541:0.42198735 3548:1.8013594 3556:1.7703526 3564:0.37138659 3566:2.0272126 3568:1.8266106 3577:0.56085658 3584:1.7340254 3586:2.7750716 3588:2.4705677 3598:3.5585797 3599:3.500164 3608:2.2357473 3616:2.4571903 3619:2.8944724 3621:0.54984403 3623:1.1956992 3636:1.7135789 3643:0.47796646 3644:5.337182 3647:1.8917985 3649:0.68347311 3650:3.1560318 3652:0.8988238 3653:5.4922833 3661:0.069294065 3662:1.2464802 3664:1.646559 3665:2.1774249 3671:0.1811755 3677:0.53922099 3679:2.1110823 3691:1.6711371 3692:0.27908084 3700:0.70347393 3705:2.3235826 3708:1.1058512 3711:1.687744 3715:1.8468447 3731:3.1449838 3732:1.6125892 3739:0.82811546 3742:3.2165308 3748:1.0752416 3756:2.3605034 3767:2.1403887 3769:1.9443789 3771:1.0299549 3773:1.4883538 3774:0.89285088 3776:3.7148013 3777:1.6379194 3778:0.16666168 3792:1.8965056 3803:1.4860625 3806:2.1922331 3808:1.9975803 3810:1.1256599 3818:0.46994066 3822:0.24537858 3824:6.6105437 3826:0.00411883 3830:2.8005185 3833:2.59513 3840:0.42129827 3841:0.071710467 3861:1.1412588 3862:2.9462407 3864:3.2735074 3872:6.2502127 3877:4.0949283 3888:2.5533087 3889:0.64950514 3892:2.7564416 3893:4.9578838 3906:0.47606957 3913:4.8826356 3915:0.34533244 3917:0.46127555 3927:0.13215189 3929:2.4163702 3935:3.2065406 3940:0.31886154 3943:5.9517832 3948:4.5981765 3957:0.36787403 3962:1.7745392 3963:0.888843 3968:3.3891697 3970:0.091458246 3976:1.5421332 3978:1.2459102 3980:0.56733596 3988:0.63442624 3994:0.096018448 3997:0.080582291 4000:3.0902348 4003:4.2193928 4004:1.1975343 4010:3.3215508 4018:0.67927152 4021:2.9282682 4029:1.9636787 4036:6.0868239 4041:3.1745391 4042:0.83982599 4050:2.6005018 4052:4.375545 4057:1.4260629 4062:2.3783264 4063:5.9029126 4067:1.8722968 4068:3.3672025 4069:0.030239433 4077:0.127334 4079:3.1737442 4084:4.975666 4094:0.24913311 4096:0.94826651 
1 1:0.727036 4:1.9544066 10:2.8117228 15:1.1540747 16:2.4331868 19:1.760545 20:1.4848157 21:0.83028269 22:0.98689014 25:1.0267107 34:0.85579383 40:2.1454451 49:3.178153 54:0.99031591 58:0.49776268 60:0.8462581 71:1.597332 77:0.98542613 84:3.9166062 86:3.4343245 94:0.55939376 102:1.7218562 108:2.883425 112:2.3022807 125:0.16475639 127:0.98882377 130:2.1341839 143:1.3058929 146:0.50684059 159:2.3782079 161:3.1841412 167:0.46017745 171:1.9994836 173:3.7936769 176:0.97126991 177:0.67683017 180:4.8372664 184:1.0804328 186:3.3659816 188:6.6710925 191:0.76107621 194:0.014357328 200:1.8043774 209:3.255115 210:2.7019939 217:0.49880126 218:0.04268086 223:3.8489618 233:1.5249665 239:0.61955351 240:0.73875433 244:0.86017346 246:2.6954815 254:0.26181683 262:3.1814182 267:0.2097024 272:2.7713268 274:2.7517133 282:0.94401228 288:0.30509666 297:0.20436919 300:0.55251706 301:2.779444 304:1.4898283 311:4.1624389 313:1.4323623 314:1.7679915 315:1.5380504 317:1.799886 322:0.10228804 324:0.44242886 328:0.7719959 333:0.95486355 338:0.3294341 342:0.95353562 350:0.789859 351:0.12884572 353:1.9299308 360:2.2285001 374:1.0960203 375:0.34649935 379:1.8611372 382:0.12348682 384:1.4006252 385:1.6861932 386:0.046112843 389:1.6518583 410:1.2111083 415:0.87473589 421:0.26250607 434:0.90465319 451:0.5904355 452:0.034786761 457:0.78065246 460:1.3224642 463:2.1498213 466:0.50149989 470:0.90343356 471:2.7839396 474:1.0967492 477:0.28280872 482:2.4509342 485:0.87067991 493:3.7489693 499:2.7492802 502:0.067037441 507:1.2568017 515:1.1080856 517:1.5434331 518:0.67748559 526:0.1777654 527:2.1997213 546:0.33596963 547:2.0158775 549:0.41571915 554:0.34968346 562:3.0777256 565:0.85121858 575:0.47805646 576:0.67069805 583:0.22062841 589:0.96938193 592:0.27296194 596:0.93182325 598:0.21811968 603:3.7517605 607:2.6390958 612:0.53687227 627:3.5037036 635:0.4102059 642:3.3030837 643:4.8217516 655:0.47579351 662:4.9359431 667:3.4869978 671:3.1416273 672:3.4773619 674:2.9166119 679:2.1331158 680:1.104964 682:0.47657675 691:0.50321984 700:1.8153265 702:5.371139 705:0.73062479 706:2.6183777 711:3.082371 717:2.9985175 718:2.275218 720:0.13801163 723:3.3582957 736:5.393507 737:1.0545866 739:2.8004229 742:1.4896073 748:2.0715475 749:0.56827986 750:0.00094890594 752:0.16170388 756:1.711763 759:0.99390554 766:0.76529908 775:1.1848254 782:0.641078 799:0.31468344 802:0.4287526 807:1.2252395 811:0.48213571 820:1.1322646 825:0.59873116 826:2.7975571 839:3.5355606 842:3.4647045 846:3.5921855 848:0.0083400309 850:0.6097616 857:0.77042711 859:0.49683225 860:2.0280738 861:0.17745093 863:0.72862798 869:1.2042702 871:1.7933779 872:1.2770817 874:5.856185 876:2.456517 877:0.88069707 878:0.28509766 885:0.71062255 891:0.020464838 894:1.5581887 902:1.5242078 904:0.27558821 908:1.3058559 912:4.0826035 919:0.0022234693 921:0.12479244 924:3.0406299 932:1.7893734 942:2.2761858 945:2.238687 948:2.8443356 949:2.7109678 958:3.0623956 959:1.6509652 965:6.2521696 968:2.7377002 970:2.2385993 974:5.5874796 993:0.75959861 999:0.34532183 1001:3.1491809 1002:1.8588156 1014:1.1605177 1018:4.2843509 1019:4.0151305 1022:2.4328387 1035:0.040196955 1049:0.089418188 1062:1.6848838 1064:1.1102005 1068:0.39331281 1076:2.2799306 1077:2.4523625 1080:0.094967663 1092:1.1348101 1094:0.83856487 1095:5.2788181 1096:3.7925732 1099:0.28484258 1102:0.18143502 1105:0.45343298 1111:1.2323997 1123:0.16690017 1124:1.6492089 1125:0.84336525 1137:0.82228607 1140:0.12846166 1149:0.052207738 1160:3.2579987 1165:0.99822819 1173:0.033635825 1175:0.17970856 1180:1.8559879 1181:1.079698 1189:3.4602268 1192:3.7052572 1206:3.1125593 1216:0.24067831 1220:1.4731375 1228:2.7098546 1231:0.28070879 1234:1.6018482 1242:0.20189013 1246:0.20554933 1249:1.6139767 1250:0.86177438 1252:1.2602084 1253:3.657479 1260:0.51021069 1265:1.4103272 1266:2.8400784 1268:0.0022363961 1271:0.78310299 1274:0.94495678 1279:0.049221158 1286:4.3542585 1289:2.4795723 1292:2.593581 1293:3.3355923 1294:0.41838461 1295:0.9845832 1298:0.68268216 1302:3.0845494 1304:0.24082401 1306:0.039453506 1309:3.0235353 1318:0.81684363 1319:0.85460925 1334:0.16030329 1335:2.915132 1337:1.408042 1340:3.6929424 1347:0.0053407103 1349:1.2720528 1350:0.84419465 1356:0.39837295 1366:0.84464377 1368:2.7302642 1372:1.8696084 1373:5.0371046 1377:3.0563643 1380:0.096059859 1382:0.69279242 1385:0.49375919 1393:1.9108367 1401:1.9937738 1406:3.2736137 1410:1.2155083 1413:1.7104322 1426:3.2629609 1432:0.17697525 1433:0.2643818 1434:1.1230987 1438:0.9393189 1441:1.1554054 1445:0.50679851 1446:0.36330509 1450:0.18379767 1458:2.2729759 1465:3.2029905 1470:1.9034942 1471:2.4144738 1477:3.3915584 1487:3.1570339 1489:0.23208293 1495:3.2892246 1497:0.24582562 1506:3.005163 1510:0.016350746 1511:2.4423862 1512:0.033681169 1513:1.4077435 1515:5.3919129 1519:0.036226392 1526:0.010308474 1530:1.7696052 1543:2.3488598 1547:0.12037078 1551:0.23374626 1557:0.25730777 1569:1.6838145 1577:2.4106221 1582:2.6352639 1583:1.4731307 1587:0.96287471 1590:5.3523426 1595:0.96021688 1600:1.7055856 1604:1.1215558 1612:0.35538614 1613:0.051821291 1615:0.26779503 1618:0.19594496 1622:0.58571637 1625:4.3735704 1629:3.1323748 1630:0.23036814 1637:0.04065299 1654:0.76761687 1661:1.8398226 1663:0.066098183 1675:0.73056442 1677:4.6396856 1681:0.2565659 1694:2.4845941 1700:2.0827775 1705:7.0700469 1707:2.5032778 1710:2.3541994 1714:0.26961145 1716:1.1189573 1724:3.8797071 1725:0.05750674 1727:0.38803244 1733:0.24235766 1748:1.9899583 1749:1.8301096 1756:1.3969972 1758:1.221693 1772:1.8380591 1778:0.66508353 1779:0.08234179 1780:0.10267133 1784:2.9712744 1785:0.80638278 1790:1.2434659 1794:2.2453489 1799:4.2338066 1804:2.5894339 1811:0.13487652 1812:1.1455632 1819:2.5032871 1824:4.6549592 1828:0.67783546 1830:1.4297277 1832:3.5451338 1833:2.5101295 1838:0.1467416 1840:3.2291098 1842:1.0418291 1848:1.962414 1849:0.12890226 1850:1.6413076 1851:0.49938694 1855:2.4371214 1856:4.1627107 1864:0.39296052 1869:4.3880763 1872:0.76591599 1874:0.59227002 1881:0.97204149 1882:2.216064 1890:0.8440221 1896:0.021606445 1909:0.65991384 1912:2.5719762 1917:1.4063817 1918:0.08115226 1920:0.10881749 1922:0.36514792 1928:2.6285849 1935:2.1172326 1937:0.43918207 1951:0.37591964 1967:0.58924806 1969:0.66548109 1970:1.1348469 1975:3.4746644 1989:2.3868363 1993:1.0859014 1997:1.8223228 2007:2.1729498 2013:0.30665696 2029:0.77780622 2030:2.0426631 2038:4.39153 2041:0.19677874 2042:2.5668809 2047:0.57693243 2049:0.30862969 2050:0.38500518 2051:1.5947046 2057:0.26043224 2061:3.263371 2066:0.28282723 2068:1.7300302 2073:0.48956314 2075:3.5904539 2076:0.15499508 2085:2.8047624 2092:0.27918428 2097:0.12986925 2100:3.3544042 2105:2.322608 2112:0.020943791 2120:3.5670655 2134:0.37780508 2140:5.3629904 2144:5.292151 2151:0.071599662 2153:1.2142652 2166:3.0767949 2172:4.1622548 2179:4.1955032 2186:0.12481788 2188:2.3059731 2201:1.8457093 2202:4.3618832 2203:1.8018336 2205:0.86812043 2210:1.3513099 2214:3.4956853 2223:3.9831092 2244:1.5702717 2245:2.0966122 2246:1.0073225 2249:3.1275628 2250:2.2082338 2253:1.4626722 2264:0.98617798 2267:2.1879301 2270:0.96960217 2271:0.83473575 2275:0.6058982 2276:1.7755674 2280:0.4859457 2281:1.2060574 2286:5.6789169 2290:2.1684403 2295:2.4088874 2300:0.72658128 2302:0.13112943 2307:3.6796482 2317:0.34611452 2318:0.35604256 2320:1.3393885 2321:0.092742622 2327:0.80684006 2331:1.1213474 2332:5.2724071 2348:2.9557757 2350:1.2585673 2353:0.52044243 2358:2.042707 2361:0.63688982 2369:0.72635972 2389:0.49373913 2409:0.46921992 2416:0.14327338 2417:3.3282113 2428:2.5374241 2431:0.40954247 2435:1.1928079 2441:2.5644205 2451:1.4164859 2455:6.2992158 2457:0.28869498 2471:4.9224687 2473:0.47117731 2479:1.8011411 2481:1.5988827 2487:0.48188666 2488:5.2012258 2494:4.0899329 2499:2.6422391 2503:1.5471113 2504:2.8890724 2507:0.51760626 2514:0.8600992 2521:2.3764267 2527:0.25424922 2528:0.22759236 2536:1.027097 2543:1.4313787 2552:0.3113668 2554:0.28078589 2571:0.17728133 2577:0.35416257 2578:1.3274927 2592:2.3918786 2595:4.358212 2596:2.6251225 2604:2.0342767 2612:0.24200818 2616:0.30476505 2624:1.4957626 2632:1.4723196 2635:2.8006375 2639:1.8548243 2642:0.41770196 2651:2.6889281 2656:1.1067966 2668:0.42876527 2669:0.81676286 2680:1.230253 2690:0.025010467 2693:0.43277338 2694:3.6331663 2695:0.30327821 2698:1.0149618 2704:3.3552632 2706:0.29104123 2707:1.1146719 2714:1.9272869 2718:4.1630745 2726:1.2316281 2735:3.2970893 2739:0.31685364 2740:3.1107886 2745:3.0310414 2750:0.62005466 2763:0.7407248 2766:3.6235855 2775:0.21617937 2777:0.95041072 2778:4.0162168 2784:3.8935468 2790:5.2452841 2793:1.9588304 2795:2.7330151 2796:0.83385348 2799:0.091335729 2805:0.99568033 2811:0.7106086 2814:1.7460934 2817:3.9780321 2821:3.773742 2823:0.62489474 2825:0.76205337 2826:1.5428786 2834:5.1344967 2838:2.3098845 2844:5.2948899 2849:3.569087 2857:3.1268852 2865:2.0489883 2871:0.78902936 2875:1.8929296 2878:0.57315892 2882:3.0534816 2892:1.134915 2898:0.084648758 2903:0.95141208 2910:0.85531783 2917:0.69208294 2919:2.9940691 2931:2.5787663 2938:0.62646556 2940:3.7335734 2950:1.0583265 2953:0.36774981 2965:1.2265794 2968:0.16528231 2970:3.4501023 2979:0.48267135 2981:0.46077719 2986:5.13448 3000:0.95924735 3001:0.14130923 3010:0.90729606 3013:1.9297197 3019:0.05310154 3020:0.20900016 3033:0.69516456 3035:3.7103152 3037:2.5934787 3044:0.56867027 3045:2.1172557 3046:0.12634316 3051:0.68969357 3056:1.6863399 3060:2.0864868 3067:0.97754985 3081:1.5141056 3087:1.218452 3094:1.6630784 3105:0.8996141 3110:2.3760223 3114:2.7448897 3116:2.1234226 3124:3.7032619 3129:0.19766551 3133:1.5672289 3135:0.82610315 3137:0.11229983 3144:2.0652087 3147:1.9127401 3151:0.69372231 3152:0.37763369 3154:0.98487538 3157:1.7519284 3160:1.7404244 3163:1.0268207 3166:3.2460005 3169:0.20398161 3172:0.90651298 3179:1.1881645 3182:1.3025044 3183:1.3731524 3188:1.4990501 3189:1.5691251 3195:2.2397623 3197:0.32129934 3198:0.48950195 3213:1.6387972 3216:0.89934248 3229:0.71812296 3235:0.45043647 3246:2.3437412 3247:0.78489769 3267:1.783094 3274:2.3011885 3275:0.60311449 3277:0.51726788 3279:1.639879 3284:1.7722433 3285:1.1798352 3286:0.8824954 3290:1.1250287 3291:4.1056137 3293:1.0894803 3295:5.4176216 3298:0.26927349 3309:0.65349191 3310:3.4533296 3325:1.5172303 3334:3.0348957 3344:5.1093192 3347:1.1944764 3348:1.827873 3349:3.3381987 3355:0.55095965 3356:2.6668558 3382:0.44274774 3383:0.83041322 3386:3.387506 3388:1.4590564 3407:1.9428177 3411:2.9273598 3413:4.507237 3422:1.318171 3423:1.4355016 3442:4.4632521 3448:2.1315012 3449:0.84835082 3450:1.3245088 3467:3.3748651 3468:1.8924193 3471:1.3350505 3486:3.3075442 3493:4.7655272 3494:1.4620479 3495:0.66180217 3496:0.18053445 3500:1.0981135 3501:1.3215568 3503:0.32462019 3508:1.2356708 3525:0.2642315 3529:1.4867743 3531:0.5743801 3539:3.8418415 3544:0.54855663 3548:1.7107124 3556:1.7532008 3564:1.0486578 3565:2.1476905 3566:2.0533438 3569:0.15094492 3573:1.2942498 3577:1.386839 3582:0.58774614 3584:1.8630363 3586:2.8087687 3588:0.37543011 3589:0.38386285 3592:0.59341192 3604:4.5601306 3623:0.71696496 3624:1.1039207 3627:0.6098398 3629:1.774482 3635:1.8215165 3636:0.87059677 3640:0.28293732 3643:3.5140824 3644:5.7990522 3650:2.4885061 3653:1.437551 3657:0.46908459 3662:0.49681762 3664:1.2108583 3665:0.28388667 3666:0.61708605 3667:1.3765608 3672:0.47091654 3682:2.9969268 3690:1.8786166 3692:1.4654003 3700:0.15130767 3705:0.13941653 3708:1.6705892 3719:0.70901972 3724:0.25951406 3734:1.1010081 3748:2.013253 3749:1.0682447 3752:0.52805448 3753:0.2802555 3765:1.1287181 3769:0.63068253 3774:0.32963845 3776:0.18539576 3788:1.193985 3794:0.23064622 3806:1.5390536 3807:1.6965916 3808:0.31914619 3824:2.2783372 3830:0.64883924 3833:1.0307394 3835:0.35460913 3840:0.2796942 3861:1.1969632 3862:0.50214034 3864:4.604094 3872:1.3932676 3877:0.017822415 3886:0.62309337 3888:2.8380537 3892:1.6655222 3896:1.4480717 3906:0.97550625 3907:0.27074319 3912:0.9917413 3913:1.0285491 3915:1.1670407 3917:1.0586143 3919:1.1335149 3929:0.25145456 3935:0.8746025 3938:0.36398625 3942:0.25732559 3943:2.1565728 3948:0.081395984 3952:2.6890397 3957:3.8442128 3962:2.684644 3963:0.96223927 3978:1.8461145 3982:3.6933692 3984:1.0279638 3985:1.3740129 3988:0.75652182 3995:1.6120194 4000:4.4571972 4004:3.6248081 4007:0.14916439 4010:4.2135978 4016:4.4151163 4021:0.5407207 4023:0.050792985 4032:0.9870348 4036:4.1267548 4041:0.10596333 4050:0.74148321 4052:0.94725931 4059:1.4329227 4067:0.25491065 4069:1.28504 4079:0.64475924 4084:1.7143455 4096:0.71035695 
1 4:0.47632551 9:0.93555737 10:0.23361319 15:0.67306703 19:0.11475651 20:1.7978328 21:0.98443425 23:0.17830151 27:0.38559136 34:1.1049857 40:0.12937641 54:0.51297039 56:0.38664055 60:0.86295885 68:3.7111478 69:1.3234563 77:2.1519086 80:1.4054532 84:2.0699856 86:2.7079816 105:0.34690294 109:0.37232 110:3.117933 114:0.45012516 120:0.13428254 127:0.36700913 130:0.10183536 140:0.0056788027 147:3.1525602 152:1.6991488 159:0.16251431 161:0.93697703 163:2.2614059 166:0.30899698 169:0.1682741 172:4.2530956 174:0.98150414 180:3.892283 184:2.5829611 188:1.951848 190:2.8279638 200:0.072342724 205:0.57128757 209:1.4951333 210:2.8038957 211:0.54069781 217:0.20929584 218:2.3711092 219:1.3514926 223:0.98777282 225:2.264848 232:0.77682322 244:0.44860858 252:1.0716112 258:2.9541829 259:1.9864684 261:1.6441033 262:1.5680742 263:0.16876364 265:1.3540381 272:0.6856758 282:0.90525651 288:4.3237214 292:0.31144315 298:0.66182405 299:0.14543238 304:0.74251336 312:2.178864 313:0.27499807 317:2.5869017 321:2.1421227 324:0.7481488 340:0.17101112 342:2.7260063 348:0.8310414 349:2.0316477 351:0.32861573 353:0.3894482 360:1.8874264 363:1.4692874 367:0.025008425 374:0.21166433 382:1.9396551 384:1.726768 390:0.75547504 397:1.124084 414:1.3489666 420:0.31693509 432:3.7586718 434:0.63710153 436:3.5708947 440:0.60922211 442:0.60865587 450:1.8671534 451:0.89275318 459:2.3608465 460:3.0880835 466:2.2518857 471:0.28645751 473:1.465523 485:2.7668808 487:2.2442179 488:0.43270701 489:0.55163741 493:2.2831829 499:3.2390652 500:0.30353385 514:1.1834495 515:2.303262 517:0.38047597 527:2.81656 545:1.0511514 547:4.0982327 553:0.27892604 555:0.59237921 557:1.0164269 562:0.67719638 565:1.2029798 570:0.68708134 572:3.1915138 575:0.15714118 583:0.51629061 592:2.5471148 596:0.46299279 601:0.67622602 603:4.1029172 605:2.4282281 609:2.1781034 612:2.3168025 615:0.48395455 624:0.27880535 626:1.0451324 635:1.3833721 639:2.1840301 641:0.76178098 642:5.9654784 643:0.35489896 646:1.5898846 651:0.095018625 655:1.7922693 662:2.5583549 664:2.4170527 671:4.0662436 679:0.39890549 681:2.8739448 682:1.8496203 687:0.070769206 692:0.16025662 698:0.080534875 702:1.0689871 705:3.607579 706:4.4577374 711:3.9544942 717:1.0111905 718:1.4950157 720:1.6667924 723:2.3256552 724:1.5646714 735:1.0346924 736:0.68536127 739:1.378057 742:6.1398301 748:1.6932468 749:2.1470275 750:2.3508515 751:1.6737698 753:0.33308995 754:0.11024064 755:0.9400509 764:0.76211119 766:4.1275129 770:0.7217716 771:0.73560029 775:2.7245896 777:3.6830003 778:0.72580838 795:1.1874454 798:1.4661485 802:1.3640078 817:2.1225357 826:0.49936002 831:0.17287639 839:3.2022893 841:1.1033447 842:3.8949842 848:0.077396363 855:0.65960109 861:0.93685442 863:0.66926771 866:1.3386188 869:0.51084018 871:2.0855389 872:0.53874958 874:4.0886378 876:1.3677225 877:0.35831076 881:1.2736706 888:1.0682976 895:0.43094808 899:1.4629254 902:2.3745501 908:1.3156211 909:0.032761261 912:0.43455982 916:2.7131028 918:2.111727 921:0.34302711 927:0.23658347 928:1.9965161 935:1.6034836 937:1.7343085 945:6.3141093 948:4.0793519 958:0.9423486 961:0.14278072 965:3.233434 966:1.9699416 968:1.8056628 974:4.6406336 988:0.11456904 993:2.613708 997:1.3122257 1001:1.2377551 1002:0.87070012 1007:0.30941349 1013:4.2104502 1014:3.649435 1018:4.7581267 1022:1.3469956 1042:0.013336241 1049:2.2537603 1070:2.1855397 1075:1.1743307 1077:2.5507593 1080:1.7508352 1087:1.0949562 1092:1.827245 1094:2.2517397 1096:4.5747695 1099:0.28298831 1103:0.32821929 1105:0.61010873 1111:2.1259766 1114:0.29684094 1116:0.82690454 1117:0.27635154 1122:0.57883596 1124:0.74211681 1125:0.44802415 1138:0.42913145 1139:2.8342619 1159:3.927377 1160:1.555714 1169:1.7996904 1170:5.4383087 1176:0.36648589 1181:1.2306476 1192:2.2612958 1195:1.1919829 1206:1.3329946 1220:3.6193402 1221:3.457303 1223:0.66395074 1234:0.36593944 1236:0.057730943 1239:0.6197499 1242:2.16996 1249:3.8039114 1253:2.1642962 1264:1.2944126 1265:1.6955819 1274:1.6817881 1279:4.0389304 1281:5.2481728 1286:1.8843884 1291:0.7332685 1293:0.47904536 1295:2.4033315 1296:0.39606768 1302:0.93588829 1306:0.46477073 1309:3.1885161 1313:1.0800921 1314:0.2686654 1318:1.865931 1319:2.2220609 1320:0.89101052 1326:0.93116432 1335:4.7728977 1340:0.40301943 1341:1.9077585 1349:0.84787691 1352:1.8805242 1356:1.4025536 1359:3.9930098 1366:1.2192111 1368:3.7061181 1369:0.7409085 1376:2.8188827 1377:0.37478244 1378:2.3395801 1385:2.5460782 1387:0.038529336 1389:0.066587389 1393:3.2801661 1397:1.6584156 1401:1.4176443 1404:2.414274 1406:2.1920433 1409:2.4487362 1410:0.99139047 1411:2.2262363 1419:0.4676379 1426:2.2337871 1430:1.9570706 1432:0.26582748 1433:1.4774747 1435:1.6514044 1438:0.7422744 1439:0.44809169 1441:3.1757169 1450:1.9536743 1452:2.358068 1458:2.8033957 1467:2.971863 1470:4.5615892 1471:3.5874496 1477:0.70621049 1486:1.4149432 1487:0.89065599 1489:0.11806712 1495:0.31093305 1502:1.0511675 1504:0.26895589 1506:2.1807344 1513:1.3013077 1515:6.1063356 1522:0.91428542 1523:2.4301624 1526:0.77887195 1548:0.70360726 1555:0.36029321 1556:0.5160799 1558:0.2430242 1562:1.1205351 1577:1.4338772 1580:0.036344439 1582:3.0964203 1583:1.9115072 1587:3.2246003 1590:1.5256448 1597:2.035099 1600:0.34742233 1604:3.7757998 1605:4.420486 1606:0.48741722 1612:0.030691326 1613:0.91905475 1618:1.1860776 1622:3.5057983 1624:0.13140458 1625:0.6957162 1629:4.5191011 1636:3.7779565 1637:1.4787831 1646:0.18526196 1650:1.0363708 1659:2.9824655 1661:2.3162928 1665:0.72181946 1668:2.1157386 1675:0.79778838 1677:5.4615245 1690:0.16783786 1695:2.4430709 1696:0.26311976 1699:0.086109579 1703:0.54749769 1705:3.0000551 1710:0.86244875 1712:1.1622083 1714:0.56007314 1721:1.505264 1727:1.7222219 1748:0.65260535 1749:2.7012172 1751:0.27068615 1756:3.6098156 1758:2.6458213 1777:1.2886038 1779:1.0681016 1780:0.061528623 1781:0.045824409 1794:4.1081762 1795:0.71362889 1796:0.99657983 1799:3.2328234 1803:0.71744776 1804:1.3646204 1806:0.6767711 1808:2.5313706 1822:1.6175135 1825:0.20140538 1830:1.9093262 1832:2.6878901 1833:4.3723521 1842:1.6310914 1843:0.84852409 1844:0.94608098 1846:4.0236731 1848:1.4666995 1849:1.078418 1851:0.87582541 1855:2.3185802 1856:2.495805 1857:0.96859968 1861:0.45669571 1872:0.18681446 1881:3.6322899 1882:0.57171756 1888:1.6663949 1895:0.14852709 1904:1.2200407 1911:0.99870896 1912:1.2081916 1917:0.83491588 1918:2.1357121 1928:1.0170641 1943:3.0345199 1948:0.56793791 1963:0.0040162206 1966:0.11677 1968:0.47263926 1969:0.5226683 1975:0.48898697 1990:1.9612249 1993:0.56328654 1997:2.6395779 1998:0.34021717 2004:0.81865287 2005:4.2446394 2006:2.5256793 2011:0.72190082 2016:0.9238776 2019:0.95505661 2020:1.1375554 2022:2.49297 2032:3.2413402 2038:0.4994857 2042:1.8247247 2048:0.43951976 2049:1.0854605 2051:0.17458662 2057:1.9524593 2068:0.84775656 2075:3.0792892 2082:2.1247797 2083:1.409621 2085:1.039548 2100:0.49412581 2105:0.51667619 2107:0.018350154 2110:3.0457411 2113:0.14383139 2117:0.74332631 2120:4.0906043 2140:1.7939469 2144:2.7006614 2159:1.0874991 2166:4.0064402 2175:0.16773432 2177:1.9165763 2179:2.3069613 2181:3.7616575 2186:4.2098961 2187:0.52390391 2188:3.7992806 2198:0.85820848 2202:6.1560569 2203:2.3691754 2206:0.58283412 2214:4.8921418 2223:1.2213151 2229:1.6958301 2230:0.11591837 2239:0.59662789 2241:1.9665954 2244:0.49599302 2246:0.87488222 2249:4.2521377 2250:0.89451826 2253:0.97409213 2257:3.5877657 2267:0.43897921 2273:1.1415306 2278:1.7528094 2280:0.31762612 2286:2.3069296 2287:1.9289708 2291:0.96460521 2292:0.99012899 2294:0.75743175 2296:0.51436609 2298:0.77940053 2305:2.0267119 2307:2.2712379 2315:0.081233293 2317:1.222804 2318:0.41046816 2320:1.6462431 2321:0.3293713 2322:0.78640974 2324:0.80723792 2327:0.43834966 2331:0.63060713 2337:0.5858658 2343:3.5445058 2348:3.9089992 2358:0.37077862 2360:1.665881 2361:0.67324662 2369:0.72030824 2370:2.1685772 2379:0.24202189 2389:0.38253403 2390:0.76476872 2392:1.7710135 2393:2.016902 2409:0.87184501 2416:0.46250477 2423:0.14358315 2432:3.638278 2434:0.38319278 2435:1.3483632 2436:1.6221638 2440:1.0731465 2446:3.631398 2455:2.4121261 2457:2.1429904 2458:0.18247259 2466:1.4924198 2470:0.39328638 2471:0.47871566 2486:0.31142753 2487:0.52674198 2489:0.25396675 2490:0.64934319 2491:0.19738936 2493:0.71841311 2494:1.2065672 2503:0.45998451 2504:0.77671921 2507:3.8695905 2508:0.14392802 2522:3.1541462 2526:3.9205375 2528:1.7259724 2552:0.030863106 2561:1.5365932 2566:0.075004667 2576:1.2594097 2578:0.57025409 2583:0.48665544 2589:1.4681222 2591:0.7447952 2594:0.6103664 2596:0.62295806 2598:0.14477947 2604:0.60999018 2617:0.39456487 2621:0.97033495 2632:0.016967773 2635:0.20067969 2636:2.6461132 2642:0.31427255 2643:1.8058515 2651:4.0926738 2652:0.02561599 2656:1.6344296 2659:0.51811463 2660:1.30624 2676:0.89301044 2688:1.0084459 2689:2.72226 2693:1.4852231 2694:0.76492792 2697:0.61948454 2698:1.7261004 2704:0.09891504 2707:0.1309846 2708:3.821861 2714:0.26070803 2715:2.2996521 2718:2.3221734 2727:2.6880178 2731:3.1080208 2733:2.014286 2740:0.88914281 2745:1.5959719 2747:0.18972924 2750:0.36628532 2756:0.42592478 2766:1.1607673 2771:0.35358766 2775:1.4375128 2777:3.0904098 2778:1.4890909 2788:0.25690734 2790:0.38548318 2792:2.2351239 2793:2.2312081 2795:1.0677364 2805:1.8256949 2807:1.1275966 2811:1.4589289 2814:0.45282406 2816:0.02851817 2817:0.78613472 2821:0.39777693 2826:2.3896987 2830:1.7563143 2831:0.56041861 2834:3.8099871 2838:3.7771568 2840:2.2469525 2849:0.18084238 2853:2.3670561 2857:1.8458742 2864:1.0515479 2865:3.1738379 2866:0.10466108 2867:3.608078 2873:1.3303921 2875:2.6213744 2882:4.4752874 2887:0.66020316 2888:2.7365615 2891:0.79094678 2894:1.1417081 2896:1.1534464 2903:0.010187924 2917:0.86670142 2919:1.5697591 2927:0.0075049996 2928:0.051653028 2929:0.30184138 2936:0.057123363 2937:2.2002006 2940:3.7864583 2945:1.6029122 2949:0.70017242 2950:0.99169517 2955:1.3093182 2957:0.99644816 2966:0.24069965 2967:1.190665 2971:1.5238254 2977:0.36073756 2978:3.193836 2979:1.1649522 2981:0.56416821 2982:3.3926528 3010:0.90714478 3019:0.97386956 3020:1.2437202 3032:1.5519096 3035:0.93617648 3037:0.59849465 3049:0.23738447 3051:3.132262 3057:0.66939729 3059:2.2253847 3060:0.19558038 3067:1.1233349 3070:0.93799245 3075:0.95545942 3085:1.2980021 3094:5.2508698 3107:0.86889088 3110:2.4012496 3122:0.42323175 3124:0.65342641 3129:4.1796346 3133:1.1407762 3144:1.2814265 3145:0.084996015 3152:3.5400941 3154:1.0675361 3155:0.45181262 3157:0.98334056 3159:1.6019862 3162:0.052252829 3163:4.6387119 3164:0.26356339 3166:1.0907096 3169:1.102402 3170:0.063272297 3172:0.96470857 3177:2.7471333 3179:0.63734084 3183:2.5828605 3185:0.6184594 3187:0.16239887 3189:1.0586931 3195:0.51287699 3200:2.0109296 3211:0.032126814 3228:0.075189978 3229:0.48347402 3241:0.71296608 3246:1.038242 3247:1.1490152 3251:0.39189684 3253:0.1621165 3256:2.7380202 3258:1.9192473 3259:0.014334381 3267:1.4249662 3270:0.8363905 3275:2.311645 3276:0.48699889 3277:1.4962039 3278:0.066636592 3286:0.31255296 3287:0.52873182 3290:1.6313384 3291:6.2372589 3293:3.0106535 3294:0.052718788 3295:1.703934 3298:2.9887943 3302:2.069952 3310:4.0005999 3321:2.8583193 3324:0.32440907 3334:5.1962709 3344:3.6053505 3348:1.6961122 3349:4.8009038 3355:1.752344 3356:1.748994 3361:0.21727014 3377:0.78360319 3382:1.0990705 3388:0.37306136 3392:0.87901211 3397:0.10815644 3413:2.6011548 3423:0.42349675 3437:3.0461435 3442:2.9981782 3446:2.2186751 3448:0.06103304 3450:2.3226821 3452:2.9966652 3465:1.0378919 3467:0.54287243 3468:3.5346391 3471:3.5822439 3478:2.6088955 3486:0.38621259 3493:1.566148 3494:1.5245739 3496:4.0627098 3501:1.0813415 3504:1.4257535 3505:3.0888462 3508:3.6949537 3509:1.4216368 3513:0.47204366 3529:0.62861478 3530:0.35725138 3536:0.56436849 3537:1.5898581 3539:1.7882677 3544:0.40583453 3548:1.4830064 3564:1.4988878 3569:0.38149503 3576:0.12733912 3577:0.57638502 3582:5.1943369 3583:0.67732489 3586:3.2064569 3588:0.69985515 3601:1.572637 3604:0.029768039 3608:0.68874598 3614:1.7488575 3615:2.3624077 3617:0.80067569 3618:3.0544653 3620:0.5881331 3621:0.39090371 3623:1.9497434 3624:0.15982026 3627:2.768532 3629:1.0722657 3644:3.238061 3650:3.9831967 3657:1.0307871 3661:0.12864313 3664:0.78288305 3665:0.44077665 3667:1.0238214 3684:0.45191154 3690:2.3475924 3691:0.72560132 3700:0.36747572 3705:1.1707444 3710:1.7316319 3718:1.981526 3719:2.4117351 3724:4.4692473 3732:3.1448884 3744:0.84031212 3747:0.39943534 3748:2.0078733 3752:1.8992747 3753:0.25426751 3760:0.22984029 3763:1.4802837 3766:1.136439 3769:2.0055585 3771:0.90863305 3785:0.17648005 3793:1.1355425 3796:1.3204753 3802:3.6742978 3806:0.66262197 3808:2.338012 3815:0.066354536 3824:3.0860317 3831:0.076104745 3835:0.79430032 3836:0.5904783 3848:0.23523188 3849:0.50760645 3860:1.3395448 3862:1.592343 3864:4.7634134 3867:1.9686058 3872:0.59346962 3875:1.1689893 3877:0.59251356 3878:0.21027562 3881:0.57603639 3893:3.8600891 3906:1.5371999 3907:5.5219855 3913:0.1746133 3917:1.0477806 3938:0.5818032 3941:2.6707623 3943:0.37694961 3950:1.6321269 3951:0.025323868 3955:1.3077306 3957:2.046757 3962:0.85721433 3963:2.4296584 3972:2.167861 3976:0.4441894 3978:0.39123341 3980:1.2325084 3982:2.4071233 3988:3.2122469 3995:0.93703097 4000:3.1399782 4001:0.28528482 4003:0.54278469 4004:0.87196481 4011:2.6425316 4016:3.1433878 4021:0.53288281 4023:1.5539682 4031:0.42037708 4032:1.4499189 4036:1.1522224 4041:0.011130199 4050:0.55195999 4055:0.26813918 4067:2.4615302 4074:0.053891033 4076:0.13243373 4085:1.4718924 4092:0.58369887 
1 10:2.9911771 15:2.5237098 20:1.1605288 21:0.22782068 29:1.1057324 30:0.76648784 40:2.6329386 49:1.928021 54:5.4461789 56:1.61326 58:0.85269558 62:1.8409561 69:3.473917 77:0.49440342 80:0.75337166 82:0.30147773 84:3.0691786 86:4.4766006 94:1.2810642 102:1.2707578 108:0.46913731 110:0.85593009 112:0.72909838 123:0.21833214 125:3.5222194 126:1.4132278 130:2.0202227 134:1.1794647 136:1.9638276 140:0.80978072 143:1.6963429 146:1.002962 159:4.6191583 161:1.5704805 164:0.54171336 167:1.5997126 174:1.6089301 176:1.2580433 180:2.4997916 184:4.7143707 188:2.6567073 191:0.77361524 196:0.42066601 199:1.3194212 200:5.6520987 210:8.1326857 211:0.62104595 213:0.47416392 217:1.0720828 218:1.2329087 222:1.5776356 223:2.9369402 224:0.56152058 236:1.7162738 239:1.6803851 241:1.4475869 244:0.35214812 246:0.5888809 247:1.3083035 252:4.6545639 256:2.6473584 261:0.49124327 262:4.4716525 267:2.2695973 274:5.4443984 282:2.1237631 288:1.5151477 295:0.55001736 299:1.271311 301:4.9491425 312:2.839046 315:6.1930552 317:2.5025332 318:1.9399731 324:2.4230306 333:0.15466619 335:0.99333179 340:1.3934941 353:0.92897928 359:1.3663921 360:0.45295361 365:1.4790542 367:0.95589668 371:0.056910753 373:0.56147581 374:0.19724491 376:0.068033993 384:3.5309439 385:1.6497346 386:2.2288353 389:3.7606788 397:0.35364202 401:0.084559545 404:0.032760322 411:1.9674617 420:3.5518405 421:0.19862129 434:4.5406747 459:2.3717656 460:2.2268598 463:5.2158771 466:5.708035 470:0.32692009 472:2.3142831 481:2.4963522 482:2.1355064 487:0.1662198 493:0.82940435 494:0.61536193 499:0.31118917 505:0.10380024 507:0.61234003 515:0.092808858 517:3.1523213 518:0.21438769 526:0.2279724 527:1.3364391 547:1.4647555 549:1.1265242 559:0.4638879 562:2.7837551 563:1.5541519 573:0.17737904 576:0.48045784 578:1.1629727 589:1.6784829 592:1.4432509 593:0.1195483 596:0.39865199 601:1.0895765 603:4.3793511 607:1.0302343 612:0.66356826 616:0.88212526 624:0.80129576 637:0.68622303 642:1.5375714 655:0.20768896 656:1.5457428 661:0.051538132 662:1.8588263 667:3.0587087 670:1.4507458 671:1.1362461 672:2.4266434 674:3.5442746 675:1.360543 676:0.63088959 679:1.7179662 680:2.0229986 681:6.6236749 682:1.4160085 691:0.94099295 702:4.7996488 705:1.1525053 706:5.1815515 711:2.4159908 718:0.30089521 722:4.6541333 723:2.007499 725:0.78308463 726:0.096667528 730:1.5780587 736:4.6558971 742:1.5661154 750:2.8245182 751:0.49093598 759:2.7078032 766:3.9026649 771:0.24706349 775:0.63782215 777:1.6888905 782:1.0287157 785:0.12558459 786:0.083542138 792:0.052936286 798:1.2499787 799:1.422435 802:0.538975 807:2.3311265 812:1.9956001 817:0.36032599 823:1.0620927 838:1.0706697 839:3.76525 841:4.6176972 846:1.3743346 848:3.226213 850:0.82111347 855:1.1243815 857:0.30404088 860:0.99086225 863:0.98643214 867:3.2271812 869:3.1260545 874:4.6305561 877:0.25899526 878:1.7532132 883:0.75095284 885:1.2005427 888:1.2956955 894:4.3560472 902:2.8077989 904:0.21832088 908:0.69346344 912:5.7593479 930:1.0030224 931:0.79049003 935:1.7803059 936:0.27430817 942:3.2871013 945:4.1386094 947:0.84096199 948:3.5978048 949:1.3744978 952:1.9803603 958:2.2538817 962:0.75687683 963:0.55538082 965:8.2384882 966:0.9048034 967:0.71652621 968:3.8945525 974:7.2774358 985:3.600245 1001:2.5884087 1002:1.7783936 1005:1.0642105 1014:1.9259232 1018:6.7243772 1019:1.7549083 1022:1.175038 1053:0.71640158 1056:1.3003055 1062:1.4598998 1074:0.40860105 1090:1.2020018 1092:0.66017544 1094:2.392206 1095:5.4460034 1096:5.3528938 1099:0.10059315 1102:1.0760295 1111:3.0758595 1116:0.12367539 1119:0.74019122 1124:0.1999307 1125:1.7366416 1139:1.4945501 1144:1.8999047 1147:0.40014547 1149:0.56414771 1159:1.0860921 1160:2.6814499 1165:2.42519 1170:2.0424316 1173:0.30618733 1176:1.4559057 1179:0.081792533 1180:3.7425649 1181:1.4297109 1189:4.5432744 1192:6.0076513 1195:2.9478118 1206:5.3014984 1220:3.3916063 1228:3.7579455 1231:0.51772833 1234:1.2460303 1240:0.34523934 1246:0.40162823 1252:3.6415048 1253:1.5672144 1268:0.2094526 1271:2.7415414 1279:1.0371935 1286:6.8733339 1292:6.1089454 1293:4.1296096 1295:2.1714432 1302:1.966252 1304:1.3306239 1309:1.0548494 1314:0.45293117 1318:0.88059342 1319:2.564405 1320:0.41097984 1323:0.46202087 1329:0.40875447 1338:1.2548035 1340:3.2428634 1341:1.4545525 1347:0.00089420378 1349:2.2040114 1366:4.424962 1368:1.8984369 1369:3.3605232 1372:1.5502697 1376:2.5919383 1377:4.4188566 1378:2.4905283 1379:0.95078158 1383:0.038863897 1385:1.9440652 1389:1.0324543 1391:1.0972116 1393:2.4076343 1401:1.8335714 1404:1.6777186 1406:2.3533797 1410:1.1297909 1421:0.084023982 1426:2.0464735 1432:0.077051699 1435:0.75826347 1442:2.4105628 1446:3.8902068 1447:1.0077204 1454:0.45826286 1458:0.6233142 1462:0.52062654 1465:2.3735352 1470:0.7519033 1471:0.63073009 1476:2.5663884 1477:3.7219994 1478:1.0360347 1484:1.5594389 1487:1.7719444 1488:1.9117802 1489:0.51489997 1492:0.8928237 1495:2.1117625 1498:0.18577123 1502:1.2632511 1503:0.64103758 1506:4.1465402 1510:1.7428846 1513:0.79198706 1514:0.72825098 1515:4.6334147 1516:1.6890504 1518:0.63247311 1519:0.11943588 1522:0.23639637 1523:0.67726475 1526:0.35014859 1534:0.32380235 1544:0.038689673 1547:1.5433922 1551:1.5689116 1562:0.76751471 1566:6.0283923 1569:5.1202412 1571:2.2619395 1577:3.4544177 1582:6.426178 1583:1.2139686 1587:2.9585419 1588:3.3894596 1590:0.77236533 1596:2.6594465 1600:3.6087177 1601:1.2380972 1604:1.172541 1605:2.4762192 1612:0.64540493 1618:3.2234068 1624:0.44728321 1625:4.4108639 1629:1.7755629 1630:0.27747768 1636:1.3501344 1637:0.37243703 1640:0.084361851 1646:1.4213047 1661:2.4276135 1663:1.0270857 1675:3.2215683 1676:0.30965477 1677:7.1550417 1680:0.29381564 1690:1.4215033 1691:1.3421226 1694:0.92333478 1695:5.8269477 1700:1.0178961 1703:0.35745698 1705:3.3835394 1706:1.0507085 1707:4.8053517 1710:1.2857833 1718:0.61570251 1722:0.13757879 1724:4.3840494 1732:3.3549616 1733:4.7435637 1736:0.4413687 1737:1.2615936 1741:0.14805138 1746:0.73329085 1756:7.0398622 1758:0.10419381 1761:0.60252088 1771:0.0042583346 1772:0.14762488 1776:2.3933396 1779:1.2816634 1790:2.991787 1794:1.769158 1795:0.086321205 1796:1.5105414 1799:2.2297733 1804:0.47631964 1807:0.72371012 1812:2.0999358 1822:2.8171804 1824:6.4555697 1830:1.1180948 1832:3.4968221 1833:2.4257841 1834:0.083917692 1840:5.7407336 1842:3.6942067 1843:0.0020308197 1844:1.9279616 1845:1.5946827 1846:2.2869456 1848:1.8521135 1849:0.18255335 1856:0.71690059 1857:0.94571924 1859:0.082527995 1865:0.37907943 1869:2.4485378 1882:0.55168819 1894:1.6342664 1898:2.8065345 1904:0.95687234 1905:1.2820833 1909:1.2466552 1912:0.6046263 1917:1.6724939 1928:4.1359835 1938:2.5614851 1943:1.6008177 1951:1.7168397 1953:1.0475482 1958:0.14992768 1963:0.14364782 1967:0.20060576 1969:0.33408713 1970:2.8652391 1974:0.5101347 1975:0.38853663 1993:0.78769493 1997:0.17975122 2000:2.339792 2009:0.1498692 2011:1.7894747 2012:2.5131783 2019:0.94199002 2027:1.2930584 2029:1.1224505 2031:1.2760922 2038:2.0762177 2042:2.3747764 2048:0.82113737 2050:4.6953764 2053:0.58560562 2056:0.50639182 2058:3.1248956 2066:3.153069 2070:0.90479469 2075:6.8331246 2082:2.6558805 2083:3.9327669 2085:2.1554742 2097:1.3012788 2100:6.3978548 2105:2.8342066 2111:0.71896881 2112:4.5518007 2113:0.93598849 2114:0.077835366 2117:3.2753038 2120:3.9166152 2134:0.057219863 2140:2.3587377 2144:3.7073324 2146:1.4714953 2151:0.48271924 2153:0.78452229 2159:0.82930946 2160:0.46959466 2165:1.0154753 2166:3.4173801 2172:2.3294244 2179:1.9519975 2181:1.8549592 2186:2.1911385 2188:2.4936588 2198:0.27001068 2199:2.7262073 2201:1.3871657 2202:4.1519713 2214:5.3667917 2218:2.2822502 2223:5.5488825 2226:1.1499022 2239:1.5243238 2243:0.80137169 2245:5.0929403 2246:1.3077849 2249:2.02531 2250:4.7955132 2259:0.28404745 2262:1.6758056 2267:2.0486407 2273:0.7778216 2281:0.64256674 2286:4.153892 2290:1.6984469 2292:2.7913377 2294:1.1226006 2307:1.3290274 2315:1.1246504 2317:1.049897 2318:2.653255 2320:2.1878462 2322:0.77495384 2327:1.7449856 2332:2.9406142 2336:0.46381098 2337:5.4728293 2344:2.5127091 2348:0.55139232 2360:0.57331693 2370:2.5175405 2389:0.28194767 2399:1.305835 2406:0.33607745 2408:3.5182734 2416:2.2390654 2417:2.1190534 2428:2.8730779 2434:0.38876113 2435:1.4907606 2441:0.33955607 2449:0.26539749 2455:2.0873845 2457:7.9936261 2458:1.2557685 2463:2.2207699 2471:2.314487 2477:0.70290804 2479:0.1567567 2487:1.6789085 2488:4.2053051 2490:0.26557124 2491:0.57050133 2494:0.47319585 2501:2.1654112 2503:0.14253613 2513:0.039386094 2521:0.64056593 2526:3.731832 2528:0.69281971 2535:0.3162545 2536:0.37811404 2543:1.1343583 2552:2.9086149 2553:0.60044438 2558:0.53729016 2561:0.16540474 2568:1.0054685 2571:0.6961658 2574:1.1187093 2575:1.6270332 2578:2.6985795 2589:0.3060168 2591:4.2394042 2592:1.9388802 2596:2.4084401 2599:0.091161013 2612:2.3603654 2617:0.30612355 2621:0.77007872 2624:0.28632072 2627:0.29482859 2632:1.4304465 2641:1.2742745 2642:2.9097414 2643:0.90564877 2651:1.0827376 2654:0.67718059 2656:1.6719581 2660:0.28554827 2668:0.49560702 2669:0.49532586 2687:0.9073993 2688:0.73224843 2691:1.8315507 2693:3.9287446 2694:3.2140195 2698:1.6619977 2701:0.72594333 2704:4.5303407 2706:3.6634374 2707:1.7773148 2708:0.59443796 2714:2.8489614 2718:5.8374577 2720:0.22525698 2723:1.0490521 2725:1.022631 2726:4.9345074 2740:4.7855902 2745:4.8103061 2756:0.086370945 2765:0.092498004 2766:4.6299706 2771:2.9987123 2775:0.073744774 2777:7.0021296 2778:0.7192772 2784:2.3756402 2786:4.3241553 2790:6.2686701 2793:4.2053256 2795:3.6785791 2797:0.85957819 2798:0.3477453 2803:1.0276364 2808:1.1672103 2811:1.1859608 2814:6.6930399 2817:2.6827264 2821:4.7363687 2823:1.1230681 2825:1.0001976 2826:0.6028741 2828:0.30220145 2831:1.2039406 2834:6.719203 2838:1.4040319 2844:1.1147132 2846:0.10248718 2849:4.051568 2857:1.7610714 2865:3.2560911 2866:0.75562817 2869:0.10684323 2870:0.10155435 2873:2.7401147 2875:1.4603188 2878:0.89355648 2882:5.263082 2887:0.55441505 2895:0.32161349 2896:4.1932158 2898:0.34524092 2905:0.41821739 2910:5.2761359 2919:4.1475015 2920:2.8429453 2927:0.24851555 2929:2.0664115 2931:1.6462084 2937:4.2009964 2938:1.9838085 2940:2.7162693 2950:0.15042633 2965:0.42143804 2979:2.0606985 2981:1.2459472 2986:0.40041125 3015:1.4695578 3019:2.1321764 3035:4.7060828 3037:0.12600672 3046:1.4765379 3051:0.2320677 3056:2.2293756 3063:0.71042538 3072:2.5220599 3079:1.492234 3081:2.77231 3085:1.3914624 3090:0.063330144 3094:4.8949251 3105:5.17377 3116:1.8831438 3121:0.15825889 3124:2.9480124 3133:1.8608826 3144:2.8443682 3147:2.3842697 3151:0.42433649 3152:3.7600458 3154:0.46512765 3155:0.12697673 3157:1.4541886 3160:3.2916126 3162:1.1600368 3163:2.609251 3166:0.24091105 3167:2.8152809 3183:1.0991611 3184:2.8329499 3195:0.081921212 3206:0.84441733 3207:0.34925702 3212:0.03120476 3213:4.9307423 3216:1.3736788 3229:1.0908625 3232:0.31546882 3236:0.14895114 3246:0.49347055 3247:1.6671145 3256:0.97146893 3267:0.48363078 3274:1.0940357 3275:3.9524853 3277:0.064188153 3284:1.0413219 3285:2.6929085 3286:1.8057605 3290:0.93220776 3291:4.4737787 3293:4.550581 3295:2.4236791 3299:1.4140847 3310:2.7408125 3321:0.24799344 3325:1.244084 3334:4.0475469 3344:1.5318245 3346:1.5585159 3348:0.57568926 3349:7.0564413 3355:1.8920095 3356:3.5427749 3365:2.0702634 3377:1.607976 3386:1.4089777 3394:0.89768195 3401:0.97847295 3407:2.853075 3411:1.1091323 3413:1.4671575 3418:0.028502584 3421:1.3708791 3422:0.89363927 3423:1.3960099 3431:1.3844279 3432:0.60283482 3437:2.2089767 3448:0.49281624 3449:2.6847105 3467:3.7522907 3468:2.1069422 3475:0.21152395 3482:3.0549972 3484:3.2648716 3486:1.4372494 3490:0.3236137 3491:0.2853356 3493:2.9972634 3494:2.0606208 3496:3.7121027 3499:0.12750731 3500:2.760314 3501:3.7652614 3508:5.1135268 3509:1.138761 3513:2.2771745 3529:1.6521569 3537:0.042797089 3539:7.9944592 3544:0.3325848 3548:1.4075477 3556:0.3362931 3560:2.4724302 3561:0.078497499 3564:2.1609898 3565:0.62270927 3566:1.1774628 3568:3.4756222 3572:1.0331091 3577:3.6761918 3582:1.2667881 3584:1.0498016 3586:2.6585729 3588:1.0310907 3589:0.46667582 3591:2.0330358 3596:1.396836 3599:0.91699886 3604:2.8458884 3608:1.3869373 3615:3.3996539 3616:0.027252346 3620:0.026902378 3621:2.286797 3624:1.6460376 3627:3.9594781 3629:1.1946992 3635:1.7671027 3636:0.34855768 3642:1.8670462 3643:1.9725529 3644:5.9440546 3650:1.4902442 3653:3.6779408 3662:2.0739083 3664:0.8655827 3665:0.43205437 3667:0.610618 3675:0.16992943 3677:0.063033909 3679:1.637804 3683:0.32460645 3689:0.99518788 3690:1.9170024 3691:2.7625701 3692:0.93899083 3705:0.40575311 3709:0.63879246 3719:3.9919574 3724:3.1193583 3729:0.65613949 3732:2.1086617 3734:2.5438681 3735:0.082599401 3748:4.2061605 3753:1.2519647 3766:0.87516582 3767:0.70611918 3769:1.3087995 3771:1.6824902 3776:2.4925337 3779:3.6524527 3782:2.5252669 3793:1.1961524 3803:0.098377228 3806:0.57189357 3807:1.9565954 3808:1.8578174 3810:0.39604744 3822:1.4729946 3824:6.0010467 3833:0.25965619 3835:0.0087351203 3836:0.017822593 3848:0.91606337 3852:4.3207483 3864:3.1636498 3872:5.3965664 3875:0.33965808 3877:1.6081823 3888:2.2543206 3891:0.80396235 3893:2.4486203 3906:1.3163633 3907:1.1860783 3913:1.0791004 3915:1.8227999 3917:0.38774785 3929:2.0000255 3935:1.4326882 3938:2.8991933 3948:1.3001842 3952:1.0193131 3957:3.0326111 3962:1.6055646 3963:1.7009697 3978:1.2872171 3980:0.1367206 3984:4.6012917 3994:0.10361068 4000:2.5949593 4003:0.61254442 4004:1.8880067 4010:1.9942541 4013:1.5082512 4014:0.56751639 4016:0.44369131 4018:0.64000738 4023:2.2337863 4036:4.0981455 4041:1.0317428 4042:0.60929453 4052:2.7050879 4063:0.54911423 4067:1.0869198 4069:2.2910686 4074:2.1572762 4079:0.069521129 4083:2.5020156 4084:4.8991289 
