svm_type c_svc
kernel_type rbf
gamma 0.000244141
nr_class 2
total_sv 245
rho 0.179473
label 1 0
probA -6.28766
probB -0.889128
nr_sv 108 137
SV
1 10:4.2692766 19:2.7651646 20:1.8614597 21:0.27472138 26:1.2055029 27:1.9198061 31:3.0063899 34:2.237155 37:1.1360271 39:4.1304684 44:1.5888242 45:4.388454 54:4.6240301 61:0.85447896 68:1.1248039 77:1.4775386 80:0.37057033 84:0.81514621 86:0.17764804 89:0.011036068 103:1.3554542 108:1.1056497 112:1.6663189 120:0.15108447 123:0.68027711 126:0.062483177 140:3.0895681 159:3.3468931 161:1.0959748 163:0.091738939 166:0.61656487 171:0.11933637 172:1.6100347 173:0.16089156 174:0.53841883 175:0.33394185 178:1.0539005 180:2.4192662 181:0.39852649 184:2.1826916 191:1.1924108 195:0.65143549 199:2.5277281 204:0.38363159 210:6.2468696 217:3.1539485 218:3.9346814 221:5.8349171 222:0.954952 223:1.2674891 232:3.7653289 236:0.30889702 237:1.5962503 241:0.64768016 243:0.66317976 256:3.052115 267:0.58614874 274:1.9110795 276:0.070646495 288:0.083010405 290:0.29568309 301:0.57155365 311:0.22871655 312:0.50950807 313:2.8120372 315:4.759717 317:3.3124652 323:0.17756559 335:1.8713522 342:1.6502923 347:1.0289869 353:1.5243431 359:1.6714499 361:1.2855928 376:0.3109917 378:2.5223093 379:1.7156029 384:0.54888803 390:0.41279367 393:2.7651892 404:3.7591946 416:1.3754319 420:1.4865481 421:3.7520375 434:0.28858289 454:0.035166025 460:1.7891144 463:0.11633742 466:1.2187269 470:1.087146 472:0.87233764 473:0.1820299 482:0.44482648 485:0.32945338 494:2.9366546 496:0.37663031 507:1.6196653 509:2.3412302 514:0.42634478 517:1.2583188 518:1.8547125 526:1.8689482 527:4.3129387 547:0.024732187 559:0.89824343 562:3.976321 565:2.2763636 570:0.65392244 578:4.2540331 581:1.3338416 593:1.8281002 601:0.23583654 603:2.6323833 605:0.44924948 607:3.4727402 616:1.7468053 618:0.13268644 629:0.12757894 637:3.054286 642:0.883834 650:0.29679286 656:0.96638429 669:0.68492311 670:2.9186587 671:2.8484635 672:1.2051014 674:0.20970601 675:6.1454954 681:2.458966 682:2.6515722 689:0.76979768 690:0.49488327 691:0.65202022 702:3.1868384 705:0.70592874 706:0.79395467 711:2.7758889 720:0.2287007 722:0.16178632 723:1.3982439 724:3.100327 726:1.2705233 735:2.4860916 736:2.6821611 749:2.0901623 751:1.7312174 754:0.21608508 756:1.523446 760:0.51139009 764:0.44331351 766:0.0047130287 771:1.0617547 773:1.814231 789:3.1396148 792:1.4291303 794:0.81167781 798:0.1144233 799:0.12852785 802:1.7964827 812:0.30385906 823:0.49836549 829:1.7607954 838:0.78286058 839:5.1716075 841:5.3452525 855:1.1130512 860:2.9977083 861:2.2876439 867:0.51674902 869:2.4510758 876:2.9752486 877:0.75726664 878:1.854826 888:2.7994168 895:0.090460345 899:0.87631696 901:0.066335291 904:1.621634 908:4.3275371 911:1.5788182 912:5.1578913 918:1.4303848 928:2.5527439 935:0.32969344 939:0.35340077 944:0.83943868 948:0.96630466 949:1.0209476 965:4.4340863 966:1.7036591 968:2.5761995 972:2.9793828 974:2.488555 985:3.9239638 988:0.32856894 1001:5.7472553 1005:0.1685466 1006:3.5054307 1018:2.8428404 1022:3.8060837 1023:0.53254932 1027:1.0251427 1028:2.7722123 1029:2.6935241 1047:0.3645249 1048:0.91706812 1053:1.4959178 1064:1.6723812 1070:1.065572 1076:1.9087964 1077:1.7756965 1078:2.829742 1094:0.49468923 1095:2.7968013 1096:1.9627395 1102:0.7189703 1111:2.0573497 1114:0.7208643 1125:1.2646197 1126:0.77322006 1139:1.4434367 1140:0.50642222 1159:4.9882841 1160:2.1693685 1165:2.5845506 1170:5.2409101 1173:0.95732671 1176:3.1102605 1179:3.8085976 1180:5.6165266 1181:4.0643716 1184:2.4780498 1186:1.1097929 1189:3.3627713 1192:2.0495248 1195:1.310658 1199:0.017136291 1206:4.7252741 1209:0.64167398 1219:1.1589396 1228:2.9885664 1234:1.9474382 1239:0.62959117 1242:3.5538938 1246:0.12254354 1249:0.79630303 1252:1.0177112 1260:0.67539197 1262:0.84961361 1276:0.29166573 1279:0.66742766 1282:0.23055723 1286:0.012904808 1288:1.7958958 1292:5.0804086 1293:2.3710511 1295:0.18636996 1299:1.4596372 1301:1.090997 1302:0.6601671 1309:3.1193347 1313:0.85350037 1315:3.3541934 1318:0.97305024 1325:1.6897349 1329:0.65068537 1331:0.84882396 1332:0.02197051 1337:1.9277041 1341:3.5542831 1343:1.9922082 1344:1.880168 1347:1.5177311 1356:0.77685982 1366:1.4293742 1371:0.28581899 1372:2.6796308 1373:2.475085 1376:5.8150554 1379:2.2523417 1385:0.21216929 1391:1.9598488 1400:1.2194676 1404:2.671283 1406:0.19937843 1410:1.5621539 1419:1.1602187 1420:1.3605726 1421:1.5639991 1424:1.2017663 1428:0.30612618 1429:1.5813804 1431:0.88639832 1432:0.39478883 1435:2.1647043 1438:0.84306568 1444:8.2653389 1452:0.57364684 1456:1.029402 1457:1.9057498 1458:2.5854168 1463:0.38307697 1465:2.7635903 1466:0.67411578 1469:4.0465069 1470:2.2537661 1476:1.4432107 1487:4.124547 1488:2.6561782 1489:1.1253612 1500:2.156143 1502:1.0960834 1513:0.16930737 1514:0.82443899 1515:7.2242522 1523:1.7112887 1526:0.38102347 1530:3.2477617 1534:1.2901858 1538:1.9743512 1553:1.2585971 1554:1.1065875 1556:0.16765732 1560:0.092957243 1562:0.98618841 1568:2.0765119 1571:4.8042064 1581:0.46880877 1582:5.6062136 1586:1.589512 1587:7.1627994 1588:3.4017372 1590:4.9860868 1595:2.7005138 1596:2.4371102 1600:1.1231819 1604:0.65297723 1613:1.9779127 1616:1.6796151 1618:0.49907881 1635:1.0861869 1636:4.0490227 1637:4.5789733 1647:0.53936183 1654:0.52055854 1663:4.3036466 1667:3.7409759 1675:5.5557151 1677:6.4376669 1680:1.5978518 1690:3.8700771 1695:4.8645349 1701:2.26894 1708:2.0812545 1721:3.2500553 1722:0.93574584 1724:1.3449557 1726:2.0765524 1727:1.4375883 1733:1.1654508 1736:5.0725274 1737:1.245608 1744:2.3035059 1752:1.9813118 1756:3.7353318 1757:0.068025514 1761:0.70509905 1767:0.99089676 1771:2.2521589 1772:1.2958136 1774:3.5006545 1776:2.9320199 1780:1.2811308 1781:0.69537663 1784:2.7221327 1790:1.0687906 1794:3.5300603 1795:0.65451348 1796:1.3957677 1799:2.9920745 1807:1.0264723 1808:0.60171914 1812:2.5454319 1818:0.23495987 1822:5.6351361 1823:0.41798627 1824:0.21368399 1832:3.14658 1835:0.3871201 1840:1.0943322 1844:0.031956434 1846:0.61300063 1847:0.54749995 1848:1.6382807 1850:3.8440983 1852:1.0240445 1859:1.0144678 1862:0.079870954 1865:2.9106195 1869:1.3184354 1882:0.20637923 1890:0.88063985 1894:4.6899285 1897:1.400387 1898:2.5615213 1901:0.21051584 1909:0.46968085 1912:0.87627608 1921:0.14387602 1933:1.6086953 1935:0.13797568 1938:2.4116569 1943:2.5073495 1950:1.2864801 1951:4.9413433 1966:1.1092905 1972:0.84315157 1974:0.030856013 1975:0.14581126 1978:1.0714113 1991:0.59282941 2000:1.1589148 2002:0.46999067 2004:0.11405993 2005:0.066678464 2006:2.5556264 2011:0.26529664 2020:0.09990862 2022:0.86406559 2030:3.9313622 2031:0.18624596 2032:0.39523205 2042:1.5982951 2048:0.075758427 2050:1.5207196 2058:1.2721038 2059:0.55934572 2060:1.0671449 2065:1.4132303 2074:0.15203018 2075:3.9205458 2082:0.51345074 2083:2.1314714 2085:3.5844243 2088:0.022803634 2100:1.229265 2105:4.8765669 2113:4.477488 2115:0.77679563 2132:1.7042254 2140:3.4998553 2144:0.70092875 2150:1.5958101 2153:2.3655994 2155:1.0777502 2159:7.949398 2163:0.44340351 2165:2.3585048 2166:1.7539755 2172:0.73945987 2179:0.37687099 2180:0.85197371 2181:0.15201493 2187:0.33605355 2188:0.057629153 2195:3.9023907 2196:2.2954917 2199:0.4132722 2201:0.34151736 2202:2.7038457 2204:0.90759683 2210:4.0512633 2212:3.7269914 2223:1.408056 2226:1.5673059 2229:1.661278 2231:1.4090586 2233:0.86806965 2239:1.0784131 2240:1.755084 2241:0.049548566 2245:0.65543693 2246:3.378571 2250:0.0017276704 2264:4.4487467 2267:0.31645495 2286:0.1232878 2290:2.6519918 2296:0.76813561 2297:1.2804569 2307:1.3301767 2313:2.11338 2318:2.0238755 2327:0.89555126 2329:0.08867228 2337:4.7052422 2343:0.13738389 2360:4.1201115 2361:4.2865715 2375:1.3897343 2389:0.5739705 2390:0.21232864 2405:0.31163087 2406:0.55228901 2415:0.6140306 2417:0.62500966 2418:0.97594428 2420:0.50793797 2431:4.4987607 2435:2.4272552 2449:3.7881718 2450:2.0172253 2452:0.19391662 2457:1.071327 2458:1.1970608 2459:0.095483094 2471:7.1321712 2473:2.5499175 2474:0.53631037 2477:0.60592484 2479:0.63843203 2487:0.10839954 2490:1.3533571 2496:1.5030668 2501:0.87618387 2506:0.4843058 2507:0.037240535 2514:1.2161744 2516:3.5866892 2521:1.9329637 2526:1.0356821 2551:0.8900196 2552:2.2060544 2558:3.3898551 2561:0.89446193 2570:2.3705997 2578:3.1696057 2580:0.50875217 2583:0.016397953 2589:1.281507 2591:3.8698988 2598:0.7950083 2601:4.4369988 2617:1.8032993 2620:0.0039447248 2621:3.2853839 2625:1.069103 2632:1.5067151 2639:0.67702556 2651:2.9564216 2652:1.9249301 2655:3.2632067 2660:2.2779517 2674:0.96539366 2688:3.4180236 2695:3.7576776 2708:1.4742559 2713:3.09991 2714:5.1727276 2715:1.8204017 2718:4.1441054 2720:2.0402317 2727:0.85563219 2731:2.5652876 2732:3.2311952 2736:1.5250709 2739:1.3461335 2745:5.6271734 2756:4.0517826 2765:4.6358237 2766:3.5506585 2768:0.28379625 2771:0.44233462 2778:3.5816193 2786:1.3415956 2791:1.0618407 2805:5.9410343 2811:1.5827832 2813:1.2500148 2814:3.6295135 2817:2.4732943 2820:1.8437066 2821:5.6028571 2825:1.210421 2826:0.80304056 2837:0.51662469 2838:1.7590154 2840:2.412529 2851:2.7193942 2864:4.0297813 2870:3.1418817 2873:0.76289034 2880:0.34228906 2882:4.2130303 2894:0.74126309 2896:0.60090327 2898:1.4501729 2910:0.30203488 2913:0.71831822 2917:2.6756506 2919:4.5694427 2927:0.75132197 2932:0.07523638 2934:0.31382304 2936:1.3646076 2937:2.5047729 2940:1.7210352 2948:2.0573547 2957:1.3794837 2958:0.73935777 2964:2.5677092 2973:0.089188188 2977:1.5935768 2978:3.8100955 2979:2.1056194 2985:2.9967041 2992:1.0406941 3007:0.2684994 3012:2.3471961 3019:0.40834525 3034:1.8427919 3037:1.3827811 3052:2.1427751 3056:0.28973296 3057:1.4230133 3060:4.2518783 3065:1.8493171 3067:0.61762035 3071:0.083818212 3077:2.0637233 3087:0.57236433 3127:0.28589365 3129:1.165612 3130:2.2318819 3132:0.10464974 3133:3.9176838 3147:0.22995177 3152:4.4672279 3154:2.2262034 3161:1.8410714 3162:1.5528715 3163:0.55799878 3166:0.03793411 3172:2.2630103 3179:6.4360828 3184:0.96410507 3185:0.55989212 3194:0.0015725493 3199:0.36373773 3200:0.62589365 3213:1.2863497 3216:2.9477355 3217:2.2302415 3224:0.3019923 3226:3.8330057 3236:1.4167702 3246:0.40826249 3247:1.7475721 3249:2.3475733 3251:2.802357 3256:1.4253993 3260:0.44409242 3267:0.4560084 3268:0.50010389 3275:2.8071427 3278:0.48510313 3285:5.3108869 3291:4.0230141 3295:2.7181146 3298:2.4660745 3310:4.4636774 3318:3.1603715 3325:1.3813212 3327:0.62159115 3334:1.4509858 3344:1.6560344 3348:1.1019053 3349:2.206676 3354:4.3854599 3355:0.45749331 3356:0.29692683 3358:0.93523908 3364:0.15279405 3365:1.4748884 3367:0.8286081 3376:1.5249274 3377:4.8031454 3383:0.54928446 3394:2.7437553 3401:0.5945133 3402:3.9334314 3410:0.98330736 3411:0.017492652 3413:7.7244444 3425:1.2649362 3431:1.5246727 3432:6.7148871 3437:3.1122696 3438:2.1667588 3442:0.53969145 3446:0.3989656 3456:2.0260038 3481:4.4345117 3486:0.24170652 3490:0.1535275 3491:0.92110509 3494:4.7994685 3496:1.1670856 3500:0.59423286 3501:2.1208117 3507:1.8060715 3508:0.30900031 3515:0.26580232 3521:4.4397736 3525:3.0133557 3526:0.4559859 3531:2.0566745 3534:1.5018809 3535:2.9716074 3537:2.4118843 3538:2.1165125 3539:3.1059198 3540:0.93397439 3545:3.7865396 3548:0.13697088 3554:2.003437 3556:1.3147173 3558:0.34499621 3564:1.8998406 3566:1.1794333 3568:2.7691236 3569:5.232615 3572:1.2556129 3576:3.5417042 3577:5.6916547 3582:3.5970099 3583:0.83276439 3584:1.6881055 3586:3.2877915 3588:3.752182 3598:2.5251601 3602:1.5752652 3604:3.8926325 3606:0.32342219 3608:1.4735496 3612:1.3982397 3621:0.30048662 3624:1.5283113 3627:3.8286719 3629:4.5320711 3632:2.5673323 3635:1.0823817 3642:1.7138667 3644:3.4754777 3650:0.66832924 3653:3.6575792 3661:0.61867082 3678:1.5397221 3681:3.6431534 3683:1.5614268 3689:1.5398215 3690:2.4389696 3691:3.3267825 3692:2.8729262 3710:3.7176688 3715:2.0489588 3724:0.64989209 3732:1.9871663 3734:2.8990345 3741:1.4525582 3742:1.1712797 3746:0.22432448 3748:3.001296 3749:1.6140733 3752:3.1755242 3756:2.9056747 3757:0.76099253 3760:0.316392 3763:0.94873911 3766:1.7495583 3769:2.6456339 3773:0.88494325 3775:1.1077532 3777:5.1009812 3793:0.39770314 3803:2.1118863 3806:0.75437713 3807:0.5730781 3822:0.50844955 3824:6.759481 3828:0.075127453 3833:2.8200324 3835:2.5488558 3836:3.2298198 3845:1.074852 3849:0.98374015 3855:0.29081911 3862:1.4411548 3864:2.0179217 3871:0.27830526 3872:6.0487256 3885:1.9390842 3888:3.7348547 3891:1.5947196 3893:0.15110222 3901:1.5659311 3907:3.6702061 3910:3.9644094 3913:0.43112668 3927:2.8270826 3929:3.9474387 3941:1.7864619 3942:0.97007203 3948:1.0082152 3950:2.6353464 3952:2.2337189 3957:2.1779287 3962:0.87270766 3970:0.73090833 3972:1.4985434 3976:0.40142468 3980:0.661901 3984:4.2350287 3985:0.83987987 3988:1.3062007 3996:1.0243297 4000:0.27575585 4003:1.4115281 4004:1.2804742 4010:0.1472809 4011:0.051947117 4013:1.4871808 4018:3.8951428 4021:2.3530738 4029:1.1142962 4032:0.18555778 4036:1.379288 4044:0.32286686 4050:1.7970661 4063:3.5799532 4067:0.99916565 4068:0.35916945 4076:2.8526311 4079:0.98578978 4083:1.1723193 4084:4.1504517 4086:0.60373795 
1 3:0.72751236 5:1.1985317 13:1.7044451 15:3.2434211 19:2.2335551 20:0.64365172 21:2.6338856 22:5.04425 26:4.7450628 27:5.0913434 29:1.5265045 31:0.88730454 34:2.4146924 36:0.045339227 37:0.99225509 45:1.5192994 48:0.52348506 60:4.0331554 62:1.070276 63:1.9137944 74:3.4099784 80:1.6090958 90:4.6384325 93:0.78177094 102:0.012619406 103:0.45379946 108:1.5915301 109:0.040683687 110:0.89001012 118:1.0879273 122:1.5960617 125:0.73674321 126:0.34774691 127:0.67103088 138:1.5227749 140:0.89273131 143:0.29656011 144:2.2951686 147:4.2045074 148:3.0696311 153:1.1651552 154:0.80087858 162:0.12579174 172:1.6106893 173:1.998264 175:2.1650202 181:1.9491177 186:2.288548 190:0.21909407 195:3.568655 200:0.93018496 205:2.0868556 211:0.47325176 218:1.7297655 221:2.6605756 222:0.57589799 232:2.3820262 238:0.41003552 239:2.6714904 252:2.836792 258:2.5121448 260:1.168241 263:2.7072268 265:1.4587893 274:1.7967476 275:2.181133 276:2.1057956 280:0.1306099 285:2.0629232 288:5.6621671 298:3.0005813 315:0.97007954 317:0.18532272 318:1.0357324 320:3.6756852 324:1.021596 334:1.0142545 338:1.0127064 339:3.9716454 346:0.82671964 351:2.3794427 353:1.9952179 361:4.2302289 366:0.77994192 376:0.64196146 377:0.65145761 379:1.2484105 382:1.6817067 393:0.37926289 404:3.7961929 409:1.2773502 420:3.2318377 426:1.3072081 433:0.95565826 435:0.39274949 436:2.1147718 442:0.71940053 448:1.7142713 450:0.85162032 460:0.52709258 461:0.25452834 463:2.6150112 485:0.25470245 492:0.62590963 495:0.2471374 500:2.9979835 502:2.61994 521:1.254669 527:4.8066645 536:0.37202412 537:1.5036541 548:0.4383415 554:3.7736013 559:1.5688837 562:3.6362324 565:1.8705893 569:0.026994765 570:0.96235573 571:1.2047228 574:0.64544636 578:4.1259947 581:6.5693645 584:4.5115752 588:0.84989572 593:1.1153535 600:1.0391412 612:1.4073018 616:4.9920702 627:0.19698411 633:0.062848479 635:0.24245542 637:2.041049 641:0.66406292 661:2.1771383 667:0.35796487 669:2.0730543 670:0.060609996 672:0.91392976 682:7.4134808 684:3.1823647 688:0.77024424 689:0.89775372 706:3.7673068 711:1.0372243 718:4.6697865 735:0.28825104 737:3.9397233 739:4.0982304 744:0.19502109 755:3.4664283 764:0.80865252 771:0.73162884 774:0.66579205 781:0.53754365 787:0.46713012 791:3.8572845 792:4.6736002 794:0.33308041 802:3.4795792 822:0.48131633 823:1.4102217 825:0.28796846 833:2.4398172 836:0.84281695 839:7.3954778 865:2.7660437 867:1.0579126 868:0.7990759 876:2.8549287 880:1.5446403 885:2.41243 899:3.6709995 904:0.10470518 909:0.23749815 911:0.98500633 913:2.8370557 918:1.6022424 928:3.7634358 937:4.8364935 942:0.59076232 944:2.7504458 945:0.15326312 947:0.2015961 953:0.014438033 954:2.0682294 961:4.2507057 963:5.2550502 968:0.28961578 972:1.8708246 974:1.374113 978:1.5720286 979:3.3132553 996:3.5209489 997:2.9211133 1004:1.3780622 1006:2.6252122 1010:2.3969374 1011:0.67598695 1014:4.8057661 1018:2.8109493 1022:3.9935718 1027:2.4708033 1028:7.5909472 1029:0.48731345 1030:5.261035 1045:0.63246685 1048:0.38631558 1049:3.6783049 1053:1.5763721 1056:0.42692837 1059:1.1109631 1075:1.4430181 1077:6.4119048 1078:1.2524337 1090:1.2852181 1098:1.0011524 1104:0.47657165 1111:5.5784817 1116:4.0380664 1117:1.8004844 1118:3.5047834 1122:0.6048336 1126:1.7074716 1140:5.1178484 1154:2.1982679 1159:0.76590097 1160:1.3697345 1163:0.48656118 1168:1.5860124 1170:3.2484071 1173:0.10833314 1176:0.8298468 1180:3.92573 1181:0.4583019 1186:1.1400295 1189:4.5545473 1196:3.4499652 1211:2.3746297 1216:2.593369 1217:0.071659446 1237:1.2976784 1240:0.098949037 1243:0.47390246 1270:0.92245167 1275:1.7025064 1279:2.4592643 1280:0.54000866 1281:2.2012236 1287:0.50082481 1288:0.51439559 1292:1.5349736 1293:2.4754868 1295:2.3346946 1296:2.324959 1299:1.1640575 1305:0.42266577 1306:0.0064415038 1314:0.35311389 1315:3.9995883 1319:1.260632 1325:2.7614152 1328:2.1017854 1331:6.0286016 1332:0.16204333 1341:0.70256013 1346:1.479733 1347:2.1303616 1348:2.1649601 1356:0.37727934 1358:2.7409277 1361:2.8305542 1372:0.69391644 1375:6.2800598 1376:7.5689263 1378:1.5721622 1379:2.6509123 1391:1.5059739 1404:1.3246713 1405:2.3742988 1408:1.5952303 1409:2.6403623 1411:2.0112464 1426:2.8045845 1443:0.89528579 1444:0.2434786 1450:6.2763147 1452:2.0056856 1462:0.48408124 1465:3.3521724 1476:4.5957961 1484:1.8317366 1485:2.9654472 1486:5.1770854 1487:2.4263291 1491:1.866426 1496:0.75685012 1500:3.1888754 1501:0.65592819 1513:4.1109266 1515:4.0451608 1523:4.2793293 1528:1.5450372 1533:2.3691747 1543:2.3906302 1552:1.3738427 1553:2.1413512 1556:0.34443456 1557:0.12889725 1558:0.12833169 1571:0.090177879 1574:2.6533501 1582:2.1273065 1583:1.6668103 1586:0.3217755 1587:0.40727338 1590:0.15390474 1591:0.3997255 1596:3.4376338 1602:2.161654 1618:6.3197803 1620:1.1322267 1626:2.2462897 1627:1.8696821 1640:0.29709616 1642:0.20273049 1647:2.1305466 1655:0.76551384 1663:3.4146078 1667:5.7583408 1670:5.8030062 1672:1.0550975 1675:1.3834046 1676:2.6948304 1678:4.9127927 1682:0.52426046 1690:4.0423074 1696:0.71064299 1703:3.8951199 1708:1.0437968 1714:0.23724382 1722:1.3707587 1726:0.036482483 1729:2.5424547 1733:0.21023966 1744:2.7020097 1746:0.56854945 1752:1.6602241 1758:2.8686194 1759:1.1565979 1771:3.4352365 1773:0.15338194 1774:1.2558384 1780:0.484404 1781:1.772716 1786:0.76780081 1788:2.5936852 1793:4.7910814 1794:1.097401 1798:5.0617971 1799:2.3701949 1803:1.6795281 1817:5.7672067 1818:1.4428313 1819:0.717067 1822:2.7985771 1833:3.3177884 1842:2.4366772 1844:0.0094228387 1848:1.4699386 1851:3.3443952 1852:1.1751927 1858:0.21275489 1872:2.6193943 1874:1.9004788 1882:3.5571599 1890:5.961576 1893:0.07509625 1897:6.1137514 1898:0.95063281 1935:4.6953607 1938:0.48258564 1942:1.910714 1943:1.1245445 1950:1.2647471 1951:2.4735289 1953:0.53827786 1955:4.8526354 1957:4.06528 1963:2.3242295 1968:2.2301068 1975:0.52558237 1979:1.6539887 1989:1.1107658 1998:2.7948248 2000:0.29290646 2001:0.66342348 2002:2.6561046 2005:0.72638583 2015:0.30057794 2020:2.4387832 2030:2.3459296 2035:0.79474461 2038:0.75440025 2042:0.78433383 2049:1.3341826 2052:0.62620199 2057:0.33495915 2058:1.8870344 2074:0.79393524 2085:1.2967174 2101:0.19731832 2105:0.64463514 2110:1.7274095 2116:1.1743188 2117:4.2999229 2123:0.85335088 2125:0.7020722 2131:1.5680416 2132:3.877856 2134:5.9321313 2135:0.95269597 2153:2.9204168 2159:4.6137333 2167:0.50027156 2179:0.051539421 2195:0.9737792 2210:11.355937 2213:2.6341588 2226:0.78573096 2229:3.5717225 2231:0.2161468 2239:1.7331439 2240:0.046593193 2246:2.6043968 2249:0.013640016 2254:2.2079649 2255:4.5817003 2260:0.30758035 2272:1.6926609 2274:0.084109351 2278:0.42607579 2280:0.39741236 2300:1.0948203 2307:0.052297294 2321:0.046868175 2325:0.34362969 2328:1.5018196 2333:5.5356555 2343:0.85562348 2361:2.0680387 2372:0.62701219 2383:2.0058315 2396:0.88366747 2405:1.8888096 2415:0.25300163 2420:1.0476642 2426:0.11330498 2434:1.0057809 2441:1.5011357 2447:0.14814699 2470:4.0454612 2471:1.8198875 2472:1.8466311 2474:1.330143 2490:0.058726579 2491:2.9622598 2496:2.9799256 2501:0.4737798 2507:5.0329051 2508:1.5890311 2514:1.9261324 2521:2.1887074 2526:1.4953901 2531:0.079904914 2547:0.57343167 2552:1.3363855 2571:3.8785691 2574:1.4436078 2578:4.272543 2582:3.2968919 2583:6.0293913 2589:2.7747927 2594:1.5852904 2600:0.359873 2617:0.62702966 2621:5.2759604 2623:0.39242607 2634:6.3033319 2636:1.3976039 2639:5.4027843 2654:0.65366518 2656:3.4181035 2659:0.56566215 2662:8.5252399 2664:1.2549948 2667:0.32305145 2674:1.5250572 2681:1.9462377 2688:1.526143 2692:0.43951505 2708:0.082889773 2713:4.1157427 2714:2.4898105 2718:0.37514186 2719:0.83751535 2720:1.3547337 2727:0.9576782 2733:0.051515311 2739:0.45053595 2756:3.7170129 2765:0.51789188 2766:3.8805249 2774:0.11096874 2778:5.4555287 2785:2.158457 2786:0.86383873 2788:0.64801943 2804:0.48214504 2811:1.1536186 2813:0.48001906 2817:7.2892327 2821:0.65622962 2831:0.54280168 2834:0.50289965 2836:0.013094962 2846:0.35891506 2851:0.1242795 2873:1.4416456 2882:0.72614837 2891:3.8914547 2898:0.064415514 2913:2.4448764 2917:5.3247962 2932:1.4693135 2936:2.4424107 2937:1.4158598 2940:2.8552985 2942:0.082020372 2952:2.0844874 2953:0.26667017 2959:0.7344383 2962:1.1153083 2964:4.1622596 2971:2.9567955 2985:1.8998988 2994:0.59700501 3001:3.0665133 3012:1.1255162 3019:1.5680882 3034:2.1780117 3051:2.2057724 3056:0.56644756 3060:3.4084904 3062:0.83600867 3067:0.86887044 3081:5.1037703 3089:0.41929144 3101:0.76808047 3107:2.0330815 3111:2.2534401 3121:0.089146823 3123:1.77467 3129:3.0242057 3132:1.4374604 3145:2.2646658 3152:0.32555604 3155:1.644682 3170:2.9043341 3172:1.8606285 3182:4.6239886 3184:5.9015751 3185:0.4298858 3195:0.25332248 3200:2.4317286 3205:3.6257119 3211:2.3360758 3231:0.83375621 3233:0.0655699 3237:0.34472871 3242:1.0516725 3245:0.42880139 3247:0.70503366 3249:3.3671 3256:1.7290657 3258:0.5210101 3260:0.85745847 3268:1.555892 3275:9.0820923 3284:0.10933542 3285:1.4654422 3286:1.2292756 3289:0.12947959 3290:0.35313752 3291:1.9850185 3293:6.380506 3295:3.9365819 3298:0.84281677 3299:0.14308128 3307:0.90341276 3310:2.5950549 3318:0.95561492 3320:0.52716529 3321:0.2575666 3323:0.24438086 3327:4.3881164 3329:0.75793201 3334:3.8535984 3344:0.74852479 3347:0.2914142 3354:10.008854 3359:0.50638539 3364:5.6567931 3365:1.3968288 3386:0.83320427 3390:2.885143 3394:0.17070705 3401:1.8578304 3422:2.9286473 3425:0.47828153 3431:0.26603964 3432:1.3305945 3436:0.43625069 3450:1.7623073 3452:3.0626714 3456:4.4384618 3462:1.4981148 3473:0.48870879 3478:0.8006652 3479:0.21322751 3485:1.8958724 3489:3.421629 3495:0.52118969 3500:3.0271111 3501:0.0042319149 3504:0.79672474 3507:1.8460536 3508:1.9393036 3512:1.8277601 3525:1.4842486 3535:2.7244151 3540:0.37105903 3548:2.4221828 3554:2.0629814 3556:1.8249342 3560:0.54615235 3566:2.3881094 3568:1.0125744 3569:2.7851729 3570:0.67813504 3575:2.6307993 3576:3.3713577 3577:0.047157317 3596:0.55664575 3601:0.7830314 3603:0.12898153 3612:2.2911382 3614:0.62934703 3622:0.2832256 3627:1.6280774 3629:0.9253633 3630:0.94131184 3631:5.6079431 3635:1.3683236 3642:1.9476771 3644:0.68389159 3669:1.1823193 3682:4.9766874 3683:1.5748369 3684:1.1984773 3687:3.3102047 3689:1.6467659 3690:0.83858073 3691:1.0806997 3692:2.9231715 3697:0.98372382 3700:0.53624898 3710:9.1641874 3722:2.2356739 3724:4.5150857 3727:0.80630749 3729:0.17400676 3733:2.3690708 3742:1.9534571 3744:2.8368428 3745:1.4822342 3752:2.2563152 3753:0.75754505 3761:0.9905597 3767:0.1049892 3771:1.7464809 3783:1.7689607 3793:4.9491849 3796:0.5843854 3798:0.28402919 3807:0.74670106 3811:4.211843 3817:0.02718094 3822:2.186377 3824:1.3769939 3829:0.72512579 3833:0.74167359 3835:2.4320264 3836:3.1492269 3845:0.6647718 3861:2.8447714 3863:0.45049578 3864:2.8332889 3869:2.2560539 3875:0.31979665 3876:0.26905641 3886:0.4539797 3893:5.560708 3899:2.6962891 3903:2.7551692 3906:2.0079243 3914:0.021859702 3918:3.1299708 3921:0.18913582 3922:1.5421783 3928:2.9018037 3930:3.8266721 3936:1.0718532 3939:0.68581331 3941:1.7731204 3946:4.3425508 3947:0.048092544 3970:0.91270137 3971:1.8574867 3980:1.852466 3981:2.7188125 3984:1.8185407 4000:2.4877322 4004:1.3550748 4013:1.2566016 4021:1.0155631 4024:0.61264968 4032:5.1814637 4034:0.25388843 4039:2.1324008 4044:0.88072872 4045:1.4542675 4050:2.4880393 4055:2.4498394 4057:6.8712583 4063:2.4504204 4074:0.72271335 4079:3.0687883 4083:0.67103791 4084:0.86794925 4085:0.36316675 4089:0.99652499 4096:0.64023435 
1 4:0.6457727 9:0.10852779 10:0.0085460246 12:0.19528559 15:0.17197907 20:1.9655051 29:1.5105023 38:0.71369356 39:1.7894666 40:4.8402791 44:0.50417662 45:2.3276119 49:2.6212201 62:0.092528343 69:1.0953369 77:0.63181168 83:0.79492438 84:5.471549 95:1.9149029 103:0.51566029 105:3.3486569 111:3.4650536 112:1.0247703 114:0.9549557 122:0.11117104 125:3.9361687 126:1.8388522 140:0.090671569 143:0.086836696 164:1.1229256 172:2.6362505 174:0.4702045 178:2.2437215 180:2.6971703 181:1.925135 184:2.9476054 188:3.9119925 190:0.56472909 191:1.0920557 196:1.0137426 199:0.62528449 200:4.6797061 210:8.6275473 217:4.831584 218:1.6189744 221:5.7905011 222:0.98662078 223:3.0964632 241:3.3690124 247:1.2472999 252:2.6002746 256:1.177687 262:0.64965689 265:0.99802577 267:0.081428111 274:3.199692 288:0.70224714 290:0.042767048 300:0.3060672 301:0.35823971 311:0.70780736 312:6.6961565 313:2.1242428 315:2.6240525 318:1.2320091 324:4.1708255 335:0.62196994 336:0.86650813 353:1.3727719 359:0.43440023 375:0.29699415 378:0.98489088 379:3.1394315 384:1.836566 386:1.4732007 400:0.33301407 416:2.7658699 421:0.42636889 431:1.3329117 434:4.9246573 436:2.8482761 442:1.199896 453:0.27532852 457:0.34739363 459:1.0480381 460:0.88433683 463:1.3325764 466:0.89309591 470:1.5914603 472:0.93195677 482:3.2826588 485:0.40869465 487:2.973649 499:0.97060084 500:0.77958059 515:0.76918632 517:3.6802709 518:0.63468945 526:0.97030771 527:5.0716143 532:1.1352427 546:0.84385985 549:1.1055378 554:0.041033633 559:0.31357983 567:1.1242146 575:0.4919675 577:1.6120868 578:1.3270891 589:0.91675818 592:4.0026503 593:3.7337561 603:2.7443528 607:1.4806345 612:3.6848106 619:0.38506532 642:2.6760652 644:1.1228845 651:1.445958 656:1.994109 657:0.18651015 662:0.030825377 664:1.3179173 667:3.3664877 670:1.065148 672:3.469321 675:1.4278688 676:0.27825251 680:1.7013476 686:1.8255177 687:0.28321636 691:1.9767191 702:5.6287656 705:0.68472666 706:5.5705533 711:3.748548 717:0.10411853 718:1.651386 720:0.75723511 722:7.2673554 723:9.2222605 724:0.41474876 725:0.35125965 726:3.6458933 735:2.8432517 736:2.1133199 742:1.405754 749:5.0354967 751:0.14140487 755:0.78163892 759:0.042259067 766:2.7137377 773:3.3064601 777:1.9165289 785:0.19279431 792:2.1606581 798:1.4392238 812:0.71462184 826:1.1138036 839:5.5757003 841:6.9081092 842:1.6271639 848:0.45094693 860:0.32183051 861:1.3997302 867:0.13272935 868:3.7578325 874:0.059626028 876:2.9434044 878:0.19422168 895:0.23045473 902:0.21478969 908:1.696772 912:6.1974101 916:0.94000518 918:0.94413805 928:1.7914131 930:0.015213549 931:1.1495366 936:3.9516416 945:1.2842075 948:1.2076761 951:0.35700831 952:0.51369476 958:2.963748 965:9.1773796 967:1.6413867 968:0.069361061 974:0.014300019 988:0.7782234 993:4.6580648 997:1.2135626 1001:2.8064744 1018:5.506001 1019:6.1870489 1022:1.3851056 1023:0.45977524 1027:0.02887693 1028:0.40607697 1058:0.99861991 1064:3.3042619 1070:0.53414923 1074:0.51188773 1077:0.11126381 1092:4.2612157 1094:2.3917401 1096:7.5576043 1099:2.2385681 1102:0.95512033 1111:0.692213 1125:2.5711863 1139:1.9459424 1144:0.3422651 1159:2.2864554 1160:1.9943742 1165:2.2747293 1170:7.5968342 1176:3.9056191 1180:3.1727104 1189:4.6756473 1192:5.0595655 1195:1.4691745 1206:0.68965614 1215:0.48923844 1219:1.4718378 1220:3.668493 1221:1.892 1223:4.0970144 1227:0.67970204 1228:1.2539041 1242:3.1365991 1249:1.7726519 1252:3.1727965 1260:0.11679578 1269:1.7254117 1274:0.004069373 1278:1.4949738 1279:1.3263586 1282:2.5990272 1286:6.2303801 1288:2.3481553 1292:5.358839 1293:1.3071859 1304:1.3730409 1305:0.0011128187 1309:2.411665 1313:3.6666679 1317:0.15329987 1320:3.6237836 1336:2.1008072 1341:0.94728351 1344:1.0829562 1347:0.72851086 1349:0.0040315092 1356:0.4279916 1366:7.3423781 1369:4.7677813 1372:1.159407 1376:2.2770321 1387:0.8486678 1389:3.6369514 1391:0.6440208 1397:0.72926748 1399:0.94117296 1401:1.1801863 1406:4.2899289 1410:5.8906412 1419:2.3091645 1432:0.25395542 1433:1.3568794 1435:0.67824763 1441:4.4802732 1444:1.0431271 1457:0.050411463 1465:0.90355605 1470:0.83305943 1476:0.82389116 1477:0.023615628 1484:0.03035818 1487:1.641169 1488:3.2569668 1492:0.055612959 1493:0.21987318 1495:2.8067 1496:2.5859833 1500:1.1312211 1503:2.677721 1515:2.6676564 1518:0.25202954 1523:0.49136755 1526:0.96741301 1552:0.52819836 1556:0.42882335 1560:0.67490709 1569:4.376792 1574:0.48317072 1577:0.5998919 1581:0.14241201 1582:3.5447574 1586:0.56163555 1587:3.1247423 1588:2.4470596 1590:3.5328205 1600:0.835657 1604:4.3819609 1605:0.18143535 1606:1.5845275 1613:1.9281433 1617:1.1472578 1629:2.8458877 1636:3.1095004 1637:1.5160135 1640:0.56314337 1659:6.2367797 1661:6.3913407 1663:0.14602864 1675:0.57500923 1677:4.9473987 1678:2.4974141 1680:2.1540418 1694:1.1495252 1695:3.4642739 1705:4.4836307 1707:0.77465123 1720:3.8861563 1732:2.1622782 1736:4.9653344 1753:0.11456159 1756:1.876507 1758:6.4875107 1762:1.7644782 1766:0.92935926 1778:0.3219727 1790:1.2245407 1796:1.6962655 1799:2.0152707 1804:0.33627808 1806:4.84973 1807:0.83897501 1808:0.0094193518 1811:0.12865973 1812:1.8728285 1820:0.63354957 1822:4.0170441 1824:3.7842963 1831:0.4518882 1832:4.3059821 1833:0.75211167 1840:0.50724685 1842:6.2987151 1846:3.2094805 1850:1.4107352 1852:0.83479732 1856:2.6509433 1862:4.0416245 1872:1.0594108 1878:0.49671668 1881:0.8975141 1890:0.18082952 1897:1.2611005 1898:4.8210564 1904:1.0841637 1918:1.1209824 1923:0.17693499 1928:2.9822481 1933:0.42349949 1938:2.1409891 1943:0.29519504 1951:0.32825953 1963:0.5040682 1970:1.0703089 1972:0.54103875 2005:0.67889416 2009:2.9382915 2012:0.32282728 2022:1.2517443 2029:0.91199803 2031:2.1158187 2032:3.2771316 2041:0.21914122 2042:1.1592984 2048:3.3994954 2050:1.7118144 2057:2.3068652 2058:2.050348 2070:0.35497341 2075:0.25157994 2081:0.85528159 2082:1.1406015 2083:0.7956875 2085:3.3439641 2100:2.353116 2117:1.4007862 2120:2.8463318 2140:3.8829353 2144:2.5777926 2153:5.036952 2159:0.77737677 2165:3.3218832 2166:0.27904451 2172:0.99204183 2179:3.2588627 2180:1.1388085 2186:3.7167399 2188:3.1147566 2196:2.375227 2198:1.2114477 2212:0.59117401 2214:0.50469172 2223:2.9042079 2244:0.86248338 2245:2.4709036 2251:0.4438107 2267:1.983429 2270:1.4374285 2281:1.3929758 2294:0.59980416 2298:2.8329406 2318:2.6113229 2320:1.7734635 2322:2.5862029 2324:1.5384166 2329:2.5039935 2331:0.94009459 2333:3.5605717 2336:0.52801579 2337:3.6038764 2343:2.5216181 2369:0.8990159 2370:0.080116063 2390:2.9001248 2393:0.62607706 2399:0.11329761 2418:3.7648287 2423:0.57460886 2428:0.37107652 2431:3.0871081 2434:0.34384778 2435:3.3925228 2441:2.9853265 2457:2.1792414 2458:0.67334449 2471:6.424335 2477:1.3060182 2487:0.7558955 2496:0.063647494 2501:0.29110903 2504:2.904489 2507:2.8404791 2508:2.5605433 2520:0.33832744 2533:0.076026291 2552:3.9542959 2554:1.2086232 2561:4.0056691 2570:3.1495295 2574:0.40602317 2577:0.20488575 2578:0.81110454 2589:4.3046193 2591:2.4076371 2595:1.2122867 2598:0.060120285 2604:1.179096 2612:0.87073648 2621:4.9787946 2625:1.0610001 2637:4.210463 2642:3.6168895 2658:0.37187049 2663:0.75911969 2676:3.8905323 2678:0.1655457 2687:0.48916817 2688:5.6135325 2693:2.5509291 2694:1.1005737 2695:0.88485861 2704:1.7149644 2714:1.2943902 2718:5.1126504 2721:0.20361203 2723:3.2395856 2732:2.3396842 2735:1.7495971 2740:0.76594722 2745:9.5545549 2756:0.25117242 2765:2.7805405 2766:4.7113991 2771:3.5292356 2777:3.2393088 2778:4.2405415 2786:2.036633 2790:1.6624274 2792:0.12946439 2793:3.54777 2795:1.8115615 2805:1.4453923 2811:0.36168158 2814:6.9429126 2821:1.5080479 2825:1.1895952 2826:0.31295878 2834:4.4220161 2842:1.8884436 2857:1.7356075 2859:0.77154684 2864:0.013196714 2866:1.0511104 2870:5.5936899 2873:2.0555475 2878:0.35323733 2882:7.4011664 2888:1.1575643 2891:1.6466118 2892:1.619177 2895:3.9744489 2896:1.1657772 2903:1.2467668 2910:2.0682127 2911:0.87133658 2919:4.6302018 2929:0.12324953 2932:1.564822 2937:3.4027026 2953:0.47248363 2966:1.1429396 2971:0.68695575 2977:0.63067734 2978:2.2995098 2981:2.7800908 3033:0.75933993 3035:7.2025614 3036:1.331789 3065:0.62214392 3071:0.83391315 3072:0.45514113 3079:2.448396 3085:0.14535388 3094:1.7878069 3105:4.6831741 3111:0.25979942 3124:2.127372 3129:1.8436549 3146:1.3521839 3148:2.1575284 3152:2.7537899 3154:2.0895007 3163:2.9042482 3179:7.5252833 3183:1.4530667 3184:0.87319863 3198:0.76113474 3201:0.84836584 3211:5.8224034 3235:1.201149 3242:6.1079969 3247:2.9595423 3248:0.57641876 3249:0.90874815 3256:1.7729945 3258:0.14789975 3267:4.1407743 3268:4.32055 3276:1.1400659 3282:1.5362827 3285:4.3874826 3291:5.8633204 3293:1.7928921 3295:0.11188447 3298:4.6605482 3299:1.3826158 3302:1.4096193 3310:3.2251239 3321:0.85639316 3334:7.1063137 3348:2.6691122 3349:7.4046645 3354:0.14571756 3355:0.29660726 3356:5.2204947 3363:1.307865 3365:2.6729851 3367:0.3818078 3377:4.2415113 3383:0.01756236 3394:0.7337302 3399:0.076090693 3401:0.47684708 3411:0.67015845 3413:4.6537995 3418:1.4017882 3431:0.48940623 3432:0.84070861 3437:2.1150472 3442:0.89848709 3449:0.75496751 3452:0.45766777 3456:0.52845484 3457:0.55355346 3467:2.318388 3468:3.4825897 3478:1.4320151 3491:7.907443 3493:0.13131368 3494:5.5959306 3496:3.5265274 3500:1.7143601 3508:4.0856938 3521:1.3322684 3529:1.2572285 3537:0.97056329 3539:5.9594245 3540:1.8682225 3544:2.725435 3548:0.22779626 3560:2.4452419 3564:3.0955212 3568:0.34716302 3569:1.2729458 3576:1.534602 3582:8.2978096 3586:2.249012 3588:1.5509117 3592:0.45973223 3604:8.2662745 3608:2.3512836 3614:5.3253093 3615:0.9233799 3621:1.1198549 3624:0.37846059 3626:0.40291131 3627:3.7419572 3632:1.7115567 3636:1.5930659 3642:1.2831229 3644:8.7325964 3653:5.1513047 3667:0.080075979 3679:0.33315945 3689:0.29863405 3690:1.3942351 3691:2.2110448 3692:2.3268423 3698:0.027469575 3703:1.204179 3719:4.4658847 3720:1.424086 3725:0.25461677 3732:0.74917275 3734:2.4522607 3741:0.55812716 3749:1.0232409 3752:4.5616026 3756:0.4052178 3766:2.0681748 3771:0.0368402 3774:1.4440817 3776:0.1213787 3793:5.1289945 3794:0.095455617 3797:1.4801522 3806:3.8828964 3807:3.9982328 3808:1.7084588 3822:0.93779939 3824:5.5302043 3826:0.13270929 3835:2.1389623 3860:3.2128499 3862:1.5145563 3864:1.8942802 3872:5.82934 3885:4.6831803 3888:0.46538433 3891:8.5726337 3893:0.67756832 3895:0.023292691 3901:0.0020186007 3903:1.8217388 3907:6.236762 3910:1.4073102 3913:0.92610902 3919:0.46815336 3923:1.987048 3957:4.6436486 3963:1.1552467 3972:3.6070826 3974:0.82678944 3980:1.5720928 3984:3.9394708 3988:0.067611307 4000:1.0186269 4001:0.10503167 4002:0.30791953 4003:3.5326691 4004:2.5203173 4005:0.13061249 4013:1.3390492 4018:5.3803544 4021:5.0749688 4036:2.5170143 4041:2.067713 4050:0.43951595 4052:0.024434507 4058:1.5458608 4071:1.4461031 4074:0.94967186 4084:1.7885545 4088:1.591949 4091:1.8218614 
1 5:0.92171407 9:0.50116646 10:0.89196789 12:0.85818416 14:0.59669775 15:0.22625083 16:1.4095974 20:4.5859756 26:1.1683438 29:0.25967139 34:0.11292676 40:0.17875791 54:1.9142356 56:0.10732383 69:2.6763601 77:2.1334264 84:2.2056377 90:0.18907633 103:3.0512981 105:1.6640589 112:0.18310201 114:3.4353979 115:0.55121756 120:4.0182619 123:0.18250376 125:2.7597904 126:1.7723792 136:0.51010311 140:1.2245779 146:0.50484991 159:1.8409693 161:0.93680334 163:2.8043056 164:5.3996677 172:4.814105 184:0.8260417 190:4.6051421 196:0.84609503 199:0.6191175 200:1.9997221 204:0.35881299 210:6.1519332 217:0.43648067 218:3.5270543 221:5.1358385 223:1.7610551 232:3.7009954 233:0.12285143 235:0.50316811 238:3.0831549 239:2.4931438 241:0.54030132 243:1.1801958 247:0.42698652 252:0.91033411 256:0.34788048 258:0.57913202 261:4.0493088 262:0.27852702 267:1.7409205 275:1.0107753 276:2.360224 281:0.39208359 288:3.1573374 290:0.82990319 301:0.93219191 307:1.9124269 311:0.15223527 312:2.0490217 315:0.83290565 317:1.3406371 335:1.7697229 340:0.91243565 342:2.3979056 347:3.0197785 353:2.7917051 358:0.81267226 363:0.16550632 365:1.0239608 373:1.2729475 379:4.6356673 384:0.15090716 389:1.7509551 390:2.2554913 391:1.1425335 393:0.58242065 397:0.72626001 410:0.60634124 413:0.30205271 416:0.3336179 432:0.47555673 434:2.4590936 450:0.80265033 454:1.7959507 460:0.064513177 470:0.75868618 472:0.25923705 482:3.7533579 485:1.3331344 489:0.38482326 499:0.85849571 500:2.0919373 514:0.24821341 515:0.067730322 517:5.2098594 527:2.218946 532:1.1390952 552:2.3700945 562:2.4658387 576:0.15466611 581:0.59720588 598:0.036677957 601:1.328312 607:1.0022115 612:1.2422253 618:3.2855873 619:0.86323285 638:0.10242236 639:0.50829673 642:6.121366 647:0.19256145 650:1.8874125 651:2.9204631 659:4.7798133 664:2.0957999 666:2.5802212 670:1.2849932 671:2.8696918 672:4.5884361 675:1.1672821 676:0.057692289 681:3.8301053 689:0.73430812 690:1.5231129 701:0.63066733 702:2.6700847 705:2.6726406 706:4.5678215 715:0.13181958 717:2.5358541 720:1.1374683 721:0.89303029 722:0.94778621 723:5.6653824 726:3.4578664 728:0.9205811 735:2.4986129 740:1.9941056 747:0.36503509 749:2.3858314 751:0.51939428 753:2.4111431 760:0.22995476 764:2.0227559 766:5.608026 773:2.742774 777:0.54995549 789:0.21445775 794:0.53066242 795:1.0868719 796:4.044116 798:1.6666219 808:0.5881511 812:2.3672214 816:1.4244733 826:0.17511475 838:0.27967313 839:0.63689345 841:2.8971162 842:3.1196728 848:0.38117063 855:0.97981006 857:2.2532294 860:1.3139538 868:0.25007439 869:1.631263 871:2.7288954 878:2.7595513 888:2.5582111 902:0.70168853 908:2.0234034 912:5.2197242 916:0.69882929 918:4.0990891 921:1.728516 928:1.4938207 929:3.2864802 945:2.2202933 951:0.57122028 958:1.1222208 965:5.9326339 966:1.2967153 967:1.0747555 974:1.0290511 980:0.36378384 989:1.2330188 990:1.3094422 996:1.0273491 998:2.3791299 1001:2.2159688 1013:0.65258253 1015:1.4359875 1017:0.10448405 1018:3.0372367 1019:1.4102914 1024:1.0027558 1031:3.221704 1053:1.0295675 1065:1.5037163 1077:7.0080171 1087:2.10711 1094:0.34065294 1095:1.5844285 1096:3.4380639 1102:5.1405673 1108:2.8137898 1125:1.9826257 1139:0.04474628 1155:0.23847914 1157:0.4211691 1159:2.1079006 1166:0.82549453 1170:1.8949951 1176:5.333849 1177:1.5350726 1179:1.4292427 1180:4.3685393 1181:5.690228 1184:0.073347837 1188:2.0330234 1192:2.7266083 1195:0.10342689 1206:3.1569035 1215:1.5498834 1220:4.2360244 1221:1.1764297 1224:0.47898152 1228:4.5271525 1234:0.6324625 1235:0.66623199 1242:4.6827698 1243:0.90361404 1249:0.52689946 1252:0.24829446 1260:1.4181714 1279:4.4583135 1288:3.6970978 1291:2.9426303 1293:0.64662826 1299:1.5574205 1309:4.8198361 1313:1.5183871 1319:1.3268888 1320:1.9179517 1323:0.48489141 1325:0.89202213 1329:1.471065 1332:0.53766489 1337:0.27165097 1338:0.43770272 1341:1.476619 1344:2.4949639 1352:1.3445995 1356:0.87141645 1357:4.059773 1359:0.078866035 1366:0.76477695 1368:2.852694 1369:0.65205026 1372:2.1578789 1373:1.1855304 1389:1.8290887 1397:0.090486705 1399:1.5317323 1400:0.37551481 1401:1.4757993 1404:1.5598012 1406:2.5684597 1408:0.38446301 1411:0.32157174 1429:3.5239711 1430:1.5802782 1431:0.349264 1432:0.40233344 1433:3.1134219 1435:4.7946429 1441:2.6956506 1442:3.4831748 1444:3.9208748 1448:1.3755908 1456:1.8885119 1457:4.4343023 1458:2.2225974 1463:0.6512832 1466:1.012436 1467:2.108485 1470:2.1117024 1474:0.22017211 1484:3.3063979 1487:0.94291878 1495:1.675653 1502:1.4628363 1503:1.8616316 1506:0.52551067 1511:3.0364172 1515:4.2229962 1521:1.4505705 1526:0.92420232 1530:2.555438 1543:1.7973943 1552:2.1501484 1556:1.1134562 1568:4.4795856 1580:0.45862758 1581:2.2298717 1582:2.7596383 1583:0.83940047 1586:2.0351095 1587:0.79673338 1588:2.4604213 1590:3.4259293 1600:5.2605553 1604:1.921068 1605:0.43618983 1606:2.5007281 1613:1.3871732 1615:1.2537702 1622:0.23199838 1624:2.0535431 1625:2.766654 1629:0.62851024 1636:2.4842651 1637:1.5674227 1652:2.5341692 1659:7.0284476 1661:2.7369053 1667:1.0072058 1669:0.41397774 1675:1.611104 1677:1.0856512 1678:0.95711589 1681:1.0371773 1694:0.75901318 1695:2.1576509 1704:1.5516337 1705:1.9561771 1707:4.2885065 1708:0.82974535 1712:1.2857242 1714:0.37092096 1720:1.6987257 1727:1.4479327 1731:1.8747042 1736:1.4181287 1737:2.9016359 1740:0.047800064 1746:0.38814962 1753:0.40277323 1756:3.4968276 1757:0.050224572 1758:4.8765368 1762:3.6907992 1772:2.1597657 1778:2.3888469 1779:2.3032153 1781:2.334928 1784:0.47407743 1794:1.3644748 1795:0.39941272 1805:0.64744145 1806:3.0122671 1807:0.27714729 1812:1.9652419 1822:5.7442575 1824:1.1694574 1830:2.3137515 1831:2.0271766 1833:0.93765455 1840:0.073131651 1842:2.9523287 1845:1.342685 1846:3.2526093 1848:4.9897814 1849:2.3426747 1850:1.7733126 1853:0.15890753 1856:0.38419998 1869:0.85108393 1870:0.1482002 1881:5.8096247 1888:2.9113159 1890:0.61502481 1897:1.2625259 1898:0.66166288 1904:1.6000836 1908:0.62700623 1923:0.45450866 1926:2.2394316 1943:4.0777059 1951:0.70344436 1959:2.3841639 1966:0.14946327 1984:0.16905275 1989:0.10063916 1993:1.1802263 2000:1.4316967 2005:1.179162 2009:3.2831972 2012:1.669971 2017:1.1380132 2020:2.0407557 2021:5.8653755 2030:1.8551103 2032:5.478663 2042:0.95068759 2046:0.40024909 2048:2.440382 2058:1.7462729 2066:1.436722 2067:0.33418185 2069:0.092198007 2075:2.8407698 2077:0.58405364 2083:0.058771431 2100:0.24271256 2105:1.0781687 2107:1.4859775 2120:3.6940434 2135:0.95879567 2140:1.9582453 2144:0.922607 2146:4.1520619 2153:1.8463075 2154:1.6886277 2159:1.5643359 2160:1.0431206 2165:1.048708 2166:0.437356 2186:0.85296464 2187:0.29289335 2188:6.612813 2198:2.0290413 2199:0.62080806 2202:3.6719244 2203:3.6970155 2204:2.2815993 2205:0.41702166 2210:2.4308732 2211:3.9799786 2214:0.73870021 2226:1.0653181 2229:2.0400052 2230:1.7829045 2231:0.47230667 2232:0.94832522 2239:0.43178773 2240:3.0991688 2249:2.0658798 2250:1.9653642 2251:1.3352405 2255:0.0026568994 2267:4.5055923 2273:0.49260536 2281:3.6134479 2286:2.0352397 2293:0.76841819 2297:1.9083887 2298:0.2800436 2305:0.56942123 2306:0.39582959 2307:1.4313412 2311:0.52209401 2320:0.8918615 2322:5.233078 2327:0.34172201 2333:2.8960423 2337:0.66932654 2343:1.51168 2348:2.7066603 2354:0.0492028 2360:0.46598515 2361:4.3000517 2369:0.54515892 2370:0.58631301 2393:1.3148478 2406:0.097191602 2418:2.4071262 2420:0.79015678 2421:0.71105611 2427:0.41090274 2431:3.1049161 2432:0.82295632 2435:4.9448905 2436:0.51876378 2438:2.9049809 2440:0.43100265 2441:2.217953 2443:1.8845509 2457:1.7029673 2458:1.0611326 2463:2.1970859 2470:0.70584422 2471:2.7075567 2477:0.16562304 2487:0.56797469 2488:0.019804627 2491:0.67424077 2501:0.6504426 2504:2.2380383 2507:2.4909425 2508:1.4105668 2520:0.82915151 2523:1.0822934 2527:0.20599647 2528:0.79640889 2533:2.9611328 2537:3.4805269 2545:2.4006555 2558:1.8364213 2561:1.8086809 2570:4.1898413 2575:0.50943017 2578:2.0334995 2589:2.5654757 2591:4.9159522 2592:0.42184341 2594:0.37290078 2595:1.321543 2596:0.2459709 2601:7.7154269 2604:1.528507 2612:0.12215117 2619:0.03883256 2621:1.41856 2628:1.5484293 2632:1.2199371 2635:2.3171799 2636:0.16639265 2637:3.6141415 2641:0.73864436 2651:0.79537863 2652:1.4866934 2655:0.27699351 2658:0.5619958 2687:3.1764474 2688:5.7955489 2689:1.8911639 2695:2.3700006 2697:1.4483225 2698:0.32553837 2705:0.21956271 2707:2.7786684 2708:0.76698124 2714:3.0296881 2715:1.9389672 2718:2.3589134 2720:0.76288581 2723:0.90485489 2726:1.0522883 2731:0.9290601 2732:0.88714439 2736:3.9606926 2745:4.9777322 2752:1.5544542 2756:1.014142 2765:0.93447191 2766:6.3860102 2768:0.26135918 2775:3.5241983 2777:0.77689409 2778:2.5484455 2786:0.95809811 2787:0.020070523 2790:1.7841624 2793:1.0625727 2795:2.3215256 2805:4.2452884 2807:0.098092288 2811:1.0128787 2814:2.2921207 2817:0.2949079 2820:3.391294 2821:1.6942514 2826:0.98489887 2829:0.051527917 2834:1.2494836 2840:2.9147527 2842:0.49977964 2844:0.33666736 2849:0.35237592 2853:3.1758831 2860:0.47936651 2866:0.13222957 2870:0.9470163 2873:1.8682547 2875:0.28407168 2881:0.41160998 2882:1.2717113 2888:2.0681083 2892:0.92810309 2896:2.0973914 2903:3.2350066 2909:1.0369115 2919:3.2874649 2929:0.99840462 2937:2.1496158 2950:2.4691253 2951:2.3777206 2955:0.53289306 2957:3.3708832 2964:0.92037433 2971:2.4531834 2977:2.4959078 2978:5.5989447 2981:2.4431536 2986:0.35954785 3033:1.444824 3035:1.3260834 3047:2.073813 3049:0.36773127 3051:2.3675473 3052:2.0206656 3057:2.6902514 3059:0.33210999 3065:0.76393926 3075:0.49422389 3079:1.6562574 3086:0.75353193 3094:1.7395815 3117:0.71864069 3124:1.7013298 3129:4.7406697 3132:0.62950456 3144:2.8874931 3152:3.07283 3154:3.3294101 3161:2.6391351 3162:1.0996487 3163:0.64830726 3174:0.53407902 3179:5.0882335 3183:1.0738597 3184:0.37730265 3185:0.1444748 3190:0.86749601 3198:0.56596726 3199:2.665628 3200:0.70778954 3215:0.65095007 3216:0.75005102 3220:0.37156653 3228:0.23515639 3235:0.75980228 3242:1.1283445 3247:0.15118557 3248:3.4509084 3249:5.984901 3251:1.4664934 3256:3.849335 3257:1.1510673 3260:0.56874335 3267:1.7831838 3275:0.37672889 3276:0.94052637 3278:3.2643347 3285:3.370398 3290:3.3471518 3291:1.7089734 3298:3.2706373 3299:0.46296558 3302:4.1714702 3310:4.665597 3315:0.93209052 3321:3.3235357 3324:1.1570045 3325:1.0602747 3333:2.4752588 3334:2.8620691 3348:1.691999 3349:5.4002042 3354:4.7454038 3355:2.303036 3356:0.76113522 3358:0.82435763 3363:2.9415605 3365:3.6502109 3367:0.79262602 3377:8.0157681 3383:5.992003 3387:0.52635062 3388:0.33620423 3401:1.4593407 3407:0.039793104 3410:3.827415 3412:0.67470223 3413:3.3190882 3415:0.54003054 3418:1.6757182 3432:0.73081899 3437:2.7931364 3446:0.3988415 3456:1.7394769 3458:3.2576311 3467:1.2571917 3479:0.38423622 3484:1.9702952 3490:1.4495023 3491:1.4608185 3494:4.222311 3496:4.7528143 3500:3.0085053 3505:4.306942 3507:1.880765 3508:2.5582907 3509:0.35311681 3513:1.5398725 3521:2.6277003 3529:1.0343866 3531:1.2668681 3534:0.78140056 3537:0.16020799 3539:2.3521814 3540:4.9168983 3544:1.1341051 3545:1.6950953 3554:1.474329 3564:1.681443 3565:0.97488099 3569:3.6304426 3577:1.0542816 3578:0.070615619 3582:3.9258432 3586:1.1833106 3588:0.91863614 3591:0.38998699 3598:1.7044019 3599:1.1166215 3604:6.0607905 3608:5.3492203 3615:2.5908241 3616:0.10151866 3627:2.7507014 3629:0.32897556 3632:0.083025843 3634:1.8205446 3636:1.0768875 3638:0.86042279 3642:3.9421041 3644:3.1709871 3650:2.0406742 3653:4.4700065 3667:1.7337185 3679:0.31392735 3690:0.039844185 3691:2.9356842 3692:0.42743668 3693:1.1111324 3703:0.38757601 3719:3.6103237 3734:1.3512106 3741:0.70988929 3747:0.18481189 3749:0.99698597 3752:1.1821235 3758:4.4577851 3766:3.9959869 3767:0.048360601 3769:0.82211477 3776:0.25927454 3777:3.0796237 3792:0.078332901 3793:4.1625185 3806:1.8443785 3808:1.0213559 3810:0.82188821 3818:1.6664089 3824:1.8641852 3835:2.291687 3836:2.0757735 3838:1.8703079 3849:0.70704991 3857:0.45211813 3860:4.4586949 3862:0.32392859 3872:5.0550256 3886:0.11565247 3891:6.6617084 3895:2.2118027 3901:0.80477476 3907:2.0877082 3915:2.7794354 3927:0.31165195 3929:1.3387386 3933:0.87529099 3938:2.5815525 3941:0.2197506 3951:0.26086134 3952:2.2592463 3957:4.1609159 3963:3.4999626 3966:0.39666623 3972:1.8799355 3984:0.48253018 3988:2.8883405 3995:0.7637375 3996:0.11399093 4000:3.4749219 4003:0.1260362 4005:0.28582263 4008:0.98924679 4016:0.97795755 4021:5.9496574 4029:0.66085863 4032:1.1708142 4042:1.2373812 4043:0.89251918 4055:1.3671753 4063:1.7481883 4067:5.5806141 4071:3.6608136 4085:0.14191937 4088:1.5232067 
1 4:3.2986908 15:0.53203678 16:0.72335398 20:2.2434011 21:3.7598684 27:1.5789417 39:1.6735055 44:0.034827143 45:0.85754097 54:3.967391 57:0.25513461 62:0.10559928 64:2.8676372 68:2.7796936 77:0.88348037 82:0.93954742 84:0.93725634 85:1.2640541 90:0.84336334 94:2.2141092 97:0.081740215 99:1.2711157 102:0.1763393 103:3.0343723 104:0.87953866 114:0.38939384 115:0.7914865 118:2.6933079 120:6.2954173 126:0.00029020011 136:2.8750408 140:4.9499598 143:0.98408902 147:0.72669566 152:0.53077233 159:2.4361107 161:1.222838 163:2.8605657 166:1.7242026 167:0.98927003 172:5.1620927 187:0.40586939 190:0.16560331 191:2.6055894 199:1.1609249 210:1.9108229 217:2.87378 218:4.3824086 221:1.6020161 223:2.4104791 232:5.2129269 236:1.6273007 238:4.5301533 239:0.92754441 241:1.1650194 243:0.32165703 252:4.1370258 254:0.83242941 256:0.32005662 258:1.1462003 259:0.81539667 260:0.65642607 276:2.9107676 282:1.547503 290:1.1325936 307:2.6777527 308:1.8685486 315:2.6718323 335:1.4410346 342:1.5583864 347:1.4629302 353:0.090020448 361:0.28624454 363:0.39400911 365:0.42046946 378:0.88638574 382:1.9182422 388:0.2184667 390:1.6971706 391:0.5377751 393:2.8102231 404:1.8936632 408:0.7843709 412:2.5538604 416:1.5330697 420:1.6674157 421:2.5466986 434:2.1803796 443:0.88362336 454:3.3779025 462:0.28613317 466:4.463212 473:1.7303085 475:0.33780867 476:0.21009943 482:1.6194329 485:0.021767914 489:1.2408741 491:3.41835 493:1.3826108 494:1.7773128 496:2.2172277 504:2.3178837 507:0.97635233 509:3.277962 514:4.0499496 515:2.9529064 517:0.80825174 526:0.84934664 527:1.0383897 532:0.38310632 554:0.089727372 562:4.178628 576:0.41859347 581:1.7040474 583:0.48691338 592:0.80786133 603:1.8720034 611:0.84099233 612:2.7317693 616:2.3367007 619:0.34284401 635:1.6930759 636:0.36028528 637:3.10216 638:0.56102967 642:2.4260821 644:1.7155445 646:1.7032614 650:2.1117103 651:2.6278028 656:0.5541333 661:0.98506594 667:0.22800758 671:2.634496 674:1.6814084 675:1.5996459 681:5.1065669 682:1.7086554 689:2.1286602 690:1.1089674 694:1.9420973 695:0.78341472 701:1.1310563 705:3.1688786 706:3.9752274 728:1.070698 744:2.6559176 750:2.0333443 751:2.5966899 754:0.39526761 756:2.304261 760:1.1815044 764:1.3115373 766:0.47036067 773:4.6656413 774:0.14919698 776:0.82091665 777:0.049174607 786:1.4197607 792:2.2847252 796:1.5580411 798:0.73833454 802:1.587621 812:0.6369983 816:6.4850473 819:0.80513865 823:1.8051428 829:0.2502715 832:0.48727059 834:1.343158 839:2.5202401 840:0.28790861 841:4.5173392 842:5.2975101 848:1.5174197 853:0.30282032 855:4.381978 857:0.72768199 860:2.0192199 861:4.6663904 864:1.7797905 867:0.61849338 869:3.8282897 878:2.3324256 881:0.69920969 883:0.28478408 888:1.4222519 899:0.37267697 902:3.5520723 904:0.72332221 911:4.8945122 912:6.2209435 918:0.044266969 919:1.3170462 928:2.5784409 930:0.21156359 939:0.036946155 944:0.30643269 947:2.5013936 955:0.18308225 958:0.61065698 961:0.164606 965:2.4280307 967:0.036961854 970:0.61784387 972:5.4527073 978:0.23434338 980:2.2076638 982:0.40044731 985:0.7207315 989:1.2100443 996:0.29006934 998:3.8924322 1001:0.31494501 1005:0.2868847 1006:1.0135037 1007:0.5421347 1014:3.2845449 1018:0.073638976 1028:1.6694343 1034:1.15762 1038:2.9088082 1041:0.063365489 1048:4.6900864 1049:1.9976404 1053:1.3443282 1056:0.4792136 1059:2.0420189 1063:0.87474167 1077:3.7284062 1078:2.5338964 1081:0.18848991 1087:1.3960665 1094:0.14977434 1095:1.2696905 1098:2.2915044 1102:3.5923624 1105:0.93382472 1117:2.0808854 1125:1.9576719 1126:0.08198294 1131:0.67368031 1144:1.6081791 1147:2.2868726 1153:0.46621853 1155:0.56696969 1159:6.3976641 1160:1.2921451 1170:2.4165101 1172:0.96107978 1176:1.265774 1179:1.9737344 1180:2.6984572 1181:2.0370705 1186:1.2732937 1192:3.1390545 1193:2.1099832 1199:1.4705669 1206:1.3236041 1228:1.3321877 1234:6.8390279 1239:2.475261 1242:6.0602407 1243:0.037195325 1246:0.58174562 1260:2.7993119 1261:0.75283486 1264:1.5390863 1270:0.015344858 1278:1.6707442 1279:3.3180211 1288:0.7121911 1293:1.3962724 1295:0.20842844 1299:2.9868286 1301:0.89150888 1302:2.9766409 1309:1.2050616 1314:0.10163224 1315:2.3175201 1319:3.165036 1332:0.099748552 1337:0.78745943 1338:1.4792843 1343:0.53966945 1344:1.2235024 1346:0.48889104 1349:0.31319642 1355:0.11150974 1357:1.5388944 1372:2.8701637 1376:3.6682405 1400:1.3751333 1401:2.483036 1402:0.27844301 1404:0.06838879 1411:2.5860579 1412:6.9888339 1420:2.3085699 1421:0.12496415 1424:2.2765651 1431:3.2125049 1432:0.44098371 1435:1.822929 1439:2.0514913 1442:0.32627198 1452:3.2937336 1457:3.6203749 1463:1.9861376 1465:1.697244 1469:1.428637 1487:0.89828181 1488:2.8635707 1489:3.2305064 1491:0.55192959 1493:0.67042357 1495:1.6467748 1502:3.5648634 1503:1.3961717 1504:0.41429269 1511:0.18361911 1515:0.89729792 1518:1.1276655 1519:1.8452111 1523:0.34649783 1528:3.1050463 1530:3.9135087 1534:2.1928968 1538:0.20355098 1552:3.1549087 1553:1.9355894 1560:0.94959342 1562:4.4189472 1568:1.4784008 1571:0.32757443 1580:1.0485619 1582:1.6437356 1587:4.7349629 1588:0.44559118 1590:1.2483376 1601:0.96737874 1606:2.5833967 1613:0.52346003 1615:2.1783433 1616:0.68614352 1617:0.51132256 1618:1.4633608 1624:4.644588 1625:0.84833491 1630:0.28898916 1635:0.32766473 1636:0.44045448 1637:2.1009655 1638:0.62315065 1640:0.70861149 1641:1.6494675 1650:1.54509 1652:4.7696333 1659:1.0466127 1665:2.7143388 1667:4.0726857 1668:0.15276113 1670:0.83146656 1680:1.1880083 1681:0.56260943 1690:4.6796536 1691:0.99510539 1695:5.5538688 1701:1.3388709 1704:1.4418133 1706:1.2813814 1721:6.723918 1723:0.77668417 1729:1.2515205 1731:0.96650398 1733:2.5525856 1736:0.34964305 1742:1.3124262 1750:1.6658766 1752:1.4884685 1756:3.7821259 1757:2.7458475 1758:0.36271709 1759:0.34734648 1760:0.78085196 1767:2.9649181 1771:1.0560105 1772:0.15283862 1774:1.3832943 1776:1.4882052 1779:2.1026795 1780:0.79019153 1781:2.5334592 1786:0.14424318 1793:1.1097202 1794:1.2113042 1795:0.4244819 1805:0.96099257 1807:0.87855792 1812:2.8815618 1818:1.6718138 1822:4.5345097 1832:2.00857 1833:4.5023742 1835:1.637874 1837:2.0184426 1846:3.4789062 1848:2.9168255 1850:1.8956156 1865:0.72477061 1870:0.23450176 1874:0.95464534 1883:0.063871488 1888:2.927829 1894:5.1431971 1897:0.56501663 1898:1.5840342 1900:0.12061913 1904:0.59027803 1917:0.15931943 1923:1.0483027 1926:3.2144122 1934:0.27686366 1938:1.8596088 1943:4.6023784 1951:0.4891527 1952:0.36668825 1966:0.32580349 1968:1.3088611 1975:0.70667505 1977:1.988632 1984:3.5934618 1998:1.4098366 2002:0.95785481 2011:0.067091256 2012:1.2792506 2020:1.4232321 2021:0.56982982 2022:0.57598341 2027:1.5724373 2028:1.0584041 2042:1.8295419 2043:1.1732907 2048:2.288523 2050:0.63346529 2057:1.1921083 2058:2.7719316 2059:1.1688433 2066:0.03076867 2075:6.7885642 2079:1.5187345 2082:3.0639441 2083:2.0983422 2085:1.23862 2110:0.59689069 2113:2.7968667 2114:2.2943313 2115:0.57326943 2116:1.740039 2131:1.7279874 2141:0.93325114 2144:1.2999192 2146:2.0631511 2147:1.2373842 2150:2.1864522 2154:3.3880322 2155:1.3599576 2159:5.3737998 2160:0.63557619 2164:0.90432483 2165:0.51614732 2180:2.2226837 2185:0.57477236 2186:1.828126 2188:0.83398259 2199:3.833426 2202:0.11966559 2203:0.71798629 2204:2.361747 2210:2.8079212 2212:1.0343511 2218:1.3655381 2221:1.0883541 2224:0.13724253 2229:0.92721033 2231:2.5026104 2233:2.3285363 2239:1.410217 2240:1.2976447 2245:2.3094032 2251:0.035326235 2260:0.054266065 2267:1.0895296 2276:0.59178317 2281:0.59541786 2286:0.071380377 2292:1.5712794 2297:3.3097024 2298:0.27543956 2306:4.1076908 2307:1.7277988 2311:3.7900853 2313:2.4786112 2314:1.0921631 2318:2.7700639 2327:0.63627529 2330:0.62149668 2337:1.5090487 2340:1.6544436 2343:1.4270397 2349:0.5793466 2355:0.94335604 2360:3.1959047 2361:1.994801 2369:1.636813 2374:0.48064959 2375:2.4460554 2378:0.019575596 2390:1.126707 2417:1.8753847 2427:0.42666113 2431:3.3140409 2433:2.1139731 2434:0.7043941 2435:2.6096976 2438:2.3905606 2440:1.8055409 2447:1.0091655 2449:1.816229 2457:0.73344004 2458:0.038104475 2463:3.2362571 2471:0.060241282 2473:1.4132761 2477:0.043780595 2479:0.1898351 2484:0.16971114 2487:1.2696869 2507:1.5261943 2512:1.2120298 2514:1.0599523 2516:3.2882864 2526:3.0379791 2527:0.657336 2528:0.75957799 2530:1.3539966 2533:0.94963056 2541:1.1283791 2545:2.5049443 2547:0.28250897 2551:1.988035 2558:2.3276594 2561:0.64424938 2570:1.46698 2591:1.2973977 2601:9.2519741 2604:0.49230409 2610:0.32660556 2617:0.12641588 2620:0.080966711 2630:1.3205841 2632:0.037077308 2636:0.62449753 2637:2.2923796 2641:0.966133 2651:2.1728833 2652:4.2000422 2655:3.9392855 2660:2.2377667 2663:2.3375494 2676:0.12294919 2687:0.14463153 2688:0.80604428 2693:1.5378211 2695:4.2349286 2697:1.081275 2698:0.31268957 2705:0.16631383 2708:4.2365088 2713:0.2078521 2714:5.6418266 2715:2.870039 2716:1.7110422 2718:0.52955109 2720:1.6816796 2721:0.24965736 2723:0.11742742 2724:3.5489721 2732:3.0823822 2733:3.1759524 2736:0.62824386 2743:0.57646787 2745:2.0518868 2750:1.1679361 2756:4.6184182 2760:0.72895151 2761:0.030525774 2765:2.0220535 2766:1.2641321 2775:2.2074399 2786:2.229346 2797:3.2796745 2814:0.83932036 2820:2.3604941 2823:0.23787066 2826:2.6014848 2838:0.12935722 2840:3.8630974 2849:0.97384959 2851:5.1192632 2854:0.11265031 2856:0.01759249 2864:2.8902435 2873:2.4709578 2880:5.3801041 2882:4.2242303 2883:1.3406065 2893:1.212508 2894:0.36837173 2896:0.28768659 2898:2.7113445 2901:0.19621083 2917:0.42626777 2919:4.5871024 2920:0.31129402 2929:2.0217443 2931:2.8962741 2934:3.0038993 2949:1.1645641 2957:1.1342851 2964:3.017086 2971:3.5603757 2978:5.2691307 2981:0.090553194 2985:4.9902382 2986:0.094203368 2992:0.57091033 3009:0.085969836 3012:2.5434198 3026:1.5193323 3027:0.56652439 3037:2.5934296 3038:1.6386592 3047:0.20182782 3049:1.8038987 3052:4.5264659 3056:4.2781019 3057:1.6044064 3060:0.058827948 3062:0.28581488 3085:0.47387961 3087:2.1030662 3099:0.60291386 3118:0.65792704 3123:0.52900934 3127:0.5650121 3129:2.8931589 3130:1.2242603 3147:4.1725044 3152:2.4647892 3154:3.2108626 3157:1.4743983 3160:1.3627385 3161:0.52281088 3162:0.87216663 3163:1.5272501 3168:0.724617 3172:1.408514 3175:0.50000745 3179:3.2842317 3184:4.4407263 3185:2.0838964 3190:0.5242604 3199:1.2555815 3200:1.8703378 3208:0.39668021 3213:2.321131 3216:1.1343113 3224:1.0016253 3230:0.26030004 3245:0.96075559 3247:1.7156178 3248:0.047832675 3249:4.3647714 3251:1.3621836 3256:2.967423 3258:1.7803134 3260:0.24605229 3267:0.24455488 3275:1.0073825 3276:0.29954627 3278:2.2779689 3290:1.7408793 3291:2.3218784 3295:0.98600513 3298:3.8904142 3301:0.13029981 3302:1.5820602 3310:2.3634725 3318:3.5267274 3324:2.544064 3329:1.9396569 3333:1.6544101 3334:4.3286114 3348:1.002449 3349:2.6453121 3354:5.8349471 3355:0.4005692 3356:0.079981953 3358:1.2953918 3359:0.21260241 3364:0.34580868 3365:2.6563666 3373:1.5647583 3377:6.6518412 3383:0.75950688 3407:2.3244486 3410:0.31379965 3413:0.85245013 3423:0.99259841 3425:0.13372201 3431:3.4044077 3432:6.7213769 3437:3.824321 3438:1.1060333 3445:2.7254851 3446:0.83015847 3450:2.9427996 3451:0.063900933 3456:7.414072 3458:0.74091899 3460:0.26345864 3465:0.27996552 3474:0.101914 3481:0.75008535 3484:1.0650194 3489:0.01592879 3490:3.2456133 3491:0.97475845 3494:1.2647282 3496:1.884511 3500:0.79307973 3505:2.0326567 3507:4.6125717 3520:2.1237459 3521:2.7762928 3525:0.13060465 3528:0.54596281 3530:1.075897 3535:0.92139065 3537:2.6444705 3539:1.1347674 3540:3.7551107 3545:1.931285 3548:0.27646852 3549:0.34452775 3554:3.8552365 3556:2.8940363 3564:2.5948074 3568:0.63827419 3569:1.4255345 3575:2.9503417 3576:1.218096 3577:1.5761036 3582:1.4210255 3583:0.52225471 3586:0.68166804 3588:1.5957494 3591:0.38309264 3598:1.7446505 3604:2.190948 3608:0.071858555 3612:0.22511837 3615:3.7988081 3627:2.7317355 3629:5.482028 3632:0.92155087 3642:3.4548256 3644:3.891114 3650:1.6929134 3653:2.9955266 3654:2.375576 3661:4.3320951 3669:1.2325333 3678:3.3450184 3681:2.9956706 3683:4.1810188 3690:0.25686115 3691:3.2775323 3692:4.9198523 3693:0.88836974 3715:0.47718251 3724:2.949028 3728:0.84880078 3743:0.66793108 3747:0.089292765 3748:0.16147514 3751:1.4261234 3752:1.0859867 3753:1.1780114 3756:0.69509494 3763:0.75859749 3766:2.4764533 3769:4.6404934 3773:0.48284864 3776:0.23012058 3777:3.4131494 3789:0.042450994 3793:1.0256926 3795:0.10746157 3798:0.75518751 3822:2.513432 3824:3.739754 3828:0.4015778 3830:0.52147174 3833:0.63262725 3836:6.6775675 3839:1.3461553 3850:1.9342948 3852:0.14225388 3854:1.9568992 3855:0.30753371 3857:0.40992427 3862:0.9131217 3867:2.0640512 3872:2.1167731 3876:0.25283301 3883:0.29393786 3885:0.36144894 3889:0.16744846 3891:2.1849902 3896:0.095640332 3900:1.1397206 3901:3.6720974 3908:0.14561361 3914:3.2675197 3933:0.57172239 3936:0.23448199 3938:4.2541728 3942:2.1789603 3952:1.9781213 3962:0.18666485 3963:1.0650313 3972:0.28107396 3980:3.5802903 3984:4.861392 3985:1.9710677 3988:1.9488103 4018:0.3497265 4020:0.095872194 4021:1.0318775 4022:2.5683718 4032:0.21325108 4036:1.7993248 4043:1.5726678 4044:0.47189429 4046:1.7240076 4063:3.5098701 4067:1.7995248 4076:2.5232074 4084:1.4414485 4085:0.0060055256 
1 4:3.4421878 5:1.3502314 6:0.63423914 8:0.085447669 10:1.4204452 12:1.7547393 14:0.17731413 16:0.27109778 20:2.8314371 21:1.9661542 27:2.4230957 32:0.56506222 39:3.7452505 45:1.3322284 54:0.82545781 64:2.3068643 68:0.14631081 69:2.688303 77:1.454814 87:1.4794376 90:3.7970765 94:0.12070903 99:3.0392723 103:3.1826301 105:0.90004444 107:3.5123832 112:2.5949001 114:3.2066047 118:1.824343 120:7.5177946 123:0.19691435 125:2.322726 126:1.3083678 127:0.86633241 136:0.65333378 140:4.0802422 143:1.516006 147:0.11982322 150:0.40958276 159:1.3807067 161:0.20308012 163:3.4755311 168:1.9584572 172:1.2136601 173:1.8653862 180:2.676322 190:2.2540774 191:3.4073684 196:1.3811181 199:1.6606811 210:5.235373 214:0.79619443 218:4.7660875 221:0.97506821 232:2.4162438 236:0.52761525 238:1.5795707 239:1.2814658 241:1.9777266 252:1.3492559 253:2.7473736 256:2.1324122 257:0.70081085 261:1.0090268 275:0.23236533 276:3.4281068 279:0.049758837 282:1.292181 283:0.35338563 284:1.6080577 288:1.6226093 290:0.004381299 295:0.026787788 301:1.0727003 303:0.37689507 307:3.6504619 312:3.2056637 315:3.2488055 317:0.5252859 335:2.9121213 347:2.3734367 353:1.1812191 358:2.085103 359:1.0590675 363:4.829392 378:0.49342531 379:1.7226317 382:3.2478669 384:1.7282138 391:3.7158492 393:1.5598218 397:1.3212698 398:2.1798072 410:0.42705631 411:0.66353315 412:0.48224276 414:1.4422009 419:0.65076077 421:0.029479444 426:0.1258359 432:0.070095778 434:1.9429824 449:0.44936594 454:3.4869585 466:0.0089202523 473:2.6587052 481:0.35119307 485:0.2599605 489:2.2258635 493:1.5891795 496:2.1869812 500:2.9020069 504:1.1406569 509:0.37793565 511:0.58620608 515:1.0213641 517:3.0452151 526:0.19527337 527:2.5877037 545:0.19427909 552:1.3471141 559:0.017197162 562:2.0760462 570:0.89663517 571:1.2764701 601:1.1814461 615:0.34024554 616:0.49667686 618:2.2338996 619:3.4663582 638:1.2397854 639:1.8680004 641:0.19658574 642:5.4885688 650:4.49612 651:3.4833176 659:6.6622543 661:2.7703347 664:1.8333399 666:3.862515 671:1.8747239 672:1.3954735 674:1.6777401 675:0.94401294 681:4.6272407 682:1.0641484 687:0.054147616 689:3.5817389 690:2.393209 695:4.8630047 699:1.6650606 702:2.9738989 705:4.5486984 706:2.92101 711:2.1895025 715:1.6106658 720:1.5384185 723:2.3924353 726:1.5283287 728:1.5602279 730:2.7376027 731:1.2671925 735:3.0818124 739:1.6802599 744:0.4625904 749:0.086058259 751:0.44607881 753:0.093305081 754:3.8544588 760:0.48296559 764:4.3857265 766:6.1387048 773:3.5320637 774:2.1860278 796:2.7372317 798:4.1596994 801:0.31075913 812:1.5213922 816:2.3176105 823:1.6398449 832:2.0551341 838:2.6055872 839:2.8346219 841:1.3832586 848:1.2652376 853:0.83963913 855:5.9868002 857:1.4023212 860:3.3359196 865:0.80968994 867:1.2254065 869:4.493031 871:1.4407744 878:1.1504303 881:1.254763 885:1.5178599 888:4.0157409 902:0.80201286 908:0.15431681 911:0.77876556 912:2.6451511 928:0.1136319 930:1.8295786 933:0.025403917 943:1.423584 944:0.9766922 945:0.4815329 947:0.71144223 951:1.8989452 955:0.95085943 958:2.3979545 966:2.116518 967:1.2868807 972:0.60757732 978:1.2676879 982:1.8299474 994:0.18278185 998:4.4841347 1006:2.6629701 1011:0.71690744 1013:1.9987538 1015:1.2084787 1017:0.033973932 1024:1.0686595 1028:0.073959589 1034:0.059232712 1038:0.25651729 1042:2.4399695 1047:0.33908278 1048:0.2732321 1053:1.7639983 1055:0.21552795 1056:0.39052626 1058:2.6205077 1063:0.13340688 1077:6.0346408 1078:0.77962577 1087:1.1213057 1089:0.78043306 1094:2.5839951 1096:1.5079401 1102:3.3727617 1105:0.62583065 1114:0.93652749 1125:4.9706292 1139:0.3092438 1155:3.1170111 1159:3.5578506 1160:1.8474704 1170:2.7393162 1172:0.78495336 1176:5.3764029 1179:2.1181269 1180:4.3234696 1181:2.8120167 1184:3.0521188 1189:1.0688081 1192:3.9547582 1206:2.8283825 1216:0.6635524 1217:0.076825112 1219:2.0107574 1220:2.8756042 1224:2.1788955 1225:0.3093363 1228:1.0231696 1233:0.92550379 1234:2.8805795 1237:0.20025074 1239:3.1018014 1241:0.47560039 1242:0.56884587 1243:0.39248031 1245:0.44119009 1246:2.0104344 1249:0.15634519 1250:2.8900101 1252:0.41545892 1260:0.64078379 1264:2.9115572 1278:2.9113755 1279:4.9093971 1281:3.7384422 1288:2.826019 1291:0.58891809 1299:1.9173834 1303:2.4317224 1305:1.2358644 1309:3.8798676 1310:0.11201642 1315:1.4534802 1318:1.0997434 1319:0.52009588 1320:3.5325274 1325:1.7892576 1337:0.0089173913 1338:0.35253656 1344:1.7398546 1352:0.17847437 1368:5.0658579 1372:1.7019501 1373:1.4550211 1377:0.54785293 1386:1.4928669 1389:1.4885657 1393:0.63160515 1399:0.37659538 1401:3.5833697 1406:2.1705065 1411:3.6555333 1412:3.0589967 1420:1.9071622 1421:1.7191564 1424:0.99376428 1426:2.9780974 1429:3.2532349 1432:0.12231264 1435:5.7181897 1439:2.7742443 1441:1.6202667 1444:1.3050623 1446:0.99881405 1452:0.9534567 1456:3.7312274 1457:5.7428155 1458:0.862881 1463:2.9466016 1465:1.5743972 1467:0.50217271 1470:5.0248175 1484:0.78731972 1487:1.4818534 1489:1.7005285 1493:0.8561272 1495:0.17355829 1502:4.5459943 1505:2.0130506 1511:0.35745645 1513:3.0444229 1515:6.2649851 1516:0.71371579 1517:0.88114953 1522:2.0069141 1526:0.81770957 1530:3.3589747 1534:3.3355951 1552:1.3495423 1553:1.6315697 1556:2.7150688 1560:0.35243344 1562:3.5087955 1568:6.0380111 1577:1.4317739 1578:0.54711574 1580:2.1936178 1581:1.6522648 1582:0.62435001 1586:1.0300702 1587:3.463563 1588:3.9273555 1600:1.94688 1606:4.4854712 1615:2.6662982 1618:3.426167 1624:6.9966607 1625:3.3067949 1630:2.7675564 1637:2.2900801 1638:0.11942363 1641:0.7025122 1642:0.56361437 1650:0.35233992 1652:3.0441155 1659:3.3611226 1667:3.3082078 1669:2.2723784 1675:1.887633 1677:0.65022284 1678:0.59135056 1681:3.0554872 1690:2.5239801 1695:5.1068654 1696:0.25353879 1701:3.4491403 1703:0.61503583 1704:0.55968642 1707:1.1776026 1712:1.6199349 1714:1.8991051 1721:0.50058889 1722:1.0421072 1726:0.0074291527 1730:1.1852846 1731:4.4628811 1737:0.27811816 1742:0.47924006 1747:0.46753088 1756:5.2333255 1757:3.1828768 1758:0.80059761 1760:2.3847644 1767:1.065441 1772:3.2462184 1774:0.97625822 1779:0.81278127 1781:1.9896657 1784:1.9627435 1786:0.52365178 1794:2.5668354 1807:0.96854043 1812:1.5477569 1818:1.0011116 1822:3.6230896 1823:0.65218937 1825:0.77168167 1830:1.1871195 1832:1.3640512 1833:2.7385001 1835:2.2629964 1837:1.3767649 1842:1.5443714 1844:0.60766888 1845:0.13052648 1846:2.2770202 1847:0.58286822 1848:4.2789083 1850:1.4781282 1860:1.9038229 1865:1.304764 1881:2.3997746 1888:4.3634043 1894:2.8397546 1895:0.40679985 1897:1.375592 1898:4.0557084 1918:2.4124022 1926:1.2198691 1938:2.791363 1943:1.7979367 1951:0.89495236 1966:0.12523451 1968:2.1548433 1977:0.21329889 1984:0.22132918 2005:2.1823671 2006:3.3326724 2009:2.9951437 2011:1.2218068 2017:1.9364791 2020:3.5632284 2021:2.2841196 2022:0.46997434 2030:3.4756112 2032:4.2135677 2042:1.6338288 2046:0.2225484 2048:6.4022903 2051:0.069958121 2056:3.0504053 2066:2.6845679 2075:8.2582235 2079:0.29378334 2082:4.0591774 2083:2.5774417 2085:0.73805875 2097:1.8108064 2100:1.4599795 2113:2.126734 2114:1.027462 2116:0.42888591 2120:2.7159083 2130:0.98644936 2135:5.0621519 2140:0.76547194 2141:1.4117359 2144:0.99872154 2146:0.95223701 2151:0.060392469 2154:1.9405916 2157:0.81265783 2159:6.628406 2160:0.77194023 2163:0.13480318 2166:2.2664299 2180:0.085917771 2181:0.040601801 2186:2.8524573 2188:5.4982529 2199:1.455955 2202:1.2547202 2203:2.8451626 2204:5.6585979 2210:4.9116116 2211:3.2422929 2217:0.010364689 2226:2.6044409 2229:2.143841 2231:3.5647402 2233:0.89076471 2239:1.2218143 2240:3.8593178 2246:0.57374221 2250:4.4552732 2251:1.636806 2267:3.0786109 2275:0.49023631 2281:0.48209518 2286:0.73493105 2293:1.1189518 2296:1.6408367 2297:3.4417577 2298:3.3395839 2306:1.8077782 2307:1.3687565 2308:0.50307447 2311:4.4195499 2314:1.5625833 2318:1.3549814 2322:2.5633345 2328:1.1949062 2337:1.2258151 2343:1.9544387 2348:2.8984375 2360:3.8842039 2361:1.1697811 2367:0.60494947 2379:0.72442991 2381:0.90978289 2389:0.93650985 2393:2.1211889 2405:1.1985693 2409:1.3730866 2417:0.27670741 2418:1.0954473 2420:3.1985595 2424:1.2896509 2429:1.1230237 2431:4.0792174 2433:0.73425454 2435:3.0708678 2436:0.5911901 2438:4.9285016 2443:0.91965413 2446:0.52522123 2452:0.011103988 2453:0.43868542 2457:0.86427015 2458:2.8447874 2463:1.8961155 2470:0.82373178 2471:1.9839724 2473:2.3765028 2477:0.81018996 2486:0.63345349 2487:0.1563859 2507:3.0277917 2514:0.44746748 2516:1.5195332 2522:1.0121841 2526:2.1519227 2528:0.11452724 2533:5.2808371 2535:0.19538796 2537:0.82074994 2545:1.868016 2552:1.0398908 2558:2.712975 2561:0.36655873 2566:0.06542933 2570:3.4546065 2589:1.8321471 2591:3.0749516 2595:3.6071715 2599:0.33645749 2601:9.7140865 2604:0.37910685 2621:2.3886266 2630:1.2221879 2632:1.4176939 2636:1.4136746 2637:4.31743 2648:0.22793764 2651:0.24141014 2652:1.5340419 2655:3.8674333 2659:0.050247394 2660:0.072956324 2663:1.2030548 2672:1.5217674 2674:0.733293 2676:0.60210818 2687:0.92402649 2688:4.5985789 2693:3.2003441 2695:0.47675365 2697:2.2081506 2705:1.3321779 2707:4.240459 2708:0.63291967 2714:0.15108219 2715:1.8591418 2716:1.7990227 2718:2.0230579 2719:1.4039755 2731:3.0172443 2732:2.017463 2736:5.2387471 2745:0.050198659 2755:0.28070956 2756:4.0555401 2757:0.82436132 2761:0.79049575 2765:4.3859711 2766:3.855768 2768:1.3915195 2775:5.8486824 2777:0.44512534 2778:0.81182492 2786:0.59694278 2792:0.11721917 2793:1.5042018 2795:1.8540347 2805:3.4174929 2808:0.099440649 2811:3.5455618 2814:1.1828424 2820:4.9726977 2821:1.8057564 2826:1.5584161 2837:0.60818589 2840:4.3167644 2842:1.0768751 2851:0.40232021 2853:1.2064724 2856:2.2047062 2857:0.018177943 2860:1.3658763 2863:0.6672796 2874:0.66200393 2880:3.5406766 2881:1.2285264 2882:0.36761692 2888:1.5628846 2893:1.5244465 2894:1.9296997 2896:3.4782448 2901:3.7393727 2903:1.4740984 2909:0.25561845 2917:0.55661613 2919:2.9216204 2929:3.1523881 2934:0.46825856 2937:0.046177179 2951:2.0055144 2957:4.9890871 2962:0.72053909 2964:4.5631757 2971:4.8908019 2977:3.0751631 2978:5.8248301 2981:1.6617706 2985:2.7739897 2996:0.19243014 3009:0.41030559 3012:2.3705754 3014:1.1129336 3018:2.4582868 3027:3.1680107 3037:0.23842219 3047:0.21430123 3048:1.1799395 3049:1.0156029 3052:4.1456504 3057:0.65594959 3059:1.2441053 3060:0.11958887 3062:0.049917459 3071:0.3596313 3079:0.25384489 3086:2.3937092 3090:2.335824 3091:0.092051804 3094:0.42930576 3115:0.030644655 3124:0.26320285 3129:5.1309795 3130:1.4093807 3132:1.0949525 3133:2.2812688 3152:0.70701486 3154:3.9906902 3155:0.6260311 3162:0.80472779 3163:2.9235873 3165:2.4717813 3179:7.2324891 3180:0.10329395 3183:1.0088305 3184:1.6117089 3190:1.2563571 3196:0.33576289 3199:2.3983967 3200:2.6736279 3208:0.72647691 3216:2.5090735 3220:0.44091654 3234:1.7268486 3242:2.9661965 3248:0.79950595 3249:4.868269 3251:5.4071732 3253:0.60637522 3256:3.3754532 3258:0.62571037 3260:1.7123603 3270:1.0326478 3278:7.5725608 3281:1.7545063 3285:0.06470421 3290:2.4644098 3291:0.60472941 3293:0.3444815 3295:0.93011767 3298:7.1447101 3302:0.73584229 3310:1.7074993 3315:0.20169699 3318:1.2801018 3324:0.25483394 3329:2.0724256 3334:5.466424 3348:3.416702 3349:2.6063859 3354:2.6720588 3359:0.72996634 3371:0.22841592 3373:0.50178885 3375:1.1902716 3377:10.834149 3381:0.81014085 3383:1.9454268 3401:2.4359653 3404:0.019214332 3407:0.044776291 3410:1.6087466 3411:3.5001383 3413:1.3608929 3423:0.86265755 3432:4.8114405 3436:1.4752591 3437:0.32380551 3442:0.87900066 3446:2.5554285 3451:0.59950578 3456:3.7716811 3458:1.4165192 3490:2.0813942 3491:3.6571016 3496:3.0578449 3500:1.9432276 3505:4.0470142 3507:0.34753004 3508:2.789079 3513:2.496464 3515:0.50919926 3521:2.6886396 3525:1.0547378 3530:1.7058315 3531:0.43250224 3535:0.46242738 3537:4.5823708 3539:0.090971731 3540:3.816813 3545:0.30435005 3548:0.066232383 3554:1.6382442 3564:1.3731377 3568:4.1862822 3569:4.2967987 3572:0.11590169 3575:2.1351104 3577:0.1693075 3582:3.2596755 3586:2.3407011 3588:2.0912874 3598:2.1709788 3599:1.725915 3604:3.9745591 3608:5.6846428 3620:0.69782394 3621:1.1238785 3624:2.6636896 3627:0.3526608 3629:0.45222592 3636:1.4413377 3642:1.9398894 3643:0.60973001 3644:1.7509835 3650:0.12159055 3653:3.0361545 3661:3.3248084 3667:2.0337319 3668:0.0023986995 3678:3.3795815 3681:2.6669452 3683:1.9618212 3691:3.4676878 3692:2.7184792 3720:0.79586375 3724:1.3228495 3749:0.59365898 3751:0.39586532 3752:1.8077878 3756:0.094237834 3763:0.96907258 3766:0.54095972 3769:0.23125607 3774:0.59276092 3777:2.7063015 3779:1.227001 3793:1.200299 3803:1.9444828 3806:1.3200966 3808:1.4784173 3810:1.2332063 3824:3.8533206 3831:0.37748408 3835:2.6262112 3836:4.2824636 3848:0.67979801 3852:2.2186143 3857:0.83048421 3862:0.14759721 3864:3.1773384 3878:0.58081627 3889:0.33306912 3891:2.5220821 3901:2.9630077 3907:2.5423787 3910:0.55672121 3913:1.2185513 3914:2.697037 3938:3.1933236 3940:1.4754548 3948:1.7685804 3950:0.22322479 3955:5.4499612 3957:1.6664714 3962:1.1082557 3963:1.8016365 3972:0.85701346 3984:0.83769578 3988:1.7746358 3992:0.17137146 4000:4.0921402 4003:2.2802801 4012:1.5143893 4020:1.8086457 4021:3.3888381 4022:2.4040678 4043:2.2160332 4046:4.1680698 4063:2.1842697 4067:3.4964089 4068:1.6452187 4076:0.32723776 4084:1.265102 
1 4:4.1118894 6:2.180573 7:0.67163146 10:4.5764008 14:1.5325296 16:0.93062347 20:0.95251179 21:1.3613693 54:1.491601 64:0.8901698 69:0.24549061 77:2.0786202 84:1.0546851 89:0.034540921 90:4.2829413 94:0.8279314 103:3.0845709 107:3.1918738 114:3.2120988 118:0.080937222 120:4.5981445 123:0.29583392 127:0.61530888 136:0.62632823 140:0.013464957 149:0.35611078 159:3.1001077 161:0.93163431 163:1.5074558 164:2.5074031 166:2.5278199 187:0.19634333 190:0.99363387 191:5.131381 194:1.1672614 196:2.6060936 199:5.5931196 210:7.8740411 217:1.7030187 218:2.9808588 221:1.2655756 232:1.1938806 235:2.9995816 236:0.46426892 241:3.8797171 244:0.48318988 247:0.72084928 253:0.38835514 256:4.4051352 258:0.76024717 276:2.9509339 282:1.0475017 283:0.79863507 284:0.28698137 288:2.8846796 295:1.7208945 307:0.82247156 315:2.9316065 317:1.2523165 335:3.2830238 342:0.68879694 346:0.32428998 347:2.5012102 358:1.2059767 359:3.8105278 363:2.3601105 379:1.7029355 391:4.2604141 393:0.3566156 398:1.5600654 401:1.1403966 404:0.21812898 412:0.6973834 414:0.22833166 416:3.3130891 419:1.8463076 421:2.7910051 434:0.41574475 444:0.78367931 454:3.9992151 460:0.31987557 470:0.16250321 472:0.28071934 475:0.17992494 482:0.78940785 485:1.9849899 496:0.70279264 500:4.3219371 509:5.1592903 517:5.1211419 552:2.1011212 556:0.55368352 562:2.0425594 571:0.98442554 581:1.0210898 601:3.407289 603:0.69575679 607:0.87438756 615:0.31337115 616:1.9842899 618:0.80020463 619:3.3851061 635:0.49867961 637:0.4372611 638:1.6091583 639:0.70526528 642:0.91803527 646:0.79843879 650:3.7972693 651:2.920958 659:8.9340878 661:5.8819933 664:1.4135224 666:3.0757542 670:0.87247205 671:2.273339 672:2.5264475 674:0.63716489 675:1.9050412 681:6.0183334 689:2.9806857 690:1.5418324 695:2.5133874 702:2.5462425 705:4.9703603 706:1.7977098 719:0.11361083 723:0.6560396 726:2.4546745 728:4.6198182 730:0.22652106 735:0.66042316 736:1.2310767 738:1.8569067 740:1.3287201 744:1.3492367 754:0.83919781 759:2.6989164 760:0.012179956 764:3.2679574 766:6.4414506 773:3.545886 774:0.66530931 795:1.0913305 796:1.3549931 798:4.6574945 808:0.33636785 816:3.4749727 823:2.1997499 825:0.41453877 832:1.7790291 838:1.5131347 839:0.57239425 848:1.9475552 853:3.047524 855:5.0972271 857:2.9817803 860:6.1413341 861:0.16776389 865:0.23537928 869:1.8311588 871:1.1159281 878:0.24577671 885:0.66740656 888:1.3771857 891:1.0101806 895:1.5013425 896:0.020743489 908:0.49386093 912:7.5554967 928:0.16754252 929:1.155375 936:0.37063283 938:0.82797301 943:1.1166188 955:1.0814644 966:2.9650137 967:2.6628733 972:0.19222301 974:1.0541248 982:2.790309 998:2.7199764 1005:0.88716024 1006:1.3735615 1010:1.948948 1016:1.4782023 1017:1.7406075 1024:2.0153673 1031:1.2012689 1034:1.465898 1042:4.892487 1048:1.2812849 1055:0.16531181 1070:2.3229702 1077:6.4061589 1089:3.4429421 1094:5.5360818 1095:2.2373607 1098:0.48033795 1102:0.66904491 1105:0.62135631 1106:1.7704999 1125:7.7813025 1126:1.1849835 1136:0.59654462 1137:0.37260985 1147:1.2697258 1149:0.074042588 1155:0.84843051 1159:0.59140408 1170:4.477047 1176:10.35472 1179:1.1130912 1180:5.7459502 1181:0.99617916 1184:5.8869386 1192:3.691263 1195:4.9677362 1206:0.81504595 1217:0.40963027 1220:1.2836119 1223:1.3138396 1224:4.4124188 1228:0.57479954 1234:2.9666491 1235:0.18372059 1237:0.042786032 1239:1.4590207 1242:0.45090958 1249:1.1731129 1250:3.2818983 1252:1.816036 1260:2.4045687 1264:2.6978006 1269:1.0519292 1277:1.6419009 1278:1.1508865 1279:3.7111118 1288:2.7951329 1291:2.7759101 1299:0.91675198 1302:0.87547249 1303:0.7413559 1305:1.5395349 1308:0.18111047 1310:2.3036671 1315:0.22906294 1317:1.2757063 1318:1.2639441 1319:3.1527405 1329:2.3213403 1332:2.7055237 1337:1.0103865 1341:1.7126548 1342:0.054413736 1344:1.4682391 1357:0.96443647 1368:4.020174 1372:4.1466265 1373:2.1886702 1394:0.37306485 1399:1.8886995 1401:3.6601357 1402:1.5302643 1405:0.31298101 1410:1.5830865 1411:4.8908386 1421:0.92490256 1423:0.20862325 1426:0.98593998 1429:3.3142858 1431:3.2614071 1435:0.1324499 1439:1.5956774 1441:1.5630484 1442:0.52554399 1444:2.6078618 1452:0.31513488 1456:1.5701065 1457:7.6602836 1463:1.2962588 1466:1.1992804 1469:1.9203223 1470:1.1881182 1484:4.3022895 1488:3.2113132 1489:4.4174881 1491:0.79986751 1500:1.8526454 1502:1.209507 1505:3.4052622 1506:2.1648569 1511:3.283365 1515:6.5581694 1522:1.9192169 1526:0.068303883 1530:2.27423 1534:3.78053 1536:0.72540498 1552:1.0261263 1554:1.7642086 1556:0.61131275 1560:2.7786968 1562:1.9642403 1568:3.7036824 1571:0.67612725 1577:0.95300817 1580:5.4431701 1581:2.4572549 1586:3.7134695 1587:2.0771255 1588:7.0403275 1595:0.77124584 1600:3.7230179 1601:0.5482192 1602:0.56142884 1606:2.7999816 1615:5.4405441 1616:0.30997869 1618:1.5462105 1624:4.8085217 1625:4.7734261 1630:2.67136 1632:0.12924913 1637:0.61058748 1640:0.44990885 1645:0.75432575 1652:2.6293941 1659:1.961218 1667:1.3943226 1669:2.1483209 1675:0.7729845 1678:0.48912287 1681:4.3261905 1690:2.013968 1695:4.0534916 1701:3.0505078 1703:0.89551622 1704:2.1349256 1708:0.61553252 1712:0.59560055 1726:1.0059248 1731:3.8524232 1734:0.20768687 1737:2.480984 1742:1.2223505 1756:8.3103456 1757:0.015137106 1760:3.0048885 1772:0.4866465 1774:0.58205581 1776:0.62616068 1778:0.64235115 1779:0.22686321 1807:0.83890766 1812:1.361437 1822:2.1503015 1830:1.5151983 1831:3.8131292 1833:0.021424294 1835:0.6584906 1842:3.1291595 1846:1.7615099 1847:1.4201462 1848:5.8078394 1850:0.12750435 1860:2.5058522 1863:1.185104 1865:1.6212881 1869:0.079063118 1881:0.054923028 1888:6.740777 1890:2.050209 1894:3.0188456 1897:1.9741218 1898:3.767679 1900:0.78148943 1909:0.95017278 1912:1.9004176 1917:0.35678154 1918:5.3393393 1935:1.7600237 1938:0.57434571 1940:2.2975602 1943:0.12680915 1951:3.5046144 1984:0.0068451464 1985:0.5365383 2009:5.7065721 2011:2.8893719 2020:0.21647277 2021:0.38399312 2028:1.3292105 2030:4.0571852 2032:3.8715281 2038:0.25016049 2040:2.257426 2041:1.5179931 2042:1.4960176 2046:2.584868 2047:0.22862512 2048:5.4195051 2051:0.47453037 2056:2.0237522 2066:5.1515346 2067:1.3227104 2075:5.8975701 2082:3.4307942 2085:1.4954293 2087:0.1135391 2113:4.2130322 2115:0.34150565 2116:0.97789979 2120:2.9927142 2135:5.9159436 2146:6.5439448 2154:2.3423674 2157:0.13667911 2159:6.9232173 2160:2.5018528 2162:1.2174673 2186:1.9707295 2188:5.422688 2199:3.4308653 2200:0.34662834 2202:1.9522216 2203:2.9531021 2204:5.8803973 2205:1.0858006 2210:3.0737677 2211:4.2534242 2224:0.43946531 2226:4.3624082 2231:4.5643277 2233:1.1281832 2240:0.75090277 2250:1.9711971 2267:1.2114258 2281:0.35166988 2293:0.75707519 2306:2.098037 2307:0.76051331 2311:6.7848988 2314:0.3099038 2318:1.3959146 2322:2.7109532 2330:0.72919405 2337:3.4701228 2343:0.81729263 2355:0.024818212 2360:7.3361712 2367:0.3460933 2374:0.17003864 2379:1.4761504 2381:2.2601895 2389:1.7422972 2393:2.2817452 2409:0.31177208 2415:0.44185677 2416:0.081182748 2417:3.7925887 2418:2.9152346 2419:0.051590741 2420:3.5030825 2429:0.8994351 2431:8.885911 2435:4.1573787 2436:0.063295215 2438:0.66952324 2440:0.12466261 2449:1.1268067 2453:0.22480416 2458:0.11753058 2463:0.5773859 2471:0.91454482 2473:0.3090795 2479:2.1026015 2485:0.20609158 2487:0.0057684481 2500:0.0099945664 2504:1.2070601 2507:0.21477106 2520:0.47242263 2521:0.65678573 2526:3.5391631 2527:3.2124975 2528:3.2163959 2530:0.34274736 2532:1.2020382 2533:5.8321896 2537:1.6719213 2541:1.8000548 2552:1.4346089 2558:5.1740084 2570:0.26771113 2575:0.65687394 2580:2.6216657 2589:0.14100748 2591:1.1699785 2595:1.7875587 2598:1.9906366 2601:11.541496 2604:2.3437133 2610:1.7403697 2621:0.56666571 2632:4.0448494 2637:5.8677878 2648:1.1064398 2655:5.5094304 2660:0.5777415 2679:0.59840822 2688:1.3598405 2693:3.4676993 2695:1.4882554 2697:0.65960068 2704:0.001737982 2707:4.1253171 2708:1.2019838 2714:0.79100305 2715:1.4237893 2716:4.7420259 2718:7.3708024 2719:5.3103647 2724:2.6045127 2726:1.0750782 2731:1.4567084 2732:1.6418269 2733:1.0418576 2736:5.1771512 2752:0.63950986 2755:0.62623429 2756:0.48207533 2765:4.5136271 2766:3.9266403 2773:1.3981043 2775:5.4528203 2777:2.7351317 2778:0.020456519 2786:1.6777203 2788:0.7715838 2793:2.474705 2803:2.0746956 2805:4.0055552 2811:3.0996683 2814:2.159765 2820:2.8850474 2826:2.2425838 2834:0.81219131 2840:4.705327 2842:0.56811023 2844:0.50830144 2853:1.2950401 2856:0.68945628 2864:2.4457288 2870:0.030139521 2880:4.1046066 2881:2.4110444 2882:2.4232059 2892:0.19568752 2893:4.0141726 2894:0.97980559 2896:7.4201703 2898:0.41574824 2901:3.6804128 2903:7.5510969 2909:0.093673944 2919:4.2402067 2920:1.09324 2929:2.4169953 2936:2.3899953 2937:2.2571285 2951:2.1570256 2957:4.8711209 2964:1.4896762 2969:0.097060502 2971:3.755986 2977:4.5020351 2978:1.3052496 2985:1.2796804 2996:0.062030613 3009:4.4218965 3012:3.3542411 3018:4.2143383 3027:2.7341123 3037:1.1481891 3038:0.70045519 3048:2.9437101 3052:2.2458448 3057:3.5759561 3071:0.018281952 3076:0.4286153 3081:1.8995135 3086:1.7614765 3090:2.3028324 3094:1.9944006 3101:0.25884855 3105:1.8630614 3115:0.10387945 3120:0.91214985 3124:0.5003947 3127:0.31395969 3129:0.35548192 3130:1.6891903 3132:1.8441678 3133:1.7314899 3144:3.6406157 3152:2.1958706 3154:2.8472989 3163:0.23445159 3165:2.308316 3179:7.912056 3184:2.4977071 3187:2.8837657 3200:1.6418743 3216:3.9740651 3217:2.2039318 3232:0.4905332 3234:0.84073037 3242:4.3293109 3247:1.3973317 3249:4.869102 3251:3.7579589 3256:5.3225889 3260:7.1545577 3278:5.3174467 3281:0.97579288 3285:3.2941701 3295:0.53081226 3298:7.5980844 3302:3.6799304 3318:0.78889424 3324:2.5516391 3329:3.7248964 3334:1.5283906 3346:0.18528771 3348:2.5973511 3349:1.7706265 3354:1.9363062 3365:1.0315155 3377:7.9966936 3383:3.3466516 3387:0.6067059 3401:2.2183981 3409:0.046206534 3410:1.4726086 3411:3.6701534 3413:0.71600848 3431:3.7679741 3432:4.5352025 3436:1.5134816 3445:0.15209892 3451:1.8737688 3456:0.15335456 3483:0.61218548 3484:1.2608706 3490:2.9932864 3491:5.7297125 3495:2.259269 3500:2.0828133 3508:2.9628816 3515:1.380724 3521:3.0057731 3525:1.4650884 3531:0.59891939 3534:2.0596292 3537:5.2598104 3539:0.1455474 3540:3.6665394 3545:0.34991816 3548:0.13864213 3554:0.85636741 3556:0.54601538 3568:2.6496725 3576:0.08582294 3577:1.536985 3582:1.0441227 3586:2.9436722 3588:3.6243527 3589:0.082984239 3598:4.2605543 3599:4.574192 3604:2.0893137 3608:4.7377439 3615:0.8546356 3621:2.2474961 3632:3.458432 3633:0.20296776 3636:0.50408381 3638:0.8809638 3642:5.2831569 3643:0.8664459 3647:0.0043897107 3649:0.66245019 3653:5.0664907 3654:0.50181705 3661:5.3674169 3667:5.4614706 3669:0.40989089 3672:1.0166947 3678:0.18442878 3681:2.1419582 3683:4.6938457 3690:1.2278414 3691:6.3206177 3692:2.6357694 3693:0.99821788 3715:0.65071344 3734:1.581196 3741:1.5213628 3749:1.0000069 3751:1.4268646 3758:0.69303381 3763:0.10446405 3766:0.90058661 3767:1.6665616 3773:0.53581178 3776:0.67766356 3777:3.8872001 3779:3.6182654 3795:0.9213475 3803:0.32037178 3806:1.11617 3810:1.7306576 3818:0.28423029 3824:1.3998414 3831:0.81595248 3835:1.1546651 3836:2.5251074 3848:1.703867 3852:0.13975659 3854:0.31411487 3862:0.83874112 3864:0.23036273 3872:1.9298398 3878:0.13483524 3891:4.5520515 3910:0.15367925 3913:1.3399255 3914:2.876426 3915:1.0141265 3929:1.3990734 3938:3.7658072 3940:0.32246876 3952:1.2236714 3955:3.1086662 3957:4.3673816 3963:1.146852 3972:0.29993251 3973:0.011839539 3984:0.078733616 3988:1.0285959 4000:3.5760098 4003:2.1407123 4004:0.63407069 4005:0.97760421 4006:1.4387493 4012:1.5410881 4020:0.85845661 4021:1.9660021 4022:0.35184237 4036:2.2983971 4043:0.55927926 4046:1.8615549 4052:0.52031237 4063:5.0864668 4067:6.152626 4068:0.21442206 4071:0.72583616 4084:1.547384 
0.05042378806470076 4:0.072592109 10:1.1042979 12:0.51415932 14:0.86170411 16:0.025825024 20:4.208744 40:3.7147157 47:0.65168822 49:1.303324 54:1.7186122 56:0.98135275 64:0.46082544 69:6.5754342 77:2.5812643 83:2.5917804 84:2.248498 90:0.44703621 94:1.0843251 99:0.10397688 105:1.7116888 107:2.468981 112:1.7203209 114:3.2863181 115:2.0178072 120:4.6536989 125:1.9259855 126:3.3144593 140:1.3001498 141:1.897238 146:0.31743491 159:3.675529 161:1.0545176 164:7.7028742 172:3.1745753 174:0.087410033 190:2.3242016 191:2.1666729 196:1.1229587 200:3.8232155 210:6.8847237 217:1.3772842 218:2.0977788 223:0.45847028 232:0.55842179 238:1.1302751 239:2.1265607 241:1.6130754 246:0.60656953 247:1.1997529 252:2.1346579 256:0.92161107 261:2.3984084 267:3.3124776 276:1.3569535 282:0.21526173 284:1.6788914 295:1.0713229 300:0.50993419 307:2.3514388 311:0.71726137 312:3.7018161 315:5.063426 318:4.0320683 335:2.8570528 340:0.75825107 347:1.7466059 353:0.1741356 359:2.4675074 363:0.72040564 373:3.0438428 379:4.6815586 385:0.20594284 389:4.8293524 391:1.3264688 413:0.023256689 434:4.1960173 454:1.1143376 470:0.067036986 472:0.85306829 482:2.5244868 517:3.4865069 526:0.32369381 532:0.86798108 545:0.4534052 546:0.16653332 552:0.7251395 562:2.711478 571:1.0904831 577:1.6924183 601:3.8610208 606:0.19433469 608:0.72539359 612:0.86151767 618:2.7699938 642:4.8033891 648:1.1793087 650:0.96170908 651:1.0275347 653:0.86791432 659:4.5943003 664:1.3236383 666:2.3409154 667:0.79423469 670:2.122767 672:2.8350742 674:0.54884058 675:0.87670124 676:3.1832995 681:5.0570703 687:1.3786385 690:1.302768 701:1.9620311 702:3.2433851 705:2.7884226 706:3.9264383 711:2.3767123 715:0.13088882 717:0.62529099 722:4.7277684 723:5.584857 726:5.3400793 728:0.16708553 731:0.62224901 735:3.5134149 736:1.0139642 740:0.12316275 747:0.91442966 749:0.79692507 759:0.21147753 764:1.347061 766:5.549902 773:4.6707273 777:1.4111669 795:0.066233099 796:4.997046 798:3.813484 808:3.2905529 811:0.47246611 812:3.1036487 816:1.6626425 817:0.77603441 823:0.073099732 832:0.29378253 839:1.1530311 841:1.7513764 853:0.98888195 855:1.8760853 857:7.0763226 860:1.8095906 868:1.2472494 869:0.63381791 871:0.12350416 878:0.52635497 902:0.60911447 904:1.9410983 908:1.6524786 912:6.9083619 918:3.2680135 929:2.7598145 945:3.9893804 965:5.5295067 967:0.037503868 974:1.0923567 980:0.93389833 989:0.1568816 990:1.6592553 991:0.051502198 998:0.96272182 1001:1.4284629 1015:0.62157202 1018:0.73839015 1027:1.5734814 1031:2.3928502 1038:1.4466009 1062:0.45672292 1077:5.8229966 1095:0.3315897 1096:3.846437 1102:3.6988006 1106:0.071080238 1119:1.6556811 1125:2.3486102 1139:0.2139498 1155:1.9426308 1168:0.15100396 1169:0.44018164 1176:4.9573364 1180:3.7081378 1181:0.39434516 1189:0.99435759 1192:5.3353543 1206:2.7895408 1215:1.716213 1219:0.23361361 1220:4.6862817 1223:2.0820711 1224:2.3492374 1228:5.1848755 1242:1.1802348 1245:1.201844 1252:1.2764882 1253:0.054383248 1260:1.0044453 1269:0.46990174 1278:3.9360459 1279:2.8798704 1286:0.67459303 1288:1.367434 1291:1.3901128 1299:0.39260399 1302:1.5073004 1303:0.42803335 1304:1.8011773 1309:1.7570823 1313:1.6652379 1314:1.0975227 1319:0.097153008 1320:0.55027217 1325:1.0485799 1329:0.72128701 1341:2.0439093 1344:1.5307633 1349:0.54927957 1357:2.656152 1366:1.2773539 1368:1.8830581 1369:2.2015491 1372:3.1152363 1373:0.43288246 1391:1.7873503 1401:2.1957011 1406:3.3033931 1426:2.2933698 1429:3.9343464 1432:0.078662395 1435:2.5078483 1439:0.24496667 1441:3.0496125 1442:3.0052881 1444:1.0469708 1456:3.583194 1457:4.5180159 1458:0.93355781 1474:3.2654059 1484:3.8400385 1492:0.28643116 1502:2.1652541 1503:3.3879523 1506:0.26124185 1510:4.9643192 1511:3.397254 1513:0.83743566 1515:0.18374532 1516:1.9479553 1518:0.11458218 1526:0.6664629 1530:0.99553615 1550:0.39144868 1551:0.42362744 1556:2.4460588 1568:0.67561418 1569:0.51641876 1580:0.072730601 1581:2.3642597 1582:1.4747229 1586:1.3855023 1587:2.0571353 1588:4.3660431 1600:5.6216702 1601:0.75354761 1606:1.3626375 1613:1.7820373 1615:0.69910157 1617:0.24302179 1624:0.96133828 1625:3.540051 1629:0.44858712 1630:0.39869258 1640:0.77357751 1649:2.2229939 1652:0.25362158 1659:6.0026317 1669:0.50813079 1675:0.68106121 1677:0.78787363 1678:2.8858631 1681:1.8474941 1695:3.2514226 1697:0.27820417 1700:0.50041938 1704:3.4731863 1705:0.77250707 1707:3.5387883 1708:0.11861029 1720:3.4568162 1722:0.47667348 1731:3.5896659 1736:1.7286775 1737:2.9407709 1741:0.096459448 1753:2.1898315 1756:1.5509974 1758:3.6386826 1762:2.718468 1772:0.64549613 1778:0.30479625 1779:0.7866497 1785:0.15968812 1806:3.7790337 1812:3.3058045 1813:0.46036226 1820:0.19658832 1822:3.7936056 1824:0.75644922 1830:2.4060874 1831:0.66317874 1832:1.3754617 1842:5.2217588 1845:4.9407053 1846:3.0443943 1848:5.1600304 1849:0.7979039 1869:0.3676537 1881:4.5001593 1888:3.2575846 1898:4.0343308 1904:1.0318559 1908:0.071252123 1923:1.9638731 1926:1.1522877 1928:3.685302 1933:1.2627028 1935:0.56579542 1938:0.595613 1943:2.7748265 1951:0.049981058 1984:2.2067351 2009:2.6966825 2011:1.8640097 2020:1.4256425 2021:2.6130555 2042:0.43140495 2048:4.2886539 2056:0.70766306 2058:1.2273774 2066:5.7556539 2069:2.7141926 2070:0.43765485 2075:3.2593362 2082:0.5280062 2085:0.60993129 2100:1.0534675 2102:1.0565784 2107:0.89716625 2120:3.1762462 2140:1.792329 2144:0.43712109 2146:7.2460933 2151:0.37415469 2154:2.9651296 2160:3.3272271 2188:7.385458 2198:1.7799516 2199:3.2478762 2203:2.0016921 2204:5.5396204 2208:0.18203016 2211:4.9539633 2214:0.17549485 2223:2.3892441 2226:0.19787028 2229:0.35968474 2232:1.1160933 2239:0.0076650055 2240:2.0209317 2249:0.48654887 2250:1.5742925 2259:1.1197256 2267:2.842567 2273:2.7469425 2274:0.12157546 2280:1.3530828 2281:1.7548138 2286:0.1944198 2306:1.4350922 2307:1.1805778 2311:0.95727015 2318:1.1888716 2320:0.76676995 2322:2.6182549 2333:2.6356411 2337:1.6494151 2343:0.62130928 2348:1.3887645 2354:4.2165833 2357:0.096903861 2369:0.30742899 2370:1.9199361 2377:0.72744668 2381:0.21746579 2390:1.4770046 2393:1.530506 2406:0.1367418 2416:1.8417326 2418:5.0317087 2419:1.1557627 2428:1.4772913 2431:2.2776892 2435:3.0411232 2438:1.707255 2441:2.2990949 2452:0.98932052 2457:3.0569828 2463:1.812932 2471:3.2098727 2482:0.49793008 2487:1.5644054 2504:0.53667355 2507:1.3812945 2520:2.0127468 2533:4.1068702 2537:2.6917601 2541:0.16913432 2545:1.0860544 2558:2.033042 2570:4.9798274 2575:1.6110808 2589:2.8677068 2591:8.043869 2592:1.5023429 2595:0.60438854 2599:1.267843 2601:3.8129818 2604:1.7357898 2612:2.3189402 2619:0.24901153 2628:0.076516733 2629:0.010349751 2635:1.2282978 2637:5.8932838 2641:0.86984301 2655:0.014828429 2672:1.3627272 2687:2.436203 2688:3.5250571 2689:0.17715356 2693:1.1792859 2695:0.34926075 2704:0.067222923 2707:1.8810422 2708:0.62461138 2714:4.3417139 2718:3.7135656 2720:0.29681444 2723:0.95127606 2726:4.481432 2732:0.8565262 2735:0.32587466 2736:2.1930165 2745:4.5971785 2761:0.4655461 2766:4.4899054 2768:1.4562848 2771:0.15156482 2775:2.6791253 2777:2.0626395 2786:0.94123334 2793:0.93099862 2795:2.7233486 2811:1.2411358 2814:6.7906251 2820:2.985723 2821:2.5446947 2826:0.42593384 2834:3.0008931 2837:0.21975219 2849:1.2161114 2851:0.58441824 2853:1.750379 2870:1.4909827 2873:0.69542742 2881:0.24179173 2882:0.0410887 2888:1.1280495 2892:0.28264797 2896:5.9316812 2909:2.1591833 2919:2.0019088 2920:1.7612867 2929:1.1074665 2937:2.0877926 2951:2.460073 2957:3.0222867 2964:0.39917153 2966:0.92335367 2971:3.3566432 2977:0.0879848 2978:1.2156647 2981:2.5084987 3009:0.50910616 3035:3.8304586 3050:1.0635118 3051:0.38486069 3057:1.9172244 3071:2.2430563 3079:7.0515742 3083:1.1833172 3090:1.4319085 3094:0.39225274 3105:1.0503411 3124:3.4493134 3129:3.330358 3144:0.69574565 3151:1.4510567 3154:3.5054097 3160:0.62951678 3163:0.77427411 3179:2.6465969 3183:1.4176559 3184:1.8228445 3190:0.016191036 3199:1.6571198 3206:0.27054048 3216:3.0481689 3234:0.10722339 3242:3.0088654 3246:0.052320629 3248:3.6562867 3249:5.7587609 3251:1.7512012 3256:4.3410673 3257:0.69467801 3258:0.36491632 3262:0.81750381 3276:1.0166574 3278:5.1509185 3285:5.9786234 3290:2.4398956 3291:0.85332561 3293:0.1827043 3298:4.6001139 3299:0.59211326 3302:2.6639404 3310:3.0784428 3315:0.95275712 3321:1.6407887 3324:1.1404282 3325:1.3610215 3334:2.7592714 3348:0.5103339 3349:9.9040937 3354:4.4309506 3355:0.39595276 3356:0.11917144 3363:1.0826602 3365:0.49192259 3366:0.2529507 3377:6.5995483 3383:3.6481748 3401:0.081637979 3407:1.0666984 3410:2.0218556 3411:0.32247019 3413:1.6636969 3418:0.8022052 3436:0.85413378 3437:0.44055289 3456:2.1121151 3458:3.1239038 3467:2.8786793 3468:0.04040271 3479:1.1294341 3484:1.6721525 3490:1.9898193 3491:1.607094 3493:0.14161313 3494:3.2189384 3496:3.9275882 3500:2.1734664 3503:0.51371539 3505:1.2029369 3508:3.3194108 3509:3.5366058 3513:1.9523815 3521:0.16054574 3539:2.1453497 3540:2.6744659 3547:0.27632165 3554:0.093453228 3560:0.32407656 3564:1.0748417 3565:4.1349988 3568:1.9266422 3572:0.36104578 3578:1.904237 3582:1.3111947 3586:1.370429 3588:3.611619 3591:1.9943447 3599:0.49473113 3604:7.4855375 3608:3.9987893 3615:1.1938522 3621:0.13105023 3627:3.1977332 3632:0.035644844 3636:3.0598173 3642:2.550514 3643:4.1026707 3644:4.4641523 3650:0.43895054 3653:4.9912958 3667:4.6824784 3679:3.1126895 3691:1.3155689 3692:1.7370181 3693:0.18058231 3699:3.2044437 3719:2.3368194 3734:0.33514592 3741:0.51361418 3751:2.0708485 3752:0.45083177 3758:2.8219333 3766:0.34989232 3767:0.66997075 3769:0.18614787 3776:3.0956883 3777:0.67422163 3792:0.54701602 3793:4.9007549 3806:2.0825675 3808:2.3168595 3810:0.17739648 3824:1.3244206 3826:1.1117204 3835:2.6815453 3836:1.9722917 3838:0.070626676 3846:0.40884364 3848:1.7245834 3849:0.92307085 3852:1.1145415 3860:2.2715423 3872:6.4897981 3878:0.052459925 3891:8.5180702 3895:0.0020377338 3915:5.0454941 3923:0.17119473 3929:0.47473595 3938:2.5845516 3952:1.7284701 3953:0.07155107 3955:0.19160125 3957:5.46207 3963:2.1788201 3972:0.5535484 3974:1.0441351 3984:3.1214583 3988:0.71369374 4000:0.87938106 4003:0.37046769 4005:2.0086818 4014:0.18902153 4021:4.5890584 4022:0.81711614 4032:0.13990429 4036:4.3531361 4041:2.2290812 4042:1.0271235 4043:0.093175232 4052:2.8171158 4067:4.0862408 4071:2.1118298 4084:0.69845819 4088:1.2333064 4091:1.008126 
