svm_type c_svc
kernel_type rbf
gamma 0.000244141
nr_class 2
total_sv 157
rho 0.258485
label 1 0
probA -3.93508
probB -0.636179
nr_sv 66 91
SV
1 15:0.12765026 27:2.2303157 30:1.7511307 39:2.3480597 40:4.0758638 45:4.1342759 47:4.2718525 69:3.3330667 77:0.15056974 84:4.3545818 90:1.6138983 102:0.77495646 109:0.22140151 112:6.7239881 115:3.0129361 117:1.3493766 122:1.3370352 123:2.4834545 125:3.6926978 126:1.5811994 130:0.3767488 141:0.40046626 145:0.87008697 150:1.7839091 152:0.12871608 164:3.1462038 167:0.38770372 169:0.36333466 174:2.1741612 179:0.40796125 188:6.7375245 190:0.29221022 191:4.503408 196:1.0902771 200:6.472302 210:3.9724293 217:1.339619 218:0.87917924 220:3.7934306 221:4.7729998 233:2.1161759 239:1.964438 242:0.060278714 247:0.46879125 265:3.8446705 267:4.0546231 274:0.20874137 290:0.89794165 292:3.8182371 295:0.36651382 298:0.48843539 299:2.8098962 300:1.5842658 311:3.2218637 312:1.6284297 315:5.4122753 318:0.1970787 324:2.6674798 340:3.2083185 350:0.25018436 353:6.2278843 375:3.627568 379:3.4065039 384:2.9552813 385:3.3628736 386:0.10829336 391:1.7606332 392:1.869338 401:0.086059555 409:0.66893452 414:0.27778247 427:0.82579982 430:0.094283402 431:3.3646739 435:1.1747762 439:0.44159308 442:0.07004343 460:2.3895643 462:0.10712582 463:7.4704304 469:0.48742819 472:3.8462715 482:5.3601623 511:0.038956791 515:6.4244552 517:3.3082008 529:4.358942 545:2.6584363 549:3.4854279 562:2.0571158 568:1.2596451 574:0.23126647 575:4.3329053 577:5.2693973 587:0.23638171 592:0.80380559 593:0.36920139 606:0.79265326 608:2.7476604 609:0.10555694 611:2.7489359 612:3.1998613 615:0.56213564 619:1.864832 639:2.2211678 642:0.53117108 654:3.3814173 656:2.2049301 657:3.0633628 660:1.1125576 664:2.9043174 667:0.48127067 672:3.7118881 679:0.11991915 680:3.9785404 682:1.5756526 687:4.2796111 691:1.7583234 698:1.8237691 702:5.5217519 705:0.99876022 711:1.4130793 721:1.5547245 722:3.2692988 730:1.2784725 735:4.0169473 737:1.3776566 741:1.0195951 742:1.9509218 752:1.6814865 766:2.307719 773:1.9026362 774:1.1583598 776:1.0983753 777:2.6228302 786:0.44501245 791:0.49062955 792:3.3037548 796:1.2763728 798:8.4336405 799:1.3881638 804:1.5675898 808:0.053821683 812:3.7925239 839:2.4324636 842:0.6773243 849:1.3999687 855:0.82227498 863:0.38808095 867:0.62030405 868:0.46522909 872:0.6227811 874:3.3215036 876:0.015892416 888:0.67259145 889:4.2630062 894:0.72961414 895:1.9575772 897:0.067791373 910:2.1107368 912:4.0400038 928:0.93805784 930:3.7424126 933:2.7721314 936:0.53060389 942:3.0134802 945:0.94615817 947:0.44379205 952:1.4299244 959:0.43190703 965:3.8132691 966:2.2751722 989:4.1991253 994:1.3613921 996:0.50008154 1001:1.9200304 1002:0.33722377 1005:0.43322399 1014:5.3501348 1015:0.16721544 1018:3.1542528 1019:3.8640814 1023:0.0013222694 1024:4.3787236 1027:3.1621668 1031:0.32186264 1038:1.2810487 1058:3.7692256 1059:3.2293179 1062:2.8077779 1064:1.1886687 1070:3.2067995 1071:0.1126406 1074:0.50274253 1075:0.095414668 1077:4.2726479 1080:1.0049073 1092:1.9804927 1096:0.23676504 1108:0.27235919 1125:5.8891664 1127:1.5876021 1130:0.11327193 1134:0.088603079 1139:1.7845576 1140:0.54432976 1161:0.46108153 1163:1.2990929 1165:2.0055146 1168:6.1918473 1173:0.56179875 1174:0.14669967 1178:0.17592859 1180:2.6329575 1181:0.12372865 1182:0.0098173618 1184:2.5713565 1187:0.30144709 1189:0.64460814 1192:6.9536514 1195:1.962887 1206:0.61336815 1215:2.1107209 1227:1.2177979 1228:2.2426605 1229:0.54054815 1234:2.3164229 1246:0.1225017 1250:2.8094566 1252:0.75678504 1253:3.7552667 1264:0.57408088 1269:4.4315505 1278:2.1265314 1282:1.5092415 1283:0.2011244 1285:0.9953633 1286:4.9751024 1290:0.55814958 1291:1.2776203 1299:0.56707835 1302:0.10877669 1304:0.9528091 1305:0.25897321 1313:0.81885672 1314:1.674675 1317:1.1840311 1336:0.082434841 1340:1.1640817 1344:1.870039 1357:0.13993762 1361:0.60691744 1366:4.3840008 1369:2.1016831 1373:1.9629014 1378:3.3600366 1379:0.3485297 1391:3.5666299 1393:4.5121274 1395:2.9286578 1401:0.98097193 1406:6.4786162 1410:0.31208327 1420:0.10345221 1424:1.6124744 1426:0.7974838 1432:0.090804845 1433:2.7592161 1434:0.069616184 1441:2.2136238 1445:1.2388467 1446:0.38739121 1448:2.2370822 1456:0.18016106 1458:0.30430388 1460:0.15690458 1464:2.1268554 1465:0.064183295 1476:2.554703 1484:4.1237087 1487:0.86564481 1488:6.616436 1489:1.6557816 1492:0.92721999 1493:2.3481364 1495:0.90971035 1510:1.3816125 1511:1.9998276 1520:0.50543433 1522:0.97583306 1523:2.997349 1526:0.80104721 1528:2.5150175 1547:2.344667 1556:1.3034387 1558:1.5167856 1569:3.9955206 1577:1.1309971 1581:2.8465457 1587:2.5053356 1588:3.4120858 1602:1.1334108 1605:2.816859 1613:0.47404665 1617:0.13116151 1620:0.61950737 1624:1.6134284 1625:4.5699983 1626:0.14520228 1629:2.1834531 1647:2.9601369 1649:0.95854658 1658:2.2082584 1659:2.6004233 1663:1.2034042 1664:0.031712621 1674:6.0229864 1675:0.26617855 1676:0.67810714 1678:0.91535449 1691:2.5450473 1694:1.0294874 1698:2.3099279 1700:2.8018973 1705:3.4499681 1707:4.661087 1710:0.25324121 1711:1.7155039 1718:1.5979245 1720:1.5062537 1722:1.5523456 1726:0.060102135 1730:2.1589303 1731:0.88289976 1732:2.6818011 1733:2.0310519 1737:3.76566 1746:1.6417962 1756:2.6993866 1758:1.7309029 1762:2.856281 1767:4.1627655 1774:3.1189504 1778:1.0512844 1780:0.077151775 1788:0.14569348 1795:1.2686243 1796:0.66701597 1799:0.21659473 1803:4.2586889 1812:2.1889341 1815:0.81155729 1817:0.63716727 1818:4.6835155 1819:2.716831 1820:4.7194695 1824:1.0622737 1825:1.7029649 1832:3.1258471 1842:7.9526792 1844:0.83569795 1845:1.373342 1848:1.9291109 1849:1.179955 1850:0.76067686 1851:0.55742323 1868:0.32290453 1871:0.49144664 1872:2.4581721 1882:0.33809191 1897:5.0445852 1898:3.679687 1904:2.4967866 1907:0.29780871 1908:0.42820394 1923:3.5307691 1928:3.6934063 1935:1.7137779 1953:2.5208552 1964:0.0091989785 1966:0.49005204 1968:0.70509166 1972:1.924075 1977:0.43437955 1987:0.26842207 1989:1.335001 1993:1.4430629 1998:0.22284432 1999:1.7006245 2005:0.262914 2006:0.61994588 2011:2.4518909 2028:2.3129232 2035:4.9946828 2041:0.42023572 2042:2.0154471 2048:3.273978 2049:0.96948546 2066:5.0943956 2070:5.3623085 2082:1.4069645 2085:3.8934417 2096:0.010214344 2097:0.95617354 2100:3.8570073 2106:1.2545844 2107:0.1620141 2112:2.2581925 2116:0.48866269 2128:1.677624 2135:2.0210612 2140:0.85792196 2148:1.1121168 2151:4.1516838 2152:2.0646229 2153:4.1690273 2157:0.87257624 2185:0.67428124 2186:2.593801 2187:1.8974659 2188:2.1610007 2193:0.014551044 2218:1.6152368 2223:4.1546636 2224:2.7141726 2226:2.314297 2237:0.20556015 2239:1.7724509 2240:3.9224768 2244:1.5866137 2245:3.0759583 2250:1.4212083 2251:0.0053341915 2254:1.9062941 2257:0.20372936 2267:4.1440301 2270:1.4349902 2271:0.68713319 2274:2.9823856 2275:1.6563392 2280:0.59091759 2286:2.3415437 2298:1.212809 2302:0.13500564 2306:2.5249705 2307:2.7402134 2318:4.9930134 2320:1.2066349 2322:1.644828 2331:2.2044168 2332:2.3541455 2333:3.8038464 2336:2.2283704 2337:2.8213015 2338:1.585758 2340:1.2399935 2344:2.0390797 2357:2.0495675 2364:1.173368 2370:0.22577441 2372:0.38747191 2375:0.04584989 2378:2.0673537 2383:0.87944436 2399:1.1083442 2405:2.2590058 2407:1.1940082 2417:0.49906495 2418:0.41068134 2424:1.5881302 2431:1.7498682 2435:5.780231 2438:0.1465109 2441:0.22410467 2444:0.0041872263 2457:1.5687205 2463:0.71289575 2470:6.06879 2473:2.531682 2479:1.3519229 2482:0.093393698 2484:0.59527874 2485:1.5632405 2486:0.559618 2491:0.19959724 2519:0.55677998 2520:0.37589028 2523:1.2405211 2531:1.5193861 2535:0.73150474 2536:3.0114374 2547:1.2624177 2553:2.934521 2561:3.980521 2563:3.0519381 2568:1.1498873 2571:2.0976408 2574:0.61566257 2577:2.129472 2583:0.30917326 2584:0.29322553 2589:0.056223243 2591:3.7689705 2594:2.3832107 2595:2.8897157 2599:1.039184 2612:4.3877144 2614:1.088902 2619:0.77090013 2621:2.571486 2623:0.65754616 2634:1.6132977 2637:3.1058049 2641:2.4569736 2642:1.8244952 2659:2.4916074 2660:3.0872974 2663:1.9163934 2667:0.17605555 2672:2.3632455 2691:0.037948355 2714:8.2629738 2718:2.9482112 2723:0.44118524 2726:1.3051344 2735:4.0295548 2740:0.16688763 2745:4.7886305 2761:3.8994737 2765:4.8997483 2766:3.7118499 2768:0.2921682 2771:0.75338411 2775:0.29912591 2777:4.1957493 2778:2.6431489 2789:1.9530616 2793:6.570682 2798:4.6651769 2799:1.7250712 2805:0.13091873 2812:0.46426645 2814:0.9684059 2817:1.156189 2829:0.46238488 2834:2.8633995 2844:0.5168063 2849:2.3891976 2851:0.57682484 2865:0.33098134 2882:3.1907463 2888:1.9546214 2892:1.2598344 2894:3.0524647 2896:3.1466162 2903:0.86269414 2909:1.7089829 2916:1.9478512 2919:5.0126905 2924:6.6180625 2934:0.36427808 2937:5.3089695 2949:4.4336743 2957:3.9347708 2966:3.1663618 2971:0.92186743 2976:2.5315113 2981:4.2782044 2993:3.0097733 2997:0.32542962 3003:0.27637023 3010:4.5996356 3019:0.64205885 3021:3.6247811 3028:0.71372348 3033:0.21246769 3047:2.1814682 3051:0.31730387 3056:5.2317801 3062:0.1848737 3068:0.45837799 3079:0.16272753 3094:6.0509472 3100:1.0617776 3105:4.1840281 3111:0.57198024 3116:1.1122557 3129:0.66139966 3144:5.8853426 3151:3.7651167 3153:3.5532436 3161:0.43083185 3162:3.6899264 3165:0.55653578 3182:0.37701958 3183:2.4003174 3241:0.13066423 3246:0.6449343 3249:1.1514196 3257:2.3348482 3258:2.8877268 3262:0.21372584 3267:5.4473901 3268:1.7226355 3275:1.5047179 3276:0.44028693 3277:0.72517031 3278:2.7810502 3282:0.17728573 3284:3.7125645 3285:1.6430911 3286:1.8637654 3291:7.3160686 3293:6.9170904 3299:1.3452721 3302:2.3840766 3310:2.3230693 3321:2.4286597 3329:1.9250127 3334:3.7395451 3335:0.117383 3342:0.81719595 3345:0.38523453 3349:10.552416 3356:0.92059267 3363:1.1441092 3377:2.1419585 3382:1.5855427 3390:1.8423518 3394:2.3601401 3399:0.84647959 3401:2.5187364 3413:1.4707266 3422:3.522403 3436:5.3856702 3443:1.9420278 3445:0.061413199 3449:0.29767829 3450:3.1804552 3452:1.4019418 3456:2.1255512 3467:4.0011458 3468:2.7609653 3479:0.11570788 3485:1.7202468 3489:2.289763 3490:2.1007712 3491:6.2786264 3493:4.8331256 3494:2.6642976 3500:2.7317076 3501:0.47790378 3502:3.2500818 3507:0.86122882 3508:0.82664794 3509:3.5191126 3529:2.6039612 3534:0.36691594 3537:2.5262032 3539:8.1712847 3548:0.036331832 3560:6.6239958 3564:5.3315105 3565:4.6397524 3572:1.7935506 3577:0.00036430359 3582:0.34200376 3586:1.2147813 3588:0.4675678 3591:3.3799703 3592:1.7745905 3601:1.3433635 3604:5.1763244 3606:0.74782765 3608:5.1080475 3609:2.5244925 3617:2.2457097 3621:0.0095412731 3626:3.4706697 3627:0.54149926 3629:1.9708058 3631:2.7120364 3633:1.7357938 3636:1.0578622 3642:2.8895445 3643:0.18116985 3644:1.3743507 3649:1.7136177 3652:1.856118 3667:4.3655043 3669:0.8955909 3670:0.33215266 3679:3.7113543 3682:2.0607247 3683:2.3975005 3698:0.3318913 3703:6.3390961 3704:0.13816607 3719:0.44673431 3720:3.6981881 3721:0.33963078 3731:1.922599 3732:1.4450622 3748:1.7602514 3753:4.5151515 3758:0.12496817 3763:0.95628673 3766:0.50182772 3774:2.5238023 3779:1.5055149 3793:5.6735635 3796:0.27130443 3806:3.9263239 3824:1.7128562 3835:0.52417111 3848:1.2877458 3860:0.9825142 3863:0.81687176 3864:0.82127982 3872:1.1817778 3876:0.39768544 3878:0.1992476 3880:1.3015485 3891:5.4969854 3893:0.34182605 3914:0.13682979 3915:3.538306 3923:7.8110008 3930:2.2878785 3957:5.7923107 3961:0.16313389 3974:1.0965979 3977:1.6156744 3978:1.5547061 4000:4.7629204 4010:5.8707333 4018:3.3977094 4021:0.32091445 4029:0.10954416 4030:0.1014263 4032:4.2908902 4041:1.6296055 4042:1.9776403 4046:0.9449513 4050:3.0981014 4058:0.55290645 4059:1.6532792 4068:2.2387614 4074:5.7349606 4075:1.8552203 4076:0.10508791 4084:4.0549917 4088:1.33767 4095:0.52103341 4096:1.0779029 
1 5:1.0239073 20:1.1653879 21:0.32861793 27:2.8658452 30:2.9689944 40:0.23937336 45:0.27339223 47:5.0942469 60:2.6347134 69:4.1238127 75:0.66085023 80:0.52137828 83:1.2684627 90:3.7182815 102:1.906134 105:3.9707789 114:1.2357275 115:4.1291761 122:0.58929932 123:3.3098018 125:0.87299299 126:0.044576511 129:1.5341852 141:0.065818623 145:1.8353761 150:4.7095842 156:0.40439135 159:0.61364859 161:2.1376967 167:0.013300955 169:2.9686174 180:2.6525526 191:0.098713413 196:1.570627 205:0.33331034 209:1.6127801 211:5.3389406 218:1.5818822 220:0.50217289 221:1.0988191 232:0.37121755 234:0.58564639 235:0.45278078 239:2.0146816 242:0.26387149 255:0.23732844 261:2.2921927 268:0.93007934 276:0.47971624 281:1.7252963 288:3.7998281 292:1.1157722 295:0.78081083 299:2.3037276 301:3.4952798 303:1.4382792 304:0.47264057 307:5.2361784 311:5.090416 315:3.2297962 317:0.055068418 318:1.1282588 328:1.1745185 335:1.0078237 347:1.3673468 350:2.1964989 353:0.81356847 363:0.1366123 373:2.8309445 374:0.41228008 375:2.2047212 379:2.8561831 391:0.82379627 393:2.0251811 397:2.509692 400:0.40809911 401:0.33105493 413:2.6644888 417:0.7611835 432:0.55255544 450:2.0796058 455:0.033091307 460:1.4010733 463:4.4686251 472:1.0619097 473:0.53651941 476:0.23325479 481:0.5278933 482:4.500176 483:0.83204049 502:0.6522792 504:0.060857832 515:0.37339818 517:2.9767852 526:0.28942183 529:1.07199 545:1.0513622 557:0.8528012 562:0.085595846 574:0.89307928 575:2.3342767 577:1.1766968 580:0.017336994 593:2.6263318 600:1.5481067 605:0.36034426 606:0.42730355 611:1.0961628 612:3.8481472 614:2.9551775 615:0.78049147 619:1.8825952 630:0.4106091 639:2.3681769 641:0.10884506 642:4.5169525 646:1.1553956 656:0.10978608 657:0.32956398 659:3.4229527 660:1.3390555 664:5.7625995 666:0.072969615 667:2.662941 681:1.1216846 682:2.1628823 686:0.16283995 687:2.6680064 690:1.236644 699:0.39018187 702:4.2524724 705:2.053544 706:1.0367565 711:6.7110591 715:0.18432118 717:3.0458875 723:0.71739471 726:0.67034012 728:2.2408571 730:0.66009092 736:0.4092398 737:1.6420333 740:0.81122154 742:4.2839789 747:1.4012874 748:0.9493506 752:1.6685647 759:0.64041615 764:0.71650875 766:3.3947687 774:0.32477754 785:0.4860695 786:0.54708475 791:0.82631421 796:6.1263719 798:5.8697186 804:1.3465151 808:4.1710215 817:0.5890013 842:0.68115592 855:3.7319248 857:2.1028955 863:1.6550505 865:2.5174108 874:2.274924 889:0.29996562 891:1.3493614 895:4.366766 902:0.15003034 908:0.76920652 912:4.0744953 929:4.2294474 933:3.9777012 945:6.5713668 949:2.8304849 959:2.2969756 960:0.41516691 963:1.3191452 966:1.2498615 967:3.6472788 968:0.74551654 975:0.12955 982:1.7903103 991:1.7393736 1001:1.2371879 1002:0.76570356 1013:2.8148632 1014:2.6413188 1017:0.69190788 1018:2.5580842 1027:2.1429427 1032:3.224916 1041:1.6690618 1052:0.94139159 1059:4.0023746 1062:0.4547199 1077:5.968698 1100:0.84771025 1106:2.0683031 1108:2.1628797 1125:0.67470366 1139:1.0022767 1140:1.4391893 1153:0.040832341 1155:2.613924 1165:1.3248786 1168:0.98839587 1169:1.3292474 1179:1.2234045 1180:4.4327779 1181:3.6493256 1183:0.3644844 1184:4.5701914 1187:2.816072 1188:0.53387594 1192:1.3184501 1215:1.7756293 1217:2.7860479 1224:1.1971735 1225:1.6974465 1228:0.31594402 1249:1.5536323 1253:2.358526 1269:2.4640677 1281:2.6259661 1285:1.0231068 1290:0.92304033 1291:2.6054277 1302:3.0323484 1306:0.28017262 1314:4.9365063 1316:0.78708476 1319:1.0331779 1325:1.3280866 1332:1.5361855 1335:0.6402027 1341:1.7754662 1342:2.203814 1359:0.29976419 1363:3.0829268 1368:1.4823908 1372:0.13499491 1373:6.0312023 1378:3.5618241 1391:2.9998186 1399:0.81715167 1401:0.26082671 1406:1.2305005 1426:2.857832 1429:1.1700538 1434:0.68145448 1435:2.5900126 1441:3.1873114 1445:1.9001415 1456:5.565167 1458:6.0486159 1463:0.066386908 1474:2.0737 1478:1.9309925 1484:0.4416467 1486:2.4746504 1487:0.3496252 1504:0.267526 1505:1.3718866 1511:4.0243139 1513:2.6717446 1515:0.55265576 1521:0.025328428 1522:3.4244742 1536:3.6588185 1543:1.9312919 1556:3.3123808 1577:3.7223625 1586:0.81086379 1587:1.5117348 1588:2.0207043 1600:8.1687946 1602:1.5093873 1615:0.442399 1617:0.60940844 1620:0.87567717 1625:5.5993481 1626:0.5911333 1630:3.7838404 1645:0.086652189 1649:1.6469193 1659:1.4560086 1665:2.5100415 1675:4.724514 1676:2.1483076 1677:0.12745541 1678:4.1178255 1686:0.10610966 1697:2.9724355 1705:2.2290809 1707:0.40285009 1718:0.057734936 1730:3.6071866 1731:0.37886468 1737:4.9338059 1742:0.16485544 1756:1.8343058 1759:0.097806752 1772:1.4412702 1774:3.1364748 1784:1.7301877 1794:2.6194384 1795:0.86397135 1799:0.97028708 1803:0.46863902 1806:0.22166127 1815:2.9304821 1818:2.8192589 1823:0.58814359 1824:1.3203315 1825:1.8525454 1842:3.2844138 1845:1.0575347 1848:4.8825512 1851:2.0108733 1860:0.30946139 1864:0.37628999 1872:2.1642237 1890:3.1137755 1896:0.37442935 1897:0.60841322 1904:1.0913509 1923:1.5797004 1928:2.5165358 1935:5.4947886 1940:0.9246155 1972:0.40597397 1975:0.033918232 1985:2.9357131 1993:2.5224259 1997:1.1968429 2002:0.85637277 2009:1.7825198 2011:3.3297706 2014:0.011709422 2019:4.4812369 2021:2.0124843 2024:1.6429381 2030:5.3540492 2031:1.8679138 2032:1.2246894 2042:2.6139638 2043:1.815806 2045:2.4548526 2048:2.0739264 2049:0.73423976 2050:0.5125879 2066:1.7000995 2082:0.56269252 2083:0.84240419 2091:0.50764871 2094:1.9819387 2096:1.4284302 2100:3.2812452 2107:0.89363801 2140:0.94532299 2146:2.4857152 2151:0.50277835 2160:2.5591731 2187:1.6016128 2188:2.2905025 2193:0.13502145 2199:0.55694741 2204:1.2915242 2210:1.6020768 2223:0.99533254 2224:0.26732484 2226:0.97269762 2229:0.32993713 2239:0.26496348 2240:6.4992628 2248:0.46749946 2250:0.60701883 2251:0.04654067 2254:4.059063 2257:0.032048792 2264:0.23925704 2267:4.3712921 2274:5.8247652 2275:0.87591881 2286:1.4627051 2302:3.4804728 2306:1.4949377 2307:0.073193491 2311:1.9071176 2312:2.1955383 2317:1.2530086 2322:1.783275 2323:1.5659984 2332:1.3113803 2337:1.6811149 2338:1.4991533 2344:2.97721 2354:0.86427081 2358:0.063159332 2369:0.5946424 2375:0.60190827 2376:0.16813186 2377:2.3200445 2378:0.19269365 2393:0.47696137 2402:3.4153621 2407:0.70361978 2417:1.8831749 2418:1.7418053 2424:0.38373676 2428:1.3749046 2432:0.75537574 2435:1.2122142 2438:2.9337561 2444:0.61619675 2446:0.84205568 2470:1.1920409 2471:3.1408095 2473:2.2469885 2479:0.51689672 2482:0.067433953 2486:0.6284281 2487:0.59475511 2491:1.2166166 2503:1.1683148 2526:0.665663 2532:1.629638 2533:2.365747 2535:0.2449311 2553:1.7580668 2554:0.70773804 2563:0.67836034 2568:0.62649655 2575:1.0816329 2577:3.5759952 2583:2.0204413 2589:1.4247992 2591:7.4931617 2594:1.2985783 2601:5.4049087 2621:1.9524236 2634:1.7778877 2637:2.081296 2639:1.4403281 2641:0.65769637 2648:2.2815256 2649:0.78891581 2656:0.050375491 2660:1.2163174 2663:0.25016248 2666:0.9379375 2667:0.81865704 2672:0.85484934 2676:0.45159215 2687:1.5259113 2707:1.1936798 2708:2.5071199 2714:4.3698368 2716:0.16075587 2718:1.5064671 2719:0.36917615 2720:0.53816104 2725:0.032384396 2726:1.087625 2731:1.4356555 2740:0.11513852 2745:0.87873191 2751:0.72157431 2758:1.8455597 2759:0.5590204 2761:5.1863241 2765:0.61707646 2766:3.976187 2768:1.9439574 2773:0.11749008 2774:0.18336132 2775:1.5181625 2776:1.0079497 2777:1.8051455 2789:2.272577 2792:0.32815492 2793:2.9326563 2795:1.1698861 2803:0.10690078 2811:0.065203428 2812:1.0752938 2816:0.91579109 2817:2.007237 2825:0.0084679425 2829:2.5736542 2833:0.67558157 2834:4.1151662 2844:2.9865358 2849:2.0154448 2857:0.50613064 2865:0.31390846 2876:0.41006362 2887:0.59013063 2888:3.1677296 2889:0.78362173 2894:1.1314241 2896:3.5770926 2913:1.560186 2917:0.49067932 2922:0.69124913 2924:0.76451898 2934:0.086711466 2937:2.2322111 2949:2.9275062 2950:0.27182853 2951:0.84811121 2957:0.16875252 2962:1.5285268 2964:4.3411832 2966:0.029241264 2970:0.01150509 2976:1.5527344 2981:4.4284205 2990:1.4516494 2996:0.098007947 3010:3.6428833 3019:0.060048103 3021:1.9196143 3028:0.78283221 3033:1.6086497 3034:2.3255653 3039:0.49793726 3041:0.30319852 3051:1.0088278 3052:2.0045619 3056:0.80224425 3057:3.939872 3067:4.6912084 3079:0.54220617 3081:0.56558877 3085:0.014946491 3086:0.0087698698 3094:1.7864633 3105:1.64825 3108:0.63996208 3116:0.33680695 3118:2.6868825 3121:1.4568599 3124:0.35763478 3144:1.0971748 3151:0.14262035 3152:2.2944841 3159:2.5642231 3162:2.6206424 3165:3.6144605 3187:0.72621608 3216:0.58043122 3228:0.011409104 3233:0.87830371 3234:0.48593783 3242:0.49454039 3246:1.1531489 3249:0.66941398 3257:1.4410882 3259:2.4701519 3260:1.7837299 3267:2.2185812 3270:0.85674417 3274:0.22271064 3276:1.8843199 3278:3.9071774 3281:0.32521367 3282:1.6602806 3285:4.8755054 3286:0.089145273 3291:2.7724242 3293:3.7899771 3298:5.9635916 3299:2.8777821 3302:2.5306814 3310:4.1560154 3324:2.6487603 3329:4.7540174 3332:0.77869499 3334:1.9036986 3338:1.9731853 3341:0.0041273832 3349:6.6613679 3363:3.8880613 3367:0.001688078 3373:1.7082908 3377:3.7271864 3382:1.5501869 3395:0.18881223 3401:2.6869678 3402:1.5022016 3409:1.2540784 3422:4.7510514 3427:0.16170181 3436:1.1469703 3443:1.6846724 3448:6.2950816 3450:0.36588418 3455:2.3762047 3456:2.8514109 3467:0.62627172 3468:1.1382527 3484:2.5895457 3488:0.90715742 3493:3.0199907 3513:1.7255076 3523:0.32242554 3529:0.33172756 3539:1.6889815 3545:0.1930674 3554:0.51881331 3558:0.57245272 3564:2.3504958 3565:3.3327985 3569:2.5356634 3577:1.0864313 3582:0.6178503 3588:2.8442879 3591:1.3430301 3592:1.7944717 3604:6.478888 3608:5.2127404 3621:2.0367641 3624:0.92677212 3636:2.574008 3639:1.5036129 3642:1.1059132 3643:4.909523 3652:0.083989382 3667:6.957027 3670:1.6189086 3677:3.5263085 3684:0.086555153 3693:0.81263673 3694:0.13667285 3704:0.85208166 3711:1.9179406 3712:1.6198974 3718:0.21543661 3719:0.34362864 3720:0.062575132 3727:1.0967501 3746:0.12067004 3753:1.1793543 3758:3.2922063 3766:0.054058552 3769:0.59950572 3774:1.1972911 3777:0.031020105 3779:0.98422509 3781:0.68261123 3792:1.1519738 3793:4.2160907 3796:1.0726593 3803:2.4024456 3806:2.202569 3810:1.8442931 3824:2.2514493 3830:0.041546822 3832:0.53643012 3835:1.1093562 3844:1.1599183 3848:0.99495095 3849:3.1065392 3857:1.017922 3860:0.81672126 3863:3.0181973 3864:0.21607907 3872:4.4655199 3878:3.578732 3880:0.052053452 3884:1.158136 3886:2.5227537 3891:3.3941324 3893:0.3764261 3906:3.6306465 3909:1.0670532 3915:3.9642622 3917:0.022185292 3923:1.4235209 3929:0.34365246 3936:0.86801118 3942:1.1697505 3948:4.2775455 3953:0.66016352 3955:4.3225927 3957:4.868609 3961:0.51005065 3974:0.16836292 3979:0.89675045 3984:0.13978732 3988:0.679277 4000:4.027946 4008:0.31891388 4010:4.4204564 4014:4.7092919 4017:1.3109978 4018:2.1588805 4021:1.0759904 4025:4.0633364 4030:0.054660708 4032:1.4854115 4033:0.15178663 4036:1.434552 4040:1.6829065 4041:0.13743091 4042:0.83512419 4046:1.1382904 4052:1.5015113 4055:5.8107162 4059:0.48457354 4065:1.6172457 4067:4.6450486 4074:1.9149121 4084:0.86566818 4089:5.7258911 
1 10:0.88350785 20:1.1795613 27:0.90784001 30:2.3994346 39:1.501761 40:2.9483144 45:2.0021267 47:2.6512222 60:0.82909393 67:0.0096795559 69:0.26275507 77:2.0060897 80:0.58203238 86:1.8745464 91:0.46652487 109:1.0436132 112:4.3892355 120:2.1790743 122:0.7375142 123:1.4802248 125:1.3176763 145:0.14389348 146:0.40602052 150:2.0522072 152:2.7284627 156:0.54688442 161:1.3612592 164:0.6367445 169:0.4634203 173:0.44820601 174:1.4980934 180:1.4540379 184:1.8045027 188:5.4836817 190:4.1485653 199:1.6412814 200:1.6612905 209:0.60472554 210:5.4591084 211:1.3055629 217:1.8770633 218:0.51275718 220:2.6340427 221:3.7888379 232:0.69054466 233:1.212194 242:0.89104575 243:0.43585658 246:1.2352825 252:1.1357059 256:0.15890849 262:0.27257544 267:5.7975602 272:0.24737521 276:0.25784153 290:0.59515655 299:2.1470363 300:1.0638288 307:0.16781449 311:4.8793764 312:0.71276313 313:0.88784128 315:1.6720041 317:0.95844388 318:0.8631717 340:2.2379551 350:4.8739123 353:2.649368 356:0.40799993 371:1.1755744 375:0.50175101 379:2.4857802 384:1.5174558 385:1.4932243 388:0.65901476 391:1.6161251 420:0.5342443 431:1.6593442 432:0.35932064 434:0.089668736 435:1.469918 460:5.4420714 462:0.0042049885 463:4.4623833 464:0.10311851 466:0.42746645 470:1.6244038 472:1.7847756 482:6.7102423 494:0.58860135 503:0.035538852 507:2.5689495 515:3.8077133 517:1.6775447 518:2.8576777 529:1.4273663 531:0.89754695 545:2.8151379 547:1.6776338 554:0.71219695 562:1.5377661 570:1.651742 574:0.5151608 575:2.4472218 577:2.0726955 578:0.44283536 592:3.0045197 593:0.45783544 598:1.0098726 603:0.63136613 606:1.2119217 608:0.3718912 609:2.5812957 610:0.70434433 612:3.3140421 615:0.4635151 619:1.9054227 639:0.13061666 642:2.0016057 653:0.61143994 654:1.9310318 656:2.274168 657:3.6690645 662:0.89522994 664:4.7194018 667:2.0199294 670:0.46273005 672:1.310974 676:1.0952897 677:0.18544012 680:1.2672386 682:2.1838238 687:3.4216075 690:0.4929764 698:0.44897649 702:4.4328923 703:0.63541633 705:2.1920924 711:2.7109571 717:0.10307464 718:0.23605305 721:2.14575 722:0.43345538 723:4.9111843 725:0.099549562 726:0.71959603 730:3.4445143 735:3.2589726 736:0.89381206 737:0.9336974 740:1.4331564 742:1.8204643 748:0.066048115 749:2.1083031 752:1.1670876 755:0.19893904 764:0.97776783 766:0.34973699 773:0.20233801 777:3.3848276 786:0.55109274 789:1.3990159 792:1.5674455 796:1.2460575 798:6.6949396 804:0.039705768 808:1.8739073 816:0.12355012 820:0.6933254 823:0.1819137 838:0.40498266 839:1.7798674 841:1.0414913 842:1.9318942 855:0.78573745 860:0.039557219 863:0.96976811 865:0.53901064 868:1.4115397 872:1.8433084 874:4.1983557 876:1.7087214 877:0.03701622 885:0.10432351 889:3.0717583 895:3.5647879 899:1.0312605 902:0.79613608 904:2.5861969 910:2.4007831 912:2.2706399 918:0.88844311 928:2.660768 930:0.76583135 942:0.56111848 945:4.1428914 948:2.1274598 965:6.9529901 966:0.47008073 967:0.53143603 968:1.0813917 989:5.5633721 994:1.5843543 1001:2.818023 1002:3.4781713 1013:2.3297949 1014:1.8661731 1015:0.30563432 1018:3.8453515 1019:4.3368306 1027:0.67524904 1038:0.97213876 1058:0.010975674 1059:2.5311739 1061:0.0024516657 1070:2.621325 1071:1.300565 1077:3.1191647 1080:1.0624497 1087:0.19288206 1095:0.17596942 1096:4.0595241 1100:0.1051161 1109:0.707178 1125:4.7148314 1137:0.26732349 1139:2.6414266 1140:2.4977782 1153:1.4456851 1163:1.3152157 1165:1.838517 1168:2.2199996 1174:3.5532799 1176:0.17196186 1180:0.43154085 1181:0.36912125 1184:0.92156947 1187:0.76133847 1188:0.56395984 1189:0.13756706 1192:6.7944775 1193:0.29211023 1195:0.52705187 1206:2.6614141 1221:0.15558882 1227:0.16478083 1228:1.5146683 1234:3.0265927 1242:1.3412697 1249:2.5636184 1250:4.8705263 1253:5.1813169 1265:0.2715086 1269:2.7335107 1278:1.5330176 1283:1.227615 1285:1.1007183 1286:2.0204492 1290:2.2714939 1291:3.6092451 1299:1.1267613 1302:0.27291012 1306:0.10361224 1318:1.5817449 1335:0.68257886 1336:0.095189221 1340:1.9261537 1341:4.5006056 1342:1.1571302 1344:0.4785226 1359:2.0285881 1363:0.96922475 1366:0.5119642 1369:3.2904391 1373:4.2043552 1374:0.026990145 1376:0.8861686 1377:0.2751298 1378:3.1894934 1383:0.29670507 1391:3.0360861 1393:2.6891527 1395:0.27293965 1406:6.9854736 1409:1.0743763 1420:1.4904881 1425:1.0544211 1426:0.33378321 1432:0.53616768 1433:1.9074397 1434:2.5335011 1435:0.36725211 1441:1.7490175 1442:0.45421746 1445:2.7128429 1456:0.4005726 1458:1.1164222 1464:0.67751598 1471:1.3356524 1476:0.21225369 1484:2.4293435 1487:3.7336025 1488:2.8997066 1493:3.2522764 1504:0.45599201 1511:3.5415854 1518:0.53874999 1522:0.068173304 1523:0.90937674 1526:0.033132404 1528:0.082579374 1536:1.3291879 1547:2.2230127 1548:0.41885293 1556:0.93609202 1568:0.65305334 1569:2.5198452 1577:1.0048352 1581:0.52304971 1586:0.11086838 1587:4.6197734 1588:2.1089931 1600:0.49393174 1605:1.3399786 1617:0.93391722 1620:0.25457007 1622:0.10751918 1625:1.2567407 1626:0.023588732 1629:3.8643708 1644:0.40444347 1647:1.5947663 1654:0.35690221 1658:1.8418096 1659:1.5681573 1663:2.9867527 1665:1.0833067 1668:1.4804626 1672:0.061786033 1674:2.4936116 1675:4.2683167 1677:4.768971 1694:1.349575 1705:6.7270875 1707:0.014200285 1710:2.134989 1711:0.61999905 1720:1.4855722 1730:1.684093 1731:0.099313885 1737:0.57270312 1758:1.6367278 1762:1.8416107 1767:0.34842211 1772:0.57735223 1774:3.5899229 1779:0.65972996 1780:0.73931921 1784:0.89171135 1785:1.3873422 1794:2.8533783 1795:0.87011373 1796:0.32195979 1799:3.8493693 1806:1.8275188 1812:2.7409933 1818:0.44329593 1819:0.14448467 1820:0.66120064 1832:0.0077575147 1842:4.510941 1845:1.0224931 1848:1.4394088 1850:0.86882436 1851:0.35922721 1855:0.36640745 1872:4.0470872 1878:0.17830116 1880:0.19442001 1881:2.4254866 1893:1.0614262 1897:0.95365375 1898:3.8226852 1904:0.88886166 1908:3.285682 1911:0.7258085 1918:2.1549404 1923:2.4833844 1926:0.57831764 1928:1.8524128 1933:0.72817433 1935:1.1287756 1953:1.0507464 1972:2.4315002 1977:0.20220372 1989:0.076497972 1993:2.6781192 2011:2.7089939 2020:2.7624733 2028:0.72665757 2030:0.30828714 2035:2.4340665 2042:1.6525663 2047:0.81114304 2048:0.98300236 2049:1.4392204 2050:0.9668138 2066:0.60360026 2068:0.20327611 2070:3.6097684 2074:0.36529505 2085:2.6178126 2094:0.93845546 2097:0.59504485 2100:3.8132582 2107:2.633357 2117:0.88938189 2140:1.8928566 2151:2.1165698 2152:0.43224841 2153:1.1469935 2160:0.78752398 2162:0.23761129 2166:2.6819108 2179:0.74522722 2180:0.4088797 2186:3.989326 2187:2.4669526 2188:4.0932441 2212:1.4329579 2218:2.3767219 2221:1.190291 2223:5.7763 2224:1.6104069 2226:1.4860911 2240:3.5604603 2243:0.5888983 2245:0.25640851 2249:0.41145796 2250:1.4682846 2251:0.34476089 2254:2.8814645 2257:1.622715 2264:0.7953701 2267:4.3190126 2270:1.4234989 2274:0.68228799 2275:1.4171791 2276:1.502043 2280:1.2584027 2286:1.7757981 2290:0.54019028 2298:2.6554987 2302:0.48959082 2306:1.1985258 2307:3.823962 2318:4.0518618 2322:1.1112612 2331:0.96775746 2332:1.7121298 2333:0.81600857 2337:1.494361 2338:0.62669408 2344:1.4148721 2358:4.9402061 2369:0.25185817 2378:0.96288264 2393:0.26091424 2423:0.76362556 2424:2.661396 2425:0.16725969 2428:0.22046362 2431:0.67004657 2435:2.3796012 2441:3.0068145 2442:0.58491635 2446:1.8326921 2451:1.3673702 2457:0.81852466 2470:4.6812611 2471:1.8292319 2473:0.7443738 2479:0.41814625 2485:1.4293191 2486:0.80622363 2497:0.49372506 2503:0.50137448 2504:0.18723413 2506:1.2949507 2512:0.11689201 2520:0.4007363 2521:1.1724641 2552:1.649821 2553:1.0473289 2561:2.5183291 2563:3.5128798 2568:2.6780081 2571:3.2697315 2574:1.0188406 2577:2.3320775 2589:1.7844377 2591:4.3970389 2595:1.7902989 2603:0.5971877 2612:1.496717 2614:0.052751228 2619:2.286272 2621:3.1518364 2623:0.17643493 2634:0.41272363 2637:2.3895667 2639:0.11429232 2641:0.77301717 2645:0.34785172 2659:0.18848065 2660:0.68051672 2667:0.22681797 2670:0.052546412 2672:1.1108081 2682:0.36596102 2688:2.6948602 2689:0.60480803 2692:0.22258851 2702:0.40584937 2704:1.2202232 2714:4.5591407 2715:0.85419023 2718:2.8967416 2726:0.64537758 2735:0.12478265 2738:1.6412653 2745:2.1404715 2756:0.28003573 2758:0.062047176 2761:2.086808 2765:1.6123593 2766:5.3959274 2771:0.87874758 2775:0.7390514 2777:5.4933925 2778:2.0631797 2786:0.082069144 2792:1.1366608 2793:3.3081555 2798:1.734493 2799:0.76650357 2805:2.3345244 2812:0.79193103 2814:1.0491711 2817:1.4097161 2821:0.50013566 2826:1.7728226 2834:3.4081254 2837:1.1479955 2844:1.9492755 2849:1.3854674 2857:1.1711947 2871:0.78388405 2874:0.19085053 2875:1.5167673 2879:1.9297265 2882:2.1183209 2909:0.54955518 2913:2.1647539 2917:0.61531115 2919:2.9718382 2924:2.6296976 2934:0.15588129 2937:2.5278306 2941:0.21224615 2949:1.4196045 2953:0.0073642731 2957:4.2841182 2966:3.0769246 2971:0.76879889 2976:1.8020937 2978:1.3145328 2981:1.3929646 2986:2.2459512 2993:2.8299878 3010:3.4013538 3019:0.035489917 3021:1.0437994 3028:0.53298938 3034:1.6922867 3035:2.2727108 3047:0.63956255 3056:2.8634322 3057:0.80471444 3065:0.27640346 3067:0.38249943 3072:0.38196665 3094:2.2154982 3105:1.3687692 3110:0.76550281 3116:1.8885835 3124:0.074584514 3129:3.0164595 3133:2.6698549 3137:0.067420676 3144:2.4708076 3148:0.58587891 3151:0.082825899 3152:0.9804337 3153:2.2926366 3159:0.93920672 3160:1.4796834 3162:1.9776011 3165:0.14553913 3182:2.0834827 3183:1.6573095 3184:1.9625044 3192:0.12715244 3195:0.30716056 3200:0.35592151 3215:2.212894 3241:1.4302905 3246:1.7155412 3249:1.9765846 3257:1.034723 3258:0.49485677 3259:0.83919311 3260:0.82512617 3262:0.79346049 3267:7.3544526 3275:0.83415258 3276:0.42599994 3277:0.22030932 3278:3.2452748 3282:2.1804295 3284:0.59009171 3285:1.6241612 3286:1.2995967 3291:2.9318473 3293:5.0363321 3298:3.5911446 3302:0.20637451 3310:1.4158177 3317:0.31203657 3321:2.4754138 3329:1.3925227 3332:2.1810522 3334:4.1330285 3348:0.63231623 3349:7.4858651 3356:3.9110444 3363:1.036032 3365:0.022996932 3373:2.7514386 3377:4.1131597 3382:1.827281 3402:1.3649242 3413:2.3289552 3436:2.7669311 3443:0.91199571 3449:1.462692 3450:0.31544167 3456:0.59507853 3467:3.6589351 3468:2.788203 3485:0.5573954 3486:0.60555029 3489:0.53000873 3491:1.4166381 3493:3.8130546 3494:1.607519 3496:2.2922885 3501:0.21801858 3502:0.71276128 3508:1.6914461 3521:0.03628248 3523:0.11862776 3529:3.8799584 3534:0.31363118 3539:4.8054905 3547:0.28543758 3548:0.72348839 3555:0.59138477 3560:3.3912759 3564:1.3183178 3565:1.970363 3569:0.6676445 3572:0.82358789 3582:0.042301521 3586:1.3268251 3588:2.7282164 3592:3.0523133 3604:8.5549059 3606:2.6832788 3608:5.2084179 3617:1.4628608 3627:0.7284956 3629:2.5599673 3631:1.7619438 3633:0.91315967 3635:0.45082712 3643:1.7857162 3644:1.0345412 3647:0.021249779 3667:4.1363664 3669:1.3669176 3670:2.8502581 3673:0.6456278 3679:0.16066706 3692:1.6840801 3698:1.3230636 3703:1.3732173 3708:0.019302428 3719:0.4186596 3720:2.1265216 3721:0.4954277 3732:1.7778823 3748:2.1378565 3749:0.81463939 3752:0.69829369 3753:0.54388011 3763:0.24199203 3774:0.018197775 3778:2.7457643 3792:1.2008966 3793:2.6729956 3806:4.690412 3824:3.9938173 3836:1.5649064 3840:0.76732266 3845:0.34340113 3849:1.9316993 3860:1.6452742 3862:3.1873775 3863:3.016398 3864:0.045157984 3872:1.1561898 3878:0.81421083 3891:3.1846406 3901:1.9509561 3906:2.6015229 3907:1.9568918 3910:0.70797449 3915:1.978937 3917:1.2798076 3919:0.33045334 3923:3.3147008 3932:0.037127391 3941:0.79788208 3948:0.86199254 3957:3.570529 3963:0.32036191 3977:2.0683513 3978:3.7705214 3980:1.390506 3981:0.65783435 3985:0.1172353 3988:0.70837313 4000:3.4801426 4002:1.3639135 4003:0.80781782 4004:0.096253425 4010:4.9946179 4012:0.54043943 4014:0.12590599 4018:3.7977405 4021:1.7034862 4023:1.8299208 4030:0.36269578 4032:3.1275103 4036:2.2970483 4041:0.11863165 4042:1.7547106 4046:1.5483758 4050:2.2742491 4055:1.1967261 4059:2.8555508 4067:1.5192078 4068:1.068027 4074:0.017468542 4084:3.763046 4088:1.9471514 4089:0.34853786 4090:0.93544698 4096:0.90426457 
1 15:2.4613895 23:2.0179248 26:0.84014428 27:2.1320722 31:0.60898566 39:2.4277723 40:5.616725 45:3.2108407 60:0.23383087 68:0.22465068 69:1.0547246 84:1.1580843 91:3.3013351 100:1.2973948 103:0.88103908 109:0.88817579 112:0.65807885 123:2.9593749 125:6.1161985 146:2.9218891 164:1.7178303 167:0.6932292 171:2.704308 172:2.1559889 173:1.0393198 174:2.24895 188:3.3035359 191:1.6600732 196:0.66341484 199:0.22153845 200:1.3952827 210:6.0937634 217:3.1611526 218:2.3766768 219:1.0283259 221:2.7643414 233:1.8792498 236:1.9790388 247:0.28350437 252:1.9368525 267:1.7965512 288:0.11133853 291:0.5738979 299:0.30987212 301:0.26914132 307:0.61450273 311:0.14931843 312:2.3641779 313:0.075849503 318:0.04067529 320:1.4380803 324:2.4526954 344:1.4370886 350:2.0541296 351:1.9482372 353:1.382429 356:0.60757637 360:0.27987388 362:1.1717234 374:0.1912508 375:0.89266753 379:0.94715929 382:0.8580507 384:4.522624 385:1.2540056 391:4.2609949 400:1.6526618 404:1.4009781 408:0.058135092 420:1.0841457 431:4.3784471 435:3.7109725 440:3.4335718 442:2.5743201 460:4.6787362 463:3.3728185 466:1.2499154 468:0.43033177 472:1.5157176 482:0.9095999 490:0.016913474 494:3.1528099 496:0.94459081 503:0.40095264 507:0.92671955 511:0.11518356 515:4.8911119 518:2.861201 524:0.51635158 526:0.35641235 527:2.4444125 529:0.63586628 531:1.9397849 532:0.73642159 538:0.47597545 545:5.7373667 554:0.98007524 562:0.41471386 565:2.6159706 568:1.4067669 570:3.9679909 572:1.0005665 575:3.9675677 576:2.5263345 577:1.6184299 592:5.8768682 603:0.41747594 606:2.7149839 608:1.7843946 609:5.2219977 612:2.3750687 615:0.056835294 621:0.50512797 625:0.76757336 626:0.47479665 633:0.28010476 636:1.3367715 651:1.1849856 656:4.3149619 657:4.7822433 662:1.0071229 664:3.0851073 667:2.2153194 672:0.42392081 675:1.9036264 677:0.38808751 680:6.5288215 682:0.47812557 687:4.5651336 699:1.175006 701:2.0344205 702:4.6768208 705:3.0377069 706:0.78412366 711:5.1308675 718:3.0181961 721:1.3706421 722:0.20654964 723:6.1423812 724:1.6102705 725:1.4712906 730:2.4929543 735:5.1986346 747:0.93796492 748:2.7669268 749:0.48388904 751:1.1139266 752:1.8089827 755:2.4404833 764:3.3260469 766:0.94017088 773:2.6137891 777:4.4601073 789:0.41233948 791:2.2885852 792:1.8192191 794:2.317277 798:4.36415 799:0.43608409 823:1.0520924 826:0.2879656 834:3.2910516 838:1.5169609 839:3.0239511 842:0.17690495 855:2.3724186 865:0.7703169 868:2.7258523 871:0.47502181 872:1.6185198 874:1.2794983 876:4.1908517 885:1.5871744 888:0.031310469 893:0.20022282 897:0.24640754 898:0.52229416 899:0.93624496 902:2.9925692 904:2.8843579 909:1.0694939 910:3.4336822 912:2.0324283 927:0.18409574 928:3.7600837 930:4.0998378 942:0.91372639 945:1.8993981 947:3.9925807 958:0.12311766 965:8.8312216 966:0.020201743 968:4.1247921 970:1.975244 989:4.3364725 990:0.46900091 993:2.1895723 994:2.4471269 996:3.0919714 1001:0.97277009 1002:0.92678988 1014:2.4957919 1018:2.4892228 1019:4.7436075 1021:0.91574639 1024:0.60525608 1047:3.2372887 1049:0.33248585 1050:0.94917595 1058:5.9928432 1059:2.4732106 1070:5.1925769 1074:1.2894078 1076:0.16316311 1077:3.5851109 1078:2.2294011 1080:1.6017535 1092:3.0945301 1096:0.039204881 1099:1.3865614 1100:1.4317068 1111:1.318553 1118:0.52570808 1121:0.59603906 1125:3.1424642 1130:0.1172856 1139:2.3097305 1140:4.2721844 1144:0.89443755 1160:0.89533925 1163:0.76948237 1168:1.5293806 1169:0.41948587 1173:0.015912712 1174:0.18587041 1180:0.12176337 1184:2.3399012 1188:2.1981065 1189:0.59234083 1192:7.5210996 1193:0.26225117 1195:1.4437296 1199:0.35638571 1206:3.7425144 1213:0.21346992 1216:1.5219867 1217:0.52396923 1227:2.1412706 1234:0.91618574 1239:0.23616387 1242:3.6821313 1243:0.69444358 1253:0.61681032 1264:1.2008111 1269:3.4400928 1271:2.0500441 1276:0.57886612 1278:2.9874303 1279:0.39380109 1281:2.8035905 1282:0.034810066 1286:5.104557 1287:1.6035522 1290:3.509964 1291:1.0560659 1306:0.21729478 1313:3.7887988 1314:0.045669734 1331:1.7885158 1336:0.33657271 1340:0.23635282 1344:1.1461638 1348:1.1263059 1359:2.0279508 1361:1.8789752 1363:1.5256208 1366:2.3746428 1369:2.4871302 1371:0.088741124 1372:1.529186 1373:1.3445776 1376:0.50978446 1377:1.1395842 1378:3.1902115 1389:1.6659834 1391:1.110974 1393:1.8446579 1406:6.549933 1408:4.292161 1409:1.7321583 1410:2.1576092 1421:0.39922306 1424:2.908525 1426:2.0749154 1428:1.2961161 1432:0.21028957 1433:4.135807 1441:2.3042541 1445:0.16116166 1460:0.019608557 1464:0.66928005 1470:0.21584243 1474:1.0442455 1476:3.3845432 1477:1.2214056 1483:0.74367064 1484:1.9144481 1487:5.3893609 1489:0.16479293 1493:3.1477776 1495:3.5482442 1496:0.32116118 1504:0.15022439 1511:0.49949095 1513:1.4393599 1515:1.8895521 1519:0.48763743 1523:0.62441868 1526:0.35149407 1528:2.785521 1547:1.5495487 1548:1.7727981 1556:1.0521715 1562:0.72901976 1569:0.99977022 1574:4.9255219 1577:3.1544464 1581:0.18868956 1587:5.3963447 1588:2.5493238 1604:0.85799098 1605:6.0809541 1610:1.4198565 1613:1.3152778 1617:2.4241624 1618:0.53120202 1629:3.1361148 1637:2.5273693 1641:0.95458138 1642:0.68901956 1647:3.9083958 1648:0.0064375699 1652:0.64103365 1656:0.13856581 1657:1.2247941 1658:0.36497545 1659:1.2396919 1663:0.64988083 1665:1.2001964 1667:0.93726152 1672:4.3079119 1674:2.192256 1694:2.2736499 1696:2.4924343 1705:5.4745088 1708:0.040949345 1714:0.20816736 1720:4.5773916 1725:1.8869078 1726:0.46399459 1727:0.021054208 1730:1.4802918 1732:0.85150015 1733:0.62827533 1746:2.5489244 1749:0.49958527 1758:3.0560405 1765:0.62522835 1767:0.35890281 1774:0.076434903 1781:0.19075367 1786:0.30541098 1788:1.9544744 1790:0.58128262 1794:2.1228418 1795:2.8409104 1796:1.0331008 1799:0.88795865 1803:1.6527678 1806:3.1229348 1812:5.4810228 1815:0.5055722 1819:0.35148829 1822:0.71585357 1826:0.31539565 1832:3.4664547 1842:4.2885766 1845:2.904228 1848:0.028758347 1851:0.81986213 1852:0.1354664 1855:0.12390392 1871:0.81835812 1872:6.5769076 1880:2.0799747 1881:0.29783937 1890:0.054188661 1897:4.0066838 1898:4.3934445 1900:1.9739307 1901:0.049732149 1908:0.21290076 1923:0.8197158 1925:1.5600083 1928:3.1793497 1943:0.41288167 1953:0.31709644 1955:0.10518774 1957:0.17920706 1963:0.56795907 1966:1.2424529 1969:0.20558047 1972:5.0764914 1977:0.47678337 1989:2.6126976 1991:0.05128932 1993:0.74381173 1998:0.4323979 1999:1.0457927 2005:2.4883983 2006:0.18749949 2009:1.8675057 2011:1.7535518 2028:2.0813322 2035:0.62206918 2042:1.5902427 2048:2.3840587 2058:0.19784941 2059:2.2339139 2066:2.4966288 2070:1.497365 2074:2.6995049 2082:2.0397658 2085:4.4039311 2094:4.3490772 2097:0.072613448 2100:2.826153 2101:1.9483557 2102:0.69898838 2111:0.21781135 2112:0.71856672 2116:2.8241825 2119:0.6605742 2140:1.4544008 2144:1.8332124 2148:2.1299474 2151:0.30485833 2152:1.0281827 2153:1.2532338 2160:0.89702362 2166:0.088243455 2177:0.49767449 2179:1.0739638 2180:0.14969969 2186:2.9100933 2187:2.6698368 2188:2.0221441 2190:5.9358368 2207:1.7614609 2221:1.02799 2223:4.5000968 2224:0.032194287 2229:1.977397 2239:1.4137579 2240:0.92747313 2243:3.2199609 2244:1.5200217 2245:1.7553599 2251:1.0981805 2254:1.5089087 2257:1.6560378 2267:3.3128202 2271:0.97924131 2275:1.9169068 2276:0.68558741 2280:1.2933725 2290:0.94908971 2298:3.7096887 2303:0.5159868 2306:1.8125403 2315:0.18259773 2318:4.2637038 2319:0.87548852 2320:3.6074705 2324:0.20370021 2331:0.24318829 2333:2.9490409 2338:1.1124915 2340:0.77485514 2344:0.30771986 2350:0.15418124 2357:0.078031406 2358:0.21854235 2360:0.025277972 2362:0.78302991 2364:2.355958 2372:1.5880291 2376:0.72255915 2378:2.7563047 2382:0.27770594 2383:1.1425965 2390:2.028728 2393:0.32073435 2399:1.9284909 2405:0.28222921 2410:0.80624247 2417:1.3396025 2424:1.0648794 2431:1.3283432 2435:1.0208795 2437:0.96814215 2441:3.2787011 2457:2.8009353 2460:0.10382473 2463:1.1205407 2467:0.7729156 2470:3.8607099 2471:1.7972602 2473:1.7553757 2477:0.12679556 2486:0.67315775 2506:0.20445579 2507:4.0192556 2512:1.262149 2514:0.16672543 2516:0.841398 2520:1.6218618 2521:1.3723575 2523:0.92100048 2526:1.6651105 2531:2.0916905 2551:3.2006412 2554:0.028513446 2561:1.1603618 2563:0.19402817 2568:1.9862639 2571:3.6566277 2574:2.5302479 2577:3.2069585 2589:3.4104981 2599:1.2139349 2604:0.59583366 2611:2.5479329 2612:4.1187272 2621:4.4198546 2625:0.049202442 2626:0.47133005 2637:2.4644942 2641:0.50162494 2645:0.64699233 2659:3.1961014 2663:1.3369963 2667:0.93483746 2670:1.0115484 2682:0.89320564 2688:1.165434 2691:1.7264253 2692:0.36126447 2708:0.17068468 2713:1.9019506 2714:0.74114615 2715:1.1689049 2718:0.49159449 2721:1.6198566 2735:1.2735211 2738:1.5427413 2745:6.3091125 2754:1.0659049 2756:0.2373817 2760:1.4536991 2761:1.2016481 2765:2.9341369 2766:2.9784195 2768:0.17979896 2771:2.4029381 2775:1.8955929 2777:3.4820251 2778:2.2624044 2786:1.4920537 2792:1.9297792 2793:4.7512183 2805:0.76239699 2812:1.0001833 2814:2.1210885 2817:1.1392422 2825:0.15506372 2826:3.5646098 2834:0.099739015 2857:1.6882542 2864:0.17469752 2871:0.3813504 2874:1.3670545 2882:2.6869965 2887:1.6801124 2888:4.0034184 2903:1.752857 2909:3.2359045 2916:0.12425458 2919:2.8979332 2924:2.7707536 2932:0.54871666 2949:0.56251872 2957:2.4475567 2966:2.8500433 2971:1.5118308 2976:0.077574492 2979:1.4141968 2981:0.053966492 2986:5.5337534 2990:0.20598745 2993:3.8698659 3010:0.20795158 3021:0.2307409 3022:3.0162034 3023:0.093876004 3028:0.62030822 3034:0.66275048 3035:2.9760499 3036:0.43194607 3044:0.13485742 3056:4.9371395 3062:0.81843507 3066:0.50896472 3068:1.7867664 3072:2.1718595 3079:0.36105612 3080:0.49003395 3085:1.9723933 3099:0.14492399 3105:3.5232069 3111:2.5130427 3119:0.45303404 3124:0.60190272 3129:4.2771292 3133:0.52631897 3141:0.91134602 3144:1.4770887 3151:3.1016302 3152:0.7010774 3155:1.67054 3161:0.75855869 3170:0.83371615 3177:1.6151698 3183:3.5076492 3192:0.042079479 3198:1.7775404 3211:0.28211436 3215:2.0675211 3221:2.1554844 3238:0.66072506 3241:3.6913612 3253:0.20162967 3255:0.19358817 3258:4.1872816 3267:6.554585 3268:2.5017989 3273:0.52024895 3276:0.6435135 3277:3.6328475 3282:0.18787301 3285:0.93650818 3286:2.3351169 3291:5.0009117 3293:1.4908522 3295:0.42024487 3296:0.23575655 3298:1.4629931 3317:1.8787051 3321:5.9946165 3327:0.034544498 3329:0.13980395 3332:1.8286811 3334:7.9178042 3338:0.64084655 3348:0.51323062 3349:5.1624951 3351:0.014460683 3356:1.4593917 3366:0.89291501 3367:0.32610089 3373:2.0764072 3377:2.7945082 3382:1.7188352 3394:1.756498 3395:3.8431818 3396:0.72675693 3401:1.164867 3402:1.5911651 3413:4.6069922 3418:1.6344519 3436:3.4276469 3442:1.6266341 3446:0.45515668 3449:0.66784495 3450:3.5017715 3456:0.54746091 3467:2.2023902 3468:4.618197 3485:1.8664945 3490:0.015792757 3491:3.5225177 3493:2.2976651 3496:0.9431268 3500:0.49649012 3501:0.2682932 3502:0.19893289 3508:3.7699602 3509:2.2963262 3529:2.1751702 3539:6.292325 3540:1.3540963 3544:3.634727 3547:0.11705065 3548:0.49700952 3554:0.88454247 3555:0.91165638 3560:3.5282526 3564:4.0094275 3569:1.5002086 3572:0.8144784 3582:1.8605665 3585:0.82220525 3586:1.6715227 3588:2.3897431 3592:1.5056378 3604:1.7212436 3606:2.5776649 3614:3.0463691 3624:1.1034455 3629:2.7828681 3631:2.2086773 3635:2.1177347 3644:4.1611061 3650:1.9090759 3665:0.21803305 3667:1.3020009 3668:0.17126137 3669:1.5796263 3670:2.614711 3675:2.9867768 3680:0.13157013 3682:4.5760527 3683:4.8390813 3687:0.29348966 3689:2.6995323 3703:3.293792 3720:2.5971227 3732:2.1498466 3746:0.39312345 3748:1.8338562 3751:1.7620515 3752:4.2660952 3753:3.8398738 3763:1.2847471 3777:2.2904744 3778:2.5823343 3793:0.32551289 3806:2.7707572 3807:0.28932166 3824:2.9665859 3835:1.3970124 3844:0.076352403 3857:0.60665518 3863:1.9185919 3864:0.87117207 3867:1.8607433 3871:0.34595078 3891:3.2737868 3893:0.26360196 3896:0.014627635 3901:5.3846054 3903:0.39223009 3907:2.7216492 3913:1.2797351 3919:2.6007638 3922:0.56466764 3923:1.4777578 3933:0.70127726 3935:0.85867935 3941:0.26814955 3942:0.3410508 3957:3.0396831 3974:0.97680926 3977:2.1526675 3978:4.8504581 3980:0.59822029 3981:1.1153333 3982:1.5226665 3983:2.4055667 3984:2.3326259 3988:1.8996576 4002:2.7957101 4003:0.52698517 4010:3.2823706 4012:0.49019063 4018:2.0893373 4032:3.3174386 4033:0.055244029 4036:0.4820185 4041:0.50326306 4045:1.4401841 4046:2.7942088 4050:2.1795931 4055:2.8669829 4058:2.9850569 4068:3.502667 4074:3.4747887 4079:0.0031048656 4084:6.240612 4088:2.5841582 4089:2.5307148 4090:0.19420832 4093:1.3909256 4095:0.35211533 
0.05866801699465489 15:1.0903056 23:1.1392195 26:0.82799637 27:0.4793902 39:2.0882964 40:5.6281161 45:3.8282475 60:0.06055963 69:0.30433798 77:0.17602485 83:0.56151921 91:4.5225282 100:0.60023081 109:1.2248636 112:0.68859124 113:1.2829025 123:2.8797286 125:4.6779089 146:1.4922013 147:0.85817802 159:0.24577026 160:0.038807452 164:1.4874047 167:1.5814028 171:1.3278871 172:0.36158633 173:0.54826522 174:1.5096347 188:2.8310542 191:3.1274567 196:0.62059259 200:1.8206377 210:6.4800019 217:2.838784 218:1.5916345 219:2.5225475 220:0.043890119 221:2.3265762 233:0.60300809 236:2.9069259 247:0.58046675 252:1.6984237 267:3.0289552 291:0.97528976 299:0.82329106 300:0.9868778 312:2.6706123 313:0.011413813 318:0.070505306 320:1.1819644 324:2.9489686 344:1.1724896 350:1.4673417 351:1.0794027 353:0.7502588 356:0.9822135 358:0.63606715 375:2.2849255 379:1.9413712 382:0.43958819 384:4.3670597 385:1.5188363 391:2.4006591 404:1.1708231 410:0.16981244 426:1.201978 431:3.1387181 435:3.6252291 439:0.7074784 440:3.4024892 442:3.746006 460:4.85811 463:2.4373672 466:1.7126884 468:0.29226434 469:0.091011256 472:2.1584406 488:0.14981806 494:2.6581798 495:0.0069267452 496:0.21737456 503:1.8493841 507:1.685636 511:0.3186464 515:3.8018847 518:2.3399603 524:0.80016935 527:1.3867317 538:1.2819016 545:6.5809126 553:0.037326187 554:0.99159729 562:0.61142784 565:2.1395411 568:1.812108 570:3.0485601 572:0.2231442 575:3.1419485 576:2.4522486 577:0.17248745 584:0.574305 587:0.31507242 592:6.8698831 603:3.8862355 606:1.7441628 608:2.8631964 609:5.9997072 612:1.194652 615:0.29142776 619:1.1743929 621:1.0252244 625:1.0157071 635:0.58502281 636:0.22170663 651:2.7907472 656:3.6276841 657:3.5192297 662:1.8354796 664:2.7926383 667:0.74616915 672:0.047453821 675:2.0086334 677:0.23844808 680:7.2889123 682:1.1818869 687:6.0931296 694:0.11791039 701:1.2037338 702:5.3998804 705:1.1360632 706:0.86252737 711:3.6776259 718:0.6754095 721:3.3544879 722:1.5804561 723:4.8750892 724:2.2588878 725:1.215203 730:0.46005464 735:4.175889 748:2.4526463 749:0.39436406 751:0.93897414 752:3.7953453 755:1.5335462 764:3.0930562 766:1.99344 773:2.0165179 777:4.9673905 791:0.16968018 792:0.41897297 794:1.315307 798:3.4393151 799:0.42526674 823:0.58002484 826:0.85241467 834:4.1655293 838:1.9614754 839:1.5741224 842:0.40176895 855:0.29278296 865:0.54782557 868:3.0137043 869:0.88217402 872:2.2412555 874:1.2634137 876:4.6181955 885:2.6530089 888:0.29482374 893:0.059185535 894:0.38546643 897:0.15583017 898:0.070752591 899:1.2888055 902:2.4544013 904:2.6499233 910:1.9320719 912:1.8873991 924:0.68575162 928:3.4963307 930:5.4148374 942:1.1228268 945:0.91918433 947:0.82445979 965:9.724328 966:1.404707 968:4.4356699 970:2.5336905 989:4.8846717 990:0.041068643 993:2.1927674 994:2.9814034 996:2.9719734 1001:0.048621088 1002:1.005821 1007:0.03719601 1014:2.3497014 1018:2.5683239 1019:4.1922345 1021:1.9642736 1024:0.4143098 1047:3.1545525 1050:3.6747785 1058:5.8397651 1059:2.4659822 1065:0.97546875 1070:5.3760333 1074:0.044010103 1077:3.3617556 1078:2.7204769 1080:1.3663796 1092:2.9818745 1096:0.68778318 1100:0.091262609 1106:0.10476604 1121:0.52381849 1125:0.54360569 1130:1.2890487 1139:2.4842753 1140:3.0244699 1144:0.47760201 1160:0.18207029 1163:0.98504907 1168:0.22668082 1173:0.43599147 1174:0.28536475 1181:0.80057156 1184:1.8325291 1188:0.69609952 1192:7.2157221 1195:1.5268731 1206:5.1118364 1216:0.069161475 1219:0.70878977 1227:1.531338 1237:0.69642597 1242:4.6578517 1250:0.046168745 1253:1.1097772 1269:3.2714374 1271:2.2332172 1278:2.4086065 1281:3.7234046 1282:0.3073273 1286:4.829422 1287:1.8523872 1290:2.472116 1291:0.30647314 1313:2.2192259 1326:0.23835574 1331:0.14341623 1340:1.3041604 1341:0.10769926 1344:2.4875104 1359:1.8107041 1361:0.89148837 1363:0.41999108 1366:1.5809078 1369:2.789268 1372:0.80283588 1373:2.0303373 1376:0.32187563 1377:0.54187083 1378:1.4463235 1389:2.477493 1393:3.2941098 1406:6.9587865 1408:4.6804972 1409:0.60557377 1410:3.3219836 1421:1.2957572 1424:4.5830455 1425:1.9371228 1426:2.8633723 1428:1.8271933 1430:0.70087439 1432:0.18692258 1433:5.602725 1435:0.45286977 1441:1.5580385 1445:0.4424845 1465:0.33301961 1470:0.71587515 1474:0.41214061 1476:1.0850881 1477:2.1230972 1484:2.2906821 1487:5.6819458 1489:3.5256872 1493:2.3486407 1495:2.9884386 1496:0.9818064 1502:1.2759521 1513:0.62108159 1515:1.9640074 1519:0.94866729 1526:0.47230768 1528:2.4286289 1547:0.059229404 1548:1.6892765 1562:0.47383249 1567:0.0064167976 1569:0.40946123 1574:4.6405973 1577:4.3323755 1587:6.8362889 1588:1.5122389 1605:4.6316652 1610:0.28181827 1613:1.4672923 1617:2.2007253 1620:0.66289949 1622:0.058786482 1629:4.4379244 1637:2.9824674 1641:2.6050637 1647:4.3959351 1654:0.25872308 1657:0.076215923 1663:1.1111519 1667:0.99097657 1672:2.2479672 1674:3.1724534 1677:0.92333621 1694:3.9145994 1696:2.242485 1705:5.200551 1711:1.7392284 1712:0.37808347 1714:0.1398329 1720:4.85813 1726:0.20877239 1732:1.5553588 1733:1.7893513 1739:1.107903 1744:0.38835394 1746:3.4375854 1749:1.7502593 1752:1.2854165 1758:0.98750049 1765:0.14488167 1774:0.84042364 1782:0.025285346 1786:1.1151636 1788:1.6931028 1794:0.059221983 1795:3.0346353 1796:2.0552464 1799:0.91771126 1803:0.98253626 1806:3.5692971 1812:4.4635382 1819:1.1672887 1820:2.2768226 1822:0.58651352 1826:1.0622199 1832:3.3321042 1842:4.2718287 1845:3.6511872 1851:0.028233081 1854:0.074467763 1872:5.275547 1880:0.89827216 1881:1.4909782 1897:3.5625789 1898:3.3890188 1900:1.8747998 1901:1.0143416 1908:0.21326353 1911:0.67024636 1920:1.0457345 1925:0.78178191 1928:2.9606791 1957:0.032473505 1960:1.1372111 1963:0.31857017 1966:1.8662932 1972:4.7809687 1977:2.8084712 1989:3.2182047 1991:1.2011578 1999:0.23923782 2004:0.27819872 2005:3.4766698 2006:1.6217989 2009:1.6255553 2011:0.56050706 2028:2.2437646 2035:1.8682792 2042:1.6378442 2048:0.025226891 2059:0.53827333 2066:3.4071147 2068:0.60833424 2070:0.61211121 2074:2.3509436 2082:3.069145 2085:5.3780012 2094:6.1043377 2097:1.0118204 2100:3.6374695 2101:2.6983132 2107:0.088534683 2112:0.57787919 2116:1.6937556 2119:0.63891685 2130:0.35506427 2140:1.7899337 2144:2.5804498 2148:1.1453985 2151:0.57703191 2153:0.50388992 2157:0.83775461 2166:0.83862579 2177:0.36014345 2179:0.52795935 2180:0.15513574 2186:2.1004748 2187:2.3824592 2188:0.95061827 2190:5.8164849 2201:0.84735751 2207:0.75851995 2218:0.26998252 2221:0.38173294 2223:2.4548302 2224:0.64582729 2229:1.8360771 2240:0.13631709 2243:1.9066958 2245:1.8867617 2249:0.34394497 2251:1.0426559 2254:1.2005955 2257:1.8294911 2267:2.1289682 2271:2.585556 2275:2.5427523 2276:0.32790825 2286:0.22070909 2290:0.33065301 2298:1.8677361 2306:2.8582902 2307:1.3866272 2309:0.65384102 2318:4.8674431 2319:0.74699336 2320:2.8634357 2333:4.8888707 2338:2.2975483 2340:1.1861128 2344:0.2440494 2360:0.26057485 2362:0.73385131 2378:1.334722 2382:0.040229663 2383:0.40958765 2390:1.7390313 2393:0.079574257 2399:1.3313454 2410:0.26882035 2417:0.4569478 2423:0.35491329 2424:1.5905657 2431:1.073612 2437:0.96235168 2441:4.0811353 2444:0.73575425 2457:3.4752278 2463:0.096593499 2470:4.2878923 2471:0.94496262 2473:2.6199832 2477:1.3814979 2481:0.60055375 2486:0.62459964 2488:1.1213003 2506:0.86550897 2507:4.3286738 2512:1.5666828 2514:0.16581699 2516:0.47553647 2520:0.73943472 2521:2.902921 2523:1.2152207 2526:1.1280315 2530:0.76945394 2531:1.0441601 2551:3.9470549 2561:0.68532616 2563:0.071413249 2568:1.6530868 2571:3.3083274 2574:1.5011287 2577:3.9777868 2589:1.4588683 2599:0.058130741 2604:0.93905854 2611:2.4297268 2612:2.6556656 2621:5.6124692 2637:4.2014427 2642:1.7994177 2645:1.1649117 2659:2.4199829 2663:0.78449702 2667:0.36123073 2669:0.77625787 2670:1.1807048 2682:1.1552984 2688:0.04324156 2691:0.9253968 2692:0.086301506 2702:2.433996 2709:0.17129883 2713:1.2030083 2714:2.0037432 2715:1.5974669 2718:1.1340957 2721:1.340409 2735:3.1412752 2741:1.3348076 2745:6.071527 2756:1.4037079 2760:1.7172253 2761:1.8797593 2765:2.3019993 2766:3.005892 2775:2.4883204 2777:2.2621255 2778:1.418378 2786:0.59218425 2792:1.4621261 2793:3.9568968 2805:0.23877589 2812:1.1771094 2814:1.1852876 2817:1.3583311 2826:4.1421795 2834:0.40488145 2857:1.545199 2864:0.61753768 2871:1.7405386 2874:1.9316645 2882:1.6946939 2887:2.0413334 2888:3.7689455 2898:0.1901446 2903:2.5513623 2909:4.2692785 2916:0.69917303 2919:3.3622591 2920:0.34962475 2924:2.2061732 2932:1.6385646 2941:0.61391395 2952:0.045460939 2957:1.7225702 2966:2.7784445 2970:0.75134486 2971:0.90937567 2986:6.2472272 2990:0.19663784 2993:4.0184822 3022:1.7765802 3023:1.0042783 3028:0.93091351 3035:1.4842021 3054:0.12883443 3056:3.0936558 3062:0.417449 3068:2.9866621 3072:1.5627335 3092:0.34595466 3105:3.4046161 3110:0.037167042 3111:0.84125787 3124:0.55476862 3129:2.6006889 3132:0.73268592 3133:1.1195209 3141:0.79161453 3144:1.3995852 3151:2.424952 3155:0.86482966 3161:1.6242509 3177:2.2353208 3183:5.3487296 3185:0.065270416 3192:2.1754806 3198:2.818398 3215:1.7278545 3218:0.74204302 3221:1.7030249 3241:5.5220251 3246:1.7844081 3255:0.34380889 3258:2.153913 3262:0.92685139 3267:5.2315936 3268:3.1663134 3277:3.9062355 3282:0.040982962 3286:4.4445682 3291:5.0282698 3293:0.46744123 3315:0.21179983 3317:1.4708663 3321:4.8331823 3327:0.1634371 3332:0.87765634 3334:7.0381517 3335:0.11554554 3338:1.6374719 3348:1.5431529 3349:4.8945298 3351:1.3841608 3356:2.7161262 3363:0.17143548 3366:1.1968474 3368:0.14597252 3373:3.3389754 3377:1.5800027 3382:2.7669764 3394:0.58728248 3395:4.9418297 3401:1.0074626 3413:4.8510165 3418:1.5591921 3436:2.7184799 3442:2.7228098 3446:1.030385 3450:4.5584564 3467:0.60183859 3468:2.8037951 3485:1.3451205 3491:3.2105086 3493:3.2572887 3496:0.89852405 3501:1.3422016 3508:2.9810629 3509:1.1753857 3529:0.5389598 3539:5.3265572 3540:0.15983644 3544:4.2260327 3547:0.75012267 3548:0.26651266 3555:0.55244017 3556:0.037047625 3560:1.5596794 3564:2.2607214 3569:0.47102055 3572:0.79606938 3578:0.59547555 3582:0.39080793 3584:1.7640492 3585:1.7147211 3586:1.5188525 3588:1.8258511 3592:2.6384282 3604:3.0742722 3606:4.0674601 3614:4.7787127 3624:1.9671168 3629:3.0087345 3631:0.94031471 3635:2.6499832 3644:3.230633 3650:1.2752067 3670:0.057523429 3675:1.1580588 3680:1.1152377 3682:5.3911772 3683:4.4338474 3687:3.0328147 3689:1.4336798 3703:3.3528836 3712:0.60849321 3720:2.2364302 3721:0.039237499 3732:2.5896771 3746:0.050238982 3748:2.7850857 3751:1.1576784 3752:3.93226 3753:1.7665627 3763:0.26411563 3777:0.93949485 3778:3.5592015 3806:2.6149895 3808:0.34281495 3824:2.4104898 3835:1.895465 3844:1.1437906 3857:1.2524034 3863:0.11743906 3867:4.3308349 3891:3.148371 3901:5.0488405 3907:2.6476898 3913:0.3889879 3919:2.4803286 3923:3.1140366 3932:0.33109421 3957:2.8478787 3963:0.36262056 3974:0.31182253 3977:3.1164229 3978:4.4419508 3982:1.6995153 3983:2.5352893 3984:1.7977642 3988:1.8047924 4000:0.26541057 4002:3.418519 4010:0.90052915 4018:2.1538553 4032:3.3569775 4041:0.30594367 4043:0.50292391 4045:0.93359107 4046:3.4939578 4049:0.75153631 4050:2.0466053 4055:0.88732845 4058:3.2299845 4068:3.0113261 4074:2.7052042 4076:1.0037848 4079:0.6886487 4084:5.8601074 4088:3.6724963 4089:1.18385 
1 10:0.55713391 15:2.0460296 23:0.91058391 30:0.3630555 39:0.41986832 40:5.4734178 82:0.22898069 84:0.50373721 88:0.79894841 91:4.5248146 100:1.0898998 103:0.14555174 109:1.0229042 112:1.4335165 123:3.355293 125:8.2786665 131:0.78541517 135:0.99264169 146:1.2288522 164:1.036988 167:1.9670255 171:2.559124 172:1.260558 173:0.24751359 176:0.28531224 187:1.6891855 188:1.5984761 191:3.4663999 196:1.6395782 199:0.89485556 200:3.4255021 210:6.0338397 217:3.7440026 218:2.4447701 219:0.0023170114 224:1.3200859 233:0.26523739 236:4.1829624 239:0.15602469 241:0.46020615 242:1.6179087 247:1.6622936 252:3.1106672 255:1.9596444 267:3.0875978 289:0.33395177 300:0.38369337 307:0.31383672 312:0.87805766 324:5.2705369 335:1.5936368 344:1.8994489 349:1.9986957 350:2.172992 351:0.4683525 353:1.2285669 360:0.11695024 375:0.4379828 378:2.0959172 379:1.7609808 384:3.6047475 385:1.0077963 391:3.4556735 400:1.7140563 420:2.0903909 425:0.12008941 431:4.119359 435:3.2470477 439:0.14729771 440:3.3987288 442:2.0314262 460:2.6069491 463:2.9059467 466:0.74922526 468:1.703038 469:0.98843825 472:1.1602867 488:0.74362195 494:2.476126 495:0.01299724 496:0.7054255 511:0.055429876 515:3.6202369 518:3.4815276 524:0.25129783 526:0.8569448 531:0.4927755 538:0.22895771 545:6.990129 554:2.5185897 562:0.34991914 568:0.61145747 570:4.0855446 575:1.7196901 576:2.1763649 592:6.1617465 601:0.42620543 603:0.42087528 606:3.5856004 608:3.0249572 609:5.3655972 612:0.97202736 615:0.037116587 626:0.52078992 635:1.2801139 636:0.78415662 638:0.09110868 651:0.67772007 656:1.6815904 657:5.1357598 662:1.5121971 664:1.5844043 672:0.013616204 674:0.0051017404 675:1.0939155 680:6.3263869 687:4.8757277 694:0.55379534 699:0.68369031 701:2.0784969 702:3.1739149 705:3.1222386 711:2.149766 718:1.8566631 721:4.1635656 722:0.72909975 723:4.1504102 724:1.7115102 725:0.19721588 730:1.3242472 735:2.2754488 748:4.304224 751:0.34574637 752:1.1453571 755:1.4473572 764:3.6393466 766:1.4956523 771:0.30612913 773:2.8649204 774:0.53278685 777:6.0859942 782:0.40021101 789:0.099239223 794:3.7406328 798:3.9020083 799:0.7692095 812:0.72788674 823:1.5172188 828:0.86504906 834:2.2989469 838:1.4829992 839:0.11948568 855:0.32902652 857:0.04582724 865:1.7169331 868:2.6032197 872:2.0948832 874:0.34806699 876:6.0015383 879:0.12044502 885:0.58945298 897:1.2957919 898:1.5443352 902:1.4000194 904:2.8078799 910:2.0413589 912:2.7114224 924:0.4415569 928:1.4267738 930:4.2534108 931:0.5329448 942:0.37309366 943:0.054650187 945:2.1933827 947:4.040875 965:8.4153461 966:0.91397703 968:2.6809564 970:1.4757614 975:0.19321574 989:2.8771355 994:3.0367861 996:0.8817718 1002:0.19313754 1014:4.0470796 1019:1.1673746 1021:0.95879239 1030:0.79670286 1047:3.9141552 1049:1.7391357 1050:2.3593969 1058:5.4764409 1059:1.1247216 1060:1.6144783 1070:5.7166743 1077:0.62266946 1078:3.6074417 1092:2.5974846 1096:1.4195321 1100:0.55888045 1106:2.4425712 1117:1.206099 1118:0.45996362 1121:0.42416623 1125:2.9794734 1137:0.43968806 1139:1.2084405 1140:2.9397063 1144:1.259506 1163:0.14428708 1168:0.26918638 1173:0.21626407 1174:1.4189807 1184:2.2053542 1187:1.3763139 1188:1.6269382 1192:5.6791434 1193:0.26878807 1195:0.27321422 1199:1.3860976 1206:2.9856095 1213:1.0918599 1216:0.25265849 1217:2.2564986 1223:1.9873025 1227:2.7079911 1234:0.32756776 1239:1.2115757 1242:2.8133838 1250:0.72986162 1253:0.67380601 1269:3.1215866 1271:2.6062946 1278:5.8888474 1281:1.4609106 1285:1.60104 1286:4.5444822 1287:0.14129078 1290:2.7368531 1291:1.906505 1306:0.61898863 1313:3.9980392 1331:1.0017328 1336:0.89582461 1340:0.69109285 1341:0.17456065 1344:2.3985498 1360:0.38558134 1361:1.5351629 1366:2.0368998 1369:2.9306498 1373:1.5921206 1376:0.4230752 1378:0.27649319 1389:0.24567395 1393:0.22498107 1406:7.2200732 1408:3.6719375 1409:1.7125878 1410:2.6628337 1421:1.7328708 1424:3.9647782 1426:2.100771 1428:0.93301868 1433:1.9430709 1439:0.5186916 1441:0.23821899 1454:0.14928585 1460:1.6035328 1465:1.7343224 1476:3.0047326 1477:2.7499158 1483:0.74282712 1484:1.6672945 1487:2.9293272 1488:0.096766114 1489:1.2251283 1493:0.060320109 1495:3.0566592 1496:0.72750306 1502:0.52552748 1504:0.12401628 1511:0.028713793 1513:1.4608936 1523:1.9741626 1526:0.37572271 1528:2.5055919 1541:0.1001811 1548:2.1356049 1562:1.8660774 1569:0.83181715 1574:5.195457 1577:4.7815294 1586:0.30689198 1587:5.1372061 1588:2.5460777 1597:0.23815042 1605:3.6778731 1610:1.231813 1617:1.1107161 1618:0.12038726 1629:0.25094047 1637:0.84449911 1641:2.6149993 1647:4.0545988 1648:0.31821111 1654:0.079034835 1656:0.36769858 1663:1.3454931 1665:0.86126333 1670:0.244764 1672:1.9569168 1674:1.4747663 1678:0.95972967 1691:0.83638704 1694:3.17924 1696:2.158709 1705:2.7539868 1711:0.45270452 1718:0.38793498 1720:8.0012245 1725:1.1519269 1726:0.32622337 1730:2.7949317 1732:1.6572452 1733:0.34757 1739:0.240942 1746:2.5924881 1749:0.0091160536 1750:1.4688101 1752:0.17532383 1758:1.9231174 1765:0.85856003 1767:1.470888 1778:0.23178801 1790:0.15635824 1794:0.79913974 1795:1.3315482 1799:0.70287991 1803:3.2706676 1806:3.7301378 1812:5.5208893 1813:1.3768672 1820:1.6625748 1826:0.28886288 1832:3.5882995 1842:3.2125225 1843:0.18915078 1845:2.9643509 1852:0.98557919 1872:5.8533921 1880:3.3596082 1897:2.6205707 1898:4.0997524 1900:5.3989301 1901:1.6117585 1908:0.32824725 1920:0.89770174 1925:1.9482033 1928:6.1595573 1938:0.7827794 1943:0.42168477 1960:1.460206 1963:2.3191402 1966:0.27495641 1969:1.7059405 1972:4.0020003 1977:0.10668311 1984:0.2892929 1989:2.2320395 1999:0.094361484 2004:0.088593036 2005:1.4021697 2009:2.6319826 2011:0.70511699 2014:0.040481895 2028:2.8725035 2035:2.5383759 2038:0.50450146 2042:1.2386281 2048:1.9755285 2066:3.2571337 2070:1.3253143 2074:0.97440922 2082:2.9525471 2085:3.8758323 2094:6.2256479 2097:0.2099759 2100:2.5567348 2101:2.6149957 2112:0.52174246 2116:4.0079751 2117:0.27797973 2119:1.6544106 2140:0.26823652 2144:1.8468678 2148:1.3123612 2177:0.70876896 2186:1.423129 2187:2.4492733 2188:1.6914449 2190:7.4533081 2207:0.9912864 2221:0.84709513 2223:4.5358748 2224:0.88612723 2226:0.3697221 2239:2.7667072 2243:4.9107804 2244:0.10536003 2251:0.12842649 2254:0.80809915 2257:1.0678569 2262:1.935725 2267:2.6030958 2271:2.5789781 2275:0.32317561 2280:1.3001395 2282:0.24878132 2286:1.2587786 2290:1.1023062 2298:1.2973638 2306:0.48119351 2307:1.2216214 2312:2.5183637 2318:2.7180526 2319:1.2735765 2320:2.866956 2331:0.0016947687 2333:2.53057 2338:2.4557223 2340:2.5439074 2344:0.1222465 2358:0.27078474 2360:0.42832127 2362:0.43525979 2372:3.4366798 2376:1.8554256 2378:1.071547 2382:1.0401132 2383:1.0958085 2386:0.46388623 2390:1.8576258 2399:2.1032848 2405:0.81363499 2410:0.28350899 2417:2.5604649 2423:1.435956 2424:1.5895963 2431:0.38805994 2434:1.285472 2437:0.50639939 2441:0.025181919 2444:0.87424976 2453:0.015756249 2457:4.1183815 2460:2.1828091 2463:0.10882527 2467:0.16834705 2470:3.3891747 2471:0.73201489 2473:0.16266325 2481:3.456985 2486:0.65723562 2488:0.88229167 2507:4.9884014 2508:0.7188316 2512:0.28992817 2517:0.26092237 2520:1.0837402 2521:1.1094174 2526:2.2410197 2531:0.79796767 2551:4.6273546 2563:1.9527605 2568:4.0306783 2571:2.3241029 2574:0.95413929 2577:4.1695318 2589:2.4292197 2598:0.49468625 2599:0.59962684 2603:0.43114936 2604:2.4926984 2610:0.43526083 2611:2.2620924 2612:3.0632734 2621:3.9027131 2626:0.48378235 2634:1.2088847 2637:2.4216533 2642:0.55942428 2645:1.370927 2659:2.9317067 2663:0.42047322 2667:2.0853462 2670:3.5696409 2682:0.78715307 2691:2.2424655 2699:0.50560749 2702:1.5451796 2713:1.1633831 2715:1.9773638 2718:1.0526859 2721:1.9272151 2729:0.058765143 2735:1.1214517 2741:0.33006611 2745:2.8272762 2760:0.96286333 2761:3.1942346 2765:4.0172219 2766:2.6671278 2771:0.47110507 2775:1.7589264 2777:2.4538693 2784:0.5334155 2786:2.5351408 2793:4.4275103 2808:0.22637101 2812:1.7612108 2814:2.1550705 2817:2.6686044 2826:2.210346 2841:2.1218669 2855:0.35128614 2857:3.0635462 2865:0.75384641 2874:2.3930304 2882:2.7783132 2887:0.99658334 2888:0.21079564 2898:0.57772064 2903:0.02108416 2909:3.3367789 2910:0.20391223 2916:2.7484975 2919:2.2180669 2920:0.00015342981 2924:1.1194826 2932:0.53521156 2941:2.5987747 2949:0.64855266 2953:0.62591743 2957:0.53344595 2963:0.48841739 2966:2.0142336 2971:1.8887422 2986:3.1932976 2990:1.0398061 2991:1.2600243 2993:5.2719193 2996:0.48632205 3022:4.0739698 3023:0.2965807 3028:2.5471296 3035:1.5656023 3056:2.5971301 3068:1.5834806 3072:1.8287277 3073:0.64141655 3079:0.71282786 3085:1.5925208 3088:0.60665381 3105:5.4454546 3111:0.42229876 3116:1.0778683 3119:1.5052997 3124:1.7623371 3129:1.9617369 3141:2.985851 3144:2.2672896 3146:0.034940153 3150:0.38397348 3151:3.3075159 3155:1.6686805 3161:0.15139902 3170:0.24734908 3177:1.8040488 3180:0.29507196 3183:3.4654162 3192:0.43167424 3195:0.14217317 3198:0.23068017 3215:4.1383533 3218:1.7028172 3221:0.71313745 3241:5.5359254 3253:1.5554285 3255:1.0013397 3257:0.081193686 3258:2.5990076 3260:2.2498786 3262:0.088159174 3267:3.3698997 3268:4.731565 3277:2.1757352 3284:0.003502816 3286:5.7053599 3291:0.61738837 3294:0.9816612 3315:0.49619883 3317:0.35937107 3321:5.1592808 3334:5.9400558 3335:0.8282361 3338:0.92216676 3349:3.5062301 3351:0.60322082 3356:1.5839289 3366:1.3614719 3373:3.0406301 3377:0.04178074 3378:0.46290421 3382:0.45272607 3387:0.50042397 3394:0.81978524 3395:4.8225431 3396:0.99057293 3401:1.7712795 3413:5.5337296 3426:0.17180172 3436:5.8836012 3442:2.0624077 3450:1.7138385 3467:1.8609418 3468:3.0218291 3478:1.1868281 3485:1.734466 3491:4.275125 3493:0.74167734 3496:0.014675409 3501:0.77903819 3507:0.067352191 3508:2.0357752 3509:1.6916399 3527:0.20957088 3529:1.2426003 3539:4.4230199 3540:1.2635169 3544:2.6957693 3548:0.0074880719 3556:1.4529603 3560:1.1237419 3564:0.32665688 3572:0.86787307 3577:0.32260701 3584:1.6636783 3585:4.268405 3586:0.88818705 3588:4.0808616 3592:3.4595881 3601:0.20893879 3604:2.5012875 3606:4.8200855 3609:2.7016766 3611:1.7700227 3614:0.94038916 3629:0.79972112 3631:0.51405692 3635:3.6495774 3644:3.796483 3650:1.8935789 3665:0.70499778 3667:2.1384747 3669:0.32179451 3670:3.2796905 3675:1.0657907 3682:5.7760987 3683:6.475749 3687:1.7963575 3689:2.980536 3696:0.70099145 3698:0.1034435 3703:2.3705001 3712:0.84333313 3720:1.7560706 3732:2.8694632 3746:1.7923468 3748:2.6371744 3751:3.2230766 3752:3.6722279 3753:1.7658608 3778:1.9092538 3793:0.15884705 3796:0.22980306 3806:1.508217 3808:1.477193 3815:0.18292588 3824:0.16991745 3844:1.3328894 3848:0.024709284 3867:2.5701261 3871:0.15054685 3880:0.48791105 3891:2.3789594 3892:0.33844456 3893:1.3719584 3899:2.0209231 3901:2.829802 3907:2.1215639 3913:0.26533258 3915:0.39007449 3919:1.4222686 3923:1.4038614 3930:0.25262719 3957:2.1302369 3963:0.68274993 3974:1.9467876 3977:3.564692 3978:4.9389124 3981:0.075850993 3982:2.731838 3983:2.4879208 3984:2.1485596 3985:0.28622526 3988:1.0144813 3997:0.4686195 4002:5.2226429 4003:0.57620215 4010:5.501905 4018:1.802635 4032:2.2034833 4033:1.3497784 4036:3.0590544 4038:2.3602223 4041:0.90438038 4045:1.8938639 4046:3.3799939 4058:2.9595339 4059:1.4795941 4068:3.9395056 4074:3.4616795 4076:0.21326199 4077:0.55309612 4079:0.2898798 4084:4.79632 4088:0.22708282 4089:0.90992194 
0.7173143209369947 10:0.91210175 23:1.3261535 30:4.2896786 40:2.4571092 60:0.19244838 88:0.28851849 90:3.383878 91:2.7172108 103:0.10335362 107:1.5511576 112:3.051754 123:2.2978802 125:5.4198484 126:0.18436043 143:0.073806047 147:1.9084735 154:1.3339537 159:2.7403567 164:2.6691098 167:0.37338966 179:0.087647155 181:1.4405121 187:0.14034742 188:2.20329 191:4.0839839 196:1.3005943 199:1.3034157 200:4.2363849 210:4.4575272 217:2.1777823 218:1.5854008 224:0.20700544 233:1.1661422 236:3.4320352 248:1.1427917 252:2.8583088 255:1.4079154 267:1.2106119 276:0.77790475 292:3.2103252 298:0.16962816 300:0.59966528 307:1.7900479 318:0.40145591 324:6.5399842 349:0.58739877 350:0.54463559 354:0.36792761 375:4.1514049 379:3.2152963 384:3.5052137 385:1.7616261 391:2.1231499 400:1.8660257 404:0.54092634 431:3.3335609 435:2.2133131 439:0.68432021 440:3.0077338 442:0.72240961 460:2.7773826 463:4.0837164 466:1.0741131 468:2.0424733 469:2.4724092 472:1.3515748 488:0.2614257 489:0.048582971 494:1.8806337 515:5.2048631 518:1.6346785 529:3.2303221 535:4.0193534 538:1.2079942 545:7.9373965 549:1.0589502 554:2.2383084 568:3.0833142 570:1.3475094 575:0.19534329 576:2.0172429 577:3.0912433 583:0.32889041 587:0.050801754 592:8.1461725 602:1.1848629 603:1.7371935 606:2.6806011 608:0.0087336376 609:4.4584656 612:3.3914073 615:0.58075321 619:2.5785422 625:0.51641858 626:0.95933712 635:0.43967253 636:0.21294159 639:3.0961311 642:0.067073733 651:1.4445027 654:0.58545804 656:2.4603689 657:2.9133513 664:2.1857545 680:7.2648268 682:1.243156 687:9.0697975 691:0.6418305 696:0.19638371 702:5.5262933 705:0.23162961 711:1.7035747 721:3.7224579 723:1.7226818 730:2.1370616 735:1.747871 742:0.58136344 748:2.9924591 752:2.0362947 755:0.94578886 764:2.7214577 766:1.0322694 773:0.65600336 774:1.20254 777:4.9584618 791:0.24403653 792:3.0841827 794:1.7802831 798:8.3183613 799:1.1269126 803:0.0082555711 804:1.4029975 817:0.64058888 830:1.8119231 834:1.8189161 838:0.91400236 842:1.4254298 851:2.4126704 855:1.4343255 865:0.14251637 866:0.62965274 868:0.48940754 871:0.62530333 872:1.7298925 874:2.7196386 876:1.668934 885:0.43135679 893:0.36435774 897:0.88414824 898:0.22802427 904:2.0523643 910:2.3580372 912:2.1917439 928:1.6683007 930:3.2330275 933:0.2766251 942:4.4070663 947:0.73092663 965:5.2854037 966:2.2021918 968:3.1727891 970:3.2632065 975:0.075804248 989:3.4905558 994:4.18646 996:1.7214991 1005:0.78388411 1014:5.6791821 1021:1.0337214 1024:0.26366681 1047:0.41791183 1049:1.6801368 1050:1.5886893 1058:6.3902187 1059:2.4411664 1060:0.28428543 1064:1.1355151 1070:7.9520397 1071:1.9537966 1074:0.20072234 1077:2.8796206 1092:2.6927242 1098:0.84405833 1106:0.71711528 1125:5.3724122 1137:0.25435558 1139:0.45639899 1140:0.8131718 1163:0.24079728 1168:2.2354951 1173:0.75760758 1174:1.8641729 1180:1.1295406 1184:6.2667184 1187:1.2008381 1192:6.0906167 1193:0.90856767 1195:0.9862783 1199:0.21400966 1206:0.74246651 1213:0.74955076 1217:1.3137779 1222:0.84876323 1223:1.2269591 1227:3.3233919 1237:4.4527149 1242:1.5290819 1250:1.6787353 1252:2.5429373 1253:0.94495279 1264:3.1019576 1269:4.6764092 1270:0.17902106 1278:2.4590158 1279:0.70105815 1281:0.24239787 1285:1.0047195 1286:4.2952728 1287:0.46773657 1290:0.040756822 1291:3.3813512 1304:0.89080119 1313:1.7184563 1336:0.17706265 1340:3.4972129 1342:0.27791089 1344:0.61610162 1349:1.5069088 1359:1.0135639 1361:3.1077538 1366:2.3514266 1369:0.94561994 1373:1.9086576 1377:0.062331021 1381:0.26701608 1391:0.23044063 1393:1.9296569 1403:0.83823007 1406:4.5566549 1408:3.0439575 1409:3.07408 1410:2.8931475 1411:0.90587509 1421:1.1154923 1424:4.4369855 1425:0.46562216 1426:2.6437058 1433:0.011501342 1437:0.28995544 1441:4.4571476 1448:1.4116073 1460:0.096041143 1461:0.058689095 1464:0.56227767 1465:2.6805902 1476:3.3021345 1477:3.1438715 1482:0.70428449 1484:5.1924562 1487:0.5637958 1488:4.1683898 1489:2.3677549 1495:1.181188 1496:1.3173114 1511:0.80685008 1522:0.30973649 1523:3.2162607 1526:0.23843241 1528:3.0713129 1541:0.62522584 1548:1.1384627 1562:0.60430974 1567:0.20674223 1569:2.0106435 1570:0.27870953 1574:0.55102062 1577:5.008678 1586:0.59836179 1587:2.3661311 1588:1.7977735 1602:1.2743714 1605:3.319519 1618:1.8226953 1620:0.20131031 1629:0.070055433 1641:2.1281922 1647:5.5766768 1648:1.0367106 1663:2.1560228 1669:0.27503204 1672:0.62062925 1674:4.4873266 1678:2.289763 1691:4.2976999 1694:2.0458803 1701:0.46333995 1711:2.1152251 1712:1.001227 1718:0.84424537 1720:3.0573697 1730:4.2439823 1732:2.3533881 1733:2.1619451 1734:1.1823137 1736:0.50648242 1746:3.7925711 1750:0.020959139 1752:0.004829511 1756:1.645981 1765:0.6613434 1767:3.7335997 1774:4.5444274 1776:0.073850572 1778:0.93845403 1782:1.9507213 1783:0.38320142 1786:0.95232648 1788:0.16211581 1795:4.7517872 1803:4.7123284 1806:3.3152032 1812:5.5088367 1813:0.63848525 1818:1.6341023 1820:3.4924474 1831:3.2584183 1832:1.578318 1842:7.4535232 1845:4.4190369 1848:0.15779561 1849:0.93915838 1871:1.3789333 1872:2.8957756 1874:0.90385181 1880:0.91306627 1897:3.125632 1898:6.0651717 1900:3.755631 1901:0.20761061 1908:0.70276725 1911:0.57372391 1918:0.31648123 1923:0.19602829 1925:0.42834714 1928:7.7375317 1935:0.13903545 1953:3.5887558 1960:1.3483691 1963:2.1567914 1966:4.156136 1969:0.4071849 1972:5.7876501 1977:3.2105813 1984:3.2106235 1989:2.0444362 2001:0.8284204 2004:1.5030023 2009:2.4513099 2011:2.3924503 2020:0.15928498 2028:3.1681907 2035:5.7479429 2038:2.9726207 2042:1.189575 2048:1.5762935 2053:0.1873922 2057:0.34292692 2066:3.8745947 2070:1.8977095 2074:0.16448019 2082:2.3067193 2085:3.5986016 2094:3.5338569 2100:0.68899286 2101:0.65563488 2112:1.1758182 2116:2.6862237 2119:0.65391135 2128:0.70722604 2135:3.1207087 2144:1.2958063 2148:0.85970545 2157:0.68044841 2164:0.50698954 2177:1.3318219 2186:0.24034235 2187:4.3718567 2188:3.2190752 2190:6.0748916 2199:0.097545773 2207:0.80338085 2223:1.2570889 2224:2.9709787 2226:1.8721118 2236:0.96714532 2239:1.5511235 2240:0.14145829 2243:1.9292471 2249:1.6861918 2250:1.3020923 2257:0.54251051 2267:1.9430826 2271:1.4492962 2275:1.029979 2280:0.87751591 2282:0.94753242 2286:4.5958376 2290:1.8515577 2298:0.28603727 2306:3.1379871 2307:3.1285286 2312:2.9132845 2318:5.4680576 2333:1.0104903 2338:5.6495881 2340:2.831321 2344:1.1564783 2357:0.7817136 2358:0.96135557 2372:2.0127738 2378:1.0629153 2382:3.646306 2383:0.70828509 2399:1.395299 2417:3.5118155 2424:2.2580123 2434:0.63198984 2444:0.73977005 2457:4.3497748 2460:3.2360182 2463:1.4392308 2470:5.1253295 2481:3.8477314 2485:1.871457 2486:1.4229138 2488:0.65654504 2507:2.8338571 2508:0.15981568 2512:1.5779976 2519:1.5515256 2521:0.43772131 2523:1.8239864 2526:0.93896765 2530:1.8078564 2531:1.2628849 2535:0.58652055 2551:3.1297703 2553:2.7437842 2558:0.25439453 2561:4.8336043 2563:3.4676788 2568:3.1293719 2574:1.1372144 2577:5.3704863 2584:1.2312007 2589:0.24964625 2599:1.4940577 2603:2.5328913 2611:1.5621128 2612:3.1955342 2614:0.95206821 2619:1.110001 2621:2.3681369 2634:2.4882426 2637:2.6461589 2642:0.015805125 2653:2.3319855 2659:3.4304059 2660:1.6424749 2663:1.2007329 2667:2.8377972 2670:3.6248431 2691:3.0737948 2699:0.12589639 2714:1.0486557 2716:1.6745559 2718:3.590601 2719:0.62351 2721:3.9864616 2729:0.63974798 2735:1.0363393 2741:1.4001882 2745:1.506138 2757:1.8484157 2760:0.11124533 2761:3.3397532 2765:1.2722552 2766:1.9111979 2771:1.5410855 2775:2.8717532 2777:1.3647509 2786:1.3391964 2787:0.0030528009 2792:0.54841292 2793:6.5584435 2812:0.64028108 2817:3.4790971 2826:1.6746812 2844:0.37385398 2857:2.4145203 2865:2.7904968 2874:4.1016951 2882:2.2179041 2887:0.52800715 2888:0.53698993 2894:0.85558277 2896:1.6567103 2898:0.31173092 2907:0.77669609 2909:4.1041389 2910:0.31711659 2916:4.7442942 2919:5.1261349 2924:2.5942051 2925:1.0968993 2937:0.61166644 2941:1.1825192 2944:0.17540801 2949:2.5150223 2957:3.915025 2966:4.2184591 2971:2.7629461 2990:1.4446902 2993:2.204596 3010:0.15465388 3021:2.0622852 3022:1.7037768 3028:1.7218337 3035:1.3212256 3056:1.5882777 3068:3.6931674 3070:1.4324702 3072:3.449929 3080:0.12944707 3088:1.8598144 3094:2.9211802 3105:4.8981562 3116:2.0078237 3119:0.053841114 3124:0.33827114 3129:1.2249706 3144:5.7645884 3150:1.2782086 3151:2.9825695 3162:1.0526447 3165:1.1574905 3180:0.14971446 3183:5.5090299 3184:0.6184653 3192:2.746074 3195:0.52053571 3200:0.25174499 3215:1.5553075 3218:1.6606727 3241:4.5438356 3246:0.7404772 3257:1.6819944 3258:2.7420993 3260:4.142333 3262:2.2947459 3266:0.51998007 3267:1.1333892 3268:2.540642 3275:2.3617115 3277:1.4693909 3278:0.82200229 3284:1.7340479 3286:4.785687 3291:1.4359343 3293:3.4981518 3294:1.0693532 3315:1.7412171 3321:3.8609223 3324:0.086198688 3329:0.85033023 3334:3.5660276 3335:2.7188423 3338:1.9974055 3349:5.4192348 3372:0.65332627 3373:1.6604238 3377:0.58004123 3382:1.8658887 3394:0.10327178 3395:0.26428026 3401:2.1920297 3413:4.1547794 3422:0.3821649 3426:0.99794364 3436:5.9516764 3441:1.7757908 3443:3.3685791 3450:4.1196585 3452:1.8680297 3456:0.89364219 3467:2.0741391 3468:3.2976778 3469:0.50488085 3478:0.51335192 3485:4.8122921 3489:1.1143103 3491:5.1228805 3493:1.8319273 3501:2.0531347 3508:1.2258866 3509:4.1940627 3527:0.72851729 3537:2.1542211 3539:3.9037716 3540:0.070206851 3556:2.5351489 3560:1.7254887 3564:0.97297597 3572:2.9505248 3577:0.82699037 3578:1.3627995 3585:5.0566449 3586:1.1941909 3589:0.50819564 3592:4.2634201 3601:3.4680946 3604:3.2618091 3606:4.5070238 3609:1.9197855 3611:0.13751523 3626:0.98277402 3629:3.4555082 3631:2.2544312 3635:2.5387337 3651:0.26856801 3652:1.4278569 3667:3.8366773 3669:0.22843531 3670:1.1171398 3680:2.4642396 3682:4.523993 3683:6.3239732 3687:2.0145745 3696:0.31629241 3698:4.120616 3703:5.3403096 3712:2.1289389 3713:1.6798673 3720:1.5446174 3721:1.2915213 3732:1.5089136 3735:0.72959673 3747:0.21384579 3748:4.5581245 3751:3.4785163 3758:1.3442473 3763:2.1541207 3778:3.2345335 3779:1.6798441 3796:0.81913197 3806:0.98842418 3840:0.0033211112 3844:4.1858191 3848:2.013943 3857:0.77817005 3880:1.5343566 3891:4.6987391 3893:1.3502357 3899:3.2406731 3901:0.16937935 3903:0.93634641 3907:1.6391633 3914:2.9882782 3915:2.5818691 3923:7.4268413 3930:0.30699661 3942:0.97560108 3957:4.2558002 3974:1.0404873 3977:4.3279605 3978:2.6797836 3983:0.18066867 3984:0.63030207 3990:0.21918625 4000:0.08680293 4002:2.1680305 4010:3.4023726 4018:1.4559588 4033:0.53193718 4036:1.213747 4038:3.8486018 4043:2.8933661 4045:0.51435554 4046:3.5747759 4058:0.79549491 4059:3.1855128 4068:3.2637832 4074:7.7797275 4076:2.9374518 4084:4.1974483 
0.9288701203967672 15:0.42312801 24:0.056956947 27:3.1885874 31:0.78885388 39:1.1330879 40:6.9769349 45:2.2497201 49:1.1018316 60:0.21457881 68:1.2664042 84:1.8584094 91:0.12354378 93:0.86968857 100:0.93287063 103:1.525367 107:0.18216392 109:0.66072237 111:0.015289128 112:0.6004703 123:0.71486187 125:5.1787772 131:0.47076198 146:0.22294022 164:0.61621392 167:1.6519425 171:3.3374834 172:2.9445589 174:1.7966492 176:0.37833416 181:3.2780704 185:1.5176677 187:1.5785694 188:2.9047728 191:2.9666779 196:1.7694676 200:2.902648 210:5.2487273 216:1.9742997 217:3.6579616 218:2.9294558 221:2.4043007 233:1.2780156 236:1.5334535 239:1.4529966 241:0.87143874 242:1.8338704 247:3.4309521 252:3.2938857 259:0.31376913 267:1.8711954 269:0.31955022 274:0.24225742 291:0.43577856 292:0.57093853 302:0.051385313 312:2.1517735 316:0.54632068 320:0.89286047 324:4.7533851 334:0.15279333 335:2.2645872 341:1.0413299 349:0.30932882 350:0.64827281 351:1.6445692 353:2.6621766 356:0.18856183 358:0.011136353 367:0.77797371 369:0.40350601 374:0.2481955 378:4.266417 379:0.8561185 382:0.20562382 384:3.1818564 385:0.6277616 391:3.1661305 400:1.5409243 404:1.2093496 420:2.2034438 431:5.5170627 435:2.4509823 439:0.51198071 440:0.36670604 442:0.77538377 460:1.8902586 463:3.5898738 468:0.090061486 472:2.8519986 488:0.19711167 490:0.63355434 492:0.28469056 494:2.1649499 495:0.049162954 496:3.884012 511:2.0208993 515:5.4556026 518:2.4849267 526:1.1804186 531:0.14931113 532:0.93139517 538:0.76732713 545:4.5150805 554:0.96971714 562:2.4677899 570:3.1433628 572:1.594395 575:2.607754 576:2.7225628 584:0.18229048 592:1.2034593 594:1.218735 602:0.43724507 606:2.1045895 608:1.179567 609:1.5756255 612:4.2950072 635:1.0414135 636:0.26689273 644:0.29283556 656:3.0182874 657:3.5967243 667:0.70944715 669:0.20494218 672:2.3756399 675:2.7272346 677:1.0508137 680:4.2438884 682:1.2539573 687:0.64931977 699:0.83902407 701:1.5111557 702:5.2598338 705:1.0979702 706:1.0072367 711:3.6772029 712:1.0007622 718:1.6987336 721:2.0268302 723:2.7554517 724:2.7828104 725:0.63540602 748:3.6154132 751:1.5849212 755:4.6395378 758:0.455226 764:3.4705448 766:1.542379 771:0.6236968 773:1.3408259 776:0.69653964 777:2.3527257 785:0.87831432 789:0.51711977 791:1.3931366 794:4.7378821 798:2.2730374 799:1.1334249 811:0.70068264 812:0.32890165 823:1.8868843 825:0.36978048 832:0.39253524 834:1.5146145 839:4.1140022 848:0.76496607 865:0.6292038 866:1.1567938 868:3.8581877 876:4.7160535 885:1.832114 897:0.37633872 902:1.3640053 904:2.0188203 905:1.7486103 909:2.3807318 910:1.070524 912:4.3056717 919:0.57201678 924:0.74444675 928:4.6397777 930:4.8540006 931:0.20486167 942:0.075390816 945:1.2445284 947:3.211813 958:1.3418981 965:7.6469851 968:3.024143 970:1.7522748 979:0.11928058 989:0.92956364 990:0.43154988 993:0.89411306 994:1.8862363 996:1.4042941 1014:1.9454616 1018:0.55518347 1019:2.609827 1021:2.6818824 1030:1.7402768 1037:1.3474212 1043:0.2124828 1047:3.4965465 1058:7.7867627 1070:3.0909128 1077:0.87232584 1078:3.3381209 1092:4.36447 1096:0.41194808 1099:0.1258972 1100:0.98800343 1106:1.7090628 1117:3.1505325 1125:3.4759483 1130:0.020064004 1139:0.32115632 1140:3.2312503 1144:0.74587142 1154:0.027169071 1160:0.68502945 1163:0.37531251 1165:0.27256617 1170:0.073490001 1175:0.097233161 1192:5.0962243 1193:1.6729469 1206:1.3745602 1216:1.1302328 1217:1.0328536 1219:1.2268381 1223:0.40081146 1227:0.91149056 1234:1.1251209 1242:4.2904563 1269:1.8321822 1271:3.2808728 1276:1.0029777 1277:0.02546314 1278:4.2679291 1279:2.3672063 1281:4.5800819 1282:0.68446338 1285:1.037641 1286:5.1463747 1287:2.2877276 1290:0.38244969 1299:0.0080608428 1313:3.2295699 1331:2.8090949 1333:0.60601139 1334:0.1239606 1336:1.7961664 1341:0.34218806 1344:0.52403593 1347:0.41688436 1348:0.69786847 1361:1.0789299 1365:0.67686832 1366:0.95994544 1369:3.7723794 1372:2.0960982 1378:0.36659443 1387:1.2115549 1389:1.69608 1391:1.2973343 1397:0.99624431 1401:0.72428387 1406:6.9821277 1408:3.6002271 1409:3.3747234 1410:5.0667124 1424:6.6821694 1426:1.5877436 1428:2.7107823 1433:4.4641395 1460:2.0274372 1465:3.7847438 1474:1.2429059 1476:3.8139882 1483:0.50629389 1487:3.9331574 1488:1.1210849 1489:0.63727641 1492:1.0983849 1493:1.5927849 1495:4.5759254 1502:1.0842047 1513:0.46026975 1515:0.76730299 1518:0.57748598 1522:0.055030286 1523:0.048457503 1526:0.36404651 1528:2.7077065 1548:0.17094713 1556:1.1524596 1562:2.5764565 1572:0.15983418 1574:5.9120631 1577:4.3925705 1582:0.9548313 1586:0.032563239 1587:5.6222558 1588:1.2604233 1590:0.55853981 1604:1.297478 1605:2.1425214 1610:1.1792405 1613:3.5843589 1617:2.821645 1624:0.014669776 1629:1.0286822 1637:3.0203731 1641:2.191684 1647:4.1522512 1652:0.019603133 1657:1.7626507 1659:0.68873847 1661:0.43386689 1665:0.21243493 1667:1.1952085 1670:3.2275887 1672:1.7006171 1674:1.8181392 1678:2.4796102 1680:0.51546115 1690:1.3776706 1694:1.5474801 1696:4.399004 1705:1.6991909 1720:8.1939325 1725:5.9017539 1726:2.3525441 1730:2.4364552 1732:2.8114777 1733:1.4514585 1736:1.8570119 1746:3.5528326 1750:0.980223 1758:2.2117159 1765:0.43655828 1767:1.0008373 1774:0.34490362 1778:0.25314555 1780:0.51658726 1781:0.072950959 1786:0.21422863 1788:1.0036466 1790:1.2788012 1795:3.0085309 1796:0.2983129 1798:1.635627 1799:0.62291551 1803:2.2548089 1806:1.4798138 1812:4.0728197 1813:0.14731096 1819:0.41054556 1822:2.4778867 1825:1.8724543 1826:0.37023127 1832:6.3470731 1842:1.9370556 1846:1.4521816 1852:0.75362062 1855:1.994795 1872:8.2950525 1880:0.86736441 1896:0.12039983 1897:2.9095922 1898:2.1509507 1900:3.3117805 1901:1.0972934 1921:0.53056359 1926:0.68067706 1928:1.2196949 1935:0.72661519 1938:3.3949389 1963:0.97282934 1968:2.0365455 1972:6.1611986 1977:0.33022377 1989:3.0745249 1998:0.15749937 1999:0.11349678 2001:0.15422699 2005:1.9697034 2009:4.1877785 2014:1.1346481 2028:3.7719212 2034:0.42089015 2035:1.4559655 2038:0.34661403 2041:2.4563859 2042:1.7301453 2048:1.0984325 2058:0.35215938 2059:0.59579039 2066:1.6745269 2070:0.98761201 2074:5.0009985 2081:0.63102907 2082:1.1435759 2085:2.361604 2094:5.2470717 2097:0.5533464 2099:0.3726896 2100:0.27614301 2101:1.70977 2108:0.73442674 2110:0.3965334 2116:3.1484859 2117:1.4571086 2119:0.67014658 2148:2.1199298 2151:0.39021707 2153:1.3681823 2177:1.5766166 2179:0.74974871 2186:2.3423226 2187:4.4718456 2190:6.1521349 2199:0.18142331 2221:0.88782167 2223:4.4650383 2229:0.36626914 2239:4.8941531 2243:4.8360968 2244:1.6711299 2245:2.6328695 2254:0.4280993 2257:0.95158064 2262:4.4937763 2267:0.65337431 2271:1.4612639 2275:1.7419136 2280:1.8847338 2282:1.2629793 2290:2.7792099 2298:2.4596629 2312:1.0568244 2313:0.79329205 2315:0.76833832 2318:4.2971725 2320:1.7076998 2331:3.3167067 2333:5.0121913 2338:0.43708798 2340:2.8038659 2343:0.94175023 2350:0.043342948 2358:0.77339196 2364:1.5984256 2372:3.5329001 2376:3.5691991 2378:2.2257428 2382:2.2797596 2383:2.1425536 2386:1.5388119 2390:1.5511053 2399:0.76892829 2400:0.087632403 2410:0.91670609 2417:2.6002731 2423:2.3618455 2431:2.3499091 2434:0.07376197 2436:0.30673459 2437:1.7935683 2457:3.0532041 2460:0.84873861 2470:3.2125795 2471:1.3648895 2473:2.5274923 2481:3.2372561 2488:1.1700158 2505:0.58064806 2506:1.0435946 2507:3.9454186 2508:0.093866691 2512:1.6251389 2516:1.4086156 2520:1.3470143 2521:1.2248774 2526:3.9721603 2531:3.265697 2545:0.72650373 2551:5.0087886 2561:1.3677464 2563:0.51413214 2568:1.0756204 2571:1.439324 2574:1.4542754 2577:5.8763304 2582:0.33264697 2589:1.086993 2598:0.91891587 2604:1.6867534 2610:0.81035995 2611:1.1388001 2612:4.0669789 2621:4.5958686 2625:1.1709344 2626:1.0611684 2636:2.7118089 2637:0.10133108 2642:4.4084783 2659:2.7488434 2667:3.5775719 2674:1.1259249 2692:0.5325911 2708:0.69874752 2709:0.46774089 2713:1.3996301 2714:0.040059149 2717:0.93604279 2721:4.2428846 2732:0.87306762 2735:2.2900193 2745:7.6046553 2754:2.4652355 2760:3.0722587 2761:2.0099611 2765:4.230895 2766:3.5511267 2777:0.63534367 2778:3.3336005 2786:1.5952392 2792:0.42557341 2793:4.6132197 2806:0.19669697 2826:1.4730349 2834:0.26341948 2841:2.9339292 2851:0.43223506 2857:1.4780849 2873:0.26097873 2874:1.0433354 2882:4.9751353 2887:1.8446832 2888:1.2201964 2895:2.3079765 2903:2.2901664 2909:1.6782737 2916:1.1271216 2919:0.95762587 2931:0.13139459 2932:1.6356232 2949:0.24472056 2958:0.1884117 2962:0.22894067 2971:0.15539943 2978:3.38255 2985:0.46182236 2986:4.2049775 2990:1.0374202 2993:6.5342231 3022:2.9776816 3023:0.10802901 3033:0.079003289 3035:0.82211035 3036:1.3992963 3044:0.068973273 3056:5.2910309 3062:0.38934726 3068:2.3021345 3072:1.0087684 3085:3.244071 3087:0.73017061 3092:1.1960316 3105:2.8037751 3111:4.6442866 3119:1.9512007 3129:4.7141347 3141:2.4555814 3144:2.2398918 3150:0.26733288 3151:2.9102044 3152:2.0864441 3155:1.7378041 3161:0.14586782 3170:3.4530733 3172:0.48668498 3178:0.51983154 3198:1.0348163 3215:1.8778579 3221:1.4678074 3238:0.59825534 3241:3.2011166 3253:0.72763312 3255:1.2301347 3258:4.2988019 3264:0.79797411 3267:1.6349413 3268:4.2479577 3275:0.58707529 3277:2.4836302 3286:4.1248431 3291:5.1520081 3295:0.88175946 3298:1.1078537 3300:0.00017040968 3310:0.040753879 3321:3.7733467 3323:0.22731808 3334:8.2715464 3338:1.0817389 3349:2.7455385 3356:0.56478763 3366:2.9047401 3367:0.055663571 3373:2.558136 3382:0.48805395 3394:1.4593956 3395:3.9629865 3396:0.93981361 3401:0.35309786 3413:4.4396071 3418:1.5650718 3422:0.64895147 3436:6.5176692 3442:2.4877312 3446:0.19722974 3450:0.77331799 3467:1.6810871 3468:3.4968078 3474:0.31221503 3481:1.9972689 3485:2.3679657 3491:5.1101222 3500:0.11285222 3501:0.62996346 3502:0.46634096 3507:1.2838604 3508:1.069098 3529:1.8595569 3537:0.50745416 3539:6.0367656 3540:2.1612327 3544:1.8428206 3548:0.76462471 3549:0.95971692 3554:0.22628891 3556:0.28013784 3560:1.0457144 3564:3.5709856 3569:0.28716025 3582:1.5086895 3584:0.75031233 3585:4.254035 3588:2.1726701 3592:0.43212986 3602:0.31694055 3606:0.38497216 3609:2.1814661 3611:0.50673658 3614:4.0677032 3629:2.0467286 3631:2.5369651 3635:3.9582293 3644:5.9382505 3650:2.9777472 3657:0.34932563 3666:0.46435076 3667:0.20932463 3669:0.52453029 3670:2.5632079 3675:2.847261 3682:4.0069637 3683:7.1973252 3687:1.3575735 3689:3.861264 3690:0.76944065 3696:1.5675917 3698:0.2966671 3703:2.2290316 3720:0.63137615 3729:0.26444981 3732:3.8865993 3735:1.2351671 3746:1.7851968 3748:2.6013887 3751:2.5140946 3752:4.1147823 3753:2.9248133 3755:0.58175242 3758:0.09534049 3766:0.2428745 3768:0.92740393 3769:0.46811956 3771:0.13505274 3777:1.8683072 3778:1.0336989 3791:0.25545025 3793:1.2007105 3806:2.0546875 3819:0.059838414 3839:0.64522111 3867:1.6677767 3869:1.5857029 3871:2.1271782 3891:2.6062629 3892:0.71830845 3893:1.5212733 3899:0.68252838 3901:1.2551987 3903:2.5437829 3907:1.1522592 3913:1.8749192 3918:1.142695 3919:2.7749949 3922:2.0441015 3930:1.7884352 3933:1.3105916 3935:0.62446094 3946:0.66637743 3957:1.5808054 3963:0.42169935 3972:0.44753125 3974:0.97377586 3978:4.649766 3981:2.2786188 3982:2.0810516 3983:3.3752279 3984:1.7927606 3988:1.4541389 3997:0.99427414 4002:1.8584411 4004:1.2649224 4010:4.0076346 4018:3.7499487 4020:0.0250642 4032:3.7941432 4033:0.6628204 4036:1.4554303 4038:4.1073318 4045:3.6338098 4046:3.151407 4050:0.28827864 4055:1.6103864 4058:4.1884298 4068:4.0371881 4074:4.707551 4076:1.3948426 4084:5.5982714 4089:0.89454544 4093:2.3113186 4095:0.74254727 
