svm_type c_svc
kernel_type rbf
gamma 0.000244141
nr_class 2
total_sv 127
rho 0.205629
label 1 0
probA -5.44623
probB -0.430286
nr_sv 58 69
SV
0.366868061203906 4:0.54718781 15:0.3553707 19:0.76592553 20:0.18457067 24:0.67722809 27:1.6186188 34:0.22442546 40:3.1527379 43:0.49852547 45:2.3265796 49:2.8718896 54:1.8651996 62:1.3409331 68:3.6633043 69:3.6328025 77:0.81945139 84:4.2694583 90:0.65813696 94:3.7545812 102:2.5766838 108:1.7681571 110:2.5028076 111:1.9299718 112:0.68019068 114:1.6951201 125:0.53710687 126:0.94816869 130:0.295748 143:1.051033 144:1.1435122 158:0.41453871 159:0.9303596 164:1.2998372 167:1.0096679 171:1.2532085 173:2.6401303 176:0.17632002 180:2.308558 181:3.2460456 184:1.8156199 186:1.3030325 188:2.4896922 191:0.94068152 196:0.56404209 199:3.6679678 200:5.9627843 205:0.9936595 210:1.3438127 217:4.8144093 218:0.8162297 222:0.55329919 223:0.86504018 234:1.3991556 236:0.032052144 238:0.52619416 239:0.11474447 240:4.1599789 241:2.4441121 242:0.62749308 246:0.41429707 247:1.4037993 252:4.5056186 254:0.88925982 256:2.3141842 262:0.22991163 267:1.6086466 274:1.4831929 275:0.43283299 286:2.2297287 297:0.52307743 298:0.45403957 299:1.3223153 301:1.6071 302:0.40630981 304:0.7727043 311:1.4495157 312:1.2261747 314:0.89635837 315:1.6115239 318:1.1716473 324:4.7340932 328:0.11022577 333:0.028793633 335:1.7352061 338:1.5521245 340:1.0937709 342:1.6323708 347:0.95508957 351:0.022643864 353:2.8398371 365:0.80489618 367:4.9610291 373:0.19730833 374:1.2195227 379:4.0303583 384:0.90210712 386:2.4009223 389:0.12535489 391:0.53809977 393:0.013697505 397:1.9747012 404:1.5529602 408:0.69624591 414:0.04929471 416:0.49202284 420:0.31933245 432:0.063164532 434:0.99796569 435:0.32203019 436:0.46415484 448:1.8857892 457:1.5391876 459:0.12483752 460:0.81147015 463:1.4155298 470:1.0395112 471:0.18075737 472:1.4936041 482:0.8093152 484:2.0816119 487:1.1543329 493:0.58036172 494:1.3588939 495:2.2467604 499:1.4206741 502:1.5047386 505:0.086194903 514:2.1551404 515:1.9015388 526:3.1438937 527:2.2131484 548:0.32737005 549:1.3640358 559:2.1220782 562:2.4870367 570:2.4951508 571:0.42505303 576:0.44520918 578:0.60029805 589:1.7627157 596:1.1292276 600:0.76233673 601:0.15732411 603:2.5615637 608:0.015297331 612:4.7036548 626:0.50870836 628:0.30590853 633:1.0180424 635:0.37595469 637:1.348244 641:4.7243037 642:3.2593226 656:1.6065054 662:0.79244471 667:2.8656955 670:1.0716882 672:0.88786703 675:2.5824142 676:0.11863446 681:1.8074875 682:2.0039451 684:0.54257882 689:1.9328741 691:2.0879729 702:4.4003992 705:0.89967179 706:2.7277369 711:2.8117678 712:1.0103755 717:0.8693465 718:0.78743923 720:0.18479854 723:1.0048077 725:1.7370625 726:0.68960214 730:1.3546654 736:1.5895126 742:0.98655653 746:0.93672127 748:0.86106932 749:1.5462234 750:0.50991952 755:0.045299158 758:0.74736816 759:0.67213511 776:0.51851392 786:0.43922392 799:1.4806689 807:1.5377336 811:2.3442638 812:3.6044624 820:1.2508115 826:0.80121249 839:3.6279185 840:0.87980926 841:1.758101 842:0.81942761 857:0.14475092 867:1.5662029 868:1.8036385 874:0.7647773 876:0.68114799 877:0.79429066 878:0.21079689 882:0.80285269 883:0.14648372 885:1.1255779 889:0.95878088 894:1.2412378 899:0.30571765 902:1.2622571 904:1.8798777 905:1.2150339 908:2.4569194 912:4.6261086 916:0.0081324503 919:1.0209998 924:0.48328999 925:0.17523068 928:0.80492115 929:0.44441724 931:1.2199343 936:2.3836913 941:1.622225 942:0.49974436 945:0.55372262 948:0.27498496 949:1.7810547 954:2.6796534 958:0.19076386 959:2.207464 965:6.0412216 968:2.1806657 974:2.2920499 976:0.18693891 993:0.0097958148 1001:3.4962671 1003:0.86628902 1004:1.9637182 1018:1.2625487 1019:2.5352898 1022:2.7071519 1027:0.12620685 1030:2.4290833 1031:0.27503121 1042:0.80584127 1056:0.22267845 1058:1.384945 1062:3.6339762 1064:1.9359212 1071:0.71921176 1074:1.9125984 1080:0.098215163 1092:2.7713528 1094:0.46963072 1095:0.84614778 1096:3.0293033 1099:2.0105562 1102:0.95578849 1105:0.69694269 1125:3.1457677 1137:1.2587776 1139:0.1659947 1140:1.2942892 1144:2.8819909 1149:1.639358 1156:0.06207541 1163:1.0435855 1165:5.0393224 1170:3.6450675 1171:0.63842463 1175:0.30180228 1176:0.86315638 1179:0.66160226 1180:0.46893641 1182:0.31801322 1186:1.1994535 1189:5.4704766 1192:5.3709631 1206:1.8387387 1215:2.8164179 1216:2.061538 1219:0.81119406 1220:1.4192827 1223:0.64645708 1228:2.9655137 1231:1.2717032 1234:4.0013227 1235:0.58317417 1252:1.0527948 1253:0.78840882 1259:0.60100567 1260:2.1214664 1269:1.246593 1271:1.3501825 1274:1.2003719 1275:0.14045803 1278:1.4507542 1279:2.4481878 1286:4.8238068 1292:2.951793 1293:2.3175323 1302:2.5351295 1304:0.99407554 1306:0.43451169 1313:2.672174 1314:1.2475723 1327:0.51371241 1336:1.1640161 1340:0.66221058 1342:0.62058288 1347:1.5394982 1348:1.4843241 1349:2.2272389 1356:0.70224786 1357:0.65748703 1358:2.0127997 1366:5.3713403 1369:1.4908801 1372:0.53402436 1376:1.2349554 1378:3.1787078 1379:0.27071524 1387:0.44970739 1391:2.5247402 1393:2.2153199 1396:2.7475402 1397:2.0729175 1400:0.19755572 1401:2.009172 1406:5.2222524 1410:4.0100522 1419:2.4577808 1426:0.022570968 1431:0.079696655 1432:0.16253382 1435:0.54025376 1441:2.5136566 1446:0.099611342 1456:0.16200727 1458:0.43496537 1465:0.99498367 1469:0.75068921 1476:3.9037433 1477:1.879047 1487:0.74193847 1488:3.3965695 1492:0.55049872 1503:1.9181716 1508:0.14102516 1509:0.70751548 1511:0.25164101 1513:1.3954329 1515:2.8035893 1518:1.5470432 1520:0.15013367 1526:0.43766618 1538:0.92860746 1544:0.19926751 1551:1.2544526 1556:1.1390896 1560:0.19060336 1566:1.9723971 1569:1.687993 1571:1.0612077 1573:0.69311774 1577:2.196183 1582:6.5280704 1583:0.35347185 1587:2.2581372 1588:1.4927841 1590:3.1717427 1593:0.001166597 1600:2.2833877 1601:3.0160215 1604:5.4546542 1613:2.8852525 1625:0.74048495 1628:1.7989132 1629:1.2186284 1636:0.25614011 1637:1.7748669 1640:0.97120428 1646:0.92520446 1648:2.8274074 1657:0.0076288581 1659:0.23470096 1661:0.5508678 1664:0.022094578 1665:1.0141433 1667:1.1249008 1673:2.215708 1675:0.81204909 1677:2.0892456 1678:1.4029136 1680:2.1875162 1690:4.3438048 1691:0.41505978 1695:0.52201605 1696:0.92206609 1700:1.6320171 1703:0.0090296865 1705:0.31654319 1710:1.7157314 1718:0.43696758 1720:1.0783492 1724:1.2348275 1725:1.620044 1726:1.5093293 1730:0.11654156 1732:0.35384834 1733:0.31432581 1736:0.1630615 1737:1.2983527 1742:0.67996252 1756:1.7429295 1758:5.3208418 1762:2.9883244 1767:2.6338017 1780:0.81187111 1784:0.1817582 1790:4.2942243 1794:0.95479661 1799:0.49872366 1803:0.15466288 1804:0.45725751 1806:0.96738076 1811:0.63071585 1812:2.3574457 1819:0.96619034 1824:4.6078591 1825:0.20773056 1828:0.1316185 1830:1.4247049 1832:3.9224689 1833:1.7984675 1840:1.0343597 1842:6.15203 1846:0.78916883 1848:1.1008453 1850:0.87212062 1851:1.3741314 1852:2.6491444 1855:1.4462065 1856:1.9158856 1857:0.86361241 1862:0.72099882 1872:2.0501721 1878:0.5586971 1882:3.3282437 1897:2.1990938 1898:2.446707 1901:0.53108889 1904:1.1259525 1905:0.76585466 1909:1.9842994 1911:0.37776521 1912:0.36381918 1926:0.10985491 1928:4.7953634 1935:2.1135292 1938:2.2157571 1953:0.50571895 1963:0.66791064 1968:0.8506791 1972:1.5247924 1986:2.3790383 1999:0.034416497 2000:1.1201043 2005:0.927472 2009:0.66950792 2011:1.3161129 2012:2.0269265 2029:2.2629778 2031:0.32760215 2033:2.3381791 2042:1.8165283 2047:1.1666049 2048:3.7316158 2057:0.27423072 2058:4.0933437 2066:1.2794356 2070:0.3488833 2075:0.92010325 2083:0.69964969 2085:1.4015431 2100:5.2332368 2105:1.4764541 2113:0.61392337 2117:3.3725977 2138:0.012035576 2144:2.2048516 2149:0.33615708 2152:0.34905285 2153:0.7524395 2160:2.6490805 2165:1.4230549 2166:1.6078682 2172:3.2580032 2179:0.27651799 2186:1.5485802 2188:2.7600598 2196:1.4604118 2204:0.66725463 2214:0.8200134 2218:0.59396273 2220:0.2603797 2223:3.8295021 2224:0.96046746 2237:0.38033342 2239:2.702822 2241:0.34644017 2243:0.46476141 2244:0.54273516 2245:1.1416153 2246:0.72424948 2247:0.00957793 2249:1.1846623 2250:0.88102984 2253:1.6841017 2262:2.2122529 2267:2.5683162 2270:2.5873466 2275:2.1980572 2282:0.48082983 2286:1.344956 2292:0.51178324 2294:2.0856521 2302:1.0857012 2303:0.14941168 2317:0.16969466 2319:2.4890642 2322:1.0377576 2327:3.63188 2329:2.0429168 2331:1.8109816 2332:0.02751112 2333:1.4970449 2337:2.1632965 2346:0.83677495 2350:0.25403956 2357:0.43871766 2369:0.59234822 2372:0.97018063 2400:0.092024907 2417:1.1715915 2418:2.2915387 2424:1.6674321 2428:2.7702708 2431:0.62869072 2434:2.5041511 2435:2.2535343 2452:0.51069814 2453:0.65747917 2457:2.1431799 2458:0.93199813 2473:0.014402777 2474:0.077714026 2487:1.3949368 2501:2.2981937 2504:1.9529738 2507:0.69689322 2508:0.57568139 2513:0.13836455 2514:0.44896993 2516:1.6179159 2520:1.952364 2522:0.39686832 2526:4.3821173 2529:1.4739012 2533:0.52772915 2535:0.1909585 2536:1.3804021 2547:0.64198285 2554:0.90852207 2561:2.0855546 2570:0.60390425 2571:0.13757695 2574:2.9378815 2575:1.1678413 2577:0.94012213 2578:4.2512984 2589:1.5628901 2590:0.24284601 2591:1.7549591 2592:0.62148273 2594:2.623132 2596:0.1529364 2599:0.48186526 2603:0.38175404 2614:0.0084186867 2621:0.60509521 2636:0.13498595 2639:1.8872061 2640:0.811454 2642:1.3174231 2649:0.9544844 2651:1.5098498 2654:0.041123211 2656:1.393998 2660:0.067263782 2662:0.60596663 2667:1.1896886 2672:1.4640061 2678:0.54261422 2687:0.35757196 2688:3.2747705 2690:0.39153215 2693:1.5282673 2694:0.32707739 2695:1.4595765 2698:0.40223604 2701:1.6440908 2704:0.29603016 2706:0.0182136 2708:0.7055347 2714:3.6460776 2718:3.1461749 2723:3.3908901 2732:3.8436449 2740:2.5041623 2741:1.5934999 2743:0.053546339 2745:4.7282529 2752:0.23454332 2765:1.6103888 2766:3.9705369 2771:2.455795 2777:0.6764946 2778:3.5901582 2789:1.7042329 2793:5.310864 2795:0.49887368 2814:0.87662649 2816:0.28732991 2818:1.5062364 2821:2.9880614 2825:4.826396 2828:1.564514 2831:1.4993292 2834:5.8449645 2837:0.54811203 2838:0.28104156 2849:0.075785667 2857:1.6983052 2860:1.3115294 2870:5.0447836 2873:4.2013106 2878:3.647512 2882:5.5693049 2891:0.49833739 2895:3.0594146 2896:1.6714107 2898:2.5765545 2909:3.1582754 2910:4.0877838 2917:0.90456468 2919:4.2566147 2929:2.2290878 2931:1.9855325 2932:0.4776665 2937:1.326664 2938:1.2922264 2940:2.9930844 2949:0.54138988 2950:2.8953588 2953:3.2412395 2958:0.64201707 2965:1.012014 2968:2.2366855 2978:1.3329191 2979:0.71923339 2985:0.092340678 2986:0.12071361 2995:0.039166749 3005:1.8643078 3013:0.64729905 3033:1.6162697 3034:0.094088256 3035:5.0661063 3036:1.8750745 3037:1.5845675 3046:0.025856048 3056:3.8196478 3057:0.093733341 3075:0.33541435 3081:2.1583898 3085:3.7363672 3092:0.94765055 3094:0.88617468 3105:4.8934135 3114:3.1367457 3124:0.97364485 3129:0.039536774 3144:4.7102861 3146:1.1636834 3147:1.3854467 3150:2.1054304 3151:2.283371 3152:1.0987623 3154:3.023294 3155:0.47638756 3160:0.50162023 3162:0.93120831 3166:3.1778238 3179:0.9691841 3182:1.1557747 3184:3.5308654 3198:0.22474831 3199:0.12669268 3205:0.035012066 3206:1.0344732 3207:2.0153885 3213:1.7847385 3219:0.30614719 3236:0.75203723 3242:0.48320651 3245:0.16808128 3247:1.1178848 3249:0.18269759 3258:1.9902477 3260:0.38429686 3267:0.14776364 3268:2.667623 3274:1.302182 3275:2.5434375 3276:0.72542286 3278:0.21325821 3282:0.028033108 3285:3.4436331 3286:3.3828368 3291:6.9563522 3293:0.35501316 3295:2.034457 3310:0.38834205 3334:5.0668335 3344:0.69969928 3347:0.73746288 3349:4.1150484 3351:0.55147386 3355:2.1931677 3356:1.3097006 3359:1.1144481 3367:0.42206985 3377:3.5673544 3378:0.97740537 3386:1.982308 3388:0.19271742 3394:0.5387876 3396:0.37365755 3399:0.8901881 3407:1.6872013 3411:2.2175829 3413:1.5740654 3423:0.027098864 3424:0.9595952 3431:1.9325556 3442:0.77183688 3444:0.66593552 3448:0.56849754 3449:1.5538793 3456:0.38292694 3460:1.2237177 3467:1.982071 3468:2.5802288 3479:0.30449271 3482:0.91173583 3486:1.5122027 3491:3.6693718 3493:3.150538 3494:2.3835044 3496:1.2435305 3500:1.3269467 3507:2.2423589 3508:4.0775185 3509:0.082764074 3514:0.49423927 3521:0.77220023 3525:1.7362753 3529:1.9491546 3537:0.39398366 3539:1.6258234 3540:1.373916 3544:0.25821245 3548:0.46253824 3549:0.51357591 3555:0.46703047 3556:3.3543134 3560:3.3684988 3564:2.8821592 3565:1.2179137 3566:0.5042575 3569:1.8386225 3576:1.9047202 3577:2.111944 3582:5.6698194 3586:0.95467722 3588:0.8528378 3599:0.32820606 3604:4.2646985 3608:1.9050502 3609:0.5534963 3621:1.0715206 3624:2.7407591 3627:3.2979198 3635:1.1289999 3636:1.6422969 3644:6.5467768 3653:4.7510824 3657:0.29307202 3662:3.0137119 3666:2.1551313 3667:1.6423379 3675:1.7987597 3677:1.6439614 3683:0.91644025 3686:0.90443087 3689:3.041014 3690:1.9345231 3691:0.27748054 3692:3.2608809 3711:0.76882434 3715:3.187783 3719:1.8228452 3720:0.27624157 3724:1.7864964 3725:0.33396602 3729:2.2347558 3734:1.1956593 3748:0.23644115 3751:1.3179539 3752:2.6929822 3753:2.6026378 3756:0.3676492 3759:0.059778728 3766:2.7876225 3767:0.27758548 3768:0.22101232 3769:1.6264203 3771:2.0820272 3773:0.99287277 3776:2.4608989 3783:0.71922517 3793:4.0918145 3794:0.12194449 3803:1.1158243 3806:1.4907289 3807:1.855767 3808:1.2203352 3812:1.3957118 3822:3.1519747 3824:2.4399252 3825:0.2260094 3829:0.069889992 3836:0.83490729 3864:1.0454687 3872:3.7129877 3877:1.2511928 3885:1.7319092 3888:3.493655 3891:2.8277957 3892:4.9399652 3893:0.89969063 3896:0.63711154 3903:2.4163435 3905:0.097495914 3906:1.6809065 3907:1.1677687 3910:2.2957077 3915:1.3537878 3919:2.0947106 3923:0.52783096 3927:1.4047308 3935:0.97018933 3938:2.7655902 3941:0.075440481 3943:0.30611151 3957:1.9903783 3961:1.0076641 3970:1.0300142 3974:1.1848891 3976:0.5229665 3978:2.840446 3980:1.3540015 3982:1.3244836 3984:3.2998602 3992:0.86630678 3997:0.64650464 4003:0.0068768561 4004:1.7809162 4005:0.014236093 4007:0.50552338 4010:1.0636102 4011:0.69462866 4017:0.48671097 4018:2.5328345 4021:0.97556245 4036:4.9626288 4038:3.253839 4041:1.531649 4045:1.1569872 4052:1.1034508 4057:2.6400149 4063:0.22483359 4067:0.61596847 4068:0.017005278 4070:1.4731779 4074:1.9930564 4079:1.2864187 4084:2.8036401 4085:2.0367575 
0.3243481113441095 4:1.8780763 10:0.081866771 12:0.3338843 15:0.31020916 20:0.77499831 24:0.68064445 26:1.1856954 27:1.1374775 30:0.37375048 40:3.4721029 43:2.3229477 45:2.1431508 49:2.2715344 54:1.3236096 62:1.4303352 68:1.3588023 69:3.0028017 84:3.2154911 90:1.603905 94:5.4563107 102:0.61143452 103:1.2507343 105:0.087027222 107:0.92642677 108:2.6421547 110:2.3266618 111:2.6568751 114:1.6462306 125:1.3971727 126:2.3042521 130:0.24891666 143:2.0785224 144:1.3332163 159:1.9267367 161:0.17020604 164:1.2144594 167:0.15767124 173:0.95741487 176:2.4253583 178:1.4207585 180:3.53003 181:5.1498957 188:0.4162848 191:0.99751818 196:2.9029896 199:1.6201328 200:5.7999988 205:0.04229949 210:1.544158 217:5.7187324 218:0.97556418 222:0.2007632 225:0.31456342 234:0.85975146 236:1.1168754 240:3.3065033 241:5.7117081 246:0.2750541 252:5.226902 256:2.4544706 262:0.48817396 267:1.5332127 274:1.9342449 275:2.7764924 286:0.45609957 287:0.32233921 288:0.37390158 295:0.1037246 298:2.5304632 301:2.3056526 304:0.098130167 311:0.11183547 312:1.2076651 314:0.55431485 315:2.7567904 318:1.4828968 324:6.0196838 328:0.65472937 333:0.80374938 335:6.0288339 336:0.12423763 338:0.68624449 347:0.38238072 353:0.14568442 361:0.4027628 367:3.3128653 373:0.4829942 374:0.3772015 378:0.54032528 379:4.933404 384:1.6348977 386:1.5595932 391:0.50899565 397:2.5040083 400:0.20930073 404:3.3660419 408:0.89132774 414:0.95524025 416:1.6896008 420:0.25070736 428:1.7504506 434:0.45302171 457:1.1295373 459:0.83414567 463:2.0521307 470:0.16849089 472:0.47348177 481:0.085611761 484:1.0891929 487:1.706869 495:0.27516863 497:0.23696703 499:0.38666171 502:0.21717303 514:3.3827672 515:1.3149459 517:0.26562744 520:1.5984945 526:3.6274736 527:1.3351361 545:0.80055267 549:0.38917592 554:1.0809058 559:1.9190937 562:3.2692688 570:1.4046252 571:0.76793969 572:0.056991696 578:0.39609089 589:2.838501 592:0.7823289 596:2.0864525 600:0.5765183 603:3.513762 612:5.003686 616:0.17224005 626:1.2641504 633:1.0133377 635:0.60405535 637:1.284449 641:4.743494 642:2.1260478 644:0.1400032 656:2.4134867 667:2.2168167 672:0.28452253 674:1.3076575 675:2.1783717 676:1.1778321 677:0.6644448 679:0.200771 681:2.3324566 682:0.54439795 684:1.2951094 687:0.25780261 689:0.20121282 691:2.0899868 702:5.0068231 706:3.1623774 711:3.7427781 712:1.5924292 717:0.19063506 718:0.54134667 722:2.1106787 723:1.0060561 725:2.5630875 726:0.84941566 728:1.1843929 730:2.4769349 736:1.7972901 739:0.54186076 742:0.69547635 746:0.10840027 748:0.052369803 750:0.39137232 758:1.0156826 759:0.70501882 766:0.5620234 777:0.63689423 785:1.0462527 799:0.62800777 803:0.29599401 811:4.1633024 812:2.1674666 826:0.013813913 839:4.6983852 841:0.87219447 867:2.507143 868:1.2672284 874:1.1603131 876:0.23785833 877:1.8126589 885:1.7072611 894:1.924201 896:0.027178764 902:0.27024984 904:1.8121064 908:1.5233563 912:5.4880686 929:0.24233705 931:3.6094825 936:3.7182455 941:1.6188117 942:0.29872811 945:2.2072699 948:0.12710445 949:1.9898243 954:0.38403186 959:0.18695647 965:4.7510519 967:0.14276251 968:3.8909431 974:3.1865156 976:0.16604853 985:0.65948868 1001:3.6427093 1003:0.17864138 1004:0.86116099 1014:0.96724725 1018:0.29431069 1021:0.26099145 1022:0.47275671 1030:2.5658269 1031:0.90592402 1042:0.43222651 1049:0.15856054 1051:0.99619263 1058:3.4120431 1062:4.0827365 1064:1.1283954 1074:1.6166134 1080:1.0979345 1092:3.9194255 1094:1.3380882 1095:0.87245959 1096:3.9008968 1099:0.62514448 1102:0.56858385 1105:0.38494462 1106:0.64219153 1108:0.52295703 1116:0.016797408 1117:0.22732398 1123:0.21742114 1125:4.6405811 1137:1.786667 1140:0.9924767 1144:1.3352916 1149:1.870394 1163:0.30714816 1165:4.5113635 1170:4.9585447 1176:2.999428 1180:2.4154277 1186:1.4682561 1189:5.3073211 1192:6.5063396 1206:0.79302961 1215:3.3795452 1216:2.7912102 1219:2.4862425 1220:2.2576208 1223:1.7533802 1224:0.084525049 1228:1.5422965 1231:0.99835551 1234:1.0011402 1235:0.17134279 1252:1.5876923 1259:0.34095913 1260:1.0744274 1269:1.6957028 1270:0.81868976 1271:0.036768675 1274:0.48508215 1275:1.0085654 1277:0.06545458 1278:1.7594975 1279:0.54555166 1286:3.3453858 1292:3.0936344 1293:2.8340549 1302:2.643024 1304:1.8800675 1306:0.48551664 1313:2.868077 1314:1.9662656 1336:1.3032494 1340:1.1340653 1347:1.4327927 1348:3.1818426 1349:2.1769083 1358:1.2178388 1366:6.6166177 1369:3.1214876 1372:1.5614001 1376:1.5167435 1378:2.4001925 1379:2.5448589 1381:0.76182663 1389:0.0043181777 1391:1.805462 1393:2.2641087 1396:0.39257413 1401:1.5224031 1406:4.8209901 1410:4.9646006 1419:1.1441145 1426:0.49987379 1432:0.025843859 1441:1.5313878 1444:1.3281603 1446:2.9052582 1451:1.0305175 1458:1.4322176 1463:0.5784986 1465:0.91080916 1476:3.057251 1477:2.0395393 1487:1.2497755 1488:2.8380427 1503:2.1820765 1508:0.38032991 1515:2.3595781 1516:1.4681108 1526:0.050884843 1538:1.9174941 1551:0.22673672 1556:1.2225161 1566:3.7139583 1569:3.6628516 1571:3.4685941 1573:0.080484599 1577:3.9169908 1582:6.3318911 1583:0.86318135 1587:1.7222173 1588:4.2737598 1590:2.3768725 1600:3.3233747 1601:1.9229872 1604:4.3313727 1613:2.3354964 1618:0.74336898 1625:1.6309274 1635:0.62603331 1637:1.2822536 1640:3.1350477 1648:2.6295466 1661:2.3617334 1664:1.8716308 1665:0.33922091 1673:2.6990976 1675:0.87201363 1677:2.3287263 1678:2.1916704 1680:2.1363585 1690:2.4287105 1691:1.8152233 1695:1.2968221 1696:1.2796488 1700:1.0392447 1703:0.77327377 1707:0.26162091 1710:0.97182488 1712:1.2175711 1718:3.0120707 1720:0.010213882 1724:1.4720309 1725:1.8948889 1726:2.1177871 1732:1.7946347 1733:1.6409513 1736:0.45854709 1737:0.74391842 1742:1.0865463 1756:3.9423344 1758:4.6597281 1761:1.2083924 1762:1.2653832 1767:2.6888163 1780:0.12390891 1790:5.0871444 1803:0.14405638 1804:0.074039638 1806:0.85994315 1811:1.2888554 1812:3.7484181 1824:5.9859009 1830:2.0191939 1832:2.6039274 1833:1.717826 1840:1.2798151 1842:6.5385861 1848:0.031603813 1849:0.55441374 1850:0.36481825 1851:0.41124514 1852:0.63776684 1856:2.459615 1857:1.2853057 1868:0.073596597 1882:1.6192051 1890:0.5704422 1897:2.9872742 1898:3.4697971 1905:1.5250113 1909:1.1985955 1912:0.88494813 1926:1.0733076 1928:5.6147423 1935:0.63929695 1938:3.0183856 1951:0.031198978 1953:0.64285195 1963:1.2008847 1972:1.9527014 1986:1.709241 1989:0.9997974 1993:2.7630138 2000:1.3573766 2004:0.20737121 2009:0.78552699 2011:0.48933136 2012:2.4866581 2029:2.7632852 2030:1.6851329 2033:1.730726 2042:1.6351963 2047:0.27730882 2048:3.1004064 2050:0.42757785 2057:1.357944 2058:4.7435312 2066:3.0584545 2083:2.4346936 2085:1.0640936 2100:5.2733412 2105:0.90725976 2110:0.27445343 2113:0.4953745 2117:3.8292913 2120:1.2808656 2144:1.9434922 2153:1.4667648 2160:2.1609118 2165:0.36780232 2166:0.27332538 2172:4.3821926 2177:0.45691088 2186:1.5324939 2188:3.3812361 2196:3.0664244 2199:0.34006238 2204:0.28277153 2218:0.72122306 2223:1.9090251 2231:0.13752013 2239:3.7332063 2245:1.8341612 2246:0.25613484 2249:0.43171287 2250:3.414731 2253:1.3815379 2262:3.5036814 2267:2.4451447 2270:0.2596454 2275:0.28716028 2282:1.0495634 2286:3.1331229 2292:2.7829103 2294:2.5451369 2298:1.7692091 2302:1.4920219 2317:1.0796368 2319:2.4759808 2322:1.8073525 2327:2.8436363 2329:2.0126529 2331:0.88934004 2333:2.5303817 2337:1.5525508 2344:1.3467329 2350:0.60076296 2354:1.0166887 2357:1.7687708 2369:0.31217355 2372:0.96919739 2417:3.6622658 2418:2.4911628 2423:0.36043185 2424:3.5072734 2428:1.91696 2431:0.074381977 2432:0.5494473 2434:2.7931151 2435:1.8380051 2440:0.26506883 2451:0.041466057 2452:1.1313667 2453:0.57085001 2457:3.3361502 2458:1.3261278 2474:0.56839263 2487:1.6545835 2488:0.76352727 2497:0.18744303 2501:2.5007222 2503:0.1339778 2504:2.4914188 2507:0.4369382 2508:0.076848403 2516:1.0006669 2520:1.032828 2521:0.16967486 2526:3.2670207 2529:2.2699177 2535:0.44847393 2536:0.61271763 2547:0.51143384 2551:2.1251683 2554:0.59592742 2561:1.4716616 2570:0.59226608 2574:1.6525528 2575:4.5652843 2577:1.5760783 2578:2.5111444 2589:2.9537539 2591:1.6181651 2592:0.80811799 2594:1.4630914 2596:0.18328023 2599:0.3504045 2603:1.0408244 2610:0.68167466 2621:2.9233696 2624:0.051811218 2637:0.64500463 2639:1.2820807 2642:0.32787025 2656:2.1767902 2667:0.12775803 2672:2.6357291 2678:0.10946986 2687:0.48674858 2688:1.5792739 2690:0.27578756 2693:4.8175697 2694:0.5758146 2695:1.1627556 2698:0.83066821 2701:1.2291358 2704:1.402506 2714:3.159394 2716:0.4192611 2718:4.4883909 2723:3.6796036 2726:0.5773136 2732:3.2682316 2740:4.9919543 2741:2.1124802 2745:4.6114383 2765:2.3004699 2766:6.3142366 2771:1.8521781 2775:0.53289127 2777:1.4962211 2778:1.0188035 2784:0.45548403 2786:0.8073042 2793:6.5491581 2795:0.13443658 2811:1.1343184 2814:3.4440992 2818:0.025662545 2821:3.3529644 2825:3.558305 2828:1.1194015 2831:1.9443314 2834:4.3474116 2838:0.28720045 2857:4.2634091 2860:2.275914 2865:0.0054790378 2870:5.4766359 2873:3.5476232 2878:3.8752494 2882:4.1350002 2891:0.41482866 2892:1.4473112 2895:3.8714521 2896:4.156208 2898:1.5514743 2909:3.2097609 2910:3.9686151 2917:0.29315466 2919:5.8171988 2920:0.73658961 2929:0.011620283 2931:1.5930123 2938:1.9456432 2940:0.054749191 2950:4.8566675 2953:4.2216468 2958:2.2095575 2968:1.1485364 2979:0.88980436 2985:1.4075596 2990:0.2864854 2995:0.95974821 3005:2.6771441 3013:0.26734012 3033:1.4411054 3034:0.1327886 3035:7.3644395 3036:0.21413457 3037:1.8937778 3056:5.779089 3065:0.43108606 3079:0.53952837 3081:2.1331151 3085:2.7175634 3092:0.013766035 3094:2.4811931 3105:7.7700377 3114:0.72873914 3124:1.4260932 3144:4.6136646 3146:1.8211789 3150:3.0928843 3151:2.0744307 3154:3.8791318 3160:0.31474212 3162:0.63412726 3163:0.52963579 3166:1.3657851 3179:1.4656343 3184:3.5416667 3196:0.6892249 3199:0.34272835 3206:1.6286486 3207:3.5891316 3212:0.89188534 3213:1.9491311 3235:1.5462418 3242:2.9501519 3246:0.31996724 3247:0.47755349 3256:0.14892727 3260:1.672992 3268:3.1287966 3274:0.60843325 3275:4.2958775 3285:4.8350635 3286:1.3485421 3291:4.4760914 3295:1.5615132 3299:0.88065541 3306:0.18550889 3325:0.96381485 3334:5.1367159 3337:0.71533239 3341:0.52175063 3344:0.63969791 3349:3.2592995 3355:4.1725802 3359:0.80454904 3360:0.061826974 3367:0.64575285 3377:3.6166375 3378:0.19969857 3386:3.9708233 3396:1.1648065 3401:0.39439395 3407:1.5349274 3411:1.763936 3413:1.6889728 3422:0.12015767 3424:0.5234592 3431:2.2846549 3441:0.8823123 3442:1.2547714 3444:0.19983125 3446:0.14677382 3449:0.90996581 3450:0.60439306 3456:0.63406247 3467:2.3029461 3468:2.4682851 3482:0.84475076 3486:3.2054105 3489:0.12843202 3491:5.037776 3493:2.3200688 3494:0.47678709 3496:0.49187502 3507:1.7765398 3508:4.5739985 3509:0.18080556 3513:0.053376406 3525:0.13390622 3536:0.10664526 3537:1.0669656 3539:0.66465628 3540:0.93199086 3544:0.71274441 3545:0.27695033 3548:0.30278483 3556:2.5691452 3560:4.0048614 3564:1.1262742 3566:1.4212703 3569:0.43935886 3576:2.5152974 3577:4.0744739 3582:5.8657737 3585:0.73618412 3586:2.0570643 3588:1.3841599 3599:1.3794529 3604:4.3790355 3608:0.98553562 3609:1.5191929 3616:0.22154644 3621:4.0054159 3624:3.5309973 3627:2.916487 3635:0.93439478 3636:1.4289535 3642:0.79438794 3644:4.6125422 3652:1.0184462 3653:6.2673669 3661:0.020192593 3662:1.2372699 3666:1.8787026 3667:1.6600853 3677:2.1954243 3682:0.10883474 3683:2.9600892 3689:4.3334618 3690:1.3010612 3691:0.34120899 3692:3.9153004 3697:0.42419553 3711:0.31268302 3715:4.1997142 3719:2.8677289 3724:1.9189112 3725:0.19570169 3729:1.7105502 3732:1.1471608 3734:3.3330321 3748:0.90959746 3751:1.7590374 3752:2.6174321 3756:0.92625099 3765:0.57296962 3766:4.4502282 3769:0.72268134 3771:1.5919988 3776:3.3158753 3793:1.6922086 3794:1.4973249 3803:0.54527342 3806:0.049416393 3807:2.4555547 3808:2.0594625 3812:0.5215745 3822:2.9576778 3824:2.396951 3830:0.24284911 3833:0.1491047 3852:0.15158257 3864:0.31300575 3872:4.7988224 3877:1.7189384 3885:0.73350942 3888:4.7146735 3891:2.5767658 3892:4.8878021 3893:1.8618246 3903:2.4231117 3906:1.7384454 3907:2.2475131 3910:2.7687969 3915:1.1016935 3923:2.2198768 3927:0.25334972 3935:2.1730714 3938:2.2016268 3942:0.15907341 3943:0.36159116 3948:1.1219784 3957:4.0794053 3963:1.1369739 3970:0.73924482 3974:1.297641 3976:0.63204944 3978:0.850703 3982:0.89842659 3984:5.4846601 3992:0.20530963 3994:1.6393734 3997:0.55739468 4002:0.057676315 4004:3.1982393 4016:0.35037887 4017:1.3300627 4018:0.76279449 4021:1.1415522 4036:4.7754302 4038:2.4817491 4041:0.66927373 4052:2.1638148 4057:3.2880924 4063:0.697016 4067:3.2844718 4074:2.8606701 4075:0.54907572 4079:2.5967906 4082:0.073565856 4084:2.1325788 4085:2.7467697 
0.3205778219318405 4:0.71630144 19:1.3539945 24:0.21620297 27:2.603462 28:0.16063036 40:2.4347394 43:1.8834262 45:1.0367229 49:3.325496 54:0.3598994 62:0.54266191 68:2.9647954 69:0.66664243 77:0.80517751 84:3.9929633 87:0.88456249 94:2.5176117 102:1.0438392 103:0.35334581 108:2.7817225 110:2.571434 111:0.58477896 112:0.57722104 114:2.1886005 126:0.66978955 130:1.5477251 144:1.295996 153:0.50431597 158:0.66892087 164:0.95837045 171:1.7624022 173:3.5522237 176:1.1952336 180:3.3111713 181:2.2494237 184:3.4483521 186:0.20838192 188:0.66858804 195:0.63543427 199:3.8003974 200:4.2088804 210:0.38528752 217:4.5529633 218:0.68055266 225:1.7340503 234:0.75942838 238:0.43777192 240:3.2253799 241:3.0902309 242:1.3884902 246:0.91894066 247:0.43514782 252:3.8992219 256:2.7966108 262:0.084472001 267:3.2384701 274:0.96617675 275:1.3969243 286:1.6157045 288:0.48740444 290:0.03435725 297:0.91830695 299:0.37886128 301:0.59551716 302:1.3557411 304:0.30780548 310:1.5658555 311:0.35978973 312:0.57644099 314:0.018673897 315:1.7395765 324:4.0289226 335:3.6205261 338:0.74598771 340:2.9253154 342:0.79393554 347:0.54197931 352:0.20994607 353:2.9164083 365:0.33676833 366:0.13747397 367:6.2998223 379:3.8422074 382:0.12713605 393:0.65194559 397:1.8913937 398:0.8645674 404:1.1487792 414:1.0697678 416:0.20520303 424:0.45206594 428:0.6029489 432:1.2937604 435:0.20963609 436:0.048750699 448:0.76902515 451:0.47834128 457:0.92639518 460:0.24892542 461:0.918715 463:1.0413828 470:1.9048091 471:0.58370316 472:0.56662983 484:2.71523 485:0.37784266 487:1.9579095 493:0.91225076 495:1.565953 497:0.49221876 499:2.0922449 502:2.4644732 514:5.0863371 515:3.2069726 526:3.1472359 527:1.9449993 547:0.044059128 549:1.5754316 559:2.4580357 562:1.897604 570:2.4492273 571:0.98014307 576:0.52493775 578:0.85598278 589:2.2562068 596:0.85075057 600:0.20300108 601:0.12918654 603:1.2899183 610:0.40530771 612:3.1183448 626:0.28463537 633:0.82577115 637:2.5011997 641:5.5267062 642:2.2266304 644:0.25826818 646:1.471038 656:1.8507862 667:2.0185778 671:0.61809611 672:0.78782487 673:0.11633983 675:1.5206521 678:0.65640473 679:1.0811975 681:2.6579559 682:0.68161684 688:0.61720455 689:1.2916451 690:1.0860708 691:2.9385793 702:4.4813786 706:1.3137052 711:2.4505868 712:3.1210191 717:1.0000199 718:0.67687196 720:0.68977928 723:0.35227683 725:1.2599697 730:2.4523239 736:0.93331838 739:0.14033034 742:0.46406549 746:0.50117934 748:0.48553821 749:1.9757147 758:0.30741054 789:0.36545688 799:1.6656618 811:3.5754712 812:3.3300161 820:2.1579452 826:1.087332 830:1.9818755 832:0.097685277 839:2.7269239 841:0.81138712 842:2.2634144 846:0.83264983 866:0.50021887 867:1.5588742 868:1.3719721 873:0.40791756 874:1.0291697 876:1.0314597 877:0.79049706 885:0.60763884 889:1.5099164 894:0.86632431 899:0.47681034 902:2.9272244 904:2.4059138 905:0.78473926 908:2.0918834 912:3.5217237 916:1.1478591 919:0.56997818 928:0.40596724 929:0.5531652 931:0.60506266 936:2.8260016 941:1.6983855 948:0.40935707 949:3.74456 954:2.3860714 958:0.068431854 959:1.3905934 965:4.0466762 968:2.8452308 971:0.014728576 974:2.1079617 1001:2.4851372 1004:1.877027 1018:0.62886494 1019:2.0746415 1022:2.710155 1030:2.2728932 1031:0.71908784 1034:0.39289796 1042:1.1330445 1045:1.0904465 1049:0.14339931 1056:0.53259361 1058:0.66898561 1062:3.0805454 1063:0.4651798 1064:2.6169875 1071:0.44281071 1072:0.36526638 1074:1.0000794 1092:1.3800573 1094:0.55448973 1095:2.3294606 1096:2.4953761 1099:2.048564 1102:1.9961768 1105:1.1951163 1106:0.23171911 1116:0.6829803 1117:0.61422133 1124:0.15192625 1125:3.7867541 1137:1.1124222 1139:1.2340441 1140:1.8777233 1144:1.1893369 1149:1.8836503 1163:0.45357376 1165:4.4762154 1170:2.4995081 1176:1.6661136 1179:1.2784513 1182:0.49059981 1186:2.082567 1189:3.1639211 1192:4.0832772 1206:0.61314923 1215:2.8296027 1216:1.6124043 1219:0.86436164 1220:2.38304 1223:2.4839048 1228:2.4510026 1231:1.27158 1234:4.1781378 1235:1.415962 1253:0.99042183 1259:0.44804627 1260:0.89264536 1268:0.73146534 1271:0.86828613 1274:2.7980797 1278:0.93259203 1279:3.10022 1286:3.733325 1292:2.8574069 1293:1.1224561 1294:0.40801388 1296:0.12698066 1299:0.48066267 1302:0.59469342 1304:2.0893888 1306:0.38053817 1309:0.28991544 1313:1.9605725 1314:1.5781283 1327:0.033508182 1332:0.28453243 1336:0.40289259 1340:0.87331367 1342:0.067700118 1345:0.55085343 1347:3.1796083 1348:0.50633657 1349:1.5981352 1356:1.2039847 1357:0.37935257 1358:1.2731783 1366:5.9205546 1369:1.5922199 1372:1.5496879 1376:0.55559266 1378:1.3480375 1391:1.5221784 1393:2.524205 1396:3.1450784 1397:1.0711983 1401:1.1696427 1406:4.1328287 1410:2.8048348 1419:1.4676361 1435:0.082639724 1441:2.474936 1444:0.030555665 1446:0.6455735 1451:0.13834964 1458:0.84503931 1465:0.27854687 1469:1.1166264 1476:3.2936153 1477:0.40790933 1484:0.27162009 1487:0.5082382 1488:3.8971355 1503:2.5917091 1508:1.0161679 1509:1.3071537 1513:1.0633799 1515:2.3847761 1518:0.83761203 1520:1.2487895 1538:0.029519424 1551:1.0824467 1553:0.28481919 1556:1.3221936 1566:1.8630337 1569:0.51312757 1571:0.75959939 1573:1.1336349 1577:4.0484157 1582:7.0803299 1586:0.50520468 1587:1.2595447 1588:0.15110451 1590:2.8525014 1600:2.4352181 1601:3.6999056 1604:5.6401381 1613:2.3986557 1625:0.12965794 1628:2.407788 1629:0.34503692 1637:2.2984619 1640:0.54601729 1646:0.0049733222 1648:1.9582272 1661:1.1710513 1664:0.73005021 1665:2.406661 1667:0.84978491 1673:0.5814355 1675:1.4451253 1677:3.4540009 1680:0.89799339 1690:2.8266325 1695:0.05489552 1700:2.1365249 1703:1.3924856 1710:2.8154206 1718:0.35727555 1720:0.47515926 1724:0.47419947 1725:2.0635016 1726:0.52181083 1732:0.59009784 1733:0.036754265 1735:0.74536586 1736:0.78056169 1737:1.8620615 1756:1.5741498 1758:4.4615698 1760:1.5326792 1761:0.17162615 1762:2.5210397 1767:1.4318765 1776:0.12275147 1780:0.80760503 1790:4.1495485 1791:0.62385738 1794:0.84515381 1795:1.0082613 1800:0.9567678 1806:0.7586472 1812:0.31463188 1818:0.48200575 1824:4.0081525 1830:1.7126904 1832:3.6807797 1833:2.2383151 1842:5.0874457 1849:0.31237349 1850:0.97061026 1851:0.61927927 1852:1.6868116 1855:2.4423656 1856:1.5101022 1857:0.16629358 1862:0.53730977 1869:0.15280759 1870:0.7474463 1872:1.85892 1874:0.1452679 1882:2.73593 1883:0.19317915 1890:0.0030361935 1897:2.3952301 1898:0.31684592 1904:0.79095292 1905:0.58813655 1909:2.2031975 1911:0.17705122 1912:1.2834823 1918:0.25457576 1926:1.2662846 1928:1.9768941 1935:1.542015 1938:0.55375576 1953:0.78725147 1963:1.6706195 1967:0.17778666 1968:1.6766945 1972:2.0512128 1974:0.88586414 1986:2.4380264 1999:0.25126421 2000:0.75212628 2005:1.8575675 2009:0.19246608 2011:1.6709044 2012:2.0913744 2020:0.05753383 2029:1.1665056 2030:2.3591061 2033:3.415647 2041:0.29590675 2042:2.2125235 2047:1.104571 2048:1.2440711 2056:0.77782691 2058:5.0107021 2070:1.058304 2083:0.23188245 2085:1.3176818 2100:4.0266829 2105:0.36029685 2108:0.020798326 2113:0.069372818 2117:1.9174517 2144:1.7452879 2153:0.5468418 2157:0.051681936 2160:1.4116105 2165:0.43740922 2166:1.3782271 2172:3.2404466 2177:0.070772678 2186:1.8949031 2188:0.73477179 2193:0.77477449 2196:1.8142122 2205:0.13234454 2206:0.18376949 2214:0.20466119 2223:2.8544571 2227:0.43549633 2228:1.6292953 2239:2.9863377 2245:0.62126458 2246:0.86482376 2249:0.47083545 2250:0.36439458 2253:1.127792 2262:1.886807 2264:1.661999 2267:2.9694533 2270:2.7846818 2275:3.0549226 2282:0.33557451 2286:1.4512751 2292:0.26108158 2294:3.0537357 2303:0.45428455 2314:0.7867074 2317:0.52998489 2319:1.0807507 2322:2.1283467 2327:2.3605998 2329:2.7786002 2331:2.2781687 2333:1.5317401 2337:0.95556557 2346:1.6863371 2350:0.39515612 2357:1.3031185 2369:0.40405816 2372:0.43755323 2374:0.57308125 2417:0.79067063 2418:2.3025599 2423:0.82338345 2424:0.78248036 2428:3.094337 2431:0.066238314 2434:1.1641406 2435:1.224591 2452:1.0986166 2457:1.4138079 2458:2.1307657 2473:0.23366824 2480:0.64038765 2487:1.2533799 2497:0.44159412 2501:2.0754504 2504:2.1745548 2507:0.37137929 2508:0.050043598 2514:0.00066617131 2516:2.4951982 2520:2.0905342 2522:0.068770736 2526:2.7911906 2529:1.388146 2547:0.3541398 2551:0.75864524 2561:2.6354499 2570:0.74197012 2574:2.7816393 2575:0.95370555 2577:1.9060467 2578:4.2693377 2589:0.035426617 2591:0.44668731 2594:1.1150506 2600:1.0399415 2621:0.92885298 2636:0.76462364 2639:3.2376585 2640:0.76413596 2649:1.4536335 2651:1.4872649 2652:0.07839185 2654:0.06267333 2656:1.5166823 2672:1.2745477 2678:0.88747919 2687:0.87314761 2688:2.1080418 2690:2.4541328 2693:4.1007242 2695:1.8326629 2698:0.073433161 2701:2.3954532 2704:0.50432748 2705:0.52623981 2714:2.0337002 2716:0.035039842 2718:2.646507 2723:2.8715739 2725:0.16853383 2732:3.8803291 2733:1.0031142 2738:0.074982256 2740:2.5773687 2741:1.7113589 2743:0.38257918 2745:3.3506467 2752:0.59867221 2765:2.2018449 2766:4.1650314 2771:2.5724676 2775:0.15131813 2777:1.0362117 2778:4.7465487 2786:0.65353698 2789:1.0895104 2793:3.386524 2805:1.211825 2808:0.74942517 2811:0.12086722 2814:0.57504767 2821:3.5403802 2825:5.68261 2828:1.4674836 2831:1.7758672 2834:4.8987031 2838:1.0579288 2857:2.817266 2860:1.5106283 2870:4.1435637 2873:2.6582391 2878:3.3400044 2882:4.3382854 2883:1.2978175 2891:0.013293892 2895:1.6397021 2896:1.8073362 2898:1.3989599 2903:0.029727846 2909:1.2165742 2910:2.9218316 2917:1.8147643 2919:4.3971105 2920:0.58061278 2929:0.94993925 2931:1.2389451 2937:1.0662763 2940:4.3486114 2948:0.45870191 2950:1.0862627 2953:3.2464676 2959:1.1197696 2965:1.3906895 2968:1.5483379 2978:2.5609384 2979:1.8179967 2985:0.12620825 2998:0.038502797 3005:3.4584074 3033:0.67901504 3035:4.8692656 3037:0.48013812 3044:0.27494106 3056:4.196609 3065:0.83768624 3074:0.29173338 3075:0.15736888 3081:1.8951368 3085:2.6047812 3094:1.2465811 3105:3.6213968 3114:4.0226212 3137:0.49154553 3144:4.4817705 3146:2.5744476 3151:0.5586921 3152:1.5832357 3154:3.2559505 3155:0.18285781 3162:2.8898628 3163:0.31486273 3166:3.3208551 3179:2.3361983 3181:0.64684534 3182:2.0066798 3184:5.1712098 3195:0.23032928 3196:0.29220968 3198:0.010154426 3205:0.30877566 3206:0.10526159 3207:2.8786571 3208:0.098242015 3213:0.9210282 3232:0.13657206 3242:0.34777868 3247:1.5876964 3256:0.45506018 3258:1.7847922 3260:0.2153255 3268:1.9141517 3271:0.23329879 3274:1.3690336 3275:1.5522583 3276:0.2042616 3285:2.9943249 3286:2.9619384 3287:0.035047889 3291:5.6350775 3295:2.3339455 3306:0.059935763 3314:0.13305449 3334:4.441287 3345:0.18203717 3349:1.213791 3354:0.63223243 3355:2.4507391 3359:0.75538838 3367:0.13170679 3377:2.7749772 3386:3.47541 3388:2.0820165 3396:0.83822572 3411:1.7894547 3413:1.3185476 3424:1.6140716 3431:1.1984267 3442:1.4841282 3444:2.762748 3448:1.066748 3449:0.92461902 3460:0.14278546 3467:1.9134865 3468:1.4981995 3479:0.0009849146 3481:0.38416421 3482:1.7973486 3486:0.84350049 3491:3.0366597 3493:2.7845986 3494:1.406283 3496:1.0745895 3507:3.4131274 3508:2.7925808 3513:0.59962535 3514:0.23511095 3521:1.3573287 3525:0.85375583 3529:0.8578918 3536:0.89330804 3537:1.364527 3539:1.9113526 3540:1.809612 3548:0.34898031 3556:2.2193282 3560:2.7223041 3564:1.5057549 3565:1.2338648 3566:1.5996938 3569:1.9021398 3576:0.49527133 3577:2.8135281 3582:5.1096907 3586:0.54835498 3588:0.0011420324 3599:0.70441699 3603:0.33315903 3604:2.421946 3608:1.9136041 3609:0.052866653 3621:1.3770077 3624:2.7019372 3627:1.5421395 3629:0.47435662 3635:1.4170349 3636:1.694834 3644:4.2932782 3652:0.57283652 3653:4.2430449 3657:0.25871244 3661:0.06420815 3662:2.4816012 3666:1.8336334 3667:1.0546054 3675:1.7302008 3677:2.3574927 3689:1.3746381 3690:1.4707446 3691:0.039145529 3692:3.1416326 3711:0.28480342 3715:4.1220589 3720:0.10488215 3724:0.7944575 3725:0.28315821 3729:2.8928552 3732:1.8490628 3734:2.0833352 3735:0.087488294 3749:0.81708199 3751:0.23332456 3752:0.88205993 3753:1.3859277 3759:1.1456863 3766:3.4150648 3769:0.84635609 3771:1.8214278 3773:2.3212314 3776:1.5519685 3783:0.16261312 3793:2.3170347 3803:2.5362892 3806:2.2068295 3807:0.47829482 3808:0.85822904 3812:1.3907272 3818:0.37127286 3822:3.9671879 3824:3.2771218 3825:0.093871772 3829:1.9619243 3836:0.47823843 3841:1.7765064 3857:0.22212252 3864:1.2107813 3872:3.2992449 3885:1.1163681 3888:4.0874143 3891:1.4432386 3892:3.101105 3893:0.72832835 3896:0.5792892 3903:2.8638995 3906:3.3551545 3907:1.5932887 3910:2.1782312 3915:0.6044327 3917:0.012937929 3919:0.36162204 3923:0.54451358 3927:1.9165591 3928:0.24328119 3935:1.9032753 3938:1.1252639 3941:0.32752651 3943:0.47306255 3948:0.71322131 3957:1.2385226 3961:1.1640137 3962:0.33861563 3970:0.49221313 3974:0.86388725 3976:0.98147166 3978:2.0569994 3982:1.8163581 3984:1.7278243 3992:0.087646276 3994:0.0013029873 3996:0.3220911 3997:1.9761509 4001:0.97086811 4004:0.9618901 4005:0.59490401 4010:0.49223024 4014:0.374082 4017:0.25021619 4018:1.8249681 4021:1.0196109 4036:4.4678903 4038:3.2111521 4041:0.50981194 4045:1.3709972 4057:2.6004879 4067:1.5265541 4070:1.1300445 4071:1.0348229 4074:1.2663181 4084:2.6091535 4085:2.7759371 
0.9755822541003282 4:0.84975863 12:0.18782873 15:0.20733505 19:0.92267597 24:0.77203369 27:1.9562867 40:2.329896 43:0.030658543 45:2.5947282 49:1.5765963 54:1.9171121 62:1.5911853 68:3.602546 69:2.9613519 77:0.68376261 82:0.72030246 84:4.3123484 90:0.80502039 94:3.519717 102:2.8986845 105:0.59312844 108:0.98018193 110:2.2839398 111:2.2481327 114:1.6162249 125:0.11062923 143:0.11148393 144:0.80327505 153:0.0068651736 158:0.4267284 159:1.052362 167:0.078665555 171:1.4681334 172:0.092012271 173:2.7899578 178:0.26993844 180:1.8342454 181:3.2462993 184:1.6300743 186:1.097531 188:2.7614546 191:0.72161329 199:3.7225084 200:5.2911172 205:0.72714615 210:0.44412887 217:4.4232602 218:1.2377307 222:1.6069905 223:0.14045963 225:0.56462562 234:0.65247047 236:0.65294045 240:3.8082771 241:1.8696516 242:0.45909518 246:0.078122638 247:2.0161626 252:4.1780496 256:1.7262617 267:0.32409799 274:0.33319628 286:2.1747341 288:0.087385088 297:0.061662674 299:0.6268785 301:1.0667919 302:0.62101984 304:0.96546674 311:0.99261248 312:0.63248843 314:0.21119356 315:0.45949781 318:1.0628192 324:4.5074096 335:0.29063755 338:1.5884018 340:1.5793605 342:3.35746 347:1.1338167 351:0.039260924 353:1.711938 365:0.81861407 367:5.0507259 373:0.22387564 374:1.1199754 379:3.7276998 384:1.2300608 386:1.4608214 391:0.12465152 397:1.242389 404:0.97279078 408:0.55696023 412:0.12334532 414:0.088981956 420:0.047863752 424:0.091244861 434:0.71077931 435:0.085181065 436:0.38294804 445:0.69994479 448:1.7359307 457:1.5587115 460:0.58596301 463:1.1430576 470:0.66092002 471:0.19021699 472:1.4055483 482:0.59414423 484:1.7871414 487:1.9004807 493:1.1004431 494:1.6730303 495:3.5391235 499:1.3584633 502:0.65131193 505:0.68687284 514:1.8726453 515:2.1324334 526:2.4537833 527:2.110647 538:0.20574546 548:0.48520708 549:1.317273 554:0.16406307 559:2.2217159 562:1.2526196 570:2.736764 571:0.55531859 576:1.4023541 578:0.36061066 589:1.9793662 592:0.93252647 596:1.4271629 600:0.12550247 603:3.0785913 610:0.44572765 612:4.1319647 616:0.028982401 628:0.63169038 633:1.0615453 635:1.0221062 637:1.5361941 641:4.5321908 642:3.176389 652:0.056651145 656:0.35872927 667:1.158301 672:1.045825 674:0.18719214 675:1.6452491 678:0.18107963 679:0.15857622 681:0.98717588 682:1.557339 684:0.44258031 689:2.0597389 691:1.3716743 702:2.9441373 705:1.1784508 706:1.830646 711:2.7370474 712:1.3735077 717:1.2009069 718:0.26204103 720:0.81974822 723:1.1046014 724:0.34149137 725:1.9120787 730:1.3824877 736:0.37839964 742:1.4559388 746:0.84098667 748:1.0250661 749:0.88216293 750:0.76741481 755:0.20517625 758:0.31861016 776:0.51244438 799:1.5692087 807:1.5684599 811:0.9140892 812:3.7117243 820:1.491002 826:1.3399544 838:1.131256 839:2.4785268 840:1.1106622 841:1.7633736 842:1.9256896 857:0.42988107 866:0.69187403 867:1.7888037 868:1.7209845 874:0.97569621 876:0.40817347 877:0.57069337 879:0.36543038 882:0.71312791 885:1.4636612 889:0.64813578 895:1.0653262 897:0.41071311 899:0.47351044 902:0.82625663 904:1.1551545 905:0.081226967 908:2.1545649 912:2.3603902 916:1.1204922 919:1.738982 924:0.25274825 928:1.1327481 929:0.71152973 931:0.29736915 936:2.2346945 937:0.083317928 940:0.091722786 941:0.59604263 942:0.46052057 945:0.61023915 949:1.0814718 954:2.6927323 959:1.3859767 965:4.8774638 968:0.82302618 971:1.3222169 974:2.258719 976:1.636502 993:0.54475915 996:0.76377243 1001:3.442522 1004:1.9640106 1019:2.3140316 1022:3.1862097 1024:0.71738636 1030:2.7421513 1042:0.16616231 1049:0.75961566 1058:1.1082275 1059:0.10923097 1061:0.10323579 1062:3.8366458 1063:1.1447703 1064:1.6799108 1071:1.5423908 1074:2.2081208 1090:0.038228691 1092:2.8771839 1094:0.070443727 1096:3.0626338 1097:0.41605437 1099:1.3344592 1102:0.069678575 1110:0.70052314 1124:0.14321461 1125:3.7749896 1126:0.31309587 1137:0.90937942 1139:0.45060247 1140:1.7773983 1144:3.5155919 1149:1.0430827 1160:0.051407598 1163:1.00718 1165:4.6360431 1170:3.112092 1171:0.90380269 1175:0.58509916 1176:0.19770418 1180:0.57415986 1182:0.5955286 1186:1.6013159 1189:4.8492122 1192:3.9952171 1199:0.84523147 1204:0.65163654 1206:1.8313346 1215:2.6021004 1216:2.5210254 1219:0.47937939 1220:1.7987767 1228:1.7287341 1231:0.95285964 1234:4.7561812 1235:0.64458853 1236:0.50530392 1242:0.46151254 1246:0.40661496 1253:0.35201645 1260:1.7876744 1261:0.76159221 1269:1.3732986 1274:1.2153591 1275:0.11126427 1278:1.2953801 1279:2.3946371 1286:4.1527939 1292:2.3160987 1293:2.1389894 1302:2.5557325 1306:0.036760896 1309:0.44496867 1313:2.3293986 1314:0.44268903 1320:0.37850556 1336:1.9770036 1340:0.99852598 1342:0.36887032 1347:0.95154321 1348:0.78266841 1349:0.96965146 1356:0.5111621 1357:1.4796805 1358:0.75818372 1366:4.7883334 1369:1.2584916 1376:0.81639779 1378:3.4636519 1391:2.545265 1393:3.3228998 1396:3.707942 1397:2.2254791 1401:1.4444841 1406:4.0830231 1408:0.24380931 1410:4.3644524 1412:0.067246228 1419:2.4803596 1426:0.080528885 1431:0.20658693 1432:0.22131053 1435:1.2351675 1441:2.5356123 1456:0.38537955 1458:0.83631116 1462:0.32185966 1465:0.50284135 1469:0.28148583 1476:4.3999677 1477:1.9353491 1484:0.5830496 1487:0.31856266 1488:2.7789025 1503:2.0103202 1506:0.30818036 1509:1.3186268 1513:3.0461152 1515:2.4602449 1518:1.1473156 1519:0.19777164 1520:0.56303149 1525:0.24024329 1526:0.54080009 1538:0.87770271 1544:0.76099461 1551:1.7432722 1553:1.0909419 1556:1.3922197 1560:0.37070215 1566:1.5494996 1567:0.065696478 1569:0.85694528 1571:1.156975 1573:0.78533912 1577:2.1814816 1582:4.500164 1583:0.045359075 1586:0.2985093 1587:2.3517656 1588:1.0975397 1590:2.6982377 1600:2.1397178 1601:2.6874044 1604:5.8553433 1613:2.4453819 1625:0.2671389 1628:0.78296989 1635:0.48582342 1637:2.3692074 1640:0.56627864 1646:1.2560959 1648:3.4323025 1657:0.003569603 1661:1.2692569 1665:0.76553208 1667:1.413624 1673:1.8947647 1675:0.13935347 1677:1.8657308 1678:1.4254686 1680:1.7502668 1690:3.9976373 1691:0.024332672 1695:1.0445919 1696:0.83389729 1700:1.132845 1705:0.7339803 1710:1.1293027 1718:0.48172408 1720:0.28928164 1721:0.69607145 1724:0.59708989 1725:1.4971516 1726:1.0298437 1730:0.48650795 1732:0.27854881 1735:0.06120865 1742:1.1132606 1756:0.47423983 1758:4.8810968 1762:2.1366501 1767:2.7109017 1780:0.96724993 1784:0.0091755986 1790:4.7215419 1794:0.71424317 1799:0.72302771 1803:0.63145113 1804:0.37441647 1806:1.635905 1811:0.66337049 1812:1.8702803 1819:0.8655262 1824:2.9089029 1830:1.3435445 1832:2.65611 1833:1.5499581 1840:0.71089172 1842:4.9568949 1846:0.67761385 1848:0.84208703 1850:1.0101919 1851:1.5743635 1852:2.9052658 1855:1.4327075 1856:1.7066454 1857:0.68004704 1862:0.22692122 1872:1.0515603 1877:0.17888236 1882:2.7585254 1897:2.2828336 1898:0.86673832 1901:1.218859 1904:1.1269377 1909:1.102972 1911:0.91806984 1912:0.78460664 1927:0.34800005 1928:4.3025398 1935:1.7254136 1938:1.7918705 1943:0.27073377 1963:0.66643906 1968:1.249871 1972:1.4220095 1974:0.073775768 1977:0.34165558 1986:2.6717954 1999:1.3510824 2000:1.278497 2004:0.35904974 2005:2.1263554 2011:0.82927179 2012:2.2831085 2029:1.6011276 2031:0.31809551 2033:1.7175591 2042:1.7597243 2047:0.81354535 2048:4.1871476 2057:0.73015153 2058:2.6989725 2063:0.029657632 2066:0.22018731 2070:0.21590534 2083:1.0109632 2085:0.93333161 2088:0.24073324 2100:4.7272043 2102:0.0090792775 2105:0.36269087 2107:0.02840513 2110:0.47321281 2117:2.8567328 2135:0.06606245 2138:0.9774552 2144:2.3212974 2149:1.1120677 2152:0.82972771 2153:0.10468896 2157:0.26756787 2160:2.1181498 2165:0.2904675 2166:1.5597064 2167:0.32969591 2172:2.6377597 2177:0.4042584 2180:0.29071373 2186:0.51975882 2188:2.2770557 2193:0.45329785 2196:1.045993 2200:0.52775741 2204:0.8026399 2214:0.70101327 2218:0.63149768 2220:0.68547344 2223:2.6011324 2224:1.1958921 2226:0.22065538 2228:0.87083906 2237:0.99776471 2239:2.6905861 2241:0.83446014 2245:0.81292337 2246:0.49294311 2249:1.264004 2250:0.60655934 2253:2.2005458 2262:0.91485333 2264:0.096271455 2267:1.3645673 2270:1.6898646 2275:2.7993207 2282:0.39575055 2286:0.74856246 2294:2.4116461 2302:0.94163322 2303:0.81967425 2314:0.37403953 2317:1.1283917 2319:2.2929051 2324:0.92608607 2327:2.7360551 2329:1.380039 2331:1.3147219 2333:2.3117893 2337:1.5860028 2346:0.81543326 2350:0.14693943 2357:0.31142181 2369:0.88271618 2372:0.34938663 2399:0.58520138 2408:0.0200544 2417:1.2258104 2418:2.7756367 2424:0.57961702 2428:1.1674815 2432:0.24631058 2434:3.4412954 2435:2.7918365 2446:0.0063912123 2450:0.48237228 2452:0.62094718 2453:0.70821202 2457:1.3339217 2458:0.68066603 2459:0.58571297 2477:0.71834075 2487:1.5463889 2501:1.1530939 2504:1.6395823 2508:0.7442432 2513:0.61057198 2514:0.28319642 2516:0.84864593 2520:2.1151416 2522:1.5674516 2526:4.2437186 2529:1.934455 2533:1.2869942 2535:0.31644499 2536:0.83926582 2561:2.7020619 2563:0.32438609 2570:0.1597898 2574:3.0655541 2575:1.0572779 2577:0.52738631 2578:3.4874589 2589:1.7612276 2590:0.8388319 2591:0.78111398 2592:0.17173678 2594:2.9685256 2595:0.32283369 2599:0.066442266 2600:0.51408648 2621:0.76826531 2636:1.7203927 2639:1.6784198 2640:0.57382476 2642:0.42157292 2649:2.1085343 2651:2.6206615 2656:3.1642995 2659:0.26461765 2662:0.62182397 2664:0.15744407 2667:0.7889477 2672:2.0109551 2678:1.463011 2687:0.79124892 2688:3.2424235 2690:0.40765154 2693:1.5101793 2694:0.14031546 2695:1.1654999 2698:0.80393505 2701:2.4498208 2706:0.15223464 2708:0.70508593 2714:3.0952425 2715:1.3085446 2718:2.0325067 2723:2.7108219 2724:0.13987346 2732:3.9021764 2740:1.9416964 2741:1.0633081 2743:0.60535324 2745:3.5886028 2765:1.5011096 2766:3.8790586 2771:2.871418 2778:2.5998819 2786:0.16276103 2789:2.1276572 2793:4.8451343 2805:0.22977029 2816:1.2527404 2818:0.81649995 2821:2.3501585 2825:4.6743717 2826:0.04162544 2828:1.6586127 2831:0.77952105 2834:4.8730025 2837:1.5629486 2838:0.36615559 2857:0.91623753 2860:1.881199 2870:4.5507298 2873:4.3181086 2878:4.1898155 2882:4.7268023 2887:0.083030939 2888:0.39748147 2891:0.54164273 2895:2.1514637 2896:0.31445661 2898:2.7646539 2909:2.7942216 2910:3.6761739 2917:0.75278991 2919:4.5644155 2929:2.2964256 2931:1.3266141 2932:0.85965729 2937:1.428421 2940:1.9752574 2948:1.2409594 2949:0.29955152 2950:3.7431717 2953:2.7063818 2959:0.044489563 2965:0.92170495 2968:2.2995138 2978:0.98156381 2979:0.98931658 2985:0.25647336 2995:0.63729519 3005:1.0802176 3012:0.047869503 3013:1.1446483 3033:1.8542489 3035:3.985749 3036:2.8344402 3037:2.1495359 3056:2.5738776 3057:0.65909553 3062:0.24135137 3065:0.66720551 3075:0.36099136 3081:1.0222442 3085:2.6933286 3092:1.3564783 3094:0.99324262 3105:4.5926571 3114:2.8115776 3122:0.25508291 3124:0.92204893 3129:1.1132653 3137:0.36047962 3144:3.7706854 3146:0.7409817 3147:1.1943991 3150:2.4504282 3151:2.6518881 3152:0.74258399 3154:3.3481629 3155:1.2149282 3162:1.1065676 3166:2.3939953 3179:1.0377698 3182:1.5727894 3184:3.9510026 3195:0.13058507 3198:0.52293551 3199:1.1482242 3206:0.050418675 3207:1.7639762 3213:1.8370569 3219:0.13507795 3232:0.28684095 3236:0.28529665 3247:1.3951353 3249:0.70436037 3256:0.3576718 3258:2.355732 3267:0.81172502 3268:1.456733 3274:1.3036542 3275:1.9392579 3276:1.1280066 3282:0.090840548 3285:2.342701 3286:3.1085353 3291:5.5818062 3293:0.23821905 3295:2.1764808 3310:0.14293626 3314:0.24997801 3321:0.37828413 3324:0.58021963 3334:4.5485063 3335:0.56742704 3345:0.20835117 3347:0.13214114 3348:0.21860576 3349:3.2125218 3351:0.47763166 3354:0.50927305 3355:3.2627892 3356:1.114812 3367:0.031943277 3377:4.057972 3378:1.6035678 3383:0.06047532 3386:1.0863429 3388:0.46386504 3394:0.46239996 3396:0.71026897 3399:1.0651972 3407:2.4098737 3411:2.1122651 3413:2.0425496 3423:0.15980598 3424:0.415627 3431:1.0491589 3442:0.39956537 3444:0.086086571 3448:0.071476161 3449:1.932296 3456:0.37211034 3460:1.4991562 3467:1.326719 3468:1.0480039 3482:1.3052292 3486:1.4953367 3490:0.96418715 3491:3.0764105 3493:2.5036509 3494:1.8567539 3496:0.25602001 3500:0.94290835 3507:1.7354743 3508:3.676625 3509:0.87023169 3521:1.3160406 3525:1.5997691 3529:0.84040958 3537:0.45951736 3539:1.7877994 3540:1.7069417 3548:0.38613719 3549:0.96353507 3555:0.69278365 3556:3.2120142 3560:2.9579229 3564:1.9733266 3565:0.86946142 3568:0.35631728 3569:2.6209483 3576:1.982283 3577:0.91790497 3582:5.1789722 3586:1.4476403 3588:0.97443986 3604:3.5532897 3608:1.4671334 3616:0.72332382 3621:1.0351357 3624:3.528743 3627:2.2752552 3630:0.27987143 3635:0.48583594 3636:1.6910828 3644:5.3404846 3647:0.17507011 3653:2.7136998 3662:2.3233898 3666:2.1026521 3667:1.7977433 3672:0.014829725 3675:1.3044082 3677:1.6433573 3683:0.25023773 3686:1.7765296 3689:2.9415197 3690:2.2176714 3691:1.2339691 3692:3.9555626 3705:0.031716615 3710:0.45098832 3711:0.97600162 3715:2.6140921 3719:1.3263855 3724:1.5794032 3725:0.017821491 3729:1.9912312 3734:0.70207095 3742:0.08062645 3748:0.47172061 3749:0.03397578 3751:1.3639201 3752:1.9375901 3753:2.8264749 3756:0.14481676 3766:1.6355106 3767:1.0101538 3768:0.84047532 3769:1.948508 3771:1.2881379 3773:0.4652977 3776:1.8237966 3783:0.83033717 3793:3.7251647 3797:0.22640014 3803:1.3475505 3806:1.3637667 3807:0.6563828 3808:1.9265566 3812:1.0772586 3818:0.38737023 3822:2.9988551 3824:2.5047019 3825:0.37022021 3836:0.45291176 3857:0.26294297 3860:0.19461811 3861:0.022798628 3864:0.51463294 3872:2.1680441 3877:2.2536831 3885:1.4746391 3888:1.6864865 3891:2.5577691 3892:4.8804483 3893:1.627681 3903:2.8219268 3906:2.1327469 3907:1.3239886 3910:2.3101745 3915:0.38636905 3919:1.9920838 3923:0.40527195 3927:0.79795426 3928:0.37984151 3935:0.47539848 3938:2.0084515 3941:0.46208674 3943:0.23706412 3948:0.15535411 3957:1.7462834 3961:0.15303199 3966:0.12475906 3970:0.70135719 3974:0.8006804 3976:1.3094336 3978:3.5625949 3980:1.5105669 3982:1.0219684 3984:2.8339202 3992:1.5229906 3994:0.20267735 3997:0.28041458 4001:0.063308299 4003:0.31288671 4004:0.54460168 4005:0.22110277 4007:0.76646119 4010:0.4969478 4011:2.1253939 4016:0.092267334 4017:0.18638571 4018:2.1835122 4021:0.41136608 4036:4.1073308 4038:2.7985492 4041:0.73754239 4045:1.1022134 4052:1.0150075 4057:2.7019267 4063:0.96859574 4067:0.51985466 4070:1.0924219 4074:1.1943222 4079:0.88068473 4084:2.0183229 4085:1.8278155 4090:0.87970954 
0.09991607541386695 9:0.13285388 12:0.52891099 15:1.9979246 20:2.9521713 26:5.0683208 29:0.039435863 39:0.6886453 40:2.2097871 44:1.0558172 45:2.9034486 54:2.8304129 62:0.48997462 68:1.1780233 69:3.9478669 80:0.60483044 84:1.832747 90:3.651623 94:3.0262427 108:0.25644907 110:1.1376488 111:0.45813304 112:0.40692076 114:0.85248566 115:0.1257759 117:1.0753793 123:1.1874282 125:2.7961814 126:1.9265118 130:0.87967801 143:2.7845459 157:0.2951313 159:2.4566805 164:2.4377344 167:0.13872963 173:2.0958214 174:0.12344909 176:1.1269294 178:3.2111104 180:0.812967 181:2.5857487 191:3.3697546 196:3.1034124 197:0.90590471 199:1.240813 200:4.4385967 205:0.94478911 210:3.2109756 211:2.1421342 217:3.9654958 218:3.535284 219:0.76269066 222:1.0082395 229:1.5331041 234:0.62904501 236:0.29374135 239:0.47687179 240:1.3524461 241:1.9357337 252:2.5191123 256:0.071380734 258:0.34737867 262:0.76718664 275:2.9294362 279:3.0473936 282:1.008251 283:0.3816157 284:0.58137131 287:0.9722985 295:0.52168143 298:0.50741845 299:1.7999706 300:1.0261674 301:0.091116279 312:0.38673323 315:7.2981253 318:3.2551048 324:5.9636226 333:1.4324372 335:4.4882674 336:0.64311159 338:1.8478255 340:0.12855938 347:1.1266589 359:2.1331031 361:0.30014244 365:1.9694777 367:1.1669884 373:3.0069191 376:0.31935263 378:2.00875 379:6.1539054 382:1.547436 384:3.033093 386:2.6323996 391:0.22477496 397:0.65925109 399:0.071330309 400:2.1790595 404:4.272162 408:1.1353806 409:0.34881043 414:0.093202442 419:0.72330302 426:0.022312701 428:0.56135643 434:0.60003912 450:2.4837093 460:0.078374535 463:1.0251523 472:0.35919571 481:0.10687298 484:1.1681601 487:3.756737 492:1.5894287 517:0.094377011 520:2.3199329 526:2.6511488 527:4.8638945 529:0.9126249 535:1.2646861 538:0.32722223 544:1.6073923 552:1.5483329 562:1.711705 565:0.88857794 577:1.1538508 581:0.37791255 589:0.14490159 592:0.28276548 596:2.8084781 601:0.40838125 603:1.0376517 608:0.7597807 612:1.595291 616:0.17316756 626:0.047472775 635:2.70028 642:2.4288998 656:2.3995776 659:0.9425419 661:0.49976492 667:3.1726725 672:0.46265137 674:3.2403607 675:1.3165989 680:0.93629527 681:0.59409952 684:0.082096249 691:0.69996625 699:1.6042994 701:0.88456416 702:6.7699413 705:1.8616436 706:1.3139694 711:2.4952266 717:0.46107289 722:5.4147892 723:0.70738065 725:0.86919677 726:0.94162816 728:2.8109052 730:2.0419991 735:1.287689 739:0.86449146 755:0.54752117 758:2.2764256 759:2.3103127 764:3.3532991 766:3.038537 777:4.4329438 785:0.11734168 788:1.1662538 798:1.1156235 799:2.3273497 807:1.6888893 811:1.7832849 812:3.2544665 838:0.49070576 839:3.431787 841:2.9861093 848:0.79913545 855:0.0061306953 857:0.31127623 865:1.1629895 867:4.1752224 871:3.162591 874:2.7159343 876:0.21281174 878:0.36854744 888:0.73202145 894:0.14892411 902:0.59433478 904:1.9490423 908:0.51181591 912:3.3931785 921:2.374285 929:0.091574214 930:0.93924183 931:0.96374559 933:0.024809539 936:0.8094005 941:1.0999867 942:2.2215035 945:3.3459229 949:0.3604545 951:2.167491 952:0.90463829 954:0.12056449 961:0.78078866 963:0.22722106 965:2.3430049 966:1.5158409 968:0.075502604 974:4.2221966 975:0.39186582 996:0.28859428 997:0.56949645 1001:6.0021124 1004:1.1537182 1005:0.69928926 1017:0.094129264 1018:1.0777376 1022:4.0644231 1023:2.3515072 1024:1.8941286 1029:0.84910113 1031:0.33036655 1042:0.80806023 1047:0.33865243 1051:0.81197101 1058:2.6727378 1062:4.0295029 1074:1.2993617 1077:2.068491 1092:1.1805472 1096:4.1101408 1099:0.92230666 1111:1.7987484 1123:1.1890012 1125:1.8289917 1137:0.031794906 1139:1.0069149 1144:0.095733643 1157:0.60878384 1161:0.99948204 1165:3.1567094 1170:4.0204086 1176:2.9860914 1178:0.56116748 1180:4.3592606 1181:3.1955874 1184:1.0707614 1189:6.50594 1192:4.6347752 1195:1.3621846 1206:5.7515731 1215:2.4158647 1216:2.9656682 1219:2.2770069 1220:0.86143941 1223:2.102788 1224:2.1301301 1228:1.5422715 1231:0.23596707 1235:2.6791015 1242:1.6713915 1260:1.3618227 1264:0.14805323 1269:2.7932496 1274:0.1444499 1278:1.4804579 1279:0.31900996 1282:0.47180298 1286:3.2389088 1292:2.0297742 1293:4.4726543 1302:3.0807259 1304:1.1018443 1305:2.4078062 1306:0.7317456 1313:4.8388982 1314:1.3256665 1325:0.90985888 1331:0.029669106 1334:0.47409707 1336:1.3374312 1338:0.00016576052 1340:0.28522265 1348:2.5629115 1349:3.3745017 1352:0.96404397 1356:0.85303187 1357:2.5019178 1366:6.5398669 1369:0.736808 1372:1.9235637 1376:1.1182271 1377:2.828222 1378:0.43703628 1379:1.8649491 1384:0.085157186 1386:0.24130106 1391:0.73775804 1393:1.5733056 1395:3.4593189 1401:1.0238061 1406:3.5006509 1408:2.4858985 1410:3.3255305 1419:0.2126112 1426:1.3712921 1429:0.47712472 1433:0.17037377 1444:3.4284532 1446:3.4839408 1451:1.0023521 1456:0.48923707 1458:4.0973334 1463:1.4102049 1466:0.17946868 1476:2.8637874 1477:3.7716594 1484:1.6482677 1485:0.4980773 1487:1.7446671 1489:0.030540437 1492:0.010191768 1497:0.050081879 1500:0.89467764 1502:0.80572075 1503:4.322227 1510:0.67075497 1515:3.6719508 1516:3.6483574 1522:2.2668624 1526:1.1958282 1534:0.11469537 1543:0.48361254 1551:2.4773045 1556:4.4688134 1566:3.7699335 1569:1.5245085 1571:3.5614343 1573:0.22761491 1577:5.4738278 1581:0.15370929 1582:3.6021812 1583:0.74666178 1587:0.83954167 1588:5.9221573 1590:1.4715374 1596:1.3246489 1600:2.1257241 1604:2.3241491 1605:0.22249985 1613:0.098805845 1618:3.5532327 1625:3.3573029 1629:1.8395081 1633:0.75839311 1637:0.64640832 1640:0.70159805 1641:0.11598632 1648:2.665817 1656:0.86314631 1661:2.9987988 1663:0.60428834 1664:1.5767112 1667:1.9955924 1669:0.0010728389 1673:1.9815682 1675:1.2880114 1676:0.3869541 1677:3.0732718 1678:2.5742395 1680:2.010644 1686:0.77794921 1691:1.1477497 1694:2.4012785 1695:4.6639781 1707:2.8146815 1711:0.75127435 1712:2.5863287 1718:3.5454934 1720:0.22792214 1724:1.9424899 1726:2.3505609 1732:0.49760351 1733:0.96700507 1736:0.67508316 1742:3.1279161 1746:0.28512543 1756:5.253592 1758:3.704416 1761:0.91817677 1762:2.9725008 1767:1.4324878 1773:3.2909617 1786:1.4085884 1790:6.1417384 1799:2.8222613 1806:1.5672441 1811:2.0297422 1812:6.4533634 1818:1.0604192 1824:6.6260505 1830:2.8840089 1832:1.5957444 1840:0.83473897 1842:7.5206509 1844:0.22125903 1846:2.3128524 1849:2.2073777 1850:1.2255411 1851:0.82154274 1852:1.1419179 1856:2.5175014 1861:0.30155471 1865:1.1367705 1869:0.46072966 1878:1.2606392 1881:2.2816133 1882:1.4188702 1888:0.096583471 1890:0.54945427 1897:7.4857645 1898:4.6118159 1904:0.023492679 1905:2.915386 1909:0.56903726 1912:1.5157599 1920:0.52608407 1921:1.7628856 1928:1.0800599 1938:6.1441255 1943:1.1092848 1951:0.36289477 1953:2.6836348 1972:2.2947321 1986:1.1489742 1989:2.6290619 1993:2.0911775 1997:0.50118685 2000:1.8746676 2005:1.7980542 2006:3.173739 2009:0.20747316 2011:0.29524979 2012:2.5315571 2014:0.11598244 2021:0.033771366 2029:2.0368409 2033:1.291633 2042:1.33173 2048:2.8516314 2050:0.50752139 2057:0.21839102 2058:4.0988688 2066:7.9059877 2082:1.2137349 2083:0.49988037 2085:1.1351736 2091:0.10025689 2097:1.647029 2100:4.3706341 2101:1.0137641 2102:0.60594499 2105:2.7620893 2113:1.1052152 2114:2.6961908 2117:3.1015954 2120:1.1289597 2130:1.2865556 2135:0.26230526 2140:0.55218959 2144:1.8173044 2153:2.8876274 2160:0.47291136 2166:0.37339163 2172:3.1729858 2182:1.2127271 2186:0.65774816 2188:4.3952184 2194:0.10746849 2199:1.6287918 2200:0.089862972 2204:0.20124847 2205:1.3816298 2210:0.60950905 2211:2.1821842 2229:0.86170244 2231:1.2456752 2239:3.0639501 2245:2.0583277 2246:1.9136775 2249:0.49601334 2250:4.9034328 2259:0.10693979 2262:2.2586493 2267:3.6465209 2273:2.0786431 2274:1.804284 2281:0.56193167 2285:0.28501382 2286:1.3795302 2292:2.4542005 2294:1.433658 2298:1.187966 2302:1.7339472 2320:0.49891627 2322:0.82241452 2327:1.7685847 2333:3.4805179 2337:0.672481 2344:1.3277055 2348:0.61284876 2360:0.88330543 2370:1.8625633 2375:1.0511217 2390:1.8927152 2393:3.3175611 2399:0.80739295 2405:0.62711328 2417:1.5683252 2418:1.5956935 2424:3.998467 2428:0.4708097 2432:1.2136494 2434:2.483716 2435:3.3245964 2438:0.51779461 2452:3.2744911 2453:2.5942533 2457:3.7994142 2463:0.054780841 2470:0.082660049 2471:2.1576028 2474:0.79596776 2477:1.3403113 2482:0.56548381 2487:0.99851894 2488:0.58000886 2490:0.32680178 2501:2.2220676 2503:1.8699509 2507:3.9900663 2508:0.96716398 2509:1.6860652 2516:0.27404279 2520:2.3296463 2521:1.5437238 2523:1.1022779 2529:1.8236289 2531:0.79361129 2533:1.6101401 2535:2.2759571 2547:2.3213663 2551:1.3636217 2558:2.942714 2561:3.1088426 2575:5.7291408 2578:0.063223436 2583:0.29355705 2589:2.0855317 2591:3.9416869 2592:1.7618262 2594:4.2202535 2599:3.8146088 2603:0.49421906 2604:1.0445013 2610:1.8245174 2621:4.421545 2629:0.080976844 2632:0.6914984 2637:1.6283104 2649:0.57541043 2656:0.79346406 2672:4.769917 2688:2.2830658 2690:0.42587459 2693:2.513793 2694:0.89676696 2695:0.77138263 2698:0.03749615 2701:1.2695614 2704:0.68859333 2712:0.63032734 2714:3.5591071 2718:4.5711474 2723:0.70479703 2726:0.63047355 2732:0.66279733 2735:3.55986 2736:0.81625843 2740:1.6862805 2745:3.5986595 2752:0.79901749 2756:2.9925308 2765:1.9089186 2766:5.6004372 2768:3.5280735 2771:2.1165454 2777:1.2015696 2781:0.837569 2790:2.669323 2793:4.7188764 2795:3.394315 2811:0.46480483 2814:4.7541437 2816:0.33559763 2821:2.4006889 2825:0.69634438 2834:1.0729445 2842:0.60288537 2843:0.85364473 2849:0.24998611 2857:1.6774685 2865:0.3246482 2870:7.6488495 2873:0.50535262 2874:0.045426309 2878:2.8248651 2882:1.786902 2888:3.3353813 2891:1.3906201 2892:3.0009992 2895:1.5120955 2896:5.1484299 2909:1.9330498 2910:4.3466034 2916:0.76980668 2919:4.7462263 2920:0.69783872 2937:1.9463502 2938:2.5710371 2941:0.44824263 2950:3.5259702 2951:0.12534285 2953:3.7884064 2957:1.391784 2958:0.829862 2966:0.48321807 2971:0.3822186 2978:1.1213641 2979:1.2665548 2985:0.49673977 3005:1.1075625 3012:0.69397759 3013:1.1525726 3015:0.31266645 3033:0.65017051 3035:6.6003795 3036:0.87458777 3037:0.15268195 3041:0.32001635 3051:1.523025 3056:1.2445118 3070:2.2452812 3079:2.3784328 3085:0.74050009 3092:1.3965808 3094:4.1891742 3100:1.0430295 3105:4.1778221 3116:1.8736411 3124:0.70449889 3129:0.61401045 3144:4.3589473 3150:1.1233273 3151:2.0772901 3154:0.46073139 3155:0.043626726 3163:0.6553306 3165:1.8837378 3171:0.22590938 3179:1.8324177 3184:2.7892795 3196:1.6558774 3206:1.273195 3207:1.0146115 3212:2.8178263 3213:0.11005241 3216:2.208308 3235:1.5650828 3242:2.7107525 3245:0.14160815 3249:2.5012109 3251:0.16108504 3256:2.0593743 3258:0.27016568 3260:0.16892585 3268:3.8967144 3274:0.65264577 3275:5.9184947 3276:0.30361459 3278:1.4417322 3282:1.104691 3285:4.4347563 3286:0.70282793 3290:0.66218269 3291:2.3744118 3293:1.8122009 3295:1.5421205 3299:1.2545474 3306:1.4358457 3310:0.59047472 3315:1.0979338 3321:0.098717466 3325:1.0395961 3334:4.4980083 3349:5.9956741 3351:1.1995564 3355:5.520062 3356:0.88861871 3360:1.0978367 3367:0.53441489 3377:6.555162 3394:0.069406867 3401:2.5372069 3407:2.2866302 3413:0.14530984 3423:1.3349814 3424:2.4420762 3429:0.38888794 3431:1.5829341 3432:0.88676834 3441:0.55857944 3442:0.44475666 3443:1.025677 3446:0.076582819 3449:0.21061003 3450:1.8950511 3456:1.5036762 3460:0.15503415 3465:0.827407 3467:1.4067308 3468:1.9207032 3478:1.7615348 3482:2.230999 3484:1.6719239 3486:2.0274091 3491:4.7953053 3494:3.9401712 3496:0.95363593 3501:1.0872029 3504:1.4975557 3508:4.8951001 3509:3.3796935 3513:2.4245028 3521:0.21899781 3529:0.22063763 3537:0.9345752 3539:0.94289005 3540:2.7981865 3544:1.7920668 3545:1.0724807 3556:2.2089984 3560:2.2563691 3564:2.2550352 3566:1.0652521 3568:0.68935633 3572:2.1846023 3576:2.7272792 3577:2.9652433 3582:8.2080021 3586:3.2839384 3588:3.745002 3591:0.026589379 3596:1.6010776 3601:0.59758669 3604:2.157939 3608:4.2626204 3609:0.57768881 3621:3.6421909 3624:3.6551321 3626:1.6656557 3627:1.8287649 3631:0.31389573 3632:1.5789316 3635:1.9829504 3636:3.5734906 3642:2.1834054 3644:3.8910623 3653:6.0703378 3664:0.46253595 3667:1.6419067 3672:2.39522 3679:0.99111253 3683:0.90615666 3689:1.745517 3691:0.17191142 3692:3.9648468 3699:1.5631982 3715:2.0545712 3719:5.6584606 3721:1.8415601 3724:0.9715113 3731:1.0122731 3732:1.0308012 3734:3.5892317 3741:0.15776673 3748:0.66813844 3749:0.013561189 3751:0.69771028 3752:1.7928435 3753:0.93523526 3756:0.7280581 3765:0.1814252 3766:4.8092809 3767:0.20650111 3771:0.56460822 3775:0.27898735 3776:0.96336323 3779:1.2101138 3793:2.8847651 3794:0.1404663 3796:2.2200274 3803:1.7934997 3807:2.0550663 3808:4.4037938 3811:1.6241863 3822:2.4403362 3824:2.9918272 3825:0.27037245 3833:1.3345129 3835:1.1162683 3848:2.7096651 3857:0.47589234 3864:2.2705109 3872:5.1589022 3875:0.53483081 3877:0.8407712 3880:2.31108 3889:1.531495 3891:2.1383271 3892:5.087894 3893:1.8858727 3906:0.059781879 3907:1.7633564 3910:2.5907602 3915:2.3025506 3919:0.77850318 3923:4.6667533 3930:0.36748934 3933:0.78810918 3935:0.59963131 3938:2.3144617 3948:2.570981 3955:0.065858245 3957:3.0351374 3963:0.3308695 3974:1.0752858 3984:5.7035661 3994:0.43881977 4000:1.2755859 4013:2.6138036 4016:1.6731178 4021:2.6569686 4029:1.4055666 4042:0.6243729 4043:1.156018 4046:0.58435029 4052:0.34988335 4057:4.118072 4063:3.3058553 4067:4.4504423 4074:1.038626 4075:1.4793456 4079:0.4307977 4084:2.4198475 4085:0.55510241 
0.9098543867087344 10:2.8942318 15:2.8845315 38:1.0434749 40:1.1187048 44:0.41827059 45:0.599599 49:0.57855988 54:0.21009868 60:2.4856918 69:3.6979194 75:1.4631491 80:1.0578444 82:1.0755465 84:2.820749 94:1.0555375 95:1.1162646 102:0.84068763 105:2.7307537 107:0.95975482 108:3.8381648 110:1.327842 126:1.4783096 145:0.47296098 147:0.044811368 150:2.5942707 159:4.5010657 164:2.2564232 170:0.35676461 179:1.2664534 180:2.3819113 182:2.0550113 184:5.5893488 199:1.14097 200:2.6106045 209:1.869368 210:3.7529984 217:1.3425001 218:2.956377 222:3.1057932 225:2.3493125 232:1.0143671 239:0.51013827 241:2.0737479 246:0.9408251 248:2.5718369 252:2.6036129 256:4.9512167 261:0.9650104 265:3.5802114 274:0.24747866 297:2.4754865 301:0.11640278 303:1.756586 304:0.56955069 312:4.7005887 315:7.9235058 317:1.0082649 324:1.0582868 328:0.99731934 335:0.68059593 337:0.2504296 340:0.060472876 353:3.8331816 359:1.9792752 365:0.70932573 367:5.736125 374:1.1248429 375:0.11193675 386:0.42620629 390:0.23880115 391:2.2757475 411:2.0626411 421:0.091597751 424:2.9280012 434:2.2359946 436:2.8742085 452:0.25803798 456:1.5983233 457:1.76405 460:0.41944399 463:2.7693634 470:2.1628928 472:3.711359 481:0.30038378 482:2.7217481 484:0.11291215 487:6.5107298 502:1.5565035 526:3.1673656 549:3.6890032 555:0.67254043 563:1.0793915 567:2.1076715 577:1.4860656 578:2.213891 593:5.8446527 600:0.30690581 607:5.4758224 612:0.35244191 624:4.4223561 639:1.6417575 642:3.0530608 656:1.2604388 664:4.0714397 670:0.56822014 672:2.3979943 681:7.6022983 686:0.39616406 691:4.6461544 702:2.4967151 706:0.89331263 712:3.2518361 717:2.3971059 720:1.2352271 722:7.4299374 723:1.2010701 739:1.0351628 742:2.5240371 749:2.6481683 750:3.5276475 758:1.5943809 777:1.0412762 798:1.7214807 799:3.2044439 812:5.4362154 820:0.87396795 839:3.3320839 846:0.83763462 867:0.43116269 868:1.4988804 874:1.7032559 878:2.7107065 889:0.28591844 895:3.80387 912:6.9429693 916:3.3334389 927:0.46633816 933:2.5720549 936:1.5838786 941:0.43345931 942:0.40671554 945:0.62293029 948:6.0169625 949:1.71996 952:2.2776761 953:0.38879243 958:2.0588074 959:0.43174824 966:0.79402149 985:2.519171 992:3.7709353 1001:2.1555314 1008:0.078186035 1017:0.90476024 1018:6.885756 1028:2.8542817 1056:1.240811 1062:5.031456 1064:2.7013109 1071:3.4475963 1080:2.6908944 1083:0.055759571 1095:0.70803702 1096:2.9203022 1099:0.48181528 1102:1.4577388 1116:0.71739233 1124:5.613585 1125:1.8962235 1139:2.2006235 1144:1.5019711 1163:0.87608671 1165:1.5286496 1170:2.9015522 1173:0.033653527 1178:0.88626313 1184:0.38183504 1189:4.5464611 1206:0.1417843 1225:0.40832853 1226:1.7801337 1231:0.57517129 1249:0.87916785 1250:0.39574498 1251:1.3385905 1252:0.6865617 1261:0.5256241 1273:3.3137207 1274:0.64887035 1279:1.1836997 1286:12.626504 1292:8.0279922 1293:3.2212374 1299:0.47803611 1320:1.3548696 1323:0.32122892 1347:0.26939249 1349:1.063169 1366:3.1266589 1368:0.79641098 1369:3.4813652 1374:0.21326038 1376:0.4444623 1379:5.4632707 1381:3.2424574 1385:0.63988769 1393:1.1708381 1410:1.2865641 1419:1.2315354 1439:2.1664391 1441:6.7595382 1444:3.4599812 1446:6.3878942 1458:4.5375552 1465:4.3081107 1468:1.3920861 1469:2.3582029 1470:4.6937556 1471:0.56612533 1476:2.5336332 1484:0.12913059 1488:4.0587101 1496:0.42678538 1506:2.5586426 1515:6.684092 1518:2.5590158 1526:0.55414402 1534:0.83146 1550:0.10328943 1558:3.0218375 1560:1.8819215 1565:2.06446 1566:3.3508594 1569:3.4149296 1571:0.92123777 1577:3.9978111 1582:2.4211814 1600:5.6009464 1604:1.6918857 1612:0.49203938 1629:1.1430248 1646:2.1203589 1654:1.1355748 1659:1.7325246 1661:5.3019252 1664:3.3730366 1665:1.0110235 1676:0.73533511 1677:3.6794572 1680:5.8371849 1691:0.3252615 1695:5.6272435 1699:2.3682094 1700:3.6672077 1703:1.2922096 1707:1.2724487 1714:1.8526974 1722:4.2316875 1732:8.6780052 1733:3.702493 1737:4.4546666 1744:0.99008793 1752:0.23707877 1756:0.66833431 1758:1.317239 1767:1.1517106 1774:2.0677457 1777:2.4565842 1784:0.67014658 1790:4.2877483 1794:4.0782433 1795:0.24348757 1806:3.6810651 1807:1.5377836 1812:2.4377882 1813:0.067902073 1818:0.24320778 1822:0.45217207 1824:3.1485419 1832:6.4978251 1833:1.7599018 1837:2.3346565 1842:3.3010218 1844:1.0832477 1846:3.5043285 1850:0.73580909 1851:0.39171973 1852:0.77383482 1855:5.4929214 1856:1.5593126 1862:1.0948827 1872:0.78552341 1876:0.96857816 1895:3.072422 1898:3.6446002 1904:0.95545125 1909:1.7643831 1911:1.133444 1916:1.2780652 1918:2.2265711 1928:2.1268535 1938:1.2495246 1963:0.32456017 1972:2.4043713 1974:2.6346073 1988:0.78432643 2000:4.4975004 2004:0.3426224 2006:0.50520104 2011:0.38618788 2012:1.8038816 2016:1.7244614 2022:1.9565549 2032:0.139285 2038:0.35248563 2042:2.0215158 2048:0.67129922 2049:2.8310392 2056:1.7845434 2057:0.99645621 2065:0.57096255 2070:0.47196233 2073:2.0706789 2075:0.33146662 2088:0.5738672 2100:4.5907001 2105:2.5478604 2112:1.0585258 2113:1.6347165 2114:0.72281212 2117:0.71723258 2120:1.3944277 2140:3.4013081 2144:1.7729611 2172:5.6290922 2173:1.377508 2191:0.90370387 2193:0.016705036 2198:1.0261892 2203:2.1218262 2210:0.66693395 2214:4.7103372 2223:1.8324447 2246:2.5056701 2253:0.087724894 2267:1.5629635 2274:2.1297221 2286:1.7448913 2294:0.33553475 2300:1.5334067 2307:1.6213312 2317:0.50748843 2318:0.37553108 2322:1.3261008 2333:0.13961171 2337:0.55606043 2341:1.2273659 2348:0.99299192 2357:1.7185044 2375:0.26215404 2400:1.9106481 2408:2.039928 2417:3.3000083 2418:3.3219309 2435:1.0785875 2446:2.3584681 2457:3.0407512 2458:7.1349015 2471:1.1951152 2476:2.4384139 2487:1.4579787 2488:1.7896855 2496:0.48492461 2497:0.77771431 2499:0.53197479 2513:1.1628253 2536:2.4529376 2561:4.5468426 2562:1.6028717 2574:3.9657664 2577:2.6148252 2578:4.2379065 2591:3.2956235 2592:1.160688 2594:1.6731441 2620:2.6557617 2636:0.50570226 2642:2.2686234 2643:0.048011828 2649:2.2547545 2652:0.91396832 2656:1.6505173 2658:2.7147205 2674:1.4699546 2695:6.7313819 2698:3.0996215 2701:3.467613 2704:5.3137565 2706:2.2265615 2707:5.5078974 2716:3.8255315 2718:0.49002174 2719:2.4091766 2731:0.69632518 2740:2.8622756 2743:1.8387433 2745:0.5868485 2746:0.42528456 2752:1.8295345 2753:1.6234146 2765:3.4130955 2777:5.1392598 2778:0.47249815 2784:0.42359757 2790:3.8811431 2793:7.736403 2796:1.0944053 2797:0.61153603 2805:7.0131826 2809:1.6203296 2814:2.3635972 2817:0.084985644 2821:6.090445 2825:0.056360513 2834:0.20338237 2835:0.72153854 2838:0.47905791 2849:1.8032436 2857:5.9543118 2864:1.4738866 2870:2.6895268 2878:4.134129 2882:5.2219744 2887:1.1168504 2888:1.4222659 2894:0.19103551 2896:3.0377259 2903:0.92189586 2910:4.3907804 2911:1.8734504 2929:3.8769326 2937:6.0280457 2940:3.348809 2948:2.6287851 2965:3.9546976 2981:2.3481019 2982:2.7209871 3010:3.2598939 3033:0.63457561 3035:6.55724 3036:1.2218332 3041:1.4666382 3048:3.2665904 3057:0.37067431 3065:2.7434914 3081:2.6494 3085:0.53243721 3087:3.7134352 3094:2.3243964 3105:5.2730923 3121:0.66111493 3151:1.6464078 3152:5.876821 3154:0.64300358 3159:0.62143779 3160:2.1849551 3162:1.1497943 3163:1.0545657 3169:1.2585365 3179:3.7635136 3216:1.3615391 3219:0.10422924 3228:0.23236036 3229:0.75103223 3231:2.7113304 3233:3.1239212 3235:2.4520137 3242:4.0635281 3246:1.2930248 3247:4.6407938 3253:0.23935109 3256:0.63216788 3259:1.2598809 3260:0.87292707 3265:0.8423506 3268:0.5246222 3284:1.4917259 3291:1.2808727 3294:1.6310823 3295:1.287442 3299:0.44060838 3302:2.5860767 3310:1.6194524 3334:3.1304145 3349:5.2202544 3351:0.35257417 3355:0.7198478 3359:0.93632191 3364:1.3387575 3365:1.6754421 3381:1.7380438 3382:1.5311481 3386:1.8103176 3388:2.1120305 3401:2.0378089 3405:3.6100941 3411:1.5755031 3413:3.6462734 3422:5.5135694 3437:2.5994825 3438:2.8420725 3441:0.31152233 3448:1.5706251 3449:2.402081 3457:0.59554416 3458:0.026747614 3460:1.4498874 3467:2.536582 3471:1.3286858 3482:1.1224264 3491:1.4617517 3493:6.162528 3494:4.3710213 3501:3.8142948 3508:3.5000746 3514:0.77657139 3529:1.2724587 3531:1.5307481 3534:4.2397547 3536:2.2971926 3539:6.8042121 3548:0.74010944 3556:0.26817816 3560:1.513345 3564:0.44275191 3565:4.0176764 3568:2.2658112 3569:0.70029354 3577:0.37160829 3582:2.204684 3592:1.8673527 3593:0.31393433 3596:6.1796756 3598:0.34027183 3608:0.52709961 3621:1.4217259 3623:0.45453495 3624:1.7441727 3627:1.8518029 3629:0.37687984 3636:3.7737517 3639:2.0372424 3644:1.9361582 3649:1.7431595 3653:4.1229067 3667:0.39190146 3675:0.10683976 3677:0.20223445 3679:2.4444399 3686:2.2002156 3690:3.8835902 3691:0.42149127 3698:0.017220765 3709:0.74674016 3711:1.595765 3718:0.28257558 3719:3.3963635 3729:3.092721 3731:1.4066975 3732:1.2238549 3734:2.8738134 3744:2.2105949 3749:0.96528614 3753:2.0872641 3756:5.5822067 3767:0.61317396 3779:1.6245673 3793:2.7515841 3797:0.56922364 3802:1.7543063 3803:3.1509285 3812:1.2538708 3822:0.48456675 3824:5.6342311 3831:0.42544276 3837:0.68802202 3841:3.9051747 3860:0.81507963 3864:5.0782905 3872:2.4971576 3888:0.23330879 3891:3.7315948 3892:1.0076212 3893:0.4689467 3907:3.0713811 3909:0.81210345 3912:1.7442676 3915:2.5335729 3923:0.14726478 3926:2.1009595 3929:6.2734084 3938:5.5429559 3950:4.5490189 3955:0.18905476 3957:1.8385907 3972:1.1982279 3997:3.1049132 4000:1.9639277 4001:1.0053549 4003:4.9525194 4005:4.9052067 4014:2.4491892 4018:6.5894918 4021:4.671176 4023:2.2999597 4033:1.0785279 4071:3.1472797 4072:0.85668582 4074:2.3306274 4084:3.4443676 4090:0.18402553 4091:0.3900089 4095:0.60022986 
0.4737416252821795 2:0.27486628 4:0.88268459 7:0.40224931 10:3.0450935 15:0.4057529 18:0.2856226 19:1.7261407 29:0.77232206 30:4.0656891 38:2.0443687 40:0.22414899 84:3.2874079 94:3.8335121 102:0.78031111 105:1.4306768 108:4.4527049 110:0.88948333 111:0.098783433 114:0.28037927 122:0.19213298 123:0.99061453 134:1.5061558 145:0.44916719 161:1.9073178 170:4.6430068 179:0.025680289 180:3.0507214 181:1.1912252 182:3.3367987 189:1.5556085 199:2.1281533 200:7.0628757 210:3.7941399 217:4.4092646 222:3.9530373 223:2.1662598 228:0.17834389 240:2.8587179 241:4.5029106 247:3.4470432 251:0.52220845 252:0.80144781 256:3.6828823 261:1.3322237 267:3.0015285 277:0.54823244 290:0.94694692 297:2.4232941 301:2.6549661 311:3.8405006 312:4.3269043 314:0.80539465 317:0.49042517 321:1.7730732 324:4.3081617 328:0.99851942 335:1.4086586 342:2.2400541 348:0.52455914 353:2.5622175 367:1.697506 375:0.42087936 379:4.6269784 385:0.04052797 386:1.6557252 424:2.1802504 434:3.782819 436:2.6388631 452:2.7422326 454:0.81314468 456:0.76933628 457:1.3473262 459:1.5392371 472:4.8446393 481:1.8014387 487:6.4378319 493:0.17516497 498:2.1616595 499:3.8617158 505:3.5854247 515:1.4106936 520:1.0699214 526:1.5594155 546:0.23607427 549:2.0160069 557:3.3816595 560:0.063445866 562:8.0098286 567:2.028672 573:1.522406 577:5.1176324 578:0.12884116 593:0.35808215 595:4.2325082 601:2.173229 603:2.2881944 607:2.2731657 624:5.3520083 637:0.69038701 643:0.45793572 651:0.554672 656:0.20832935 659:1.5618924 662:0.29468158 664:0.5606581 672:3.1116021 674:1.0942852 681:3.1619005 684:3.0170712 689:0.10975817 691:7.0139141 696:2.9003842 702:0.59557998 706:2.314697 712:2.3531864 717:7.4246855 720:2.6837833 721:3.2354233 722:6.7340803 737:0.73266339 748:0.34283766 750:1.5707772 759:1.6047752 766:0.92020321 798:4.1476116 799:5.2351093 803:4.5269127 812:4.7522268 820:2.4711967 826:0.60054266 840:0.499749 842:0.46917942 846:0.092053369 865:0.14827216 866:0.69128835 868:6.019249 876:2.4116552 878:3.9306984 895:1.2018569 912:4.4401927 916:3.0845268 945:0.58759427 948:0.93906969 957:0.94618779 959:3.9227612 965:1.8411409 966:0.19820727 974:2.0562909 982:0.048338398 985:3.0183105 1001:4.9385138 1008:2.0735958 1015:1.273263 1016:2.1625149 1018:9.8799038 1019:1.7213299 1029:2.1511879 1050:0.17367779 1062:4.6347423 1064:4.9894743 1071:4.5432754 1080:3.2523315 1082:3.2321429 1092:4.8380642 1095:1.720283 1096:7.9806571 1097:0.34662032 1102:4.6692152 1124:2.7373812 1125:3.615777 1139:2.4776559 1163:1.0117464 1165:4.9886107 1175:0.83902496 1181:0.66616642 1206:2.0401897 1215:0.021371067 1220:0.019380644 1223:1.5166659 1227:1.088841 1228:1.1883675 1231:0.89343953 1236:3.349293 1242:0.26998433 1246:0.43174878 1248:0.36645257 1249:0.10258567 1250:0.10666877 1251:3.139895 1273:0.1286712 1283:5.366734 1286:5.822084 1291:1.3523465 1292:3.4185791 1293:2.4359202 1295:0.71934927 1297:0.82950628 1309:6.2487936 1317:1.6541169 1335:0.75624937 1340:0.34068251 1342:0.52046895 1344:1.8963211 1347:1.3704554 1356:0.73714763 1357:3.8184228 1364:0.99819624 1365:2.1409547 1366:6.0067554 1368:0.80474305 1369:6.9750776 1380:0.56832409 1381:1.8952655 1389:0.47961563 1396:3.0221863 1399:3.2113583 1406:2.0032048 1407:0.086696684 1410:4.8106842 1414:0.15891643 1419:1.3505993 1426:0.45871186 1430:0.49745131 1431:2.3106217 1433:0.64372408 1441:4.214797 1444:0.85552555 1446:0.15616995 1458:4.2151866 1463:0.71416032 1465:3.2223463 1466:0.066295713 1470:2.3503327 1471:2.0962377 1476:6.2865076 1484:2.5499442 1488:2.8752513 1503:4.3891559 1508:0.67614126 1513:2.4556234 1516:0.71874768 1526:0.18104374 1538:0.40179086 1556:1.0316402 1560:0.45592749 1562:2.0504453 1565:0.98137957 1566:2.2949753 1569:3.3703463 1571:0.44004935 1577:4.4356952 1586:3.3458977 1600:5.7225261 1606:1.2107177 1616:0.68344891 1628:1.7050705 1636:0.061129436 1640:0.67070043 1648:1.0091563 1659:2.579411 1661:9.565918 1664:2.9086225 1668:0.91100973 1675:0.52037799 1677:4.52843 1678:1.157264 1680:2.4519169 1683:1.0587223 1694:0.70020288 1695:4.7856698 1697:0.99194074 1699:3.7464228 1700:5.8773451 1706:1.4625394 1712:0.32699549 1726:4.6195521 1733:2.0010526 1736:1.0006046 1737:7.8665423 1746:0.17013657 1753:1.0508698 1754:3.0211978 1758:1.7517853 1762:3.2685385 1768:1.1027732 1775:1.5758343 1777:4.3186126 1778:0.35161766 1779:0.56014526 1780:1.2541574 1790:2.3160481 1792:0.47458169 1795:4.7937341 1800:2.6227801 1804:1.2823147 1806:3.88941 1824:2.672828 1837:2.7050509 1842:3.2262013 1844:2.1803064 1846:1.1897234 1849:2.9591727 1850:0.86279285 1852:3.3001685 1855:0.99378985 1856:3.1181085 1876:0.65382236 1877:2.9456511 1897:1.0387287 1904:1.0516874 1911:1.9963527 1918:0.57263029 1926:4.1614671 1927:1.5722466 1928:9.6605539 1938:0.28387338 1943:1.4913768 1963:2.334615 1964:3.6065609 1970:1.2490481 1972:4.462194 1974:4.7135601 2000:2.1014171 2004:2.4154172 2009:3.6631675 2012:3.191534 2029:0.20241237 2030:1.8642131 2048:4.6517458 2049:1.6043108 2053:0.86287963 2056:1.543115 2057:1.8550156 2060:0.86261708 2070:2.5539446 2086:0.47135729 2096:0.15880717 2100:0.071008623 2105:3.65798 2112:4.1564522 2113:0.50815123 2117:0.56739151 2120:0.083839282 2130:0.35713187 2140:1.1156735 2144:1.7118726 2160:2.1509469 2172:4.5707579 2184:0.24843332 2187:2.7267199 2188:0.39251095 2194:0.83089185 2203:0.61421835 2223:3.3898003 2228:0.36288595 2237:1.587694 2250:1.2831829 2253:8.1468878 2275:1.2572864 2281:1.5845109 2282:1.6640763 2286:1.7738017 2294:1.7294408 2303:0.88617134 2317:1.8957676 2319:0.2463308 2322:1.7269624 2324:0.75191438 2333:0.44121498 2336:1.8001559 2337:0.87851816 2341:3.4470782 2349:1.7926286 2374:0.18631309 2375:2.3881938 2390:1.6854612 2400:3.2236423 2404:4.2259011 2412:0.58952838 2418:2.914475 2431:1.5424968 2457:4.6958122 2458:5.0047369 2473:1.0602648 2476:1.3032031 2487:3.1781967 2506:0.3838968 2518:0.03419584 2519:1.186815 2520:0.62796926 2528:0.64696532 2536:4.8879499 2554:4.5379858 2561:5.3933396 2563:0.050047606 2574:3.5423238 2575:3.2279649 2577:5.8959827 2578:2.2786789 2591:0.028008021 2592:2.3683126 2594:0.84084797 2604:2.5443308 2612:0.3582803 2614:0.1701114 2620:4.7638035 2629:1.1894095 2636:1.2648312 2637:3.0950809 2642:0.66574198 2643:2.9238231 2649:2.5582583 2652:0.62752008 2656:1.0599408 2658:1.5090191 2672:0.046947211 2688:1.8221254 2695:2.295728 2701:2.1112061 2704:10.62765 2707:4.7630606 2710:1.2690794 2715:1.4402885 2718:1.967584 2719:2.5644658 2723:2.6056395 2725:2.4827423 2736:0.25680846 2740:3.9394011 2741:3.9369931 2743:0.16201118 2745:4.3059101 2752:3.6984234 2759:0.58791637 2763:0.94377184 2766:4.339325 2771:4.7100639 2775:0.08045125 2777:1.0426186 2778:1.6868927 2789:1.850332 2790:2.5637517 2793:6.0135427 2805:4.0157185 2808:1.6369177 2811:0.30657649 2814:4.1376815 2821:1.2069582 2825:0.5103392 2828:3.7230406 2834:5.1252866 2844:0.086393297 2845:0.71126044 2848:0.22693163 2849:3.852386 2857:2.83531 2870:1.8823493 2873:0.66259861 2878:1.5654809 2882:3.758821 2887:1.1139745 2888:0.86599863 2895:2.1464059 2903:7.041934 2910:3.9658823 2920:2.5700471 2926:1.8489456 2929:3.0280457 2938:1.0853732 2950:6.3532238 2960:2.4182405 2965:2.5096095 2968:0.72502178 2974:2.1355381 2979:0.50557899 2981:5.8086309 2982:2.9570441 3000:1.2882296 3005:0.91670084 3010:4.5602317 3015:0.9009639 3020:0.43334672 3035:8.010417 3036:4.5050273 3041:2.0500288 3048:6.2418947 3052:0.31121135 3057:1.6879078 3065:3.3605504 3081:0.020539284 3105:8.2166119 3116:5.084084 3122:3.6628685 3144:0.50365531 3146:3.0435648 3152:1.9707797 3154:3.2758539 3162:3.1321433 3163:0.42892867 3167:0.49494454 3169:2.3447957 3179:4.6079955 3228:0.69908565 3232:2.1873641 3235:6.6967673 3242:1.9047943 3246:0.37222591 3247:2.1991944 3256:1.7030363 3257:1.4270899 3260:3.0101886 3268:2.2283638 3286:2.5382023 3294:3.9606445 3324:2.4226856 3332:1.2536916 3334:1.7165947 3335:2.0130026 3344:1.4673227 3348:1.2201631 3349:3.6188674 3351:3.6948853 3356:2.6448698 3363:5.4746923 3365:2.5871801 3367:0.31476039 3370:1.3837473 3375:0.50330406 3386:1.5664769 3388:0.60840642 3402:1.2968051 3415:2.3025825 3427:0.54885125 3437:0.06483084 3438:1.6052389 3449:4.9956522 3478:0.84757113 3480:4.6731019 3491:3.8553503 3493:3.2998061 3494:2.8400578 3496:4.2031841 3508:6.1475616 3514:1.710515 3521:2.6034493 3526:0.41866809 3531:3.5723457 3534:1.4701834 3536:1.4706075 3548:0.026704669 3560:1.7769837 3565:4.0324407 3568:0.68606389 3569:1.3694673 3576:0.057237092 3577:0.37279889 3593:2.4431448 3596:2.0552089 3604:7.6559186 3608:2.7009158 3609:0.49056041 3614:3.5068328 3615:1.0772216 3617:2.0348544 3621:2.9933028 3624:3.5451274 3627:1.2778327 3636:1.6990683 3639:2.0392506 3643:0.49359488 3644:2.5812905 3653:8.2221231 3666:1.0875657 3667:0.065398544 3675:0.69979984 3679:4.0832977 3686:0.22846541 3689:2.9333341 3690:2.047004 3691:0.53980917 3703:0.84163958 3709:2.114738 3711:2.2784677 3715:3.0703363 3718:0.23130217 3719:0.95971215 3725:0.89446819 3732:0.096600607 3734:1.1156026 3735:0.028479457 3749:0.46986505 3752:4.1290507 3753:0.62260509 3755:2.7332883 3759:1.4693396 3767:1.1123638 3776:3.1068339 3783:1.1579931 3789:0.33978269 3793:3.3455386 3797:4.4759417 3803:4.4509807 3808:2.3359284 3813:0.62833804 3814:2.4538758 3818:1.9635653 3822:1.2754296 3824:1.6702911 3831:1.694544 3837:2.0833919 3841:5.742188 3847:3.3484011 3857:4.4458394 3860:0.28768468 3863:0.11176988 3864:1.6274675 3872:0.89956081 3877:1.8199662 3885:5.7180805 3891:10.016596 3907:0.97697014 3909:0.89438266 3915:0.71105683 3923:4.109179 3926:1.5673248 3938:2.3576345 3942:0.4244945 3948:1.1687016 3964:1.3389373 3966:2.5888636 3972:4.0258913 3982:1.1398407 3984:0.085083447 3986:4.9281983 3997:2.9937932 4001:2.0419672 4003:0.24773955 4004:0.61676311 4007:3.9702699 4010:0.74328244 4014:2.3988543 4016:0.013806105 4018:1.190011 4021:3.4881096 4036:1.5627573 4038:2.9581742 4051:0.65209234 4052:1.4280627 4057:2.1142714 4067:0.010919854 4071:6.2919292 4072:3.6390297 4082:4.8386593 4084:2.1408739 4090:5.0847855 
0.3580702708217727 4:1.0530653 10:3.901638 15:1.284875 20:4.5557156 26:0.49325711 29:1.0285515 30:0.13412446 38:0.88321155 39:0.22568262 40:1.2439618 44:1.0529122 45:1.8807114 54:2.4048626 62:0.20007581 69:2.4328806 80:0.34575602 83:1.1742176 84:2.9010248 86:1.7028821 94:4.0985813 97:0.26913315 100:3.5524368e-05 108:0.082045741 110:2.1059117 111:1.7390574 112:0.2440353 114:1.1105204 115:1.4085367 122:0.074502647 123:3.2397721 125:2.3960392 130:0.45404488 134:0.64049268 143:2.2545831 159:1.9037786 161:1.7263633 168:0.19587961 172:0.091743246 178:3.1472747 180:2.4309464 181:0.83857608 184:0.059688069 188:0.097427249 196:0.086265683 199:2.5407281 200:3.3493643 210:6.0506434 211:2.2816596 217:3.3248558 221:2.3372266 222:4.0422339 228:1.2511063 235:0.68175298 236:2.8888795 240:1.3222557 241:2.2987983 247:2.7984493 251:0.8324635 252:1.1200814 256:0.4940654 261:0.49966791 265:0.435743 282:0.22970513 284:0.49774781 290:1.1477014 295:1.1936065 300:2.3927116 301:1.2521725 304:0.87982708 312:4.0344272 315:1.7111493 317:1.4299067 318:0.9953239 321:0.16715917 323:2.1064987 324:1.4926336 328:1.9762766 342:2.0195377 359:0.13775888 363:0.97868896 365:1.3405299 373:1.6926117 374:2.0157914 378:1.6049292 379:2.0018065 382:3.4556699 384:2.2190964 386:0.76281589 388:1.5039628 390:1.0838015 391:0.8060174 400:2.1838055 408:1.0720776 410:0.66801769 420:1.2530789 434:1.8042252 436:2.1032128 450:1.5701674 454:2.4455376 460:0.24874559 463:3.048007 472:1.3458955 481:2.6362352 482:2.2692449 484:2.6687007 487:5.2741446 489:1.6772592 493:2.0227456 498:1.928236 499:1.7822087 505:2.0332105 507:0.0097097307 517:1.1092898 520:0.1453421 526:1.2492832 527:3.6528127 552:0.47670865 553:0.31230408 555:1.2692645 557:4.0051451 559:0.15149942 562:2.6733718 565:0.34849066 570:2.3182132 577:1.421012 592:2.2869642 593:0.46867749 601:0.014580995 603:1.2737414 605:2.3761346 624:2.4410133 637:0.62602979 642:1.8267816 651:4.4022522 656:2.0989134 659:3.0342009 661:0.15175277 662:1.743241 667:2.0616598 670:0.70525187 672:2.2999001 674:2.9514854 677:0.22854793 681:3.5719485 683:0.50437546 684:1.0781876 686:0.81826836 701:1.8202823 702:1.6449177 705:2.6573389 706:5.3867245 711:1.6119442 717:0.63396257 720:1.7514226 722:5.7532024 723:4.171711 726:0.85924506 730:1.1154656 735:2.3352823 750:1.3505256 752:0.033541352 766:4.1291223 771:0.76479185 776:0.66639131 777:1.4018116 786:0.69372773 798:0.32445857 799:1.2435175 801:1.3329877 807:0.098251373 811:0.53918332 812:2.9066007 826:0.025313556 834:0.063669682 838:2.677278 839:0.55162424 841:3.0977671 842:0.13377956 848:0.58889806 857:2.4876163 860:0.48180133 863:0.13779473 867:0.83170098 868:0.71092546 874:2.1936712 878:1.0433989 881:0.64364314 885:0.66969609 888:2.4605474 902:1.1808937 912:2.1368856 918:0.35806182 930:2.2938159 945:3.1472561 947:3.9773841 948:2.5020695 951:2.291532 952:1.2766206 958:1.7258009 965:4.7376914 966:3.2400753 967:0.25030702 974:4.0507092 985:1.4763948 989:0.83472788 993:0.56915951 996:0.12745535 1001:4.2948742 1006:2.4029357 1013:0.85321867 1015:0.96346891 1018:3.4544351 1022:2.0058849 1059:0.68446684 1062:1.8477142 1071:0.14598674 1074:0.96372849 1077:0.89480102 1087:1.839679 1090:0.4566468 1092:0.90815711 1096:5.4421721 1097:0.31648332 1102:3.3039141 1111:0.57542306 1124:2.8162556 1125:2.9799201 1139:3.1130753 1144:1.6911771 1159:1.4545882 1165:3.0381391 1170:2.0395432 1175:0.48108631 1176:3.14255 1180:3.3135264 1181:4.4808331 1189:2.9818742 1192:3.3785083 1206:5.7076702 1214:0.2565327 1220:4.5852919 1226:0.98494941 1234:1.48404 1235:0.061285853 1236:2.3123598 1242:2.4136825 1243:0.8532474 1246:0.72640753 1251:0.68591958 1253:0.81527251 1262:0.22238675 1264:0.22277856 1268:1.1081476 1269:1.0263931 1279:0.94478458 1282:0.24248126 1283:0.24765441 1286:4.9152937 1292:2.7440701 1293:2.9566333 1295:2.0247264 1302:2.8634017 1306:1.4973162 1307:0.057452083 1309:5.8649454 1320:2.1728058 1329:1.9764531 1335:0.34443873 1338:1.649166 1340:0.11582516 1344:1.2582675 1348:0.38976479 1357:0.67415267 1359:0.13090318 1364:0.96432936 1366:4.7487006 1368:4.4813542 1369:2.5927448 1377:2.6504941 1389:3.0270433 1393:0.90708256 1395:0.58578074 1397:1.3281331 1399:1.4572858 1406:2.4173992 1407:0.31629455 1408:0.77550352 1410:3.0373363 1417:1.2378813 1421:2.8524575 1426:1.8661369 1429:3.1986213 1430:0.75848866 1432:0.83700478 1433:1.7700754 1435:4.6842885 1439:0.1765282 1443:2.3747394 1444:2.8559041 1456:1.5405912 1458:3.6764903 1462:1.2781273 1463:0.10588902 1466:2.2673454 1470:5.2273002 1476:3.5700846 1477:2.9943419 1484:2.6543877 1487:1.3016264 1495:1.7569427 1500:0.96682298 1502:1.9395919 1503:2.2796357 1513:4.2778783 1515:0.36009318 1516:4.0887885 1526:1.8293374 1547:0.24206328 1551:2.2450485 1556:2.1765618 1560:2.3066792 1562:0.49918437 1566:2.0404978 1567:1.0214622 1569:1.8211557 1577:8.1094103 1582:3.8522391 1583:0.28282049 1587:2.4677734 1588:1.2999972 1590:0.14833885 1600:2.8970273 1601:3.3044457 1604:2.8087428 1606:0.79845923 1612:3.0806789 1618:3.285233 1624:2.13551 1630:0.81057334 1636:1.764907 1637:1.8329468 1640:0.18898439 1648:1.8275787 1661:2.5452178 1663:1.6236235 1665:0.42381784 1667:1.9718866 1668:0.97187161 1669:0.71642953 1673:0.36009368 1675:2.5387681 1677:4.8938904 1680:0.67728961 1690:0.70923364 1694:1.7951033 1695:5.8479128 1696:1.1214769 1705:2.2767937 1707:2.0928905 1711:0.43039194 1712:2.8744025 1714:0.35889173 1722:1.62608 1724:1.1606224 1730:0.36340725 1732:0.13033044 1736:0.77257454 1744:0.7832129 1746:0.1962384 1758:2.8212693 1778:0.075459778 1779:1.2601881 1780:1.2946246 1790:3.8533392 1794:2.002351 1795:0.56909466 1796:1.4802601 1803:2.0183277 1804:0.64310884 1806:2.4306793 1807:1.0774889 1811:1.0598298 1812:3.974643 1822:3.7595537 1824:2.4990933 1830:0.036156923 1837:1.9642103 1842:3.4743595 1844:1.5922568 1846:4.4420114 1849:0.56625712 1850:0.2764135 1852:1.1913859 1856:1.0529196 1857:1.0144792 1865:0.13738644 1881:2.0684965 1885:0.37750006 1888:2.3139267 1897:3.1602073 1898:1.1806656 1904:1.4638156 1908:0.11599527 1923:0.37858185 1925:0.097249538 1928:3.6237576 1938:3.8741078 1943:2.7045286 1951:1.3009042 1959:0.79331291 1964:1.2772362 1970:1.0828462 1972:1.2806518 1974:1.4377006 1988:0.28667712 1993:1.7561157 1997:0.057970226 2000:4.5369506 2004:0.42868859 2005:4.3081894 2006:3.2505736 2009:1.7505171 2011:3.2592852 2012:2.526269 2022:1.8605943 2029:3.4512355 2032:0.2260364 2042:1.3639524 2048:4.892417 2050:0.016005814 2056:0.28646141 2057:0.6633141 2058:1.6744337 2066:2.8051498 2075:4.917058 2083:3.6634083 2085:2.3700697 2088:0.056341395 2097:0.10605928 2099:0.038484186 2100:6.1849122 2105:1.8401265 2107:3.3221886 2112:2.7953079 2116:1.3908001 2130:0.91347337 2131:0.33982497 2140:2.2568645 2141:0.792831 2144:5.0290599 2148:0.031120151 2150:0.35569391 2153:2.6918354 2160:3.5330555 2166:1.7585528 2172:2.576936 2188:4.7944865 2194:0.84027952 2198:5.5605884 2199:2.8288574 2200:2.2441239 2211:0.20043877 2214:3.7972317 2226:0.35346666 2239:2.187813 2240:0.29280645 2245:1.2253051 2246:2.2338517 2250:5.7946329 2253:1.7374344 2257:0.70003021 2261:0.39228278 2267:3.1763303 2273:1.1355485 2276:0.079093963 2281:0.14229429 2294:1.7445455 2317:1.0459385 2321:0.76886129 2322:1.5058502 2324:2.4440503 2333:0.86759132 2336:0.70762777 2337:3.1193507 2348:1.4395025 2349:0.33117753 2390:1.6082929 2393:2.3570397 2399:0.46612772 2404:0.19382437 2405:0.21606302 2408:1.3469493 2417:0.77494538 2418:1.0363247 2424:0.2384592 2425:0.062850237 2428:1.6855887 2431:1.7279489 2432:1.7790673 2434:1.9800689 2435:2.4314878 2438:0.20220667 2441:1.0386324 2453:0.39850613 2457:4.6165257 2458:1.3338878 2459:0.039504677 2470:0.97277176 2471:0.8325057 2473:0.72252715 2474:0.0830248 2477:2.7071638 2487:1.8635943 2488:0.5079006 2500:0.54777312 2513:0.049109459 2520:0.69646299 2522:1.5124154 2528:1.9500763 2533:2.4298387 2537:0.41063181 2539:1.2356361 2552:1.8614607 2553:0.15639654 2559:0.027852058 2561:3.9104524 2574:1.8615706 2575:4.060699 2577:0.79519606 2589:1.126544 2591:2.6439922 2594:1.1738122 2599:0.64070159 2604:0.69911981 2612:1.8372118 2620:0.20780602 2621:0.38681352 2637:2.454113 2639:0.37829238 2643:2.6364691 2648:0.60704899 2649:1.7717781 2651:2.2359018 2656:2.555398 2658:1.0731518 2672:2.407701 2678:0.10556567 2688:3.9030182 2689:0.055135518 2693:2.2188559 2694:0.10688715 2695:0.036962666 2698:1.8372505 2701:2.8621287 2702:0.82868886 2704:2.0219989 2714:0.62530893 2715:2.1826007 2719:0.012625486 2720:0.19966534 2723:0.11997451 2732:0.60928357 2736:2.6425743 2745:3.3910248 2752:0.39061254 2756:0.71015495 2765:1.8001034 2766:5.7140121 2768:0.83111483 2771:2.970681 2777:0.65633655 2781:0.05256173 2790:3.7152038 2793:5.1606474 2795:2.4278333 2805:1.5257381 2807:0.76924253 2811:0.54930389 2814:7.3784027 2816:0.81602824 2821:2.4870062 2826:0.30875927 2831:0.34946668 2834:0.6954186 2837:0.94535005 2842:3.0010893 2849:1.4402273 2853:0.0031527579 2857:1.1394265 2870:3.6720445 2872:0.53042674 2873:3.2081275 2878:1.268786 2882:0.034008384 2887:0.52981341 2888:4.8786821 2895:1.1943481 2896:0.12711658 2898:1.4618843 2910:4.0607181 2911:0.82792825 2915:0.38658205 2917:0.61469185 2919:3.8789661 2920:0.94847828 2927:0.36278951 2929:1.0332618 2938:0.43603918 2941:0.3142269 2950:0.42347896 2957:2.3005686 2965:1.6042829 2969:1.5637732 2978:4.4992785 2979:0.50540423 2981:1.8792061 2986:0.87432265 3015:2.0398345 3020:1.6683801 3035:5.5634437 3036:0.3072499 3038:0.21474716 3047:0.49344534 3052:2.6875396 3065:1.5247643 3066:0.89397669 3072:0.55461222 3077:0.0066860318 3079:2.5385864 3094:0.11047265 3105:3.4341102 3116:0.69513577 3117:0.24487925 3129:4.3368979 3144:1.0966693 3152:0.65799624 3154:2.4624696 3155:2.7426949 3157:0.18550648 3161:1.695976 3162:3.219938 3163:2.6357114 3164:0.49806878 3167:0.111377 3169:0.68009126 3172:0.52077425 3179:1.677465 3184:1.7371235 3185:0.80568933 3199:1.1775414 3206:0.72026879 3211:0.37804797 3212:2.0624549 3213:0.95808953 3235:1.0238321 3242:0.37050569 3245:0.5349884 3247:2.0218186 3249:1.2185543 3251:2.3527839 3253:2.0529816 3256:2.3911879 3257:2.6614597 3258:0.52684164 3275:2.1525185 3276:0.38412836 3277:0.22046408 3278:0.58054036 3282:0.63124573 3285:0.59372461 3286:2.0423899 3290:1.2491362 3291:1.5026218 3293:1.5056137 3295:1.0808039 3310:0.1259186 3334:5.3084326 3348:1.3499568 3349:3.8592575 3351:1.1535153 3354:0.81053388 3355:2.4089234 3356:1.5801425 3363:5.0946693 3365:1.3905076 3367:0.079913333 3377:3.1839881 3384:0.058906704 3388:0.80703586 3401:0.69181371 3407:1.0349863 3411:1.1652837 3413:0.8908273 3415:0.85191941 3418:0.28103453 3423:0.5628823 3427:1.0295786 3432:0.45439869 3437:0.6572606 3448:0.50591147 3449:1.2235675 3452:0.25869411 3457:0.02179952 3467:0.26161769 3475:0.40708792 3478:1.6623014 3479:0.88350517 3484:1.2984608 3491:2.9799857 3494:2.2080202 3496:5.6058536 3504:0.76125884 3505:0.85513794 3508:3.9783924 3509:2.4939468 3513:4.09727 3521:1.7002584 3526:1.1338785 3529:0.89919162 3531:2.103755 3537:1.5443033 3539:2.2221828 3540:1.4088351 3560:3.3149087 3564:0.81824648 3565:0.0077610984 3568:3.2313297 3569:1.4511073 3576:1.6070229 3582:2.0373077 3586:1.3474755 3588:0.9718523 3589:0.27479622 3591:0.38402176 3604:5.4545717 3608:6.5952477 3615:2.1303799 3616:1.760554 3621:2.6371527 3624:3.9394197 3626:1.0574001 3627:2.3517232 3629:0.022859544 3635:0.44654945 3636:2.2808118 3644:5.4743023 3650:2.4881387 3653:2.5803993 3666:0.99801952 3667:0.55091572 3679:1.1488638 3681:1.0064627 3683:0.39026764 3689:0.19205725 3691:1.7860923 3692:1.0929821 3697:0.086344987 3705:1.2164998 3706:2.1644552 3711:0.59673536 3719:4.8058295 3731:1.5817016 3752:2.5906243 3753:1.5709581 3757:1.2834318 3766:4.1799073 3767:3.406806 3776:1.0545175 3777:1.1453785 3789:0.004753381 3793:1.9383274 3796:0.68679309 3797:2.4296961 3803:4.4082813 3807:0.24895664 3808:5.286777 3813:0.58855146 3818:0.11637895 3822:3.3419075 3824:2.2868428 3836:0.13762292 3841:1.4809881 3849:1.7564714 3852:2.6897783 3857:5.3647089 3862:0.13449492 3864:3.5827436 3872:0.2856656 3875:2.4556441 3877:2.3716233 3885:2.0406189 3886:0.33249238 3889:1.6773393 3891:3.7046945 3893:1.3844184 3895:0.84261411 3900:0.65004861 3901:1.5758388 3906:1.9610471 3907:5.2019763 3910:0.058910131 3919:0.01871103 3936:0.17605442 3938:0.81567669 3941:1.316469 3945:1.8424516 3948:3.8562527 3952:0.57752663 3955:0.46194687 3963:1.1561711 3966:2.4094949 3972:1.9636785 3978:3.2196894 3980:0.10573804 3984:2.1961052 4002:1.8909724 4003:4.7578278 4005:0.95590687 4007:0.35758841 4014:0.38527465 4016:0.80720317 4021:1.9704312 4046:0.65502524 4052:1.7299778 4057:0.84409213 4058:1.3140118 4063:1.4276003 4067:1.8006773 4069:0.91602355 4071:0.70233542 4072:0.40091401 4082:1.6583328 4084:2.4953952 4089:0.075814188 4090:2.0145521 
