svm_type c_svc
kernel_type rbf
gamma 0.000244141
nr_class 2
total_sv 129
rho 0.673333
label 1 0
probA -4.94883
probB -0.672842
nr_sv 56 73
SV
0.6161015366649369 4:0.68707895 9:4.3956966 15:1.4926418 19:0.41371885 20:0.36842763 23:0.45137626 39:2.0475326 40:5.2081838 43:0.97073102 44:0.91549349 54:1.9026265 62:0.26614821 68:6.6389484 77:7.9240704 78:0.16166613 84:3.0078454 94:2.6060853 110:6.7708783 114:3.3831837 125:4.2506547 126:3.6601176 138:0.21292698 144:0.32258636 147:3.0618141 148:0.33506709 159:5.0943985 163:0.71099228 167:1.9829576 170:1.5724428 171:2.3422499 180:5.656949 181:1.431318 192:2.8413012 196:1.377619 199:0.39879879 200:4.8565402 210:9.3724155 217:11.505013 223:1.9696928 232:0.6758073 240:0.99017262 241:2.7536552 247:7.4943061 252:4.3513827 256:1.1791334 258:0.14248759 267:0.19479075 277:0.28009266 286:0.49982297 288:1.3832247 302:0.97926521 312:2.6486144 314:0.59658575 315:1.3765259 321:0.26964861 324:3.72791 333:1.3677721 335:0.23499149 348:2.8169355 353:2.9000733 354:1.3168082 363:1.6143422 365:0.509121 366:0.98162758 367:2.5576441 378:3.1071572 379:5.0346222 382:2.2204039 384:3.1690347 390:0.63581431 397:1.9768057 412:1.6306183 421:0.5942775 429:0.40894482 432:1.1155331 434:1.3547482 447:0.12003019 451:0.09183234 456:0.71545094 459:0.31169051 466:1.2264805 475:0.26019478 481:2.6670518 487:0.81227088 488:2.4866374 499:6.166923 514:3.9445059 515:2.1710975 517:0.8418839 525:2.1714442 526:0.10427782 527:1.1780784 545:1.8432825 547:1.6983688 549:0.85610175 553:0.42694783 559:1.0056916 562:0.43392944 566:0.82017672 567:2.3438845 572:2.141999 573:3.2152658 578:4.5645628 583:0.24243733 586:0.064508021 589:0.39368904 596:0.76287258 601:4.7506094 603:1.3105459 607:0.10860865 612:1.9072304 628:0.57717431 635:1.6894298 637:6.9261885 641:1.2139111 642:3.206506 651:1.6990567 657:0.10877824 664:2.0585928 672:0.61223245 674:0.029312313 675:3.2866795 677:2.8556526 681:1.0722208 682:1.2304494 687:5.4741569 689:1.1891971 691:3.9243486 700:0.014973596 706:0.10880804 711:1.9821191 712:4.5453253 721:3.6953688 723:1.7401075 724:0.67646384 728:0.83327913 730:2.4546766 749:4.8285847 751:0.41534624 754:4.6909995 755:1.7595525 766:1.6119734 777:0.089275122 785:2.2498653 812:2.377985 817:1.007661 820:2.1220942 826:3.8667045 832:0.75738442 835:0.90702653 839:2.1793022 841:5.150887 842:0.88184619 846:0.18389584 848:3.8714941 854:0.11057055 857:1.4178225 860:0.22712539 863:2.166919 866:1.1690218 868:0.21469018 874:0.28084046 876:8.6729527 881:0.34435955 889:0.69614196 902:5.7319298 908:4.5394292 912:2.3530331 916:1.3440571 922:1.77194 948:0.24641882 965:3.6096582 967:1.1797014 968:2.3778017 974:5.438868 976:1.9154557 985:1.4957535 1007:1.1566269 1018:2.0205886 1021:3.0179725 1022:2.4583149 1023:1.82179 1024:1.2876481 1029:2.1451361 1030:2.4149516 1034:1.8795316 1042:0.013115346 1047:2.917027 1051:0.81037742 1064:5.2295094 1077:2.971422 1080:1.1879225 1082:0.70384443 1092:7.2352128 1094:3.0530789 1095:3.4963958 1096:10.95094 1102:2.5872889 1103:2.1682723 1110:2.0771735 1125:1.6194074 1126:3.1693099 1137:1.2854183 1138:1.4705071 1149:1.504297 1150:3.282073 1154:2.0134585 1159:3.8090744 1165:4.3622947 1170:6.6259623 1175:1.1824257 1176:0.06866397 1189:2.4548745 1192:1.9092354 1193:0.88099241 1206:1.5999635 1208:2.7332742 1219:8.9194012 1220:4.4120941 1223:7.929492 1237:1.2737277 1239:3.8728499 1242:1.6697929 1251:0.83065975 1252:2.0913024 1260:0.20142332 1270:0.42393744 1279:2.0599349 1286:0.8241511 1292:0.29060927 1297:2.3973739 1299:1.1544018 1302:0.7163676 1304:1.42366 1309:3.2784042 1313:4.9490352 1318:0.73375982 1332:0.098069906 1341:7.1962581 1343:1.4234376 1349:5.2185082 1355:0.35484603 1359:0.0033337772 1366:3.6760421 1368:0.48183501 1369:3.2070146 1376:0.48540014 1387:0.47019875 1393:0.33179384 1397:1.2665191 1406:2.4423962 1410:0.59593165 1419:3.6276805 1430:2.1536095 1432:0.66836625 1435:0.23258203 1438:0.80727398 1441:0.80880797 1444:1.8191297 1452:2.8600929 1454:1.5188062 1463:3.6545098 1465:4.9804602 1467:0.055977985 1469:0.58860874 1470:2.0424616 1471:0.55962074 1476:1.3951131 1477:0.67343926 1479:0.81725669 1484:3.3815441 1489:4.5811882 1498:0.51456004 1500:2.030149 1502:8.160224 1503:2.506309 1506:0.1156337 1513:1.003037 1523:0.76399457 1526:1.3753033 1545:1.0760301 1546:2.4804623 1552:0.22536471 1556:2.2685556 1560:0.73961461 1566:1.0345041 1582:1.9994957 1586:1.2478514 1587:1.5433984 1590:6.9738045 1595:1.8365139 1604:3.9460499 1606:2.0771263 1617:1.490801 1618:0.60215056 1622:4.5995936 1628:1.1372132 1640:0.29818764 1648:0.09349969 1654:0.26535913 1659:3.8396001 1661:9.1551437 1675:0.25387973 1677:4.2755008 1678:0.89303589 1690:6.0106354 1695:2.4659302 1696:0.0545802 1712:5.7958198 1720:3.3685625 1726:2.3504765 1736:1.9929112 1737:2.3426554 1756:0.44842094 1758:0.89545006 1760:1.2525189 1767:2.7317145 1795:1.7374886 1799:3.9096406 1800:2.7455585 1806:5.6021247 1807:0.25405121 1813:5.3104734 1822:0.68984306 1829:1.3864858 1830:2.7254021 1837:0.96939528 1842:0.66624254 1843:2.6858883 1846:6.8331571 1847:0.29956228 1848:1.5403821 1849:0.040346026 1852:0.99632257 1855:2.6659017 1863:2.8703117 1880:0.46142697 1901:0.2635158 1905:1.4959196 1911:5.4782119 1912:2.8087254 1918:2.3971462 1928:3.082514 1938:2.9741101 1956:0.68597704 1961:2.2671351 1966:0.8821907 1967:2.2594223 1968:0.75468421 1972:8.168869 1974:4.5274649 2000:1.3792484 2004:5.4641304 2009:2.2676723 2012:0.29621077 2022:2.1125109 2030:2.1438432 2031:4.0818381 2042:0.23734534 2047:0.13838142 2048:2.6067333 2053:1.9210244 2056:0.29128182 2058:2.1370118 2075:0.96653646 2082:0.27647051 2103:1.860221 2110:0.33749908 2112:0.10134539 2116:0.56289947 2117:4.1128654 2130:3.1882994 2140:1.057705 2144:2.5713081 2150:2.5689735 2159:6.9406686 2160:0.13599211 2166:4.8852301 2177:3.4499381 2186:3.781462 2187:2.0906425 2188:2.6865323 2199:3.7003255 2200:2.9591169 2202:1.1272686 2212:0.74784672 2223:2.8248534 2226:3.1402857 2241:0.91411108 2249:1.9623692 2253:4.2497511 2259:1.2776364 2262:0.83832741 2270:0.23432666 2271:2.8734496 2273:0.39545229 2275:0.071471989 2281:0.50842476 2286:3.2065158 2292:0.060060978 2294:0.0069211125 2296:1.048126 2300:0.64273262 2307:1.6467824 2311:4.7547588 2314:2.0727944 2316:2.7541785 2317:1.1986606 2324:2.4810357 2327:1.9361155 2329:1.0699011 2343:0.60826343 2348:2.3089197 2355:1.8128582 2360:1.7392687 2369:0.44495994 2393:2.9617834 2404:0.66482472 2416:1.9791192 2423:4.9643445 2424:1.5895121 2428:1.3760885 2436:0.12752488 2437:0.43151313 2440:2.0885584 2443:0.1968639 2446:0.28154832 2453:1.3934677 2457:2.2292035 2458:1.2577085 2466:0.19392423 2487:0.014801919 2488:0.021313697 2489:0.6411534 2493:0.22717422 2494:1.3028004 2501:0.51506519 2507:0.66704571 2520:0.38130513 2526:4.392786 2528:2.1641238 2551:1.7021223 2561:2.3925107 2566:1.215323 2568:1.5835987 2574:1.8825891 2576:2.9862134 2578:0.09706296 2589:1.2551272 2594:3.995338 2598:3.4589806 2600:0.27380693 2610:3.1153448 2613:0.95511758 2614:0.28418493 2625:1.7274613 2637:0.73922193 2642:0.48947108 2643:1.0870115 2649:0.035504162 2659:0.79530227 2664:0.75116408 2678:0.86646217 2688:3.9320726 2690:1.0805254 2693:1.5224559 2694:1.6469709 2707:0.30061954 2708:1.3613272 2715:0.41242427 2718:0.38488176 2720:0.41448826 2721:0.50791192 2726:3.503381 2732:0.45225918 2733:0.66824269 2743:2.1209052 2745:3.3577294 2759:0.085177332 2763:2.4987617 2765:1.0260448 2766:3.297787 2771:0.98718703 2775:1.9003887 2777:2.5590739 2778:1.6134231 2786:1.8545444 2788:0.15800795 2790:2.5370343 2792:1.312448 2793:1.1160204 2805:1.2773522 2808:5.4706001 2811:0.30742455 2814:7.0882983 2821:2.2776384 2825:0.06110236 2826:3.2657201 2834:5.9584136 2843:0.16695067 2853:1.5364947 2854:0.7743187 2867:2.955714 2870:5.062355 2873:0.34146109 2874:0.64988959 2879:0.92663896 2882:7.2484212 2894:0.71505487 2895:0.14090341 2896:5.163269 2903:0.55784333 2910:1.9562092 2915:3.7284408 2917:0.9099806 2920:1.914005 2929:2.1165276 2932:1.970229 2940:0.86517078 2945:4.0807014 2950:0.093297571 2953:1.664857 2966:0.23952347 2967:0.074060738 2971:1.755064 2976:0.0942536 2978:2.0572813 2982:0.93814969 2991:1.7360501 2995:1.0166128 3020:0.8084476 3035:0.88346934 3036:5.5985041 3037:1.5826821 3038:2.1218765 3049:0.085079461 3057:0.16243282 3066:3.7584248 3073:0.81128949 3075:1.2390244 3079:1.780153 3092:1.4458352 3105:3.5518615 3114:1.6595201 3116:2.2055106 3120:0.033818975 3121:0.34456056 3130:2.0257292 3144:4.3031192 3145:2.5354061 3146:2.1560392 3152:0.5433597 3154:2.7680306 3155:0.52553564 3160:0.047660649 3162:0.87025392 3163:3.546494 3166:0.096573725 3172:0.66787767 3179:5.2532568 3182:2.5213325 3183:3.2287855 3184:5.191988 3185:1.9061556 3195:4.1067843 3198:0.013998985 3199:2.2969506 3216:3.8739004 3228:0.15087229 3235:3.5595028 3247:0.8981632 3251:3.1316617 3256:3.3463218 3260:3.4970486 3267:2.5466709 3277:0.94639772 3294:0.10168591 3315:0.21891576 3321:2.3464994 3324:1.1558274 3337:2.4725904 3341:0.71709245 3344:0.9289459 3348:4.7961836 3349:4.115025 3359:2.8158154 3364:0.70594454 3377:5.5559669 3379:0.021362782 3396:3.6451893 3421:0.17804256 3431:0.71718442 3432:0.068385527 3442:0.70487297 3445:0.030278593 3446:1.9273415 3449:0.074097037 3451:0.022528812 3452:1.8138201 3467:0.10767365 3468:1.6036649 3480:1.2445759 3491:3.4530113 3494:1.5361739 3496:4.9795732 3508:0.46988815 3521:2.4159882 3525:3.7850389 3530:1.1400349 3536:1.9743403 3537:4.4891043 3539:2.0043328 3548:1.0331526 3549:0.20186499 3561:1.8355558 3562:0.13026822 3568:0.18193194 3576:3.9217989 3580:3.1307781 3582:5.1769171 3584:0.34065899 3586:1.0440232 3593:1.7707303 3599:5.3216233 3604:6.1996298 3614:0.23951282 3620:0.16294754 3621:6.3550453 3627:1.8565412 3632:2.3252647 3638:0.2029483 3644:4.6469536 3650:0.76371175 3653:5.0084195 3658:1.1198311 3661:1.2204674 3667:0.54608679 3678:1.6216613 3679:0.26790988 3690:1.5846238 3695:0.19759691 3710:1.5407568 3715:2.8738701 3719:1.3798825 3729:0.92838764 3732:1.9863563 3734:2.5330806 3746:2.2930744 3748:1.4309456 3749:0.3077963 3751:3.2186124 3752:3.7477813 3760:1.242138 3766:0.84811473 3771:0.79100466 3776:3.4249392 3783:0.15046072 3785:0.19485751 3793:0.03107198 3794:1.9175584 3808:5.6623344 3810:1.1608825 3815:1.1257895 3818:1.3999912 3822:1.20393 3824:2.8780124 3826:2.1298757 3835:0.66562015 3837:4.4774661 3864:0.28154141 3872:6.1349683 3875:2.2023821 3885:2.9162674 3888:1.9651946 3891:2.7560754 3893:0.89150393 3903:0.98416269 3907:3.9659786 3910:3.0611768 3913:1.1868637 3914:1.0095448 3923:3.1763132 3927:1.1670717 3929:3.174706 3935:0.048004329 3962:1.0301445 3966:0.33696806 3972:1.8539462 3976:0.10304663 3982:4.4373703 3988:1.9977548 3992:3.2401562 3997:4.0721231 4001:1.3693039 4003:4.2501931 4005:2.360985 4007:0.77196503 4010:1.3155683 4011:0.40573865 4013:0.18241327 4016:0.91916108 4021:2.7618814 4033:0.16538143 4036:7.7704692 4038:0.52733523 4041:3.9180942 4067:4.3315349 4070:1.8260326 4071:2.8238945 4072:0.84516895 4074:2.6138017 4080:5.557251 4084:1.7172422 4085:1.0963399 4090:1.2076224 4091:4.4253464 
0.3273994824641528 9:4.8779821 10:1.1438708 12:0.24158245 19:0.540483 20:0.44639885 27:2.9764049 38:1.3354464 44:3.4935918 54:0.41021097 62:0.6710875 68:4.4080653 77:2.4807777 78:1.1749479 84:0.68853927 94:1.0073612 110:3.8427734 114:1.7056578 125:0.044701129 131:0.28566882 140:1.902768 147:3.8337874 148:0.74978358 161:2.7076428 163:2.7970061 166:0.12646881 167:4.4177032 169:2.2017264 170:3.3244393 171:1.0674051 172:0.93333304 178:0.85038507 180:2.2882354 181:0.8758083 196:0.64692128 200:1.175974 210:6.0835137 217:7.9879665 218:1.0782678 222:0.20927396 232:1.5420184 241:3.4831548 242:0.1617083 247:4.1940022 256:3.7416363 258:1.9874687 265:0.53388989 274:2.2630689 288:5.1795306 300:0.047517031 303:1.6004452 312:4.9008036 315:3.0364037 317:0.59100252 318:3.4475582 335:1.0520098 336:0.24467129 348:4.5216026 349:0.10053405 353:3.9892008 359:4.666636 363:1.4333072 365:3.6841071 367:0.5053575 376:1.4465051 378:1.6154046 379:0.0032353103 382:2.2744298 384:1.7995248 390:1.0369813 397:1.0829916 398:0.025424525 408:1.3637892 411:0.29314834 412:5.2402163 416:0.58819079 420:1.4267987 421:0.95790029 432:2.1418653 434:2.468785 450:1.0415094 451:0.58055055 459:0.28709516 462:0.21680719 466:0.24412489 468:0.40404111 473:3.8021233 481:1.8000324 484:0.56916714 485:0.80328339 487:2.5928447 499:3.389478 511:1.8943475 514:3.6892812 517:0.0038389382 525:0.32606027 526:2.0165777 527:2.4000397 531:0.17535698 547:1.1742609 553:0.22395211 559:3.0554903 562:2.023278 578:0.38710058 596:0.64973158 601:6.4102902 605:0.82011986 612:2.9427638 616:0.047172457 635:1.4405482 637:2.810266 639:0.78217483 641:2.3989789 642:1.3034437 657:2.4391749 660:0.41491801 664:1.6353807 667:1.6897148 670:0.58505642 672:0.54526842 675:4.7620254 676:1.0294319 681:2.6435945 682:3.4517608 689:0.79377937 691:2.0365844 702:0.35672566 705:3.4538527 706:2.6797023 711:6.9160976 721:0.25146246 722:2.3082387 723:3.3483968 724:0.30674487 728:4.0553908 742:1.1135639 749:4.3111935 751:0.59753561 754:5.3701396 755:2.5253825 759:1.8748734 766:3.2666247 771:0.97064853 777:3.8964603 788:1.0792711 795:1.2695942 812:0.47582603 817:1.8671783 820:1.2386105 823:0.76268923 832:0.12369949 835:1.8422493 839:4.7315884 841:4.2339668 848:2.9719319 855:0.36143953 857:2.892885 863:3.4099271 868:1.6568897 876:4.1048641 881:1.8183196 902:4.2566943 908:1.5311335 912:6.4517598 916:0.13814595 918:0.84589231 922:2.4388642 943:1.2225239 945:3.0921545 953:1.6035811 958:0.35641876 967:1.630372 974:3.6218927 976:0.16385639 992:0.98717403 997:0.70792276 1001:0.33775294 1004:0.31213886 1013:3.3347931 1014:0.37092552 1018:0.15617406 1022:0.9541409 1023:0.66994369 1029:1.7549871 1030:0.2821202 1042:0.10267591 1047:1.6703228 1051:0.79194838 1064:1.6892173 1067:0.37122864 1077:0.96810955 1080:0.1988584 1092:1.3783772 1094:2.3786933 1095:1.2606909 1096:7.9537997 1102:1.7344329 1103:6.3419242 1126:1.5509603 1150:2.6645482 1155:2.4134393 1159:0.90065116 1165:2.3991606 1169:2.0868213 1170:3.2810185 1176:4.1781173 1180:0.23660138 1188:0.83867967 1189:3.1707571 1192:1.2398437 1206:2.6756246 1217:1.6582687 1219:6.6847782 1220:6.0743494 1223:4.6807714 1239:0.94724059 1242:1.6642648 1252:1.6182548 1260:1.1351277 1264:1.3665807 1274:0.25328916 1278:0.31071436 1279:1.3553605 1286:1.5966256 1288:0.73030305 1297:3.3548546 1302:2.1146233 1304:0.07882759 1305:1.8947612 1306:0.49352288 1313:2.2847137 1314:0.99253047 1319:0.19208339 1320:0.80126715 1325:0.94316936 1336:1.3163182 1341:2.4152472 1349:2.8186665 1352:0.54564786 1359:0.4494004 1366:1.8583995 1368:6.2947659 1372:0.42312884 1375:1.5130823 1376:0.17241706 1379:0.18299502 1386:3.1474128 1392:1.0669733 1395:0.80498302 1397:1.7003685 1401:2.1725574 1410:2.2620969 1411:3.2636828 1414:0.96868056 1419:5.1512623 1422:0.67447156 1426:1.0084161 1429:0.23362586 1432:0.098098904 1435:2.4007564 1438:1.145568 1441:0.44421566 1444:1.9033208 1452:2.4433849 1456:0.36143696 1457:0.81746417 1458:0.40025288 1463:2.5469418 1465:3.5080566 1467:0.23810445 1470:1.3646473 1471:0.87943631 1477:0.70925283 1479:3.4560082 1484:2.0869744 1487:1.6398067 1489:1.055751 1502:6.9890623 1503:1.0795627 1506:1.4164425 1513:1.2238672 1515:0.81609088 1516:4.7872267 1522:0.39247239 1526:2.2899537 1538:0.10934831 1544:1.4812689 1546:2.2530177 1556:2.0906816 1560:5.2182307 1562:1.0656974 1566:0.60594338 1571:0.07178168 1577:0.09299013 1580:1.1315912 1582:5.3980999 1586:2.0952652 1588:0.41535023 1590:4.4302354 1597:1.0780439 1600:3.8479774 1604:0.50785834 1606:1.0955937 1612:0.32617831 1613:0.05897814 1617:1.0161189 1618:1.2971798 1622:4.0851059 1624:4.6715922 1625:1.8377262 1628:0.22877905 1637:0.74629855 1640:1.8056438 1659:3.966084 1661:3.0539536 1663:0.55377066 1667:1.1738279 1669:0.63692009 1675:1.6303338 1677:3.6867824 1678:2.1935463 1686:1.4610496 1690:1.3258126 1695:4.1725888 1705:1.0864046 1712:2.553257 1726:4.2134256 1737:4.0514131 1756:0.63414705 1758:4.7462664 1766:0.046568692 1779:0.03157717 1780:0.16545084 1790:0.62134331 1794:0.052114904 1799:2.0893173 1804:0.13188922 1806:4.2207479 1811:0.15087274 1813:2.3744299 1822:1.3041487 1825:0.55072153 1829:1.1918888 1830:2.5420456 1832:5.1888981 1833:1.0568616 1837:1.3123266 1838:1.1913292 1843:1.4203086 1846:4.2826905 1847:0.26790172 1848:1.1710581 1852:0.69431674 1853:2.8797183 1857:0.40891674 1874:0.64085257 1878:0.39632559 1888:0.29222521 1890:1.7748708 1895:2.0192487 1896:1.2738088 1905:0.088552348 1912:0.47359955 1918:2.7720189 1926:0.33503631 1938:6.1739631 1943:1.0163137 1958:0.55910361 1968:2.4215465 1972:3.1941411 1990:1.1933384 1995:1.1619812 1997:0.63534439 2000:1.2762675 2004:0.4038322 2005:0.33846828 2022:8.7136946 2030:0.21709937 2031:2.6643782 2032:2.3909094 2042:0.45196927 2048:4.9141579 2053:0.38513175 2056:0.87603903 2058:2.5781384 2075:6.3221903 2082:1.3318859 2102:0.3858524 2103:0.32126817 2105:0.82460147 2110:0.65454507 2113:0.22798859 2116:0.50179815 2117:2.9389939 2120:0.45473826 2141:0.0042253137 2144:1.3565993 2150:2.6265283 2159:3.7301991 2160:2.3289709 2166:4.1414185 2177:1.8812485 2186:4.1864958 2187:0.29444045 2188:1.8158033 2189:0.61806726 2199:2.0874233 2200:4.0367565 2202:3.3201666 2203:0.66362691 2214:1.8253827 2226:0.37371746 2239:1.1606796 2241:9.3281269e-05 2253:0.38993037 2262:1.4550743 2263:0.30602074 2267:0.75090313 2270:0.1498509 2273:0.76608205 2278:1.3285757 2281:0.40776312 2286:1.624548 2292:0.56731856 2297:0.15020849 2298:2.7672403 2302:5.4123273 2311:5.6101103 2314:0.78361666 2316:0.18127513 2318:0.74654359 2324:5.3889632 2325:0.12212598 2328:0.14330339 2337:4.3804641 2343:2.7181921 2344:0.30221593 2348:2.7021253 2355:0.047216833 2360:3.8312721 2386:0.69940186 2390:1.7044941 2392:2.0699804 2393:5.4996486 2406:0.64439416 2409:0.058606297 2410:1.0040202 2416:1.1674917 2417:0.69260412 2422:0.33130798 2423:0.68910992 2425:1.3055345 2428:5.3305211 2432:0.68793958 2435:4.270432 2452:1.9720464 2453:1.6696806 2457:2.1503043 2458:1.5237381 2471:3.5088611 2477:0.0041053891 2487:1.2380043 2488:1.2830118 2501:1.3517451 2507:0.95674849 2509:0.28397301 2520:0.97451496 2526:4.8627973 2528:1.9845695 2535:2.4432881 2558:0.3399322 2561:0.92237061 2566:3.3134756 2568:1.9543222 2570:2.6793127 2574:1.1243877 2575:1.0670754 2576:2.068666 2579:1.8684914 2589:2.3704154 2591:1.6141757 2594:2.7168345 2598:1.9967663 2601:0.41438565 2617:0.99182665 2621:0.92616832 2625:3.035919 2637:3.2369695 2642:0.29912505 2643:1.7250881 2646:0.45703095 2649:0.57144266 2654:0.064927518 2656:1.1492712 2672:2.0584321 2687:1.7299333 2688:3.9551857 2693:1.4132316 2695:0.014570601 2704:0.19059917 2707:0.50722861 2708:3.1426628 2720:0.69719279 2723:0.65283543 2726:1.7263981 2731:1.0617781 2733:0.14848995 2736:1.1007644 2740:1.859062 2743:1.2387149 2752:3.0836816 2763:0.50044656 2765:3.8872354 2766:2.0642455 2775:0.15051281 2792:2.9612195 2795:2.9827402 2807:0.2259942 2808:5.8535447 2811:1.9920964 2814:2.0248682 2821:2.3814955 2826:2.363831 2831:0.10505241 2834:0.46750987 2840:2.6918433 2841:1.2235371 2842:3.5126162 2843:0.57856584 2853:0.34784713 2854:1.1840607 2864:0.00053472072 2866:0.86277997 2867:5.0726247 2870:2.7380769 2882:6.3962183 2894:0.19129544 2896:5.5196381 2917:0.82322192 2920:0.36488187 2928:0.033506632 2929:1.083101 2934:0.64009523 2937:3.0801101 2940:0.010444731 2945:0.98589498 2950:0.31423855 2957:0.36443287 2958:0.37354705 2964:0.98540431 2966:2.0317314 2967:0.80992997 2971:3.0094192 2978:2.5935104 2982:1.3995492 2994:0.69569659 2995:0.047987521 3021:1.110198 3034:0.11163044 3035:3.3751407 3036:3.1895261 3046:0.96875203 3049:1.8070536 3051:1.9879849 3059:1.8446958 3063:0.28189635 3066:0.39136654 3073:1.2407198 3075:2.9764647 3079:1.3845761 3081:0.56195748 3085:0.61574829 3094:1.6268244 3110:0.24636778 3120:0.84655201 3121:0.58325708 3124:1.5567001 3129:0.170174 3130:0.23657733 3144:2.5499165 3145:1.5006917 3152:4.9535179 3154:2.5894554 3162:3.1062608 3163:5.1683216 3172:2.0792205 3179:3.8793221 3183:0.38678783 3184:2.1484203 3195:0.30325574 3199:1.4845065 3216:0.13205716 3235:1.6255288 3242:0.1696756 3247:0.45372105 3249:0.94112289 3251:1.5312252 3256:2.4527729 3268:0.2583217 3282:0.51147997 3287:3.0989025 3290:2.5808837 3291:0.65469575 3293:0.86332017 3298:3.26895 3310:2.4554708 3334:5.9727111 3344:1.2072803 3348:4.948431 3349:1.3386589 3354:1.5979593 3355:0.63974094 3359:6.5599799 3366:1.738692 3373:0.2025103 3377:3.258249 3387:0.50980842 3390:1.9952615 3397:0.44723225 3411:2.249681 3431:2.7009966 3437:0.050647676 3438:4.6055136 3444:0.084816307 3446:4.0896621 3448:1.4460499 3465:0.82918924 3467:0.99056679 3468:2.990521 3478:2.1299946 3491:1.6282387 3494:1.5468847 3496:4.4341521 3504:0.6390515 3508:1.9099317 3509:1.2916408 3513:2.0445786 3521:1.1833204 3525:1.3778163 3530:1.3920534 3536:2.8837318 3537:4.3836422 3539:0.36331037 3540:1.0308708 3548:1.2415105 3551:0.67339164 3569:0.32400224 3576:3.9680676 3582:7.615871 3593:2.6284695 3599:1.8158493 3604:3.2847567 3608:5.6861072 3614:1.9974064 3616:0.074549884 3624:0.73518938 3627:4.4970236 3632:2.1247647 3636:0.255265 3643:3.3539917 3644:5.5126905 3650:3.9181983 3653:6.4587846 3661:1.2800179 3665:1.038101 3677:0.26573622 3678:0.52933121 3690:1.2270523 3710:3.4303038 3715:3.4905877 3719:1.9871652 3729:1.7376611 3732:0.86839432 3734:1.5551809 3746:0.85470217 3751:0.54051214 3752:2.5595779 3766:1.7272865 3776:0.52188063 3779:0.022055328 3785:2.3835051 3789:2.2144849 3793:3.0920084 3794:0.95360053 3803:0.052449048 3808:5.8950486 3810:1.8234205 3815:0.9949525 3822:0.51244068 3824:6.1464748 3828:1.5505956 3831:0.29948956 3835:0.93754071 3837:1.4739028 3848:0.067996323 3860:1.3191621 3864:1.3542736 3872:5.609148 3875:1.6762532 3878:0.42089731 3881:3.3870294 3885:2.2089567 3888:1.8326072 3891:1.2509397 3893:3.2581069 3907:5.5989676 3910:3.9124498 3913:1.4225365 3929:2.5648115 3955:0.57298779 3957:1.7938548 3962:3.2129066 3970:0.97617215 3972:1.996268 3980:1.5950153 3982:1.120247 3984:0.29763374 3988:2.3298445 3997:2.8575325 4000:1.5761896 4001:3.1885474 4003:2.3187764 4005:4.0207515 4016:0.38615936 4017:0.42444104 4021:5.9971881 4022:0.82390583 4033:0.033110142 4034:2.769454 4036:5.9264541 4041:1.2545043 4042:0.20180079 4052:1.1114413 4063:1.9342035 4067:4.817523 4074:0.0040352046 4076:0.49007955 4080:0.69429171 4084:0.64453602 4085:0.54518163 4091:5.0194693 
0.6479665551302509 9:6.5267062 10:3.8103938 19:2.0070333 21:3.2896194 25:1.0547159 32:2.4017479 35:2.1151807 37:0.20546933 54:0.37853581 64:0.57813442 68:3.5071869 75:4.5008287 77:0.55818635 78:4.2824359 90:1.4919882 94:2.92413 99:0.25562015 105:1.472296 107:0.63964427 110:1.9737442 114:1.3579352 116:0.16013378 125:6.549274 126:2.4131088 127:1.7270851 131:1.1868943 138:2.8083673 143:0.28153685 147:4.9830399 148:1.5543348 159:2.3673861 163:1.1160957 166:0.98533165 167:4.3947644 170:2.0107481 171:1.0130899 178:0.41107613 180:2.404537 181:1.5915406 182:0.26423335 209:1.101135 210:4.7024765 214:3.5886226 217:3.990942 218:5.1067071 225:4.7911539 235:4.9537458 239:0.30724037 240:1.3933759 241:7.4298944 247:3.1830702 248:0.43561375 258:6.188406 275:1.0218195 276:3.5078681 283:2.0005236 288:5.1215072 292:1.1194739 300:2.0881305 303:3.9178188 315:2.5993891 328:0.15177919 333:0.84750712 335:4.3267407 348:8.5178127 349:1.4643551 353:3.028507 357:0.78397131 358:3.2747111 359:4.7701969 363:6.2154174 365:0.39453128 378:1.9498742 379:0.66184765 382:2.2210979 391:0.6100654 397:4.0349545 398:1.730847 401:2.0654278 405:0.87111211 411:2.051672 412:3.7940054 419:1.9885954 432:2.9897537 454:1.3446726 455:0.11897349 462:2.8535218 473:2.9183841 481:0.62650049 485:2.1835761 493:0.42062491 496:0.9591139 499:1.6571045 509:0.98251987 514:6.2398911 521:0.9636299 524:1.998717 526:1.1045054 544:2.5714219 559:2.9206583 572:3.4053824 586:1.9297905 601:4.7072334 614:2.6529167 619:1.1767985 624:1.4429395 635:0.22860354 637:0.58016229 638:0.65753633 639:4.7692776 641:1.3489735 646:3.8680105 647:0.42520735 651:0.50890028 657:2.2439926 659:1.9138672 661:0.72442728 664:3.4903631 669:2.0268569 672:1.4949019 673:0.49341008 675:1.8689055 679:1.2293013 681:3.6740654 687:4.1893697 689:0.38497624 691:2.1215515 705:3.1411076 711:2.5177896 712:3.3958089 723:0.95515996 728:6.2427468 730:3.2446315 742:1.9958748 750:0.36174721 751:1.4256814 754:3.2483749 755:0.84204477 759:0.85914886 764:1.8079398 766:0.79234546 771:0.28447387 773:0.53022408 774:0.45263773 775:0.14555565 777:0.38218689 785:2.9943221 788:4.1747661 795:1.203472 816:2.0036039 817:3.3780625 820:2.3262997 823:2.7200811 825:1.8051851 826:0.49450672 832:1.1767194 835:3.7743559 839:2.5916615 848:4.6876984 855:2.6937973 857:1.8616613 863:1.5786514 871:2.0701547 888:1.0058566 889:1.5778015 896:1.0452878 902:5.7127666 911:2.1405439 912:3.8927212 918:0.4428868 922:2.9012165 927:0.068811536 943:4.0761733 945:2.0207555 951:1.4774774 953:3.6220493 958:0.84703612 960:0.68379635 974:6.7270837 976:2.5862646 994:1.3453177 997:0.95824069 999:1.6303791 1013:1.6538974 1014:5.601717 1032:1.2059704 1036:1.0174875 1039:0.64978677 1041:2.2834725 1042:1.3108678 1049:0.64564836 1051:1.6772249 1052:0.070317686 1064:1.781319 1065:1.9786378 1069:0.021004468 1077:3.0524418 1080:2.4772682 1089:0.92064989 1094:6.2618442 1095:4.9410038 1096:2.0517225 1105:2.603478 1106:1.1425555 1113:0.79061341 1117:1.8114241 1136:2.7012513 1137:0.055786192 1150:0.16426253 1153:1.7216506 1155:8.8361416 1159:1.9402125 1169:0.73382068 1170:2.0821664 1176:2.3989649 1178:0.011427045 1184:2.5334561 1193:3.1639004 1208:4.4326539 1217:6.6810055 1219:5.4879007 1220:4.045548 1223:1.8900487 1225:2.148196 1226:1.9038627 1232:0.72883403 1237:3.4383802 1239:0.042499647 1250:2.0127053 1251:0.13153142 1259:0.91199136 1260:0.13507992 1264:4.0427952 1277:0.65694946 1279:1.2438627 1281:3.5186808 1288:2.054419 1291:2.6511264 1297:3.0265574 1299:0.58214819 1305:1.8722184 1309:0.525249 1314:2.1503148 1317:2.3478022 1319:5.986939 1332:4.312788 1335:3.8984733 1341:3.9663844 1349:3.4576273 1359:3.7089019 1363:1.3267035 1365:0.28865093 1368:7.6035066 1372:0.20911901 1375:2.105988 1386:10.091928 1406:0.4690569 1411:5.4706349 1415:0.70882213 1416:2.2101517 1419:1.1682351 1426:3.0982771 1429:0.0087528862 1438:2.396116 1439:2.0140915 1441:0.58552694 1444:1.283608 1452:2.9710784 1455:0.76325446 1456:1.0168595 1457:3.4352777 1463:4.270555 1465:7.1182337 1467:1.347114 1470:1.5197039 1471:3.2490013 1484:1.110585 1486:3.6345544 1489:6.3618898 1502:9.9593983 1506:2.0074506 1513:1.1424176 1515:1.5443232 1520:1.4039521 1523:1.1072593 1526:1.7534114 1534:1.2950827 1541:0.0032750964 1545:3.2997148 1546:1.5099816 1550:2.6879749 1556:0.34759271 1560:2.1551015 1565:1.5455842 1568:0.63514555 1577:1.7184888 1580:5.0231528 1586:0.30505317 1590:6.5441713 1597:3.0971763 1600:0.57008296 1602:4.4030614 1606:2.5943794 1613:0.78334719 1615:1.6745999 1617:4.0219097 1619:0.68368375 1622:5.4638762 1624:6.4296412 1625:5.4069481 1628:2.9110363 1630:4.2992816 1638:1.5105635 1645:0.41764879 1653:2.4840548 1659:5.7789569 1661:2.8723948 1677:0.12554544 1690:2.8011069 1691:0.60729706 1695:1.3706911 1696:0.43806702 1697:1.0008999 1699:4.340837 1704:2.1838965 1712:5.0519705 1726:4.0458565 1730:0.62482154 1732:0.61446339 1734:0.274551 1737:2.2385375 1738:1.0254108 1750:0.99688232 1756:3.3255033 1760:0.96618867 1762:0.10093862 1767:4.5193419 1775:0.10816124 1783:0.75702196 1795:0.35819694 1806:0.044689476 1813:1.5889623 1815:2.0108666 1817:3.672518 1825:5.7185574 1830:0.83838665 1837:0.14314297 1838:4.5356603 1846:1.6743934 1847:0.52386034 1854:1.3822715 1856:1.3217932 1858:0.20923756 1860:2.6861308 1879:1.2603754 1890:2.2539587 1891:5.3925505 1895:0.61049926 1896:4.188817 1916:1.2002219 1918:1.3338737 1932:0.6751492 1938:2.4000833 1940:3.1292753 1960:0.17894822 1968:4.5241637 1972:4.5892406 1974:0.90593612 1990:0.093644351 1995:3.1909146 2004:0.68087757 2006:1.478863 2022:4.4177728 2026:6.0526156 2030:0.37504146 2031:2.6776547 2032:3.3499694 2038:1.3249292 2042:0.15123433 2048:3.1811788 2055:2.7285707 2057:3.4376822 2075:6.6057363 2082:0.3623496 2087:0.98179889 2102:3.2941046 2115:1.0960311 2135:0.067153633 2144:1.1911137 2146:0.49542126 2150:0.65962636 2153:1.4580097 2154:0.8069011 2159:2.4631693 2164:3.2245038 2166:2.0872788 2168:3.1711226 2169:1.5227842 2177:2.2642865 2186:2.1203527 2187:6.4942579 2188:0.98107201 2200:1.2587717 2202:3.3540452 2203:4.2857704 2226:3.7418468 2231:1.3015699 2241:1.1749249 2253:0.36244988 2255:0.18138 2262:4.6416054 2267:2.4242978 2271:2.0354486 2274:0.04109244 2275:0.42779613 2284:0.0054806769 2286:2.5512099 2298:3.2791336 2302:1.0405543 2311:12.059425 2312:3.7048142 2314:3.7616572 2316:1.1043485 2320:0.43280375 2326:0.44375974 2327:0.011251807 2328:1.0429944 2338:6.0991507 2343:3.776233 2348:2.1928067 2357:0.38228691 2360:7.2611861 2366:1.6418891 2367:0.55699426 2374:0.29674655 2378:0.55889511 2381:1.7234875 2389:2.6127851 2391:1.5940473 2393:0.28067291 2409:2.6114361 2410:1.0364757 2416:1.7929467 2417:2.9465837 2428:1.576637 2431:0.12075201 2432:0.80867833 2435:1.0373886 2437:0.048026085 2440:1.9229907 2443:0.17864041 2445:1.1582515 2446:0.91799343 2452:1.2884026 2458:2.5952041 2466:1.5234314 2471:2.6826191 2481:0.27941591 2488:4.4923053 2489:2.2965972 2505:1.4153426 2507:2.1785917 2509:2.3957474 2511:0.98357737 2512:0.096125335 2522:2.4158368 2526:5.8975739 2527:0.82377785 2528:0.66527659 2545:0.32128838 2551:6.5834894 2558:2.629792 2561:1.3984894 2566:5.7534294 2570:1.0322063 2576:3.9594634 2579:0.74377418 2583:0.34051126 2586:2.216311 2589:4.9906192 2594:1.2900531 2595:1.0104278 2598:2.5744765 2601:2.2647548 2604:0.45625058 2608:0.96801937 2610:3.2084022 2617:0.2277042 2621:0.19343251 2634:0.2445319 2646:0.7862249 2649:0.01786983 2650:0.91531879 2652:0.60702479 2653:3.1461291 2655:3.5391877 2672:0.69026804 2679:3.0819323 2687:0.27457637 2690:2.0410926 2693:0.19622394 2697:1.481456 2707:3.7666759 2708:7.7436113 2716:1.8038408 2718:0.13052928 2719:4.3204346 2720:0.2670275 2726:2.4065456 2727:1.2037749 2731:1.3810415 2733:4.1794744 2736:0.015260398 2740:1.4185555 2752:2.7102034 2759:1.6466976 2761:6.2597837 2763:6.3913431 2765:5.409236 2767:1.0216646 2773:2.6031418 2775:2.3283093 2777:1.8946748 2792:7.1193466 2793:2.2379379 2795:0.66731834 2808:1.2620796 2811:3.9896677 2812:1.3532094 2814:2.4412138 2824:2.6668947 2826:0.72064078 2829:0.35349861 2834:1.7785254 2840:6.5695415 2841:1.8262495 2842:3.6688986 2853:4.9075637 2867:6.4462328 2872:1.2378964 2880:4.7992568 2882:1.9678427 2885:0.12755346 2887:0.16850308 2893:1.7600853 2894:4.966054 2896:6.7416592 2901:1.6508957 2903:3.4399495 2904:0.70697343 2907:2.0524182 2908:0.61130095 2916:0.70685381 2917:0.58128935 2930:4.4855638 2934:0.42050278 2937:0.47228691 2945:3.6388965 2949:1.4178016 2950:0.41306496 2958:1.467 2963:0.53578269 2964:0.39067727 2967:1.2395575 2971:4.2980742 2982:1.3839951 2991:6.9307394 2993:0.56273085 2994:1.333171 2995:0.0013668537 3012:1.3981454 3018:0.45430449 3035:0.13040587 3036:1.2727802 3041:3.0908675 3049:1.2822808 3051:0.029430628 3061:1.6120934 3063:0.58286154 3066:1.4422117 3068:0.13991967 3073:5.7551279 3081:1.0863698 3086:0.91159809 3088:0.7480036 3094:3.1523638 3105:2.6456196 3107:3.6790924 3120:3.8415585 3121:4.3896661 3123:0.39070562 3129:0.84655309 3130:0.53074747 3145:0.78604871 3152:5.4428592 3162:2.2366326 3163:3.9324591 3169:0.84292984 3172:1.3330989 3179:2.2278287 3181:0.23252231 3183:3.0958374 3184:2.5680823 3195:0.84555393 3196:1.8418849 3199:4.5961843 3216:8.2695723 3217:0.2747528 3220:0.36542159 3223:3.3142283 3232:3.5145547 3235:0.99095935 3236:0.77275419 3242:1.722385 3247:1.6440715 3251:2.3203847 3253:0.13492969 3256:3.9143989 3260:9.062438 3269:0.27152073 3284:4.2329302 3287:10.164378 3298:3.2157567 3302:1.070128 3305:1.7950301 3319:0.59032434 3328:0.034945369 3336:0.81858772 3341:3.8037469 3342:0.1588909 3344:2.5783603 3347:0.94380742 3348:1.3340857 3354:0.39469117 3358:2.2053938 3359:10.769914 3364:3.359777 3366:1.5269604 3370:0.4846625 3375:5.685884 3377:0.095108539 3379:0.30812526 3381:3.0059164 3386:0.083673134 3387:5.61515 3396:0.25199798 3409:2.1139607 3411:1.1830525 3424:3.5085862 3425:3.4330299 3436:0.62668997 3438:3.6274562 3443:0.88180774 3444:0.57753319 3445:3.9770906 3446:2.4094291 3448:4.2878385 3463:0.25629684 3468:0.066982269 3488:2.1980653 3491:1.4461347 3496:2.222321 3497:0.70849502 3504:0.4547025 3509:1.0959513 3525:0.28116137 3530:3.3057301 3532:1.3584048 3536:0.87080681 3537:8.4003506 3543:0.28356227 3548:0.64494181 3549:0.95103896 3554:0.79486042 3556:1.590888 3562:1.0695333 3564:0.034910858 3578:0.4345012 3582:0.15270948 3584:1.4476123 3586:0.30411837 3589:0.52800441 3599:5.4181519 3601:1.8452219 3604:1.0627799 3608:4.50876 3615:0.24982902 3619:1.4535964 3621:0.08320421 3636:2.9935236 3638:0.44948575 3652:0.29501602 3653:5.7384734 3658:1.5920241 3676:4.0428138 3678:2.896451 3683:6.0721345 3684:1.5548317 3690:2.0585887 3695:0.93773657 3710:0.57501209 3712:9.3965616 3713:0.42712861 3715:0.050323799 3720:0.25648579 3732:0.89272028 3734:1.8756837 3744:0.87449479 3746:0.8418107 3751:1.4807391 3752:3.7705116 3756:1.1008277 3766:1.5024377 3773:0.42871761 3778:3.1319561 3779:0.24409127 3785:4.1381669 3789:3.1475651 3793:2.9085639 3795:0.28715903 3796:4.9560547 3810:2.013257 3815:0.28648955 3818:2.4484901 3824:2.7375345 3826:2.8319433 3831:3.1441045 3835:0.011777163 3837:3.3377955 3841:0.70626503 3845:0.25267333 3864:1.6249175 3867:0.11622554 3870:0.031332415 3872:6.2092967 3878:0.20025614 3880:0.11274019 3881:2.8069263 3882:1.1133395 3891:0.15152362 3893:2.315176 3907:2.0869567 3913:3.2471588 3929:2.4601252 3950:0.47134453 3955:9.9098196 3957:2.2487864 3962:4.1953135 3970:2.8141606 3974:0.21064985 3979:0.24302199 3988:3.2194076 3994:0.13405919 3997:7.611804 4000:4.4715705 4001:3.6571143 4003:1.9223686 4006:0.34545231 4021:4.3062987 4022:1.9738017 4024:3.4021213 4033:2.8343465 4034:2.7130723 4036:1.2799515 4042:0.31188414 4043:1.8430376 4055:1.431414 4057:0.44584015 4067:3.4248686 4071:3.1112571 4072:1.3038161 4074:4.0018821 4080:0.64249802 4084:0.49269712 4085:1.309764 4091:3.3895061 4092:1.1002916 
0.8651579091698529 9:4.5223522 10:0.74653411 19:4.9808722 20:0.25002956 21:0.91147405 27:0.44845268 39:0.55624348 40:1.5092651 54:0.96092367 68:4.2892523 69:0.35468894 75:4.0693855 77:3.5052798 78:0.91168112 88:0.82620889 90:0.10408491 94:0.46420756 105:2.5613723 110:3.2770422 114:1.5785724 115:0.24983069 123:1.0310526 125:6.6845698 126:0.71729171 127:0.92849112 131:0.49148557 138:2.914782 143:0.68415022 147:5.2901211 148:0.98060417 154:0.36507577 156:0.89694005 159:4.8231106 167:6.1682477 170:1.7620559 171:1.8872674 178:2.0896592 180:1.4270711 181:1.6341225 200:3.910212 209:1.6274211 210:5.8621359 211:0.69074464 214:1.4381108 217:4.3465824 218:2.5708966 222:0.97642601 225:1.4167196 232:0.89044023 235:2.3045781 240:0.59406453 241:3.9959102 247:4.8335476 252:1.1903853 258:6.2922664 262:0.97189915 265:1.477096 276:3.9172292 283:4.6139259 288:4.8848906 292:2.8916674 297:0.093012452 300:4.5328579 303:1.8275146 315:4.959753 318:1.8882163 321:0.18034609 323:0.26559323 324:0.91785508 333:0.34987569 335:1.2518876 348:6.2566924 353:5.0123148 357:0.82792664 358:0.57188815 359:2.7551279 363:3.7505476 365:1.1980898 378:0.90560621 379:0.8612175 382:0.086188287 391:0.35383552 397:4.7421122 398:0.43708378 401:4.1617131 412:2.8974259 414:2.201565 420:0.4006643 432:1.7465454 442:0.53513223 450:0.059932046 454:0.96506566 462:1.0891583 463:0.83935249 473:3.5409887 481:2.0769143 487:2.4060936 499:1.7971338 514:3.2620356 524:2.0288298 526:2.3374805 529:0.26047665 531:0.12886196 544:1.7301835 545:1.4840877 553:1.0307963 555:0.48002574 557:1.7759031 559:3.4460783 570:0.48954508 572:1.0091708 601:3.9859328 606:0.015174981 609:2.0632927 612:3.3708301 614:2.2805798 624:1.0798211 635:2.399322 639:3.7839811 641:1.7161138 642:2.1988189 646:1.4159093 651:1.2269821 653:1.7161093 657:2.2130451 662:0.20491579 664:2.4051647 672:2.4935172 675:0.4025206 679:0.12836072 681:3.3357308 682:2.7531505 684:0.11676368 687:1.5014019 689:0.25091061 691:1.0511781 692:0.69424611 705:5.9245739 711:3.6857269 712:0.92851573 721:1.4102232 723:1.5738349 728:4.9575844 730:1.6219202 742:0.68328774 754:1.6577328 755:0.3769663 759:0.96238303 764:2.6495805 766:3.549922 771:0.74867249 777:2.8960898 785:1.7896242 788:3.8769472 796:0.61933506 798:1.5220323 804:0.87746912 808:1.3717277 812:2.401165 816:1.1153244 817:2.2811532 820:0.79497659 823:0.94514668 835:3.7842479 839:4.0335822 848:3.5787222 855:1.1840715 863:3.3668003 868:0.60799962 871:2.2442617 876:1.9692681 888:0.22699222 889:0.51139772 896:0.18741417 902:3.3879237 908:0.70414466 912:5.2325029 918:0.73630798 922:2.5772095 932:0.97152364 933:1.0510004 943:2.9099765 945:4.7432108 951:1.0747821 953:3.3295004 958:2.244899 974:5.086935 976:1.938183 979:1.8687754 987:0.0718593 994:0.50444901 997:4.0907636 1013:2.6646991 1014:4.5832219 1018:0.85066956 1041:2.2659454 1047:0.63402492 1051:1.4943802 1064:2.0536163 1065:1.4979212 1077:3.7216642 1078:0.35942718 1080:1.1913759 1081:0.48751014 1095:3.5235918 1096:5.8745537 1103:1.9770159 1105:0.35734463 1120:1.6284542 1130:1.5749611 1134:0.21161336 1136:2.3960335 1137:0.53971648 1153:1.0367563 1155:5.8872652 1159:1.6627336 1165:0.43098161 1168:1.4535992 1169:0.95049369 1170:0.7688418 1176:0.37211043 1184:0.55205637 1189:1.3710582 1193:1.210279 1206:1.3727385 1208:3.3634691 1217:4.6860714 1219:5.9828777 1220:1.6923133 1223:2.0434568 1226:3.7328699 1236:0.0071635544 1239:0.27601358 1242:2.4275818 1250:4.3046761 1251:3.5676379 1252:0.66505712 1260:0.68871129 1264:2.4840989 1279:0.77461922 1280:0.10629842 1281:2.9715579 1285:0.057431757 1286:1.6661825 1288:1.7437704 1297:0.95992672 1299:1.2207216 1302:1.1635259 1305:2.1297808 1306:0.0081911683 1309:0.95084238 1314:3.7654836 1319:4.044898 1332:0.1930542 1335:2.0456634 1336:1.6852399 1341:3.1984279 1349:2.3706107 1355:0.45395666 1359:2.3281105 1361:0.69669187 1365:0.86674923 1368:7.3590846 1375:2.5910082 1386:5.6413469 1395:3.7843502 1406:3.0041876 1411:4.8340955 1419:0.78013659 1426:2.4124117 1435:0.15643388 1439:0.10617994 1441:0.9512037 1446:0.089356214 1452:2.0696869 1456:0.49414307 1458:1.09357 1463:1.5166695 1465:5.7851048 1467:0.6998179 1470:1.1546633 1471:5.6430535 1475:0.22622311 1484:5.2569342 1485:1.7879229 1486:4.377254 1489:3.668262 1502:8.8222866 1506:0.89773631 1513:1.0007396 1516:0.21054035 1522:2.0855045 1523:2.3056791 1526:2.2380404 1541:0.10960114 1545:1.2210854 1546:0.68809229 1550:1.2380968 1556:0.88684964 1560:2.3241789 1562:0.3069275 1577:2.0002925 1580:0.56432152 1586:1.3238876 1587:0.94011545 1590:5.083303 1596:0.33382964 1597:2.8057082 1600:0.8664459 1602:0.64501899 1610:0.13994724 1613:1.0538979 1615:1.2759228 1617:5.1723318 1618:0.19792816 1622:4.4861927 1624:6.1010652 1625:3.8947303 1628:2.9414012 1638:1.9167955 1653:4.4535851 1659:2.6804357 1661:3.6137013 1667:0.90708941 1675:0.059532776 1677:1.2714126 1686:1.528617 1690:2.3245444 1691:2.1679151 1697:0.94908512 1699:2.1103776 1704:0.22689667 1707:0.42759079 1712:2.4895849 1726:2.6399145 1730:2.8711739 1737:2.9819868 1756:2.9337938 1758:0.26261646 1762:2.2805054 1767:1.4981811 1777:0.15508628 1790:0.020959377 1795:1.0344497 1799:0.1533331 1806:1.7687488 1812:0.0062113404 1813:1.7874991 1817:3.2900264 1825:3.2023742 1830:0.94055307 1832:1.675794 1837:0.71587074 1842:0.073095113 1844:3.3269219 1846:3.9696791 1848:2.8072016 1849:0.42322683 1853:0.16540617 1854:2.5662024 1860:0.33299747 1889:1.3701978 1895:1.0506628 1896:0.64468586 1901:1.1037562 1918:2.3479853 1928:1.1806436 1938:3.7734163 1958:1.0842235 1960:1.026341 1968:2.8736746 1972:5.844831 1974:0.48432034 1984:0.83003938 1990:0.33547494 1993:0.16239962 1995:0.015719801 2004:0.43293187 2006:1.2419491 2011:0.70186985 2020:0.59373009 2022:4.0183082 2026:2.7493439 2031:3.3673968 2032:0.14041755 2038:1.0539241 2042:0.57617426 2048:2.8777068 2053:1.2804619 2055:0.098245889 2057:3.4587312 2058:1.4039825 2075:6.20189 2082:0.013686448 2094:1.526026 2102:4.1048794 2117:3.2646265 2135:1.6312178 2144:2.441273 2150:0.42705199 2159:3.4814172 2164:1.3422301 2166:3.2647424 2168:0.45222318 2177:2.6880968 2186:1.4126086 2187:4.2123785 2188:1.2988424 2189:1.2330378 2202:2.8051074 2203:1.8962562 2226:1.6457868 2239:1.0743496 2241:2.4552104 2253:0.75347781 2255:0.26297233 2262:3.165334 2263:2.3489187 2267:1.1282717 2271:1.8055768 2273:2.7392831 2274:2.7126076 2278:0.30667618 2286:3.0695233 2297:0.010635927 2298:1.5397878 2302:2.0798316 2307:1.9411885 2311:6.665946 2312:3.7079351 2314:2.75841 2317:1.2010367 2318:1.5318854 2324:0.50097048 2328:0.42546377 2337:1.8833461 2338:2.6930008 2343:2.8381946 2344:0.75857878 2348:3.4656322 2355:0.0030606091 2360:5.8810153 2364:2.7881961 2381:1.9472225 2392:0.97127926 2393:4.1675115 2409:3.0705335 2416:0.44637945 2417:2.7239323e-05 2424:0.40210721 2425:0.04197377 2428:1.7931985 2432:2.0147109 2435:0.99926776 2445:1.4981633 2446:3.6111133 2452:1.9017088 2459:0.38433999 2471:2.8322339 2488:5.2953668 2489:0.96026868 2505:0.5784356 2507:2.7020116 2509:2.4347072 2522:1.3478111 2526:3.9762602 2528:1.2660913 2545:1.2759168 2551:1.7138805 2558:2.1655359 2561:0.33189556 2562:1.3321792 2566:3.2646098 2568:4.3688602 2574:0.72443962 2576:5.0879273 2583:0.056817591 2586:1.501086 2589:1.3762493 2594:4.0879626 2595:0.88341486 2604:1.0414168 2610:3.8950441 2617:0.53894836 2621:0.89094514 2634:3.2157736 2637:0.37752536 2646:0.77924472 2649:1.8278413 2653:3.0600286 2659:0.78978771 2667:1.2861717 2672:1.5256774 2688:1.2080317 2690:2.5918231 2692:0.61300993 2707:1.1325786 2708:2.2695832 2714:0.53120971 2719:1.8903611 2720:0.24708176 2726:1.5084635 2731:0.46032485 2733:1.8236972 2740:1.3813623 2752:0.6265493 2761:5.7323174 2763:2.6130338 2765:4.259047 2773:0.44383052 2775:1.1602268 2777:0.9401418 2784:0.63663512 2792:2.9186673 2793:2.2380843 2795:2.4687753 2807:0.10674343 2811:1.5964792 2812:1.0250864 2814:1.6624591 2826:0.47210723 2834:2.0399261 2836:0.28378844 2840:5.5361304 2842:0.92302495 2853:1.7184563 2867:7.9679341 2872:0.32443643 2874:0.82941759 2882:2.9115009 2885:1.5581036 2887:0.14787862 2894:3.2475979 2896:5.9681482 2903:0.61901546 2907:0.15730134 2912:0.19672626 2915:0.11617142 2917:2.0753844 2920:0.06520576 2928:1.6507412 2930:4.7344899 2937:1.1235381 2938:0.25110313 2941:0.47274002 2945:2.3923922 2949:1.2544687 2950:1.7554934 2957:1.6171527 2964:1.0434878 2966:1.3361421 2971:5.0322914 2982:0.5702014 2991:3.6804891 2993:1.5031157 2994:2.5045977 3010:2.2847495 3012:0.98562002 3021:0.12719351 3032:2.1274939 3034:0.85084009 3036:0.73514086 3041:4.5797057 3046:1.9242496 3048:1.8660797 3049:2.3251786 3051:2.059026 3052:2.3153727 3059:0.11791119 3061:0.37498945 3066:2.2149086 3073:1.7029419 3079:0.2022287 3081:0.48426181 3094:3.3713012 3105:2.6859081 3107:0.9612003 3119:1.8880461 3120:1.5132456 3121:1.7709032 3123:0.30722132 3124:0.091645509 3129:1.1814086 3133:1.2634077 3144:2.0675931 3145:2.4430485 3152:5.3849044 3159:0.51097357 3160:0.23160511 3162:3.0404241 3163:3.3588681 3169:2.7465839 3170:0.33940816 3182:0.030494943 3183:3.1299477 3184:4.551722 3195:2.1391521 3196:1.716738 3199:2.8869786 3216:3.9032326 3222:1.4154507 3223:1.3433813 3229:0.131576 3232:1.6862206 3235:0.19467992 3237:0.058539465 3242:1.8715858e-05 3246:0.088343278 3251:1.9232497 3253:0.57828516 3256:1.7473884 3260:4.4219308 3284:4.4051027 3287:5.4336891 3290:1.8688022 3293:5.1423659 3298:2.6207047 3302:0.20950951 3305:0.098691195 3310:1.735234 3321:1.8113413 3324:3.4033537 3334:1.4508599 3341:1.1298981 3342:0.51147646 3344:4.5376239 3347:1.0335109 3348:1.5746956 3349:6.409565 3359:7.2767725 3361:2.3445001 3364:1.174951 3366:0.24983165 3370:0.44509551 3375:2.6281836 3377:1.0864682 3379:1.1097202 3381:2.2423918 3387:4.4448085 3390:1.9207678 3409:1.482746 3415:0.89172912 3422:0.1654814 3424:0.61766016 3425:2.2125316 3438:2.8415792 3443:1.1684477 3444:0.44404525 3445:1.4928234 3446:2.8067746 3448:4.2731252 3452:0.5180425 3458:1.384123 3460:0.21270689 3465:0.08809939 3467:2.250895 3468:1.9210584 3491:1.4740849 3493:0.11875403 3494:2.0376005 3496:4.8137045 3504:1.6917156 3509:1.5636289 3530:1.497172 3536:1.1412592 3537:5.3926554 3539:1.6270107 3548:1.9084353 3549:2.4740491 3556:1.6339929 3564:2.1623361 3576:0.29131114 3578:0.42515281 3582:1.8757761 3584:1.1133161 3589:0.33405778 3591:1.2178707 3599:0.20976287 3601:1.6722747 3604:3.840167 3608:7.1165056 3615:1.1467837 3621:1.288655 3624:2.3958783 3632:0.2987791 3636:4.6864605 3643:2.7240295 3644:0.22485562 3650:1.219659 3653:2.1959195 3658:0.90064919 3665:0.99913406 3667:1.2002589 3678:1.6817786 3683:0.55777121 3684:0.31439939 3690:1.3988299 3710:2.0986192 3712:5.5590315 3729:0.81731164 3732:2.7125859 3734:0.72417986 3746:0.76218218 3756:1.5698087 3778:1.7447982 3785:2.7380116 3789:3.0339582 3793:8.7103958 3796:4.3068972 3808:3.3078232 3810:1.2960868 3811:0.4789525 3818:0.30258495 3824:4.201293 3826:2.7130668 3835:0.71604824 3837:5.8313017 3841:0.99271733 3845:1.1890295 3848:0.39853984 3864:2.1238992 3872:6.7683115 3876:2.1394966 3877:0.82773006 3878:2.1891594 3880:0.14857042 3881:2.4070797 3889:0.034444839 3891:0.77401817 3893:2.8988945 3907:3.464483 3910:0.54151535 3913:2.9467664 3915:2.3807962 3923:3.1480701 3929:2.6484056 3941:2.3873658 3950:1.8453033 3955:4.2420731 3957:1.9180001 3962:2.0680964 3979:2.595108 3980:0.34667775 3988:1.6499677 3990:0.94042099 3997:4.3715954 4000:5.1491899 4001:1.6426069 4003:0.80891442 4005:0.99827075 4010:1.3323046 4021:2.5310502 4022:1.4400347 4034:1.7183958 4036:2.8749447 4042:0.49123743 4043:0.60455978 4055:2.5844202 4057:0.49368319 4063:1.8676951 4067:4.9015102 4070:0.35384932 4071:1.6197479 4072:0.3645981 4074:4.0750918 4089:1.6230857 4091:3.974966 4092:0.47965959 
0.1019471794940497 4:1.108302 9:1.3460394 10:1.4549363 15:1.7381374 19:5.0188589 38:2.1697245 40:1.0079174 44:1.4654919 54:1.1960046 62:0.3327772 68:3.6852829 77:4.7297902 84:1.0515953 94:4.4274607 110:4.4444714 114:5.3553081 125:4.1621757 126:1.2550418 131:0.040773153 138:1.0883873 144:1.4249184 147:4.0709791 148:2.0873957 159:1.7730272 161:2.2278662 163:1.68103 167:0.74552798 169:1.5817301 170:3.7099378 171:4.9903765 172:0.33937824 178:1.5090883 180:4.6095471 181:1.2281578 188:0.026226878 192:1.641006 196:0.99320126 199:1.2457724 200:7.7319045 210:7.8027816 217:11.890455 222:3.6526859 223:2.7277765 225:1.6307921 232:1.1740446 240:1.5497848 241:3.0364416 247:6.77105 252:2.3716342 256:4.0768609 277:2.9138882 278:0.37528089 288:2.0069368 297:1.8972814 303:0.072633445 307:0.2800563 312:1.1274019 314:2.1802936 318:2.2048216 321:0.90713698 324:5.3105927 333:1.1998851 335:0.073139668 348:6.5239077 349:1.990464 353:3.861233 354:0.16445506 365:0.87869996 366:1.9645687 367:1.6233331 378:1.8222566 379:0.94799119 382:0.38580209 384:1.8617949 390:1.2706555 391:0.12307686 397:1.463011 398:0.56766766 412:4.2976108 432:1.9316729 436:2.5101762 451:0.49954501 456:2.0111113 459:2.7845225 475:1.1755866 481:4.401391 487:3.5556061 488:3.6583085 499:5.0009398 514:1.1930935 515:0.68706179 518:1.1398227 525:0.75390553 526:1.1066169 527:0.67290974 547:1.7303828 549:0.96629345 559:0.98050809 562:0.36166728 567:3.4873796 570:1.8707305 573:2.6812747 578:3.2470398 583:3.9705968 588:0.8799113 601:8.8681822 603:1.9091351 605:0.30478808 612:3.1448195 624:0.80723763 635:1.3865805 637:3.2350144 639:0.49599606 641:2.5708096 642:3.0066183 651:1.6935103 653:1.4786235 657:2.6122332 659:0.57547522 662:1.307559 664:3.4775467 672:0.85918415 673:0.6306358 674:0.33469141 675:3.429882 677:1.5215375 679:0.032481998 681:1.7450082 687:0.25860119 689:4.3337779 691:4.1859503 692:0.049715102 700:1.6168879 705:2.6790588 706:0.76525813 711:1.2713809 712:5.9771686 720:3.3818159 721:2.4266667 723:0.9083007 724:1.3516145 730:1.013399 742:1.3429298 749:4.2059097 751:0.12542197 754:1.8412796 755:2.4201894 759:0.19478863 766:3.985642 771:4.4690518 777:1.9268787 788:0.32434663 793:0.22296812 798:0.88299453 803:1.1443439 820:3.218399 823:0.46323568 826:2.2652876 832:0.30158007 835:2.2595959 838:1.4799268 839:1.0838311 841:3.4963253 842:0.95838356 846:0.85893995 848:1.9387629 861:0.26367378 863:4.4405684 866:3.1373034 868:3.1723678 873:0.031027257 876:6.3718247 881:1.3144255 885:0.98362583 889:0.97660136 902:3.4991603 908:2.9524379 912:3.0714221 916:2.0043218 922:0.19686511 928:1.6286588 931:0.24502119 943:1.037653 945:1.9563036 958:0.1139771 965:1.1749181 971:0.048338026 974:2.6743035 976:1.2481675 985:0.37017372 987:0.10359699 997:3.2794228 1008:0.58172667 1018:3.7062433 1021:0.53694558 1022:2.1501842 1023:3.1076434 1029:3.2258255 1030:0.39669463 1041:0.19549894 1049:0.12102444 1050:0.3538574 1051:2.2381408 1064:3.8207185 1080:1.1979961 1082:0.18175682 1087:0.0078402162 1092:7.61305 1094:0.26520598 1095:4.2615647 1096:11.395036 1102:4.0363746 1103:3.3374128 1110:3.0036104 1114:0.66610026 1125:1.4893892 1126:1.099375 1136:1.1595366 1137:4.0543456 1138:2.6869113 1149:0.9669261 1150:3.0701711 1154:2.1692286 1159:2.1273868 1165:3.2114866 1170:5.7843537 1175:0.36938238 1176:1.3039382 1182:2.3134341 1188:1.7256887 1189:0.14476313 1208:2.1343334 1217:0.36302763 1219:4.1759439 1220:3.2392569 1223:6.9317327 1226:0.37022442 1236:0.70015085 1239:3.1374993 1242:0.59677005 1250:2.3146465 1252:3.834944 1260:1.0388696 1279:2.6877246 1286:2.4778438 1297:4.9759607 1299:2.3217216 1304:1.5099124 1306:0.16522884 1309:3.4297123 1313:1.6531003 1314:1.2180469 1328:0.19530997 1336:0.71173823 1341:6.3303037 1343:1.5203784 1347:3.1817241 1349:4.7700925 1366:2.3651938 1368:3.6545658 1369:0.2893455 1376:0.63117129 1392:1.4016691 1396:1.1365244 1397:0.14521724 1406:2.670769 1409:0.020536184 1410:3.9362259 1411:0.89953864 1419:5.8495545 1431:2.3580821 1432:0.51074219 1438:2.398628 1439:0.75125653 1441:0.98856282 1444:2.5041173 1446:2.332922 1452:1.2556031 1454:0.98973554 1463:2.7343988 1465:3.7626491 1467:0.98033583 1470:2.3984239 1471:4.3876576 1476:2.1484509 1479:1.5503714 1484:3.7820032 1486:0.43889478 1489:1.6713375 1502:4.9967065 1511:0.094593614 1513:3.9107192 1515:0.43247843 1516:0.5255819 1523:1.4029732 1526:1.7181064 1534:0.50781667 1545:3.88678 1546:0.62625325 1553:0.43506384 1556:2.6244373 1560:1.9630507 1562:2.0520844 1565:0.78728223 1566:2.6150382 1577:0.98731434 1582:0.43271619 1583:0.026243418 1586:1.2491769 1587:1.8739601 1590:7.4058933 1592:0.63504136 1595:1.1850522 1600:0.91639531 1604:2.8748348 1612:0.073946834 1622:5.5327249 1628:1.1746805 1637:0.9507122 1640:2.7967989 1648:0.2844559 1654:0.99190211 1659:2.2581601 1661:8.3747406 1675:0.93652493 1677:4.6747036 1678:2.3198128 1690:4.1227317 1695:2.5989544 1700:0.31399265 1705:1.0506223 1712:4.9877954 1714:0.063303992 1720:3.7034948 1726:3.318568 1737:3.0175591 1753:1.0786092 1758:3.6234171 1760:0.47781202 1762:0.010221064 1767:1.5752594 1775:0.045012295 1776:0.79826134 1777:0.90951192 1778:0.91987419 1779:0.18486011 1790:2.2960544 1792:0.39343858 1794:0.33368424 1795:1.7148404 1799:5.3315043 1804:0.47770506 1806:6.7733669 1807:0.20497292 1813:4.1525288 1822:0.39849725 1829:2.4784856 1830:2.2552948 1832:1.043467 1833:0.078186125 1843:5.8699265 1846:7.5563455 1847:0.71185154 1848:3.3827503 1852:1.2400503 1855:3.7253809 1863:3.3443961 1874:2.1455486 1877:3.1212111 1879:0.98320234 1880:0.49074438 1890:0.20223159 1895:1.4907124 1896:0.97556961 1901:0.35249102 1904:0.30036449 1911:5.8236432 1912:2.4031217 1918:4.5895739 1928:7.0815172 1938:3.347456 1961:3.0550852 1967:2.0719061 1968:2.0954151 1970:0.7470904 1972:3.6615798 1973:0.24813049 1974:3.3379412 1988:2.5463676 1990:1.3364294 2000:0.79315841 2004:5.80616 2005:0.228681 2016:2.4255557 2022:4.0447235 2030:2.5092983 2031:4.1994748 2047:1.2148128 2048:4.3152966 2049:0.93206984 2053:4.1475534 2057:0.38950527 2058:0.61567044 2060:0.9601261 2070:0.94819039 2075:3.5904229 2103:0.97109878 2105:0.92986029 2110:0.8293891 2116:1.5904765 2117:5.3450665 2130:1.9227673 2144:3.7651997 2150:0.69111526 2159:3.5982358 2160:0.41586342 2166:1.6711568 2174:0.63278174 2177:1.882457 2186:1.0122044 2200:2.7758689 2202:2.2815299 2214:2.3501754 2223:2.8805695 2226:2.1195505 2241:1.1895185 2242:0.16022836 2249:2.5488298 2253:4.5543842 2262:0.031570539 2263:0.40970767 2271:0.681373 2273:0.63638753 2275:1.9955425 2278:0.59183025 2286:3.61728 2288:0.88670009 2294:0.37662107 2300:0.87104857 2302:2.6114998 2311:4.6385589 2314:2.7306576 2316:0.29858416 2317:0.48842901 2318:0.61588913 2324:6.1871076 2328:0.34484828 2337:0.67633456 2343:0.84067219 2348:2.7652764 2360:2.1656742 2374:0.47163519 2383:2.7771409 2392:1.5859716 2393:3.6967268 2399:0.47769099 2404:4.8484006 2416:3.5869985 2423:4.6625876 2428:1.507118 2432:0.47526568 2434:0.7853111 2436:1.1615908 2440:1.7102433 2443:1.0581942 2444:0.31935298 2457:2.0819488 2459:0.52599251 2487:0.27019444 2488:2.0521772 2494:0.44410574 2501:0.039497629 2506:2.0912707 2507:1.6195607 2526:5.5976801 2528:4.6120443 2563:0.022500813 2576:1.7169759 2589:0.8589555 2594:3.0307827 2598:3.1074367 2610:3.1995628 2613:1.4099149 2614:0.51356763 2620:0.30073127 2625:2.3442295 2636:0.90846086 2637:2.8573143 2643:2.3784018 2649:2.6136594 2659:1.0523034 2664:2.4521844 2678:0.20567203 2688:3.3806479 2692:0.5491035 2693:3.6520007 2704:1.1474378 2707:2.6443303 2708:1.1079719 2715:1.5221815 2718:0.25137109 2721:0.78594941 2726:0.74586701 2731:0.077737957 2733:1.9892408 2736:0.1007759 2740:0.71913218 2743:1.020304 2763:2.699451 2766:1.3791986 2771:2.3345137 2775:1.2951162 2786:3.4289696 2788:1.9375345 2792:1.3369774 2805:1.4958011 2808:3.849977 2811:0.23905838 2814:2.8885977 2816:0.10584325 2821:0.48099664 2825:0.48961177 2826:5.9501033 2834:3.9665017 2841:0.81076431 2842:0.30692577 2843:0.71433055 2853:0.47078493 2854:0.36484805 2857:0.02042179 2867:2.6757097 2870:2.330137 2874:0.819583 2882:6.9753523 2895:0.035764754 2896:3.8355792 2910:0.79134393 2915:3.916322 2917:0.9557606 2928:3.9271407 2929:3.1699796 2932:4.8218689 2937:0.08556518 2940:0.83112228 2945:3.8350892 2950:3.3849359 2953:0.3454631 2957:0.088106632 2967:0.72843671 2971:4.229588 2982:2.8691344 2985:0.42096049 2991:0.58004683 2995:2.8642812 3010:1.8075252 3020:4.1232319 3032:1.2596753 3035:2.7914255 3036:4.7724595 3037:1.8027003 3038:2.5737433 3048:0.7449342 3057:0.37730226 3066:3.9058661 3070:2.3469961 3073:3.8333538 3075:1.6428497 3094:0.16699395 3105:3.5266607 3121:0.38730526 3124:0.66271043 3130:4.8359814 3144:3.4573424 3145:2.6108637 3146:3.6079431 3152:0.78863978 3154:5.6654491 3155:2.2267063 3162:2.4693968 3163:5.0702753 3164:0.46469474 3166:0.25940847 3169:4.0470853 3179:4.3500905 3182:3.9839575 3184:2.5786726 3185:2.1644971 3195:3.1214609 3196:0.20848897 3199:3.8125002 3209:0.30471462 3216:0.73674756 3222:0.17102055 3228:1.6047475 3232:2.5914485 3235:5.7291059 3237:0.65178561 3247:1.4978203 3249:2.310333 3251:2.4465048 3253:1.7535404 3256:3.1697183 3260:4.6064363 3267:2.5291157 3286:0.58905566 3287:0.3171705 3293:0.37629971 3294:5.421093 3321:2.1103101 3324:4.1472001 3335:0.99724209 3344:1.8590976 3348:4.090786 3349:0.78159022 3351:1.025192 3359:1.634609 3361:0.55024517 3364:1.7008355 3377:2.8912528 3379:0.41155899 3387:0.68521184 3396:2.3793805 3411:1.077526 3442:3.0295691 3446:1.7904133 3449:0.61369777 3452:0.45828342 3459:0.55148196 3478:0.91288292 3480:2.3936431 3482:0.056197166 3491:4.7329564 3494:3.690516 3496:4.7942562 3497:1.2539713 3508:0.47441861 3525:2.1275263 3530:2.0279157 3536:1.4447179 3537:3.1173496 3548:1.0875094 3549:1.6936414 3561:0.17680764 3562:0.027187526 3576:3.2953804 3582:6.5248046 3583:0.5628711 3584:1.4453034 3586:2.4228239 3588:0.047178872 3592:0.4238866 3593:2.8623025 3599:0.91252404 3604:5.6603465 3608:2.1662643 3614:2.1642535 3615:2.6663685 3621:2.8362021 3624:0.28002685 3627:1.5069407 3632:2.5958157 3636:0.24631748 3638:0.027021825 3643:1.1428469 3644:1.5874002 3650:0.84021652 3653:3.6401417 3661:1.0170486 3665:1.8828282 3667:1.524964 3678:2.6926863 3681:0.52612716 3684:1.6022491 3685:0.038101621 3689:2.1932254 3690:3.2849309 3705:0.26751545 3706:0.66906345 3710:3.1946387 3715:2.2680891 3717:0.024718106 3729:0.87318081 3732:0.21450737 3734:1.5293669 3746:4.6022253 3748:1.2267241 3752:3.9208336 3760:3.093431 3776:2.1732917 3783:3.0840037 3785:0.83484924 3793:4.1509795 3794:1.0402789 3803:0.34301248 3808:7.1113276 3810:0.78484786 3811:1.269459 3815:4.2869239 3819:0.26522106 3824:3.7460124 3826:1.1131777 3828:1.9962841 3837:7.0397968 3863:0.00066876411 3864:0.84913999 3870:0.64079928 3872:5.3256998 3875:1.8752203 3877:0.12056583 3881:1.9348664 3885:4.6454692 3888:0.60102475 3891:1.0773164 3893:3.5796905 3903:2.1170118 3905:1.2250577 3907:5.420331 3910:1.5319582 3914:3.2102354 3915:1.2224048 3923:2.0537658 3941:2.079169 3962:0.32187173 3966:0.039646223 3972:2.4958279 3982:7.7321954 3988:0.27260837 3990:0.3810823 3992:1.8203053 3997:3.8076231 4001:1.3393217 4003:4.3911948 4005:4.3236847 4010:2.5735874 4011:2.2259004 4016:0.10840225 4021:1.0989759 4036:5.4823699 4038:1.4000683 4041:0.73691612 4045:0.47803205 4051:0.1261532 4057:1.5358895 4067:6.0298347 4070:1.8058636 4071:2.3538294 4072:2.4467809 4080:1.8220888 4090:3.744432 4091:5.1273475 4092:1.1210281 
0.03594839360128661 4:1.9328954 9:3.3106747 10:0.79501438 15:0.82423294 19:1.8595035 40:2.0054665 43:0.49183133 44:1.6157972 54:1.6780791 68:4.7530804 77:5.8564835 84:1.1937613 88:1.3708419 94:2.2296748 110:4.7249861 114:3.1297333 123:0.31557038 125:4.3192439 126:3.0243669 131:2.1559205 138:1.8858879 144:0.33130831 147:3.8515382 148:2.7286487 159:3.5078418 161:2.3053246 163:0.22393346 167:2.5219524 169:0.051092863 170:4.4640527 171:3.0123887 180:4.7116113 181:1.9188442 192:1.4959441 196:1.6560614 199:0.86810827 200:6.4738488 209:0.048530474 210:8.0951567 217:10.808155 222:1.9018577 223:0.47506166 225:0.71202731 232:0.62148798 236:1.8274524 240:1.9336482 241:3.1199625 242:2.1003866 247:7.5093603 252:3.5949774 256:2.5054007 258:0.38711661 267:0.37470803 272:0.11470474 274:2.111968 277:2.4537089 288:2.5922151 297:0.36159402 300:0.84362018 312:2.1528172 315:0.018137366 318:0.72932529 321:1.3937911 324:4.9220748 333:2.0980523 335:0.82692176 348:4.2829227 349:3.7451844 353:3.6542375 354:0.1232844 363:0.46184486 365:1.6915371 366:0.25582504 367:1.7529323 378:1.8701205 379:0.27016884 382:1.6228907 384:1.1066625 390:1.1851075 396:0.14345837 397:0.259287 398:0.28789157 412:2.0929787 420:1.2020862 432:0.60663718 447:0.19774729 451:1.1158494 481:3.8807268 487:1.3862817 488:2.58394 499:3.6564307 514:2.1157706 515:1.2910172 518:0.1925599 524:0.4139539 526:1.0356097 545:0.30642512 547:1.7633024 549:0.33786353 559:1.1360719 562:0.6693089 567:2.9482975 573:1.7371438 578:4.2375631 583:5.0488529 588:2.1056628 592:0.79128486 595:1.8429279 601:8.057971 603:1.2743645 605:2.3956201 612:2.5680795 635:3.8842976 637:3.5867758 639:0.36317757 641:3.2880921 642:1.129831 643:0.48893952 651:1.882494 653:2.6874917 657:3.3591964 659:0.70950246 662:1.9466692 664:2.6752496 675:2.3567405 677:1.1884446 679:0.59604084 681:1.591876 682:0.012693346 687:1.5766368 689:0.89557409 691:3.6382883 700:0.67525154 705:2.3579266 711:3.0666463 712:3.7095611 718:0.047736853 721:4.2115121 723:0.57875466 724:1.3370429 730:2.3051713 749:1.8611927 751:1.1183009 754:3.5474195 755:1.9647976 766:4.0496368 771:3.0785313 777:1.2880671 782:0.6283778 785:0.67082697 788:0.50942838 798:0.19415304 803:0.23419139 812:0.5907172 817:1.8525442 820:2.7520618 823:0.0023480654 835:3.1017418 838:0.30185205 839:0.0030217767 841:3.976645 842:0.67495883 848:2.1689873 854:0.76602626 857:2.6385903 863:3.7753341 866:1.343941 868:1.8309724 873:0.25738987 876:6.4925971 889:0.1798985 902:6.4032741 908:2.1140287 912:4.1612387 916:2.539716 922:0.97385275 927:1.0103673 928:0.36777228 931:0.40518475 943:1.3390222 945:1.628366 958:1.3747399 965:1.8343123 967:2.304698 974:3.734107 976:1.4031743 997:0.61967713 1021:1.0851923 1022:3.1837485 1023:3.4048157 1024:0.86267096 1029:0.2060802 1041:0.5103147 1047:3.6497917 1049:0.88322484 1050:1.710246 1051:1.5256228 1064:3.4691017 1070:0.053229272 1080:0.10230631 1081:1.621062 1092:4.338913 1094:0.46905279 1095:3.8968768 1096:9.9198503 1099:0.6380477 1102:2.9939418 1103:4.4559851 1110:1.5648363 1125:0.84674305 1126:2.2878945 1134:0.25373048 1136:0.971259 1137:3.2666583 1138:2.0450077 1139:0.47613275 1150:2.3728478 1159:1.1105039 1165:2.0850468 1170:5.2830935 1175:0.59852505 1176:0.62702149 1182:0.49420902 1188:1.9637374 1206:0.71777308 1208:5.0157466 1217:2.6963212 1219:5.6086307 1220:3.398895 1223:7.2397389 1236:1.8137469 1239:2.6663342 1242:1.892009 1250:0.77215564 1251:0.28766423 1252:1.5496234 1264:0.29698205 1278:1.806145 1279:2.0892742 1286:4.6197739 1292:0.77276301 1297:3.63557 1299:0.84419286 1304:2.3991303 1306:0.63494194 1308:0.21206573 1309:0.80644733 1310:0.75635982 1313:2.4533963 1314:0.80784196 1317:1.1420562 1319:0.027799249 1332:0.04365468 1335:2.6326849 1336:1.5954791 1341:5.255753 1343:1.4238141 1347:0.95044374 1349:1.9770694 1366:2.5596201 1368:2.7813611 1369:1.6731386 1387:0.29315865 1392:0.52330035 1393:0.67382765 1396:0.41850793 1406:3.5048339 1409:1.1060718 1410:2.4131417 1411:2.6853862 1419:3.3571248 1431:1.1121309 1432:0.50952315 1441:0.52379239 1444:0.70835918 1452:0.72085917 1454:1.2912383 1463:1.308991 1465:1.8455917 1467:1.327579 1471:3.5546355 1476:3.254498 1477:2.0209994 1479:0.29544052 1484:4.9554176 1487:2.0345075 1488:0.29067686 1489:2.9378743 1497:0.27158865 1498:0.43099535 1502:4.9871469 1503:1.0411313 1513:2.1914642 1516:1.1994901 1526:1.3901852 1544:1.3103716 1545:3.9129083 1546:3.4518924 1556:1.5213414 1560:1.7937477 1562:1.3477621 1565:0.50165868 1566:2.2499359 1577:3.5374138 1582:2.0909741 1586:2.123853 1587:0.84879076 1590:5.648468 1597:2.0323346 1600:1.5661759 1604:2.8161297 1617:0.033882022 1618:0.092750221 1622:5.2175789 1624:0.14399576 1628:2.618592 1638:0.62577176 1648:1.7993234 1654:2.2872372 1661:8.94907 1665:1.5126897 1673:0.23308197 1677:2.8868926 1678:1.7314086 1690:3.8374343 1691:0.24989536 1712:5.8256197 1720:5.6628847 1726:3.0925839 1732:0.13602525 1753:0.58622861 1756:0.2595284 1758:1.6340122 1762:2.0719147 1775:1.4403059 1777:0.087570488 1790:1.7902745 1792:0.68367481 1795:1.0719244 1799:3.284519 1800:1.4928808 1806:5.6519079 1813:5.2954865 1817:2.2946918 1829:0.77656937 1832:0.64836645 1837:0.71989679 1842:0.06335777 1843:6.3506112 1846:7.5826354 1848:2.7846599 1849:1.4258087 1852:1.0388139 1855:1.7193531 1860:0.72436059 1863:1.5607867 1874:0.093691885 1877:0.25578642 1879:0.038615808 1880:2.9320567 1890:0.49168867 1893:0.69329214 1901:0.71035838 1911:3.3450341 1912:3.1407838 1918:5.0152135 1928:5.0923681 1938:3.8778892 1942:0.12669742 1961:2.0455492 1968:0.62807792 1970:0.756962 1972:5.1163144 1974:3.46368 1990:2.6717422 2000:0.47770265 2004:7.076539 2009:0.71608579 2012:0.13232923 2016:1.5295674 2022:2.9670663 2030:2.1718755 2031:3.017689 2038:1.5426091 2048:3.219687 2053:5.7366791 2056:0.13840492 2058:0.32263583 2070:3.1971455 2075:3.399173 2082:0.5742954 2101:0.51199257 2103:1.7403513 2105:0.52477819 2110:1.1986529 2116:1.4382567 2117:4.6018362 2130:1.0076431 2144:3.5122941 2159:1.6595089 2160:0.69013649 2166:2.5139096 2174:2.019454 2177:2.4904034 2186:2.0770421 2187:1.4310739 2188:2.0362 2199:0.42161292 2200:3.0854917 2202:1.5638969 2212:0.079557896 2214:0.86946172 2218:0.072617479 2223:2.1184332 2226:2.1736341 2239:0.081036836 2241:1.7300446 2249:3.5648055 2253:3.9890885 2259:1.2646444 2262:0.30232382 2271:2.0222158 2273:3.3727338 2275:1.6844175 2278:0.35830823 2286:2.9351969 2288:1.2697625 2292:0.03883037 2294:0.42179626 2307:2.6649663 2311:3.736356 2314:3.3079545 2316:1.6930233 2324:4.8570132 2327:0.46057874 2343:2.7885773 2348:1.6999906 2360:2.7233338 2374:0.55301726 2383:0.33504513 2392:0.76268142 2393:3.442004 2404:3.472491 2416:2.506393 2423:4.4810076 2424:1.035212 2428:1.9392668 2432:2.7649858 2434:3.3669887 2435:0.43763763 2436:0.63011527 2440:0.585702 2443:0.22576936 2444:0.60801005 2446:1.6220318 2452:0.15361446 2453:0.46634635 2457:1.2493917 2459:0.45010409 2487:0.56334114 2488:1.4920216 2489:0.40666264 2494:1.8243196 2507:2.1136544 2520:1.8092408 2521:0.17974822 2526:6.3666573 2528:2.2463939 2551:1.0893624 2558:1.102001 2561:1.3478323 2568:2.6565857 2574:1.0220227 2576:3.6011221 2594:4.4593406 2598:2.8382244 2604:0.23258784 2610:2.7988436 2613:1.7836317 2614:0.87082696 2625:2.2856617 2636:0.5549407 2637:2.8009567 2643:2.2587826 2649:0.53640234 2653:1.0902572 2659:0.88527989 2678:0.90793508 2688:2.7631068 2692:0.44310668 2693:3.3162742 2704:0.22608724 2708:0.58279467 2715:2.1598628 2718:0.58821058 2726:2.9837961 2733:2.2192488 2743:0.67014545 2745:0.48673022 2763:1.832093 2765:0.61109138 2766:2.9707479 2771:1.4442103 2775:1.0212318 2777:1.369482 2786:1.8747001 2787:0.75319266 2788:0.39784643 2792:0.14272398 2808:6.7538705 2811:0.67528296 2814:5.4786162 2817:0.037996739 2821:0.77013755 2826:2.9449904 2831:0.14864695 2834:4.9694791 2838:0.18240333 2841:0.8073439 2842:0.64668411 2854:1.7726861 2857:1.9298733 2867:4.9783163 2870:1.9742509 2874:0.83112496 2882:5.2780175 2894:1.6830637 2895:0.75881708 2896:4.2337389 2910:2.4562197 2915:4.2907867 2917:0.86405712 2920:1.3409507 2928:3.3919897 2929:0.22483218 2932:2.0014935 2940:0.74169743 2943:0.029226303 2945:4.6206021 2950:0.61932981 2953:0.9968282 2967:0.99962807 2971:1.0743738 2977:0.60122728 2978:2.3349397 2982:0.28132501 2991:2.4853127 2993:0.96061659 2995:2.3349218 3010:0.67893231 3020:3.7666233 3035:1.4713006 3036:5.0412097 3037:1.8900446 3038:0.25431862 3048:0.6166575 3053:0.026055336 3057:0.052669048 3066:4.225348 3070:0.78657198 3073:2.2759247 3075:3.4197268 3079:2.1300561 3092:0.051939175 3105:4.5325775 3110:0.099471539 3116:2.944989 3121:0.063614666 3124:0.47863647 3130:1.822381 3144:4.6945348 3145:1.8875539 3146:3.5512662 3152:0.77284724 3154:3.7920833 3155:2.386961 3160:0.96595496 3162:1.2146258 3163:4.9035449 3169:0.33547199 3179:0.80555189 3182:2.3025963 3183:1.0102816 3184:3.5432289 3185:1.0838954 3195:3.6709094 3196:0.050535977 3199:3.4818051 3216:2.3067944 3222:0.44375876 3235:4.9486852 3237:1.604182 3246:0.60235417 3249:0.32579803 3251:0.94007313 3253:0.76628119 3256:2.0932703 3260:3.3399634 3267:1.844774 3286:1.5610273 3287:1.5130835 3294:4.5474072 3321:4.0642252 3324:2.61657 3335:1.000461 3337:0.40269941 3341:0.39751402 3344:3.1807127 3348:3.1671143 3349:0.60038608 3359:0.82125616 3361:0.29883894 3364:1.5701022 3377:4.3506093 3379:1.637319 3387:0.27292949 3396:3.2852066 3411:1.8812156 3415:0.20139185 3424:0.37554902 3431:0.51968026 3442:3.7890918 3445:1.2125008 3446:1.5966374 3449:1.1970683 3452:0.47241378 3463:0.026622742 3465:0.32781842 3467:0.36461943 3468:0.59493178 3478:0.37996632 3480:1.4824754 3491:4.1051993 3496:4.5995789 3497:0.15858155 3504:0.44454879 3508:0.20043625 3509:0.38473016 3525:2.4397464 3536:1.6611371 3537:4.7298698 3538:0.19456218 3539:1.6783752 3540:0.76593709 3548:1.2527273 3549:1.1442606 3552:0.051425934 3562:0.95602238 3576:2.2336612 3580:3.4508443 3582:4.1920605 3584:1.9009478 3586:1.4123015 3589:0.49864331 3592:0.30064464 3593:1.3482485 3599:3.3890264 3604:4.5057416 3608:1.5865587 3614:0.2330523 3615:1.663512 3618:0.05751121 3621:3.7388554 3632:2.8458569 3636:0.26880756 3643:0.27206314 3644:1.2899756 3650:2.2143309 3652:0.70596832 3653:3.3731759 3661:0.98916161 3665:0.50048709 3667:1.3255 3678:0.65949142 3679:0.53418094 3689:0.95180953 3690:1.6204662 3706:0.69677562 3710:1.4634697 3715:1.3188156 3719:0.70325625 3729:0.7954486 3732:2.8929269 3734:1.8143873 3746:4.1270432 3748:1.5900615 3751:0.81671 3752:1.0577041 3757:0.80332053 3760:1.417526 3776:2.6705232 3783:2.2780049 3785:4.4741902 3793:2.5902281 3794:0.13526335 3808:6.9711041 3810:0.85790831 3811:1.7352854 3815:4.6820364 3818:1.1713853 3822:1.1204625 3824:3.4414904 3826:2.8295515 3837:6.1755266 3848:1.0802588 3864:0.11079414 3870:0.10552756 3872:7.1117764 3877:1.0310553 3880:0.24966016 3881:1.3658509 3882:2.2455704 3885:1.8831626 3888:1.1216438 3891:1.8131658 3893:3.6054795 3907:4.0720134 3910:0.46436739 3913:0.17565331 3914:0.83211941 3923:2.6746409 3929:0.085201949 3941:2.9164965 3957:0.45082957 3962:2.2915759 3972:0.79064047 3982:6.583427 3988:2.3437419 3990:0.63295257 3992:0.70556211 3997:6.298337 4001:0.41238326 4003:1.7256787 4005:2.9201462 4010:4.9737425 4016:1.8050826 4021:1.9181427 4036:5.2589293 4038:0.98470557 4041:2.2055664 4055:0.14162505 4057:0.064844832 4063:1.0869015 4067:3.4178045 4071:2.3726623 4072:1.8757684 4074:0.59438455 4077:0.0043165684 4080:3.1688032 4084:1.1108446 4085:0.66451085 4090:1.0801314 4091:4.5012779 4092:0.74295175 
0.5540108522770117 4:1.4414701 5:0.34988955 9:3.3501742 15:0.6570586 19:5.6633205 39:2.0051761 44:2.9586494 54:2.978343 55:1.13569 65:0.2981053 66:0.11278147 68:6.6797986 71:0.12448928 77:5.0455375 84:1.5011706 88:0.72968447 89:0.39979234 94:2.181946 110:1.4467252 114:0.98645198 123:0.44538102 125:7.2152939 126:4.3129339 127:0.10558644 131:2.3104424 138:3.1106281 144:0.0062671304 147:4.6828904 148:5.5647459 157:0.13662976 159:1.7376252 161:0.51253152 163:3.3726783 166:0.99102986 167:2.2373841 170:2.2794187 171:0.64921331 180:1.5959815 181:3.5247521 192:0.91344893 194:0.10417247 196:2.5472622 200:9.2576761 210:9.602458 217:10.683424 222:0.59467077 234:0.32394442 236:0.1269104 240:2.2175145 241:2.0146515 242:0.44044846 244:1.2447263 247:7.8445644 254:0.21990442 258:4.761549 260:0.61646384 262:0.089923084 263:0.29391447 272:2.00898 274:0.058664627 277:2.9352591 288:4.7248826 289:3.3334126 292:3.5704219 297:0.82681209 300:2.3298302 303:1.0566131 306:0.50216681 310:0.076479167 312:0.1697025 318:1.7126268 319:0.59902143 321:0.36173761 324:4.4063649 333:3.6675446 335:2.0854495 341:1.0051488 348:5.1045046 349:1.5956708 353:1.7725211 358:0.5668171 359:4.7194381 365:1.3238091 367:0.094847158 370:0.41101122 378:3.9515786 382:2.3199537 384:1.4141269 390:1.5611906 396:1.1241012 398:2.4776037 412:5.2339015 420:1.2817246 432:2.1947412 442:1.7974576 447:1.298641 450:1.5127673 456:0.090852059 473:0.99036372 481:3.1809216 483:1.1559486 484:0.092219025 485:0.92682439 487:2.2187145 491:0.12741923 498:0.38582513 499:3.6126184 514:2.4516687 515:0.20074542 521:0.84648925 524:0.39939183 525:0.58271933 545:1.8240865 546:0.21923199 547:3.1417921 549:1.0098721 553:1.1178858 559:1.8672974 567:0.98046142 572:0.44755235 578:2.9958041 583:6.0011196 588:0.81621408 592:1.2273822 596:0.12037569 601:8.3268528 603:1.9408437 605:0.47085389 609:0.24667075 612:0.396671 626:0.79580986 635:5.5854826 638:0.6361317 641:1.4587829 642:1.9683625 653:2.9704597 657:7.9304805 659:1.6722825 660:2.0670934 662:1.8954939 664:3.9903879 669:0.76188982 673:0.70486248 675:2.0829122 677:2.5669026 679:1.3109627 681:0.18522501 687:2.4998245 691:0.57422996 694:0.26652318 700:0.018234864 705:5.8976593 706:1.306923 711:1.867925 712:2.3424494 721:1.9172131 724:0.31530234 728:1.4260731 730:2.5348086 749:0.13670373 751:0.92955291 754:3.1968074 755:3.2657056 759:1.0537831 766:5.1131549 771:6.3683639 773:0.03543219 777:3.7434928 782:0.29406014 785:1.4216555 788:4.0869331 793:1.2041578 795:2.7735097 803:0.81788242 804:0.037269473 817:0.084627032 820:5.0263233 823:1.0994629 835:4.4368038 838:1.1595809 839:2.0264654 840:0.090099558 841:4.1029658 846:0.29049939 848:4.8101144 857:2.2212112 863:4.3384299 865:0.60554481 866:1.920332 868:1.9095247 871:0.65953803 873:1.7324135 876:3.2014816 885:0.086383522 902:5.8966188 908:3.6391737 912:1.2751071 915:0.19928369 922:1.5103581 931:0.5850991 943:2.9297023 945:2.6129403 951:0.62954295 958:1.3995014 965:0.2817798 966:0.42834449 967:3.5165009 971:0.038044214 974:3.6475303 976:0.71412045 987:0.76532108 988:0.02289024 997:2.3708308 1007:0.1868034 1008:0.065357566 1014:0.64690363 1021:1.003103 1022:4.3062277 1023:2.08413 1029:0.10165573 1041:0.28030026 1047:2.9636526 1051:1.8872714 1064:3.183213 1080:1.6862366 1082:0.62237358 1092:1.5984825 1094:2.5912604 1095:2.3304586 1096:10.19532 1102:1.9436944 1103:3.2828593 1110:4.7004352 1126:1.1719708 1136:3.8724053 1137:3.4910655 1138:3.509779 1150:5.761754 1154:1.3074267 1159:1.4097977 1170:6.1390104 1176:3.4349406 1180:0.56830615 1185:0.094363868 1188:5.1880288 1189:1.1383375 1193:3.1638529 1200:0.54384476 1203:0.00055524707 1204:0.82665408 1206:1.4143428 1208:5.2093291 1217:2.7528701 1219:5.5619035 1220:4.4042864 1223:8.1637239 1226:0.85269713 1239:2.4345737 1242:0.8969171 1252:0.016566992 1260:1.6777115 1264:2.3684535 1269:1.3866329 1272:1.0040456 1279:4.451983 1280:0.51508701 1286:2.8972979 1295:1.0951695 1297:5.9061966 1304:2.5619066 1305:2.200326 1308:1.2005491 1309:0.28228951 1310:1.5998517 1313:3.0293889 1314:0.89364004 1317:0.24103521 1319:3.3898015 1332:1.1886147 1335:0.52537662 1336:4.4361286 1341:6.393177 1343:3.3581707 1347:1.1093956 1349:1.2266715 1359:2.6516955 1360:2.2976017 1361:0.16397336 1365:0.41302812 1366:2.4942305 1368:5.7325287 1371:0.95847327 1375:1.133312 1386:1.9936697 1387:3.7342491 1393:1.6419455 1395:2.0547421 1406:4.4868412 1407:1.3422363 1409:5.6116242 1410:2.3906806 1411:2.8131599 1416:0.79574221 1419:2.5872412 1424:0.44464442 1432:0.413901 1438:0.082443036 1439:1.6547253 1441:0.78595126 1444:1.2678158 1451:0.93731898 1452:1.1093442 1454:1.3191397 1463:1.6836255 1465:2.6044488 1467:3.5672157 1471:2.8256454 1476:0.21049881 1477:0.66104078 1478:0.18213063 1484:6.5877123 1486:1.1158469 1487:1.2762728 1489:2.2264526 1497:3.7560773 1498:0.37917951 1500:0.60880089 1502:6.3649526 1513:0.72344834 1523:1.1304286 1526:1.5492709 1534:1.2903825 1544:1.4045565 1545:4.1692357 1546:3.5876865 1555:0.078162715 1556:0.84599447 1560:2.492239 1565:0.6631574 1574:0.060950339 1577:1.6305213 1582:1.060225 1587:1.5469489 1590:4.9532566 1592:2.0007617 1597:3.2076623 1604:1.6134608 1605:2.1706367 1606:0.20767254 1612:0.4429934 1617:1.1694657 1618:0.9394598 1619:0.5283739 1622:6.6298294 1624:3.8255541 1640:0.35797203 1648:0.34713244 1653:3.040529 1661:8.9831409 1669:0.12597252 1673:0.46457133 1675:0.018140122 1677:2.8897438 1678:2.5170679 1690:2.7863259 1695:1.0178756 1696:0.25464165 1708:0.8997674 1712:4.2517281 1720:7.4919343 1726:4.6178503 1730:3.0883601 1732:1.5481224 1756:2.5869763 1758:1.4212859 1760:0.93064058 1762:2.4109292 1766:0.50373268 1767:0.1992995 1773:0.53907263 1775:0.44388413 1778:0.90432739 1779:0.085409224 1780:0.42688286 1790:1.9453119 1792:0.0304977 1795:1.0649467 1799:3.3844826 1804:0.077603757 1806:4.1413069 1811:0.94253421 1813:4.4971952 1817:2.1086905 1822:0.72264814 1829:0.66984212 1832:0.66913223 1833:0.19620335 1837:0.10755864 1843:4.6218305 1844:0.5336715 1846:8.2199678 1848:1.1920739 1852:1.390501 1854:0.054626033 1858:0.23195677 1860:0.62458134 1863:4.2045164 1874:1.7027318 1878:0.14476067 1879:2.6948876 1880:2.5214503 1885:1.456995 1890:2.4242797 1893:0.16699967 1895:1.8174042 1896:1.5564016 1901:2.6743503 1912:2.642447 1918:2.7277327 1925:0.43704805 1928:5.0660286 1932:0.027539074 1938:5.707202 1956:1.0205672 1958:0.92396772 1959:0.54843342 1960:1.1274416 1961:2.1775219 1968:1.6429901 1970:0.48832706 1972:4.176363 1973:1.7703503 1974:2.6993291 1975:0.99246132 1990:3.3461611 1995:1.0766602 2004:5.9259596 2009:1.0976889 2016:4.1409364 2022:2.8827295 2030:3.5241451 2031:4.9333315 2038:1.9180099 2045:0.73682415 2048:3.4949667 2053:4.92697 2055:1.8319995 2058:2.2230821 2070:0.14164466 2071:0.53793603 2075:4.0023332 2091:0.72723234 2094:1.7817624 2101:1.2866457 2103:4.7324042 2108:1.7285662 2110:0.48741171 2116:1.5687301 2117:3.4505167 2130:0.59433508 2135:1.8920511 2144:1.7150478 2154:1.5177586 2157:0.39076352 2159:3.3017411 2160:0.49616063 2166:1.0213234 2174:3.8703449 2177:1.8759751 2186:0.76470459 2188:0.97168881 2189:4.975698 2190:1.608385 2200:4.5652533 2202:2.7516234 2206:0.33572343 2214:2.2334681 2222:0.46983355 2226:4.2607241 2239:0.16192999 2249:1.7530696 2257:3.1522851 2259:1.2928524 2262:2.7546678 2269:0.35043305 2271:4.5277185 2273:3.9802864 2278:2.9041092 2281:0.42691821 2284:0.077028394 2288:2.2143266 2302:2.8385446 2304:0.38927656 2311:5.4389811 2313:2.4051502 2314:3.137105 2315:0.098133743 2316:0.71735871 2318:1.1198947 2321:0.20034385 2324:3.5923467 2327:3.0346358 2328:1.2528347 2329:0.027633131 2337:0.36565864 2338:0.87862509 2342:0.32413214 2343:5.6219759 2348:4.4686775 2360:6.0692172 2376:0.37018585 2383:2.1121328 2384:0.50197554 2386:1.0104276 2393:7.6706042 2404:3.0405271 2409:0.44681054 2416:4.1821642 2417:1.2297714 2423:0.87455881 2425:1.9924802 2428:3.4750328 2432:4.0386214 2434:3.857991 2435:2.1158414 2436:0.43297347 2439:0.32410681 2440:2.6332607 2443:0.030926839 2444:1.8070987 2453:1.9366796 2457:2.2750187 2467:0.60574841 2471:0.56693375 2485:0.5666607 2488:1.1987412 2489:1.8601875 2501:1.4743507 2506:1.142437 2507:3.8979609 2509:0.73175466 2510:0.63910073 2511:0.82258648 2520:1.2321661 2522:0.080048054 2526:6.338223 2528:4.7256727 2537:0.73177373 2551:2.5342674 2558:2.0653274 2560:0.31164086 2561:1.4155868 2568:1.8840696 2574:0.45597833 2576:3.2378294 2582:0.80296075 2594:3.9519999 2598:5.0209274 2604:0.69760931 2610:3.5094285 2611:0.95148802 2613:2.6390719 2614:0.046546772 2621:0.62534213 2625:4.4787326 2626:0.19931722 2636:1.1072034 2637:1.9712662 2646:3.5990274 2649:0.24306279 2651:2.1124659 2653:1.5568775 2655:1.332118 2659:3.4608142 2678:1.1782342 2688:2.44258 2691:0.67375594 2692:1.3280872 2693:2.3999898 2694:0.47958344 2708:0.57200003 2715:1.0822533 2726:3.7191031 2727:0.67030454 2733:2.7742906 2740:0.6607796 2745:0.25892621 2747:0.005641073 2763:1.6937441 2765:0.21639991 2766:4.2475233 2771:0.16327146 2773:0.46539256 2777:2.2764211 2786:2.2833252 2788:2.1981025 2792:1.097239 2807:0.9891479 2808:3.8161349 2811:1.0424092 2814:6.0877657 2816:2.9990768 2824:3.0345314 2826:2.0494952 2834:3.6195817 2835:0.65141213 2836:0.48650911 2838:0.14871007 2840:0.52191609 2841:1.6210166 2842:3.0548809 2853:0.90766668 2854:3.4458864 2859:2.2767904 2865:0.26711702 2867:7.434948 2870:1.2655716 2872:1.3099804 2874:1.1892798 2879:1.0402133 2882:4.0407767 2894:0.67808849 2895:1.8483264 2896:5.2149582 2908:0.45501143 2910:2.3361111 2915:3.4712121 2917:1.0906415 2920:0.29740405 2928:3.6617022 2930:3.8630745 2932:5.5528636 2943:1.6354728 2945:4.0458827 2946:2.4860008 2947:0.2828474 2950:1.0678568 2957:1.009184 2964:0.6229102 2967:4.1975527 2971:1.2001331 2977:0.073314577 2978:0.99992943 2991:2.6574309 2995:1.8908978 3004:0.90783751 3010:1.2178228 3015:0.092272639 3020:2.5109973 3021:1.3419063 3022:2.3932681 3032:3.6574495 3035:4.1633344 3036:4.0519252 3037:2.4896305 3038:1.3073746 3041:0.24151361 3049:0.92833376 3059:2.5232332 3061:0.19162071 3066:6.6029935 3070:3.1014211 3073:1.4578323 3075:1.2878639 3079:2.1848836 3088:1.2566068 3092:0.12978238 3095:0.20428008 3103:0.78738707 3105:3.1259105 3114:0.69665205 3119:1.1035471 3121:0.38735008 3124:1.2883372 3130:3.1104879 3131:0.21020165 3144:4.159307 3145:5.1143403 3152:3.8793318 3154:3.0315568 3155:4.196269 3162:0.78484327 3163:3.3664188 3164:2.3026605 3169:2.8231821 3170:1.8721396 3177:0.30048501 3181:0.30608949 3182:2.7194884 3183:0.19695465 3184:2.5879688 3185:2.8599226 3195:4.1207323 3199:3.9678133 3216:0.74221623 3217:0.68641502 3224:2.106004 3235:2.8554156 3237:1.3092589 3249:1.3030542 3251:2.5199068 3253:2.3542533 3256:3.5381801 3260:3.7967491 3267:2.7716315 3269:0.10658807 3280:0.32872784 3284:0.37597695 3286:2.2561295 3287:3.951256 3290:1.0056412 3293:1.2508303 3294:1.2479227 3298:0.27555552 3299:1.3802297 3300:1.3382893 3321:3.7703724 3324:0.1607486 3334:0.23244074 3337:1.3512559 3341:1.8089491 3344:0.34658247 3348:1.7417676 3349:0.82244807 3359:0.56848514 3361:4.9980831 3364:1.6908888 3377:5.613625 3379:5.9745502 3387:0.84961993 3394:1.7181796 3396:2.8302383 3399:0.85560918 3421:0.0019940436 3424:2.390213 3431:2.574584 3439:0.31008786 3442:3.0915649 3445:3.7342591 3446:1.5959045 3447:0.65095609 3452:1.5225148 3463:0.17521867 3465:0.50677818 3468:0.89743125 3480:1.2149612 3491:7.7880659 3494:1.9242731 3496:3.517796 3497:1.0963838 3504:2.5451436 3509:4.1018333 3513:0.47972491 3519:0.32312036 3525:1.659911 3530:3.3583581 3532:0.42915705 3536:0.15940553 3537:6.724483 3539:1.7722334 3540:1.481169 3548:1.2653496 3549:4.527761 3551:1.7520727 3552:1.2015582 3561:1.24194 3562:4.072011 3576:3.8931942 3578:0.60981083 3580:2.9376526 3582:7.5286226 3584:2.6657968 3586:1.7587882 3587:0.043947577 3592:0.84232801 3599:4.8211651 3604:3.7846587 3608:2.8792958 3611:0.86627513 3615:2.470171 3621:2.6149139 3632:2.6638381 3638:0.18443497 3644:0.61374378 3650:0.22256733 3653:4.8956952 3658:1.3094997 3665:0.78564119 3667:0.79101241 3684:0.41842598 3685:0.83320749 3689:0.57067829 3690:4.6300859 3691:0.0026100874 3710:3.6078296 3712:2.4781921 3713:0.37044913 3715:1.7735075 3719:1.2053962 3722:0.14389127 3729:0.58281279 3732:4.6944041 3737:1.8688641 3744:0.64109951 3746:5.3824196 3748:3.1603584 3751:0.60281992 3752:1.5747808 3760:1.4631816 3766:1.1529895 3776:0.21462616 3785:4.1685472 3793:2.8449717 3794:1.8748153 3797:1.2498379 3802:2.2231205 3808:5.8154292 3810:2.125577 3811:4.162056 3815:8.3965912 3818:0.0026290864 3822:1.4340374 3824:3.0170443 3826:2.4327595 3837:4.8385344 3845:0.0083383322 3848:4.1478505 3870:2.3265142 3871:0.80525321 3872:8.4981918 3875:5.6642256 3877:0.72811687 3878:1.7299536 3880:2.3823845 3881:5.8765774 3885:0.81649834 3889:0.55637228 3893:7.9357462 3896:0.37863597 3905:2.5573096 3907:4.7620716 3910:0.4613744 3913:1.6482928 3914:0.58550304 3923:2.0640395 3925:2.5828822 3935:0.97323304 3941:0.87154198 3949:1.0138907 3955:0.76716071 3957:1.3073775 3962:0.42427793 3972:0.46785536 3974:1.1810994 3978:0.25230932 3982:7.5688844 3988:1.7211591 3990:0.24894804 3992:1.3200725 3994:1.3064436 3997:5.2514391 4003:1.4498296 4005:0.70829868 4010:2.3434589 4011:0.21292526 4016:4.7103863 4021:3.4233234 4025:0.41763496 4036:2.668452 4041:2.3649285 4042:0.14709547 4045:0.50850546 4055:0.48031402 4058:2.972018 4063:3.0083351 4067:3.4462869 4074:1.6974144 4080:0.71855891 4085:1.2176156 4090:0.0044519305 4091:4.5589643 4092:3.2840605 4096:1.2778556 
1 4:0.71823978 9:5.1044383 10:1.0622569 19:2.8653309 20:1.0799252 27:1.0653592 39:0.70815378 40:1.4812825 43:0.21694455 44:2.6557157 49:0.55861652 54:2.4079695 66:2.6330848 68:6.1629133 71:0.88261229 77:4.8369031 78:2.4280739 94:0.068706572 110:3.1384957 114:1.1575705 125:1.3574971 126:0.10888962 131:1.4211831 140:1.1984216 144:0.28971624 147:4.5053811 161:1.9076105 163:1.3732014 167:2.3660586 169:0.33190411 170:2.9093924 171:0.40499628 173:0.78951764 180:3.6401629 181:2.0765877 200:6.3567538 209:0.25589985 210:7.0658927 211:0.53070188 217:8.8563786 218:0.73379087 221:0.59692258 223:0.79735613 232:1.3162436 234:0.42192912 241:2.178232 244:0.5516144 247:4.9062104 252:1.8103284 258:1.8678944 262:3.4965219 263:2.9523771 267:0.45001385 272:1.6385384 274:0.26644343 277:1.5720865 288:3.6425273 292:2.5701115 293:1.4944017 297:0.11452401 300:0.57384884 302:0.43131956 303:0.39659485 312:3.6148834 314:0.29810441 315:1.9523481 318:1.9384365 324:3.8593843 333:1.0180677 335:2.6271441 340:0.0030539334 342:0.31127274 347:0.03619796 348:2.7966783 349:1.7056524 353:2.2252066 359:3.7504954 363:1.3474169 365:2.1043363 367:0.60933232 376:0.65434176 378:3.599545 379:0.074270397 382:2.5972311 384:0.76608688 390:2.3291173 396:1.2247928 398:0.36580914 412:3.1808681 420:1.0450616 421:1.4280657 431:2.6225595 432:2.0716796 442:0.76382166 447:0.58481729 450:1.2848666 451:0.245985 459:0.8809433 468:0.97262627 473:1.7159195 481:2.0737796 484:0.60261059 485:0.60855883 487:3.512603 499:2.6115291 514:5.7736473 515:1.8089814 524:1.2127362 527:4.7394638 529:0.09973377 545:1.3066067 547:2.5163114 553:1.1346524 559:4.325038 565:1.0553792 572:1.8211066 578:2.2238228 583:2.0472353 586:0.016452461 592:1.640505 593:0.35958791 596:2.4850719 601:5.5832491 603:1.1791623 605:2.6118326 609:1.4768867 612:3.3255441 614:0.083216593 635:4.82548 637:1.9391571 639:0.49558893 641:0.40977547 642:2.5433733 643:0.32617477 657:4.4335246 662:1.3489659 664:2.1585863 667:1.4841441 670:1.1011591 671:0.92671013 675:2.8989177 676:1.0111942 677:2.1384127 679:0.21086964 681:0.18376017 682:0.771299 684:0.11441901 687:0.10179381 689:0.16483259 691:0.10670808 705:4.8393364 706:0.93505645 711:5.8660054 720:0.086615592 721:2.4119968 722:2.4028275 723:1.1994423 724:2.1065426 726:1.8212187 728:0.90675724 742:0.96152568 749:4.820816 754:6.2036591 755:3.8051429 758:0.37454402 759:3.2719998 763:0.21294886 766:5.8478646 771:2.9463363 773:0.9019618 777:1.9485159 782:1.5911381 785:1.866887 788:3.5989189 795:0.59891486 801:0.12436807 807:1.0140657 812:0.67014611 817:0.21923614 820:2.3335967 823:0.63011515 826:0.45412594 831:0.34052083 835:1.4130237 839:3.5690379 841:5.6138783 842:0.20978716 846:0.88793319 848:3.2494698 857:1.2931217 863:0.61653906 867:0.68949544 868:1.1239619 871:2.7298601 873:1.761543 876:4.4037123 877:0.44742575 878:1.463304 885:0.37401104 899:0.60760498 902:2.1270854 904:0.34060571 908:4.9945588 912:5.0402093 915:0.2956937 916:0.72499162 918:2.3943019 921:1.9450556 922:0.2632626 931:0.28368771 943:1.3678465 945:3.0736179 948:0.44258916 958:2.1318362 965:2.2758224 966:0.16626006 967:4.4315138 971:2.906023 974:5.8692679 976:0.37241557 997:1.4405531 1001:0.38368219 1004:2.2765787 1007:0.077884138 1013:2.234098 1018:0.88873404 1022:6.3021526 1023:2.1063039 1029:1.7022384 1041:0.26690125 1042:1.0268869 1047:7.6336422 1050:0.22996257 1064:1.0758034 1077:1.9756315 1080:0.80202472 1082:1.7697848 1087:0.37378997 1092:1.0469513 1094:1.5238692 1095:4.3155694 1096:9.0247993 1099:1.5978556 1102:1.7783408 1103:4.4389391 1110:0.39710712 1111:0.08878956 1126:1.9361478 1134:0.048072934 1137:1.7764453 1138:0.26936954 1150:0.93393588 1159:0.94490749 1165:1.1924763 1170:5.8505239 1176:4.7074189 1188:3.2177088 1189:3.0702894 1192:0.022748888 1193:1.0468462 1206:3.451246 1208:3.4852476 1217:1.6439118 1219:6.5574732 1220:4.7697086 1221:0.52903295 1223:6.1000047 1235:1.6045974 1239:0.82126844 1242:1.400188 1251:0.088070296 1252:0.89927381 1260:1.0124478 1264:0.66873288 1278:0.82669902 1279:0.15406802 1286:3.1621199 1293:0.66809648 1295:0.58218932 1297:3.206459 1305:2.5542324 1306:1.3258842 1313:4.9385366 1319:3.6609282 1325:1.5599766 1332:1.2645485 1335:0.96065766 1336:2.80304 1338:0.21095574 1341:3.3635967 1343:0.84751713 1347:0.11169739 1349:4.5051341 1352:3.9620581 1359:1.364616 1360:0.19944242 1361:0.81274813 1366:3.5906579 1368:2.9119487 1369:0.28666282 1372:3.1290329 1375:1.2692885 1376:1.2000704 1377:0.37268156 1386:2.935226 1387:1.1894891 1392:0.33439791 1393:1.5897443 1395:2.2888629 1406:3.7078621 1409:0.60429662 1410:3.1717346 1411:1.8103453 1419:1.7060723 1426:0.12977356 1429:0.95764416 1430:0.63570035 1432:0.85163295 1435:0.83990324 1441:0.71814919 1444:1.9349163 1451:0.69472128 1454:0.74216247 1456:0.52559394 1463:1.8255959 1465:1.094358 1467:2.1688061 1470:2.5477276 1471:1.5653393 1477:1.577001 1479:2.1795681 1484:5.8769722 1485:0.014835984 1487:2.9852355 1489:2.0444133 1497:1.5707961 1502:6.7948318 1503:2.2280862 1506:0.30534944 1515:3.0128949 1516:2.0551372 1522:0.97267544 1526:1.5116546 1544:1.6612909 1545:0.56234598 1546:1.4498854 1555:0.022308156 1556:0.2143153 1560:0.8063826 1562:0.1992456 1566:1.536132 1571:0.35690922 1574:0.25886863 1577:3.5593402 1582:4.9112682 1586:0.7030378 1587:1.3207784 1588:0.24190816 1590:6.2076278 1600:0.84598053 1604:3.3611453 1605:1.8795087 1606:0.53978753 1618:2.1541448 1622:6.3166804 1624:3.5540431 1625:1.3836176 1633:0.24740809 1637:3.8373156 1648:0.34221792 1653:0.97005951 1661:7.1768885 1663:0.71550274 1667:0.071927667 1669:0.65983981 1673:0.92989451 1675:1.2443292 1677:4.9340816 1678:2.8866749 1690:1.2401149 1695:1.4958144 1712:3.8395205 1716:0.27477223 1720:4.8490644 1726:2.8119378 1727:0.50368977 1730:0.74277532 1748:0.16297017 1756:2.2528965 1758:3.5612285 1762:3.2942226 1766:1.2342091 1780:0.63405514 1790:0.39306211 1796:1.6530516 1799:3.7463243 1804:2.1702199 1806:3.6895885 1813:2.3532825 1824:0.36039975 1829:0.40406409 1830:1.9421136 1832:4.564321 1837:0.44023159 1843:4.0225496 1846:5.1098566 1848:0.94396579 1849:2.6963089 1852:0.49483436 1853:0.36753288 1860:2.1383653 1874:2.3180885 1877:0.014341712 1878:1.2558343 1879:0.010632262 1880:0.11295001 1881:1.7406366 1890:1.464155 1895:0.39138174 1896:2.9553518 1901:4.0963774 1904:1.3899733 1905:1.3507079 1911:0.55177808 1912:4.5432177 1918:1.9552108 1925:1.0899503 1928:2.0558882 1937:0.011019409 1938:6.4846869 1942:0.1326918 1943:0.24563479 1959:1.7226431 1968:0.96468586 1970:0.86268228 1972:2.9089372 1975:0.30381787 1990:2.5392749 1997:1.5341218 2004:2.2360632 2005:1.6505556 2012:0.3076095 2016:1.1697139 2020:0.13056186 2022:5.4402089 2030:4.3955798 2031:2.5982151 2032:3.1918972 2038:1.7794198 2042:0.15072682 2048:1.2684474 2053:4.2468171 2058:1.9959596 2070:2.1628928 2071:0.20888957 2075:4.3823848 2094:1.8662039 2097:1.3479542 2101:2.4855964 2105:2.2035613 2110:1.6806116 2114:0.5300442 2116:0.39082795 2117:3.4930682 2135:0.74212301 2140:0.56652236 2144:1.4293683 2150:0.51085842 2157:0.18250525 2159:3.7193708 2160:0.27407396 2166:5.6090918 2174:1.7187268 2177:2.6126251 2178:1.882653 2186:5.7676053 2187:0.59901696 2188:3.6510932 2189:1.9201303 2194:0.96497703 2200:2.3392701 2202:2.20455 2206:0.88275945 2214:1.5855644 2218:0.46163791 2226:1.6077271 2239:0.66280484 2241:3.9102759 2249:0.79910326 2257:0.88781178 2259:2.2612126 2262:1.8483028 2263:0.85371399 2267:1.2520564 2270:0.26777366 2271:2.8749936 2273:2.5668674 2278:3.2593741 2280:0.19662303 2281:2.3803525 2286:1.4886677 2292:0.5124476 2294:1.5447917 2298:2.4630775 2302:2.4333951 2307:0.96934932 2311:3.7429109 2313:2.4049115 2314:2.6814251 2316:0.66749668 2318:0.45512062 2320:0.06969142 2324:4.3432565 2327:2.183084 2328:0.14516598 2329:0.68139541 2337:1.321602 2343:5.0476127 2348:3.5390401 2355:0.77451038 2360:5.0353546 2376:0.30543742 2381:2.4951065 2389:0.010605216 2390:1.4948109 2393:4.2073865 2404:0.71656674 2406:1.1513112 2416:3.679441 2420:0.67170161 2423:4.090189 2424:0.46322724 2425:2.2246904 2428:4.9510226 2432:3.9029806 2434:1.0488611 2435:2.6508143 2436:1.1781077 2440:0.54067826 2441:0.74824464 2452:0.90673596 2453:2.3327858 2457:1.8787798 2459:0.2683062 2467:1.3900361 2471:3.743494 2477:0.35669145 2487:0.33777699 2488:3.4036524 2494:2.0744567 2501:1.2075173 2507:5.9637108 2508:0.065848336 2509:2.1418369 2520:1.4122645 2522:0.09691152 2525:0.63189852 2526:2.1912313 2528:1.6214831 2551:0.60658836 2552:0.44258744 2558:3.9613326 2560:1.8763853 2561:2.7318625 2566:1.058179 2568:2.6625738 2570:0.99333459 2574:0.60424906 2575:0.1823837 2576:3.7927926 2579:0.28457096 2589:1.6272495 2592:0.38795114 2594:3.6737835 2598:0.24147761 2600:0.32596457 2604:0.39416331 2614:0.42833716 2617:0.93093419 2621:2.2515304 2625:3.8150289 2636:1.2954971 2637:2.2657328 2643:1.4119366 2646:1.7623202 2649:0.97059846 2651:0.03561157 2653:0.034473598 2654:0.81383121 2656:0.76083004 2659:1.1652198 2664:0.90606576 2667:1.8256782 2669:0.57579309 2678:1.0701487 2687:0.13959116 2688:3.3622351 2690:3.1996772 2693:2.1198752 2708:0.42345884 2715:1.3837457 2718:0.75436044 2726:1.3202943 2727:0.59110498 2733:0.20171648 2740:0.31375885 2745:2.2050419 2752:0.13643163 2765:1.8574164 2766:3.8007791 2771:1.2229359 2777:3.7994499 2784:0.61009926 2786:0.24106544 2787:2.2744095 2788:0.70247293 2792:2.8464515 2807:1.1642377 2808:4.3228822 2811:2.0492213 2814:4.5009432 2816:1.5009508 2821:2.0241096 2826:2.5438912 2831:0.041366637 2834:3.3696189 2838:0.13836175 2840:1.2888684 2841:2.6176674 2842:1.0819442 2843:0.73889709 2853:0.069960862 2854:1.3590958 2856:1.1455538 2859:0.30667326 2867:5.0846605 2870:2.1864247 2874:0.37503394 2879:1.0332506 2882:4.0634303 2892:0.14839785 2894:1.5560536 2895:0.72104788 2896:4.6244144 2910:1.7979815 2912:1.874856 2915:0.40319729 2917:1.5686622 2920:1.121868 2927:0.20911419 2928:2.1222587 2932:2.4645367 2940:1.8806901 2945:3.6412058 2946:0.60506815 2950:1.7724781 2953:0.25723624 2955:0.0066595674 2958:1.2987165 2964:1.5132865 2966:2.3730474 2967:3.1525888 2971:0.70679057 2977:1.1805249 2978:4.6044464 2982:0.15731755 2995:1.7899606 3020:4.082068 3021:0.050458938 3022:0.27721021 3032:2.2100623 3034:0.36650789 3035:4.2884355 3036:1.8034488 3037:0.34140891 3049:0.98103368 3051:1.0260272 3059:2.3413286 3066:0.91794688 3070:1.9547322 3073:0.92556214 3075:3.4014769 3079:2.3702166 3085:0.6388104 3103:0.8486014 3105:0.32223645 3110:2.9932623 3114:0.61734796 3119:0.050555468 3120:0.72618598 3124:2.742873 3144:2.5623672 3145:3.0799365 3146:0.53213 3152:3.0956097 3154:2.9972634 3162:0.77295274 3163:3.7082975 3164:1.7100565 3166:0.93283117 3169:2.409157 3170:1.2168492 3177:0.4866159 3179:2.1509581 3182:1.0030422 3183:1.6362019 3184:1.2813349 3185:0.1195792 3195:3.2676244 3198:1.4184694 3199:3.212137 3201:0.0041409731 3216:0.67469358 3224:0.60052097 3235:2.3126664 3246:0.71980059 3249:0.60566717 3251:0.60031056 3252:0.34814584 3253:0.62392581 3256:3.5825236 3260:0.14145598 3268:1.7400024 3275:0.21402371 3282:1.5306495 3286:0.29068166 3287:3.2456028 3290:3.2390478 3291:1.4343724 3298:2.5517154 3299:0.18314478 3300:0.010510013 3310:1.3887219 3321:2.6696038 3325:0.70383549 3334:4.2591295 3337:0.74693334 3344:2.7392035 3348:4.1518106 3349:4.0196896 3355:2.1794159 3359:0.4198696 3377:4.0418859 3379:0.46758807 3390:0.77856052 3396:1.6466308 3407:0.62217009 3415:0.29418823 3424:2.4682951 3431:1.9174482 3438:1.8515487 3442:5.3958549 3445:3.4017639 3446:4.4026289 3465:1.9380358 3467:1.0655047 3468:2.964082 3478:1.2970645 3486:0.46713799 3491:5.148839 3494:1.5579828 3496:4.0674596 3501:1.010662 3504:0.10931402 3509:1.5430753 3513:1.8989596 3525:0.95783961 3530:0.002148658 3536:0.9064188 3537:4.3427868 3538:1.5445147 3539:1.1864227 3540:4.0967155 3544:0.59510064 3548:1.2241828 3549:1.383507 3551:1.6277239 3561:0.74379742 3569:0.86949456 3576:5.0180359 3580:3.1703699 3582:7.0539455 3584:1.9563681 3586:2.0719752 3588:0.24352333 3593:3.0085657 3599:1.4848555 3602:1.3799605 3604:4.7107215 3608:4.1011443 3614:1.9168895 3615:0.38691154 3621:2.4872704 3624:1.6659734 3627:4.2651353 3632:1.9992902 3636:1.3407365 3638:1.6122346 3644:3.6408062 3650:5.2059865 3653:4.6355023 3665:2.1156683 3667:0.3823702 3672:0.47623065 3689:0.16973907 3690:2.6985307 3697:0.53992122 3710:0.97126579 3715:1.5195295 3719:3.3503487 3721:0.27912396 3729:2.0269175 3732:6.1601915 3734:2.1532946 3746:2.7185175 3748:3.4920368 3752:1.5823493 3757:0.0011612941 3766:2.9203787 3774:0.30737308 3775:0.77552247 3776:1.0761372 3778:0.39314279 3785:3.6780086 3793:2.0410359 3794:1.6360285 3802:1.7967687 3806:2.0462608 3808:7.423739 3810:1.2028213 3811:4.5277929 3815:4.2621388 3818:0.38138455 3822:0.24764729 3824:4.6131306 3826:1.4611096 3835:1.6144555 3837:2.6179934 3845:1.3861539 3848:2.618973 3860:0.25869864 3867:1.703871 3872:7.571619 3875:2.5004821 3877:1.3243016 3880:1.4423603 3881:4.0566139 3882:0.053924695 3888:0.47380239 3889:0.97829962 3891:0.26143563 3892:2.0160766 3893:5.837101 3896:0.38696942 3905:0.94949925 3907:6.6495857 3910:3.6995807 3913:2.3404195 3915:0.12697732 3923:2.6816142 3925:0.18904173 3929:0.98648274 3935:0.83547503 3941:1.6337292 3948:1.7935749 3955:0.76246858 3957:2.6283958 3962:3.1997993 3963:0.67530042 3970:0.98773056 3972:1.8277254 3974:0.3456552 3976:0.20839861 3980:0.266716 3982:3.4213181 3988:2.4942503 3990:1.0539567 3994:0.49784565 3997:2.8369608 4000:2.387356 4001:0.80450416 4004:1.0811841 4005:3.1700652 4016:6.8916588 4020:0.54534864 4021:4.9291234 4036:4.5448718 4041:2.1888065 4042:0.56423682 4055:0.38006991 4063:5.7185025 4067:4.6252985 4072:0.0061021149 4074:0.19679239 4076:2.2240524 4080:2.2698958 4085:1.3956585 4088:0.05700323 4091:1.2422944 4092:1.9973229 
