svm_type c_svc
kernel_type rbf
gamma 0.000244141
nr_class 2
total_sv 275
rho 0.49246
label 1 0
probA -4.76051
probB -0.363065
nr_sv 123 152
SV
0.6355804444205311 9:2.325593 15:0.53757936 19:4.5038815 27:2.8583381 38:3.7731714 40:1.966418 43:3.851285 45:0.19200215 49:2.2755637 54:1.1822195 62:1.6065936 64:2.7560699 66:1.7081554 68:3.7892096 77:1.1843586 82:1.1191316 84:2.5406482 94:0.71043301 103:1.8191385 114:0.22737549 121:0.10355553 125:0.93974984 140:1.1471105 144:0.6238997 147:2.6574197 161:2.6505084 163:1.7422624 167:2.3218215 169:0.79861319 171:2.4639096 172:3.4570098 178:0.45100868 181:4.4186153 184:0.94799292 186:0.092767894 188:0.31185806 191:0.36325657 195:2.1071043 198:0.2806921 200:2.0113566 210:4.3865185 217:6.4849634 218:2.5445795 221:0.47369623 222:2.4405103 223:1.8199168 225:0.077233076 237:1.8190292 241:1.6915838 247:4.8041134 256:0.63145566 259:2.2608514 262:0.46244133 267:1.1870804 277:1.9460311 279:0.41694182 288:5.1593814 297:0.2254653 300:0.44515407 304:1.4560006 310:0.1385892 312:4.34341 315:0.032407552 318:0.66858548 319:1.2364421 333:0.06891191 335:0.76807433 347:0.47008979 348:1.9687308 353:7.0045872 354:0.70225912 359:0.77808022 363:2.5489688 365:1.1054668 366:3.3159409 367:3.1869571 371:0.00027880073 378:1.0934775 379:2.5250363 382:1.5845776 384:3.0087254 390:4.3985295 391:2.3344259 393:0.43227202 397:2.435667 408:0.87992644 410:0.38205993 412:3.4355564 416:2.2028916 452:0.73125756 453:0.28316611 456:0.99878663 470:1.5947195 481:0.60198039 484:1.6542898 485:0.0090631843 487:1.9464715 493:0.54508555 497:2.1103773 498:0.21730691 499:4.2818561 511:0.44085464 513:0.58794892 514:2.6348047 515:2.3769364 517:2.185118 526:0.098041534 527:0.10837147 547:1.0531892 549:1.422968 559:0.15336469 560:1.3044684 562:1.3669146 567:0.47312218 570:0.54294646 571:0.45437035 578:1.6571765 584:0.32851839 588:2.2352569 593:1.0928655 596:0.13093141 601:2.7141449 603:0.75629139 612:5.1133661 616:1.9433506 617:1.2864583 639:3.3241184 642:3.884012 662:1.4176894 664:1.7166874 672:2.9469082 675:1.7829533 677:3.7267478 681:1.5782187 684:3.0889616 687:0.58787924 689:2.1673522 690:0.42413464 692:1.8607202 702:0.17795002 706:0.29951775 709:0.14180221 711:2.8049695 717:2.1029849 718:1.7979701 720:2.4082808 721:1.6482152 722:2.6998508 723:2.7345381 725:5.2787294 728:2.469398 742:0.6311506 749:4.010932 751:0.46786284 754:0.57638979 755:0.91912222 758:1.4352207 773:0.64184856 780:0.68974537 785:0.82796472 789:0.80937219 795:0.95008671 796:0.95693505 799:1.048807 803:0.25588059 804:0.72171634 811:1.29409 812:1.8811072 820:1.6708065 823:0.29664385 826:4.1731615 832:1.1274321 839:4.1623116 841:3.8716621 842:2.8634002 857:2.2752869 868:2.0600224 873:0.54146248 876:3.1328847 881:3.572922 885:0.12053262 889:4.9744048 899:1.9762117 905:2.5324428 908:1.2511381 912:1.347454 916:2.7847226 919:2.2805219 924:0.97313809 927:0.86693102 928:4.5201006 930:0.74631321 948:1.6093459 949:0.46832716 958:0.62802267 961:1.1964474 965:1.7457633 971:1.3512106 974:2.296196 976:2.7030382 985:2.971421 992:0.66032171 993:2.8935192 1001:1.6858945 1004:5.1684308 1007:0.77132452 1014:3.3956428 1018:0.31904274 1019:1.8250754 1023:1.7232254 1029:1.6916803 1041:1.7142121 1044:0.47532883 1049:0.35429123 1051:1.8538842 1056:0.53437841 1074:0.62820387 1080:2.117049 1081:4.031498 1087:0.67332751 1092:3.1200743 1094:0.1320774 1095:1.3189468 1096:7.7357192 1097:0.58210146 1104:1.8279792 1110:3.8367653 1114:2.705245 1125:0.74169677 1126:1.0576407 1134:1.0471163 1137:0.59989762 1154:2.8698459 1159:1.6248212 1163:0.39395717 1165:5.2120051 1170:8.2991762 1171:6.2933922 1173:1.1336462 1175:1.4075133 1180:1.2909591 1182:5.3437929 1188:0.91208762 1192:0.87141848 1219:3.6318703 1220:2.0971129 1221:1.7611277 1223:0.1731233 1228:2.9760032 1231:0.21043071 1233:0.44806698 1234:1.1755378 1236:0.64097434 1237:1.9378096 1242:3.1737943 1246:0.94586229 1248:0.53697133 1252:4.3770347 1254:3.6514421 1259:0.32673228 1260:3.2238908 1268:3.7520661 1274:5.0386629 1276:1.0272044 1277:0.27492276 1278:0.30805266 1279:1.1842375 1280:0.06192112 1291:1.3894187 1292:2.0689306 1297:2.121887 1306:1.1275778 1309:1.7708087 1314:1.6593764 1334:0.42806035 1336:1.2570212 1341:3.4358723 1343:1.5080733 1344:0.80627781 1349:2.5959277 1356:0.944529 1365:3.6965837 1368:0.071921706 1376:1.8692616 1379:1.3189708 1381:0.34042543 1386:0.51075786 1387:2.0060711 1389:1.7443602 1393:1.7414333 1396:1.2565179 1404:0.043066829 1406:1.1649997 1410:2.4608009 1412:2.5657644 1416:0.13280964 1419:5.9080901 1422:0.18315852 1424:0.78840858 1428:0.64729345 1430:0.028983653 1433:2.4323788 1435:0.58935815 1438:1.0655609 1439:1.9659028 1441:1.5562457 1445:0.45435524 1446:2.383934 1456:2.4484317 1458:1.0746791 1463:4.0086603 1465:4.8042898 1467:0.62973636 1470:2.5723715 1471:0.32126746 1479:1.4951403 1488:2.7902801 1498:0.86083299 1502:2.7961335 1503:1.9550614 1509:0.95375311 1513:4.9694896 1515:0.71470827 1520:1.2529957 1526:1.6074913 1538:2.1293733 1545:3.1401 1553:1.2132277 1555:1.3484182 1556:1.2477193 1560:2.1364131 1565:1.1822411 1566:0.84554464 1568:0.26733845 1569:0.43054664 1580:0.17635456 1582:4.892839 1583:0.95242059 1587:1.3100324 1588:3.0941958 1590:4.5478516 1592:2.4841168 1595:0.51651257 1604:1.832413 1612:2.5950923 1613:0.80372947 1622:4.1675153 1628:0.3339448 1629:0.20441335 1630:0.14681968 1636:0.35387933 1637:1.1147122 1640:1.0251914 1647:2.9296751 1648:0.45392618 1659:4.752068 1661:4.7074313 1665:1.1769477 1667:0.059911713 1677:4.2825561 1678:2.3401685 1680:1.6783633 1688:0.84348291 1690:2.3764451 1695:4.2516704 1696:0.71996766 1703:1.4905102 1705:1.7458977 1712:1.8738029 1714:2.4004416 1721:2.1130779 1725:2.8646979 1726:7.0558777 1727:0.57206869 1730:0.018703043 1732:1.2882634 1736:0.79967642 1737:1.6504657 1740:1.6124772 1748:0.19310366 1750:0.55174041 1753:2.7179558 1758:0.67047387 1762:0.93071204 1763:0.34154487 1764:0.25187564 1767:3.6536195 1780:0.88770533 1783:3.8031287 1788:0.33660108 1790:2.9464731 1795:0.70144105 1799:1.3631563 1808:1.6451855 1813:1.8673096 1814:0.58292991 1822:3.4769292 1823:1.1232483 1824:4.3191948 1825:3.9998767 1830:4.8931589 1832:6.72926 1833:4.8038397 1842:0.34352332 1846:3.3600559 1849:0.19132203 1850:0.39312118 1852:1.7558242 1853:0.28336334 1855:3.3675647 1856:3.4752152 1857:1.1382178 1870:1.0206976 1890:1.7658103 1895:0.94892108 1904:1.0172517 1926:0.8969171 1938:0.42971244 1942:0.57745719 1943:0.33471441 1962:0.25513405 1967:2.7609844 1968:3.4973292 1972:3.0411401 1973:1.1130722 1974:1.9442647 1977:0.8694663 1988:1.6096457 1996:0.10357602 1998:0.94526678 2000:0.011016861 2004:3.2823455 2005:2.9089878 2022:2.1063788 2029:0.89980161 2046:1.7574664 2048:4.6377001 2057:1.3776213 2058:5.0414472 2060:0.085015595 2075:2.4260347 2085:0.98530418 2110:1.9122262 2117:1.0800111 2138:1.4272505 2140:2.0776365 2153:4.2724137 2172:0.95602286 2176:0.59316397 2177:2.6101718 2179:3.393805 2187:5.4307051 2190:0.63214588 2196:4.1599193 2198:0.11860406 2199:2.2229581 2200:0.42634249 2202:2.876128 2203:0.24987391 2212:0.15967575 2214:1.7538731 2223:0.038680717 2226:1.7241485 2228:0.85194111 2233:0.94368625 2241:1.6964624 2244:0.88124752 2245:1.8222444 2249:1.4124863 2257:1.0270661 2261:0.42114797 2267:3.0519502 2286:2.7582436 2292:0.2546787 2294:4.5047154 2297:0.82046998 2298:1.9269128 2314:4.8985481 2317:0.35320681 2318:0.44346988 2322:2.1107888 2324:1.0357438 2325:0.89283502 2328:0.34984854 2329:1.9475721 2337:0.49920735 2343:2.6320662 2346:2.6849959 2348:0.94323975 2349:4.0612288 2353:1.931147 2360:2.5084813 2362:1.2843804 2378:0.02793622 2390:1.5874223 2392:1.284705 2399:1.8727956 2410:0.28746429 2417:2.3766141 2420:0.95717263 2422:0.21804482 2423:5.5018086 2435:5.3675027 2438:0.70885462 2452:0.29931837 2458:4.3865561 2459:0.68604136 2471:0.83539236 2473:0.32511798 2476:0.23993018 2486:0.39045134 2488:2.2419794 2493:0.26459125 2506:2.3554378 2507:0.03586939 2514:3.611711 2526:6.5190916 2529:0.73515278 2531:0.14043033 2561:5.3325734 2566:1.1511155 2570:4.8790312 2574:2.6410656 2577:0.59591544 2598:1.8169949 2620:1.8467984 2621:3.8659532 2625:1.6581409 2626:0.18706554 2630:0.19850498 2635:3.145087 2636:0.88801229 2642:1.5239327 2649:1.3215662 2651:2.4662855 2652:1.3162167 2655:0.22105066 2659:4.0673709 2663:2.1602473 2669:2.2750778 2672:1.6173409 2674:0.98051888 2687:0.11828029 2688:3.9287832 2690:4.0023952 2695:0.33360136 2697:2.3867228 2701:1.4431901 2707:1.8772643 2708:2.8704312 2720:1.6174508 2721:0.035531104 2723:4.4716139 2725:1.3611645 2727:0.088743597 2732:1.3046618 2740:3.6226954 2745:8.3292551 2760:0.83187693 2763:0.99714875 2765:0.62250197 2766:1.1150485 2775:1.8234622 2778:4.201375 2792:1.6836665 2793:0.86881495 2800:2.4317298 2808:3.2828872 2811:0.79416609 2814:1.8826395 2821:1.5050402 2825:0.58482134 2826:2.2629929 2834:1.2093356 2835:1.7853847 2840:1.065347 2842:2.3062418 2843:0.88653767 2854:0.64155114 2860:0.0093211811 2870:1.1654837 2873:0.29217055 2879:1.61447 2882:5.7098823 2887:0.77907228 2888:0.41578352 2891:0.54543197 2894:1.2634485 2896:2.012774 2907:1.8796736 2910:1.0950251 2928:1.3196598 2929:2.0600491 2937:3.1278048 2940:3.1251757 2945:3.3900275 2948:4.1903744 2950:1.8736684 2953:1.344129 2958:0.54758489 2966:0.74248087 2967:0.8074615 2971:2.4950128 2974:1.2017739 2979:1.5286875 2982:2.7339942 2985:0.52246046 2989:0.18257457 2995:0.26701832 3005:0.53987813 3010:1.9098006 3021:1.7317519 3026:0.53492022 3033:3.0119514 3034:0.045320362 3035:1.8647547 3036:1.3129492 3037:0.098848343 3038:2.1570232 3041:0.88166964 3046:0.13826211 3062:0.091121078 3066:1.082504 3067:3.0423248 3070:1.1361307 3071:0.55216891 3073:0.65367824 3075:0.1545013 3079:2.5949011 3087:0.92399335 3094:1.7460543 3110:4.5275173 3114:0.81840992 3129:0.45319021 3130:4.4287992 3144:0.3036086 3145:0.027957857 3152:6.088161 3154:4.2146173 3157:1.703035 3162:2.1613481 3163:3.9665625 3169:0.94841397 3170:0.46475118 3172:1.983346 3179:2.632427 3182:1.0754105 3195:1.3006448 3198:1.4936273 3199:4.5802922 3209:2.0851083 3210:1.0122756 3211:0.84919429 3216:1.3430444 3217:0.30986679 3235:3.6141706 3246:0.7855618 3247:1.7080516 3256:0.45432118 3258:1.3275267 3267:1.7475332 3280:3.2349207 3282:1.1907455 3287:2.186522 3290:0.63176936 3291:3.2053738 3299:0.78467548 3310:3.106739 3314:1.1467636 3321:1.3998193 3325:0.07330206 3334:1.861257 3348:1.239942 3354:4.057373 3355:0.61473316 3357:0.11250401 3359:0.10678595 3364:0.82024634 3375:0.60560971 3377:0.83484685 3388:0.2070996 3396:1.5452163 3397:0.2086376 3399:0.22552833 3427:0.44329748 3432:0.5385657 3438:2.0191188 3442:4.9131832 3446:0.40042788 3447:0.96674371 3452:2.6219208 3474:3.8260658 3476:0.90930009 3491:3.2185967 3494:8.6960564 3496:5.8482537 3513:1.4477825 3517:1.7642905 3521:2.8046494 3525:0.38156381 3530:0.91197813 3531:1.5818659 3537:3.1175821 3539:0.53013837 3544:1.6902674 3548:0.94847476 3549:1.0640455 3556:1.5014019 3569:6.1593413 3576:1.2707788 3577:0.63374424 3582:5.8231392 3583:0.47007668 3585:3.4330254 3586:4.0586352 3602:3.0331464 3604:4.4179525 3608:1.1042737 3614:2.000458 3619:0.12908414 3621:0.6240344 3623:2.6499183 3624:0.23600227 3627:1.2201431 3644:4.060627 3653:4.2378283 3657:0.52447176 3678:0.45697799 3681:0.58294129 3684:1.9340444 3690:4.7687526 3692:1.1272677 3697:0.022372305 3702:0.14365888 3706:0.090969518 3710:0.48130363 3715:2.7501798 3732:0.79690683 3734:3.9313052 3752:1.2066387 3757:0.5284574 3761:1.0809476 3765:1.0971862 3766:3.9881778 3768:2.6264691 3777:1.4761201 3783:0.88928205 3785:0.30461365 3791:2.530757 3793:4.2904515 3794:0.48393902 3797:0.093548357 3802:1.146572 3803:1.0415223 3808:0.53894806 3815:1.9792798 3822:1.6596891 3824:1.4302627 3828:2.0516253 3871:0.13344494 3872:3.1139898 3875:1.0451876 3880:0.67875439 3881:2.9206216 3882:0.11092211 3885:3.452014 3888:3.81023 3892:4.5269499 3893:1.3780897 3903:6.6775455 3907:1.9442978 3908:1.5352967 3910:3.3977876 3915:1.1157207 3918:0.073775738 3919:0.30226856 3927:0.74402779 3929:1.4859279 3933:2.2261086 3935:3.7977645 3941:0.15271647 3942:0.71099174 3957:2.1218686 3970:1.695069 3972:2.2431767 3976:0.98945677 3984:1.9282073 3988:2.4374194 3992:1.6628232 3996:3.2348485 3997:0.26381958 4010:1.6974448 4011:0.57879388 4018:0.15793249 4021:6.1678433 4032:2.0014997 4044:0.29243141 4053:1.2254528 4057:0.95420742 4058:3.5215585 4070:0.96581888 4071:0.52855909 4074:1.5474705 4082:0.21009815 4084:0.5047859 4085:0.9517014 4090:1.0189495 4091:2.3605597 
1 9:3.6267297 15:0.37419015 19:0.14222875 39:1.0580013 40:4.6195898 43:4.4897642 45:1.1562257 49:2.299161 56:0.031181037 62:0.20794809 64:0.89181113 68:1.1243212 77:0.45970577 84:1.1534256 94:1.4129028 103:3.0400994 107:0.077521712 108:0.11408941 111:3.1452985 131:1.0337505 152:1.3475624 159:2.1586535 161:3.8542037 163:0.22258458 167:1.0192018 178:3.6139016 180:0.7730121 181:5.2756591 184:1.0764155 191:0.58036435 210:1.7582021 217:8.2928696 218:1.9648427 221:0.17083593 222:0.54299724 232:1.1042532 237:1.6665853 241:4.5498972 247:1.5468134 252:2.0352049 256:1.7763305 267:1.218547 277:0.76782119 288:2.2348659 290:0.12342489 298:0.33173245 312:4.8990893 315:0.11840391 318:0.44476011 324:0.33598077 335:4.5028186 348:0.41885775 353:4.6410732 354:1.2139115 356:0.38144594 357:0.85475481 363:1.7108781 367:1.6038918 378:2.69313 384:3.4750261 390:1.2196957 391:2.3574467 397:1.3011645 404:1.285872 412:1.4673035 416:2.6706011 421:1.9446837 428:1.6988769 431:0.032997765 436:1.2901063 470:3.0922394 487:1.5144043 488:1.5320296 496:0.94497478 497:1.9978349 499:0.56039453 513:1.6709957 514:2.7981765 515:2.7811029 518:1.9978673 527:2.1045289 538:1.1618052 547:0.89261389 559:1.1913581 562:0.3777411 563:0.99365336 567:1.0923016 570:2.080276 571:0.35497728 578:2.1280074 589:2.2755661 603:1.8225842 612:6.7211595 616:0.50306523 626:2.3511808 637:0.82080388 639:0.85724592 642:2.9024646 656:1.9746641 661:0.10067486 664:3.5392289 667:0.67253596 675:5.0676956 677:2.8511868 681:2.4029019 682:0.94733143 687:2.1970105 689:1.5452074 690:2.0777383 711:3.2573748 712:0.99023855 717:0.65477514 718:1.6589779 720:1.2525969 721:2.8374975 722:2.414366 723:2.0946651 725:3.7994277 728:0.97575527 742:1.117137 749:2.5820701 751:0.56284785 754:0.76032466 755:0.98816955 758:2.0950308 777:0.8093158 785:1.5622162 789:3.6378767 803:0.71091413 804:0.38619679 811:1.4032468 826:2.5298214 839:0.89728552 841:3.3756008 842:2.9299872 868:1.5902944 876:3.0025132 881:4.1514702 889:1.8253685 902:0.96368861 905:1.9411185 909:0.78762484 912:4.1897631 916:1.9492803 927:0.26983422 928:2.1449578 930:1.4794245 931:1.2316417 945:0.63857615 948:1.7278001 949:1.7102777 961:0.67556161 965:3.4946384 985:4.5229568 993:2.5104506 1001:2.0633054 1004:3.6200402 1007:1.088542 1014:3.1948519 1023:1.2625036 1030:0.73001969 1041:0.2617833 1047:2.9734941 1049:0.70399958 1051:1.2538049 1065:1.0162257 1074:0.85784364 1080:3.8932395 1092:1.0821452 1095:0.40817499 1096:7.1126895 1099:0.3872779 1102:2.5197058 1104:0.65970361 1114:3.1505442 1126:1.7938861 1138:0.16378278 1144:1.5952936 1150:0.56130534 1154:1.7641686 1159:0.50973523 1165:5.1588397 1170:7.026144 1171:2.0742662 1173:0.033823311 1174:0.36101526 1175:4.5004406 1176:1.470915 1182:1.964869 1189:2.2567964 1192:0.13688698 1206:0.23547958 1217:1.7207427 1219:4.0718522 1220:0.1616254 1223:2.021517 1228:0.27640045 1237:4.598084 1242:5.5022736 1252:0.59132987 1260:0.49539632 1268:2.4389062 1269:0.21546108 1274:1.3995279 1278:1.381803 1279:1.4377401 1290:1.0487549 1291:1.3737079 1292:2.9750934 1299:1.7986995 1313:2.6516876 1314:2.9415925 1334:2.3867333 1336:1.2548822 1341:2.9170032 1342:0.034746796 1343:1.7379909 1344:2.3177233 1349:1.0209835 1356:0.47171009 1365:0.93440354 1369:2.1275299 1376:2.6214426 1381:1.0452969 1386:0.20075643 1387:2.1372807 1389:0.93437904 1391:1.0484821 1410:4.7266097 1412:0.99122822 1417:0.72421432 1419:4.5757189 1424:0.91215098 1435:3.1369882 1438:0.89620316 1441:4.73492 1444:2.1766789 1446:1.8144708 1463:4.0804095 1465:1.1346108 1469:0.25213569 1470:0.77398664 1476:2.4212902 1477:0.32896182 1488:4.4455738 1502:1.1532564 1503:2.6947281 1513:1.2454528 1515:2.1414583 1526:0.23519626 1538:1.4741867 1545:0.50951767 1546:0.076415479 1553:0.97860765 1554:1.4910159 1556:0.27768743 1560:3.1968684 1571:0.32640177 1577:1.5523585 1580:0.54049337 1582:4.5975294 1587:2.0050201 1588:2.0703216 1590:4.4495935 1594:0.31560904 1597:0.18134935 1604:3.7364278 1613:0.44917014 1629:0.10327799 1640:1.9979391 1647:3.3883431 1659:2.7952042 1661:3.1949747 1665:1.333335 1669:0.1987302 1672:1.2248989 1673:0.14930949 1675:0.10545351 1677:4.6077099 1678:3.3453298 1680:0.88282996 1690:1.4702716 1695:2.0679152 1696:1.9756174 1701:1.4864073 1712:2.3718157 1720:0.21915439 1725:0.80810875 1726:4.5124197 1736:2.3706579 1746:1.082827 1753:0.96973884 1756:1.4480568 1758:2.0861611 1767:1.2752019 1774:1.43899 1776:1.0622811 1780:1.0434997 1790:3.2283537 1806:4.1015782 1808:1.5771523 1812:3.4265003 1813:3.7633483 1814:0.088532686 1822:1.1736292 1823:1.9273932 1824:3.0216086 1825:1.1290435 1830:3.0415418 1832:5.2708344 1833:1.8120013 1837:0.0029321909 1842:0.43971395 1846:2.6592095 1849:0.1569128 1850:0.23713642 1852:0.20899224 1855:1.0961707 1856:3.2019846 1860:0.68561029 1870:2.6367941 1879:0.023268089 1897:0.049324572 1901:0.66416728 1926:1.5990983 1937:0.0062774122 1938:1.0787888 1943:0.72312552 1966:0.78281391 1967:0.048542216 1968:5.0060639 1972:8.1845045 1977:0.092629284 1986:0.18404272 1988:0.15247095 1998:0.13652642 2000:0.53434008 2004:1.5313764 2022:4.389174 2029:0.057418406 2030:0.12613147 2031:1.0950938 2033:0.45213515 2042:0.48533815 2046:0.61374843 2048:2.4893415 2058:4.3291264 2060:1.2813547 2083:0.3847478 2091:1.7960664 2094:1.2116338 2100:0.41385561 2101:2.094595 2110:0.90238416 2117:1.2955974 2138:2.7663622 2140:1.5425549 2144:0.9550994 2153:3.2357059 2172:1.7549701 2177:0.92095768 2187:3.076484 2196:1.8037325 2199:2.1648569 2212:3.5471539 2223:0.59966475 2233:0.38755572 2239:2.1776319 2244:0.33279836 2245:1.6190561 2257:1.6071088 2261:1.3422527 2267:4.5446844 2274:0.57171786 2275:1.5244009 2282:0.094308615 2286:2.1306334 2294:3.7601194 2298:3.7780793 2312:0.21339168 2314:1.4136904 2322:3.2452216 2325:2.1775737 2327:0.26414466 2329:3.5755167 2344:0.64878535 2349:0.55860674 2357:0.12562366 2360:1.6913624 2378:2.084419 2390:1.7041811 2404:0.15649554 2417:3.483664 2423:1.5628374 2424:1.7494636 2432:1.5721924 2436:2.3752785 2438:0.65908533 2449:0.33609793 2457:1.7411301 2458:2.8257327 2471:0.065324962 2487:0.29140675 2493:0.41935366 2504:0.87320697 2507:1.4356363 2514:2.7379854 2516:0.035145819 2526:4.855598 2551:4.1040192 2554:1.1727408 2558:0.34403068 2561:4.1414142 2568:0.48071319 2569:0.10179658 2570:3.9979482 2577:2.21433 2578:1.0300081 2589:1.3797429 2591:0.18158317 2601:1.8240029 2611:1.4348334 2620:1.130599 2621:6.7711225 2625:3.0960369 2637:2.3546138 2642:0.40146798 2649:1.7786703 2651:2.4035819 2652:3.5112641 2654:0.31645423 2659:2.5388072 2663:0.2171607 2688:3.7051098 2690:4.9666739 2693:4.0667915 2707:0.97204232 2714:0.98795527 2721:1.0899825 2723:0.75151235 2725:1.1397948 2732:1.5982046 2740:2.1259093 2745:8.5917101 2752:0.43166405 2763:1.0300689 2765:3.0121281 2766:3.3723702 2775:1.9839612 2777:0.35973775 2778:3.0534148 2793:2.9689131 2797:0.63067454 2800:3.2459004 2808:5.9419112 2811:0.82051009 2814:4.0391183 2821:0.34385982 2825:0.031329781 2831:0.40994909 2834:1.4110483 2835:1.6784048 2838:0.67133033 2840:0.49544674 2842:4.0799117 2857:2.6368487 2864:0.82650214 2870:5.161202 2873:1.6410344 2882:5.9524093 2887:0.778584 2888:0.50153881 2891:0.49383929 2894:1.7293112 2895:1.3484108 2896:4.7331185 2898:0.0093943477 2907:1.5961473 2910:0.68238348 2928:1.3478402 2934:0.091252863 2937:2.6080239 2940:0.99708265 2945:1.4030054 2947:0.21478888 2949:1.1204456 2950:0.18775123 2953:3.2329159 2957:0.86836874 2958:3.282136 2966:0.22469729 2967:1.6809242 2978:0.88676953 2979:3.3707559 2982:1.2111285 2985:0.96633351 2991:0.67684007 3010:0.08934319 3021:0.29927665 3023:0.81187308 3033:0.51910746 3034:1.2777336 3035:4.4607902 3036:1.2362123 3056:0.71798599 3062:1.7247849 3065:2.7420709 3067:2.4442341 3070:1.8364825 3073:3.0221293 3075:2.4013851 3085:0.25149149 3094:3.0580299 3099:0.22719353 3105:1.716756 3110:4.7166433 3114:1.0408421 3130:1.1484008 3136:0.73188972 3144:1.1827301 3146:0.32974461 3150:1.2606004 3152:6.1056128 3154:2.6125226 3157:0.040393278 3162:3.0702345 3163:2.3620515 3172:1.1863518 3179:3.2998915 3181:0.23327786 3183:0.76092613 3198:1.3906643 3199:0.1583913 3211:0.42600274 3216:1.3143338 3226:0.92362952 3233:0.75167531 3235:2.6421349 3246:6.0872898 3260:1.1206084 3267:1.9674859 3268:0.71941543 3270:0.50272226 3280:0.84201002 3282:2.3917403 3287:0.59660304 3291:2.7874663 3294:0.53467023 3299:0.39014003 3334:4.2346268 3341:0.07279706 3349:0.61747098 3354:3.8857253 3355:2.3820508 3358:0.0079705566 3359:2.6975741 3373:1.6643159 3377:2.8020737 3396:2.4029894 3401:0.090783775 3421:0.083438188 3422:2.6241636 3432:0.69261688 3438:2.7371993 3442:3.5153589 3446:1.6255202 3447:0.67927265 3452:1.4242787 3468:0.83816123 3474:1.6667211 3491:5.3290458 3494:4.3636627 3496:4.1573172 3507:0.94250876 3521:1.1027489 3531:0.84982955 3536:0.68690348 3537:2.6728706 3544:0.8181842 3549:1.0514262 3555:0.58893013 3564:1.7520301 3569:4.4939399 3576:2.6895244 3577:2.0290892 3580:1.5402656 3582:8.8198643 3585:3.3939376 3586:3.0575154 3590:0.65640962 3602:3.1962876 3604:4.5367351 3614:1.511222 3620:1.290506 3621:3.1831326 3623:0.83239794 3627:0.26265621 3644:1.2789986 3652:0.47499406 3653:2.6408041 3657:0.39093348 3661:0.38113818 3667:0.00029501319 3677:0.68023282 3678:2.0708258 3683:0.24484131 3684:2.4177141 3690:3.178972 3692:0.56106591 3697:0.40678656 3698:0.18363988 3715:2.6064374 3720:0.78724569 3724:0.36067885 3732:3.9592752 3734:5.2509007 3746:0.051286474 3749:1.1620271 3752:2.6815481 3756:2.343724 3757:2.2825661 3766:5.8803496 3771:0.087927252 3775:0.69753647 3777:0.96674466 3783:1.3793662 3785:0.52853149 3791:2.1706178 3793:3.2884622 3794:0.023321003 3803:0.46523312 3807:0.15572304 3808:1.7732642 3822:3.5971208 3824:3.8035884 3828:3.8152673 3863:0.19305483 3872:4.6994286 3875:1.1391873 3881:1.9184908 3882:2.2915418 3883:0.37078169 3885:5.349247 3888:4.5853543 3891:0.65607989 3892:1.2500952 3893:1.1034827 3900:0.079900801 3903:3.7228382 3907:3.9228063 3908:0.24798024 3910:2.8559709 3927:0.35673654 3929:1.3253719 3935:1.8975897 3957:0.60720652 3970:1.558024 3972:0.81142282 3974:0.81051701 3976:0.92470729 3984:4.6921864 3988:1.0056107 3990:0.12572312 3992:1.0835805 3996:2.2350681 3997:2.8821783 4002:2.9049497 4011:1.1783702 4013:1.3090789 4017:0.91363198 4018:3.4272618 4020:0.023285836 4021:3.982584 4033:0.29167765 4036:0.31809282 4041:0.5980354 4044:0.036972523 4053:0.77346456 4058:2.8353727 4067:2.0777433 4074:2.3194637 4080:0.74199116 4084:1.8761075 4085:1.4351237 4090:1.8128093 4091:3.9147818 
0.02913414582120875 9:8.1438761 19:4.2056646 27:0.98498833 38:0.092668593 40:3.0848243 43:2.4244378 49:3.371942 62:0.66331524 64:3.9297128 68:2.1586356 77:0.23667771 84:3.2518718 87:3.0052881 94:1.5513726 99:0.901721 103:5.1754417 105:1.3780876 111:1.0097146 114:0.60749376 121:1.6399916 125:0.26166257 144:0.46335846 147:1.82267 159:0.87513524 161:0.65359068 163:2.2315063 167:1.1235036 172:2.3439457 178:1.6980299 181:4.0119205 182:0.58446223 190:0.1986305 191:1.033042 210:2.2568312 217:5.887908 218:3.6784024 225:1.7551799 238:0.84020531 241:3.0915246 242:1.2086971 247:3.5457177 248:0.39994305 252:1.4663161 256:1.3261919 258:0.23301697 259:1.3180268 267:1.3182286 275:2.0473657 277:0.72493654 288:3.5567577 298:1.3668044 300:1.3295598 310:2.3410051 312:2.27421 319:0.1525774 324:0.095172793 333:0.011175931 335:3.6326718 347:0.23899463 348:0.044497445 349:2.1980119 353:1.5298728 354:0.11507726 359:1.3600837 361:0.62786275 363:3.2680814 365:2.8087137 367:0.61397624 378:2.4730186 379:3.0999317 382:1.1581606 384:3.0159678 390:2.1161892 391:2.8482139 393:0.72339511 399:2.1154504 404:1.138463 408:0.92802751 410:0.51806283 412:2.7762501 416:2.5011661 421:0.50014585 425:1.3026421 431:0.24693617 461:0.34362859 466:0.95719439 487:1.0130733 490:0.062179089 496:1.3325481 497:1.7760454 499:3.571162 505:0.025463581 514:3.7069919 515:0.75817806 527:1.2083907 538:3.001729 545:2.5094018 559:0.054454118 562:1.8996744 567:1.3344634 570:0.52943432 571:0.14572999 577:0.042527657 589:1.2410291 612:4.4281497 616:1.5974604 617:0.3153469 618:0.23164719 625:1.5712171 635:0.98403829 638:0.39345142 639:3.279227 641:0.062644064 642:2.6768138 651:0.30433297 657:1.4502561 664:2.4468963 669:0.25521341 671:1.500173 672:1.5273283 675:3.5004315 678:0.20103431 687:3.6114373 689:1.2559416 690:0.42613786 692:2.936316 706:0.75799239 711:0.48582157 717:0.00038418174 718:0.48349622 721:0.77721739 722:1.7242886 723:3.1077383 725:3.2410047 728:3.7042534 730:0.44202471 742:0.37107268 748:0.045029193 749:1.3214808 751:0.95032537 758:0.72602999 773:0.61173928 777:0.46776053 780:0.69886833 785:0.31538182 788:2.468436 789:0.50105178 794:1.0169712 795:0.42928553 799:0.25412923 801:0.25394624 804:2.5945446 811:3.8453457 812:1.9564463 813:0.51164281 816:0.098642498 820:1.0090435 823:0.097979456 826:2.8514016 832:1.5543957 839:3.114795 840:1.1753992 841:2.3451662 842:3.5618427 854:0.76126903 857:1.0803136 858:0.11498719 868:0.32112962 881:3.1250036 889:2.4124155 899:0.82915801 902:0.51246554 903:0.44280538 905:3.3921506 912:3.1339607 916:1.7538403 919:2.7493632 927:1.037483 928:4.7746344 930:1.2743181 943:1.5464115 953:0.21497348 960:1.2278545 965:0.9539597 974:0.60935837 976:3.8139462 985:1.1379249 993:2.844768 998:0.37522262 1001:1.4026808 1004:6.5883064 1014:4.0340729 1021:0.068709195 1034:0.53534001 1041:0.54475689 1044:1.3705974 1047:1.0771635 1049:0.65857339 1051:0.17111248 1058:1.1653457 1074:1.4706755 1078:0.46806049 1080:0.69397169 1081:1.3847556 1092:0.65215111 1094:2.060488 1095:2.5591385 1096:3.0078232 1110:2.4262843 1114:0.4953936 1117:0.65592372 1125:0.49016649 1159:1.9585955 1163:0.14628184 1165:2.9806006 1166:0.61053526 1168:0.40536004 1169:0.25584242 1170:6.048893 1171:2.7851467 1175:3.3635068 1180:1.4040323 1182:2.2530789 1188:1.855288 1199:0.59636682 1206:2.0610745 1208:0.68751711 1215:0.38635188 1217:0.087706745 1219:4.848063 1220:4.5333853 1221:2.1393661 1223:0.68374985 1235:0.55978453 1236:0.18696314 1237:3.0549178 1242:6.1944752 1246:1.535786 1252:2.4648259 1260:1.7849991 1268:1.5897677 1269:0.52713245 1274:3.448616 1277:0.12495697 1278:0.11938743 1279:1.3203639 1290:1.2546967 1291:2.8543227 1299:0.85236311 1306:0.30618867 1313:0.63946998 1314:1.7105721 1331:0.15992135 1334:1.0915221 1336:3.6807811 1341:2.6852393 1342:0.25612789 1344:1.4804009 1349:0.19808039 1356:0.2682001 1361:0.39222473 1363:0.56760573 1365:0.23664024 1369:2.3146517 1372:1.1448913 1376:0.58104002 1381:0.2458666 1386:0.82897091 1387:3.0185292 1389:1.8888578 1393:1.2752872 1396:1.7738008 1400:1.2107534 1406:0.51122028 1410:3.9606996 1411:0.6571759 1412:3.342411 1417:0.65802473 1419:3.3977199 1424:1.4976885 1428:1.8997011 1441:2.4331713 1456:3.8377247 1457:1.4273884 1463:4.0461383 1465:3.2385516 1467:2.5087247 1470:1.0745914 1476:2.6365952 1479:1.4943644 1488:0.89659709 1498:1.0487323 1502:3.2961001 1503:2.8584056 1509:0.62621599 1513:1.226845 1515:0.81680363 1520:2.7446024 1523:0.5421043 1526:1.2487866 1540:0.9021337 1545:0.05788365 1552:0.12972748 1555:0.77394849 1560:1.6249264 1568:1.6759262 1573:0.5325799 1580:1.310322 1582:1.5087008 1586:0.27989823 1587:1.3964292 1588:4.7356029 1590:2.8795154 1591:1.2577995 1597:1.5870081 1604:1.9379365 1606:0.86208969 1613:2.1309426 1617:0.73566586 1622:0.1261611 1624:1.7160478 1633:0.43215328 1636:1.0495884 1640:0.86346352 1647:2.4186444 1657:0.54857856 1659:3.7317219 1661:3.7397845 1665:1.1547726 1667:0.86024815 1669:0.72085232 1677:0.36997658 1678:2.2333069 1680:0.32476294 1690:0.95517284 1695:2.8340304 1696:2.7438159 1701:0.70190167 1712:2.5288038 1725:0.21608669 1726:5.7404881 1727:0.32164535 1728:0.5375253 1730:0.84255522 1732:0.85030419 1736:1.217881 1740:0.63276285 1742:1.213712 1750:0.66783267 1753:2.3578663 1758:1.5506763 1762:2.0831492 1766:1.0535296 1767:2.7038252 1775:0.025406808 1778:0.42276236 1780:0.016314298 1783:1.6920756 1788:0.23064071 1790:2.0978992 1792:0.35837609 1795:0.88629913 1805:0.87222683 1806:3.778188 1808:0.76826453 1813:4.7925124 1822:1.6336986 1824:1.8151591 1830:2.7026882 1831:1.0024525 1832:2.6265414 1833:3.5872669 1837:0.72717357 1846:4.8005614 1849:0.6759398 1850:0.24049473 1853:0.24668217 1856:2.3866446 1860:0.84057915 1870:1.2628939 1878:0.076411486 1883:2.0592027 1890:0.47295773 1895:2.2553358 1901:1.7708275 1925:0.92820573 1937:1.0169703 1938:1.0855892 1940:1.5819867 1942:0.42493629 1943:1.6267734 1951:0.11577791 1955:0.82813656 1967:0.48173761 1968:1.3517168 1972:3.2214172 1973:0.72924608 1974:1.6657748 1977:1.9039226 1978:0.42039138 1984:0.72783649 1995:0.023570478 1998:0.18366356 2004:1.9384098 2005:1.7933005 2009:1.1148053 2020:1.3076112 2021:0.95602822 2022:0.26300794 2026:0.3287496 2028:0.56670046 2042:0.23192936 2046:0.54472464 2048:3.8161988 2057:2.4051056 2058:3.9909027 2083:0.92339402 2085:0.34785455 2094:1.0969594 2102:2.1408193 2110:0.45120659 2114:0.41869348 2131:0.29749548 2144:0.78512287 2153:3.8455462 2154:0.14582872 2164:0.96848053 2177:5.414063 2186:1.5876421 2187:2.1708825 2190:1.8543587 2196:4.6050057 2199:1.4019015 2200:2.8202991 2206:1.0880672 2214:0.80238849 2226:1.089182 2230:0.20214531 2232:0.10803257 2233:2.8844521 2241:1.4143655 2244:0.54128909 2245:1.7445586 2255:0.030249082 2257:0.56408751 2267:4.2073536 2286:1.151883 2292:1.1435146 2294:4.2451053 2298:3.4013906 2311:0.14456037 2312:0.30535954 2314:3.0312986 2317:0.063328855 2318:0.059151679 2322:1.8463992 2324:1.5169327 2327:1.102638 2329:3.1547351 2331:0.33504713 2340:0.74530208 2343:2.4746742 2346:0.40805814 2349:2.9663286 2360:1.3716732 2362:0.76499665 2372:1.6413903 2378:1.5807642 2390:1.6641382 2395:0.59973896 2400:0.0098811425 2417:3.210371 2420:1.6260766 2423:4.0014925 2432:1.8978261 2435:4.3270574 2436:3.7371452 2438:3.0531917 2440:0.99938023 2443:0.53512579 2449:0.021896958 2453:1.1566608 2458:2.8740156 2459:1.1877798 2476:0.052760124 2493:0.56536794 2507:2.8400095 2509:1.7418516 2514:3.2797723 2523:0.36382994 2526:4.3828583 2528:0.45472586 2529:0.88238806 2530:0.57873774 2531:1.1078308 2535:0.8030417 2537:0.39900786 2551:2.025456 2561:7.1580238 2566:1.4055383 2570:3.1005087 2574:0.29285073 2576:0.53866416 2577:0.69950879 2589:2.11976 2598:0.85670704 2601:3.8370752 2610:1.1642631 2611:0.70745409 2621:3.7008419 2625:0.8102355 2635:0.65751702 2636:0.33916351 2637:1.3664926 2649:0.034838855 2651:1.6091008 2655:1.8797445 2659:1.9036148 2663:1.0164785 2672:0.12864646 2674:0.56612378 2676:0.10976388 2687:1.6355488 2688:2.5829618 2689:0.25876272 2690:4.3582077 2693:3.3100374 2695:1.2592056 2697:0.048411548 2708:1.6025974 2720:0.51918036 2721:3.0073028 2723:3.9978657 2725:0.45867527 2727:0.70932496 2732:1.7448206 2733:0.038272351 2740:2.0256455 2745:5.9240041 2760:1.0044352 2763:1.2862089 2765:2.3061006 2766:0.36146522 2775:1.1967649 2778:0.041295197 2787:1.0971034 2792:1.1681007 2793:1.2799131 2800:2.6271236 2808:0.77706063 2811:0.10938102 2812:0.3766765 2814:2.7998464 2825:2.3556814 2834:1.380839 2835:3.1037059 2840:0.84559548 2842:4.6221423 2860:0.12801149 2864:0.6827957 2870:2.1549909 2873:1.7001398 2879:0.72139454 2882:3.348834 2887:0.31456819 2888:1.902475 2891:0.18890506 2894:1.3757634 2896:1.7575051 2903:0.1443781 2907:0.87643957 2910:1.4947944 2919:0.8593601 2928:0.79768729 2929:0.20134607 2934:0.30796933 2937:1.1098396 2945:3.8419971 2948:0.70201385 2949:2.3370786 2950:2.1056619 2953:2.5746608 2958:2.6728046 2966:1.6600742 2967:1.0478995 2971:3.1520483 2978:0.48529503 2979:0.87250686 2982:1.4153385 2985:0.74593222 2991:2.878015 2993:1.1998305 3005:1.4054922 3018:0.073528975 3019:0.17314336 3021:5.200676 3023:3.5016372 3033:0.55210972 3035:0.77451593 3036:5.5230579 3043:0.1142894 3052:0.81124109 3066:1.6708046 3067:2.041482 3070:2.3811026 3071:0.31757009 3073:3.1662319 3075:0.99905246 3079:2.0387654 3094:2.0919571 3095:0.15472481 3099:0.07663779 3105:0.94899648 3110:1.5541224 3111:0.18024716 3114:1.1204183 3117:0.044218123 3120:0.10108109 3129:1.8370534 3130:3.4540191 3144:0.87741715 3146:1.0391159 3150:1.116414 3152:3.6473048 3154:4.1578455 3162:1.5397327 3163:2.7257485 3172:2.9245083 3179:3.8081465 3181:0.4915612 3184:1.0178566 3195:0.64208651 3197:0.15851083 3198:1.105216 3199:5.2883162 3208:0.30152169 3209:0.26734382 3210:0.51695716 3215:0.21738523 3216:0.84520417 3235:2.2384803 3242:1.1829834 3246:0.47698405 3247:1.3770543 3253:0.36118236 3256:0.77293146 3258:0.54894668 3268:0.65027452 3276:1.2301924 3282:1.9885856 3287:1.6202259 3291:2.3089137 3314:0.75009048 3318:0.71966553 3321:1.6028035 3334:2.3646212 3348:0.75859177 3349:0.71151006 3354:3.1425583 3355:0.20692226 3358:0.5122208 3359:1.0692916 3375:1.4821513 3377:3.4300787 3383:0.098587096 3396:2.6595104 3413:0.7953853 3438:3.6920722 3442:2.7229025 3446:1.6894351 3447:1.3361828 3450:0.088703074 3452:2.0583732 3456:1.0456643 3468:0.35492355 3474:3.3207672 3481:0.60229295 3482:0.019793838 3489:0.65657449 3491:4.4579873 3494:3.0463948 3496:3.9304488 3507:1.366219 3508:0.24946877 3509:0.6723212 3513:1.9441288 3517:1.2584697 3521:0.45444539 3522:2.0721931 3525:0.51389605 3530:0.31600976 3531:0.31361997 3536:0.11168891 3537:2.6963487 3540:1.557496 3544:2.0988829 3549:2.9861431 3554:0.22127876 3555:1.8113509 3556:0.75089204 3564:0.36642998 3569:1.5954883 3576:0.80960619 3577:0.11725035 3578:0.071841359 3582:5.3523002 3585:5.9568605 3586:1.9685133 3589:0.00104931 3598:1.4829615 3602:3.3094611 3604:3.1298025 3608:0.66794276 3614:0.63911802 3619:0.57020164 3620:3.0570734 3621:1.8050368 3623:0.54035819 3627:0.62124515 3631:0.68468714 3638:1.1697948 3644:4.3690434 3650:0.49523461 3653:3.6958692 3664:0.049268335 3681:0.063537851 3683:1.7550269 3690:2.1688035 3692:1.3210438 3697:0.26091969 3713:0.71924108 3715:4.587347 3720:0.15502107 3732:0.86994487 3734:4.283917 3741:0.54343367 3747:0.80940807 3749:0.023692966 3751:0.22627464 3752:1.4231826 3756:0.058786511 3765:0.64880562 3766:4.005465 3768:1.878903 3769:0.96896487 3775:0.051147386 3777:2.5573115 3778:0.21064988 3785:2.4467225 3791:2.6854751 3793:1.1839546 3795:0.11125737 3802:0.44607487 3811:0.23186703 3822:1.2045012 3824:0.65895241 3826:0.32332763 3828:0.017733514 3867:0.074704707 3869:1.0682719 3871:0.28355372 3872:2.2751188 3877:0.43124267 3881:1.215263 3882:2.0488067 3885:1.447083 3888:2.8430572 3891:1.6250108 3892:2.688437 3893:1.361787 3901:1.8859348 3903:5.7970386 3907:2.480613 3910:3.6885109 3919:1.7383764 3929:0.21034774 3933:1.3746331 3935:0.30364531 3938:0.62255734 3942:1.2329504 3957:3.1160657 3970:2.0735743 3972:1.6995437 3974:1.6111054 3984:4.678154 3988:3.9107833 3990:1.8199819 3992:0.58387804 3996:2.3279436 3997:0.31170109 4002:2.1219637 4011:1.7865467 4018:0.37288475 4020:0.1052096 4021:4.2677121 4033:0.46033034 4053:0.011571959 4058:2.4310341 4071:1.6676706 4074:1.6762619 4084:1.078968 4085:1.8806071 4087:0.18555444 4089:0.22782063 4091:3.6346531 
0.7081293439275808 4:0.8581059 9:6.9809561 19:0.93745196 23:0.72264963 39:0.83581102 40:1.1054426 43:2.872102 49:1.1071568 64:0.38939273 66:5.6474075 68:1.2804909 76:0.11163116 77:1.5619338 84:1.5708785 93:1.3852706 94:1.4678193 103:1.7865086 107:0.50153166 111:0.74472189 126:1.037261 131:1.3152773 147:1.7471981 159:5.0223069 161:1.8992761 163:2.8453708 167:0.84311849 170:0.07110998 172:0.54150492 178:2.5821335 181:6.5241375 187:1.9711548 191:3.3522499 196:1.3365803 198:1.5789679 200:2.3146601 202:0.14547211 210:3.2172816 217:8.5030193 218:3.6473627 232:1.7825851 236:2.0419991 241:1.1223154 242:3.6102397 247:6.1804276 248:1.241564 252:2.264653 256:2.9036498 288:0.38456717 289:1.2246263 298:0.16967846 300:2.9865685 310:1.6488211 312:1.9957687 318:1.3836012 319:0.82524478 320:0.11191934 321:0.37067497 324:2.4454327 335:5.2983241 349:8.6340599 353:3.5308273 354:4.7285094 356:1.6364985 359:0.79351556 363:1.9114618 365:1.5951583 367:0.57220131 378:4.2029424 384:4.7321053 390:2.7189837 391:1.4382224 396:2.1455731 399:2.60658 404:0.080691874 410:1.3807437 412:1.8036389 421:0.61056364 425:0.89334399 428:0.75615793 429:0.072430462 431:0.37535667 442:0.10801725 466:3.5672572 475:0.15086311 488:0.80140781 490:0.085133553 499:0.27732721 514:1.6248091 515:4.2328887 518:2.6929431 529:2.6473267 538:2.8140917 545:0.21881367 546:1.5293918 547:1.5283713 560:0.71979576 566:2.7555923 567:2.9397824 570:1.1629325 576:1.4128749 592:0.35402802 594:1.1490039 601:2.3044677 603:1.4569643 612:4.6438804 617:0.60931051 625:0.53176653 626:2.213052 635:2.1449876 639:1.2179418 642:1.3977987 647:0.046920031 651:0.59761763 657:4.1515651 660:1.7158492 662:0.14208451 664:8.2018108 675:4.728826 682:1.1698714 687:5.7046304 691:2.6578104 692:2.451694 697:1.9792855 711:0.56834686 721:5.8870654 722:2.2937083 723:0.22607416 724:0.436609 725:1.4112555 728:2.2457213 751:5.975183 755:3.9871035 766:0.42688391 769:0.31312549 777:1.6659849 785:0.23270331 788:1.1676675 803:1.4458708 804:4.0687861 812:0.75552428 820:0.18786472 828:0.58622146 829:0.30151665 832:0.22472316 841:2.3854482 842:4.0067043 857:2.0042963 866:3.696121 879:2.0495853 880:1.8215482 881:4.6000018 883:1.672703 889:2.9650006 902:2.5242755 905:2.5997236 909:0.14275752 912:4.6822267 916:6.9155169 919:3.7046692 927:2.5810523 928:1.6879778 930:1.416571 943:2.6625314 945:1.1135944 960:0.21120429 965:2.7952101 966:0.089431167 975:0.64558482 976:2.3098612 993:2.7347236 994:1.7405492 1001:0.66941226 1004:4.6871448 1007:1.7405226 1014:4.4073143 1021:2.8531084 1023:3.825948 1041:2.3921185 1047:2.1852648 1049:4.6903858 1051:0.65641111 1065:3.288167 1070:1.6406851 1071:2.7682798 1080:0.6264891 1092:1.2872392 1095:0.56346267 1096:6.7473207 1100:1.0620259 1102:0.97182006 1110:2.2615609 1117:1.2631892 1126:3.5045002 1137:0.3821536 1138:0.60128999 1150:2.7371252 1154:3.0311544 1165:1.1748555 1170:6.9141655 1171:0.20993155 1175:5.1171269 1182:2.3849664 1188:3.9129405 1193:1.2371756 1199:2.0734656 1206:1.0353682 1208:1.7402124 1217:1.3876042 1219:5.243506 1221:0.65331101 1223:2.7581668 1231:0.50525457 1237:6.2474174 1239:0.16372003 1242:7.3944044 1252:1.1965715 1264:0.62292069 1268:0.79569566 1272:1.3903637 1274:0.060717449 1278:2.5580387 1279:5.1651831 1290:1.6323445 1291:2.4125588 1292:0.027478844 1297:2.1849754 1299:1.4504325 1304:2.5304883 1313:3.2354016 1314:2.687577 1319:0.99905813 1334:0.62838709 1336:4.107625 1341:5.3112078 1342:0.42552376 1343:2.1146894 1344:2.9895301 1349:1.4970914 1361:0.41999635 1369:3.1337109 1376:0.62400591 1381:2.400121 1387:2.3589451 1393:0.60065895 1395:1.4712896 1406:0.87972999 1408:0.0080563426 1410:4.5445452 1411:0.37829402 1412:1.1865498 1419:7.8915129 1424:3.1661839 1428:1.3162653 1431:0.61093712 1441:3.8659692 1444:1.0530088 1454:1.4920707 1456:0.36140418 1463:5.9551816 1465:0.10864532 1467:3.1500282 1476:3.8910565 1488:0.92576611 1489:3.0105772 1497:2.3496311 1498:1.350183 1502:2.6496527 1503:3.3317142 1534:2.9805512 1545:2.1254129 1554:0.2554771 1560:2.1094048 1568:0.40390512 1577:2.1284053 1582:0.076498687 1586:0.62544322 1587:3.1915774 1590:1.207616 1592:5.3945427 1597:3.3604255 1602:0.24762022 1604:3.4878111 1613:0.16828078 1640:0.72182143 1647:5.9909763 1657:0.10812268 1659:1.0719163 1661:3.1268523 1665:0.14822794 1677:0.77660859 1678:2.8437309 1690:4.2652402 1691:0.24716488 1696:2.0171235 1712:5.2682543 1720:5.9639425 1726:2.92314 1727:0.26470509 1728:1.3324763 1730:0.88135451 1736:1.3846811 1746:0.9778564 1750:0.61871541 1753:2.0715704 1761:0.21741378 1762:0.78714275 1763:0.91884935 1767:3.0528691 1775:2.8235579 1776:0.1522184 1780:0.75655842 1783:1.9576997 1786:0.69800919 1792:0.23613486 1795:2.0950892 1799:1.1233877 1806:7.3142891 1807:1.3712342 1811:0.21104792 1812:0.75140882 1813:8.5504694 1824:0.32311633 1830:2.4338193 1832:1.0637462 1833:1.8045958 1843:0.72989404 1846:5.628828 1849:2.7116282 1852:0.59365839 1853:0.25634372 1855:0.17624682 1863:1.289381 1870:0.93250841 1874:0.6683743 1878:0.93587005 1880:1.8748474 1883:1.2383958 1895:2.6592405 1899:1.4545988 1901:4.4918766 1905:0.91475594 1911:4.7276177 1912:2.7748871 1918:0.93941337 1928:0.14158595 1937:4.6129451 1938:2.3125429 1943:2.6792662 1966:2.2705762 1967:0.18787353 1972:7.0205317 1973:4.7068334 1984:2.6242399 1988:2.2525814 1995:1.2404063 1996:1.3683137 2004:1.4611406 2009:0.44517809 2016:1.0459385 2026:0.26941717 2028:2.1222456 2033:0.04125756 2038:0.57837868 2039:0.6221602 2048:5.5419893 2053:3.4051983 2058:0.63306665 2091:3.7649074 2094:5.8162146 2101:2.7705171 2110:2.3566365 2117:0.024684191 2131:0.20234917 2138:0.0672324 2157:0.85232258 2168:0.7913233 2169:2.7242634 2174:1.8960946 2177:4.7013483 2187:5.9301605 2190:5.1502252 2196:0.4402616 2199:0.82923496 2200:2.9727597 2205:0.97202712 2212:2.7424769 2218:0.36679095 2223:0.71643585 2226:1.9087645 2239:2.7563839 2241:1.3325317 2245:1.9278634 2253:0.31678489 2257:3.5531816 2261:1.5525713 2267:1.8957336 2271:0.488289 2286:2.6929283 2294:2.9828954 2298:0.54499745 2307:0.52680016 2311:0.55960363 2314:3.1911607 2318:0.34169316 2324:1.6220722 2325:0.24056938 2327:1.0387425 2329:1.0340481 2341:0.67462718 2342:2.5989089 2343:3.2019479 2360:3.5834928 2382:1.1784389 2390:4.7112489 2400:0.20514344 2417:1.7913195 2423:6.5922723 2424:2.1562109 2432:1.9468826 2434:2.6671913 2435:1.0784892 2436:6.8826661 2437:1.1416546 2438:0.18236679 2440:1.0931864 2453:0.40068609 2457:1.2435299 2459:0.53484732 2467:0.6469847 2493:4.1676488 2498:1.1193885 2507:1.3038257 2508:0.20726247 2511:0.11833495 2514:0.87244296 2523:0.83313406 2525:2.6176805 2526:6.671525 2528:2.0992014 2530:3.2509313 2551:9.1978664 2554:1.7278123 2558:0.28246424 2561:7.0856633 2566:0.014851034 2568:0.22776893 2577:2.8536437 2598:1.7273767 2600:1.198186 2601:3.4245107 2610:3.240783 2611:2.8639588 2621:6.0578718 2625:5.9508853 2637:1.232448 2649:0.0054449439 2652:2.8764842 2655:1.1541483 2659:3.4904943 2663:1.4511873 2687:0.39556706 2688:0.25676867 2690:3.9352322 2693:3.6328814 2699:0.077744186 2708:0.46403536 2715:5.2804351 2720:0.074849963 2721:5.446136 2727:0.24928144 2733:1.0203271 2735:0.69900966 2740:0.92580038 2745:8.4768915 2763:0.17210886 2765:2.1467009 2775:2.40628 2787:2.8362532 2788:0.88917589 2793:3.2475245 2800:2.4331081 2806:1.4587591 2808:4.5658555 2814:5.0701437 2826:0.037270725 2834:3.2099113 2835:2.3998282 2838:1.3464067 2842:3.7611237 2857:1.080034 2870:4.7211132 2873:0.48608768 2879:0.818973 2882:6.5699677 2887:2.7323849 2891:1.6610057 2894:3.1420102 2895:0.81188297 2896:4.052125 2902:1.2357076 2907:3.6800787 2910:4.9550085 2915:0.052336216 2916:0.54311395 2919:0.51817775 2928:2.4988809 2930:1.7808425 2932:0.72827375 2934:0.82145047 2937:0.70137417 2943:1.1895943 2945:5.195538 2946:0.26165059 2947:0.85400403 2949:5.0665522 2953:3.9127088 2958:0.78059059 2967:1.8447714 2978:2.0519543 2982:2.5396721 2985:3.2769368 2990:0.040270001 2991:3.6257794 2993:3.4588706 2995:0.6465227 3000:2.9308789 3012:0.63933134 3021:4.4801378 3022:2.6693668 3023:1.2682967 3026:0.19605336 3036:7.3914232 3043:1.8252635 3053:1.0296776 3057:0.69222713 3066:1.4601574 3067:1.352967 3068:0.7643795 3070:1.304801 3073:7.1190133 3075:2.2839313 3078:0.14105609 3079:0.55116546 3092:0.013841584 3094:0.60383403 3099:1.8154328 3110:3.5873063 3111:0.84956992 3114:2.3296092 3116:3.7802091 3130:1.6023115 3144:0.65719908 3150:3.2581327 3151:0.79862899 3152:3.0750239 3154:1.4026189 3157:0.05896382 3163:2.8551695 3181:0.99703801 3183:1.0616134 3196:0.069945067 3198:0.36568266 3199:0.097219795 3209:1.5740387 3216:4.0942569 3218:0.6708799 3224:0.72274172 3233:0.49557462 3235:2.8653505 3246:3.5571463 3258:0.49153954 3260:0.91603494 3266:0.4561317 3267:1.4106512 3268:2.4501269 3276:1.0048568 3280:2.6561785 3287:0.75859571 3294:1.8269211 3299:0.12111801 3308:0.36761513 3315:0.18073118 3318:0.87097263 3321:4.0765796 3324:2.7981424 3334:1.0061251 3354:1.5500095 3357:1.0840859 3359:0.3681514 3364:0.074019298 3373:1.6066151 3375:1.0327941 3377:4.2420573 3379:0.077061296 3394:0.82145792 3395:0.023634672 3396:4.0325251 3407:0.50991046 3408:0.95950747 3415:2.4460666 3438:1.2014859 3442:2.6804514 3445:0.11504689 3446:2.5600419 3447:5.1348372 3452:2.1617649 3465:1.9629101 3468:0.67750728 3489:0.10418926 3491:5.9847002 3494:0.15651101 3496:0.93337154 3507:0.057081342 3509:0.77972436 3517:1.9891627 3522:0.44410279 3534:2.339941 3537:3.5184579 3544:1.5531279 3548:0.22626278 3549:1.8417467 3551:0.23653428 3552:1.1912491 3555:2.137778 3556:1.0155671 3564:0.63750744 3576:1.0924217 3577:3.2293944 3580:4.3022866 3582:7.0834489 3585:5.0348973 3586:0.10610417 3589:0.12245524 3602:3.8302636 3604:2.3055978 3606:0.6413517 3612:0.4941079 3614:0.018592551 3620:1.7147801 3621:2.4866869 3623:0.69992471 3637:0.021264762 3638:0.56326592 3644:0.94270223 3653:0.32281816 3657:0.59990203 3680:0.09184885 3682:1.807505 3683:3.5508237 3690:1.7148855 3691:0.78549248 3698:1.4637728 3706:0.25614789 3712:4.50174 3713:1.5021369 3724:2.1516676 3732:6.8991895 3734:5.6596985 3746:2.9275138 3747:3.3542347 3748:0.14886798 3749:1.3448548 3751:0.94042408 3752:1.9177252 3756:0.84619045 3757:2.3388481 3760:0.50393718 3766:2.4897523 3785:5.2710481 3791:7.2300982 3811:0.46075925 3813:0.15062124 3815:3.9533768 3822:2.5803051 3826:1.1341748 3857:0.27354547 3867:0.37936693 3871:1.5154343 3872:5.2804003 3875:0.79173577 3880:1.0265162 3882:4.9620233 3885:3.5660944 3888:3.3794134 3891:1.6704537 3893:2.4316413 3902:0.6148864 3903:6.6267715 3907:3.3602352 3915:1.1456708 3929:1.1924754 3963:0.76281685 3970:0.77015382 3972:1.5512053 3974:1.8761616 3982:1.645014 3984:2.4669731 3988:6.3084965 3990:2.0752206 3992:2.1999974 3997:4.8281627 4002:1.8483787 4011:1.9632018 4018:1.5276141 4020:0.052861661 4021:4.68293 4033:1.6476042 4043:1.3557556 4057:0.44764721 4058:4.8618412 4072:1.10584 4074:4.4098353 4077:0.37033761 4080:1.8693455 4084:1.4877298 4085:2.5960503 4087:1.8340442 4090:0.56929129 4091:5.5014234 
0.6463996122550248 9:4.0199132 27:2.1447337 39:1.7411249 40:3.1256962 43:5.6591625 45:0.94928408 49:1.2173159 58:0.00043681264 62:0.37750041 64:3.2404623 66:1.7198749 68:3.6635101 85:0.46933845 94:0.84702766 103:4.9571238 107:0.73426354 111:1.2434876 114:0.44615355 125:0.53587568 131:0.77310824 135:0.57755625 140:1.1532804 147:0.25322425 152:0.083452553 159:0.59874994 161:2.42907 163:1.8716432 167:1.1064935 169:0.59267592 172:2.9486821 178:0.40739018 180:0.48554963 181:4.8620501 191:1.3535224 196:0.20058233 210:3.271841 217:7.8303833 218:2.1000576 221:1.2407705 222:0.96088243 232:1.4945483 236:0.68227172 241:3.914001 242:1.4756029 247:0.41731888 252:3.0163403 256:3.0956025 267:1.7092055 277:0.42168832 288:0.3491722 307:1.0460883 310:1.9075153 312:3.4491153 318:0.90013433 320:1.8558424 324:0.63909197 335:5.870749 336:0.70025641 345:0.1629371 349:4.4785433 353:5.6138477 354:0.7540161 356:0.061857522 363:0.12563461 365:0.70699561 367:0.8208698 378:4.6621289 379:2.9242735 382:1.4210523 384:3.7739439 390:2.7454982 391:2.0416415 397:1.4319668 404:0.47513855 408:0.79493332 412:3.2160072 416:3.8167727 421:2.6558719 425:1.1384019 428:1.7114029 431:0.55826807 432:0.23416469 442:0.31760836 466:1.0693641 468:0.79086047 473:0.17643213 475:0.39296952 488:0.23667467 496:2.828882 499:2.6467962 513:0.023512214 514:4.7342358 515:4.6584716 517:0.61050034 518:2.6369998 538:3.1659327 545:0.70832032 562:2.1683993 567:0.1935025 570:3.8562822 572:0.13386303 576:0.18591182 578:0.37480417 589:2.2430618 592:0.35355571 594:2.0918691 601:0.5932591 603:1.487027 612:7.6741157 616:0.20284191 626:2.3943605 635:0.39718056 639:1.2262795 641:0.078493655 642:2.8958354 651:0.78226078 656:2.2764735 657:1.3395178 664:3.7284594 667:0.24869137 675:6.2693367 676:1.0896522 677:4.2006826 681:2.1654861 682:1.8415005 687:3.8565984 690:1.0859889 691:2.3571517 692:1.1781068 706:0.14244866 711:1.4741551 717:0.09801802 720:0.019631445 721:4.7518907 722:3.4939468 723:1.7362676 724:1.2146264 725:3.8070629 728:2.745369 749:1.9536335 751:3.4042962 754:1.544818 755:3.701457 758:0.76379353 769:0.80643809 785:1.2086724 789:2.5274689 794:0.53700447 804:2.7888868 811:1.7695245 812:1.0076571 826:0.20549971 832:1.8584981 839:1.9918857 841:1.8620477 842:3.2751281 857:0.71217871 861:0.34302872 868:2.4244113 876:2.6706636 881:2.5297763 883:1.0011574 889:2.111259 903:0.081123352 905:3.1454284 908:0.52116716 911:0.626688 912:6.1949854 916:1.7832326 919:2.3209414 927:2.6059093 928:3.6276114 930:1.6015617 931:0.43450341 945:0.46430025 949:0.048683748 960:1.2986395 961:0.66249055 965:5.5325336 976:2.3331685 985:2.5693316 993:1.397432 994:0.98602378 1001:3.1360579 1004:4.2155471 1007:2.7661269 1014:5.1635122 1021:1.1929818 1023:1.4848871 1030:0.34133789 1047:4.390295 1049:2.0481849 1051:2.4666722 1058:0.89290261 1065:0.14439294 1074:1.5322406 1078:1.424367 1080:2.8148849 1087:0.1516555 1092:2.7553024 1096:7.8837848 1100:1.0143374 1102:2.4794192 1110:1.3251685 1114:0.81217992 1117:0.97660565 1125:0.24569553 1126:3.7356522 1134:0.13869262 1138:0.3844201 1144:1.2586312 1146:0.618976 1150:3.808635 1154:2.4029872 1159:1.3155775 1163:0.29299486 1165:4.1965475 1169:0.46425843 1170:6.7995567 1171:2.4528844 1173:0.014748991 1175:2.9082332 1182:3.8567894 1188:2.2611086 1192:0.45047435 1206:0.17403208 1208:0.27176613 1217:2.0987811 1219:7.7870646 1220:1.3441482 1223:2.8581619 1228:0.95286536 1231:0.19073069 1237:4.0831504 1239:1.0592371 1241:0.0046713054 1242:6.8503537 1246:0.92199826 1252:2.0996544 1264:0.20196944 1268:1.8790731 1274:0.72241974 1278:3.7195592 1279:1.5593119 1290:1.0391998 1291:1.5346911 1292:0.67726195 1297:1.0445372 1299:1.4078708 1306:0.028283626 1313:3.2715313 1314:0.89144158 1319:0.058225036 1336:0.83002883 1341:5.7061543 1344:1.3401473 1349:3.5638642 1362:1.3010105 1365:0.22021168 1366:1.8780311 1369:1.8938912 1372:1.3844597 1376:2.699311 1381:1.6091499 1387:5.0200057 1389:2.282913 1391:0.63175565 1393:0.1935088 1395:0.82570052 1406:0.010685503 1410:4.7394919 1412:3.106009 1417:1.1141951 1419:7.0530267 1424:4.1937685 1428:0.74048769 1433:1.2849652 1435:0.63762701 1441:2.2042484 1444:0.72578293 1454:1.3689423 1456:0.59333527 1457:0.12365726 1463:4.6734099 1465:3.9984899 1476:0.38240111 1479:0.04845807 1483:0.043450058 1488:3.3061092 1489:2.6323566 1498:0.20518261 1502:3.9423101 1503:3.2826521 1508:0.025160939 1513:0.087012127 1515:0.53907841 1534:0.82300007 1538:0.26774085 1544:0.6196022 1545:1.0658474 1546:0.74815863 1554:0.31317517 1560:3.8328078 1568:1.2144165 1573:0.39504376 1577:0.66862977 1582:3.9921262 1587:3.6396201 1588:1.6683249 1590:3.1816072 1597:2.6034582 1604:2.6778667 1613:0.292799 1622:1.0470905 1624:0.16493267 1635:0.16939783 1637:2.2778175 1640:2.7840836 1647:0.95682311 1648:0.50743604 1657:0.23819447 1659:4.018672 1661:2.1334038 1663:0.77986693 1665:1.4126657 1670:0.58539081 1672:1.4002641 1677:2.5483756 1678:3.1892073 1680:3.6743453 1690:1.9460014 1695:2.2386644 1696:1.5480268 1701:2.7629056 1712:3.4367557 1720:2.4630368 1726:5.1550279 1727:0.565449 1732:0.65774739 1736:4.9664884 1737:1.3446448 1750:2.4039366 1753:2.179435 1756:0.20014793 1758:0.94420403 1762:0.17181849 1766:2.3555367 1767:2.0028861 1776:0.80858135 1780:1.5508448 1788:1.9243524 1790:1.9082727 1795:0.50777829 1806:4.5581517 1807:0.79420626 1808:0.4032017 1812:1.3078303 1813:3.3281755 1814:0.90727651 1822:0.93886638 1823:1.2076464 1824:0.87355828 1825:1.4784981 1830:1.7765958 1832:4.3560967 1833:1.6283159 1845:0.025312096 1846:2.7297285 1850:1.912127 1852:0.27521437 1855:0.47874296 1856:0.99687558 1857:1.6032631 1870:1.8406596 1872:0.10994951 1878:0.39901274 1883:0.080617324 1895:0.57325375 1901:4.8075514 1905:1.5184405 1911:0.79797316 1912:1.2366498 1926:3.6316454 1937:0.49441746 1938:2.016083 1942:0.45504493 1943:2.0530605 1951:1.7125165 1966:0.20869711 1967:0.48104906 1968:1.5222397 1972:8.3594522 1973:1.539523 1974:0.2387467 1977:2.821496 1988:0.083934873 1995:1.0646371 1998:0.30995184 2022:2.765121 2028:1.5499473 2030:0.79042959 2033:0.98715538 2039:0.81124753 2042:0.0059663057 2048:5.572546 2058:3.3508215 2081:0.89575189 2082:1.2393529 2087:0.12315628 2091:0.39043808 2094:2.8009825 2101:0.14595377 2110:1.5979981 2140:0.16707507 2153:0.7138744 2159:0.75983942 2168:0.054016292 2176:0.38083565 2177:2.0021486 2179:1.2055073 2186:1.3686869 2187:3.4930725 2190:0.13014445 2196:1.7516414 2199:2.8803787 2200:1.5004405 2212:2.426743 2218:1.5312479 2223:0.89090532 2226:0.87097752 2231:1.038934 2233:0.17254996 2239:1.8832691 2245:0.80233824 2257:0.21854064 2267:3.6631548 2286:2.5702338 2294:2.733561 2298:3.1803713 2311:0.26415139 2314:1.8405108 2322:2.3707094 2324:1.0739617 2325:3.4004867 2327:2.7763617 2329:4.1908808 2343:0.37986571 2349:0.76468182 2360:1.5924078 2369:0.36886951 2372:1.2069207 2376:0.63460088 2378:0.7810564 2381:0.36975005 2382:1.3207284 2386:0.074290097 2390:4.1178088 2410:1.3027853 2417:4.5979791 2420:1.2776365 2423:5.1953216 2424:0.88125479 2432:0.2421978 2434:0.08652851 2435:0.76307267 2436:3.5509613 2438:1.2183989 2440:2.4444747 2449:1.3961037 2452:0.88363588 2457:1.6816818 2458:1.6779895 2487:0.098220617 2493:1.1667356 2503:0.13209067 2506:0.3331179 2507:3.7723422 2514:1.0094913 2516:0.3820149 2520:1.2419227 2523:0.39009511 2525:0.38591194 2526:5.0300508 2528:0.30736744 2551:4.2210941 2554:3.0688443 2558:1.0403619 2561:5.2299657 2568:0.80828762 2570:2.7960949 2577:2.4335263 2589:0.58101916 2598:0.96108216 2601:5.0434871 2604:0.60233158 2611:2.010355 2620:0.056484193 2621:6.1079612 2625:6.0736823 2637:4.3628535 2651:0.1615811 2652:3.1005566 2654:2.0239954 2659:0.26820508 2667:0.16352177 2672:0.63369548 2674:2.8106828 2687:0.36141974 2688:3.6780045 2690:3.2415266 2693:4.6614308 2695:1.0718175 2699:0.63108671 2708:2.9872842 2715:0.68244499 2720:0.9551661 2721:2.3198099 2723:2.4903951 2732:2.2325833 2740:0.11171202 2745:9.6434908 2752:1.5654752 2765:3.7101371 2766:2.1056993 2775:3.4509022 2778:2.9199524 2793:1.6942636 2800:2.9777591 2808:7.0805001 2814:3.1975901 2825:2.8670683 2826:1.3592663 2831:0.13286519 2835:2.8581731 2840:0.97893661 2842:4.6292763 2856:0.00048521161 2857:1.970824 2864:2.9564645 2870:3.4922752 2873:3.2527184 2879:0.96836132 2882:7.8934488 2887:1.0181056 2891:0.82429373 2894:1.7604513 2895:1.0911554 2896:1.810721 2898:2.4316249 2907:2.6593862 2910:1.1108987 2919:0.14073133 2934:2.7317202 2945:3.4665613 2947:0.36256224 2949:1.5743119 2950:1.1603701 2953:4.5561228 2958:3.116838 2966:0.60557336 2967:2.4787865 2978:2.8950293 2979:0.91631758 2982:2.1124556 2985:2.1077216 2991:1.0996675 2993:2.1343203 2995:0.15413195 3000:0.32297203 3021:2.8854847 3026:0.40012878 3034:2.3232818 3035:1.9200783 3036:2.849103 3056:0.62754399 3062:0.083803594 3067:1.7282816 3071:0.30726117 3073:4.1078234 3075:1.597454 3078:1.1625899 3079:0.40814251 3085:1.2122043 3094:2.0521054 3099:1.2811667 3110:1.2706139 3111:2.9247255 3114:1.7639394 3119:0.28175026 3120:0.91785133 3124:0.12163344 3144:1.4381496 3146:2.0412998 3150:2.0271981 3152:5.8749185 3154:3.3724227 3162:1.6810231 3163:1.6089094 3179:2.187799 3183:3.2992337 3196:0.38293484 3198:2.2467804 3199:1.0958475 3216:0.4528397 3218:0.098487556 3226:2.8075302 3233:2.22159 3235:0.49172181 3238:0.98929769 3246:2.287698 3258:1.1992149 3260:1.4170455 3267:3.1548419 3268:1.6989138 3276:0.49297416 3282:2.6000452 3285:0.2518959 3291:0.58566254 3294:1.4861187 3318:0.93184972 3325:0.2101799 3334:3.8071063 3344:0.70438182 3348:2.1654792 3349:1.0431633 3354:2.8426907 3355:0.34458521 3359:1.4115144 3366:1.8568646 3373:0.95398402 3377:4.4636703 3395:1.414131 3396:3.0633392 3407:0.35544744 3422:0.65902811 3436:0.41791749 3438:4.9856825 3442:2.3872106 3446:3.8496141 3447:0.71255946 3465:1.2277719 3468:1.4158072 3474:1.7331809 3481:0.66686964 3489:0.0063655227 3491:6.2332153 3494:1.0776871 3496:5.4790535 3507:0.54323846 3513:0.57357687 3521:3.3318591 3522:1.5626675 3525:0.69198507 3531:0.93350232 3537:3.7540975 3540:1.4583451 3544:3.1598144 3549:2.086767 3556:1.8682613 3564:0.59561753 3569:1.812256 3576:1.3065515 3577:2.7121036 3580:2.8508503 3582:6.7721667 3585:5.3147221 3586:1.1714684 3602:2.5813036 3604:4.5376678 3606:0.88898146 3609:0.21358925 3614:2.438952 3620:1.0178405 3621:3.518002 3623:0.99548435 3627:0.61090326 3644:3.7778254 3650:0.92373282 3652:1.2506386 3653:1.9133654 3657:1.2792735 3661:0.57269394 3665:0.045437157 3678:2.0910931 3682:0.23116109 3683:1.4575254 3688:0.14988402 3689:1.6229286 3690:1.2829766 3692:1.0811882 3698:1.1490622 3712:0.64539874 3715:2.1238673 3720:0.40064412 3724:1.5010872 3732:5.2388902 3734:4.7544193 3741:0.57115746 3746:0.33984864 3747:1.2650197 3748:0.06468524 3751:0.55439144 3752:3.8573365 3757:2.5566106 3766:5.1622109 3771:0.58854175 3777:1.3095229 3783:0.90542299 3785:1.7706544 3791:2.1645093 3793:2.2985301 3795:0.060895503 3803:0.062549919 3808:2.1661065 3815:0.68730986 3822:2.9723725 3824:1.5621227 3828:2.7323575 3836:0.12095186 3867:0.80395699 3871:1.7864565 3872:3.5726626 3875:2.1145411 3881:0.31177774 3882:2.0713041 3883:1.8020489 3885:5.900908 3888:6.1545606 3891:1.7532634 3892:2.8671319 3893:2.8105657 3900:0.53173029 3901:0.34049821 3903:3.3057017 3907:5.0390606 3908:0.32619536 3910:3.1321497 3919:0.32596034 3929:1.3776132 3933:0.69834954 3935:2.3293297 3957:0.6943714 3963:0.12814781 3970:0.89796144 3972:2.2105579 3974:1.709547 3976:0.82953489 3984:4.9327636 3988:4.7488146 3990:1.7996997 3992:1.2447509 3996:2.1378102 3997:1.387704 4002:2.3779526 4010:1.5234926 4011:0.27189589 4013:0.39595044 4017:1.7824689 4018:0.9538179 4020:0.32055259 4021:5.0572104 4036:3.2487264 4044:0.94568646 4053:1.2384446 4058:3.4112282 4068:0.10822961 4070:2.2979705 4074:4.4275417 4076:0.96678495 4080:0.64125788 4084:2.6953847 4085:2.9962575 4090:1.2174978 4091:5.652215 
1 4:0.019296497 7:0.33153245 9:9.8041201 33:0.89822567 40:6.3575978 49:0.75277621 54:1.7111335 64:2.5189009 66:0.17938173 68:3.2388263 77:3.2900379 84:1.6561317 87:1.6232034 90:0.52579051 103:5.0192199 106:0.82807368 115:0.34153667 120:0.77169782 126:2.6633668 147:0.56983286 152:0.3566995 159:0.24937086 160:2.2872539 163:0.53745151 164:2.8949184 167:3.6483598 172:6.0861511 181:3.1165638 182:4.1084294 187:0.18052894 190:1.0238228 191:5.3412614 200:4.2308927 210:4.7000194 217:4.5614686 218:2.7649965 221:3.6090279 241:0.94671679 242:4.6460743 243:0.5109787 247:4.7908921 248:1.2797844 252:2.6293015 254:0.10539457 256:0.58454525 267:2.633621 282:2.0264349 292:0.36772197 300:2.968796 310:2.9997437 312:0.1504333 324:2.992058 329:0.85646003 335:2.1765163 336:0.87447292 340:1.2121896 341:0.97147924 345:0.205006 349:4.4010549 350:0.34129632 353:1.1908189 354:1.147172 356:0.41249838 361:0.72819948 363:0.48632079 365:3.6009834 367:0.51542634 379:4.7627239 382:0.0036392212 384:0.92062843 385:0.0062716901 390:1.760619 404:2.688719 410:1.5376351 412:0.033830523 416:2.7581151 421:1.059881 425:0.62112188 431:1.6138685 434:0.76299918 442:1.6941711 466:2.7054613 468:2.5963466 469:1.0647293 472:2.4401207 488:1.4016638 498:1.373791 515:1.6104279 528:0.42932084 529:3.2230389 532:0.45602486 538:1.4790761 545:4.4376745 562:2.1912506 568:2.1210198 575:0.32828102 576:0.45663708 587:0.70004082 592:2.9675047 603:0.7382524 606:0.77102679 612:3.5166841 619:1.7293772 625:2.8501992 635:2.6607611 642:3.5155282 651:2.8361411 654:1.2661558 657:7.0779572 660:0.40003294 664:7.5213385 675:2.5112717 687:9.4817734 691:4.1891336 692:4.1823654 696:0.43834889 721:3.6799774 722:3.3141918 723:3.1102648 725:4.0264606 729:0.80525213 749:2.7157288 751:3.2262657 764:0.59895039 773:1.8848168 776:0.10436696 777:2.4387653 782:1.7198617 792:2.6295886 794:2.273571 798:2.9056928 799:1.9669358 804:1.6819829 808:1.0116246 811:1.7469741 812:6.8994269 816:5.095077 826:3.4665039 829:0.83596385 830:0.5294804 834:0.26298374 841:3.4229119 842:5.9593334 853:0.13034454 854:4.5233898 857:0.042499244 873:1.0537322 876:1.2023387 878:0.36834341 889:2.0384548 899:0.99156743 902:1.9748256 905:0.35585013 912:7.1505647 915:0.13215643 916:2.4928923 918:1.2539946 919:3.5883844 927:0.73952764 928:4.9096537 942:0.14505404 943:0.22922611 965:1.6450605 974:0.54066133 976:3.4848576 980:1.707443 983:0.11506386 989:1.3610874 993:1.5806849 994:4.6807466 1001:2.5300229 1004:4.3835969 1014:3.4805684 1018:1.2596865 1019:0.38455403 1021:0.98414373 1022:0.62712789 1038:0.095659807 1047:0.78484136 1049:1.7846409 1058:5.4990745 1059:0.24091688 1064:3.4396799 1065:4.721807 1071:1.045969 1074:1.5612903 1081:1.3213077 1092:1.0507995 1095:5.0228777 1100:0.75293881 1117:0.44422278 1125:3.2983973 1130:4.8452373 1163:0.36585987 1166:3.9418359 1168:1.4874656 1170:0.80382466 1174:0.29535171 1175:1.8125451 1181:1.1169705 1182:2.316335 1188:2.5001338 1193:4.0546255 1199:2.0849082 1206:3.9625604 1219:1.9740345 1220:0.47117317 1221:3.1672487 1222:1.3736027 1223:0.28027859 1227:0.43719363 1228:1.3328418 1234:1.6912956 1235:2.4493461 1237:3.5673113 1242:9.0790911 1246:0.042218953 1251:1.7985814 1252:0.40805727 1264:1.1132674 1269:0.37233561 1278:0.50607109 1290:3.1311646 1291:2.845437 1299:0.63913536 1304:2.9769752 1313:2.2931352 1314:3.0694501 1317:0.53618908 1336:7.7700448 1341:2.30843 1342:0.21164045 1344:0.86307818 1349:1.3822035 1357:0.30308086 1359:0.15170398 1363:1.8970733 1366:1.2771016 1369:0.93061006 1372:1.3118527 1387:0.575414 1393:2.1297774 1395:2.1959655 1400:0.8282364 1408:2.9515655 1409:1.1681399 1410:2.7907228 1411:1.6590203 1417:1.7258583 1419:1.6093605 1424:1.8875039 1428:0.34599918 1431:0.24737367 1433:0.69365156 1441:1.7919143 1456:2.0321715 1457:3.6709507 1463:1.0225079 1465:1.4331073 1466:2.6411452 1467:3.1185496 1476:3.2603772 1484:7.4910984 1488:3.2648094 1489:3.3274243 1502:1.9122267 1503:5.0481462 1520:0.66099459 1523:0.66320616 1526:0.787642 1528:1.0227652 1541:2.9102356 1546:2.0026293 1548:0.1216929 1552:1.779524 1567:3.122016 1568:1.260865 1580:0.90087616 1586:3.0009913 1587:3.3396029 1588:1.6405113 1604:1.2004106 1605:4.7369866 1610:1.3247442 1613:0.071352601 1617:2.8794878 1624:0.66261786 1633:1.0953248 1636:3.3342946 1647:3.0392179 1657:1.106992 1659:4.3107982 1661:3.8456583 1667:0.72389203 1670:2.1717212 1691:5.2874446 1695:2.1895912 1704:0.33143747 1712:1.6483898 1720:1.4010926 1726:2.8676333 1728:0.61600041 1732:1.4713954 1736:2.8774323 1742:0.40202558 1746:0.0090445876 1750:0.45507884 1754:0.9263761 1762:5.228086 1767:1.7825146 1768:0.59709656 1778:1.9561565 1783:2.5784569 1786:4.5781288 1790:1.2430115 1792:0.91710722 1795:3.9516895 1805:4.6888194 1806:6.7015772 1813:2.8444314 1820:0.21146385 1831:4.7285357 1842:0.6844635 1845:3.5183191 1846:5.1606402 1849:2.1550677 1850:0.022439897 1853:2.6377134 1854:1.9103584 1860:0.5964554 1874:0.15216947 1883:0.11586265 1889:0.11062562 1893:0.71396852 1895:0.26817098 1897:2.082685 1901:4.7234778 1904:2.3208413 1905:2.0478709 1908:0.0017988533 1911:4.3822308 1923:0.90203524 1925:0.20572773 1937:0.937558 1943:2.3183782 1953:2.4095995 1960:4.3444309 1966:3.5632813 1972:4.5931234 1977:3.1581409 1984:3.7416384 1991:1.0451232 1999:0.66734385 2006:0.51081437 2009:0.16644561 2020:2.5185847 2028:2.8660004 2038:1.0359057 2039:0.27590975 2048:3.1270721 2053:0.00051611662 2057:3.0918546 2058:1.1026556 2070:7.2291212 2094:4.0130229 2102:1.4767996 2146:0.2022371 2153:1.5865316 2157:0.71753502 2164:1.6202264 2176:1.174176 2177:5.6021752 2186:3.8558772 2187:2.6615689 2190:2.5130413 2196:2.2533455 2200:1.8126994 2205:0.22195035 2226:1.7319996 2229:1.5566558 2231:1.8592114 2232:1.826722 2236:0.83925462 2241:0.16208529 2245:0.10647754 2251:1.4578738 2257:0.58314264 2267:2.0391252 2270:0.19354618 2271:1.121969 2275:2.0319777 2281:0.2012285 2286:1.9294081 2294:4.5725927 2313:0.46817765 2314:0.21132353 2318:2.5959225 2329:3.3344016 2333:1.7165335 2338:0.36142126 2340:2.098573 2342:0.71122766 2343:2.1606393 2349:1.8267945 2357:0.35697991 2360:1.2091815 2362:0.35148796 2369:0.26532865 2383:2.0567875 2390:6.3728051 2400:0.52793932 2404:0.70956802 2417:1.7989609 2423:4.6694074 2432:0.7470994 2433:0.10049169 2434:0.039467514 2435:5.4578199 2436:2.7518163 2438:1.5084981 2452:0.19852805 2453:0.88141042 2463:1.5585244 2466:0.87190992 2470:3.5067055 2482:1.2760494 2485:0.85651588 2487:0.79301429 2497:0.53837985 2507:5.0480084 2509:1.5899246 2514:0.79739082 2518:0.20075458 2520:1.1104693 2523:1.5787841 2525:0.16103309 2526:0.74201429 2528:0.095280126 2530:4.0598412 2533:0.56307894 2535:2.4486926 2536:1.237352 2547:2.1491485 2551:4.8264284 2561:10.793565 2577:2.0965011 2588:0.29073679 2589:2.05021 2594:2.6521735 2599:0.43979001 2601:4.8831038 2604:1.593935 2610:1.2710989 2611:1.473073 2621:0.97158557 2629:0.089176267 2637:1.8214415 2642:0.35115486 2647:0.62716866 2659:1.6845649 2663:1.0450354 2670:0.06822589 2688:2.2093906 2689:3.2342806 2693:1.5830836 2695:2.1399109 2708:1.0881582 2714:0.27181476 2721:6.0713935 2723:3.3063931 2726:1.7862687 2732:0.31865621 2738:0.38424256 2741:0.84902996 2745:6.3950548 2760:0.6541608 2771:0.36460701 2775:1.1652087 2777:1.1554828 2787:2.6599221 2793:0.68721068 2812:1.6240439 2814:2.6199582 2825:3.4598675 2834:5.4283013 2835:1.7208292 2853:0.23885801 2857:1.5017151 2866:0.50407648 2870:2.892751 2874:2.1299021 2879:2.3220627 2882:2.7370262 2887:0.38803652 2888:2.0550849 2894:0.80646127 2896:3.5043442 2903:1.7032769 2907:1.4427261 2909:0.34165752 2910:3.1171453 2916:3.5420747 2919:2.4804468 2921:0.13079816 2932:1.4553995 2934:0.12510765 2937:1.3461497 2945:3.406575 2949:4.3788428 2950:3.4822717 2957:1.1012861 2958:1.0189379 2966:5.6075511 2971:3.1885097 2982:0.66827255 2991:8.3664808 2993:7.0761294 3000:2.137337 3003:0.19677739 3005:0.10014701 3010:0.40061411 3012:1.1859435 3021:7.140029 3033:0.0064799041 3036:6.9203525 3043:2.5443316 3052:2.2890582 3062:0.52527881 3066:0.085562237 3068:0.11957315 3073:3.8105531 3079:4.0048232 3094:2.5995889 3116:2.730078 3129:0.64319861 3144:1.653317 3145:0.77494484 3146:2.2572021 3148:3.8311381 3151:0.086056322 3154:1.3561504 3160:1.8977146 3163:1.6826148 3179:0.96552014 3183:2.150748 3184:2.8896785 3195:0.8978371 3198:3.9300392 3199:6.2981544 3202:0.8585093 3215:1.9927497 3216:0.89843208 3224:0.53580594 3235:4.0195742 3249:0.30109996 3256:0.76647204 3258:3.2400579 3267:0.7384851 3268:2.2455337 3269:1.7189322 3276:2.8771501 3282:3.1879983 3291:3.6918349 3302:0.60022396 3315:0.36579001 3321:6.3787808 3324:2.9163008 3331:2.0492015 3334:0.2906017 3335:0.26418039 3336:0.40175527 3338:1.3086095 3348:0.33423197 3349:7.246367 3354:0.67923999 3377:3.8529274 3382:0.20717926 3383:0.64119256 3400:0.2186653 3408:0.29831573 3431:2.6991539 3436:1.1030927 3438:1.9517353 3445:9.3929472 3447:1.0966737 3450:0.84928256 3452:3.5065861 3456:2.0800297 3474:2.9046206 3478:0.35915756 3489:2.5607626 3490:1.412871 3491:6.2450886 3494:0.0085059404 3496:2.1298161 3507:1.7867916 3509:2.6111319 3513:1.3252614 3521:3.6402802 3525:0.10542762 3528:0.69127846 3534:0.61973411 3537:1.826273 3539:0.74712396 3540:4.0482068 3543:2.9455297 3548:0.16590866 3549:1.0303017 3551:2.1650712 3554:1.4173062 3555:4.6750851 3556:1.4598887 3564:1.5491728 3572:2.2393861 3576:0.26280308 3578:0.64660811 3580:1.4955912 3582:2.8483555 3585:5.1450043 3586:3.5016546 3594:2.1209092 3602:0.14648175 3604:4.2043576 3606:2.1981955 3609:0.18946832 3614:2.0797336 3617:0.24112511 3621:3.1037679 3627:0.84296191 3631:1.7800274 3638:2.5472443 3644:1.175622 3652:2.8962536 3653:2.0648227 3672:0.76073825 3679:3.8997836 3680:1.0732799 3683:0.43498114 3687:0.3475115 3690:0.41565236 3698:4.0462265 3699:2.0397232 3703:3.5228636 3704:0.31642544 3715:4.1213369 3732:3.6437759 3734:2.3830712 3747:0.87358797 3748:0.6369403 3749:0.10196 3751:1.5786585 3756:1.3597562 3765:1.0939319 3774:0.44026136 3776:1.5170318 3777:2.2787399 3778:3.0188215 3785:1.4542773 3811:4.7251582 3822:0.34058559 3826:1.8000658 3835:0.0067855716 3845:0.8640883 3857:0.28613472 3860:0.0902839 3866:0.86261922 3867:2.7347949 3871:2.1836219 3872:3.8208861 3877:2.0481577 3880:1.3304965 3891:8.5522079 3892:0.58167493 3901:2.3041737 3903:3.8813992 3907:1.5520465 3910:1.1742052 3915:3.4344511 3919:0.57767379 3923:6.373632 3938:1.2731994 3942:0.87097371 3944:0.17016283 3957:2.1443286 3974:1.0211456 3984:3.1944282 3988:4.9906454 3990:1.6647522 4002:3.0113623 4007:0.42887712 4021:7.0484614 4030:1.1294082 4033:2.9792607 4036:1.293323 4042:3.0656972 4043:3.1981113 4058:2.9051454 4063:0.1019955 4071:3.4492943 4074:2.7396159 4084:2.4020314 4085:2.7788382 4089:1.4597192 4093:0.51910001 
0.1356497779231007 5:0.048925281 7:0.22379813 9:10.886895 19:1.5169065 35:0.04098314 40:4.9060369 49:4.0260038 52:1.9890407 64:5.4922428 68:2.3896108 77:0.90066773 84:3.7903881 87:1.8526043 103:5.1747179 135:2.4082255 147:0.093226671 152:0.201107 160:0.49878353 161:0.052850127 163:0.15491247 164:1.9738389 167:2.5792851 172:6.3723922 178:0.47522211 181:5.0800109 182:2.7911806 187:3.9852557 190:1.2353071 191:4.1013207 198:0.16801056 200:1.6820238 202:0.35560232 210:3.279501 217:3.3966143 218:2.0933771 221:1.3845395 232:0.12230811 240:1.0278667 241:3.2492702 242:7.5072598 247:6.0482211 248:0.17290896 252:2.5081859 254:1.458719 256:4.1423454 266:2.5184162 282:0.73696291 288:1.6680939 300:1.3177397 310:3.6081042 312:1.0103079 324:2.0632429 329:1.4289122 334:2.7729592 335:2.8557525 341:0.77536595 345:0.40583998 349:6.5164075 353:3.7990077 354:2.658608 363:0.17878598 365:4.604157 367:0.065978244 379:4.8811131 382:0.38595131 384:2.0193043 385:0.87833285 390:3.0390248 391:2.0657451 393:0.11410934 408:0.5516423 410:1.2882062 416:2.604614 421:0.084704101 425:1.1730707 431:2.2067137 461:0.21975642 466:4.7161136 468:1.4586768 469:0.92424333 488:0.14219141 490:1.3733886 498:0.25241211 499:1.2300786 504:1.1840131 515:0.90078056 518:1.2956909 532:2.2222717 538:1.1473529 545:3.1086235 554:1.021675 562:2.8446913 567:3.3140092 576:1.87958 612:2.8084402 615:0.02834332 618:1.7467793 620:0.92753267 625:5.8686504 628:0.26440415 629:0.73270726 631:2.1924055 635:1.5728533 639:2.3437958 642:0.46963808 654:1.6424197 657:4.9996533 660:0.10943907 664:5.8067083 675:1.0439796 687:6.8238268 691:3.035392 692:5.8672824 696:1.8759 697:1.2416166 717:0.17877671 721:3.9899614 722:2.0718255 723:2.1897907 725:1.9672041 728:0.33598673 729:0.75879532 740:0.95879441 748:0.94115412 749:0.66013557 751:2.8128555 773:3.199697 776:1.8494266 777:5.1484098 782:0.87667525 788:0.96913922 789:0.056101374 794:1.6687833 799:1.5530137 804:1.8680356 811:2.8379824 812:4.7536592 816:3.547966 819:0.12671053 826:1.8117998 829:1.4071269 840:0.34649056 842:4.8602157 854:2.5426371 857:2.4276845 883:0.09001559 889:4.8996162 899:0.88704652 902:0.274786 903:0.98653281 905:3.0995595 912:5.5738869 916:5.8181772 919:2.2979405 927:2.6878119 928:3.5504589 930:0.28284007 943:2.0167341 960:2.6585927 976:4.4001036 980:1.7084457 985:0.38050672 989:0.1443157 993:3.8165264 994:4.1725826 1001:0.33373749 1004:7.621634 1014:7.6264572 1016:3.0043299 1021:2.6594868 1026:1.0790989 1031:0.32136136 1041:0.70522571 1049:4.5567808 1058:4.2574706 1064:0.14392158 1065:1.6859573 1071:1.4605455 1073:0.39556739 1078:1.2248958 1081:2.3163035 1092:1.1014054 1094:0.34482232 1095:4.4310856 1096:0.74260831 1110:1.9251661 1117:1.7239716 1125:3.4557805 1138:1.4103582 1163:0.077465534 1166:1.0708205 1169:1.5180658 1170:3.9501607 1171:5.002038 1174:2.7471604 1175:4.7208219 1180:0.42902949 1182:4.8498917 1185:0.083048731 1188:3.3521621 1191:0.25535017 1193:3.945266 1199:3.2218475 1206:0.67137378 1219:2.8191812 1220:1.9763626 1221:1.4452009 1222:0.90838253 1227:0.9976058 1228:0.51457149 1234:1.0106207 1235:1.1418056 1236:1.0096929 1237:3.5505252 1242:8.030489 1244:1.465796 1246:0.25640395 1251:0.68435544 1252:1.6818449 1260:0.033583939 1268:0.83793998 1270:0.82303172 1278:0.85413456 1279:0.65496099 1290:4.2648926 1291:7.5920863 1299:1.5849739 1304:2.2593563 1314:2.3166814 1335:0.18029594 1336:7.5761304 1341:2.5119588 1342:0.37161171 1344:1.0966671 1362:1.5116427 1363:0.36035758 1369:2.0359111 1381:2.9175203 1393:0.0034698248 1396:1.4706302 1400:1.1394471 1410:1.4242238 1411:1.0547416 1412:3.8384674 1417:1.4318113 1419:6.0783901 1424:1.8005177 1427:0.90330833 1428:1.5679877 1431:0.24583802 1441:0.54267478 1456:2.9098084 1457:3.1429532 1463:0.47192091 1465:2.6712813 1466:2.4133406 1476:4.3711867 1479:0.35885319 1488:1.5808451 1489:1.4601122 1498:1.6284783 1502:0.78505945 1503:5.2063847 1510:1.3870213 1520:1.3076904 1526:0.96928 1540:1.5132942 1541:2.7715445 1544:3.2600541 1546:1.419066 1552:1.9062386 1560:0.44279486 1568:1.3762808 1570:1.0704464 1580:3.7827415 1586:0.99396479 1587:3.9134724 1588:2.9671369 1592:0.46018502 1593:0.26278242 1597:1.9469516 1604:0.55917704 1617:0.23363751 1624:0.5262 1636:0.2118526 1647:5.4148188 1657:0.42160296 1659:4.8876133 1661:2.4547508 1665:0.63448983 1667:1.1191159 1670:1.4592692 1690:3.3856716 1691:0.44439459 1695:1.5879072 1696:0.35583419 1708:0.20875776 1712:1.4429473 1713:1.5434492 1720:1.517699 1726:3.0457625 1728:3.3679719 1730:0.52208716 1732:0.20150506 1736:3.4783077 1740:0.62916487 1750:1.3672857 1753:2.0188344 1754:0.02149713 1758:0.19545662 1762:2.5302961 1764:0.26957595 1767:3.7070463 1775:1.3025918 1778:1.6214877 1783:2.9858384 1786:1.9086401 1792:2.042661 1795:3.9091794 1805:4.1441374 1806:5.3999763 1813:6.9508529 1830:2.8770308 1831:2.8869066 1832:2.884552 1833:1.0258417 1842:0.19849557 1846:5.1463981 1849:1.0204844 1852:0.30077341 1853:1.0891769 1858:0.1812195 1877:0.38701519 1878:0.21537405 1883:3.0588198 1889:0.29375723 1893:1.7153997 1900:1.9064716 1901:2.9310441 1904:0.37497032 1911:4.7280569 1923:0.81736112 1926:0.14046559 1937:4.723423 1940:0.22082257 1943:3.0391898 1953:0.79919684 1960:0.13741022 1967:0.87208581 1972:1.0852904 1973:2.6198397 1977:1.1595464 1980:1.65645 1984:3.0694072 1996:0.61746335 1999:0.1689215 2009:0.82145262 2028:5.5454578 2038:1.1693432 2039:1.5053916 2046:0.8512333 2048:5.9684639 2057:4.0401883 2058:1.2420022 2070:1.5396329 2081:1.0926926 2085:1.9251161 2091:1.0391982 2094:1.6860639 2102:0.4608382 2127:0.67094922 2144:0.67172778 2153:3.7875001 2164:3.5806754 2168:0.44060946 2177:3.5889297 2186:0.15947953 2187:4.709403 2190:5.7368975 2196:4.4028163 2199:0.37047145 2200:2.0624139 2223:1.1653388 2224:1.069712 2226:1.327635 2232:2.6548665 2233:0.16133165 2236:1.4669415 2241:1.9778543 2242:0.16146286 2255:0.45789489 2257:3.628444 2261:2.663367 2267:2.798713 2286:1.8512543 2294:4.9500461 2312:0.65148056 2314:1.799073 2318:1.6117654 2324:0.30102965 2329:3.8603687 2330:0.11261296 2331:0.6294378 2340:1.2790967 2343:3.141614 2346:0.4735125 2349:5.8994327 2354:0.3536599 2357:1.9841095 2362:0.90602446 2376:1.4618516 2378:1.7136655 2382:2.1056821 2383:0.91384041 2390:4.5673804 2399:0.77225745 2400:0.72686517 2417:2.8380618 2423:6.2008185 2428:0.81112105 2432:0.5367946 2435:3.2470067 2436:4.1597691 2438:2.931514 2440:2.525176 2442:1.0134925 2443:0.28931117 2458:0.10198647 2459:0.85272622 2466:0.61397821 2470:1.404222 2482:0.23358274 2493:2.5561795 2507:2.4896841 2518:0.36411715 2525:1.0395137 2526:2.9032817 2528:2.4796367 2529:0.14427511 2530:1.0016084 2536:0.15040642 2537:0.77021015 2547:0.70381868 2549:0.16234389 2551:5.2926168 2561:11.281724 2563:1.0989019 2566:1.7994456 2570:0.43339485 2577:1.2355813 2588:0.608365 2589:1.7954164 2595:2.470098 2598:1.9239781 2601:3.752218 2604:3.9303136 2611:2.070893 2621:1.646935 2642:0.67925572 2655:1.9152608 2659:1.2873 2663:2.7565126 2670:1.2106724 2687:1.0840327 2688:1.3008285 2689:1.9686242 2690:1.7494686 2693:2.1518822 2695:3.820008 2697:0.52983606 2703:0.087186381 2708:4.3958712 2715:0.92415529 2720:0.26913249 2721:5.5144596 2723:6.1509886 2725:1.2442015 2726:1.11639 2729:0.51565385 2733:0.90403944 2745:5.2156973 2760:3.2477291 2765:0.42923903 2777:0.9436506 2793:1.0820473 2800:0.7605921 2814:3.0713348 2825:0.7638545 2834:4.8723664 2835:4.1519623 2840:0.57603776 2842:4.0547409 2844:0.406726 2863:2.382226 2870:2.5680382 2873:0.74114871 2879:3.3301625 2882:3.9307861 2887:1.4089224 2888:1.5031054 2891:0.71167696 2896:0.64093113 2902:0.23561652 2903:0.46365282 2904:0.1046702 2907:1.9911056 2910:3.9145637 2916:4.4653935 2919:0.15718609 2921:0.48676199 2932:0.46435261 2945:2.1777856 2949:6.7200809 2953:0.84593999 2966:3.7070057 2971:3.8585079 2982:0.76181638 2985:0.58308995 2990:0.16874334 2991:9.1570034 2993:5.6230564 2998:0.26967967 3000:1.0029265 3008:0.17001811 3010:0.080609053 3012:2.0907459 3021:5.8780727 3023:0.90681589 3036:9.5745277 3043:0.67085981 3050:0.06186986 3066:2.9408283 3073:6.1630278 3075:1.4868833 3079:4.1409798 3080:0.26299164 3086:0.20720068 3094:0.2052609 3105:0.49273026 3114:1.6389813 3116:2.0161178 3130:1.5647843 3144:0.5465675 3145:0.43684453 3146:1.9601141 3148:2.3918052 3150:1.7414626 3152:2.0109327 3154:1.6707561 3160:0.028077602 3163:3.1262715 3172:1.2300593 3176:3.9774132 3183:0.40227938 3184:0.91831362 3197:0.3689163 3198:2.0070381 3199:4.4245 3202:1.432205 3209:0.79041588 3215:2.5578363 3216:1.6882246 3235:4.5134811 3247:0.90599775 3258:1.3817627 3261:0.73488826 3268:1.4691503 3276:2.6220098 3282:2.129642 3321:1.7528852 3324:4.1023021 3331:0.76951075 3335:1.9388539 3336:1.4265795 3338:0.00085674226 3347:1.5167534 3349:3.1572676 3354:2.5448527 3358:0.40378803 3375:2.1524742 3377:1.8045249 3378:0.21086532 3395:0.078441262 3396:1.0477051 3408:0.1765978 3426:0.68570697 3436:0.11281314 3438:1.0258303 3442:0.42531052 3445:4.5147591 3447:2.5391588 3452:3.2049854 3465:0.73846436 3468:0.10202569 3474:6.1108565 3476:0.62315726 3489:0.74441785 3490:0.92759538 3491:4.2801542 3496:1.7365611 3504:0.33794516 3507:0.094996214 3509:1.6949677 3521:4.0908232 3522:3.6162987 3531:0.26813927 3534:3.8566089 3537:1.128768 3540:0.7501229 3543:1.678599 3544:2.4983656 3548:0.48523077 3549:0.28230682 3554:0.66989696 3555:4.370708 3556:0.23681712 3578:1.6123869 3580:1.0477811 3582:4.0850058 3585:9.7708607 3586:1.3745513 3594:1.666851 3598:0.45449048 3602:1.9915205 3604:4.7671027 3606:0.68254411 3609:2.2445757 3614:1.112758 3617:1.3445902 3619:0.058065236 3620:0.077258468 3621:0.27526444 3631:0.64187723 3633:1.9221233 3637:0.44692722 3638:0.41032785 3644:2.7408409 3653:3.131227 3679:1.9183296 3683:3.8517666 3685:0.2449041 3688:1.2920754 3698:5.0796747 3699:0.57228416 3715:5.7127986 3732:2.2124341 3734:5.2590222 3743:0.60938883 3747:2.8865743 3751:1.2309033 3765:2.4110229 3766:1.5231155 3768:0.07100305 3769:0.78984076 3776:0.56615782 3777:3.0126023 3778:3.0206378 3785:3.5395088 3791:5.8750939 3793:0.72768688 3822:0.85113645 3826:0.89330232 3846:0.75473237 3867:1.2329588 3869:0.21355692 3871:2.3131976 3872:1.8776404 3877:0.60187316 3888:0.31303987 3889:0.71892488 3891:6.7286787 3892:1.5696501 3901:2.7066159 3903:7.2453222 3915:2.5070159 3919:0.30835089 3922:0.45372114 3929:1.9370452 3938:0.44406062 3942:2.7892461 3957:0.82774216 3970:0.15915863 3972:2.2515087 3974:1.0638438 3984:4.6961355 3988:5.397387 3990:0.64454412 3995:1.3995081 3996:1.6324639 3999:0.28893507 4002:4.1951699 4007:1.9276788 4010:0.28220502 4011:1.6742265 4018:0.99957311 4021:7.6487956 4032:0.10864156 4033:3.8593831 4037:0.2204684 4043:2.5403652 4058:3.3443525 4071:4.4447789 4072:0.67376113 4073:0.42474505 4074:3.5988889 4084:1.1577641 4085:1.8159487 4089:0.52944583 4091:3.4887841 
0.4267969935011843 4:0.019980818 9:7.6414804 27:2.2879088 30:0.050159395 40:1.926598 43:2.0810356 49:1.0157378 57:0.73458016 58:0.40928844 64:6.1740913 66:0.87385464 68:1.9329553 76:1.0131478 84:1.9163978 87:0.79797482 93:0.041010857 103:5.5194716 107:1.2386152 111:0.42397058 135:3.9298515 152:0.83468723 159:2.7428746 161:3.1213255 163:1.3068967 167:3.77526 172:3.1048579 181:8.5487909 182:3.8976891 187:0.8976326 190:0.80955708 191:5.3938479 198:0.54588205 200:1.375344 210:2.6900122 217:2.8067524 218:4.1590276 224:1.5851567 225:1.710997 232:1.8899555 241:3.0930805 242:8.1533213 247:1.3384845 252:2.8980074 256:1.5846165 266:1.914767 275:0.32254183 282:1.986084 290:0.27744162 300:2.4994972 307:1.9018122 310:2.4469419 320:0.35484019 324:2.6163585 334:2.1193478 335:8.4177923 341:1.1783366 344:0.15360603 345:0.42382336 349:5.2640953 353:5.3859453 354:2.5200219 355:1.3027184 365:2.9343655 367:0.79103357 378:0.99848211 379:4.4013371 382:0.85474813 384:5.607604 390:2.2993224 391:3.0374928 393:1.3582501 399:0.35823548 404:0.31569833 408:0.16756454 410:0.94557744 416:2.6690242 425:1.7337326 428:0.14123499 429:2.6267791 461:1.1292989 466:4.2546234 468:0.52177471 490:2.2965114 497:1.3827873 498:0.10864973 499:1.5780922 504:1.3331554 514:2.7373393 515:3.8271842 518:2.5668287 535:2.6044109 538:2.5008919 545:2.8551512 554:0.39890885 562:3.289923 566:0.08330515 567:0.53534961 568:0.67110741 570:2.5523825 576:0.52772099 588:0.62644482 589:3.1854656 594:3.6876736 601:0.12188068 612:5.788816 616:1.2881337 617:1.1015602 620:0.68916994 625:3.1567764 626:0.2280665 631:0.69826949 635:0.62741703 639:4.4177928 657:2.4268923 664:3.3006046 675:2.8698521 677:0.80638152 687:7.702116 690:0.25918365 691:4.309886 692:6.4021869 696:2.4286034 697:2.5806115 717:0.20676795 718:0.61219704 721:4.1957908 722:0.88344038 723:0.50042945 725:3.2817686 728:2.6026592 748:0.38860735 751:4.3052669 755:2.8297529 769:0.7331748 776:1.698851 777:1.7538996 789:1.3278613 794:2.5693963 799:1.4303997 804:3.7372961 811:2.5623002 812:2.3311799 816:3.2002683 819:0.7061708 832:0.95704544 840:1.7807642 842:5.2420812 854:0.13946036 866:0.49086207 876:1.128908 879:0.52552885 881:0.6418699 883:1.0841236 889:3.1087642 903:0.79552519 905:3.5788274 909:0.23147278 912:5.9448638 916:3.4573522 919:5.52742 927:4.7589989 928:3.5848336 930:2.4073591 960:5.9687219 965:1.8080021 976:3.3786588 985:1.454758 993:3.14799 994:3.2448957 1001:2.7867136 1004:7.6611867 1014:9.0275173 1016:1.8239301 1021:2.8313646 1023:0.56966031 1024:0.59384024 1044:0.77432728 1047:0.89459616 1049:7.3319454 1058:4.3239818 1065:7.4445319 1071:1.0567577 1078:3.7518764 1080:1.2561342 1081:0.43052512 1084:1.4619261 1092:2.437109 1095:2.5691893 1096:2.7007215 1100:0.52032065 1101:0.28862661 1110:3.9627304 1117:5.2348914 1125:2.8197289 1138:2.0728731 1154:1.3101549 1165:3.1458566 1169:0.65172911 1170:3.9541898 1171:5.9430852 1174:2.5009768 1175:5.9408526 1182:5.597949 1188:1.9701419 1191:1.2929499 1193:1.1761422 1199:1.3787464 1215:0.653144 1219:3.9073009 1220:0.41756946 1222:0.059570819 1227:2.7720647 1228:3.2080503 1234:0.42029262 1237:4.8449097 1242:8.5528517 1246:0.99969673 1252:2.8372161 1264:0.36553955 1268:2.4484429 1278:2.2561762 1279:2.6564 1290:4.630445 1291:5.3297305 1299:0.094932824 1314:1.5459218 1319:0.26996648 1336:5.1227298 1341:1.7809082 1344:0.27108449 1349:1.0179814 1357:0.40349257 1362:3.8692892 1365:0.41070122 1369:2.4804401 1376:0.73494589 1381:3.8377268 1384:0.68472677 1387:0.93677992 1389:0.63151658 1393:0.11086941 1410:3.5281661 1412:6.506731 1417:3.4287362 1419:5.6103168 1424:2.0578833 1427:0.47918844 1428:2.1408603 1433:0.75675201 1441:1.4862388 1454:0.33014661 1456:1.1842802 1463:3.2572017 1465:4.1644883 1466:0.53869498 1467:1.1996287 1476:4.4146576 1488:4.9315701 1489:2.6405845 1498:2.4677756 1502:1.5994246 1503:6.5476856 1520:1.7261941 1534:1.0053604 1538:0.33409625 1539:0.79560292 1540:0.77372348 1541:1.7865975 1544:1.1305591 1560:0.20031081 1568:1.6461115 1569:0.15024722 1577:1.4823575 1580:1.1356384 1586:0.054530457 1587:2.1695108 1588:2.4015713 1591:0.31664887 1592:1.0020193 1597:1.3142061 1613:1.0925605 1630:1.0216562 1640:2.4087713 1647:7.4172649 1648:1.5268669 1659:3.5901659 1661:1.9907016 1665:0.83315676 1670:0.13672963 1678:2.5770657 1680:0.53262317 1690:1.6797267 1691:1.143702 1695:1.4048764 1696:1.9191637 1712:3.4504795 1720:1.4838173 1726:3.613312 1728:1.5917305 1736:3.2367811 1740:3.3512011 1750:4.1450934 1753:2.0782957 1754:0.51960599 1755:0.023703858 1762:2.66061 1767:2.8245051 1775:1.1745883 1778:0.5109272 1783:7.4485817 1786:3.2206788 1792:0.91856515 1795:5.329824 1798:1.6391168 1805:2.6232436 1806:2.524992 1807:0.36612952 1808:0.38787907 1813:4.561028 1830:2.4435802 1832:3.0834029 1833:2.6361024 1845:2.6554086 1846:2.6258979 1849:3.6269517 1852:0.94941241 1853:1.4140829 1856:4.3826971 1857:2.3161106 1870:0.19667749 1883:3.192055 1900:1.865328 1901:3.2765751 1911:2.8387668 1912:0.98844266 1926:2.4800901 1928:0.27805281 1937:5.2045321 1943:4.6291246 1951:0.09698388 1953:2.0973372 1967:0.09511368 1968:0.90707523 1972:6.7118545 1973:3.4599705 1977:2.6098216 1980:2.0272934 1984:0.056056112 2001:2.4519346 2026:1.7662221 2028:5.907423 2038:1.6251168 2039:2.4240232 2048:6.8262444 2057:1.481155 2058:1.9151878 2079:2.9216805 2085:0.38956976 2091:2.7620797 2094:1.5510634 2110:2.6452589 2131:0.14799558 2153:0.083218597 2164:0.25400892 2168:0.02981478 2169:0.53414047 2176:1.774435 2177:2.3220892 2187:4.2017403 2190:7.4068379 2196:6.0923123 2199:1.1021578 2200:0.066523671 2212:1.0979679 2218:1.2913874 2224:2.266212 2226:1.1701516 2232:0.8212769 2233:0.95064378 2239:1.4580019 2245:1.8136849 2257:2.5161138 2261:1.5732917 2267:3.7140069 2286:4.2751975 2294:4.7271681 2298:0.21791285 2312:1.8405311 2314:2.5135608 2317:0.09790843 2318:0.70170766 2322:1.1203123 2329:1.8926988 2330:0.35411572 2340:0.65882933 2341:0.99225259 2349:4.2729225 2354:0.00091362 2360:1.8785304 2362:0.88345373 2372:2.1094787 2376:1.7049656 2378:0.99179041 2382:2.3227882 2390:6.9606509 2395:2.4640429 2400:0.48513436 2417:6.2840114 2423:6.6238408 2432:2.210048 2435:3.4308467 2436:6.8591876 2437:2.0824289 2438:2.5371759 2440:2.176425 2457:0.3865416 2458:1.1829624 2459:0.28880447 2492:1.9115316 2493:5.2150731 2505:0.98071617 2507:1.5942291 2514:0.27420834 2520:0.80513072 2523:0.69682157 2525:0.21292672 2526:5.5426388 2528:1.8077824 2529:1.4883797 2530:3.9682899 2547:1.7984403 2551:9.3042278 2554:0.84551078 2561:9.891633 2577:2.645926 2586:1.4347575 2588:0.81859684 2598:2.6153824 2600:0.093286991 2601:6.2441602 2604:2.9968066 2611:2.8811207 2621:6.7669559 2625:0.96419483 2652:3.7832167 2663:2.8650918 2689:1.0687777 2690:1.3957233 2693:4.046454 2695:3.6652949 2697:0.70812511 2699:0.17857943 2703:0.18321739 2708:3.925936 2710:1.6928332 2715:2.2817602 2720:1.1617367 2721:3.5556788 2723:7.3951945 2725:1.5954356 2729:2.909133 2733:0.67029464 2740:1.3983665 2745:9.1744146 2752:0.78357965 2763:0.61217594 2765:0.68984687 2766:2.6904917 2775:2.8338876 2777:0.89405131 2778:0.38473746 2787:0.27735183 2793:5.0059428 2800:2.2435117 2808:4.1383586 2814:2.6447747 2822:0.15533347 2825:1.7317253 2834:2.9534183 2835:3.2936337 2840:1.5612597 2842:3.0993474 2857:0.97201896 2860:0.62260318 2863:1.6367611 2870:0.16160508 2873:1.9681133 2874:0.10584283 2879:3.0056336 2882:3.9743438 2887:2.4370329 2888:1.6627082 2896:0.88377512 2898:0.032534301 2907:6.8463283 2910:3.1568298 2916:2.2885046 2921:1.5626123 2945:3.2964339 2949:5.8773398 2950:2.6813142 2953:1.5306317 2958:2.2758865 2966:1.5860407 2978:1.2653168 2979:0.51254141 2982:1.7299964 2990:3.6734409 2991:6.9382992 2993:4.2928996 2995:0.074736148 3000:2.4564166 3005:0.7243464 3012:0.41873536 3021:5.2889128 3023:1.6312523 3026:1.7442852 3033:3.7331519 3036:7.1292753 3065:1.1081493 3067:3.2920051 3073:5.6204815 3075:1.9801652 3079:1.4426761 3080:0.76071501 3094:1.8251661 3099:0.66284603 3111:0.41892895 3114:0.77500391 3116:4.8956909 3117:1.1754756 3146:0.61737615 3150:5.1403909 3152:3.3546 3154:3.3486347 3163:1.3572628 3176:1.8551736 3181:1.5815455 3183:3.3568618 3196:0.28700987 3197:0.68576592 3198:2.2046909 3199:2.3936861 3208:0.91436601 3212:0.59665579 3216:1.5401437 3224:0.14925143 3226:0.15660864 3235:3.4546251 3246:1.7107924 3258:2.191 3268:0.61079007 3276:1.8842219 3280:0.42768332 3324:1.6746734 3334:0.15970835 3336:0.48702776 3338:1.5595958 3349:0.51520264 3373:0.34971374 3375:2.031997 3377:3.274209 3396:2.1623907 3403:0.16163439 3407:1.5687493 3408:1.1524004 3415:0.55842173 3438:2.9747539 3441:2.4062195 3442:1.4565638 3446:1.0436707 3447:3.6196523 3452:1.5896785 3465:3.3255181 3470:0.56599003 3474:6.8925214 3489:3.2954245 3491:5.5809417 3496:4.0589914 3497:0.21720958 3507:0.87288195 3521:4.6223497 3522:2.5832691 3531:2.2473719 3534:1.1808186 3537:1.9356959 3544:2.9376082 3549:0.22441784 3554:0.27802095 3555:3.488446 3556:2.6273513 3564:0.7888757 3577:2.918982 3580:2.0837922 3582:3.5540771 3585:13.578575 3586:3.3595684 3589:0.32217366 3602:1.7088665 3603:0.23974997 3604:1.7999854 3607:0.50463688 3614:2.8547733 3617:0.82494974 3620:0.4975614 3621:1.4611902 3638:1.3427744 3644:0.72180688 3652:0.61857104 3653:2.112015 3657:0.92545712 3678:0.72805488 3679:0.89454639 3680:0.056935161 3682:0.21398637 3683:6.7312274 3688:2.8372838 3698:4.3399496 3712:1.3651329 3715:3.3899322 3724:0.92796332 3732:1.4618664 3734:8.2897644 3747:4.3369179 3751:0.84320343 3752:0.083862662 3755:0.050401717 3765:4.5165377 3766:5.7996211 3769:1.5411451 3776:0.87881082 3777:1.7502203 3778:1.6949871 3785:2.8969514 3786:0.0025037602 3791:10.054357 3797:2.0973229 3813:0.83221072 3822:2.534699 3867:0.44191253 3869:1.3942432 3871:2.476615 3877:1.7821686 3882:1.3387223 3885:2.264801 3888:4.0966215 3891:5.1797628 3892:2.415318 3893:3.0289829 3901:1.4718407 3903:6.0856996 3915:3.7705076 3919:1.4738882 3922:0.82480592 3929:0.23165867 3930:0.68428987 3942:3.0319099 3955:0.5497098 3957:1.5082359 3970:0.5511083 3972:0.72775924 3974:2.2708137 3984:4.1843457 3988:5.2108645 3990:0.86597562 3996:2.3150082 3999:0.27018926 4002:3.6604042 4007:0.43255341 4011:1.232338 4017:0.24419533 4018:0.16067553 4021:6.4907174 4033:1.9143648 4036:0.57450491 4038:1.421779 4043:4.8741045 4044:0.55029035 4058:3.3400469 4059:0.0092545301 4071:2.5912495 4073:0.39858142 4074:3.7597642 4082:0.03576529 4084:1.4598835 4085:3.2667069 4091:2.9224567 
