svm_type c_svc
kernel_type rbf
gamma 0.000244141
nr_class 2
total_sv 136
rho 0.803359
label 1 0
probA -4.19485
probB 0.493318
nr_sv 68 68
SV
1 9:1.6545007 19:1.9330091 27:2.6374531 40:0.96006703 43:1.3244762 49:1.1745706 54:1.6039182 66:2.083329 68:1.4266677 88:0.2671876 91:1.2571049 94:0.88706136 100:0.018178642 103:0.21298319 109:1.0550107 114:0.039280355 115:1.0356457 121:0.062301219 122:0.37394887 123:0.087524861 131:1.5078822 147:4.1681852 157:0.01073572 159:1.1797725 161:0.11653885 167:2.7830179 169:0.5448603 171:0.55349457 172:2.4751723 173:0.98302555 180:0.92891294 181:2.4861517 190:1.4421111 196:0.14961988 200:3.2813103 202:1.1191778 209:1.0642178 210:4.1558194 216:1.3546697 217:3.1281898 218:0.049469024 221:0.35319895 222:0.88464928 239:1.1684356 241:1.73903 242:0.21460992 247:2.6750908 248:0.75748515 258:1.7574978 267:0.25187725 271:0.29762816 283:1.6776836 288:2.4742639 292:1.1755691 297:1.9728632 300:1.9771267 303:0.29060006 304:0.86925125 307:0.16038144 308:1.1024655 312:3.7632799 320:0.025440633 324:1.5799477 326:1.9072142 335:2.6416872 341:1.7044054 348:1.9329778 349:4.1420889 353:4.7929921 363:5.0429106 378:2.013247 379:0.90865505 382:0.96298027 384:1.4484966 390:3.2961617 391:1.199573 396:1.3992156 412:1.9880216 420:0.92313647 431:2.3299539 432:0.81305456 442:1.6281604 451:0.04802978 456:1.2141994 460:0.52067095 468:2.3153567 473:0.87607133 484:1.4838901 485:0.33156723 487:0.3521181 493:0.5961535 496:0.58040726 511:0.26513749 514:2.7457139 515:3.2135754 517:0.64740562 521:2.3739679 524:0.21549277 528:0.23084876 538:1.8809615 545:0.72552717 553:2.1998026 562:0.078221381 567:1.0253237 575:1.8636757 576:0.44075924 578:0.49437356 583:3.9866538 584:0.40651339 592:3.1637683 593:0.62432909 594:2.6609547 601:1.3856084 606:1.5271403 609:0.53575313 612:4.6752553 614:0.021454439 626:0.44691879 635:3.1601579 638:0.96043533 639:3.0132296 642:3.3236737 654:0.22148688 657:5.2537475 661:1.1902864 662:1.4916739 664:0.49211076 672:0.98782402 675:4.0258832 677:3.0150781 682:3.3715296 687:1.4739696 701:0.013138689 705:3.7826614 706:0.73570549 711:1.8561201 718:0.46657282 720:1.2604427 721:3.6343622 722:1.6791065 723:0.17742229 724:1.5279551 726:0.96676153 728:2.6196785 731:0.48489171 749:3.155915 750:0.109914 751:2.3317549 754:0.04240185 755:1.9925697 763:0.058049731 777:1.6008539 782:1.4203677 785:1.3403479 788:2.6973109 789:0.94902962 793:1.1894776 795:0.41479093 796:0.06608966 798:1.2060298 804:2.2800376 809:2.1485612 812:0.20237266 820:2.4141016 826:1.2242248 839:0.6697042 841:1.4146698 842:3.2025278 868:2.0505834 873:2.6692545 876:0.89869308 877:0.071994133 889:1.2226703 899:0.14983355 905:0.1003133 909:2.0784061 911:0.54904568 912:4.2072349 915:0.25776616 916:3.1706626 918:1.3212997 919:4.0100517 922:1.0350447 928:3.0855553 931:0.082701951 943:1.7109139 945:1.5158755 947:1.9535172 958:1.3611184 961:0.44702458 965:0.84567618 966:1.7416171 971:4.0432963 974:2.3209934 976:2.9735537 996:0.29140693 1001:0.99572885 1002:2.5348959 1004:0.60668802 1014:4.446136 1023:1.6926956 1041:0.8181262 1047:4.2345605 1049:0.38562328 1051:0.30227038 1065:1.6874884 1071:0.85980064 1078:0.81435263 1081:3.9958482 1087:0.087948263 1092:1.1748414 1095:0.96987766 1096:5.1807051 1102:1.9259366 1107:0.057390004 1117:0.97969747 1126:0.16573843 1130:1.2429903 1134:1.659464 1140:1.2520649 1150:1.4306074 1159:0.17246675 1163:0.040052414 1165:2.0085196 1168:0.94498092 1169:2.2794883 1170:6.8554196 1175:2.7334037 1188:3.6932435 1192:0.2980867 1193:1.8931401 1206:2.1432095 1208:1.3244138 1217:2.0277131 1219:4.0780406 1220:2.8051724 1221:1.7560415 1223:2.144721 1235:0.11377329 1237:2.8383379 1242:3.5820048 1250:0.31238669 1251:1.5390248 1253:0.24837701 1260:0.33073285 1264:1.1734167 1269:0.2288692 1274:2.3678 1276:0.2508789 1278:0.35453609 1279:0.6304509 1281:1.5570153 1282:0.96615064 1286:1.6513293 1288:0.87068355 1297:0.047546476 1306:0.27743813 1309:0.41351271 1314:2.2554383 1319:2.278265 1336:1.7354673 1341:1.8799284 1342:0.40174019 1344:0.59049982 1349:2.1792533 1359:3.1284375 1361:1.3142946 1365:1.5109941 1368:0.13728499 1371:0.82670206 1372:0.69511282 1374:0.71569526 1375:0.47701538 1378:0.38087851 1386:0.44443554 1387:4.2939253 1393:2.1716871 1395:4.3146014 1406:1.9390595 1409:2.4489264 1410:3.8815949 1411:5.1452332 1412:0.083263487 1417:1.4819113 1419:1.9923561 1424:3.3822813 1428:2.5835247 1430:2.4180584 1433:2.9642518 1437:0.79426038 1458:0.21920621 1463:0.51801658 1465:2.5299134 1467:2.2970834 1470:0.49182135 1474:0.25200367 1476:1.0441566 1483:1.6495457 1484:1.9522945 1487:0.16903311 1488:0.28381348 1489:2.274008 1495:0.67763311 1497:0.1682547 1502:3.3608167 1512:0.029630244 1513:1.4664781 1515:2.8301129 1520:2.8030584 1522:1.383588 1526:1.2106851 1544:0.54926693 1545:0.80196941 1546:0.090220988 1555:1.6580195 1560:0.30018169 1562:0.44453001 1568:4.2683101 1569:0.12024119 1577:2.9907422 1580:0.65433216 1582:3.2703664 1586:2.167171 1587:0.76135248 1588:1.1741008 1597:3.8853858 1604:1.2155371 1605:1.1303604 1613:3.5390337 1617:0.60139942 1621:0.023424312 1622:2.7750282 1624:1.3839998 1628:0.46508527 1633:0.11322206 1636:1.4354166 1637:0.55856705 1641:0.17485321 1647:2.3350358 1648:2.1484635 1653:1.7778146 1658:1.2123758 1661:2.980073 1663:1.4752229 1672:1.1295844 1678:2.595381 1691:2.1373351 1696:1.5997419 1701:1.6513284 1712:2.5227842 1714:1.1890999 1720:5.2745466 1726:2.3875625 1727:1.1935015 1728:0.39833134 1730:1.7332764 1732:2.6991086 1746:1.0063592 1750:1.2297363 1751:0.36314353 1753:2.5340927 1758:3.7905533 1762:4.2542639 1765:0.17417639 1767:0.75722545 1773:0.13668269 1778:0.92577958 1780:0.60035396 1783:1.0233645 1790:3.580086 1804:1.8490965 1806:4.4760065 1808:0.23614582 1813:2.121484 1824:1.1815528 1825:0.26552591 1832:5.8369551 1833:1.4883233 1843:0.95750844 1845:0.61498564 1846:5.4865084 1849:3.7847269 1850:0.58373064 1852:1.1172695 1854:3.7996039 1857:1.2764945 1874:0.18360806 1879:0.71343017 1880:0.61350328 1881:0.8179214 1890:0.14510584 1896:0.29490989 1900:3.1576662 1901:2.8956666 1904:1.9601054 1912:1.4817985 1925:1.1938825 1928:1.4068488 1938:3.0459695 1942:2.437325 1943:1.9672786 1951:1.5524365 1955:1.2829264 1959:0.32919949 1968:2.3447804 1972:3.1567712 1977:0.19488141 1984:0.016544431 1990:1.7833145 2005:1.1618236 2006:1.0130965 2019:0.74558717 2020:0.67418861 2022:2.4595745 2026:0.98069763 2038:2.6935484 2042:0.90775657 2048:1.3835702 2053:1.2954042 2058:2.7029643 2075:0.12762265 2081:0.1639208 2085:1.8553528 2094:4.1020336 2101:0.88377571 2102:2.4270127 2110:0.75562745 2117:1.3933245 2137:0.33488762 2140:0.10018173 2144:1.6590345 2155:0.72218555 2157:0.33884948 2159:0.38033751 2160:0.065873861 2164:0.38704872 2174:1.7307497 2177:2.6770275 2179:0.81278467 2186:1.5820533 2187:4.8494382 2188:0.37561935 2189:0.71018523 2190:2.7004852 2196:0.58960021 2198:0.12988682 2200:0.13290346 2202:1.3603133 2214:0.11461663 2218:2.3189633 2223:1.1365857 2226:0.6631946 2230:0.71367776 2231:0.37045264 2239:1.8318799 2241:2.5504181 2244:0.22890484 2255:0.95711696 2259:0.051891893 2262:0.19977205 2271:0.79422408 2274:1.6236295 2275:1.2320368 2280:0.90677238 2286:3.9210958 2292:1.0533458 2294:0.88070512 2298:0.5338468 2307:2.6438942 2311:1.4332521 2312:0.55206722 2314:0.88276941 2317:1.895561 2318:0.63400155 2320:0.86265117 2322:1.5994653 2324:1.0669246 2327:1.1137025 2329:2.8637695 2340:1.3274065 2343:3.1642473 2353:0.64327884 2358:1.8410619 2360:2.1422372 2372:0.8732217 2376:1.267278 2381:3.292371 2383:0.48687944 2390:2.6969986 2393:1.062782 2416:1.6540964 2417:0.49778721 2420:2.814465 2423:0.81002176 2431:0.15383723 2432:2.817728 2434:1.7791365 2435:4.2795792 2436:1.7714729 2440:0.91140342 2446:0.67099726 2452:1.4797423 2457:1.4006705 2459:0.52836955 2470:0.077556968 2486:2.6761341 2488:1.1459419 2506:1.9057243 2507:3.39731 2508:1.434689 2514:0.47639379 2520:2.581902 2523:0.44857728 2526:2.7427177 2530:1.0229053 2531:1.2860216 2537:0.54806399 2545:0.25422683 2551:1.7789997 2558:2.3195679 2560:0.38382578 2561:4.2375131 2562:2.2913539 2563:0.039302617 2568:0.15783069 2576:0.028832421 2577:0.42477947 2589:0.13685292 2594:0.71356082 2601:2.3124719 2603:1.4028978 2604:0.67836809 2610:0.72232521 2611:0.65115464 2621:3.8830202 2625:1.9734302 2634:2.4158525 2636:1.6525662 2637:3.5447583 2642:0.44043165 2643:1.6924608 2651:0.79600251 2659:1.7286206 2667:1.207341 2669:0.91559476 2672:1.1556482 2674:0.57504988 2688:0.73192263 2689:1.0324795 2690:5.3737907 2693:0.87772906 2708:2.358803 2715:1.5797422 2718:0.85456973 2721:1.3020222 2723:1.9208272 2733:0.98021185 2736:0.50108427 2745:2.6805599 2750:1.1420097 2752:0.92268115 2760:1.4980457 2765:2.7503834 2766:2.719275 2775:1.1566472 2777:0.091391563 2778:0.46370044 2784:1.7428514 2787:5.158083 2792:3.0992849 2800:2.6781285 2807:0.023953944 2808:0.7623933 2814:3.3787553 2821:1.3788508 2824:0.19479904 2826:3.3575809 2831:2.157726 2834:0.94944799 2835:1.3165172 2836:1.6288064 2838:1.7375009 2841:3.5402074 2842:2.0347676 2848:0.96620214 2856:0.11844411 2857:4.0386376 2864:0.88587612 2867:3.4796152 2873:0.28606498 2882:2.1659248 2885:3.2231669 2888:0.30940056 2891:0.34480974 2894:0.41734815 2896:1.966112 2907:1.0352101 2910:0.1927747 2919:2.0114701 2928:4.3046689 2932:0.1866143 2934:0.95578277 2945:3.2996044 2947:0.9570598 2949:2.5363002 2950:3.2681847 2957:0.22866407 2966:2.0790591 2967:2.4875669 2971:1.0035317 2974:0.21879071 2976:0.33990854 2978:3.2615407 2982:3.7744417 2990:0.083683342 2993:4.3184819 2995:0.097339213 3010:0.76652384 3012:1.3477262 3020:1.6173193 3021:3.9635472 3022:1.0350678 3034:1.8813531 3035:0.28516319 3036:0.9711616 3047:1.111279 3051:1.2555242 3052:0.23757136 3056:0.38580939 3059:0.95068938 3062:2.4357419 3067:1.1713055 3068:0.73301375 3070:0.84740579 3073:2.4298227 3075:4.2603426 3078:0.73259342 3085:0.048768729 3094:1.4489212 3095:0.88651252 3110:1.1986353 3111:0.063516587 3119:1.2928813 3120:0.016148716 3129:1.4861399 3144:4.1073031 3146:2.0269182 3152:3.4813993 3154:0.01137054 3162:1.5168602 3163:1.6381752 3170:0.31622022 3172:1.4924181 3174:1.1582594 3181:0.0028553307 3182:1.560357 3183:2.5181811 3195:1.5118879 3196:0.65644419 3198:0.73929268 3200:0.010163903 3215:2.1925998 3221:0.12062253 3233:2.0314415 3238:1.05704 3246:2.79969 3253:0.82752776 3258:2.3780098 3260:1.2295802 3268:2.0259185 3275:0.68561137 3276:0.93436855 3282:1.5444564 3286:1.5078766 3287:0.62715697 3290:0.53731459 3291:3.3843267 3294:3.1079772 3298:1.3046398 3310:3.8353586 3314:0.1059193 3321:1.8371694 3323:3.5888498 3333:0.22055596 3334:2.8597136 3344:1.3671613 3348:0.47561598 3349:2.338912 3355:1.5252234 3359:0.052347302 3361:0.91077304 3365:0.0064458251 3366:0.25778031 3377:0.03936848 3382:1.9228706 3388:0.0087551922 3390:1.9230661 3394:0.02003628 3396:0.74007368 3397:2.0105438 3413:2.5834708 3417:1.7994061 3427:0.65793741 3436:1.713377 3438:2.3348408 3442:5.5063438 3445:1.8041388 3446:2.4190521 3452:1.0052489 3458:0.73321164 3465:2.1285977 3475:0.96240187 3489:0.026852056 3491:4.0244913 3494:2.5894103 3496:6.1149001 3504:1.0520382 3513:2.743433 3536:0.76473272 3537:3.1578882 3540:1.068004 3544:3.6770854 3548:0.35736465 3549:2.9009278 3555:0.22394946 3556:0.89296198 3561:0.2897853 3564:0.65185261 3569:1.7314878 3576:0.15322727 3577:0.70203829 3578:0.32793185 3580:0.32018924 3582:4.3505478 3584:2.6576421 3585:1.7663914 3598:0.17893261 3601:1.8541579 3602:1.7204834 3603:0.4317537 3604:2.5113335 3608:3.649796 3614:2.8418388 3615:0.2307753 3618:0.052946359 3621:0.59681135 3624:1.9188793 3627:1.449237 3629:0.019729167 3631:0.99021775 3638:2.545763 3644:3.6614528 3650:3.0291841 3652:0.27950001 3665:1.8053434 3667:0.67414582 3672:0.87629902 3683:0.41046122 3684:0.94715118 3687:0.46304205 3689:1.0247529 3690:2.1657512 3692:0.10645384 3697:2.5062933 3712:2.7203817 3723:1.7930791 3724:0.80756158 3729:1.9179465 3732:3.1742754 3734:0.31486598 3747:0.58762658 3748:1.7381567 3752:1.1031529 3758:1.3949893 3761:0.059637755 3765:1.3499367 3766:2.2947721 3769:1.0876811 3777:1.132735 3778:1.5465492 3783:0.046548545 3785:2.9683702 3793:1.2825629 3795:0.7034893 3796:0.076095968 3802:3.0029624 3806:1.6498549 3808:1.6523752 3811:2.2346115 3818:0.043166921 3819:1.5024064 3824:1.3646542 3826:1.0469258 3837:3.5698481 3845:0.046834528 3848:1.2342339 3860:0.16624218 3867:3.4245694 3871:1.091343 3872:4.8096952 3877:2.9174159 3880:0.10140148 3881:1.2848933 3882:2.5144966 3888:0.83162165 3889:1.9004047 3892:2.8693061 3893:3.7301533 3903:1.5077122 3907:6.7980614 3915:0.15703571 3918:0.50668788 3919:0.48557669 3929:1.6469332 3935:0.74967194 3941:1.2251874 3957:3.6450965 3963:0.6619249 3974:1.0202963 3982:0.70177066 3988:3.4433947 3990:3.1871347 4002:0.74039334 4004:2.2003238 4005:2.6988032 4010:1.578645 4011:1.9764266 4018:1.8611984 4020:0.081891671 4021:3.3296535 4032:0.7072624 4036:0.40898815 4043:0.21998097 4050:1.0414996 4058:1.5603302 4063:2.3285656 4070:4.1257315 4072:0.34895933 4074:0.41001394 4076:2.499675 4079:1.9790256 4082:0.32885805 4084:0.52100849 4085:0.26901788 4088:0.18534732 4090:1.1074046 4091:0.84615445 4092:1.5080158 
0.9100095068339054 9:5.2611465 19:2.8526061 40:4.2580094 49:3.1748331 54:4.0423446 66:1.888654 68:0.79886013 77:2.1803453 90:0.082338154 91:1.6439213 109:1.506282 115:0.61557329 131:0.68974042 147:3.3365126 152:1.4060529 159:2.6634691 167:1.9900723 169:0.50427711 171:0.61012411 172:5.38305 173:1.6118368 179:0.51846826 181:1.8576642 190:0.92497563 191:0.4724887 200:5.2540164 202:1.0265002 209:0.47307891 210:6.629971 214:0.47589636 216:0.084956884 217:1.5783851 218:1.8153944 221:3.4509668 222:0.59017241 242:2.8180852 243:0.30508396 247:6.9007263 248:3.8913336 252:2.4998546 256:1.0036061 259:0.38141337 274:0.26844376 282:0.62558842 288:1.9555488 292:3.227977 297:0.73568803 300:4.2522583 312:1.8902743 319:0.20898569 323:0.35310391 324:2.5060742 329:0.24197608 334:0.56260139 335:0.57362956 348:0.34470856 349:5.8900862 350:1.4179209 351:1.5985346 353:5.2380896 354:0.79014236 363:4.8243289 365:2.0223327 367:2.3143218 379:2.0704458 382:0.83336771 384:2.9340968 390:2.413902 391:2.8326602 396:1.1402935 404:2.1300333 416:1.208491 420:0.59079719 425:0.87359488 431:4.0000787 434:0.2919215 451:0.49975008 456:0.52290267 463:0.24939144 466:2.4205782 468:1.408967 472:0.65146351 484:0.099295706 487:3.0008736 488:3.0884352 493:1.2217721 498:0.6933257 500:1.027681 504:0.33076942 514:1.5826331 515:3.1677885 518:0.72492146 528:0.70348507 529:2.5616634 538:2.9228687 539:0.80998111 545:3.0672057 559:0.4507809 562:2.4318678 567:4.6817522 575:1.6013863 576:3.2937202 578:4.8348513 583:2.2014391 584:1.3071901 592:3.7994635 593:1.9367093 601:0.76581872 606:1.1866753 609:0.95469391 612:3.2263043 615:0.40631908 616:1.1641817 625:2.1968303 635:1.7877936 638:1.5063872 639:3.3542991 640:0.24472985 642:4.738008 647:0.85476458 651:0.992383 654:3.9115834 657:5.3415146 664:1.7983007 672:0.0056152344 675:1.6582124 677:0.11865711 682:1.4872262 687:3.7983651 692:0.94055778 701:1.2362411 702:0.42742053 705:3.335773 711:3.103349 721:3.1877356 723:3.2218983 724:3.1705046 726:1.2147584 749:4.7915602 750:0.41637257 751:2.6092241 755:1.2613152 773:1.9058974 777:0.6924063 782:2.2986503 785:1.0168138 789:2.1580024 792:2.6784267 798:3.1311467 801:1.5288265 804:3.4160624 812:3.3124278 817:0.15106511 820:1.5265673 826:0.94244784 830:2.7507977 838:0.5278703 841:2.4500742 842:5.1550589 853:0.11544237 854:0.77444702 857:2.6161337 866:0.19711784 873:3.039005 876:1.221265 885:0.033859402 889:2.5617065 895:0.23477112 899:2.521452 904:0.22249949 905:0.68761718 908:0.86531842 909:0.36090934 912:4.3106284 915:0.34145215 916:5.1914783 918:4.3097558 919:3.132323 922:1.5185039 924:0.02074042 927:0.33298671 928:3.0955384 943:2.3016567 945:0.79065192 947:0.2810722 953:1.5934318 958:0.69403189 961:0.12281707 965:3.7679372 971:1.5882143 972:0.21413261 974:3.9949133 976:3.489522 990:0.28701624 1001:0.36819223 1004:4.7131467 1014:2.6766672 1016:0.11824663 1022:0.14871138 1024:1.0758369 1034:0.70374739 1038:0.59939724 1047:6.0453982 1049:2.0633073 1059:1.1538014 1060:0.92572302 1070:2.3221066 1071:1.5679854 1078:2.0685024 1081:5.4747648 1092:1.4706647 1095:3.1632359 1096:1.9115353 1117:1.8495743 1125:0.58921582 1126:0.11414638 1130:4.4292159 1134:0.66207516 1140:0.92933875 1154:0.72248769 1159:1.008831 1163:1.231393 1165:1.1329222 1168:2.6596017 1169:0.15651956 1170:6.1618104 1175:2.2108684 1185:0.073890448 1186:0.8443228 1187:1.0412096 1188:1.3717873 1193:5.2316403 1199:1.8280853 1206:2.5450573 1219:2.8458009 1220:3.2329319 1221:5.5758324 1223:1.4129553 1234:0.78335488 1235:0.24515092 1237:2.0571556 1242:3.6900244 1251:0.90294033 1252:1.4983597 1260:0.50302428 1261:1.1467081 1271:1.9409114 1274:2.8732874 1276:1.131753 1278:2.2461596 1281:0.29482302 1286:5.325151 1288:0.30997059 1291:1.1801783 1293:1.6797137 1299:0.45137885 1310:0.47147781 1314:3.2696679 1317:1.5757101 1331:0.28392172 1333:1.2254889 1336:2.1092861 1341:0.9378047 1344:0.59942716 1349:2.170187 1361:0.16134721 1366:1.3379501 1369:1.5103416 1372:2.6446834 1374:3.4369917 1375:0.028507292 1381:0.17485103 1387:0.95744056 1393:1.6154518 1395:1.4965477 1406:3.6460075 1408:1.4505479 1409:2.1402416 1410:0.88868499 1411:3.2892008 1412:2.0716014 1419:2.1379607 1424:1.8967742 1428:3.6061409 1437:2.7317076 1441:0.12892774 1448:0.35962403 1454:0.57077008 1465:1.4422811 1467:0.75486094 1474:0.48068321 1476:6.0247097 1483:1.3117603 1484:4.5609775 1487:0.12017301 1488:2.7758749 1489:0.14123586 1495:2.5724683 1502:2.7674394 1504:0.31775635 1513:1.7978022 1515:2.1196365 1520:3.6404121 1523:0.43549651 1526:1.346056 1528:1.8482883 1544:0.43247408 1546:1.1578026 1548:0.23291492 1552:1.3936968 1565:0.48708278 1567:1.0449646 1568:2.8680537 1569:0.2054044 1573:1.7044894 1577:1.6291821 1580:1.0584921 1586:4.3869514 1587:0.25103083 1588:1.1185786 1597:2.9233048 1604:5.1667504 1605:2.1938486 1613:1.4307306 1629:0.82876998 1636:1.728236 1641:0.031800538 1647:7.116467 1648:0.90751743 1658:0.1461212 1659:0.45467985 1661:3.7952738 1663:1.4597543 1667:1.8787706 1683:0.36592335 1690:0.98447794 1691:4.0181036 1701:0.5771305 1712:0.80820107 1714:0.29093769 1720:4.1515942 1726:0.94329429 1727:1.0317792 1728:3.2921071 1730:1.6919339 1732:5.2568169 1738:1.0983455 1740:0.21309561 1746:1.8637396 1750:0.68250799 1751:0.13200489 1758:4.3147082 1762:1.8071573 1764:0.30175018 1765:0.11267232 1767:3.8001466 1778:1.8912531 1783:1.4841211 1790:2.183753 1805:1.1124094 1806:4.1375828 1813:3.6217883 1819:0.049151607 1822:0.76865482 1831:0.1222682 1832:5.5885715 1842:0.45321411 1843:0.45694152 1845:0.7246173 1846:6.9687581 1849:1.3386748 1852:1.8820769 1854:1.9575734 1856:0.5323872 1857:0.57763052 1874:0.72343779 1877:1.2660351 1879:0.19950508 1880:1.5897746 1890:1.6003637 1893:1.2885801 1895:1.1123761 1900:4.6485825 1901:4.3451271 1908:0.99266511 1911:2.2430449 1923:0.18923193 1925:1.7337407 1928:0.65927064 1938:0.35885051 1942:2.6979475 1943:1.7727573 1955:0.59787875 1966:0.0850223 1972:1.7743323 1973:1.4682635 1974:0.67680854 1977:2.7126157 1984:2.3790545 1998:0.065397575 1999:0.92818463 2004:0.82853597 2005:1.125675 2020:0.26577023 2022:0.087420106 2026:0.23811865 2028:0.81464905 2035:0.84099013 2038:2.9311135 2042:1.0552608 2048:0.82873958 2053:1.7518492 2058:3.9956977 2070:3.6425695 2081:0.14927502 2085:4.1764231 2094:0.16538075 2110:0.1875554 2117:1.7464432 2144:0.18255556 2153:1.9401038 2164:1.8904109 2166:0.39953351 2177:5.8335261 2178:0.71906507 2186:0.39315489 2187:5.8439646 2188:0.67393684 2190:3.49423 2196:1.7685676 2215:0.39939883 2223:0.70539188 2226:3.0060189 2229:0.92194557 2230:0.18915278 2233:1.0477228 2239:0.54204571 2240:0.78784049 2241:4.0004601 2244:1.407599 2254:0.64804554 2255:0.41390672 2271:0.61444306 2274:0.73612112 2275:1.2939994 2280:2.3896146 2286:1.3967881 2292:0.08782357 2294:3.8040638 2298:0.53558433 2307:1.6492404 2312:2.8135877 2317:1.2705615 2318:1.2336249 2320:0.19551501 2324:0.61893654 2329:4.1921449 2340:2.574609 2343:3.8191359 2353:0.57995868 2358:1.3393508 2360:2.4092059 2372:2.0463958 2376:0.057085872 2381:0.96766829 2390:0.40214488 2404:0.178253 2416:0.9849993 2417:0.52398956 2420:2.3337083 2423:4.4818692 2424:0.56294137 2434:0.39235064 2435:6.1720753 2446:0.72163677 2450:2.1634514 2457:0.93822759 2459:1.9009969 2466:0.10188629 2470:3.9848249 2486:1.15061 2507:4.6948199 2508:1.4349098 2509:1.0812156 2516:0.52677798 2518:0.75715184 2523:0.040676594 2526:1.0885642 2530:0.63133132 2535:0.40247005 2536:0.15682709 2537:0.8926692 2545:1.4264981 2551:0.45715404 2558:1.026397 2560:1.3286883 2561:9.3659029 2563:0.7015301 2570:0.64751005 2576:0.64868039 2588:0.92039216 2589:1.0980463 2590:0.18364751 2594:2.3376002 2595:0.16441056 2598:0.61607015 2600:0.042573094 2601:1.6858716 2610:2.1836879 2611:0.80226332 2621:3.5698888 2628:1.3070006 2634:3.1763122 2636:3.7393985 2637:0.19122484 2642:2.6591687 2647:0.37604579 2651:1.2279019 2654:1.1568542 2655:0.83029419 2659:2.6365826 2667:2.0020652 2674:0.9961822 2687:0.27869833 2688:1.0316908 2689:1.2883385 2690:4.643919 2693:1.2785271 2695:1.1938628 2707:0.036668912 2708:2.6892538 2718:1.4655352 2721:2.6015043 2727:0.73914754 2736:1.4265056 2738:1.3846989 2745:1.1905752 2750:0.16461384 2760:1.5011973 2765:1.9282498 2766:1.7807894 2775:0.56273693 2777:4.7665691 2786:2.0414257 2787:1.5866559 2792:2.2515509 2793:1.5301865 2800:1.711355 2805:0.33443785 2808:0.16517891 2814:3.5121639 2821:1.512688 2824:0.51360571 2825:0.24117169 2826:1.0541866 2834:2.6882906 2835:3.0560856 2836:1.8539073 2838:0.79398453 2841:2.5896382 2842:1.7195367 2848:0.0032759905 2856:1.5004753 2857:5.3087163 2864:1.7997417 2867:1.0445054 2873:1.2921975 2878:0.39744154 2882:6.301156 2885:1.7690418 2891:3.3709002 2894:3.5147693 2896:2.2963247 2903:0.42359802 2907:0.40979019 2910:1.3107797 2913:0.63854587 2917:0.22000095 2919:2.8187892 2928:3.2729359 2934:0.14573097 2937:2.3080926 2945:3.1612678 2947:0.20369537 2949:2.5129237 2950:0.29590714 2966:4.1733894 2971:2.0825255 2976:0.081522465 2978:0.59872317 2982:2.8602471 2991:1.8503458 2993:4.45366 3010:0.19797459 3012:1.9085274 3021:6.2019777 3034:1.0964487 3036:2.6743979 3043:1.0206437 3048:0.72032613 3051:0.21429679 3052:2.0502112 3062:1.4124463 3072:2.4216776 3073:1.541286 3075:1.804431 3079:1.3464875 3085:0.42774522 3094:2.56127 3110:2.0290215 3114:1.5089483 3119:0.39550292 3124:0.17015293 3129:3.8453927 3144:2.4950163 3146:3.4887195 3148:0.76546192 3150:0.13502607 3152:1.2672088 3153:0.46002385 3162:0.69579369 3163:3.8464403 3170:1.2038597 3183:0.50366479 3184:1.5335331 3192:0.56455779 3195:1.6446723 3198:0.69031841 3199:1.9367236 3202:1.9312199 3209:0.12313998 3215:7.2304621 3235:0.86344355 3246:0.93325746 3247:0.16403806 3258:4.0580692 3260:1.4577171 3268:2.5222585 3275:1.2559402 3282:1.4145943 3286:0.87218475 3291:4.199441 3294:2.898114 3307:0.10409039 3310:2.7345836 3314:0.039637879 3321:6.2380085 3323:1.4119818 3324:1.6602322 3331:2.4545391 3333:0.41481328 3334:1.3316218 3335:0.926063 3344:0.59631723 3347:0.53372175 3349:1.4608023 3354:1.1849172 3364:0.19391249 3365:0.29717895 3378:0.61633885 3382:3.2654479 3387:0.57963026 3390:0.26249626 3394:0.50778526 3396:0.10570803 3397:1.4182796 3402:0.060092267 3413:4.1820984 3422:0.20192386 3431:1.9441172 3436:2.345494 3438:1.3268452 3442:2.7567153 3445:4.7020516 3446:2.3418379 3452:3.8791988 3456:0.29892507 3465:1.0273408 3467:1.1396291 3485:1.51972 3489:1.3116415 3490:0.24455982 3491:2.1375515 3493:0.97491646 3494:3.5042481 3496:3.7849205 3504:0.84581482 3509:1.0412655 3513:1.468513 3521:0.62425399 3534:0.4839071 3536:1.2678072 3537:1.62193 3539:4.1079335 3540:3.3834922 3543:0.13831022 3544:1.6170108 3548:0.20188141 3549:1.8324386 3554:0.24650237 3555:0.3886764 3556:1.4091551 3563:0.25489655 3564:0.58833051 3576:1.6716841 3577:0.5541656 3578:3.652988 3580:0.51976001 3582:2.9823723 3585:3.4499948 3586:0.81194961 3589:0.19399786 3598:0.83406919 3601:0.95300066 3602:3.6977353 3604:2.8813846 3606:1.8517718 3608:0.9033922 3614:2.5088117 3618:0.97065789 3619:0.094637632 3621:2.8438454 3624:1.4571733 3626:1.0004392 3627:0.93542087 3629:0.82307696 3631:2.833282 3632:0.5195806 3638:1.8172591 3644:4.4006619 3650:2.6762216 3667:0.80627155 3670:0.68515891 3675:3.2811389 3681:0.40788871 3683:0.82980943 3687:2.722508 3689:0.41837209 3690:1.6548457 3692:1.1024365 3697:0.61242563 3698:1.6162264 3703:0.42203641 3715:0.29451159 3729:3.4502945 3732:6.8909373 3734:1.3053781 3747:1.810155 3748:1.1985158 3751:0.65238833 3753:0.23442736 3756:0.8835274 3758:1.5713189 3763:1.0421345 3765:0.5048939 3766:1.8140923 3768:0.8006866 3769:1.0466766 3777:2.4451163 3778:3.4768474 3785:0.61345202 3793:2.4606888 3802:1.020864 3806:2.7135243 3808:0.82380128 3811:2.7603106 3819:2.3725877 3824:1.342876 3826:1.2204629 3837:1.506622 3845:0.70898449 3857:0.045589767 3867:4.871099 3872:4.388608 3877:2.8752747 3880:0.62908089 3882:3.0182168 3888:0.46815929 3891:2.6044216 3892:2.45172 3893:0.78915358 3903:3.74683 3907:5.2816148 3910:0.33832127 3918:0.40792373 3923:0.075489081 3929:1.2501332 3941:3.407059 3942:0.7912544 3957:3.6344693 3974:0.17295861 3984:1.6956526 3988:3.4677916 3990:3.2617235 3995:0.65649778 4002:0.4384619 4003:0.10519329 4004:3.5949309 4005:3.4232113 4010:2.4880714 4018:0.83863372 4020:0.5204215 4021:1.3009424 4030:2.3832171 4032:1.2763685 4033:3.1476953 4037:0.35225761 4038:2.1926155 4058:0.90556049 4063:1.4774183 4070:2.9380138 4072:0.34766144 4074:0.070070833 4076:5.0262575 4079:0.68162131 4084:2.8051827 4090:0.49291375 
0.07486477989730371 4:1.122784 9:5.4329329 19:0.093614668 23:0.12508851 40:3.8804488 49:0.6579538 54:4.2678261 60:0.66309029 66:1.9659808 68:0.78142673 77:2.6448312 78:0.088361621 90:1.5812254 91:1.4083991 109:0.88873893 113:0.96259755 115:1.5140877 131:1.3605418 147:3.1285129 152:1.7028682 159:3.404773 167:1.8675356 172:2.0863683 173:0.017536014 179:1.2151047 181:2.1458964 190:0.096500099 191:0.96042132 200:6.2466726 210:6.8386045 217:2.4138391 221:2.449738 232:0.19239956 242:0.41407329 247:7.9053941 248:4.8752952 252:4.8299799 256:0.55787957 258:0.1394749 263:0.087135673 267:0.84581333 282:1.7203438 288:1.0100896 292:6.974432 300:2.8077641 312:1.179781 319:0.39801955 323:0.76341343 324:4.7796092 329:0.37052333 334:0.72174531 335:0.89825594 349:6.8820333 350:1.3345498 353:3.3034513 354:0.33562908 363:5.9448309 365:3.240526 367:2.594538 375:0.76321584 379:1.7865362 384:4.0542641 390:0.68221176 391:0.036156237 396:3.8322756 404:3.7797086 414:0.11352357 416:0.32843745 420:0.8786813 421:0.16733015 431:5.4192667 442:0.043789789 463:1.2444763 466:1.8046298 468:1.8733702 472:3.0272384 488:4.358582 504:0.39372653 514:0.13802235 515:5.3163071 524:1.1636578 528:0.44567686 529:3.6286318 535:0.7032932 538:3.06738 545:4.1909723 562:0.17924571 567:3.1343725 573:0.03733477 575:1.210767 576:2.8248982 578:5.4644032 581:1.1281753 583:4.4570813 584:0.0010288805 592:6.6361632 595:1.077111 601:0.93689847 603:0.7715438 606:2.932478 609:4.299356 612:3.1855881 625:0.46384326 635:2.6386373 639:3.6247203 642:4.020577 651:0.65689552 654:4.5230641 657:6.0079603 661:1.5564235 664:3.5134659 675:2.9217405 682:3.9516985 687:7.3382211 694:0.65306729 703:1.0137897 705:0.78422582 711:3.8943822 721:6.009429 723:0.97210729 724:0.55390823 744:0.034495443 748:0.38840848 749:5.0700951 751:2.1116061 755:2.1210902 763:0.32071874 764:2.0462723 777:0.24812883 782:2.7905087 785:1.45918 789:1.5146236 792:3.7971125 798:6.0559092 799:0.46886641 804:3.8734658 812:2.5631623 817:0.16388266 826:0.058825627 830:5.2902799 841:0.99321228 842:7.7893219 853:1.4318068 854:1.6111922 857:0.22234622 866:2.1829576 873:3.3698885 876:2.8227348 885:1.5681951 889:1.1934772 895:0.89844626 899:2.3046763 903:0.74119425 904:0.12134755 912:4.7313523 915:1.0784676 916:4.9595294 918:3.6623399 919:5.134038 922:0.93452156 928:4.02351 932:2.2816412 938:0.39986444 943:1.3572755 953:1.3006201 958:0.4064084 965:2.4032903 966:0.28810859 968:0.6590724 971:0.33652368 974:2.8033381 976:2.0976663 989:0.29175389 994:3.249191 1001:0.1506831 1004:1.9627161 1014:1.9105346 1018:1.2974408 1022:1.830838 1024:3.9159315 1038:0.41910082 1041:0.81517565 1047:8.2107735 1049:2.3125744 1050:1.8950472 1051:0.17668718 1059:0.28414139 1064:0.79632783 1065:1.4703865 1070:3.8071418 1071:1.4975418 1081:5.9836349 1095:5.4473004 1096:2.2125735 1107:0.096309811 1117:0.92078567 1125:0.72954774 1126:1.0687218 1130:5.6289239 1134:0.11895704 1154:1.0680307 1163:0.93757987 1165:0.84716356 1168:3.1810491 1170:5.6217918 1173:0.29786313 1174:0.34067449 1175:1.3571113 1187:0.71336496 1188:1.7625959 1193:6.8084869 1195:0.067146152 1199:2.3167393 1200:0.14250565 1206:1.7761631 1219:1.4850643 1220:0.30212075 1221:2.747695 1223:3.9383934 1235:0.23129308 1237:4.4076982 1242:2.3888209 1250:2.1370668 1252:0.14426075 1264:0.17110878 1271:2.3517873 1276:0.079030536 1278:0.53653419 1286:7.6990561 1310:0.39634019 1314:3.795253 1317:1.1784583 1333:0.1838806 1336:3.4334261 1341:0.89677614 1342:0.10643178 1344:0.98055947 1349:1.8559278 1366:0.57735801 1369:0.55996394 1372:4.1174684 1374:1.7965049 1391:0.7394855 1393:2.7972121 1395:4.3343759 1406:2.4806135 1408:3.9644122 1409:2.262712 1410:0.55053818 1411:5.0360222 1419:0.12226033 1424:2.4372201 1428:1.7770214 1437:1.8512461 1441:0.50340176 1448:0.3377198 1454:2.1874168 1464:0.54575741 1465:0.66410077 1467:0.94021243 1476:5.8399162 1484:9.3236246 1487:0.39187658 1488:5.2661743 1489:2.3800583 1502:1.1157594 1504:0.35808823 1515:2.4930115 1520:3.5884902 1522:1.9731374 1526:0.62420833 1528:0.30835021 1546:2.1140893 1552:2.2356198 1565:0.062762916 1567:2.9107385 1568:2.6261458 1573:1.0589002 1577:2.3078752 1580:0.36817196 1586:6.9026742 1597:1.8048561 1602:0.58829367 1604:3.324012 1605:3.0246654 1610:1.3600607 1613:1.5117376 1629:0.073630132 1636:2.7286258 1647:7.4438238 1648:1.5423889 1658:1.7438155 1661:5.8582516 1663:2.853121 1667:0.87653166 1678:0.14663517 1683:0.10724261 1690:0.67264766 1691:7.2578969 1701:0.075192422 1712:0.79510164 1720:2.5957153 1728:1.3537886 1732:6.9921455 1733:0.58378863 1738:0.83255494 1746:3.8308468 1751:0.10161111 1752:0.73454475 1756:0.56900185 1758:1.095114 1762:3.179379 1767:1.9506673 1774:0.23087665 1783:2.5989037 1786:1.0338733 1790:0.0014734566 1806:5.3492723 1813:4.2099853 1819:1.6238345 1831:2.0115614 1832:4.1741238 1842:0.97569108 1845:1.8273585 1846:4.9736834 1849:2.604512 1852:0.17968643 1854:3.8831067 1860:2.1916709 1874:2.0063403 1880:1.9768972 1893:2.2712991 1895:0.24538064 1900:2.3988259 1901:5.4407282 1905:0.30980599 1908:0.37336084 1911:3.5161686 1918:0.79140687 1925:0.044434935 1928:2.1387601 1942:3.2731595 1943:0.38809228 1955:2.4108319 1960:3.2660046 1966:2.5574806 1968:0.26202184 1972:4.0110464 1973:0.20758025 1977:3.4989817 1984:4.1887302 1991:1.117511 2004:0.92834729 2026:1.4586934 2028:0.36220166 2035:3.3301685 2038:6.6204171 2042:0.9974184 2053:3.4556561 2058:0.90815639 2070:6.8382473 2081:1.0788449 2085:4.0537567 2094:1.7599024 2101:1.9927225 2102:0.92090625 2117:2.5565705 2135:0.75029314 2157:1.2131557 2164:2.8623493 2174:1.7739516 2177:3.9735129 2186:0.0054441392 2187:6.1685128 2190:3.1284983 2196:0.61911976 2218:1.7313366 2226:4.0511451 2229:0.095336825 2233:0.29173386 2236:0.30053338 2241:2.5842545 2244:0.25431636 2261:0.84137779 2271:1.9533746 2274:3.7295928 2275:4.7354913 2280:1.0110909 2286:3.8519397 2294:3.105361 2307:2.6390977 2312:3.224726 2317:1.9118495 2318:2.79128 2329:6.1725154 2333:0.53800154 2338:2.7471974 2340:3.6588821 2343:3.2412307 2353:1.3156813 2357:0.11787234 2358:2.9134526 2360:3.0093336 2372:1.0638697 2381:0.023177356 2416:1.4781642 2420:1.608269 2423:4.527113 2424:1.1705039 2434:3.5610175 2435:4.5699697 2446:3.2114224 2450:0.75291258 2456:0.30788898 2459:0.8003664 2463:0.036099851 2470:6.2181034 2481:0.74351293 2485:0.33654538 2486:0.90790164 2494:1.0781697 2497:0.1506169 2507:5.3050032 2508:0.31550014 2509:0.31637233 2516:1.5967095 2523:1.1473774 2525:0.99801123 2526:0.56399715 2530:1.6700284 2535:1.8901771 2551:3.5153456 2558:1.4426994 2560:2.2031894 2561:12.080829 2563:1.1578312 2568:1.7661363 2576:1.7304869 2577:0.86930847 2590:0.52935863 2594:3.6566732 2598:0.22277379 2599:0.496261 2601:1.8074329 2603:0.1966331 2610:2.9846537 2611:2.8102498 2614:1.0607567 2621:3.4683735 2623:0.68569469 2634:1.9038204 2636:3.1493473 2637:2.9307668 2642:3.1139798 2647:0.49547857 2654:0.044813395 2659:1.8298391 2660:3.959578 2667:1.6257781 2669:1.2588381 2670:0.97921276 2681:0.23920128 2690:3.7365327 2693:2.3325813 2695:0.7915768 2714:1.5223224 2718:3.5099313 2721:4.3531079 2727:0.22810072 2741:0.35179543 2745:2.6997304 2760:2.3053474 2765:0.3003298 2766:4.5181704 2777:5.7285919 2786:2.0389771 2787:5.2641144 2788:1.6449186 2792:1.8455025 2800:0.54109657 2805:1.2043749 2808:1.2329357 2814:3.4557326 2817:0.84869587 2821:0.59262288 2824:1.9977494 2834:4.6160855 2835:0.32884473 2836:3.1909146 2841:1.4205837 2842:0.15629382 2856:0.74660856 2857:4.7855034 2864:1.7148858 2867:0.69768655 2874:1.760699 2878:0.35553756 2882:5.6940265 2885:0.94187599 2891:3.5017803 2894:5.6847658 2896:3.7843091 2903:1.0674802 2907:0.78602701 2910:1.7838041 2913:0.56075013 2916:0.88329744 2919:5.2389741 2920:1.5297073 2928:3.5131016 2934:1.1946931 2937:3.1383307 2945:3.7072833 2947:2.184226 2949:2.8588686 2950:0.68251753 2957:2.7639458 2966:4.6842985 2971:1.5310626 2976:0.84300244 2977:0.71628082 2982:3.366138 2990:0.37028667 2991:2.9044287 2993:5.8803401 2997:0.27711409 3000:0.30046335 3010:1.0400186 3012:1.728756 3021:5.9994473 3022:1.3343078 3034:1.1659601 3035:0.24360579 3036:1.7539152 3043:2.6994627 3048:0.30325916 3051:0.88771093 3052:3.026437 3056:0.73458409 3062:2.2929997 3068:1.2415841 3070:2.015764 3072:0.53432214 3073:1.5030422 3075:1.8539039 3094:2.0281076 3110:2.8204317 3114:0.29027167 3116:2.743335 3119:0.26543486 3132:0.2691766 3144:7.7084265 3146:3.2216125 3148:0.042227849 3151:1.6637127 3153:1.3430396 3160:0.25406808 3162:1.6109715 3163:2.6145492 3183:2.5052106 3184:1.3729044 3186:0.48363471 3195:2.3234658 3198:0.50038964 3199:1.5779248 3202:1.7149597 3215:6.4904213 3216:0.1388232 3233:0.20494279 3235:2.9324582 3246:4.8622322 3249:1.1410261 3252:0.40170228 3258:1.8125893 3260:3.8458333 3268:4.1427407 3269:0.96615934 3275:2.7889366 3286:0.46593013 3291:4.2233477 3294:4.7374516 3310:1.3162715 3314:1.1402218 3321:8.5936756 3323:3.6304357 3324:1.8462039 3331:2.8231392 3334:1.7249157 3338:0.14910991 3349:3.8684118 3365:0.62484872 3382:5.8340235 3394:0.055582613 3396:0.73918313 3413:3.4238605 3415:0.18563202 3422:1.2527758 3431:4.9380341 3436:2.0485649 3438:0.14404291 3442:1.7508924 3443:0.21428692 3445:8.0327559 3446:2.1259439 3447:0.36567825 3450:0.2817387 3452:5.6552029 3467:0.36458856 3485:2.401782 3489:3.1069572 3491:3.1109669 3493:2.4908609 3494:1.3700689 3496:2.6163597 3513:0.96091223 3517:0.15840244 3521:1.5344914 3534:0.49604088 3536:1.5439128 3537:2.5045018 3538:3.3917823 3539:5.5904989 3540:3.4373479 3543:0.20368707 3544:0.19977552 3548:0.17882758 3549:2.5198987 3555:1.0719434 3564:1.0060841 3570:1.4424324e-05 3576:2.2231557 3577:0.66070592 3578:4.3814077 3580:3.0174987 3582:2.817534 3585:2.0017316 3586:2.1229963 3593:0.27877694 3601:4.3092003 3602:3.7526646 3604:2.5935805 3606:3.2250912 3614:5.0966001 3618:0.62589467 3621:5.2254071 3624:1.6987669 3631:3.7585218 3632:2.7150958 3638:2.6103516 3650:0.15573275 3652:1.2654843 3661:0.96585506 3667:0.75305235 3672:1.8004311 3675:2.1296072 3679:1.2102609 3680:2.6026409 3687:4.4549999 3689:1.0464954 3690:0.88663381 3692:0.31486478 3698:3.1765697 3703:2.935365 3712:1.8793694 3729:4.4424829 3732:8.7102489 3734:0.73781013 3742:1.4068935 3747:0.59896511 3748:3.5756829 3749:1.3799899 3751:0.66122156 3753:0.047881901 3756:2.8259816 3763:0.95853221 3765:2.2780414 3766:1.7614449 3771:0.35755515 3774:0.34509432 3776:0.61713529 3777:2.8499806 3778:5.2641134 3785:0.72525781 3793:0.50639224 3802:0.034186922 3806:2.2149053 3808:1.0508771 3811:4.2513094 3818:0.57309222 3819:4.9021425 3822:0.0079287291 3824:3.2202792 3826:1.6373541 3837:3.2410841 3844:1.9437281 3845:0.41071522 3857:0.094471656 3867:4.9098229 3872:3.6935129 3876:0.4974871 3877:3.1051161 3880:0.86708593 3882:4.5554471 3891:3.5156267 3892:1.0317822 3893:1.4183675 3903:3.0454595 3907:6.0524487 3918:2.1575422 3923:4.5151739 3929:1.216814 3941:2.2150667 3957:2.7658417 3963:0.43950522 3984:2.42364 3988:1.1289114 3990:3.6096673 4002:1.0847266 4004:3.9515891 4005:3.0882931 4010:3.5098674 4016:0.38248855 4018:1.6400726 4020:0.44403413 4021:0.95618713 4030:6.4502969 4033:4.4216728 4038:2.7195358 4043:0.46888474 4050:0.19016674 4058:0.42209375 4063:4.5691648 4070:2.7912576 4074:0.87327123 4076:3.8145726 4079:0.75675303 4084:3.4631367 
0.7454604613974856 4:0.68042016 9:5.0887766 19:1.4859595 40:4.6646543 49:0.99900824 54:4.2154927 60:0.80224192 66:2.4018583 68:0.79277241 77:2.479244 88:0.51245511 90:1.8484569 91:1.4406767 106:0.68487775 113:0.98060316 115:0.67674363 131:1.2763429 147:3.0339456 152:1.4524224 159:3.6942949 167:1.6981089 172:1.5018427 179:0.45725095 181:3.6451058 190:0.1285944 191:0.3171066 200:6.3609252 210:6.0958142 211:0.083166361 217:2.3189442 221:1.9077951 232:0.41068122 236:0.19013019 240:0.022652745 242:0.89898449 247:7.6890054 248:4.7610087 252:5.3196201 256:0.41488284 267:0.35477173 282:2.0343463 288:1.0853872 292:6.8011522 300:4.1440868 312:1.4079098 319:0.15318781 321:0.097030103 323:0.55851102 324:5.8209186 329:0.85662013 335:1.122968 340:0.34537208 349:7.2288809 350:1.4471226 353:3.2960396 354:0.1344496 363:5.7513204 365:3.3064492 367:2.8246648 375:0.70618308 379:1.5437474 384:3.7460718 390:0.18719241 396:4.8352232 404:3.1483171 416:0.52983648 420:0.36674735 421:0.31433219 431:6.0323453 442:0.056656763 466:1.0430839 468:3.0436425 472:3.2027152 488:3.3336735 500:0.015850782 504:0.27105606 514:0.21242891 515:4.9028511 517:0.13392456 524:2.0995684 528:1.1855906 529:2.1320696 535:0.60348773 538:3.9452806 545:4.8544073 567:3.4686344 575:0.25798431 576:2.1744013 578:4.3900776 581:0.33061424 583:3.2031209 592:6.7899461 595:0.81640899 601:0.28222492 603:0.79250371 606:3.4635041 609:4.1766968 612:3.3544831 626:0.8526755 635:2.694962 639:2.3764651 642:3.5011604 651:0.86158222 654:2.7589025 657:6.4511132 661:2.2169764 664:3.5760698 675:3.0334482 682:3.1534843 687:7.7651863 691:0.65263885 694:0.30131486 703:0.78996116 705:0.65796703 711:4.2028279 721:7.1676054 722:0.092181772 723:0.88331664 724:0.24855158 748:1.0185857 749:5.7696486 751:2.0779881 755:2.1779859 764:1.8658552 777:0.089869738 782:4.1650047 785:1.2703754 789:0.44033134 792:2.9839737 798:5.4231215 799:0.34501737 804:3.0339351 812:3.5610044 826:0.11804524 830:5.6818118 841:0.90102762 842:7.0364017 853:1.2183362 854:1.2418339 857:0.22952268 866:1.9055197 873:2.9851599 876:2.74085 885:0.36524072 889:0.37133121 895:0.40175509 899:1.8233438 904:0.13128054 908:0.47371158 912:5.4934297 915:0.29252791 916:5.185822 918:4.2408237 919:4.3285522 922:0.54382533 928:3.1102202 931:0.51662838 932:2.2265348 938:0.66843516 942:0.087411582 943:2.014297 953:0.98167324 958:0.18157265 965:2.3752582 966:0.55400145 971:0.86783946 974:2.6536934 976:1.6720495 994:2.7965882 1001:0.26205122 1004:2.1686943 1014:1.2045878 1018:0.49408263 1022:1.0055723 1023:0.75506294 1024:3.5872779 1041:0.8275615 1047:9.5857477 1049:1.2320589 1050:2.1744893 1064:0.56034017 1065:2.3741274 1070:3.8431911 1071:1.5373178 1081:5.8016434 1092:0.79560727 1095:5.3747563 1096:3.24248 1099:0.14924473 1117:0.86468327 1125:0.81351668 1126:0.96905053 1130:4.4678884 1163:0.45950854 1165:0.018540233 1168:2.0992167 1170:5.5214577 1173:0.49423867 1174:0.92966098 1175:2.2131646 1188:1.1884723 1193:6.0949206 1195:0.90128994 1199:2.2498243 1206:2.0938933 1208:0.90371293 1219:2.5821066 1220:1.0216238 1221:2.5832605 1223:4.0807858 1235:0.98072469 1237:4.0546384 1242:2.7183745 1250:1.5804045 1251:0.33298799 1264:0.6450218 1271:1.5719616 1278:0.70906627 1286:7.8671007 1304:0.049267143 1310:0.4404448 1314:3.9873528 1317:2.8493907 1336:4.3314247 1341:1.8338193 1342:0.25130659 1344:1.6216871 1349:1.5787103 1366:0.19230905 1369:0.9743945 1372:3.6124394 1374:0.080895782 1387:0.16286874 1393:2.9619117 1395:4.9548841 1406:2.609833 1408:3.6946356 1409:2.0683579 1410:1.6335735 1411:5.2394161 1419:0.30577183 1424:2.2035465 1428:1.5705063 1437:0.42080247 1454:2.5710676 1465:0.47517005 1467:1.1460109 1476:6.1117439 1484:9.2631674 1487:0.43549335 1488:5.4256277 1489:2.6995494 1502:1.4202979 1503:0.16928785 1515:2.589386 1520:4.5166111 1522:2.2514334 1526:0.97287905 1544:0.10171765 1546:2.7897835 1552:1.9486188 1567:4.1752234 1568:2.7823424 1573:0.59936857 1577:3.2274368 1580:0.17557135 1586:6.5261064 1597:1.7261838 1604:2.5433364 1605:3.0715508 1610:0.42814699 1613:0.90153044 1629:0.29818723 1636:2.5846572 1647:6.2732992 1648:1.4406815 1658:1.7771304 1661:7.4996858 1663:2.5477598 1667:0.47973636 1678:1.2106841 1683:0.52381468 1690:0.24969545 1691:7.4060197 1712:1.5843461 1720:3.7951419 1728:1.5954405 1732:5.08181 1738:1.6118428 1746:4.466002 1752:0.74920619 1756:1.0356292 1758:1.763248 1762:3.9720726 1767:1.0535244 1783:1.4312892 1786:0.078476191 1790:0.590473 1804:0.20148629 1806:6.3060498 1813:4.9804721 1819:1.138484 1831:2.022557 1832:4.1809845 1842:1.9891095 1845:1.6110883 1846:5.8818345 1849:4.5762453 1852:0.87340778 1853:0.010464907 1854:4.5476432 1860:3.1178198 1874:1.234719 1880:2.5977488 1893:1.5976828 1900:2.1971002 1901:5.7119007 1905:1.7549255 1908:0.014678463 1911:3.3493943 1918:1.6530298 1925:0.52927554 1928:2.6253998 1942:2.7161593 1955:1.5470585 1960:2.7288229 1966:2.712393 1972:3.6250885 1977:2.2116375 1984:3.7116973 2004:0.95603627 2009:0.84204149 2026:1.7849936 2028:0.06852489 2035:3.3945916 2038:7.1608806 2042:0.93676567 2053:4.5316572 2058:0.44610626 2070:6.309917 2081:0.55643547 2085:3.0567422 2094:1.7109238 2101:2.686434 2102:0.71810514 2117:2.9719949 2135:1.2086325 2157:2.3022277 2164:2.4684379 2174:1.5087951 2177:4.2823224 2178:0.71697915 2186:1.3777453 2187:4.9628487 2188:0.35748881 2190:2.442241 2196:0.7345323 2218:1.8443177 2226:3.3066828 2236:0.76608384 2241:3.3593087 2259:1.4380461 2261:0.56166846 2271:1.8429759 2274:4.1959004 2275:3.8592074 2280:0.93207681 2286:4.0293803 2294:3.468823 2307:2.7591822 2312:2.7147279 2317:1.5707282 2318:2.4947467 2324:0.27994552 2329:6.1343899 2333:0.67168796 2338:2.3828318 2340:2.7120981 2343:4.9149923 2353:1.0157473 2357:0.028051928 2358:2.4744368 2360:2.2889361 2372:0.77680594 2416:2.4136176 2420:0.93681395 2423:5.0432806 2424:2.4935784 2434:3.9389851 2435:4.187777 2446:2.9874849 2459:0.62241185 2463:0.4640469 2470:4.9744821 2481:0.56712657 2485:1.1921935 2486:1.0880958 2494:1.3636843 2507:5.004878 2508:0.12407233 2509:0.73164588 2516:1.2867715 2520:0.13586408 2521:0.41408241 2523:1.4227232 2525:2.1636219 2526:0.14206833 2530:2.3664207 2535:0.5884577 2551:4.3239546 2558:0.57505745 2560:1.3687685 2561:12.926208 2563:1.5735257 2568:1.9760675 2576:1.0882809 2577:1.9134307 2594:3.0732591 2599:0.71425271 2601:2.3704245 2603:0.69529855 2610:3.4125051 2611:2.6460798 2614:0.75455433 2621:3.8570118 2623:0.062402397 2634:1.5170208 2636:2.759192 2637:2.7429743 2642:3.8269548 2647:0.027003765 2659:1.0210387 2660:3.3379674 2667:2.4549513 2669:0.99483913 2670:0.88238537 2681:0.17319909 2690:3.2957842 2693:2.752183 2695:0.52420527 2714:0.55694175 2718:4.1108112 2721:4.3170195 2741:1.3140246 2745:3.3087838 2752:0.47630364 2760:1.8016317 2765:0.28067976 2766:3.9099348 2771:0.36742565 2777:5.6092582 2784:0.17468752 2786:0.68311548 2787:6.1336393 2788:1.3929429 2792:1.4173857 2793:0.21318406 2805:0.85502476 2808:2.4904325 2814:3.311672 2817:0.32070601 2821:0.24630371 2824:1.2154988 2834:5.2879567 2835:0.046825379 2836:1.6611338 2841:1.6809431 2842:0.23466714 2856:1.5300148 2857:5.341599 2864:0.78132451 2867:0.44136414 2874:1.9818597 2882:5.604095 2885:0.42517799 2891:2.9587061 2894:5.4611073 2896:4.718821 2903:0.92497241 2907:0.013236731 2910:3.1072564 2913:0.53559494 2916:0.37537044 2919:5.2444992 2920:1.466774 2928:2.193346 2934:1.4514277 2937:2.8718085 2945:4.2774301 2947:1.8131518 2949:3.0138974 2950:1.7094442 2957:1.895587 2966:4.0831037 2971:0.92478633 2972:0.018737882 2976:0.47768435 2977:0.74931717 2978:1.0515708 2982:2.9453769 2991:2.5714679 2993:5.9257731 2997:0.28678244 3000:0.15666881 3010:1.100395 3012:1.1994666 3021:5.0070143 3022:1.5227293 3034:0.45035589 3035:0.32335228 3036:2.39149 3043:1.9852536 3051:1.1630601 3052:2.8388927 3056:0.034515418 3062:2.2665048 3068:1.2469059 3070:1.2569629 3072:1.8068175 3073:2.8063092 3075:3.2142329 3094:2.7561891 3105:0.29062831 3110:2.129842 3114:0.22745761 3116:2.9362113 3119:0.75010645 3144:7.8131413 3146:3.3827553 3148:0.60588306 3151:2.2524011 3153:0.081581265 3160:0.20123869 3162:0.25914609 3163:2.7748225 3183:2.8700039 3184:1.369073 3195:1.8294022 3198:1.8353028 3199:1.7219402 3202:1.0601937 3215:6.864852 3216:0.22761755 3235:3.6136177 3241:0.60502559 3246:5.5228004 3252:0.10369706 3258:1.9299567 3260:3.1136861 3268:4.2038989 3269:0.090161085 3275:2.7679667 3282:0.86722869 3284:0.041112423 3286:1.4258945 3291:4.0735593 3294:5.0180902 3310:0.5981648 3314:0.39836261 3321:7.215601 3323:3.8188708 3324:1.9302812 3331:3.1567171 3334:2.0932901 3335:0.1404402 3349:4.8424935 3365:0.30842459 3382:6.4786901 3384:0.084170461 3396:0.33263633 3413:2.3992496 3415:1.4419237 3422:1.1356375 3431:3.6642721 3436:1.6754634 3442:3.1314135 3443:0.11349741 3445:8.2794037 3446:2.3540549 3447:0.084802389 3452:5.1143255 3467:0.064463347 3478:0.12808068 3485:0.92459053 3489:1.1598873 3491:3.5469162 3493:2.7973151 3494:0.27799004 3496:3.0506761 3501:0.15403517 3513:1.2730135 3521:1.2570504 3534:0.024246424 3536:1.0437479 3537:2.8655336 3538:2.1335285 3539:4.8223276 3540:3.8663378 3543:0.74002469 3544:1.7524128 3548:0.21570128 3549:2.3321931 3555:1.1160034 3564:0.65066564 3576:1.2990471 3577:0.10426238 3578:3.2870004 3580:2.971 3582:3.3986971 3585:2.4791751 3586:1.4469516 3592:0.84166825 3593:1.309638 3601:4.616015 3602:3.4975147 3604:2.6267352 3606:2.5479605 3614:4.9408021 3618:1.5800076 3621:5.2851419 3624:1.5379224 3631:3.5351472 3632:2.955735 3638:2.7456856 3650:0.84682739 3652:2.0470548 3657:0.10730425 3661:0.787292 3667:0.98416603 3672:2.3992956 3675:1.4029927 3679:1.6343693 3680:1.3944864 3687:3.768255 3689:0.7471267 3690:1.4003862 3696:0.1170634 3698:2.5630326 3703:2.2435272 3712:1.0161482 3729:4.5790091 3732:8.6219301 3734:1.697935 3742:0.3194682 3747:1.1242398 3748:3.2644663 3749:1.1186116 3756:1.7088559 3758:0.24085748 3765:2.1742632 3766:1.6908659 3771:1.1404049 3774:0.51886678 3776:1.0865449 3777:2.4598515 3778:5.2892118 3785:1.8018234 3806:1.9546043 3808:1.2791437 3811:4.6141405 3818:0.4859603 3819:4.3129525 3824:2.4505715 3826:2.7310016 3837:3.722368 3844:1.6590316 3845:0.19298297 3867:5.5576138 3872:4.9540434 3877:4.3223686 3880:1.298381 3882:3.45941 3891:3.3669555 3892:0.76550162 3893:1.0168327 3903:2.4188774 3907:6.1359186 3918:1.4724473 3923:5.3197961 3929:1.1853093 3941:2.6539109 3957:3.6033514 3963:0.10582688 3974:0.19730136 3984:3.1742058 3988:1.3006477 3990:3.8708563 4002:1.2999985 4004:3.7387533 4005:3.6973605 4010:3.4140801 4016:0.72148955 4018:1.5194628 4020:0.50624752 4021:1.5067368 4030:6.9317393 4033:4.9046926 4036:0.42437726 4038:2.7315292 4043:0.33371592 4058:0.63977933 4063:4.777555 4067:0.10238276 4070:2.3914907 4072:0.39280125 4074:0.88285446 4076:3.1138093 4079:0.30840743 4084:2.3296037 
0.6944918191947503 4:0.014374256 5:0.65306103 9:4.9143209 19:1.48408 40:4.3072791 54:3.5620532 60:0.28852537 66:2.477479 77:2.2464023 88:1.3730718 90:1.7965882 91:1.9717206 106:0.50318563 109:0.68334031 113:0.31633085 115:0.8497411 128:0.33448714 131:1.29479 147:3.9607847 152:1.363745 159:4.4939575 167:2.1188099 172:1.4090602 178:0.036438912 179:0.65960312 181:3.3576608 190:0.51683795 191:0.52917218 200:5.6816564 209:0.0047079474 210:5.8936405 211:0.1353955 217:2.8662727 221:1.6532758 232:1.8552442 241:0.72179306 242:0.46657687 247:7.7262039 248:3.9173627 252:5.1360855 258:0.5177958 267:1.4587778 282:1.027711 288:0.84404945 292:6.6417947 297:0.26112092 300:4.1406546 312:1.1690276 319:0.8666507 323:1.4696734 324:5.3522315 326:0.36301208 335:1.2803357 349:5.2024531 350:1.037868 353:2.282409 354:0.62697548 363:5.0725694 365:2.4377353 367:2.2416556 375:0.57684338 379:1.9387488 384:3.1849546 396:5.18435 399:0.1872628 404:2.415957 420:0.46332619 431:5.8610997 442:1.1394258 460:0.65009511 466:0.2172876 468:2.6879857 472:2.9617443 488:2.922379 514:0.33377105 515:3.3946791 517:0.065890998 524:2.4514408 528:0.94282627 529:2.0197122 535:0.80252278 538:3.4260244 545:4.2424564 549:0.46679816 553:0.69920921 567:2.8300157 576:2.5637219 578:3.7150872 581:0.68208444 583:2.9827054 592:6.9823775 595:1.1465225 601:0.0016899407 606:3.267386 609:4.7440629 612:3.6330004 614:1.077708 626:0.6323086 635:3.1541815 638:0.0012136102 639:1.902298 642:3.201277 651:1.159508 654:2.315655 657:5.4733796 661:2.632829 664:3.698365 675:3.6787193 679:0.52304316 682:4.5171909 687:6.6263037 694:0.5255056 701:0.85234553 703:2.0233612 705:1.4199848 711:3.2136765 721:7.6485629 723:1.143712 724:0.63076603 748:1.4678706 749:4.5648222 751:2.235661 755:2.0535972 763:0.13893032 764:2.5067658 776:0.023128688 777:1.4635868 782:4.486939 785:2.0248952 789:1.6285866 792:1.9050874 798:4.7514706 799:0.13530278 804:2.6587889 812:3.729722 830:4.8559146 841:0.3044042 842:6.4694014 853:0.35814863 854:1.1545999 866:2.5420067 868:0.39829731 873:2.5599077 876:2.5647917 880:0.24911848 885:0.3123076 899:1.6899668 904:0.88564843 908:0.11094886 912:5.5207844 915:0.30646774 916:4.2374415 918:4.4866543 919:3.1004689 922:0.75141174 928:2.7202382 931:0.47073328 932:3.1815617 938:0.22578394 943:3.1386571 945:0.96163535 953:0.60090554 958:0.60392773 959:0.39295027 965:1.9276474 966:0.97862709 971:1.4485493 974:2.0806563 976:1.7542063 994:2.9173985 1004:1.3991799 1014:2.2667091 1018:0.32971114 1022:0.34636793 1023:1.1402119 1024:3.5109921 1041:1.0564406 1047:9.2644205 1049:1.361114 1050:2.128494 1058:0.23453133 1059:0.20418313 1060:0.67180204 1065:3.6180496 1070:2.8987718 1071:2.0377405 1081:5.1052003 1092:0.6986711 1095:4.1950893 1096:4.5541315 1126:1.4614476 1130:4.1315494 1134:0.32126272 1163:0.15474445 1165:0.88381267 1168:2.2961283 1169:0.072945744 1170:4.588419 1173:0.47865707 1174:1.2002946 1175:2.2864351 1187:0.99085826 1188:1.9718125 1193:5.5246358 1195:0.63977176 1199:1.6979083 1206:2.3747134 1208:1.5469003 1217:1.3481655 1219:3.0775611 1220:1.085297 1221:1.1512501 1223:3.956208 1226:0.64955837 1235:0.76562393 1237:3.6485085 1242:3.5329123 1250:2.3595896 1251:0.98616451 1271:0.77248776 1278:0.63593781 1286:7.3479028 1310:0.77306044 1313:0.21117789 1314:3.3233173 1317:1.3413483 1336:5.4738264 1341:2.2080176 1342:0.045317233 1344:1.5764654 1349:1.0333704 1361:0.55594391 1369:0.10216922 1372:2.7280393 1375:0.60859591 1393:2.9053497 1395:5.7933898 1406:2.2913136 1408:3.0771201 1409:1.3825483 1410:2.8107853 1411:4.8857021 1424:2.8378859 1428:0.70985585 1454:2.1118319 1465:0.80051303 1467:0.66454977 1471:0.21436882 1476:5.6919498 1484:9.5389128 1487:0.20149139 1488:4.4329901 1489:2.5100653 1502:2.4218357 1515:2.3533618 1520:2.9043653 1522:1.8285803 1526:0.89052236 1546:2.6128738 1552:1.0992128 1567:3.8008621 1568:2.177686 1577:2.2693136 1580:0.63993663 1586:7.0286999 1597:2.6828671 1604:2.0104957 1605:1.9887766 1610:1.6784201 1613:1.2437434 1617:1.0188205 1636:1.4815018 1647:5.9030724 1648:1.1488334 1658:1.4713037 1661:7.5444126 1663:2.5823476 1678:1.5276778 1683:0.023328066 1690:0.27305031 1691:6.9573054 1701:0.54926956 1712:1.4751309 1720:4.2394133 1728:1.1403799 1730:0.057042003 1732:4.1951714 1738:1.3493668 1746:4.4336171 1752:1.728115 1756:1.3851664 1758:2.8186212 1762:3.9964609 1767:0.43862218 1783:1.0235713 1786:0.37856638 1790:1.159569 1806:6.6945105 1813:5.7719316 1819:1.1461 1831:0.94259614 1832:3.5251639 1842:1.6227095 1845:1.1706061 1846:5.9225001 1849:4.2692456 1853:0.59571743 1854:6.119462 1860:3.2715223 1874:2.1283007 1880:3.5825367 1889:0.16861597 1893:2.0335855 1895:0.91680771 1900:2.3316319 1901:6.1060252 1905:1.8147562 1908:0.71876889 1911:3.2988052 1918:1.559023 1925:1.1307926 1928:2.4038792 1938:0.41451892 1942:1.5067984 1955:1.2454019 1959:0.050672889 1960:3.6330998 1966:3.4104393 1972:4.8400373 1977:1.3742476 1984:4.3214564 2004:0.72399336 2009:0.13222444 2022:0.25036469 2026:1.5319635 2035:3.7050412 2038:7.089766 2042:0.85151279 2053:5.0565295 2070:5.7986917 2081:1.5555646 2085:1.9505997 2094:2.8996959 2101:2.9152715 2102:1.4220577 2117:2.4898767 2135:1.5804694 2157:2.4902167 2164:2.4821634 2174:0.89850128 2177:3.142421 2186:0.79529542 2187:4.6597366 2188:0.82846379 2190:2.3895795 2199:0.35725194 2218:2.4880011 2226:2.7652159 2236:0.89931321 2241:3.7359219 2259:1.1078229 2261:1.7218503 2271:2.7619765 2274:3.7706919 2275:3.8493915 2280:0.72497338 2286:3.8084459 2294:2.1155894 2307:3.7726045 2312:3.5506895 2317:1.4860253 2318:2.9811018 2324:0.26345184 2329:5.0331202 2333:0.33074141 2338:2.8643901 2340:2.6207461 2343:4.4306245 2344:0.44862583 2353:1.0833253 2358:1.0876878 2360:2.6081171 2372:1.2578232 2376:0.40274709 2381:0.79478323 2404:0.16369358 2416:1.6824867 2420:0.28973716 2423:4.0531688 2424:3.345896 2434:4.3828578 2435:3.387325 2446:3.2905171 2459:0.58175617 2470:4.7764111 2485:1.3714942 2486:1.4058163 2494:1.4002024 2507:4.6311684 2509:0.32340407 2516:0.98735529 2520:1.3088338 2521:0.40449429 2523:1.6467696 2525:2.6447096 2526:0.98431218 2530:3.125854 2535:1.1131883 2551:4.9400525 2558:1.3491387 2560:0.56954515 2561:11.401814 2563:2.1619179 2568:3.4173939 2576:1.6538732 2577:2.7075756 2594:3.4239206 2599:1.0402037 2601:2.2469323 2603:0.36142981 2610:2.8087509 2611:2.5707178 2614:1.2005025 2621:4.5390925 2623:2.0623159 2628:0.045963332 2634:2.3991423 2636:2.6462958 2637:3.0641005 2642:3.0175939 2643:0.21744205 2659:1.8593123 2660:2.6992884 2667:2.6222553 2669:1.2862382 2670:0.81584561 2681:0.41789699 2690:4.1171865 2693:1.9944828 2695:0.018748052 2714:0.71436626 2718:2.6777391 2721:3.9402125 2745:3.3115072 2752:0.80294567 2760:3.0884812 2765:1.5879464 2766:4.4729557 2777:4.1714249 2784:0.32728758 2787:7.6494565 2788:1.5208553 2792:1.0746032 2805:0.81386214 2808:1.5914662 2812:1.1339386 2814:3.9081604 2817:0.84195614 2821:0.66660416 2824:1.6751866 2826:0.11729896 2834:4.8332682 2835:0.60871112 2836:2.1722076 2841:3.0009282 2842:0.72089577 2851:0.066054225 2856:0.67364025 2857:3.9621227 2864:0.18514711 2867:1.2651877 2874:2.1073658 2882:4.1062536 2885:0.72513402 2887:0.38186589 2891:2.0051658 2894:4.4681187 2896:4.0805073 2903:0.5988245 2910:2.9324598 2913:1.3042383 2916:0.092381954 2919:4.834013 2920:1.59108 2928:2.9870734 2934:1.8088287 2937:2.5130606 2945:4.3893266 2947:1.3195426 2949:3.3214474 2950:0.97771788 2957:3.7208331 2966:3.9451458 2971:1.1251233 2976:0.82909381 2978:1.0094552 2982:2.5354841 2990:0.12517747 2991:2.884764 2993:5.9238162 2997:0.69132155 3010:2.368717 3012:1.3703847 3021:4.4340425 3022:3.055645 3034:1.2259158 3035:0.061518557 3036:2.1712356 3043:1.7212067 3051:1.3683546 3052:3.2472036 3056:0.39619336 3062:3.1232405 3068:2.5739655 3070:1.5471346 3072:0.51139832 3073:3.3028932 3075:3.1055846 3079:0.025562152 3094:1.2344339 3105:0.42163724 3110:2.023561 3116:2.7850406 3119:2.3231146 3144:7.5937166 3146:3.2665138 3151:3.0507488 3160:0.15967244 3163:1.6098111 3183:2.980016 3184:1.1830531 3192:0.35943437 3195:1.5257298 3198:1.884882 3199:1.8509933 3215:5.7565384 3216:0.24955337 3233:0.77091241 3235:3.3263631 3241:1.333039 3246:5.53863 3252:0.92634678 3258:0.36094111 3260:2.2505884 3268:4.5936422 3269:0.23162338 3275:2.9515638 3276:0.25857314 3282:0.64821297 3284:0.33320183 3286:1.8065667 3291:3.0398824 3294:4.9590082 3310:0.24871403 3321:7.1732054 3323:3.7305198 3324:2.7281466 3331:3.1616642 3334:1.8129359 3335:0.83841312 3347:0.88267124 3349:5.7099462 3355:1.9067264 3365:0.28462353 3377:0.34789661 3382:6.1480646 3384:0.22913125 3396:0.54003763 3413:2.0373294 3415:2.540498 3422:1.0592642 3431:3.7615385 3436:0.99791574 3438:0.38119107 3442:3.6497071 3443:0.38896903 3445:7.074142 3446:2.1971226 3447:0.98944038 3452:4.2597642 3467:0.0032746196 3478:0.95137095 3489:1.1204585 3491:3.7193995 3493:2.2632847 3496:3.1479928 3509:0.17891264 3513:1.5529325 3521:0.69508862 3529:0.31418431 3534:0.37748626 3536:1.0636238 3537:2.3872964 3538:2.7234805 3539:4.2184 3540:3.3571815 3544:1.8317692 3548:0.053144068 3549:2.839678 3551:0.36682901 3555:1.2352113 3564:1.1502284 3570:0.19718283 3576:1.7683208 3578:2.8595996 3580:2.8031363 3582:2.5425158 3585:1.845173 3592:0.92232519 3593:1.6613646 3601:4.4814911 3602:3.1747918 3604:3.9557328 3606:2.9222167 3614:4.1141839 3618:0.8022691 3621:4.6372371 3624:1.4427997 3627:0.77442086 3631:3.4561064 3632:3.2965782 3633:0.031850338 3638:2.8277779 3650:0.93545228 3652:2.2543864 3667:1.9863632 3672:1.5625391 3675:0.82963812 3679:2.3747005 3680:0.66125798 3682:0.71389258 3687:2.9065146 3689:0.21669933 3690:1.1653318 3698:0.87600964 3699:0.27027345 3703:1.3858809 3712:2.3176808 3720:0.15760274 3729:4.0421371 3732:8.3101788 3734:1.7819023 3742:1.5334014 3747:0.98531431 3748:2.6113946 3749:1.5580518 3751:0.79720449 3756:2.340441 3765:1.9321282 3766:2.085114 3771:1.0248623 3774:0.32592809 3776:1.0085138 3777:3.2498107 3778:5.1835074 3785:2.3861682 3793:0.56328881 3806:1.2193946 3808:1.5237218 3811:3.6833708 3818:1.0435854 3819:3.3175597 3824:2.7719626 3826:2.7576764 3837:3.6596847 3844:1.8558192 3845:0.20818007 3848:0.38591617 3867:5.2998528 3872:5.3245306 3877:4.7029529 3880:1.1359582 3882:3.6190932 3891:3.3002536 3892:1.3418242 3893:1.8781035 3903:1.5123886 3907:6.2462525 3913:0.44787735 3915:0.0027459636 3918:2.8164499 3923:5.0466218 3929:2.4118042 3941:2.0006685 3957:3.2556531 3984:3.0649393 3988:1.8355281 3990:4.5258989 4000:0.027526617 4002:1.366503 4004:3.2484694 4005:3.9012549 4010:3.0699303 4016:1.1067882 4018:1.9291942 4020:0.27075523 4021:2.4014449 4030:6.3499207 4033:4.317843 4036:0.39550552 4038:1.8509758 4043:0.22584146 4055:0.052915931 4058:0.94347262 4063:4.8141732 4070:2.0874932 4072:1.2022121 4074:1.0111973 4076:2.9178531 4079:0.58655918 4084:2.4539812 
0.3283254909561173 4:0.27795124 9:5.780581 19:2.3131497 27:0.0061888397 40:2.8877904 43:0.33726731 44:0.21688071 49:3.3766077 54:4.5163956 66:4.3918738 68:0.087000906 77:2.690804 90:0.30476111 91:1.931978 109:1.7107663 115:0.28243849 125:1.0744081 126:0.41412866 128:0.45001227 131:0.42360893 147:4.449326 159:1.9366747 167:1.6901236 169:2.1101334 171:1.5126388 172:4.6409626 173:0.61099541 179:0.43085623 181:0.6615932 190:0.36582088 200:6.7131305 202:1.0523603 209:1.4054781 210:6.7224422 216:0.82853067 217:2.6766412 221:1.9605085 222:0.032421261 232:0.95735127 236:0.078908488 242:2.565707 243:1.0766903 247:7.6893845 248:4.8359294 252:2.3132496 256:2.0518193 263:0.044736326 274:0.71482909 276:0.54683578 282:0.49890387 288:0.98107028 292:4.1577182 297:1.8000811 300:4.3333673 312:1.4492867 319:0.95897686 321:0.085138828 324:3.9106605 329:1.5932871 334:0.20471255 335:0.63035214 340:0.12365434 348:1.0298753 349:7.9571962 350:1.771795 351:1.1938131 353:5.2253075 363:3.8536062 365:1.9150176 366:0.32609266 367:2.5785253 379:0.86400741 382:1.319711 384:1.8699076 390:2.7340589 391:2.0852594 396:2.1156716 404:1.3781955 416:0.54022563 420:0.6442883 425:0.27217525 431:4.2086082 451:1.4000342 456:1.2521663 466:1.649081 468:2.6828163 472:1.1213747 487:3.691092 488:1.9522674 493:0.17851442 498:2.0522592 500:1.0882592 504:1.2155771 514:2.1857016 515:3.5147619 524:0.26877451 528:1.2124655 529:2.8185868 532:0.018448025 538:3.3514071 539:2.7609651 545:3.5230751 559:0.89221716 562:0.87051153 567:3.681792 575:1.8108715 576:3.496088 578:4.6722784 583:2.7730894 584:0.19283359 592:4.9215069 593:1.4744755 601:2.9261155 606:1.9523984 609:1.176942 612:2.2004857 615:0.039699972 616:0.53079998 625:1.3644123 631:0.20731992 635:4.9677334 638:2.2314057 639:3.1661985 640:0.39703903 642:4.1115694 647:1.2131597 651:0.64946175 654:5.0947261 657:6.5799174 664:2.3548243 675:3.8216071 682:0.4863196 687:3.3549995 691:0.971843 692:0.83511835 701:1.1961335 705:2.1782119 711:3.2225738 721:3.8134754 723:2.3077445 724:3.9140582 726:1.0020163 748:0.30084768 749:5.8502035 750:0.087062359 751:3.2396307 755:2.4153042 763:1.4464296 764:0.44536284 773:2.4162121 777:0.88410568 782:3.0251713 785:1.6520575 789:0.27946758 792:2.7663615 795:0.074190676 798:2.5331171 801:1.1447624 804:4.2716112 812:3.0231681 820:3.4360228 826:0.72413957 830:2.0459139 838:0.49351317 841:2.6186354 842:4.4092221 853:0.56461543 854:2.5725987 857:3.2363131 866:0.91818625 868:0.072060704 873:4.8151913 876:1.6619138 883:0.006654799 885:0.41327685 887:0.12155661 889:3.3393283 899:2.4614906 905:1.3780191 908:1.9897722 909:0.13551717 912:3.9617004 915:0.56312847 916:5.431406 918:4.54211 919:4.7492857 922:1.7266095 927:1.4147744 928:3.4567442 931:1.6838961 932:0.032581061 937:0.096372835 943:3.6708803 945:0.73483324 953:1.9984361 958:0.88717437 961:0.27731842 965:4.4223237 971:1.3092891 974:4.5299778 976:4.1605453 994:0.58753288 1001:0.70550543 1002:0.755849 1004:5.088676 1014:1.4886857 1016:0.25110382 1022:1.5188682 1023:1.0885234 1024:0.64226997 1038:1.2356677 1041:0.95950538 1047:6.4384694 1049:2.3165388 1051:0.1475684 1054:0.098792925 1059:0.22757229 1060:1.4561703 1064:1.6095583 1070:2.4071651 1071:0.67754829 1078:0.56060445 1081:5.6673117 1091:0.63667864 1092:0.58864713 1095:4.5032358 1096:1.8058615 1102:0.16720283 1103:0.41637832 1117:1.9338589 1119:0.71524167 1125:0.85420358 1126:0.072656125 1130:3.8081579 1134:1.8523393 1135:0.24530813 1150:0.90678453 1154:0.29872128 1159:1.074688 1163:0.89322156 1165:1.0066359 1166:0.20793556 1168:1.22487 1170:6.1760464 1175:0.65491664 1185:0.14797068 1187:0.6346606 1188:3.4863696 1193:4.3481584 1199:1.6764902 1204:0.31922182 1206:1.356469 1219:2.2477407 1220:2.9245596 1221:6.3244615 1223:4.4445786 1234:0.85193616 1235:0.31410903 1237:0.91377378 1242:2.6491454 1251:0.80248171 1252:2.4050162 1260:0.77130699 1261:0.72833127 1271:1.8943173 1274:1.96132 1276:0.040460445 1278:3.3275747 1286:6.1838636 1288:0.29029885 1293:1.9247682 1297:0.95806813 1310:0.73757124 1313:0.24534154 1314:2.9644096 1317:2.859817 1319:0.77255684 1333:0.43285406 1336:3.3290586 1341:1.3330951 1342:0.2702328 1344:0.28486609 1349:3.4476185 1361:0.58320361 1366:3.3225887 1371:0.57178593 1372:4.3088894 1374:4.4618297 1375:0.21062237 1376:0.62277567 1381:0.2841368 1387:1.6469142 1392:0.62219709 1393:1.1535022 1395:3.2698812 1406:4.6453109 1408:1.5847986 1409:3.5468717 1410:2.159857 1411:4.8732166 1412:1.6467347 1419:2.1736238 1424:2.5428858 1428:3.5246527 1432:0.26786005 1437:2.051105 1448:0.37745398 1454:2.1054718 1465:0.69803125 1467:1.3560401 1468:0.10439369 1474:0.78670782 1476:5.347652 1483:2.3681302 1484:5.2126894 1487:0.067763507 1488:2.7606928 1489:0.97718728 1496:0.089458376 1502:2.7959223 1504:0.3420687 1511:0.16124222 1513:1.0896807 1515:1.8567989 1520:2.3204651 1522:0.96819091 1526:1.2584443 1544:0.92552829 1546:2.249038 1548:0.089464873 1565:1.1528478 1567:1.4741777 1568:3.204994 1569:0.2454114 1573:2.7325046 1577:1.7305479 1586:4.1196551 1588:0.97030079 1597:3.9842403 1604:4.9276509 1605:2.7310319 1610:0.20418811 1613:0.42091042 1618:0.033197522 1621:0.95055628 1629:0.59336615 1636:0.21758373 1647:5.1887226 1648:0.80518496 1658:0.73679709 1661:4.0741615 1663:2.4381986 1665:0.52086139 1667:1.3395231 1678:0.50946116 1683:1.7356761 1690:1.3088603 1691:4.6608381 1712:1.5749971 1714:0.44117364 1720:5.3852496 1726:1.0687315 1727:1.7731858 1728:3.309638 1730:2.0251112 1732:4.4936056 1733:0.54276294 1738:0.45461762 1746:0.64371336 1751:0.83141661 1752:1.0328064 1753:1.1658959 1754:0.22110403 1758:4.0785246 1762:2.6188579 1767:2.9209006 1778:1.013672 1783:0.95103717 1790:0.88265282 1804:0.3286671 1805:1.2243434 1806:5.1415653 1807:0.054017514 1813:3.5313342 1819:0.20277667 1831:1.3439894 1832:5.5967121 1842:1.4152756 1843:1.7527055 1845:0.4047094 1846:6.9807382 1849:1.5111327 1852:2.9057465 1854:2.0170176 1857:0.81736648 1874:1.6766887 1877:1.1326733 1879:0.73142076 1880:2.0062959 1883:1.5025553 1890:1.780242 1893:1.1192353 1895:3.2275393 1900:4.4489837 1901:6.3588071 1904:0.23109917 1905:0.25646633 1908:0.32340854 1911:3.5100751 1918:1.7680086 1925:2.0514638 1928:1.9614128 1937:1.205609 1938:0.73136973 1942:4.1464992 1943:1.377975 1955:0.96976388 1966:1.7115324 1972:0.25620368 1973:2.2460039 1977:2.8077195 1984:1.5547004 1988:0.81191921 1999:1.3971698 2004:1.2180092 2005:0.27057201 2022:0.83969682 2026:0.87748057 2030:1.3588622 2032:0.69448078 2035:0.1623354 2038:3.3362207 2042:0.51777911 2048:1.5546885 2053:2.8312359 2058:2.6847842 2070:5.7694941 2081:0.73640472 2085:2.852639 2097:0.52028 2101:0.1654239 2110:1.171561 2117:2.1860189 2139:0.36754602 2153:0.32571054 2162:0.42308891 2164:0.62565148 2166:1.8759408 2174:0.28595844 2177:6.438416 2178:3.1782751 2186:1.5510463 2187:4.4845209 2188:0.92981839 2189:1.0266161 2190:3.847774 2196:0.99444342 2223:0.33765614 2226:2.8073082 2229:0.86067164 2230:0.79834521 2231:0.49337649 2233:0.2597338 2239:0.34453839 2241:5.4583764 2244:2.1271176 2263:0.49993965 2273:0.3499805 2274:0.86298269 2275:0.49133986 2280:3.8796425 2286:1.8632845 2292:0.29572916 2294:3.1948857 2298:2.1441669 2307:2.4977729 2312:2.1908052 2314:0.19008034 2318:1.6077545 2320:0.30223686 2324:1.8202395 2327:0.17548567 2329:2.6146073 2340:3.7783661 2342:0.1906217 2343:4.1192336 2353:1.0675931 2358:2.5617347 2360:2.2848654 2372:1.2864866 2376:0.87617117 2381:0.95271325 2390:0.33033225 2404:0.551961 2416:1.9895867 2420:2.032516 2423:6.6027303 2424:0.15020245 2434:1.4121569 2435:6.2792029 2446:1.0527303 2450:1.3035978 2453:1.5113429 2457:1.5567768 2459:1.9572318 2466:0.40101016 2470:3.1224296 2471:0.71960461 2486:1.0999653 2497:0.021639392 2507:6.0926442 2508:3.514802 2509:0.90252298 2516:1.2590821 2518:1.8362126 2526:0.14569911 2530:0.0095245838 2536:0.004687313 2545:1.2430638 2551:0.6234647 2558:1.4154627 2560:1.300531 2561:8.4907675 2563:1.4925041 2576:0.0061226636 2588:0.73597729 2590:0.6813398 2594:3.3964431 2598:3.4045455 2599:0.64121139 2600:1.2413427 2610:4.2763052 2611:0.29369372 2621:3.6667213 2625:0.49971277 2628:1.7229037 2634:3.9925516 2636:4.2488079 2637:1.1774552 2642:2.0087552 2647:0.53582597 2654:2.9437368 2659:3.3341699 2660:0.35152453 2662:0.70375848 2667:2.2356224 2674:0.52403831 2687:0.56305122 2688:1.2867231 2689:1.5558871 2690:4.0400543 2693:2.0864449 2695:0.1957562 2704:0.1666292 2708:2.7212808 2715:0.15088908 2718:2.8348522 2721:1.2354009 2727:0.8387779 2736:0.23629341 2738:0.37900618 2745:0.0068166107 2754:0.15018404 2760:0.4375962 2765:0.34222072 2766:1.4907379 2775:1.2639019 2777:4.4724083 2784:0.58681411 2786:1.9839222 2787:2.9015808 2788:1.2142881 2792:1.6183947 2793:1.1404839 2800:2.5962598 2808:2.3077924 2814:2.6115482 2821:0.96343291 2824:0.75066209 2825:0.10494766 2826:0.87361193 2834:2.7711148 2835:1.7516499 2836:0.96780604 2838:1.6205207 2841:3.2829554 2842:1.06678 2843:0.44118181 2856:1.6353658 2857:4.7089558 2864:1.1457708 2867:0.92063046 2873:0.27582917 2874:0.07453841 2878:0.62950718 2879:0.35394406 2882:6.2178359 2891:3.7231624 2894:3.4813459 2896:1.7245475 2907:0.78117895 2910:2.7813065 2913:0.94561565 2917:0.27233028 2919:2.0423193 2928:2.7686744 2934:1.2337024 2937:1.2585557 2945:4.2740955 2947:0.88591981 2949:3.4896693 2950:1.5499502 2958:0.17378694 2966:3.3806281 2970:0.19575256 2971:2.9848974 2972:0.68298292 2976:1.0571578 2977:0.97778732 2978:0.8589462 2982:1.9749097 2985:0.31724226 2991:3.030395 2993:5.0198846 3012:0.88300693 3020:0.34039012 3021:5.521677 3022:0.23626491 3034:1.030352 3036:3.6245475 3043:2.201504 3048:0.10884092 3051:0.12023836 3052:0.55893719 3059:0.049744636 3062:0.5110954 3068:1.3640244 3070:2.1548941 3072:0.32713529 3073:3.788501 3075:1.7099938 3079:0.91380775 3085:1.4773828 3088:1.0600982 3094:1.9916948 3110:2.2989318 3111:0.33609542 3114:1.4713514 3116:0.13473494 3119:2.5538454 3124:1.7773968 3129:2.2203469 3144:3.0822179 3146:3.5695009 3148:1.0704365 3153:0.46215087 3154:1.2986057 3163:2.8196375 3170:2.1112516 3184:0.87201631 3192:1.2890737 3195:2.0705185 3198:0.50439227 3199:1.0117532 3202:1.6375817 3209:2.0535204 3215:7.8884325 3235:0.89640051 3258:4.4109917 3260:1.5034989 3267:0.13341781 3268:4.0820422 3276:0.68730509 3282:1.6112245 3284:1.251611 3286:0.7732085 3290:0.91456544 3291:2.3950579 3294:4.5832396 3296:0.91025198 3298:1.4684086 3310:1.9470054 3318:0.47083199 3321:7.1020393 3323:2.2018139 3324:1.2571393 3331:3.3692017 3334:0.29872322 3335:1.2961644 3344:2.070308 3347:1.9824073 3349:0.49767059 3364:0.52876705 3365:0.80452621 3377:0.34445634 3378:0.12502006 3382:2.2058144 3383:0.55631912 3384:0.29599082 3387:1.0258601 3394:1.3630248 3396:1.3510984 3397:1.8907424 3402:0.8188895 3407:0.81765282 3413:3.5814767 3415:0.069438994 3431:2.8820462 3436:3.4939547 3438:1.3718555 3442:3.9544058 3445:6.2295933 3446:4.3866434 3452:3.496129 3465:1.8893907 3467:0.68605518 3468:0.21066031 3478:0.30120903 3489:0.96724731 3491:2.5886633 3493:0.39655149 3494:2.4440298 3496:2.2142503 3504:0.69787353 3513:0.6072669 3517:0.57850361 3521:0.22518268 3525:0.27346599 3534:1.2185931 3537:1.6423949 3538:1.5615352 3539:2.8855937 3540:5.3487267 3543:1.8722522 3544:1.6475506 3548:0.66667569 3549:2.6243265 3555:0.56789362 3556:2.1037595 3563:0.41129509 3576:1.6882628 3577:1.0464292 3578:2.1100533 3580:2.3364391 3582:3.0131447 3585:2.4397295 3589:0.11790979 3593:0.72358757 3602:4.0906239 3604:2.9819145 3606:1.869488 3608:0.9030298 3614:2.9561317 3618:2.5620768 3621:1.8859252 3624:0.34495419 3626:1.3169823 3627:1.9679708 3629:0.25295389 3631:2.0532253 3632:3.0963717 3634:1.1005105 3638:0.77548921 3644:3.9252555 3650:3.9581437 3661:0.65889287 3667:1.2862751 3670:0.37356013 3672:1.2645042 3675:3.4237232 3680:0.44861525 3687:2.5387013 3689:1.3663068 3690:1.9953549 3692:0.054851353 3696:0.99582499 3697:0.62037659 3703:0.10100102 3705:0.14771791 3710:0.17660311 3712:0.18515489 3723:0.86362809 3724:0.059987962 3729:3.6210866 3732:7.2095013 3734:0.71842659 3741:0.18123329 3747:1.3227891 3748:1.9902301 3758:1.9139056 3763:0.31269404 3765:1.2516155 3766:0.33990484 3768:0.2514748 3769:0.86671168 3777:0.85026222 3778:2.8867357 3785:1.4191501 3793:2.628016 3802:0.10069557 3806:2.8094668 3808:1.1314908 3811:3.6743436 3812:1.098979 3819:2.7370529 3824:0.6731618 3826:2.2276046 3837:3.670639 3845:1.4857332 3855:0.051015377 3860:0.41226822 3867:5.4997029 3872:5.5830584 3877:1.6611552 3880:1.4313521 3882:3.7174776 3888:0.25165579 3891:1.0313021 3892:1.6773738 3893:1.9383061 3903:3.194412 3907:5.3718095 3910:1.1688656 3915:1.3732735 3918:0.27902272 3923:1.1844712 3929:0.11685941 3941:3.6035604 3942:0.83235204 3950:0.91651714 3957:2.9690962 3963:0.67777181 3974:1.0748239 3982:0.20277496 3984:1.8529304 3988:4.243906 3990:3.1692052 3995:0.52027464 4003:1.0140663 4004:3.0680585 4005:4.2326441 4010:2.9068868 4011:0.258488 4018:0.10466053 4020:0.15901819 4021:1.0818022 4024:0.044435292 4030:4.162837 4032:0.66195667 4033:4.1205392 4036:0.17237295 4037:0.27339801 4038:3.0807114 4058:1.8120706 4059:0.53568041 4063:1.4693395 4070:4.2725334 4074:0.58021462 4076:4.6566167 4077:1.5296184 4079:0.52827293 4080:0.51948845 4084:1.4733217 4093:0.22425169 4096:0.20722309 
1 4:0.93535054 9:4.1166186 12:2.0755904 20:4.3539381 27:1.9920434 29:1.2800736 34:0.94866771 39:0.78390032 43:1.5171603 44:0.099085718 45:2.3814156 54:0.01603806 60:0.053679734 66:0.80743384 68:1.7361712 77:0.37695551 80:0.9408558 109:0.97160697 120:0.79496306 147:2.0585568 150:0.73234892 152:1.6948742 161:1.0254881 163:5.3040681 169:0.55764991 178:2.1834931 180:5.0466237 190:3.8382711 197:1.0735457 200:0.79685998 204:0.2826612 210:6.7110782 211:0.60516846 217:6.4225855 218:1.7684804 221:1.9595639 223:1.5665059 232:4.2095957 238:0.78447688 239:0.27839023 241:1.9913301 243:1.4182551 246:0.032136574 252:0.21622118 259:0.21042565 263:0.55137384 267:5.4906597 288:2.0494132 308:0.39047107 311:0.83184099 312:3.4763393 317:0.88716036 318:2.3372407 320:0.82550502 323:0.056525696 324:1.2339034 335:1.9399745 342:1.0662066 349:4.0748172 350:2.0423818 353:4.9538922 363:0.86225182 365:1.1627645 378:0.93408853 379:2.7214699 384:0.073582768 391:0.76797175 411:0.22644956 426:1.004545 432:5.7520628 436:3.1599565 460:2.2286308 473:1.9175394 482:0.54859459 483:2.0738988 487:0.54063892 488:1.0161033 489:0.046573102 514:0.19386473 515:4.565599 517:3.3794136 518:0.12392113 527:5.6553011 529:2.4265399 547:0.1384114 553:1.0208931 557:0.24163833 567:0.20784235 570:3.3744528 576:4.8040094 578:3.3541229 583:1.7896167 592:4.9110398 593:1.7457403 601:1.835395 605:3.4168925 606:0.56388336 607:1.8443373 609:1.9109527 610:2.0456398 612:4.1479797 635:1.9979732 639:2.4649374 642:5.4684877 651:2.7574701 656:0.61725032 657:2.1629372 659:3.1450071 662:2.3288896 664:8.2051888 671:0.45578158 672:1.7286322 675:5.2183919 676:0.053023964 677:2.3532536 682:3.1220927 690:0.60494459 702:1.3599143 703:1.6880651 705:4.7995548 706:0.82381403 711:4.2560239 720:5.5172839 721:4.6537423 722:2.821908 723:7.1378617 724:6.3139205 726:2.1811142 735:6.1952491 742:2.8434308 749:8.9197063 751:0.67953324 753:0.16182539 754:1.5194185 755:3.4178963 766:6.2418246 773:3.2561088 774:0.18865879 777:0.87836975 782:2.3850598 789:4.0884585 796:0.55812085 798:2.4693508 804:3.0815873 820:2.5700145 826:2.6275494 841:3.5027301 842:5.8145933 853:0.31437874 857:1.1984318 861:1.3635557 867:0.60857445 868:7.8825431 869:2.1789515 873:2.5879941 876:5.1312513 878:3.6670818 895:0.29916626 904:0.38736033 912:4.8982782 916:3.1240616 918:3.4863493 928:0.60972649 938:0.86420691 944:0.35856482 945:1.6797326 958:2.926137 965:5.4586587 966:1.3882859 967:4.9068036 971:2.5273805 974:0.068168402 992:0.042585388 997:0.57563514 1001:0.07667464 1002:0.51441616 1004:0.10707262 1013:0.18144882 1014:0.62173665 1018:5.1603284 1019:2.2782397 1022:0.93845564 1023:3.2651963 1029:0.21909675 1041:0.96377265 1047:4.3357921 1050:1.2089075 1064:0.40960696 1078:0.60335708 1080:2.6687808 1087:2.9023695 1092:0.99592996 1094:2.0760396 1095:0.89235121 1096:9.3814459 1099:0.68981886 1102:5.3701611 1107:0.25385395 1111:0.21159163 1124:0.063905746 1126:0.29014125 1134:0.59220135 1139:2.4680405 1140:1.4352963 1159:1.7594006 1165:2.1144094 1170:7.9608169 1176:4.0948534 1181:2.9984701 1182:0.92226422 1188:6.130569 1189:2.7830489 1192:1.3338226 1206:1.6516947 1217:0.80361497 1219:2.7253807 1220:0.8726353 1221:3.2261629 1223:4.1616974 1242:2.3319492 1250:7.064837 1252:1.1601542 1253:1.9839902 1269:1.705271 1282:1.0649678 1288:1.8228199 1309:4.8759608 1313:1.7529855 1320:0.62651789 1325:3.6239583 1343:1.4328711 1344:0.15956707 1349:1.0145366 1352:0.20458719 1356:1.6958196 1359:4.1427736 1361:1.3590701 1365:0.21059293 1366:0.32315817 1372:1.7219098 1373:0.46819013 1376:1.5216835 1379:0.46812582 1385:0.80081099 1387:2.8394964 1393:3.968298 1395:2.6730878 1406:3.1017089 1410:3.6962738 1411:0.19931272 1419:5.0440321 1420:1.1918626 1421:0.9274255 1424:2.8934927 1429:0.21113488 1430:0.42368445 1433:2.1576722 1435:2.9073806 1441:3.1707699 1444:5.5594273 1458:2.5678663 1463:0.63939679 1470:5.2499461 1471:0.45757669 1484:1.6438562 1487:1.6561543 1488:1.5221474 1495:0.54657757 1496:1.184516 1502:1.3670609 1515:4.5371723 1516:0.3033126 1522:1.2935414 1526:0.37594754 1560:2.321279 1562:0.59435475 1567:0.71130532 1568:4.3681984 1577:0.038600475 1582:5.5860763 1583:2.8522828 1586:3.0629468 1587:1.844313 1588:1.2196751 1590:3.6269467 1604:3.3163261 1605:0.53533888 1613:1.6366663 1622:2.3155034 1624:1.8309402 1629:1.6670338 1636:2.8150058 1637:3.9854519 1650:0.59848404 1652:1.3050247 1658:3.172338 1659:3.7614467 1661:5.8966331 1663:5.8412862 1668:1.2974944 1669:1.7454304 1672:1.8102459 1675:1.3212255 1677:6.0139189 1678:4.037837 1680:1.1912155 1695:0.70733356 1701:0.63354075 1705:6.3903346 1712:3.3069735 1714:3.2407737 1717:0.46511072 1720:4.7733297 1727:1.7934462 1730:3.7860856 1744:0.09971492 1745:0.065114379 1752:0.82152218 1753:0.6070683 1756:1.1091981 1758:6.2921772 1762:6.7551703 1764:1.0143198 1765:2.4429507 1766:2.7086732 1772:1.3905683 1773:0.57042634 1774:0.84762353 1790:0.21855509 1794:1.915735 1796:0.70120656 1799:2.7643301 1804:1.3533294 1806:4.9849997 1808:0.63067305 1812:0.86323041 1814:1.3832881 1822:2.9749455 1830:0.71901608 1832:4.5472035 1842:1.5073981 1843:0.076812297 1846:2.7354913 1849:0.60602301 1850:0.6047104 1852:0.62445605 1856:0.68436599 1870:0.62525308 1872:2.1174238 1874:3.1863756 1881:4.1824098 1890:0.54115957 1895:1.3788898 1896:4.1636114 1898:0.78816438 1901:4.5183558 1904:3.578547 1908:0.84015888 1911:1.0446554 1912:0.49390629 1918:3.0586872 1925:2.2834818 1926:0.71730494 1938:2.6113739 1942:0.13348535 1943:2.9293268 1959:3.8891172 1966:1.7096733 1968:2.6088376 1972:4.5746574 1988:2.9567587 1990:0.63591802 1997:1.3795209 1998:0.20922245 2004:0.0054206252 2005:3.1687467 2006:1.4780943 2011:1.788819 2013:1.2245903 2017:3.8120148 2020:2.2926283 2022:7.1872249 2030:3.0952997 2032:3.3743334 2033:0.013582766 2042:0.90042579 2049:1.9545771 2053:0.43007323 2058:2.1848702 2085:2.5530784 2094:0.53032386 2097:1.1109297 2100:1.6647596 2101:0.31521618 2105:4.2114415 2107:1.4559637 2114:1.0209546 2117:1.1309918 2120:2.2700465 2125:0.40928411 2140:1.5167409 2155:3.5865257 2157:0.49513733 2159:2.3861215 2160:0.91189021 2166:2.7286053 2177:1.0362616 2179:0.11386228 2186:2.3954718 2187:4.499855 2188:2.9659681 2189:0.22743626 2194:0.64230376 2202:0.63896739 2203:1.1424475 2214:0.82255989 2223:2.9101384 2229:0.23077124 2230:1.078124 2239:0.27726695 2241:2.0306189 2250:1.6993631 2257:1.3100245 2263:0.88753593 2264:3.7343061 2265:0.61542821 2267:4.870585 2270:2.2415957 2274:1.6716346 2275:1.2978799 2281:2.4996238 2286:1.1345204 2297:0.20721151 2298:4.0136776 2307:3.5753491 2313:0.097537905 2318:0.045264184 2320:0.77091384 2322:1.5370017 2324:1.1239722 2329:0.57887459 2333:0.05753237 2337:0.40954942 2348:0.88560128 2353:1.0624448 2358:0.15912597 2360:2.3237305 2369:0.45718783 2381:2.3302474 2392:1.2200389 2393:2.6742773 2404:1.3891381 2405:1.169203 2406:0.76757646 2416:1.7649881 2420:4.1533136 2423:5.9999642 2425:1.4810899 2431:2.1009841 2432:0.89814645 2435:3.5639956 2436:0.99166358 2441:1.7963706 2446:2.2025096 2452:1.2065635 2459:0.66466933 2470:1.3079083 2471:5.2349095 2488:1.204986 2501:0.38095248 2507:5.1371326 2508:3.1669877 2520:2.1713605 2525:1.0076114 2528:0.5106746 2552:0.89029735 2561:3.2816663 2568:3.1019378 2570:4.0254688 2575:0.71820831 2576:0.64617324 2589:1.0315654 2591:0.91387498 2595:0.55318022 2601:0.057724446 2611:1.264359 2614:1.3073686 2620:0.61989582 2621:4.8507991 2625:3.2070608 2634:1.8106546 2636:2.2887876 2637:7.529016 2639:0.10323292 2643:3.9917369 2652:2.2325001 2667:2.2542849 2669:4.1605563 2672:1.6001503 2676:3.6015394 2687:0.50981188 2688:3.4605079 2689:1.3986509 2690:1.8202046 2693:1.6446102 2714:2.4358356 2715:4.1860781 2718:3.3264625 2723:1.2264899 2731:0.037807558 2736:2.9802425 2745:3.7678502 2752:4.2246447 2756:3.4679875 2765:2.926343 2766:7.5512266 2768:0.54633713 2771:1.0157007 2777:5.1461849 2778:3.0604403 2787:4.737566 2790:0.87114483 2792:3.1956775 2795:1.1091297 2800:1.2105858 2805:2.44414 2807:0.14459959 2808:1.4756476 2812:0.40151101 2814:2.4670503 2821:3.9814069 2826:2.0512552 2831:3.4025521 2840:1.0797973 2842:3.0637655 2843:1.2906209 2856:1.0995058 2857:2.2066903 2864:2.0006471 2866:0.5424422 2867:0.13869187 2870:3.8250253 2873:0.39149195 2875:2.3474743 2882:5.1931095 2885:0.7396217 2888:0.6094749 2892:0.91912502 2896:1.0536991 2917:2.1986165 2919:4.9267211 2927:0.71196008 2928:0.18964171 2932:2.2116315 2937:0.69877934 2950:1.8939428 2951:0.2734679 2957:3.7916288 2964:1.421664 2966:1.96878 2971:2.5776026 2977:1.5465752 2978:6.8155794 2982:1.9352069 2993:3.4367354 3010:0.74840546 3020:5.9565783 3021:3.7559211 3034:2.7012286 3035:5.4701629 3047:1.2124648 3065:0.47784325 3070:4.0985928 3075:2.5599759 3078:0.65775335 3094:3.6013386 3110:2.5613849 3120:2.1273692 3124:1.6955359 3132:0.25229269 3133:2.1260464 3144:2.2898312 3146:1.4011354 3152:4.627305 3154:4.2049122 3162:3.4315178 3164:0.15507481 3174:2.7038803 3179:5.6408272 3182:1.977056 3183:3.0127957 3198:2.477294 3200:0.4407407 3226:0.11969489 3233:3.1349671 3238:0.71755856 3246:1.913434 3249:1.7781211 3256:2.4739332 3260:1.0791309 3267:4.566925 3268:0.7563535 3276:0.43027955 3285:0.79968023 3291:2.7485697 3293:0.66224408 3294:5.830029 3298:3.0225582 3299:2.2879243 3302:1.7471437 3310:3.9788744 3321:4.8013062 3323:2.6887302 3325:0.88377535 3334:6.0616574 3344:1.5015649 3348:2.7735562 3349:4.8077607 3355:4.7687716 3356:1.8009567 3358:1.6522427 3373:0.17849043 3377:5.2041063 3388:2.6693711 3390:1.4090149 3395:0.6691947 3397:3.1468945 3401:1.5988573 3413:2.4927785 3415:0.27613544 3418:0.015686572 3437:2.2699142 3438:2.1049082 3442:4.0926723 3446:6.1002002 3457:1.298571 3458:0.32178611 3468:1.32739 3478:0.72826797 3491:8.3629189 3493:0.030086279 3494:3.2647195 3496:5.8214607 3497:0.0044879913 3504:0.21723843 3505:0.1445924 3508:0.10226357 3513:0.18685994 3517:0.99162805 3521:2.3417189 3531:1.6616628 3534:1.3215115 3537:0.025766134 3538:1.8323121 3540:2.250144 3544:4.9094944 3548:0.18991607 3564:0.66693544 3569:4.1918559 3576:3.3000579 3582:8.1726665 3586:1.8120487 3602:1.3303187 3604:10.160491 3606:1.0316371 3608:5.663137 3614:7.8617411 3615:0.045148641 3621:1.1282004 3624:2.3747573 3627:7.5195236 3632:1.6820768 3638:0.59446919 3644:2.4856575 3650:3.572119 3661:0.44271791 3665:3.2509005 3689:0.22455601 3690:0.57223862 3697:0.027984142 3712:1.1881862 3715:0.4178918 3719:2.9831064 3723:1.4935703 3724:0.0066924989 3732:4.9955416 3734:2.254498 3749:1.1145573 3752:4.0601382 3756:0.2867083 3757:5.3477039 3766:4.1074719 3774:2.1474538 3775:1.4249313 3778:0.20734981 3783:0.026020616 3785:2.0488262 3793:4.8472552 3802:0.36144036 3803:0.054584414 3806:7.0009575 3808:4.7670164 3811:1.4011335 3815:4.4747953 3818:0.6058042 3824:4.9013963 3826:0.29509607 3835:0.64198864 3836:2.5177677 3837:0.28725675 3848:0.63658512 3860:1.4149275 3862:0.64600241 3864:1.5733628 3867:4.1781712 3871:1.3046674 3872:1.2303654 3881:2.2301464 3885:2.3262501 3888:2.8297584 3891:4.3230271 3892:0.07408908 3893:6.5802794 3903:0.13541839 3907:12.08146 3910:0.63360643 3923:1.3715383 3941:0.6968891 3948:4.2365403 3950:0.98900688 3952:1.1147095 3955:0.13037392 3957:2.837507 3963:4.1700716 3972:2.1857114 3982:0.61942619 3988:3.7081444 3990:2.459703 4000:2.4779596 4002:0.78800821 4003:1.9544457 4004:3.6992211 4005:2.1305652 4011:0.36370033 4013:0.33727211 4016:1.7835815 4018:2.8148432 4021:7.6595697 4030:0.53470862 4032:0.15953103 4050:0.76449049 4051:0.021051884 4063:4.0549016 4067:0.56406993 4070:1.617619 4076:3.8620973 4085:0.68922675 4088:0.013973564 
0.568949699578707 9:2.8826168 27:1.1747715 39:0.41267568 40:0.054670211 54:0.44310623 60:0.14178258 66:0.90889192 68:2.6914461 77:0.96735424 78:1.0079825 94:0.41151291 100:0.3209154 109:0.65458858 122:0.47461891 126:0.40054381 131:0.7363795 147:3.7093525 154:0.54513782 159:1.7668211 163:2.6901016 167:2.0646734 169:0.67232537 171:0.63971293 172:4.2733889 173:0.99470592 180:0.09785179 181:2.0646744 184:0.61401689 190:5.756815 196:1.8451357 197:0.14708953 200:2.3471229 202:0.49766943 210:7.4129858 211:0.33817753 217:4.7262902 218:0.97337043 234:0.58232999 239:1.4055753 241:1.3349222 242:0.24297601 247:1.702198 258:0.80714935 267:0.2957876 268:0.11438082 271:0.18251401 288:1.4867787 297:2.1239367 299:0.0080772042 307:0.57730764 308:1.3478788 312:6.9933834 318:1.5414615 323:0.44137192 324:0.67224109 335:2.3504891 348:1.0859855 349:3.1933978 350:0.26546568 353:5.3810873 365:1.9827542 367:1.0824957 378:0.40027297 384:0.17706567 390:2.5099177 391:2.2219982 397:0.8152858 412:2.5041933 416:0.28984711 420:1.0130517 426:1.0240173 431:1.2068938 432:1.6407144 434:1.3633255 436:2.6924295 442:3.4721041 450:2.1640344 456:0.90963608 460:2.6389825 468:1.3216689 473:1.6705515 484:2.505414 485:0.53688747 496:0.50879937 511:0.40914398 514:1.2469651 515:1.3297775 527:4.722167 538:1.826702 545:0.17479302 553:2.292479 555:0.51258361 559:1.1481849 567:0.42922038 570:2.546762 572:2.4296999 575:2.5513339 576:0.032658152 578:2.2684171 583:2.324883 592:2.2325103 593:0.48187897 594:2.9485199 601:1.0301682 605:1.776064 606:1.4172392 610:0.74561763 612:5.9013371 631:0.19287398 635:2.6233087 639:1.0512813 641:0.85604858 642:3.5572317 653:3.5939338 654:1.8668923 657:3.1938438 662:2.2257345 664:4.1353426 667:0.26077631 671:1.4531159 672:2.6338329 675:3.4314308 677:1.1699252 682:4.0096278 687:1.5024272 701:0.33786964 703:1.8783615 705:5.4338818 706:0.21526921 711:3.8920238 717:1.1737136 720:2.1108849 721:3.6353595 722:0.18683663 723:2.784992 724:1.2954752 725:0.21763515 726:0.17621736 728:0.66866571 731:0.51604855 749:5.4168205 751:0.69410533 755:5.592773 766:0.99691093 773:0.26529557 777:2.7862656 785:0.33472967 788:2.2985539 789:0.42567307 795:1.8681309 803:1.4613636 804:2.4819348 811:0.0034313947 812:1.5738382 820:2.5451326 826:1.9947088 839:1.108709 841:4.0938272 842:2.280961 857:0.48384812 866:1.0226867 868:1.6214924 873:1.9613948 876:0.042298466 889:0.16611326 899:0.91911608 902:0.40327257 905:0.38880369 912:3.6543708 916:2.5957072 918:0.66181517 919:0.34915963 922:2.1828351 928:2.3629093 937:0.39056775 943:3.0849347 945:2.3037627 947:2.1001508 958:3.5589585 965:2.6464796 971:1.2392207 989:1.2534634 992:1.0836213 997:1.515247 1004:2.427232 1014:1.0445255 1018:1.5312111 1021:0.6834085 1023:2.8331733 1047:3.6905956 1065:0.31824386 1071:0.76555461 1074:0.30749375 1080:0.78583795 1081:0.23210019 1096:7.7170978 1099:2.1480041 1102:3.306325 1103:0.64644229 1139:0.15241593 1150:1.4130849 1159:0.33873141 1165:1.9933387 1168:0.012731731 1169:1.8022507 1170:7.5844069 1175:2.5326204 1176:0.26884931 1182:0.26143917 1188:6.0238695 1191:0.077437848 1192:1.7685347 1206:3.640646 1208:0.61068135 1216:0.58217001 1217:2.0936329 1219:3.7282944 1220:3.5688176 1221:1.9587755 1223:1.1516898 1236:2.3227832 1237:1.2660115 1242:4.3689742 1250:0.52898937 1264:0.87864351 1269:0.6318621 1274:2.1578555 1278:2.562705 1279:2.6883941 1282:0.024304837 1286:2.263581 1288:1.2714932 1297:0.62933159 1299:1.3601434 1306:0.49981651 1313:0.81006157 1314:1.0592269 1319:0.63514233 1325:0.23342538 1336:2.7550807 1341:2.2002766 1342:0.62090409 1349:0.19984402 1359:1.1379418 1361:0.97269219 1365:2.1966305 1368:2.5513806 1386:0.51304972 1387:6.1619673 1391:0.16979001 1393:0.7847923 1395:0.82886028 1397:0.59849012 1409:1.0731262 1410:1.3346496 1411:3.9782176 1419:3.4841454 1424:2.5221663 1428:1.3077798 1430:3.3654988 1433:5.5787787 1435:0.54817671 1441:2.2173374 1444:0.95202452 1463:0.27025771 1465:0.61028415 1467:1.2175248 1470:2.6819811 1475:2.8393335 1476:2.793107 1483:0.11298534 1484:1.247442 1502:0.55712879 1513:2.6215322 1515:4.319531 1520:2.7921889 1526:1.2737268 1546:2.3367877 1556:1.9063127 1560:3.2171595 1562:0.45334005 1568:1.6941497 1577:0.58888924 1582:4.6176004 1586:0.73598444 1587:2.6641264 1590:0.34863538 1597:4.2917104 1604:1.5145061 1605:0.15951321 1613:1.9817009 1622:1.640393 1624:2.4001567 1636:1.0659783 1653:2.6243343 1659:3.1328564 1661:4.8683395 1663:0.96857715 1665:0.96517831 1670:1.2068288 1672:1.8882657 1677:0.6288451 1678:6.8603082 1680:0.18617606 1695:2.2160563 1696:2.9379292 1697:0.16255917 1705:1.9050078 1712:2.2448237 1720:4.9450707 1726:1.0281729 1727:2.027307 1730:0.42077819 1733:0.20492978 1746:1.8779207 1752:1.2247322 1753:2.5976009 1758:8.6867695 1762:4.4262328 1767:0.059799924 1780:0.43966356 1788:0.14478093 1790:3.5792756 1794:0.8868382 1799:1.0804297 1804:2.2150643 1806:6.0800238 1811:1.5390582 1812:0.53323686 1813:3.3083892 1815:0.083265424 1822:1.7047784 1824:2.1219959 1825:0.83283246 1832:5.910027 1833:2.0239687 1843:0.59030044 1846:6.377131 1848:1.1909852 1849:1.3520203 1854:0.40926617 1856:0.28561616 1870:0.65067375 1881:2.733603 1890:1.169247 1896:1.3703965 1901:4.0158195 1904:1.9898374 1911:0.18205172 1912:0.2470977 1925:1.2018871 1938:5.9198389 1942:0.6667999 1943:3.76721 1959:1.0943623 1966:0.40067157 1968:1.9863971 1972:6.6217418 1988:0.13776597 1990:3.1751769 2005:0.16194424 2006:0.2493265 2011:0.61269498 2016:0.38623315 2020:2.0879536 2022:3.4258876 2030:1.2268742 2039:0.22368737 2042:0.41856778 2043:0.2893455 2048:2.5651381 2058:2.8981874 2075:0.79340667 2094:4.0528173 2100:0.86382586 2101:1.5791638 2102:3.6724269 2110:1.3799078 2117:4.3421793 2125:1.4664507 2137:0.58039486 2140:0.1641511 2159:1.5174071 2160:1.3491001 2166:0.70297575 2179:2.1485524 2186:3.8373649 2187:3.1325791 2188:0.29276019 2189:3.5675111 2190:0.42471248 2198:0.85911375 2202:2.1891325 2203:1.2792382 2214:2.7356887 2218:1.1755434 2223:2.0000801 2230:0.56236583 2239:2.2882645 2241:1.3077021 2255:2.58444 2257:1.0973556 2267:0.48151052 2271:1.1402445 2273:0.8169136 2274:2.8433661 2275:1.1256793 2286:1.0286484 2294:0.50079322 2297:0.2888338 2298:0.74036407 2305:2.672802 2307:2.7863991 2311:0.64599538 2313:0.098057359 2314:0.32271048 2322:0.19572763 2324:4.3046656 2329:1.5777181 2337:2.1469352 2343:3.9082429 2348:3.1634746 2360:1.7473358 2381:0.19990689 2383:1.6725668 2390:0.26199022 2392:1.9567385 2393:3.2834899 2410:0.66648483 2413:1.3714842 2416:2.1937563 2420:0.088013768 2423:1.6371424 2432:1.3880206 2434:1.7072755 2435:3.118242 2436:0.34574622 2446:1.4668617 2452:1.1092086 2457:0.29748353 2459:0.85935682 2470:1.8266435 2471:1.9464875 2486:0.92891681 2487:0.019615859 2488:1.265548 2501:0.038024202 2507:5.2576389 2508:2.8347054 2514:0.10696176 2520:2.7683253 2526:2.4743452 2528:0.53622967 2531:1.1980128 2535:0.82428002 2554:0.72508317 2560:0.4221988 2561:2.9442635 2562:1.3181938 2563:2.424155 2568:1.6231915 2570:1.2168001 2574:1.1173038 2589:1.3495851 2594:0.33990031 2601:1.3351257 2604:0.65595484 2610:0.90294456 2611:0.28605127 2621:2.523113 2625:3.7872658 2634:2.5498981 2636:1.7311645 2637:6.7247491 2642:1.9648027 2646:1.0669252 2664:0.92528307 2667:3.5437918 2669:2.8387196 2672:2.1111867 2674:2.8266704 2676:0.4827987 2678:0.057348639 2687:0.50311059 2688:3.9087059 2690:4.2933397 2693:1.5977159 2708:0.80096799 2715:1.8580372 2721:0.13611144 2723:2.8520257 2736:1.9201953 2745:3.778244 2746:0.78118175 2752:3.137886 2759:0.7138201 2765:2.0341101 2766:4.3566084 2778:0.62354022 2787:4.1842403 2792:2.8452997 2795:0.17508933 2800:3.4569662 2802:0.090878397 2805:0.080848262 2807:0.52033055 2808:0.037532348 2812:0.28804895 2814:2.3964398 2821:0.69352937 2826:1.3866252 2831:1.631536 2834:2.0912609 2835:1.2053521 2838:0.75575244 2841:0.96840107 2842:5.1934729 2843:0.037654787 2857:1.7405311 2864:1.113133 2873:0.96187907 2879:0.24074847 2882:4.6520925 2896:0.70128274 2919:1.0519465 2928:1.71741 2932:2.1404779 2934:0.20684385 2945:0.66877222 2949:0.68351704 2950:1.8028276 2951:0.51088184 2957:2.4160593 2958:0.09119609 2966:3.7180493 2967:4.5081596 2971:1.9958258 2978:3.054846 2982:3.5951793 2993:3.1698105 2997:1.392118 3010:0.65388477 3020:1.7253209 3032:0.2445678 3035:3.8840599 3036:3.5359769 3051:2.4655147 3052:0.46439356 3059:2.5322399 3062:1.4045426 3070:2.5374241 3073:3.6030574 3075:2.8617053 3078:0.69334447 3085:1.1713659 3094:2.8249896 3110:0.9167428 3111:1.5933915 3124:0.35203499 3129:0.69316554 3130:0.009958148 3144:4.2603102 3145:1.760633 3152:5.0026512 3154:2.4101093 3162:1.4043915 3163:2.1715043 3172:1.6765127 3174:2.950562 3182:3.0783279 3183:1.7718905 3185:0.88256091 3198:2.615849 3215:1.6651325 3228:2.2457278 3233:3.5229075 3235:0.33308738 3237:0.65532619 3249:0.48856458 3253:2.8854294 3256:1.5025538 3258:1.5524119 3260:2.0856907 3276:1.0885428 3282:1.6224799 3285:0.15294871 3287:1.5301504 3291:1.7885647 3293:0.30870831 3294:2.2614996 3298:3.5781183 3302:1.5829214 3310:3.4777157 3321:3.1794066 3323:3.8577254 3324:1.687142 3333:0.88593292 3334:5.3860846 3344:0.069636375 3348:2.4785779 3349:3.5956531 3355:1.881758 3358:0.25241476 3359:0.33815446 3361:1.0991201 3373:1.2451408 3377:2.0653086 3388:3.1414661 3390:4.6865377 3394:1.2611949 3395:1.9257832 3397:2.2702465 3436:1.066678 3437:1.3579671 3438:2.6747904 3442:2.3780391 3445:0.82426023 3446:2.8211193 3448:0.53592706 3452:0.12451257 3457:0.63469601 3475:3.4127481 3491:5.2131834 3494:6.9751339 3496:3.810632 3504:0.70942897 3513:1.1635382 3537:2.5726655 3539:0.89855802 3540:1.8762124 3544:3.0506287 3548:0.64800864 3549:3.0193884 3564:1.7256939 3569:2.2227559 3576:2.3356481 3582:7.4428253 3585:0.34906349 3602:1.3674915 3604:3.4293926 3608:6.772964 3614:4.7335219 3617:2.0424125 3624:0.72081792 3626:1.2741555 3627:6.2793298 3629:1.5927732 3631:1.639714 3632:0.44047108 3644:4.0515213 3650:3.091913 3665:0.78316188 3670:0.67890358 3672:0.93177974 3689:1.0977895 3690:2.8479667 3697:1.4417765 3712:0.068465501 3719:3.4074171 3724:0.91847712 3729:0.75020266 3732:5.0462637 3734:0.26981321 3748:0.76037729 3752:3.0211043 3756:0.49194553 3760:0.16749604 3766:1.0935961 3768:1.9515721 3771:2.1628776 3777:0.15439466 3778:2.5762622 3785:0.71887231 3789:2.373596 3793:5.1167455 3795:1.201331 3797:0.22032881 3802:2.1687918 3806:0.58445966 3808:2.3265851 3811:3.2232082 3815:0.27727306 3824:3.841291 3826:0.2803961 3836:0.14178941 3837:1.7154254 3848:1.7339032 3860:2.7483246 3864:0.28014809 3867:2.549001 3871:3.4447989 3872:3.9292653 3881:0.53466129 3885:0.93065715 3888:0.043482512 3891:0.021992713 3892:2.0411918 3893:1.9037666 3895:0.41265538 3903:1.5376085 3905:1.3645303 3907:6.8140483 3910:0.69576079 3918:0.69626749 3919:0.13135576 3929:1.1002431 3957:2.4225781 3972:2.5476632 3974:0.96401948 3981:0.075896651 3984:0.5818634 3988:2.1939917 3990:2.8521295 4002:0.88415653 4003:1.0552583 4005:3.0470788 4013:0.47409463 4016:0.17974105 4018:1.1272264 4021:6.6057844 4032:1.9647372 4041:0.24874116 4058:1.3535522 4063:1.921543 4070:2.5972121 4074:0.33618391 4085:1.6053729 4088:0.7233547 4089:2.467087 4090:1.7729223 4091:3.109432 
